{"params":{"desired_samples":16000,"window_size_samples":480,"window_stride_samples":160,"spectrogram_length":100,"fingerprint_width":2,"fingerprint_size":3920,"label_count":12,"sample_rate":16000,"preprocess":"mfcc","average_window_width":-1,"in_repeat":1,"data_url":"https:\/\/storage.googleapis.com\/download.tensorflow.org\/data\/speech_commands_v0.02.tar.gz","data_dir":"\/cluster\/scratch\/jubueche\/ecg_recordings","background_volume":0.1,"background_frequency":0.8,"silence_percentage":10.0,"unknown_percentage":10.0,"time_shift_ms":100.0,"seed":0,"testing_percentage":10,"validation_percentage":10,"clip_duration_ms":1000,"window_size_ms":30.0,"window_stride_ms":10.0,"feature_bin_count":40,"n_epochs":"32,8","eval_step_interval":400,"learning_rate":"0.001,0.0001","batch_size":100,"summaries_dir":"results\/retrain_logs","wanted_words":"yes,no,up,down,left,right,on,off,stop,go","train_dir":"results\/speech_commands_train","save_step_interval":1000,"start_checkpoint":"","model_architecture":"lsnn_ecg","check_nans":false,"quantize":false,"n_hidden":256,"n_layer":1,"dropout_prob":0.0,"print_every":10,"reg":0.001,"n_lif_frac":0.0,"beta":2.0,"tau_adaptation":98.0,"comment":"","n_thr_spikes":-1,"dampening_factor":0.3,"dt":1.0,"Kernels":[[64,1,4,4],[64,64,4,4]],"Dense":[[1600,256],[256,64],[64,10]],"thr":0.01,"thr_min":0.005,"tau":20.0,"refr":2,"n_delay":0,"random_eprop":false,"eprop":false,"avg_spikes":true,"beta_lipschitzness":1.0,"num_attack_steps":10,"attack_epsilon":2.0,"relative_epsilon":true,"initial_std":0.001,"relative_initial_std":true,"session_id":1075546553,"db":"final","verbosity":20,"optimizer":"adam","start_time":1606238658482},"rng_key":[2185830676,2913196124],"theta":{"W_in":[[-0.019241223111748695,0.05784798786044121,-0.06645754724740982,-0.21690623462200165,0.09825842082500458,0.1615845263004303,-0.04598625749349594,0.06251432746648788,0.21226191520690918,-0.07784398645162582,0.05319835618138313,-0.2031320482492447,-0.08132784813642502,-0.18863776326179504,-0.14501240849494934,0.02688874676823616,0.0819588378071785,-0.14422307908535004,0.13686984777450562,0.040595296770334244,0.005507475230842829,-0.06406667828559875,-0.029181459918618202,-0.1209821030497551,0.09318943321704865,0.09516606479883194,-0.07216933369636536,-0.024024341255426407,-0.06995659321546555,-0.039838358759880066,0.00888181384652853,0.12052740156650543,0.004736945033073425,0.08814826607704163,0.09897388517856598,-0.21530820429325104,-0.07279574871063232,-0.0395282581448555,0.09110360592603683,-0.0886559709906578,-0.09638992697000504,0.047876060009002686,0.04107065871357918,0.024611173197627068,0.029442114755511284,-0.07002438604831696,0.03546833619475365,0.009663720615208149,-0.08157146722078323,-0.20906448364257812,0.12635231018066406,0.026419682428240776,-0.028327221050858498,0.054572220891714096,0.25711217522621155,-0.09870683401823044,0.009135648608207703,-0.032745856791734695,-0.04558073356747627,0.044233981519937515,-0.006358167622238398,0.09238685667514801,-0.0002588748175185174,-0.016388598829507828,-0.0180364977568388,-0.21343593299388885,-0.06225410848855972,-0.0856398418545723,0.01477465033531189,-0.07766731828451157,-0.09866410493850708,-0.08365805447101593,-0.07393363118171692,-0.04944464564323425,-0.06971897929906845,-0.07175659388303757,0.09028872102499008,-0.09304747730493546,-0.1626037061214447,0.2011728286743164,-0.1186240017414093,-0.06832630187273026,0.032174743711948395,0.020923884585499763,0.05001003295183182,0.14268773794174194,0.08380812406539917,0.009204662404954433,0.17450682818889618,-0.1485685259103775,0.0082487678155303,0.04325154423713684,-0.03149024397134781,0.05618257448077202,-0.12196924537420273,-0.1450841873884201,-0.05756949633359909,-0.05627697706222534,0.14792084693908691,0.07742713391780853,0.0045710280537605286,-0.042864054441452026,0.10168960690498352,0.1408047080039978,0.08343206346035004,0.05440925806760788,-0.08859887719154358,-0.15068329870700836,-0.06783394515514374,-0.06483317166566849,0.02318255789577961,0.1376868337392807,0.08863058686256409,-0.07827496528625488,-0.06088057532906532,0.022119436413049698,0.09743369370698929,0.208583265542984,-0.04685362055897713,0.0789322555065155,0.12019648402929306,-0.05974883586168289,0.024221770465373993,0.10137242823839188,0.027695979923009872,0.02976342849433422,0.10486138612031937,0.021364150568842888,0.05954315885901451,-0.014794931747019291,-0.05797284096479416,0.04711354151368141,-0.1562563180923462,-0.07234737277030945,0.11794603615999222,0.02815922722220421,-0.05502260476350784,-0.0911727324128151,-0.0445825420320034,0.07155364006757736,-0.17490138113498688,-0.013088462874293327,0.008688116446137428,0.03306542709469795,0.059572819620370865,-0.13780169188976288,0.13119825720787048,-0.052036579698324203,0.10010106861591339,0.08118236809968948,-0.004232299979776144,0.011002173647284508,-0.2057925909757614,-0.06038469076156616,-0.10767288506031036,-0.10831800103187561,0.06085142120718956,0.038131777197122574,-0.028815975412726402,0.1266084611415863,-0.1976795792579651,0.17445306479930878,0.018946846947073936,-0.06503495573997498,-0.11837926506996155,0.14511756598949432,0.02123815007507801,0.025859909132122993,0.1055283173918724,0.09156010299921036,0.16690613329410553,0.027395175769925117,0.03563583642244339,0.011915070936083794,0.05682909116148949,-0.06366319954395294,-0.10370901226997375,0.21079471707344055,-0.026397420093417168,-0.001780822523869574,0.2608855366706848,-0.0860181450843811,0.05425729975104332,-0.042499516159296036,0.04125693440437317,-0.02232072874903679,-0.07792142778635025,0.22526147961616516,-0.06465057283639908,-0.07152339071035385,0.044071462005376816,-0.048166658729314804,-0.21940472722053528,0.01127262320369482,0.07852887362241745,0.011361721903085709,0.1911710649728775,0.17093536257743835,-0.0632692351937294,-0.01392333209514618,0.012606561183929443,-0.0931115448474884,0.14230626821517944,-0.16260667145252228,-0.1126553937792778,0.018091971054673195,-0.05340796709060669,-0.1123008206486702,-0.010391907766461372,0.0748700276017189,0.037960343062877655,0.012743928469717503,-0.0363897830247879,0.11545652151107788,-0.19823794066905975,0.00656465208157897,-0.1529930680990219,0.1739926040172577,0.099767304956913,0.06114620342850685,-0.19238188862800598,-0.011551333591341972,0.08728194981813431,0.07491107285022736,-0.13020533323287964,-0.24075947701931,-0.0785742923617363,0.029444269835948944,-0.0875597670674324,-0.00576635729521513,0.0868803933262825,0.007353471126407385,-0.018325120210647583,0.09082429111003876,0.025510190054774284,0.06865375488996506,0.10593574494123459,0.05435659736394882,0.08874968439340591,0.029801474884152412,-0.05474363639950752,0.12611928582191467,0.20804408192634583,-0.09398503601551056,0.0458400622010231,-0.09510116279125214,0.03626386076211929,-0.02269049547612667,0.19293835759162903,-0.11413351446390152,-0.15255562961101532,-0.13098767399787903,-0.11542358249425888,-0.07351585477590561,-0.07570907473564148,-0.018684174865484238],[-0.024979842826724052,0.11692558228969574,-0.009167969226837158,-0.06509285420179367,0.08563151955604553,0.13250242173671722,-0.08553019165992737,0.10202112048864365,0.09256451576948166,-0.14084897935390472,0.16364052891731262,-0.1952660232782364,-0.14134345948696136,-0.05311249569058418,-0.09809844940900803,0.00906163640320301,-0.010428947396576405,-0.006892674136906862,0.17718012630939484,-0.0025352241937071085,-0.018335187807679176,-0.10166189074516296,0.12844036519527435,-0.0667271539568901,0.1703956574201584,-0.009215651080012321,-0.125831738114357,-0.00960171315819025,-0.053008757531642914,-0.2608538269996643,-0.012980313040316105,-0.04902765899896622,-0.13805659115314484,0.15973228216171265,0.018250754103064537,-0.021433643996715546,-0.06311091780662537,0.03347063809633255,0.005708535201847553,-0.08843836933374405,-0.06445945054292679,-0.006594963371753693,-0.07860881090164185,-0.005746439099311829,-0.03560399264097214,-0.12409742921590805,-0.2960955798625946,0.012984407134354115,-0.12376836687326431,-0.16277234256267548,-0.02465292066335678,0.010943541303277016,0.10058994591236115,0.008191274479031563,0.039318494498729706,-0.2512727677822113,-0.022805411368608475,-0.174587681889534,-0.14843221008777618,0.060774486511945724,-0.04505223408341408,-0.15784434974193573,-0.18118172883987427,0.05076198652386665,-0.154966801404953,-0.1498473584651947,-0.05019303783774376,-0.0033907126635313034,-0.005869044456630945,-0.039012610912323,-0.10438906401395798,0.01069795060902834,0.03471988067030907,-0.17661333084106445,-0.07238062471151352,-0.05923393741250038,-0.02241508662700653,0.021252086386084557,-0.10934074223041534,0.09897629916667938,-0.1907653957605362,-0.09575224667787552,0.0795690044760704,-0.21957765519618988,0.11234860122203827,0.0016590645536780357,0.12207596004009247,0.011317453347146511,0.17339546978473663,-0.0661909356713295,-0.0008325739181600511,0.1952163279056549,0.06696043163537979,0.08098269999027252,-0.08833418041467667,-0.010128427296876907,-0.13185781240463257,-0.1427675485610962,0.17984949052333832,-0.04007641598582268,0.0009539019665680826,-0.07841325551271439,-0.10595044493675232,0.07896867394447327,-0.11069554835557938,0.2160656899213791,-0.10204668343067169,-0.06752889603376389,-0.065890833735466,-0.02651810832321644,-0.06310310959815979,0.11984037607908249,0.09685743600130081,-0.06112806871533394,0.10657986998558044,0.0057119084522128105,-0.07039515674114227,-0.05572734400629997,-0.02909942716360092,-0.08324292302131653,-0.08237726986408234,-0.13160419464111328,0.016392435878515244,-0.07520116120576859,-0.22555646300315857,-0.006425266154110432,0.032337602227926254,-0.1258792281150818,-0.016450688242912292,0.10857757925987244,-0.030811574310064316,-0.14409226179122925,-0.03147997334599495,-0.11666667461395264,0.06782273203134537,0.002839545486494899,-0.14848776161670685,-0.007743187248706818,0.12120672315359116,-0.16883058845996857,-0.15406940877437592,0.05082132667303085,-0.01139152143150568,-0.04548393934965134,-0.027717458084225655,-0.12177099287509918,0.02932742051780224,-0.08015425503253937,-0.027761749923229218,0.03707894682884216,-0.025543304160237312,0.00019807735225185752,0.05257194861769676,-0.03289560228586197,0.05052981898188591,-0.07405214756727219,-0.039754994213581085,0.020029623061418533,0.09001222997903824,-0.014247434213757515,-0.1362239122390747,0.18423046171665192,-0.0010762918973341584,-0.08230527490377426,-0.1658783107995987,0.17503587901592255,-0.05478272959589958,0.006017427891492844,0.15680912137031555,-0.10799204558134079,0.1972522735595703,-0.12740325927734375,-0.001237512449733913,-0.0041266451589763165,-0.06945342570543289,-0.08096528798341751,0.00835184846073389,0.23944729566574097,0.10551987588405609,-0.03691849112510681,0.08229999989271164,-0.0677301213145256,0.14696288108825684,-0.08920595049858093,0.16943366825580597,0.17447209358215332,-0.058546967804431915,0.20934760570526123,-0.02239006757736206,-0.03254329413175583,0.058131005614995956,-0.049681637436151505,-0.22407318651676178,0.0005046272417530417,-0.19471770524978638,-0.02551899664103985,0.002422969788312912,-0.19134102761745453,0.023571588099002838,0.12888100743293762,0.06344184279441833,-0.11030792444944382,0.15860304236412048,0.12020685523748398,-0.23384712636470795,0.0334930345416069,-0.06829994171857834,-0.12723645567893982,0.04263610765337944,-0.0615762397646904,-0.07648473978042603,-0.01704878732562065,0.11493537575006485,0.01442180760204792,-0.0632895976305008,-0.0455695316195488,-0.014619121327996254,0.1119934692978859,0.07344941049814224,0.11579253524541855,-0.04049638286232948,-0.015483254566788673,0.0006720995879732072,-0.1139465719461441,-0.14574791491031647,-0.045624636113643646,-0.044482648372650146,-0.17576467990875244,0.00020918832160532475,-0.012284272350370884,0.0037764927837997675,-0.044776782393455505,-0.017096618190407753,-0.158819779753685,0.04538757726550102,0.10819809138774872,-0.11907154321670532,-0.0735195130109787,-0.0346207357943058,-0.04259893298149109,0.06988579034805298,-0.08201789855957031,0.20937524735927582,-0.0880875363945961,0.14239369332790375,-0.06257520616054535,0.24164913594722748,-0.011755901388823986,0.1798863708972931,-0.027402760460972786,-0.03637968376278877,0.07637275010347366,0.06327975541353226,-0.04992542415857315,-0.06329207867383957,-0.011127728037536144]],"W_out":[[-0.7256750464439392,-0.12732651829719543,-0.556887149810791,-0.008395963348448277],[-0.301993727684021,-1.0565881729125977,0.16051653027534485,0.15782316029071808],[-0.7469496726989746,-0.3514585494995117,-0.058321524411439896,0.12386026978492737],[-0.3188260793685913,0.2136983424425125,0.0013826589565724134,-0.5095400810241699],[-0.79252028465271,0.1633058339357376,0.3031163215637207,-0.5094815492630005],[-0.43467140197753906,-0.7510015368461609,-0.06714291870594025,0.3229062557220459],[-0.6093558073043823,0.12376123666763306,-0.6865466237068176,-0.0753113254904747],[-0.7726916670799255,-0.29091861844062805,0.3048597574234009,-0.01897958479821682],[-0.23901188373565674,-0.1811550110578537,-0.2735319435596466,-0.2934608459472656],[0.2711170017719269,-0.559951901435852,-0.05380456894636154,-0.33973661065101624],[-0.6859049201011658,-0.42963117361068726,0.13478215038776398,-0.6109603047370911],[-0.019030533730983734,-0.22019413113594055,-0.5963915586471558,0.12046630680561066],[-0.12038382887840271,-0.6947228312492371,0.21674229204654694,-0.1041470393538475],[-0.2932471036911011,0.15277887880802155,-0.1846632957458496,-0.796463668346405],[0.08453802019357681,-0.33136096596717834,0.06391207873821259,-0.18316811323165894],[-0.44259122014045715,0.15497267246246338,-0.48204484581947327,-0.10718890279531479],[-0.5284858345985413,-0.6687914133071899,-0.27783018350601196,0.2482793778181076],[-0.3778451383113861,-0.7315343022346497,0.092258982360363,0.12656104564666748],[-0.7071492671966553,-0.7560321092605591,-0.011818783357739449,0.16096602380275726],[0.3261699676513672,-0.5908335447311401,-0.4344106912612915,-0.21504199504852295],[0.3236525058746338,-0.4910721480846405,-0.2616270184516907,-0.15013432502746582],[-0.717569887638092,-0.363220751285553,0.0842556580901146,-0.5888081789016724],[-0.774645209312439,-0.430250346660614,0.0043485634960234165,0.06580690294504166],[-0.8450738787651062,-0.5239858031272888,0.24484586715698242,-0.19495438039302826],[-0.6991247534751892,-0.45845454931259155,0.257699191570282,-0.05552428215742111],[-0.7076352834701538,-0.03325144574046135,0.2223202884197235,-0.4094086289405823],[0.19065310060977936,-0.16628704965114594,-0.5714190006256104,0.06862857937812805],[-0.37216857075691223,0.023873576894402504,-0.7785482406616211,0.019216516986489296],[-0.5885815620422363,-0.33075258135795593,0.17383414506912231,-0.1618017852306366],[-0.30783647298812866,-0.09754672646522522,-1.077628254890442,0.31419143080711365],[-0.517842710018158,0.0931008830666542,-0.7683956623077393,0.07665038853883743],[0.08053041994571686,-0.27169761061668396,-0.130756676197052,-0.4364742040634155],[-0.5586785078048706,-0.0596296489238739,-1.0380302667617798,0.1534350961446762],[-0.6405477523803711,-0.4247177541255951,0.1882733851671219,-0.3441372215747833],[0.06804792582988739,-0.9909789562225342,-0.006092679686844349,-0.036986347287893295],[-0.16213898360729218,0.1697467416524887,-0.10452256351709366,-0.7650102376937866],[-0.594649076461792,-0.40348654985427856,0.2372376024723053,-0.018799442797899246],[-0.6749703288078308,0.08643069863319397,-0.47642603516578674,-0.008836277760565281],[-0.8458598256111145,-0.23522257804870605,-0.4978686571121216,0.12443441897630692],[-0.10382215678691864,-0.03258524835109711,-0.4877420663833618,0.08709189295768738],[-0.5000286102294922,0.11990875005722046,-0.5072439312934875,-0.06205771490931511],[-0.530795156955719,0.16038288176059723,-0.6358337998390198,-0.029412230476737022],[-0.7551937699317932,-0.13493846356868744,-0.6522100567817688,0.1389724463224411],[-0.3146775960922241,-0.8351534605026245,-0.3610609769821167,0.23290356993675232],[-0.42051705718040466,-0.46346837282180786,0.2119535654783249,-0.07966103404760361],[0.4117809534072876,-0.6537532806396484,-0.3709254860877991,-0.23198279738426208],[-0.6104827523231506,0.10467271506786346,-1.2976702451705933,0.43465158343315125],[-0.657892107963562,0.015401308424770832,-0.530106782913208,0.05260716378688812],[-0.1506352424621582,-0.8279743790626526,0.061302099376916885,0.3133641481399536],[-0.06292476505041122,0.21468225121498108,-0.21933473646640778,-0.8061542510986328],[-0.3513314723968506,-0.2882969081401825,0.05491730198264122,-0.3934529721736908],[-0.6355927586555481,-0.17291893064975739,-0.585497260093689,0.10092420130968094],[-0.626355767250061,-0.49788999557495117,0.26488640904426575,-0.06455674022436142],[-0.7978188395500183,0.17843958735466003,-0.55089271068573,0.04587116837501526],[-0.28332823514938354,-0.81661456823349,-0.4157293438911438,0.3436598479747772],[0.22947046160697937,-0.2039046287536621,-0.5628167986869812,-0.30524036288261414],[-0.3301350474357605,0.1761520951986313,-0.9801662564277649,0.16081444919109344],[-0.24255800247192383,0.04234780743718147,-0.8023484945297241,0.07179844379425049],[-0.6446288228034973,-0.2990725636482239,0.14742983877658844,-0.30164191126823425],[-0.5954771041870117,-0.2879560589790344,0.21071717143058777,-0.5055522322654724],[-0.4977872669696808,0.07212263345718384,-0.754793107509613,-0.040206920355558395],[-0.7290821671485901,0.012192981317639351,-1.0367451906204224,0.2107604742050171],[-0.45774924755096436,0.00004678183177020401,-1.0224988460540771,0.3162670433521271],[-0.6622903347015381,-0.24038101732730865,0.11494241654872894,-0.5744941830635071],[-0.1669469028711319,-0.06626630574464798,-0.910227358341217,0.43019726872444153],[-0.31407371163368225,0.19617611169815063,-0.12570814788341522,-0.6273173093795776],[-0.5285341739654541,-0.6704097986221313,0.23575729131698608,-0.06695641577243805],[-0.2816430330276489,0.11908341944217682,-0.04150330275297165,-0.43594563007354736],[-1.0115901231765747,-0.06925058364868164,-0.13286671042442322,0.07481329888105392],[-0.8170478940010071,0.011720934882760048,-0.2785280644893646,-0.012324249371886253],[-0.7391198873519897,-0.16494224965572357,0.1505359709262848,-0.35490506887435913],[0.06437013298273087,0.1723376363515854,-0.0845988541841507,-0.828271210193634],[-0.5616980195045471,0.12118212878704071,-0.6751972436904907,0.18098632991313934],[-0.42740216851234436,0.1567872315645218,-0.7107009887695312,0.04412063583731651],[-0.06099171191453934,-0.7433750629425049,0.13159283995628357,-0.08641637861728668],[-0.13423041999340057,-0.2795005738735199,0.10992658138275146,-0.45601505041122437],[-0.7008739709854126,-0.26586437225341797,0.06205843761563301,-0.5413311123847961],[-0.51417076587677,-0.5709937810897827,0.18791434168815613,-0.5136317610740662],[0.22312909364700317,-0.13518783450126648,0.03971375524997711,-0.3697807192802429],[-0.25232258439064026,-0.5206020474433899,-0.1520167738199234,-0.1677219271659851],[-0.24641403555870056,-0.2597295343875885,-0.7501900792121887,0.03999568894505501],[0.1456838995218277,-0.49037089943885803,0.03342830762267113,-0.5307984948158264],[-0.6968131065368652,-0.08247527480125427,0.19168275594711304,-0.3761454224586487],[-0.3245800733566284,-0.7942770719528198,-1.207944631576538,0.3441559672355652],[0.07879552990198135,-0.6922319531440735,-0.04300476610660553,-0.2814582884311676],[0.13873256742954254,-0.5374106168746948,-0.1640244871377945,-0.4204358458518982],[-0.7422683835029602,-0.3020368814468384,0.23180373013019562,-0.017379319295287132],[-0.5489956140518188,-0.020193153992295265,-0.39038851857185364,0.0017407325794920325],[-0.7365623116493225,-0.3403424620628357,0.114582359790802,-0.40096887946128845],[-0.15482528507709503,0.20440690219402313,-0.1967586725950241,-0.7460616230964661],[-0.7603951096534729,0.09847041964530945,-0.2638421356678009,0.04513084143400192],[-0.598160982131958,-0.6327904462814331,0.03709740564227104,0.11825385689735413],[-0.722430944442749,-0.4803412854671478,0.14428582787513733,-0.5671467185020447],[-0.9908306002616882,-0.365945041179657,-0.11156866699457169,0.09183128923177719],[0.2507936358451843,-0.20533215999603271,-0.3149333596229553,-0.7558432221412659],[-0.5707476139068604,0.16078996658325195,-0.6534280776977539,-0.08508122712373734],[0.45990756154060364,-0.41872721910476685,-0.3788697123527527,0.0989282950758934],[0.22839295864105225,-0.7908630967140198,-0.17726223170757294,0.0932418629527092],[-0.44027167558670044,-0.4699852764606476,0.10349541902542114,-0.5538659691810608],[-0.7083098292350769,0.08099478483200073,-0.6305903196334839,0.1736312359571457],[-0.6164537072181702,0.1410980075597763,-0.7175453305244446,-0.00016261613927781582],[-0.28951603174209595,0.1746528595685959,-1.226667881011963,0.12233366817235947],[-0.39866769313812256,-0.2715156376361847,0.1003059670329094,-0.45934101939201355],[-0.5859825015068054,-0.03584078699350357,0.1564522087574005,-0.4923614263534546],[-0.5927236080169678,-0.21218903362751007,-0.9653511047363281,0.3064282536506653],[-0.5938950777053833,-0.8922443985939026,0.27305203676223755,-0.0663733035326004],[0.33367568254470825,-0.4200420677661896,-0.2065386325120926,0.30330491065979004],[0.08065284788608551,0.211382657289505,-0.09276038408279419,-0.964181661605835],[-0.6264554262161255,-0.03570602834224701,-0.47179657220840454,-0.09009361267089844],[-0.73907870054245,-0.16692449152469635,-0.4370133578777313,0.034305308014154434],[-0.6671397686004639,0.08425042033195496,-0.6473995447158813,0.12260512262582779],[0.6703894138336182,-0.44337624311447144,-0.4014263153076172,-0.37793126702308655],[-0.27086493372917175,-0.17676275968551636,-0.04324211925268173,-0.43062832951545715],[0.1945708692073822,-0.4602389335632324,-0.18473881483078003,-0.4712989032268524],[-0.9711287617683411,0.02239004708826542,-0.24554622173309326,0.03030291199684143],[-0.9281574487686157,-0.026157593354582787,-0.27601540088653564,0.05913299322128296],[0.35178202390670776,-0.11143624782562256,-0.4197448790073395,-0.454407662153244],[-0.9193328022956848,0.00895416084676981,-0.7131925821304321,0.3546522557735443],[-0.6673470735549927,-0.05517534911632538,-0.35499307513237,0.05501175299286842],[-0.4972101151943207,-0.27169713377952576,0.0441240519285202,-0.41536420583724976],[-1.0952693223953247,0.12271008640527725,-0.7685021758079529,0.2435944825410843],[-0.3760317265987396,0.013810348697006702,-0.823169469833374,0.1755501627922058],[-0.8661999702453613,-0.3350592255592346,-0.1459808498620987,0.12851299345493317],[-0.6819169521331787,0.01580040715634823,-1.105592131614685,0.13406610488891602],[-0.4941110908985138,-0.027808018028736115,-0.9124074578285217,0.24473866820335388],[-0.693162739276886,0.06245459243655205,-0.5885208249092102,0.038407087326049805],[-0.009652543812990189,-0.4828103482723236,-0.41334831714630127,0.06811350584030151],[-0.6877152919769287,0.04895855858922005,-0.8733487129211426,0.0681886076927185],[-0.4077795147895813,-0.29205137491226196,0.2142011523246765,-0.038312770426273346],[-0.6932293176651001,-0.43132495880126953,0.23709312081336975,-0.08445769548416138],[-0.8002645373344421,0.027923181653022766,-0.18010017275810242,0.08299434185028076],[-0.27302446961402893,-0.39402052760124207,-0.06420682370662689,-0.0005893987254239619],[-0.42528173327445984,0.1991693526506424,-0.31793251633644104,-0.5569278597831726],[0.49210596084594727,-0.39196979999542236,-0.47261178493499756,-0.24206286668777466],[-0.7392129898071289,-0.7300751805305481,-0.15765754878520966,0.29199135303497314],[-0.928586483001709,-0.17498190701007843,-0.2689588963985443,0.096770279109478],[-0.16283704340457916,-0.6498950123786926,0.08476203680038452,0.09254423528909683],[-0.46295443177223206,0.17995639145374298,-0.5298458337783813,-0.18002718687057495],[-0.7985358238220215,0.19684766232967377,-0.3772240877151489,-0.1646054983139038],[-0.4625247120857239,0.08377876877784729,-1.2078602313995361,0.17531564831733704],[-0.5362204313278198,0.24571703374385834,-0.3106490969657898,-0.603432297706604],[-0.42917799949645996,-0.7425382137298584,-0.1481703370809555,0.15710245072841644],[-0.41621485352516174,0.14524497091770172,-0.9937574863433838,0.049084972590208054],[-0.740198016166687,0.09517654776573181,0.21606293320655823,-0.4811437129974365],[-0.33592841029167175,0.2007211595773697,-1.2411794662475586,0.33341720700263977],[-0.494871586561203,0.26506805419921875,-0.16344814002513885,-0.19668100774288177],[-0.7099975943565369,-0.24560783803462982,-0.3190470039844513,0.3526664972305298],[-0.399591326713562,-0.4447917938232422,0.20844092965126038,-0.0803719311952591],[0.07828732579946518,-0.5787497162818909,-0.17107996344566345,0.00039069014019332826],[-0.4313012957572937,0.0750170424580574,-0.22511360049247742,-0.40939533710479736],[-0.0009133691200986505,-0.4376581609249115,0.16899943351745605,-0.2880430221557617],[-0.46252989768981934,-0.6452977061271667,-0.028989797458052635,0.2721208333969116],[0.08175268024206161,0.24462996423244476,0.07645691931247711,-1.077508807182312],[-0.7758791446685791,-0.026302611455321312,-0.815484881401062,0.0006739462842233479],[-0.21127894520759583,-0.46451494097709656,-0.26192307472229004,0.2586135268211365],[-0.46635526418685913,0.11338342726230621,-0.5134010910987854,-0.03810727223753929],[0.11415659636259079,-0.6719138026237488,0.1385090947151184,-0.0676632896065712],[-0.6779927611351013,-0.11449480056762695,0.24089549481868744,-0.1437942385673523],[-0.7581662535667419,0.1259406954050064,-0.3655347228050232,0.03270504251122475],[0.1823728382587433,-0.46232300996780396,-0.23221683502197266,-0.212374746799469],[-0.15648393332958221,0.19535163044929504,-0.08350840210914612,-0.9018101692199707],[0.32441893219947815,-0.49580225348472595,-0.05563667044043541,-0.32860758900642395],[-0.6287440061569214,0.0767734944820404,-0.7331386804580688,-0.015660591423511505],[-0.5054414868354797,-0.41677913069725037,0.2282295525074005,-0.18064577877521515],[0.3151020109653473,-0.26311254501342773,0.06957291066646576,-0.5746217966079712],[-0.27223289012908936,-0.9821459054946899,0.07281794399023056,0.19401808083057404],[-0.620814323425293,-0.3228548467159271,0.2547905743122101,0.04147247225046158],[-0.7636569738388062,-0.08213810622692108,-0.5176703333854675,0.0544421523809433],[-0.6737897396087646,-0.2867342531681061,0.11261896044015884,-0.4772556722164154],[-0.7399067878723145,0.02544393017888069,-0.6446603536605835,0.19021376967430115],[-0.5688316226005554,-0.8212651014328003,0.12043529748916626,0.18558573722839355],[-0.5907157063484192,0.013419982977211475,-0.84319007396698,-0.02704762853682041],[-0.7515000104904175,-0.43093234300613403,-0.26532262563705444,0.1691468358039856],[-0.6796090006828308,-0.17767004668712616,-0.260368674993515,0.14874586462974548],[0.2320873737335205,0.016557257622480392,-0.5138416886329651,-0.3356685936450958],[-0.1438588798046112,-0.7772389650344849,0.19317275285720825,0.009369325824081898],[-0.8001291155815125,-0.35176539421081543,0.18017759919166565,-0.4029987156391144],[-0.5928470492362976,-0.46105754375457764,0.1469222605228424,-0.2979692816734314],[-0.3942658603191376,-0.20717738568782806,0.1989956796169281,-0.543658971786499],[-0.7479546666145325,-0.27258893847465515,0.3314400613307953,-0.29375261068344116],[-1.0344042778015137,-0.4795617461204529,-0.42215585708618164,0.2714841067790985],[-0.6294395923614502,-0.6883237361907959,0.17858433723449707,-0.021130086854100227],[-0.5907893776893616,-0.42869773507118225,0.10608887672424316,-0.4465145468711853],[0.06871698796749115,-0.403642475605011,0.07666198164224625,-0.29025086760520935],[-0.5816143751144409,-0.6015546917915344,0.05401521548628807,0.10916531085968018],[-1.0371073484420776,-0.22053147852420807,0.2850874364376068,-0.1006939485669136],[-0.7023026347160339,-0.1773959845304489,-0.3649972379207611,0.050083693116903305],[-0.3698432743549347,-0.7788759469985962,0.09098320454359055,0.0849493071436882],[-0.9545230269432068,-0.35798975825309753,-0.052434928715229034,0.08663511276245117],[0.03232789412140846,-0.7136087417602539,-0.027247171849012375,-0.3034871220588684],[-0.6432461142539978,-0.3774999678134918,0.25211527943611145,-0.334625244140625],[0.1819448322057724,0.04501349478960037,-0.23714721202850342,-0.654647707939148],[-0.21712267398834229,-0.014153113588690758,-0.6123155951499939,0.21030819416046143],[-0.8353449106216431,0.22759713232517242,0.16621337831020355,-0.5506889224052429],[-0.5629788041114807,0.07134793698787689,-1.2142630815505981,0.35809850692749023],[-0.42517831921577454,0.06368508189916611,-0.7811130285263062,0.13367824256420135],[0.28798994421958923,-0.3917510509490967,-0.5187309384346008,-0.1634552776813507],[-0.3407049775123596,0.04360208660364151,-1.033663034439087,-0.18042179942131042],[0.0011485717259347439,0.16547569632530212,0.18347185850143433,-0.9687408804893494],[-0.6392723917961121,-0.2504691779613495,0.2764805555343628,-0.18128904700279236],[-0.561706006526947,-0.3896481990814209,0.14556698501110077,-0.5125877261161804],[0.251531183719635,-0.22166135907173157,-0.19082653522491455,-0.6268950700759888],[-0.293588787317276,-1.006752848625183,0.10955359786748886,0.20534051954746246],[-0.4367578625679016,-0.48842936754226685,-0.0805104672908783,0.3065297603607178],[0.16010990738868713,-0.010193675756454468,-0.1649225503206253,-0.3947772979736328],[-0.33654332160949707,-0.2691722512245178,0.1877947896718979,-0.43663543462753296],[0.5218709111213684,-0.32663193345069885,-0.29746678471565247,-0.4262409210205078],[-0.31060051918029785,-0.5786805748939514,0.2844849228858948,-0.016414634883403778],[-0.635353684425354,-0.422216534614563,0.1359240710735321,0.01248085591942072],[-0.49114757776260376,0.16926215589046478,-1.1168214082717896,0.31243279576301575],[0.24871745705604553,-0.12449335306882858,-0.24360279738903046,-0.4590664505958557],[-0.5342187285423279,0.04879184439778328,-0.6335101127624512,0.08955864608287811],[-0.8016186356544495,-0.6056309938430786,-0.014922206290066242,0.06807833909988403],[-0.29042819142341614,-0.30812013149261475,0.09529459476470947,-0.33804094791412354],[0.14837738871574402,0.1614091843366623,0.07193270325660706,-0.7791418433189392],[-0.3397258520126343,-0.5889543890953064,-0.49897128343582153,0.17308472096920013],[0.09282588213682175,0.14264345169067383,0.03339412063360214,-0.6859003901481628],[-0.5439799427986145,-0.9968628287315369,0.10074706375598907,0.22604967653751373],[0.21617521345615387,0.06348448991775513,-0.37489235401153564,-0.7382527589797974],[0.06594246625900269,-0.5401321053504944,-0.0002045985747827217,-0.49123501777648926],[-0.33712077140808105,0.23437725007534027,-0.1746702641248703,-0.7885847687721252],[-0.7192096710205078,0.05018563196063042,-0.7044655680656433,-0.0007562942919321358],[-0.051908113062381744,-0.7711639404296875,0.07144887745380402,-0.05549829080700874],[-0.6517803072929382,-0.395070880651474,-0.7102461457252502,0.3391152322292328],[0.07128965854644775,-0.6939029693603516,0.18719080090522766,-0.0012786096194759011],[-0.3130432367324829,-0.5027881264686584,0.15704497694969177,-0.35842224955558777],[0.0871242880821228,0.22265082597732544,-0.011146089993417263,-0.8436515927314758],[-0.6422370672225952,-0.058671604841947556,-1.0719562768936157,0.266637921333313],[0.16826105117797852,-0.5307704210281372,0.09447737038135529,-0.5811445713043213],[-0.7277928590774536,0.05248443782329559,-0.6625710129737854,0.048374127596616745],[-0.9771628975868225,-0.05096082761883736,-0.2691778838634491,0.10492004454135895],[-0.6090308427810669,0.1277337223291397,-0.7297683954238892,-0.07743848860263824],[-0.6862797737121582,0.117925725877285,-0.6504679918289185,-0.03926964849233627],[-0.6436607241630554,0.13670194149017334,-1.1953433752059937,0.2013709396123886],[-0.4642728865146637,0.05114895850419998,-0.43776237964630127,0.16021767258644104],[-0.7071821689605713,-0.023833351209759712,0.15266454219818115,-0.34986141324043274],[-0.4761126637458801,-0.18981675803661346,0.04129888117313385,-0.35289648175239563],[0.12465507537126541,0.027979794889688492,-0.19547143578529358,-0.7683370113372803],[-0.63368821144104,-0.07320542633533478,0.15927250683307648,-0.2672734558582306],[-0.19281579554080963,-0.3311646282672882,0.13817840814590454,-0.3666701912879944],[-1.1101422309875488,-0.03962063044309616,-0.19192110002040863,0.05629824474453926],[0.3363345265388489,-0.38949596881866455,-0.5156410932540894,-0.14602410793304443],[-0.4261634051799774,-0.5191570520401001,-0.12180077284574509,-0.538693368434906],[0.09244322776794434,0.04864592105150223,-0.3281327784061432,-0.5844395160675049],[-0.4495525658130646,-0.8756714463233948,0.31611427664756775,-0.046103768050670624],[-0.6635438799858093,-0.4998858869075775,0.19772744178771973,-0.31321221590042114],[-0.22226306796073914,-0.42615950107574463,0.22520166635513306,-0.6162493228912354],[-0.7590495347976685,0.1773025542497635,-0.6007535457611084,-0.10036278516054153],[-0.9850602149963379,-0.9378589391708374,0.16549859941005707,0.20745430886745453],[0.33662480115890503,-0.4700895845890045,0.0989600270986557,-0.5364153981208801],[0.27167707681655884,-0.3002329170703888,-0.06782515347003937,-0.7956833839416504],[-0.9657219052314758,-0.6315060257911682,0.2714217007160187,-0.3410697877407074],[0.17064647376537323,0.12143565714359283,0.11892444640398026,-0.8997251987457275],[-0.7460221648216248,-0.11390508711338043,-0.5897135138511658,0.007875371724367142],[-0.6814647912979126,-0.5477611422538757,0.22277909517288208,0.010368064977228642],[-0.6040458679199219,0.060634125024080276,-0.7168529033660889,0.00020624436729121953]],"W_rec":[[0.0,0.08227144926786423,-0.06087542325258255,0.09670339524745941,-0.06386188417673111,0.06926266849040985,-0.09695550799369812,-0.13249647617340088,0.11010527610778809,0.09181616455316544,-0.13001948595046997,0.038790471851825714,-0.026850596070289612,-0.05768405273556709,-0.09021638333797455,-0.0668778195977211,-0.0203224029392004,0.020921999588608742,0.042875420302152634,-0.01901043765246868,0.18058158457279205,-0.02295352704823017,-0.08451198041439056,-0.07673405855894089,-0.2047966569662094,-0.016285976395010948,-0.09391114115715027,0.15484963357448578,-0.19502802193164825,0.006991274654865265,-0.028363674879074097,0.01887507550418377,-0.04571327567100525,-0.17963248491287231,0.0372530072927475,0.007326024584472179,0.0089684734120965,-0.0156908817589283,-0.028264105319976807,-0.03895523026585579,0.09845732897520065,0.046026717871427536,-0.08731628209352493,0.02186177298426628,-0.009453622624278069,0.14148595929145813,0.06075924262404442,0.04027417674660683,-0.0044953483156859875,-0.007973267696797848,-0.0589720793068409,-0.0020519166719168425,0.09165327250957489,-0.033939920365810394,-0.04576960578560829,-0.08325675129890442,-0.05196044594049454,-0.024907909333705902,-0.14631387591362,-0.08589908480644226,-0.0032797916792333126,0.013880142942070961,-0.13556192815303802,-0.09656999260187149,0.020610995590686798,0.09979640692472458,-0.06707247346639633,-0.1427551805973053,-0.0065149241127073765,-0.08867571502923965,-0.05594614893198013,0.0007774437544867396,-0.05410250276327133,0.03295838460326195,0.05165576934814453,0.13202019035816193,-0.32832929491996765,-0.034893620759248734,0.07970570772886276,-0.160200834274292,-0.016484789550304413,0.037075042724609375,-0.18636554479599,0.04428748041391373,-0.2633197605609894,0.03437851369380951,-0.009229717776179314,0.08918948471546173,-0.2564440071582794,0.13203755021095276,0.027617568150162697,-0.014586769044399261,-0.1851397454738617,0.01631837710738182,-0.1055014431476593,0.18591873347759247,-0.08325540274381638,0.024864690378308296,0.07961228489875793,-0.01183915976434946,-0.02174367755651474,0.03765442222356796,-0.05570461228489876,-0.04231637343764305,-0.07647494226694107,-0.15435779094696045,-0.05692187324166298,-0.0514565147459507,-0.026910532265901566,0.09274658560752869,0.020114121958613396,0.0452655665576458,0.1150994747877121,-0.13011467456817627,-0.013167026452720165,-0.10617206990718842,-0.06778416037559509,0.014094091020524502,0.10956735908985138,-0.07401733845472336,-0.1526581048965454,-0.0037169139832258224,-0.001413077930919826,0.07606484740972519,-0.09797047078609467,-0.049759142100811005,0.046485550701618195,-0.04081777110695839,0.013528009876608849,0.013700149953365326,-0.12231161445379257,-0.01504979096353054,0.24184298515319824,-0.11780810356140137,-0.07371671497821808,-0.02345866896212101,-0.09867554903030396,0.1694071739912033,-0.03144184872508049,0.05526357144117355,0.20727352797985077,-0.011364812031388283,-0.16007663309574127,-0.028349390253424644,-0.14999522268772125,-0.12232502549886703,-0.060999609529972076,0.12324870377779007,0.10621348768472672,-0.09786494821310043,0.011388386599719524,-0.003648041980341077,-0.07033327221870422,0.005162249784916639,-0.019058939069509506,-0.10033979266881943,0.0032398009207099676,0.05876460671424866,0.042783986777067184,0.11358144134283066,0.07097082585096359,0.007274772506207228,0.12802007794380188,0.044680844992399216,0.04724027216434479,0.05719634145498276,-0.11824840307235718,0.1539314240217209,-0.05928825959563255,0.05424913391470909,0.07072567939758301,0.09759410470724106,-0.0258257444947958,-0.07957978546619415,-0.0753699541091919,-0.011716133914887905,-0.012113455682992935,-0.09620024263858795,-0.1612643599510193,-0.14508236944675446,-0.08719036728143692,0.1502850353717804,-0.16495193541049957,-0.08720352500677109,-0.14496301114559174,0.15656687319278717,0.021103855222463608,0.06605665385723114,-0.01741756685078144,-0.21657274663448334,0.0378100723028183,-0.22563409805297852,0.08876609057188034,0.048066575080156326,-0.07619079202413559,-0.07483604550361633,-0.059278454631567,-0.10469596087932587,-0.15805058181285858,-0.08799122273921967,-0.14340199530124664,-0.07171794772148132,-0.002431035740301013,-0.028043566271662712,-0.16902552545070648,-0.19402870535850525,0.07527567446231842,0.03994624689221382,-0.04591606184840202,0.02762344665825367,-0.11682672798633575,0.02072310447692871,-0.08972581475973129,-0.17500941455364227,-0.01191719714552164,-0.0712764710187912,-0.09710860997438431,0.021511053666472435,-0.17697469890117645,0.015359722077846527,-0.1236855685710907,0.08072872459888458,-0.010109437629580498,0.02635834738612175,-0.009393145330250263,-0.0388469323515892,-0.004108630120754242,-0.057162094861269,0.058695923537015915,-0.0337703675031662,-0.033265989273786545,-0.05579226464033127,0.0931171402335167,-0.05215776711702347,-0.008406165987253189,0.04068152233958244,0.01736106164753437,-0.099064402282238,-0.13372491300106049,-0.21568530797958374,0.029983097687363625,0.07485650479793549,0.023205216974020004,-0.0978134274482727,-0.11865633726119995,0.043068915605545044,-0.18862241506576538,0.03730079531669617,-0.0090158237144351,-0.13679705560207367,-0.11841913312673569,-0.09086817502975464,-0.16714172065258026,0.15835151076316833,0.03775907680392265,0.05183475464582443],[0.05279252678155899,0.0,0.04079559072852135,-0.1520778387784958,-0.23478224873542786,-0.164992094039917,-0.08904888480901718,0.013027627021074295,-0.2101563960313797,0.133867546916008,-0.11052360385656357,-0.13013863563537598,0.06656630337238312,-0.05185164138674736,0.04934840649366379,-0.010247034020721912,0.09012006223201752,0.09024990350008011,-0.07358750700950623,0.12236017733812332,0.024716224521398544,-0.042409371584653854,-0.06261210888624191,-0.0069110277108848095,0.04634956642985344,0.0008988995105028152,-0.039135076105594635,-0.13284145295619965,-0.029310818761587143,0.025685204192996025,-0.07125953584909439,-0.1815173625946045,-0.016812019050121307,0.03536005690693855,0.13089026510715485,-0.1449252963066101,0.10262925922870636,-0.07743995636701584,-0.0284388680011034,0.052843883633613586,0.040169890969991684,-0.10599683970212936,-0.07574895024299622,0.21102222800254822,0.06557948887348175,0.13264626264572144,-0.015308783389627934,-0.07240708917379379,0.06632544100284576,-0.07812875509262085,0.16429360210895538,0.03720996901392937,0.03158159926533699,-0.1866239458322525,0.041595421731472015,-0.022131823003292084,-0.1594536155462265,-0.02161078155040741,-0.05112801864743233,-0.3059249222278595,-0.10002182424068451,-0.04132809489965439,-0.0588127039372921,-0.25651395320892334,-0.06277471035718918,-0.0766378715634346,0.0027964450418949127,0.19605043530464172,-0.0038811403792351484,0.030931778252124786,0.031160343438386917,0.024636832997202873,-0.19782544672489166,-0.23316867649555206,0.18300817906856537,0.16197142004966736,-0.053912051022052765,-0.018018187955021858,-0.01791299693286419,-0.009999996051192284,-0.06964211910963058,0.16076529026031494,0.02227243222296238,0.02191113494336605,0.0003730794123839587,-0.08340029418468475,-0.000429387204349041,-0.006875006482005119,0.04264459013938904,-0.14667050540447235,0.005867640487849712,0.02623230405151844,-0.06266828626394272,-0.045638006180524826,-0.16172555088996887,-0.12180425971746445,-0.24427199363708496,0.1328965425491333,-0.219565749168396,0.01101736817508936,-0.2026941478252411,-0.01603635400533676,0.1202901303768158,-0.07846666872501373,-0.028785383328795433,-0.10076484829187393,-0.08021201193332672,-0.17327477037906647,-0.0350445918738842,-0.10848173499107361,-0.06503042578697205,-0.19432611763477325,-0.023123586550354958,0.031032375991344452,-0.06974323093891144,-0.029310358688235283,-0.1366409957408905,-0.03486808389425278,-0.04038987681269646,-0.07106909900903702,-0.022204330191016197,-0.06138457730412483,-0.030269576236605644,-0.14369851350784302,-0.08978841453790665,-0.11266372352838516,0.012068930082023144,-0.06900061666965485,0.0238181184977293,-0.06300505250692368,0.005449690856039524,-0.08163046091794968,-0.23549041152000427,0.018971538171172142,0.02423837035894394,0.06747536361217499,0.00410178629681468,-0.0788009837269783,-0.11077537387609482,-0.0802491158246994,0.013163520954549313,-0.02075081691145897,-0.11740951985120773,-0.13998116552829742,-0.0323789119720459,-0.009699664078652859,-0.05404086783528328,0.05899373069405556,-0.006372454110532999,-0.1465306282043457,-0.08795467764139175,0.09557000547647476,0.004313635639846325,-0.14296898245811462,0.3775061368942261,-0.09901108592748642,0.21388870477676392,0.09446936845779419,-0.18135839700698853,-0.02919386699795723,0.01133590005338192,-0.09212254732847214,-0.1700834333896637,-0.0431101992726326,0.1389913707971573,0.059490300714969635,-0.03660764917731285,-0.12018818408250809,-0.22306963801383972,-0.06007998064160347,0.01075828354805708,-0.03004140965640545,-0.09752245247364044,0.022499768063426018,0.09597529470920563,0.1604543924331665,-0.001959437970072031,0.032604023814201355,-0.07799012213945389,-0.061563558876514435,-0.08568250387907028,0.009682714007794857,-0.07743851840496063,-0.046249061822891235,-0.04397248849272728,-0.09203477948904037,0.05174659937620163,-0.019972896203398705,-0.0003835034149233252,0.09211593866348267,-0.09656745940446854,-0.089362733066082,-0.07866266369819641,-0.0864529013633728,0.05662131309509277,-0.09309655427932739,-0.11396773904561996,-0.07625309377908707,-0.04593992605805397,-0.04854576289653778,0.05106048658490181,-0.005705709103494883,-0.09987752139568329,-0.018615588545799255,-0.2025550901889801,-0.05006891116499901,0.08859607577323914,0.11358647048473358,-0.01561820600181818,-0.0060075633227825165,-0.09902364760637283,-0.0024067279882729053,0.031765636056661606,-0.04481488838791847,-0.053403422236442566,0.08177715539932251,-0.028391504660248756,0.02226002886891365,-0.11110149323940277,-0.14002114534378052,-0.14763201773166656,-0.002815075684338808,0.10179203748703003,0.0754353329539299,0.1811666488647461,0.11177953332662582,-0.03916255384683609,-0.10101541131734848,0.04689975082874298,-0.06153270602226257,0.014974484220147133,-0.12216600030660629,-0.25854581594467163,0.02056238427758217,-0.12405664473772049,-0.17088715732097626,-0.23225650191307068,-0.21910546720027924,-0.038293227553367615,0.014334556646645069,-0.013503882102668285,-0.0429462194442749,-0.05081777647137642,-0.12777423858642578,0.26222115755081177,0.002773100044578314,-0.11327438801527023,-0.2900397479534149,-0.0839608833193779,0.049060992896556854,-0.11022552847862244,-0.011220491491258144,-0.1711595505475998,-0.003781326347962022,0.10741177201271057,-0.045210111886262894],[0.10947278141975403,-0.03780074790120125,0.0,0.02177734300494194,0.016631441190838814,-0.027411583811044693,0.06544609367847443,-0.012837780639529228,-0.009497350081801414,0.02119588851928711,-0.1725120097398758,-0.04825584590435028,0.11559661477804184,0.15892662107944489,-0.03682072088122368,-0.12473521381616592,-0.10860651731491089,-0.04208826646208763,-0.03498109057545662,-0.06700115650892258,0.05041408911347389,-0.1188417449593544,0.1024305671453476,0.013610240072011948,-0.046465616673231125,-0.06973588466644287,0.002659351099282503,-0.007853004150092602,-0.025697100907564163,-0.06408791244029999,-0.04297472536563873,0.028234006837010384,0.0067333076149225235,-0.1103612408041954,-0.08012090623378754,0.046580757945775986,0.0764520987868309,-0.04884008690714836,0.038963671773672104,-0.02100256271660328,0.10877847671508789,0.026824939996004105,0.03318794444203377,-0.0631299689412117,0.049038246273994446,0.05566610395908356,-0.07809940725564957,0.07586457580327988,-0.043422915041446686,0.1113925501704216,0.05204473435878754,-0.015539612621068954,0.1281985491514206,-0.09121794253587723,-0.09477859735488892,-0.06535941362380981,-0.009787662886083126,-0.0437408909201622,-0.0007173665799200535,-0.16165614128112793,0.04149759188294411,-0.06935686618089676,-0.03013557754456997,-0.15364764630794525,-0.0577348917722702,-0.03900605067610741,-0.029623454436659813,0.13342392444610596,-0.13469968736171722,0.0623629204928875,0.06272421777248383,0.1970975250005722,-0.14113318920135498,-0.12507827579975128,0.125052809715271,-0.07928387820720673,-0.29642340540885925,-0.13293205201625824,0.09282214939594269,-0.0368587002158165,-0.10541925579309464,-0.047832127660512924,-0.05939478427171707,-0.003834976116195321,-0.07727756351232529,-0.08044934272766113,0.06749960035085678,0.03046625293791294,-0.27615219354629517,0.1648063063621521,0.033353254199028015,-0.03844043239951134,-0.24279770255088806,0.3280903398990631,-0.008517188020050526,-0.07181228697299957,-0.07079396396875381,0.08125859498977661,-0.057037144899368286,-0.1141887754201889,-0.06590777635574341,0.04095596447587013,-0.07912979274988174,-0.22558531165122986,-0.09811772406101227,-0.09454120695590973,-0.24117405712604523,0.013511675409972668,0.01897558383643627,0.05428963899612427,0.040301885455846786,-0.019588442519307137,-0.17627151310443878,0.04376674070954323,0.04954061657190323,-0.030274583026766777,-0.08758026361465454,-0.04359392449259758,-0.051762305200099945,-0.023220233619213104,-0.1147792860865593,-0.05881873518228531,0.2791748344898224,0.0276572797447443,0.025717705488204956,0.13512742519378662,-0.0933171734213829,0.0129385432228446,-0.04985351487994194,0.16319569945335388,0.017372610047459602,-0.09075642377138138,0.025624725967645645,-0.0284873154014349,-0.03216175362467766,-0.04683567211031914,-0.14505548775196075,-0.014758135192096233,-0.038150351494550705,0.046363089233636856,0.046745773404836655,-0.01691412925720215,-0.10006993263959885,-0.07739604264497757,0.07356466352939606,0.10363839566707611,-0.05212405323982239,-0.032699912786483765,0.06603533774614334,-0.1387762576341629,0.19621609151363373,0.06548835337162018,-0.01647360995411873,-0.20845797657966614,0.05686924606561661,0.10660294443368912,-0.07735978811979294,-0.06291553378105164,0.09368792176246643,-0.044846951961517334,0.11219559609889984,-0.1453373283147812,-0.07152226567268372,-0.02715919353067875,-0.17131401598453522,-0.0378858856856823,0.0512685552239418,0.021626994013786316,-0.11561590433120728,0.09655403345823288,-0.024388207122683525,-0.02696385234594345,-0.005998827517032623,-0.023784970864653587,-0.11388113349676132,-0.03746747598052025,-0.049681276082992554,-0.24259017407894135,-0.25751450657844543,0.13047374784946442,-0.09900127351284027,0.05568363144993782,-0.0506012961268425,0.016089843586087227,0.04324234649538994,0.18202856183052063,-0.05876394361257553,-0.05668632313609123,-0.009889177978038788,-0.17694419622421265,-0.14490921795368195,0.030021190643310547,0.007533542811870575,0.036721330136060715,-0.08094283938407898,-0.034460291266441345,-0.009422839619219303,0.13890264928340912,-0.0734545886516571,0.020567722618579865,-0.14371757209300995,-0.10688672214746475,-0.034665029495954514,-0.09127930551767349,0.053460296243429184,-0.2419656664133072,-0.10021005570888519,0.03385641798377037,0.05476529523730278,-0.0537138395011425,-0.00537079107016325,0.08869875222444534,0.049131859093904495,-0.05380614474415779,-0.14129246771335602,-0.05591467395424843,0.06568112969398499,-0.07383083552122116,-0.03166636824607849,-0.12043977528810501,-0.015527450479567051,0.05086013302206993,-0.021727556362748146,-0.05178171768784523,-0.05519980192184448,0.07740651816129684,0.14445306360721588,-0.07429061084985733,0.05146578699350357,-0.1266547590494156,-0.0859019085764885,-0.054490331560373306,-0.011123919859528542,-0.19989685714244843,0.08689426630735397,0.13643182814121246,-0.04810645431280136,0.03684237599372864,-0.01592846028506756,0.03421632945537567,0.12062949687242508,0.09901800006628036,-0.09386096894741058,-0.10985364764928818,-0.003159524640068412,0.07240971177816391,-0.042622730135917664,0.05750412493944168,-0.004149357322603464,-0.04754455015063286,-0.10990782082080841,-0.09654166549444199,0.0036994663532823324,-0.03663692995905876,0.12156971544027328,0.09538060426712036],[-0.20275118947029114,0.04799723997712135,-0.20527537167072296,0.0,0.13654713332653046,-0.07004651427268982,-0.27688002586364746,0.0007622515549883246,-0.19511094689369202,-0.1046852245926857,-0.281782865524292,-0.12142826616764069,-0.06069416180253029,0.313357412815094,0.026240671053528786,-0.09017208963632584,-0.14558465778827667,-0.16564401984214783,0.27579089999198914,-0.12187052518129349,-0.19224520027637482,-0.2776462435722351,0.17396602034568787,0.029232999309897423,0.15968012809753418,-0.04440899193286896,-0.08142346143722534,-0.07233037054538727,0.15313129127025604,-0.2832011878490448,-0.15321724116802216,-0.10790227353572845,-0.16968871653079987,-0.2451973557472229,0.00834491103887558,0.20772457122802734,0.13708588480949402,-0.3065621554851532,-0.02565709687769413,-0.17036870121955872,-0.20341366529464722,-0.16259658336639404,-0.2118125557899475,-0.1180235967040062,-0.013206382282078266,0.012614057399332523,-0.10420805215835571,-0.1749161332845688,-0.2271503210067749,0.13859863579273224,0.08024488389492035,-0.08831099420785904,-0.006574529223144054,-0.34257930517196655,0.053401608020067215,0.0038415580056607723,-0.27550384402275085,-0.3381391763687134,-0.18560315668582916,-0.31110408902168274,-0.13281098008155823,-0.2209315001964569,-0.28172698616981506,-0.052294690161943436,0.13073275983333588,0.05148237943649292,-0.12002255022525787,0.04825308173894882,-0.08813156932592392,-0.0628693699836731,-0.08323648571968079,-0.123485267162323,-0.33744052052497864,-0.14798052608966827,-0.10808200389146805,-0.24807476997375488,-0.29395991563796997,-0.2566830515861511,0.033355336636304855,0.11967648565769196,0.04290122911334038,-0.19808253645896912,-0.07660673558712006,-0.3250904381275177,-0.16507241129875183,0.04863723739981651,-0.06942831724882126,-0.10411743074655533,-0.2481543868780136,0.0866701677441597,-0.18679001927375793,0.12028958648443222,-0.26236745715141296,-0.04967120662331581,-0.19254109263420105,-0.1446905881166458,0.3560122847557068,-0.1415724903345108,-0.006254322361201048,-0.25212329626083374,-0.2384604811668396,-0.3195338845252991,-0.16049276292324066,-0.11304926127195358,-0.2574462890625,0.02697841264307499,0.11425329744815826,0.19830837845802307,-0.0656575858592987,-0.09659824520349503,-0.2648313343524933,0.21228498220443726,0.029413435608148575,-0.15572285652160645,-0.14107906818389893,-0.04364261031150818,-0.10367537289857864,-0.20664872229099274,0.11216671019792557,-0.2994847893714905,-0.18160907924175262,-0.22891415655612946,-0.06920614838600159,-0.2540292739868164,-0.21064262092113495,-0.26303693652153015,0.2523062527179718,-0.2519240379333496,-0.27272310853004456,0.04221508651971817,-0.08116547018289566,-0.09145138412714005,0.31807178258895874,0.06687203049659729,-0.13269825279712677,0.014507923275232315,-0.01540166512131691,-0.21702419221401215,-0.07156754285097122,-0.12385997176170349,0.10003781318664551,-0.06930956244468689,-0.27835872769355774,0.07674229145050049,-0.12537150084972382,0.14585787057876587,-0.3524104654788971,-0.10893990099430084,-0.07746491581201553,-0.10769739747047424,-0.32989704608917236,-0.1726149022579193,0.21750381588935852,-0.16725969314575195,0.29197922348976135,-0.22311937808990479,-0.1300874501466751,0.014130057767033577,-0.1945391595363617,-0.1900397539138794,0.13961414992809296,-0.06594816595315933,-0.22194816172122955,-0.16244599223136902,0.05055602267384529,-0.11369232833385468,-0.21262311935424805,-0.10985790193080902,-0.09306271374225616,-0.32108452916145325,0.031463660299777985,-0.2144157886505127,-0.23621708154678345,-0.05873381718993187,-0.05530362203717232,0.09424663335084915,-0.20051836967468262,-0.1611236333847046,-0.16163308918476105,-0.20611824095249176,-0.18927590548992157,-0.10147260129451752,-0.250944584608078,-0.10875328630208969,0.22528377175331116,-0.02358420193195343,-0.056939948350191116,0.006735142786055803,-0.10044160485267639,-0.11674612015485764,-0.3275999128818512,0.0026483996771275997,-0.2194741666316986,-0.059509653598070145,-0.0983814001083374,-0.18389278650283813,0.23109766840934753,-0.26181355118751526,0.16967353224754333,0.12188418954610825,-0.1884586215019226,0.15172405540943146,-0.08383237570524216,-0.08486615121364594,0.03413096442818642,-0.08617604523897171,-0.06840506941080093,0.10407701879739761,0.14056983590126038,-0.14643442630767822,0.12299739569425583,-0.25105100870132446,-0.03206327185034752,-0.08441613614559174,0.029928186908364296,-0.2706545889377594,0.1790015548467636,-0.19354116916656494,-0.06229179725050926,-0.11511915922164917,0.1749558299779892,-0.03562266752123833,-0.18784190714359283,-0.35185176134109497,-0.16814880073070526,-0.1302637904882431,0.20287978649139404,-0.3042013645172119,-0.20534716546535492,-0.07507482171058655,-0.101572684943676,-0.306402325630188,-0.16768646240234375,-0.21099548041820526,0.07107949256896973,-0.04067624360322952,-0.15271387994289398,0.07811987400054932,0.15659765899181366,-0.28716444969177246,-0.24772807955741882,-0.055649228394031525,-0.16079777479171753,0.0960155799984932,0.021135348826646805,-0.16585293412208557,-0.3319546580314636,-0.16875198483467102,-0.06920892000198364,0.0018859991105273366,-0.07716649025678635,-0.2528306841850281,-0.17239299416542053,-0.20988908410072327,-0.15799981355667114,-0.12815749645233154],[0.0905613973736763,-0.0610818974673748,-0.06120125576853752,0.08739778399467468,0.0,-0.08199302852153778,-0.041021961718797684,0.18194343149662018,0.02998841553926468,-0.031667690724134445,-0.028760027140378952,0.009038882330060005,0.15806779265403748,0.16592425107955933,0.15077745914459229,0.1249772235751152,-0.04308449476957321,0.00961421336978674,0.0190118420869112,-0.07764218747615814,0.09756883978843689,0.0939563661813736,0.09902328997850418,0.15528443455696106,0.023266145959496498,0.2602362036705017,0.05609695240855217,0.09103014320135117,0.008367149159312248,0.1295011341571808,0.038906071335077286,-0.008167690597474575,-0.07345808297395706,0.01883065700531006,0.10369586199522018,0.36026597023010254,0.025936158373951912,-0.028567122295498848,0.009350316599011421,0.12366301566362381,-0.0000014067045412957668,-0.034558579325675964,-0.1166815459728241,-0.028446579352021217,-0.029626861214637756,0.04633597284555435,0.09904325008392334,-0.011701179668307304,-0.054167505353689194,-0.042583905160427094,0.08530937135219574,-0.0012780821416527033,0.0997811034321785,0.05077018216252327,-0.05430160090327263,0.014932269230484962,-0.003651686478406191,0.1338549703359604,-0.029437832534313202,-0.0879993662238121,0.06010371074080467,-0.0015317186480388045,0.05909109115600586,0.07768641412258148,0.07911138236522675,0.24116285145282745,-0.017678093165159225,0.23050527274608612,0.0061311195604503155,-0.22622045874595642,0.21903467178344727,0.2570723295211792,-0.031907252967357635,-0.12388778477907181,-0.036012087017297745,0.029663221910595894,0.03801138326525688,0.006076459772884846,0.12163113057613373,0.08226081728935242,-0.022459741681814194,0.02065419778227806,0.24449880421161652,-0.03692437708377838,0.12635977566242218,0.022902149707078934,0.1561722606420517,0.0742717981338501,0.10938770323991776,0.04424974322319031,-0.07140105962753296,-0.05167254060506821,0.03179457038640976,0.02592550590634346,-0.07881131023168564,-0.06645380705595016,0.13683472573757172,-0.07822425663471222,-0.016719069331884384,0.12456906586885452,-0.005952064413577318,0.0764928013086319,0.035191506147384644,0.07433845847845078,0.07073922455310822,-0.005735904444009066,-0.0740334764122963,0.2618289291858673,-0.06458710879087448,-0.01777820475399494,0.05188959091901779,0.10029224306344986,0.12876689434051514,-0.059165194630622864,-0.04087010398507118,0.10424334555864334,-0.07465548068284988,-0.0579928420484066,0.020808039233088493,-0.008475014008581638,-0.024337871000170708,0.1578434556722641,0.07892357558012009,0.08344443142414093,-0.00720938527956605,-0.009675852954387665,0.13938689231872559,0.03369545191526413,0.10030306130647659,0.04039405286312103,0.0782509371638298,0.20166786015033722,0.19677221775054932,0.012463189661502838,0.034546688199043274,-0.0559382401406765,-0.06053699925541878,-0.06552007794380188,0.049709100276231766,0.13136152923107147,0.06722318381071091,0.005733697209507227,-0.018802087754011154,0.2918894290924072,0.21442776918411255,-0.08915000408887863,-0.01802922785282135,0.06371268630027771,-0.08487511426210403,0.03855559229850769,0.0714263767004013,-0.013612947426736355,0.35854941606521606,0.10756942629814148,0.11239148676395416,-0.031729865819215775,0.00026037159841507673,0.17735455930233002,0.027801575139164925,-0.09665301442146301,0.17714060842990875,-0.14644590020179749,0.02462552860379219,0.011686382815241814,0.019719883799552917,-0.2926543653011322,0.14391976594924927,0.11302568763494492,0.15481466054916382,0.08064194768667221,-0.01794539950788021,-0.05562884360551834,-0.029451780021190643,-0.029624078422784805,0.13574014604091644,-0.11985068023204803,-0.008653348311781883,0.0577094592154026,0.12447889149188995,0.02355520986020565,-0.19971075654029846,-0.023928886279463768,0.0017043089028447866,0.015405978076159954,-0.0029424275271594524,0.10763511061668396,-0.022681981325149536,-0.13023415207862854,-0.02457241900265217,-0.16144369542598724,0.0039662509225308895,0.39204201102256775,0.1104571670293808,0.21484152972698212,0.05469709634780884,0.1476212441921234,-0.15197673439979553,0.1786281019449234,0.16436676681041718,0.260936975479126,-0.043840184807777405,0.09070271998643875,-0.12829181551933289,0.18454650044441223,0.04438813403248787,0.07992737740278244,0.008837807923555374,0.01917175017297268,0.0006675460026599467,0.17081503570079803,0.14374284446239471,0.16622015833854675,-0.04405733570456505,0.03595800697803497,0.21042272448539734,-0.016839617863297462,0.22756266593933105,-0.06927027553319931,0.14174433052539825,-0.13717637956142426,0.29493746161460876,0.13835427165031433,-0.04913504421710968,-0.137058824300766,0.11554791033267975,0.03920004889369011,0.2745341956615448,0.2067091464996338,0.0534612238407135,0.11422314494848251,-0.07716017216444016,0.08963700383901596,-0.0598151832818985,0.10445833206176758,0.04299311712384224,0.14045581221580505,0.06811196357011795,0.2641354203224182,0.07349176704883575,0.04900173470377922,-0.09345190972089767,0.08304372429847717,0.043538935482501984,0.05311204493045807,0.026731647551059723,-0.014252248220145702,0.06166836991906166,0.018266350030899048,0.015269880183041096,0.10718578845262527,0.11827678233385086,-0.0008158308337442577,0.2527786195278168,0.04085375368595123,-0.02600005269050598,0.13175280392169952],[0.05956171080470085,0.16988584399223328,-0.03998183086514473,-0.16587373614311218,-0.17785285413265228,0.0,-0.09035667777061462,0.1393015831708908,-0.06288338452577591,-0.0799340009689331,-0.4774690866470337,0.08273036032915115,0.022688589990139008,-0.20837785303592682,0.24575240910053253,0.15066300332546234,0.22435608506202698,-0.043799467384815216,0.2382224202156067,0.02171989344060421,-0.009837926365435123,-0.33426207304000854,0.11630217730998993,-0.16225983202457428,0.038069240748882294,-0.07466623932123184,0.012735323049128056,-0.08275439590215683,-0.16343116760253906,0.058771271258592606,-0.08059220016002655,-0.25978976488113403,0.05561975762248039,-0.36046892404556274,0.15607987344264984,-0.17051108181476593,-0.07743257284164429,0.04629926383495331,0.0409044474363327,0.09265780448913574,-0.12160595506429672,-0.0695713683962822,-0.052197545766830444,0.29923734068870544,0.089633509516716,0.05752267688512802,-0.11961202323436737,0.009932132437825203,-0.015422521159052849,-0.26360347867012024,0.05927644670009613,0.09829410910606384,-0.1887303590774536,-0.1142812967300415,0.014405510388314724,-0.14043112099170685,-0.13485778868198395,0.02748071402311325,0.013570310547947884,-0.1902172565460205,0.038836024701595306,0.0623859241604805,0.07841843366622925,-0.30940720438957214,0.09548018872737885,-0.030840976163744926,-0.054110102355480194,0.11058162152767181,0.028875626623630524,-0.013768931850790977,-0.046313803642988205,-0.06520292162895203,0.043983131647109985,0.039575688540935516,-0.04774085059762001,-0.036307405680418015,-0.257382869720459,-0.3395121991634369,0.19459816813468933,-0.07475460320711136,0.14863727986812592,-0.02132076397538185,-0.1419060230255127,-0.045152321457862854,0.1295337975025177,-0.012236380018293858,0.16069002449512482,-0.06665783375501633,-0.0898079201579094,-0.2805570960044861,-0.08687090128660202,-0.057048723101615906,-0.40480607748031616,0.21966493129730225,-0.0885065495967865,-0.27966365218162537,-0.15331004559993744,-0.0927252471446991,-0.2210308462381363,-0.00930954422801733,-0.14220261573791504,0.024751504883170128,-0.10128158330917358,-0.18858030438423157,0.1883348822593689,-0.05596882477402687,-0.0008103366126306355,-0.17950573563575745,-0.1022106260061264,-0.032188866287469864,0.06827276945114136,-0.32204726338386536,-0.004548872821033001,0.0014685780042782426,-0.01248351763933897,0.023415403440594673,-0.10446739196777344,0.13491101562976837,0.060540810227394104,-0.2137949913740158,-0.06149578467011452,-0.05641477555036545,0.21608710289001465,0.04313304275274277,-0.13304640352725983,-0.09714987874031067,-0.09965036809444427,0.058032792061567307,-0.04569064453244209,-0.005936563014984131,0.02741697058081627,-0.06664921343326569,-0.329868346452713,0.165679469704628,0.17097681760787964,0.04078363999724388,-0.03831661865115166,-0.15699034929275513,-0.11533045768737793,0.06460973620414734,-0.14299200475215912,0.03420956805348396,0.02422788366675377,-0.0720013976097107,0.037978462874889374,-0.19011139869689941,0.17164281010627747,0.05874737352132797,-0.10126951336860657,0.20481105148792267,-0.16388535499572754,0.12783707678318024,-0.3099709749221802,-0.1390543282032013,0.07338063418865204,-0.14233256876468658,-0.061222393065690994,0.024450529366731644,0.10030297935009003,-0.2137245237827301,-0.1696847677230835,0.0005687503726221621,-0.18091610074043274,0.001926171942614019,-0.12520994246006012,0.12574876844882965,0.15641888976097107,0.07502167671918869,-0.29057884216308594,-0.03732181340456009,0.10038512200117111,-0.026581937447190285,0.052368439733982086,0.12641921639442444,-0.13372841477394104,0.017057156190276146,-0.1740996241569519,0.007817074656486511,-0.2891589105129242,0.08262583613395691,0.037533119320869446,0.034711115062236786,-0.23721057176589966,-0.0013296720571815968,0.1523827314376831,-0.021879371255636215,0.10752197355031967,-0.06805503368377686,0.16090022027492523,0.03419940546154976,-0.026870153844356537,-0.15264025330543518,0.0554468147456646,-0.415364146232605,-0.05920809134840965,-0.039886411279439926,-0.15622803568840027,0.19333261251449585,-0.17512920498847961,0.019001225009560585,-0.07976199686527252,0.046984169632196426,0.16165156662464142,0.280582457780838,0.02729945071041584,-0.1275097280740738,0.05029032379388809,0.0108863590285182,-0.16964758932590485,-0.14778771996498108,0.02392856776714325,0.036620113998651505,0.08770051598548889,-0.11588170379400253,-0.04682927206158638,0.09391035884618759,0.012398585677146912,0.15190710127353668,-0.08559833467006683,-0.2568298280239105,-0.1726057529449463,0.06727220863103867,0.1025402769446373,0.1358819603919983,0.1565319448709488,-0.08959392458200455,-0.27664193511009216,0.0331791527569294,-0.09801860898733139,0.020937131717801094,0.022572198882699013,0.04243761673569679,-0.2025454044342041,0.04898592457175255,0.1842901110649109,-0.2141280174255371,-0.06318320333957672,0.0067537459544837475,-0.09850788116455078,0.10936375707387924,0.1387849897146225,-0.15442807972431183,0.030022794380784035,-0.17465637624263763,0.06378605216741562,-0.11565230041742325,-0.07179468870162964,-0.1430252641439438,0.28115662932395935,-0.10666488856077194,-0.13694354891777039,-0.12516073882579803,-0.15072782337665558,-0.05675845220685005,-0.043862830847501755,0.022374479100108147],[0.09806715697050095,-0.010406197048723698,0.02500823140144348,0.03747166693210602,0.02611524425446987,0.011441616341471672,0.0,0.021698126569390297,-0.050710711628198624,-0.13867254555225372,-0.12237603962421417,0.12068532407283783,0.06888078898191452,-0.124807208776474,-0.15710803866386414,0.011875856667757034,0.001451987074688077,-0.06857763975858688,0.013131348416209221,-0.23622693121433258,-0.16044707596302032,-0.12545059621334076,-0.12937892973423004,-0.05132422223687172,-0.02027084305882454,-0.046184469014406204,-0.11882341653108597,0.3032798767089844,-0.04855222627520561,-0.08037213981151581,0.0745963603258133,-0.08845559507608414,-0.07593477517366409,-0.0651935264468193,-0.13888978958129883,0.012293452396988869,-0.05974024906754494,0.08100081235170364,-0.03202353045344353,-0.06129037216305733,-0.04269573464989662,0.2145569920539856,0.030751237645745277,-0.13510777056217194,-0.047478124499320984,-0.14042040705680847,0.05822845548391342,-0.02018195390701294,0.13590185344219208,-0.08880967646837234,-0.10757869482040405,-0.036628544330596924,-0.0960262268781662,-0.01205177791416645,0.08042432367801666,-0.08488520979881287,0.03290967270731926,0.07665444165468216,-0.03477408364415169,-0.19903908669948578,0.24342966079711914,0.06741489470005035,0.0064818705432116985,-0.10517621785402298,0.03166172280907631,0.09463980048894882,0.011531108990311623,0.00044726626947522163,-0.022916745394468307,0.025294186547398567,-0.16664952039718628,-0.06924554705619812,-0.016359595581889153,0.061705607920885086,-0.019147366285324097,-0.22409485280513763,-0.15877403318881989,-0.05609240010380745,-0.17778584361076355,-0.020253874361515045,-0.00816691666841507,0.009552620351314545,-0.06965507566928864,0.10268604010343552,0.05515775829553604,-0.05576310306787491,-0.05747514218091965,-0.12318190932273865,-0.2893562316894531,-0.07410797476768494,0.046302489936351776,-0.06426762044429779,-0.1384407877922058,0.008176540024578571,0.04762333258986473,0.3376860022544861,-0.03424350172281265,0.04681524261832237,-0.07567445933818817,-0.06305026262998581,0.2624342739582062,0.12419706583023071,-0.12436400353908539,-0.00816035270690918,-0.03505587950348854,-0.09478650987148285,-0.09727394580841064,-0.006298758089542389,-0.07413854449987411,0.04492899030447006,0.029662368819117546,-0.25793206691741943,-0.15224701166152954,-0.04504057392477989,0.012179230339825153,-0.13577865064144135,-0.2295425534248352,0.029758980497717857,0.133419468998909,-0.09929452836513519,0.1346464902162552,0.03292643278837204,-0.08819717168807983,0.023506347090005875,0.07019908726215363,0.09976153820753098,-0.0599517859518528,-0.04308900982141495,-0.01818149723112583,-0.17869383096694946,0.14786210656166077,0.101299948990345,-0.009516439400613308,0.037094369530677795,0.03341566398739815,0.00720620434731245,0.0985901728272438,0.21766267716884613,-0.08172927051782608,-0.07818955928087234,0.06070419400930405,0.12740977108478546,0.21456339955329895,-0.08065450191497803,-0.0013227236922830343,0.1203271672129631,0.055702537298202515,-0.02391594834625721,0.0345517173409462,-0.0015095603885129094,0.025462381541728973,-0.02252679318189621,-0.1053653284907341,0.35614311695098877,-0.05352530628442764,0.05900266394019127,-0.11048346757888794,0.053793709725141525,0.21062925457954407,-0.12616440653800964,-0.11834340542554855,-0.10481755435466766,0.0721035897731781,-0.14679768681526184,-0.10528150200843811,-0.030058786273002625,-0.1662159413099289,0.05932192876935005,-0.003135575447231531,-0.07384414970874786,0.00868175644427538,-0.010327628813683987,-0.019463632255792618,-0.002048465656116605,-0.17128674685955048,-0.04360131174325943,-0.02638460509479046,-0.10471002757549286,-0.04975118115544319,0.07795331627130508,-0.057753678411245346,-0.02756389044225216,-0.26608771085739136,-0.16123971343040466,-0.1181517019867897,-0.007423674687743187,0.030842112377285957,0.015294487588107586,-0.08721410483121872,0.11627312004566193,-0.11283815652132034,-0.056177739053964615,-0.0064271981827914715,0.07146348804235458,0.045650921761989594,0.09190639853477478,-0.11772965639829636,-0.005361889488995075,-0.13567760586738586,-0.04188164323568344,-0.10377787798643112,-0.1325099617242813,-0.03734544664621353,-0.01796799711883068,-0.19022667407989502,-0.006836538203060627,-0.17918451130390167,0.1433865875005722,0.033627089112997055,0.02361775003373623,-0.061475396156311035,0.12392984330654144,-0.13321979343891144,-0.07632311433553696,-0.1568458080291748,0.027958817780017853,-0.1656242460012436,-0.05570557713508606,-0.11517064273357391,-0.02106398157775402,-0.0019251268822699785,0.07853137701749802,-0.18199504911899567,-0.06633351743221283,0.07895322889089584,-0.05485045164823532,-0.14447562396526337,-0.06497087329626083,-0.004856017883867025,0.13080115616321564,-0.06039971113204956,0.24000190198421478,0.22872912883758545,0.04079515114426613,-0.18164385855197906,0.015682553872466087,-0.020326752215623856,-0.0693039521574974,-0.1599503606557846,-0.0740279033780098,0.00451025553047657,0.01411462388932705,-0.08179314434528351,-0.1309908777475357,0.017249610275030136,-0.0859825536608696,-0.07519299536943436,0.17387442290782928,-0.057424478232860565,0.0391603447496891,-0.07639563083648682,-0.08802519738674164,-0.017656903713941574,0.13258709013462067,-0.08844491839408875,0.05678746476769447],[-0.020501792430877686,-0.07075721770524979,0.05402667820453644,-0.22795408964157104,0.21730288863182068,0.13064086437225342,-0.05473066121339798,0.0,-0.013463717885315418,0.031009826809167862,0.08839965611696243,-0.07017585635185242,0.011211489327251911,-0.10051511228084564,0.03304888308048248,0.03921695426106453,0.028977444395422935,0.05207522213459015,-0.04860913008451462,-0.1733086109161377,-0.1416846066713333,-0.14875490963459015,0.02704211138188839,-0.048503220081329346,0.1741420179605484,0.05893731117248535,0.1567106693983078,-0.056198712438344955,0.03649068996310234,0.011754782870411873,0.0478992722928524,-0.17541347444057465,0.08254855871200562,-0.04438468813896179,0.023160189390182495,0.019097182899713516,0.04607495293021202,0.0346345454454422,0.021205032244324684,0.1413567215204239,-0.024125218391418457,0.061486098915338516,0.055247917771339417,0.106679767370224,0.042314641177654266,0.08111166954040527,-0.065109021961689,0.09551917016506195,0.017472147941589355,-0.17417794466018677,0.03777048736810684,0.0036099327262490988,-0.06450654566287994,0.0837988406419754,-0.15981866419315338,0.08866128325462341,-0.017133481800556183,0.0840216726064682,-0.07134044170379639,0.15887874364852905,-0.12834212183952332,-0.10447514802217484,-0.09261991828680038,0.14716194570064545,-0.04644865170121193,0.11367123574018478,-0.07263319939374924,0.001604430959559977,0.03126407414674759,0.06520991027355194,-0.03228512778878212,0.0325327105820179,-0.05336793139576912,-0.10487296432256699,-0.07280217111110687,-0.014198215678334236,0.12258755415678024,-0.015457316301763058,-0.007423346396535635,-0.05738646537065506,0.1910417526960373,0.13418342173099518,0.08383495360612869,-0.25110572576522827,0.011116399429738522,-0.2399112731218338,0.1322193741798401,0.1401616781949997,0.11509999632835388,-0.10506466776132584,0.009086423553526402,-0.09673292934894562,-0.06728040426969528,0.12283428758382797,0.03692516312003136,-0.06318256258964539,-0.03728007152676582,0.04724717140197754,-0.042276907712221146,0.01871105656027794,0.1429518759250641,-0.021408820524811745,-0.059425950050354004,0.04247114807367325,-0.14108024537563324,0.006551792379468679,0.13372641801834106,0.07970593124628067,0.014695636928081512,-0.017346234992146492,0.0841437354683876,-0.292091965675354,-0.09151214361190796,-0.13786378502845764,0.010854506865143776,0.13027039170265198,0.0004744543693959713,0.014204554259777069,0.22451083362102509,-0.1287384182214737,-0.12235472351312637,-0.16259795427322388,0.16830182075500488,-0.15010419487953186,0.034857720136642456,-0.031176064163446426,-0.04446932300925255,-0.040869951248168945,0.06720804423093796,-0.03230122849345207,0.1259489804506302,-0.03646639361977577,-0.22269806265830994,-0.09321139007806778,-0.023643355816602707,0.10779894888401031,-0.08913679420948029,0.056235235184431076,0.030744031071662903,-0.09411124885082245,0.010553243570029736,0.03681839630007744,-0.02597791515290737,0.04389938339591026,0.07901071012020111,0.05927920714020729,0.04211260750889778,-0.07578501850366592,-0.1916106939315796,0.01635695993900299,0.0686207041144371,0.15393775701522827,-0.018363116309046745,-0.08496786653995514,-0.24277427792549133,0.06397809833288193,-0.10498324036598206,0.2511729598045349,0.06669631600379944,-0.04204249382019043,-0.12876737117767334,-0.1459973305463791,0.020777538418769836,0.003867963096126914,-0.028229817748069763,-0.1040094792842865,0.0361708365380764,-0.012657910585403442,0.0637660101056099,-0.048177000135183334,-0.10804898291826248,-0.11479398608207703,0.0348031185567379,0.02481148950755596,0.0035074588377028704,-0.0011268905363976955,-0.020241228863596916,-0.17702752351760864,0.056058406829833984,0.24271300435066223,-0.046692874282598495,-0.044424962252378464,0.010792765766382217,-0.0641385093331337,0.04502240940928459,0.061234019696712494,-0.00261129904538393,-0.04661916196346283,0.02553224191069603,-0.041850924491882324,0.08960390836000443,-0.09642615169286728,0.04995309188961983,0.1255526840686798,0.006744155194610357,0.0562039352953434,-0.14568504691123962,0.003418129403144121,-0.25205445289611816,0.10425495356321335,-0.05551345646381378,-0.11158265173435211,-0.04480193182826042,-0.04045417532324791,0.033974140882492065,-0.013595798052847385,-0.09733866900205612,0.1835445910692215,-0.06618191301822662,-0.008511035703122616,-0.08273740112781525,0.13204938173294067,0.04041265323758125,-0.14638416469097137,-0.06376750767230988,-0.0877518579363823,-0.061302315443754196,-0.012051215395331383,0.02276657521724701,-0.00697304168716073,0.07289979606866837,-0.0614338293671608,-0.07814618945121765,0.037408120930194855,0.2239464819431305,0.1051090732216835,0.047760963439941406,-0.06491570174694061,-0.057748861610889435,-0.030520955100655556,0.12494765967130661,0.07372748106718063,-0.05547943338751793,-0.013681161217391491,0.02521643042564392,0.00763531681150198,-0.11815967410802841,0.07319194823503494,-0.09278906881809235,-0.003867192193865776,0.07241865247488022,-0.0756504237651825,-0.05931197479367256,-0.1978362798690796,0.06886129826307297,-0.09703006595373154,-0.17983286082744598,-0.17200158536434174,0.03155810758471489,0.029130036011338234,-0.14498096704483032,0.030906593427062035,0.16014894843101501,-0.0032447378616780043,-0.005737102124840021,-0.015417681075632572],[-0.1060561090707779,0.13427771627902985,-0.00634453259408474,0.19794861972332,-0.2606087923049927,0.0024059589486569166,-0.4051918089389801,-0.15108199417591095,0.0,0.07453469187021255,-0.07359566539525986,-0.11898142099380493,-0.2231723815202713,-0.12046254426240921,0.09647158533334732,-0.28370800614356995,-0.026053478941321373,-0.039423584938049316,-0.09789883345365524,-0.10411440581083298,0.037910737097263336,-0.19570225477218628,-0.09877128899097443,-0.23305116593837738,-0.005656215827912092,0.08311581611633301,-0.11632848531007767,-0.23071207106113434,0.08160107582807541,-0.1750360131263733,-0.15051837265491486,-0.06818892061710358,-0.20225751399993896,-0.13668030500411987,0.008206319995224476,-0.21647799015045166,-0.1722654104232788,-0.19525478780269623,0.0921826958656311,-0.21694587171077728,-0.5699929594993591,-0.23575647175312042,-0.125370591878891,-0.10904095321893692,-0.11050888895988464,-0.09516318142414093,-0.17518098652362823,-0.15158453583717346,-0.18816393613815308,-0.03956224396824837,0.06355056911706924,0.04866831749677658,-0.1430826038122177,-0.11312233656644821,-0.0018745142733678222,-0.04296674579381943,0.022859282791614532,-0.2091139405965805,0.01601112261414528,-0.022956959903240204,-0.4146057367324829,-0.16362755000591278,-0.4795225262641907,-0.015547722578048706,-0.3295879065990448,-0.0951002761721611,-0.0459025502204895,-0.08695811033248901,-0.08517429977655411,-0.15447328984737396,-0.010189400054514408,-0.14344681799411774,-0.028179436922073364,-0.4087468385696411,-0.004260223358869553,0.06248912960290909,-0.035915814340114594,-0.23163671791553497,0.05387153849005699,0.07489699870347977,0.27301889657974243,-0.034558847546577454,-0.055702827870845795,0.29340869188308716,-0.1788664013147354,0.15561135113239288,-0.31079813838005066,-0.007166028954088688,-0.08481427282094955,-0.2181326299905777,-0.17787189781665802,-0.015223138965666294,-0.1997871994972229,-0.0907876193523407,0.013244692236185074,-0.23558993637561798,-0.21038980782032013,-0.29095739126205444,-0.0576590821146965,-0.05315392091870308,-0.37751340866088867,-0.019929328933358192,-0.17021365463733673,-0.023889517411589622,-0.2061566412448883,-0.022353829815983772,-0.2342723160982132,-0.06939506530761719,-0.3446500897407532,-0.19191597402095795,-0.3021624684333801,0.04424844682216644,0.19398431479930878,-0.1271582394838333,0.0005278198514133692,0.04053807631134987,0.10972844809293747,-0.006934455130249262,0.005440723616629839,-0.03675033524632454,-0.009849133901298046,-0.375870019197464,0.011247255839407444,-0.03205195441842079,-0.08258307725191116,-0.1365114152431488,-0.18707461655139923,-0.15176276862621307,0.16307170689105988,-0.11916162818670273,0.030595820397138596,0.07097559422254562,-0.33423131704330444,-0.1853986233472824,-0.06157964468002319,-0.03027300536632538,0.15809248387813568,-0.42087164521217346,-0.13036581873893738,-0.06996218115091324,-0.4578699469566345,-0.04059620201587677,-0.18318134546279907,-0.03874841704964638,-0.006684505846351385,-0.42780348658561707,0.19812728464603424,-0.017940441146492958,-0.015347961336374283,0.15172113478183746,-0.0805971771478653,0.052166763693094254,0.198639377951622,-0.032574500888586044,-0.29571858048439026,-0.360714852809906,-0.08246099948883057,-0.04805276542901993,-0.32052847743034363,-0.1080261692404747,-0.07532651722431183,-0.0648789331316948,-0.08109612762928009,-0.12028857320547104,0.06268274784088135,0.029586421325802803,0.031484853476285934,-0.0754556730389595,0.032477933913469315,-0.12894563376903534,-0.10504942387342453,-0.164605513215065,0.04793650656938553,0.060941144824028015,0.03221964091062546,-0.11198635399341583,-0.11045707762241364,-0.30336520075798035,0.12179416418075562,-0.06170101463794708,0.1488574892282486,-0.19970649480819702,-0.03715375438332558,0.12366433441638947,-0.09565875679254532,-0.21884076297283173,-0.14533153176307678,-0.07464247941970825,0.009020996280014515,0.06113973632454872,-0.021514205262064934,0.0036336646880954504,-0.44811809062957764,-0.2107905149459839,-0.08631452172994614,-0.28943222761154175,-0.20691551268100739,0.17448928952217102,0.20136623084545135,-0.15328626334667206,0.01961527019739151,-0.08203569054603577,0.019396666437387466,-0.15470899641513824,0.0021635880693793297,0.11709155142307281,0.10848817974328995,-0.1462012231349945,-0.16886651515960693,-0.19770732522010803,-0.08104009926319122,-0.1746983826160431,-0.048232823610305786,-0.16734488308429718,0.10366267710924149,-0.11425000429153442,0.16397909820079803,-0.03423701599240303,0.035067446529865265,0.1849556416273117,-0.15467584133148193,-0.22894954681396484,-0.056917689740657806,-0.013965470716357231,0.0659213587641716,0.028718777000904083,0.12730509042739868,-0.28971076011657715,0.1039930209517479,-0.11079870164394379,-0.011697537265717983,-0.2521161139011383,-0.31942206621170044,-0.27609071135520935,0.0943448543548584,-0.0964222103357315,-0.08755727857351303,0.14133059978485107,-0.24748864769935608,-0.06517220288515091,-0.070513054728508,-0.04912016540765762,0.16789235174655914,0.24813786149024963,-0.03823688253760338,-0.14703232049942017,0.02490260638296604,-0.23669156432151794,0.025416076183319092,-0.05491374060511589,0.1104058176279068,-0.12119008600711823,0.17900826036930084,-0.0011155017418786883,-0.20163077116012573,-0.3140779435634613],[-0.12378110736608505,-0.034051794558763504,0.008633125573396683,-0.2405422478914261,-0.041860632598400116,-0.0578954815864563,-0.106907419860363,-0.2417311817407608,0.022393839433789253,0.0,-0.20117203891277313,-0.22698472440242767,0.06168557330965996,-0.12720543146133423,0.1525314599275589,-0.1292254775762558,-0.006639366038143635,-0.07927247881889343,-0.09851624816656113,0.08900052309036255,0.12010960280895233,0.023093001917004585,0.02644404210150242,-0.0009925684425979853,-0.14396795630455017,-0.1610218733549118,-0.022715412080287933,-0.06139032915234566,0.09493323415517807,-0.17376932501792908,0.02985188364982605,-0.05430512875318527,-0.03200909495353699,0.030590781942009926,-0.0008615807164460421,0.07890764623880386,-0.1229935884475708,0.0200073029845953,0.0037546770181506872,-0.10542622208595276,-0.12801851332187653,0.019099488854408264,-0.10634595155715942,0.05708892643451691,-0.15951015055179596,0.413059800863266,-0.012402047403156757,-0.034498006105422974,0.006475185509771109,-0.17137348651885986,-0.024693934246897697,0.09794661402702332,-0.051077183336019516,-0.04338976740837097,-0.09181800484657288,-0.05279569700360298,0.08359383791685104,-0.11780740320682526,-0.1218964159488678,0.04349178075790405,-0.00034087590756826103,0.0066885026171803474,0.033425021916627884,-0.24090678989887238,0.02942594885826111,-0.2379237413406372,-0.04836444556713104,0.06338167190551758,-0.07276766747236252,0.03409617021679878,-0.12476501613855362,0.12823021411895752,0.11020534485578537,0.14641989767551422,-0.1501407027244568,0.016751624643802643,0.058133434504270554,-0.1383412927389145,-0.04346286877989769,0.04057949781417847,-0.08858031779527664,0.056803371757268906,-0.06219926103949547,0.0016470671398565173,0.15423163771629333,0.015185131691396236,-0.0700674057006836,0.009129916317760944,-0.06504754722118378,-0.022866711020469666,-0.04708418250083923,-0.15709106624126434,-0.039447929710149765,-0.03594283387064934,-0.09129580855369568,-0.05559834465384483,0.062073756009340286,0.04035305231809616,-0.11440137028694153,-0.011305057443678379,0.026002701371908188,0.005568277556449175,0.21028558909893036,-0.05853888764977455,-0.11939295381307602,-0.04325047507882118,0.1193963810801506,0.08677050471305847,-0.06026599928736687,-0.034915633499622345,-0.10664244741201401,-0.04564383625984192,-0.1334735006093979,0.11748950183391571,-0.11305901408195496,-0.11740393191576004,0.03184468299150467,0.047314539551734924,0.006853981874883175,-0.04700342193245888,-0.013576032593846321,-0.22322311997413635,-0.1328577697277069,-0.09145224839448929,0.05865411460399628,0.035474661737680435,0.07291162014007568,-0.10664046555757523,-0.1598660796880722,-0.11329460889101028,0.028497586026787758,0.08159291744232178,-0.18885046243667603,0.004407027270644903,-0.1259901523590088,-0.257045716047287,-0.02368343621492386,0.013043840415775776,-0.16784895956516266,-0.013481812551617622,-0.1717892587184906,-0.018362363800406456,-0.06503589451313019,0.012423921376466751,-0.035211946815252304,-0.2875497043132782,-0.15703554451465607,-0.08432497084140778,0.0994672104716301,-0.019698845222592354,0.024264613166451454,0.018773969262838364,-0.04725130647420883,0.052790455520153046,-0.07838000357151031,-0.052114881575107574,-0.1104719266295433,-0.1257401704788208,-0.07564959675073624,0.07636981457471848,0.03697291016578674,-0.04645217955112457,0.04944122955203056,-0.1124681681394577,0.15626539289951324,-0.10732270032167435,-0.04600294679403305,0.06007589399814606,-0.0662628635764122,0.06087157130241394,-0.054933950304985046,0.07922212034463882,0.058262355625629425,0.035561952739953995,0.17757000029087067,-0.04504082724452019,-0.12562237679958344,-0.08469264954328537,-0.09442586451768875,-0.10568193346261978,0.02097468636929989,-0.019016185775399208,0.053002726286649704,-0.05935916304588318,-0.15061600506305695,-0.06808535009622574,-0.10795819014310837,-0.003795002121478319,-0.12195124477148056,0.07042091339826584,-0.00408657593652606,-0.12993276119232178,-0.19183602929115295,0.007702225353568792,0.01681898720562458,-0.07414083927869797,-0.01047674659639597,0.01344311237335205,0.05636632815003395,-0.052232902497053146,-0.02904355525970459,-0.07382355630397797,-0.0766122043132782,-0.07215937227010727,-0.13618789613246918,-0.021741006523370743,-0.03821541368961334,-0.15847919881343842,-0.09125716984272003,0.031425971537828445,-0.004766085185110569,-0.06112818792462349,-0.10831094533205032,-0.04419950395822525,-0.0025737930554896593,-0.021080322563648224,-0.18758052587509155,-0.08535364270210266,-0.07869455218315125,-0.05504351481795311,-0.08992082625627518,-0.03343234583735466,-0.013363413512706757,-0.10040300339460373,0.565159022808075,0.07302308082580566,0.041709449142217636,-0.07092447578907013,0.1341138333082199,-0.04245945066213608,-0.03353016823530197,-0.009861985221505165,0.010686706751585007,-0.058623965829610825,-0.15380923449993134,-0.07342823594808578,-0.12106810510158539,-0.013310368172824383,-0.035565078258514404,-0.09838588535785675,-0.1337319165468216,0.22934234142303467,0.012576298788189888,-0.06659293919801712,-0.07462993264198303,0.07280857861042023,0.017319360747933388,-0.02383357100188732,-0.028626102954149246,0.048008065670728683,0.03338886424899101,-0.07087279856204987,-0.07491439580917358,-0.0142734469845891,-0.04232393577694893,-0.05878683179616928],[-0.15728135406970978,0.0818599984049797,-0.13344687223434448,-0.043749742209911346,0.0924246683716774,-0.048687100410461426,-0.11626086384057999,0.09688765555620193,-0.0814056247472763,-0.0671377032995224,0.0,-0.0020431815646588802,-0.17687992751598358,-0.2855108678340912,0.2737172544002533,-0.20729899406433105,-0.05471775308251381,-0.0027956347912549973,-0.0056433542631566525,-0.19930164515972137,-0.26787135004997253,0.2618045508861542,0.07582903653383255,0.16854572296142578,0.06822296977043152,0.3251921832561493,-0.03076963499188423,-0.2596871554851532,0.25432708859443665,0.08330671489238739,-0.14632347226142883,-0.02938978187739849,0.04075141251087189,0.12584932148456573,-0.08229736238718033,-0.33038458228111267,0.11062755435705185,-0.06868040561676025,-0.09550400823354721,0.3023102581501007,-0.041396912187337875,-0.0828910619020462,-0.13868215680122375,-0.2526353597640991,0.2723846435546875,0.022200683131814003,-0.08845469355583191,-0.02661353535950184,-0.04986785724759102,-0.2947051525115967,-0.06579595059156418,-0.10332415252923965,0.06542184203863144,-0.11257962137460709,-0.05905456468462944,-0.1192271038889885,0.03202803060412407,-0.18061169981956482,0.29606589674949646,0.13619592785835266,-0.20231671631336212,0.06543764472007751,-0.046755414456129074,0.23961637914180756,0.011218558065593243,-0.07438675314188004,0.1915593147277832,-0.07878817617893219,0.12903505563735962,-0.17405755817890167,0.23154939711093903,-0.19417668879032135,-0.09882233291864395,0.05426314100623131,-0.14058664441108704,-0.03573717176914215,0.18153052031993866,0.12747183442115784,0.18284446001052856,0.25550025701522827,-0.019838418811559677,-0.29211896657943726,0.0957663431763649,-0.09677817672491074,-0.22178992629051208,-0.03391656652092934,0.13813069462776184,0.1613171398639679,0.31021520495414734,-0.010791977867484093,-0.06789210438728333,0.04055771604180336,0.12337101250886917,-0.17059053480625153,-0.25393906235694885,-0.09796209633350372,0.034393057227134705,0.10964812338352203,0.23396576941013336,-0.04937859997153282,-0.11641871184110641,-0.1882239729166031,-0.0011846439447253942,-0.08677948266267776,-0.05727990344166756,0.004382535349577665,-0.05706967040896416,-0.022479061037302017,-0.2574043273925781,-0.014812893234193325,0.01703278347849846,-0.2660805583000183,-0.027951205149292946,-0.1227119192481041,-0.055631693452596664,-0.1673649251461029,-0.11833570152521133,0.0016558148199692369,0.04712994769215584,0.19514994323253632,0.08675923198461533,-0.06913533806800842,-0.0188522357493639,0.08419899642467499,-0.08850036561489105,-0.029185891151428223,0.10765969008207321,-0.03573985770344734,0.002612014766782522,0.0013422018382698298,0.04880904778838158,0.12396572530269623,-0.28503161668777466,-0.10405230522155762,-0.12421690672636032,0.054668813943862915,0.11032795161008835,-0.10471631586551666,-0.012501592747867107,-0.09406987577676773,-0.10068069398403168,0.01581026054918766,-0.018135085701942444,0.018537025898694992,-0.1933126002550125,-0.0836033970117569,-0.030764946714043617,0.22603358328342438,-0.2500153183937073,-0.004564718808978796,-0.19240981340408325,-0.16997545957565308,-0.055564798414707184,-0.22471296787261963,0.14477702975273132,-0.08863145858049393,-0.30924561619758606,0.20789095759391785,-0.03380094841122627,-0.14809294044971466,-0.17990058660507202,-0.14515212178230286,-0.1609821915626526,0.09990569949150085,-0.20264855027198792,-0.11807361990213394,0.28694963455200195,-0.01950754038989544,0.3207380771636963,-0.19391204416751862,-0.0118772704154253,-0.06452871859073639,-0.21639402210712433,-0.07673802971839905,-0.06416340917348862,0.05656132474541664,0.06575766205787659,0.27747994661331177,-0.09347439557313919,0.20099984109401703,-0.1938166469335556,0.17419956624507904,0.09453895688056946,0.008287692442536354,-0.007462744601070881,0.24445340037345886,-0.1483699232339859,-0.06911130994558334,0.007201423402875662,-0.06253957003355026,0.038422632962465286,-0.31596875190734863,-0.10694551467895508,0.4114122986793518,0.15170305967330933,-0.1791229099035263,0.021009039133787155,0.03288866579532623,-0.026413731276988983,-0.11978717893362045,0.19365794956684113,-0.2858958840370178,-0.11681213229894638,0.13089793920516968,-0.14980736374855042,-0.012388637289404869,-0.09920662641525269,0.21361419558525085,0.1387782245874405,0.07376997172832489,0.12031935155391693,-0.07832051813602448,0.17672871053218842,-0.049359388649463654,0.11639685928821564,-0.08186834305524826,0.07382524013519287,-0.05262064188718796,-0.21182361245155334,-0.08172183483839035,-0.12271449714899063,0.005468947812914848,-0.2156459391117096,-0.22539778053760529,-0.13681669533252716,0.02474193647503853,0.04895754158496857,-0.11083193123340607,-0.16611512005329132,-0.15305954217910767,0.02215683087706566,-0.01913650706410408,-0.2583552896976471,-0.08009829372167587,0.06767882406711578,0.131852924823761,0.16546237468719482,-0.11163726449012756,0.19202645123004913,-0.017238518223166466,-0.06132812052965164,-0.11005942523479462,-0.12025827169418335,-0.11850223690271378,0.095042884349823,0.1126660630106926,0.04277121275663376,-0.07536593824625015,-0.15083378553390503,-0.1480521857738495,-0.45831093192100525,0.0014237670693546534,-0.12094783782958984,-0.2214936465024948,0.059345029294490814,0.029757192358374596],[0.020551426336169243,-0.10031517595052719,0.04879063740372658,0.12801751494407654,-0.08107144385576248,0.0035753410775214434,0.06988752633333206,0.03971654549241066,0.19727231562137604,-0.3070208728313446,-0.1319977194070816,0.0,0.12106265127658844,-0.16647133231163025,0.14952363073825836,-0.1640831083059311,-0.11230798065662384,0.044998835772275925,-0.23913125693798065,-0.08180982619524002,0.04287014529109001,-0.04317884519696236,-0.17853356897830963,-0.011734502390027046,-0.038993433117866516,-0.03848133981227875,0.008257963694632053,0.3868604600429535,-0.21256378293037415,0.17151392996311188,0.026626385748386383,0.18401816487312317,0.07643233984708786,-0.20888596773147583,-0.1934112161397934,0.1239204853773117,0.03148866444826126,-0.1028776615858078,-0.14458784461021423,0.11127837747335434,0.03687460720539093,0.11273076385259628,-0.25554943084716797,-0.2136227935552597,-0.14352793991565704,-0.21251998841762543,-0.02300609089434147,-0.19180035591125488,0.00758336903527379,0.07462774217128754,0.05537360534071922,-0.1973438262939453,0.03570641204714775,-0.319179505109787,-0.03835706040263176,-0.07060608267784119,0.02503112144768238,0.23811917006969452,-0.15261723101139069,0.01756970025599003,0.4541510045528412,-0.0034707856830209494,0.15055768191814423,0.027942705899477005,0.24307098984718323,0.0159950889647007,-0.07043562084436417,-0.25424814224243164,-0.2076878845691681,-0.10335799306631088,-0.1719135046005249,-0.15950466692447662,0.042600587010383606,0.1035456731915474,-0.051743295043706894,0.009571795351803303,-0.12349876016378403,-0.11445879936218262,0.030583001673221588,-0.07078245282173157,0.01921002008020878,-0.38755664229393005,-0.1558597832918167,0.12408792972564697,-0.32600975036621094,-0.12919099628925323,-0.16476751863956451,-0.19064322113990784,-0.3102010488510132,0.10804961621761322,-0.18331094086170197,-0.12118782848119736,0.02550109103322029,-0.17665426433086395,-0.21010982990264893,0.1348799169063568,0.0300910621881485,-0.0014149914495646954,-0.00720627885311842,-0.008015764877200127,-0.051681771874427795,-0.008272773586213589,0.0557740293443203,-0.3614473342895508,0.1615338772535324,-0.04643431305885315,0.012232932262122631,-0.22784638404846191,-0.2964126169681549,0.0013396231224760413,0.002402764977887273,0.30841389298439026,0.17507687211036682,0.021456612274050713,0.008297281339764595,-0.2984125018119812,0.10886351764202118,-0.03474239259958267,-0.007921968586742878,0.05173540115356445,-0.1405026614665985,0.0485675111413002,-0.2550452947616577,-0.026203405112028122,-0.004129636567085981,-0.1326887607574463,0.005646098405122757,0.10223353654146194,0.09840645641088486,-0.14052346348762512,0.016297975555062294,-0.06578108668327332,-0.1313302218914032,0.08991682529449463,-0.0658886581659317,-0.05400973930954933,0.06881797313690186,0.008986452594399452,-0.14117231965065002,0.06970126926898956,-0.13859926164150238,0.17699876427650452,0.06624902039766312,0.04064968228340149,-0.13000214099884033,-0.08074231445789337,-0.0038165762089192867,-0.031443431973457336,0.09646620601415634,-0.27387359738349915,-0.05876629799604416,-0.10432285815477371,0.049023546278476715,0.08188167214393616,-0.004059306345880032,0.08326128125190735,-0.005527570843696594,0.04261959344148636,-0.1308676153421402,-0.20999111235141754,-0.09372279793024063,0.10662002861499786,-0.2310287058353424,0.032337334007024765,-0.22946864366531372,-0.019186459481716156,0.0351136215031147,-0.19505685567855835,-0.06410355120897293,-0.16630451381206512,-0.06263846158981323,0.00036604926572181284,-0.09926703572273254,-0.10203219205141068,-0.0388028621673584,-0.010426984168589115,-0.19360263645648956,-0.18351128697395325,-0.09569492936134338,-0.2880403697490692,0.06596933305263519,-0.07791341841220856,-0.2545523941516876,-0.057452231645584106,-0.08659569174051285,-0.04186825081706047,-0.016455153003335,0.02198588103055954,-0.342447429895401,-0.12244699150323868,-0.03905129432678223,0.08674696832895279,0.17285099625587463,-0.14318440854549408,0.006971307564526796,0.02027350477874279,0.015033197589218616,-0.6258623003959656,-0.02958623506128788,-0.20235036313533783,-0.05684422329068184,0.0644233226776123,-0.07263204455375671,-0.006394299678504467,-0.07967454940080643,-0.160585418343544,-0.1962929219007492,0.08165997266769409,0.02312898077070713,0.08845820277929306,0.17122720181941986,0.10298651456832886,-0.07538965344429016,-0.08238599449396133,-0.11877858638763428,-0.18476878106594086,-0.12444441020488739,0.019550232216715813,-0.015617230907082558,0.12802565097808838,-0.17615385353565216,-0.19036786258220673,-0.09225856512784958,-0.09016972035169601,-0.14890676736831665,-0.0913151279091835,-0.06395687907934189,0.11689382791519165,-0.3374220132827759,-0.20144425332546234,-0.18110327422618866,-0.20138885080814362,-0.16483350098133087,0.11246294528245926,-0.1269662231206894,-0.15730682015419006,0.03956528753042221,-0.07537920027971268,0.06703710556030273,-0.14392611384391785,-0.14202840626239777,-0.04412996396422386,-0.07816353440284729,0.16335301101207733,-0.013170585036277771,-0.2281545102596283,-0.012016518041491508,-0.19043229520320892,-0.17303378880023956,-0.09700332581996918,-0.059006884694099426,-0.048465754836797714,-0.008943549357354641,-0.08697453886270523,-0.04608983173966408,0.09749612212181091],[0.16764292120933533,0.010351911187171936,-0.09842968732118607,-0.2068944275379181,0.22074630856513977,-0.057269927114248276,0.08711794018745422,-0.028197774663567543,0.03524088114500046,0.10324380546808243,0.047667548060417175,-0.04749508947134018,0.0,-0.23552456498146057,-0.28100982308387756,-0.01632373034954071,-0.024745557457208633,0.05462907627224922,0.027636857703328133,0.006491224281489849,0.102107472717762,-0.09754344075918198,-0.014707096852362156,-0.09427621960639954,-0.15144218504428864,0.001212282688356936,0.08716955035924911,0.08625739067792892,-0.049614667892456055,0.11605339497327805,-0.0778248980641365,0.030141623690724373,0.14010894298553467,0.03621445223689079,-0.002528935670852661,0.10109423100948334,0.05413982644677162,-0.00276192557066679,-0.010827125981450081,-0.04457886517047882,0.1148454025387764,0.10374584794044495,-0.022298716008663177,-0.018525779247283936,-0.0782664492726326,0.16771715879440308,-0.07051293551921844,-0.02087484858930111,-0.0037657879292964935,-0.24072502553462982,0.058377500623464584,0.02916789799928665,0.10167612880468369,-0.002297967206686735,-0.03310738876461983,-0.018095236271619797,0.024668356403708458,-0.0023222274612635374,0.03719472885131836,0.06092759594321251,0.08410761505365372,-0.004914475604891777,-0.08209022134542465,-0.08101235330104828,0.009100775234401226,-0.11077342927455902,0.09372107684612274,-0.036595508456230164,0.04505379870533943,0.014850123785436153,-0.0015904909232631326,-0.06536468863487244,-0.09989625960588455,0.0692693293094635,0.16002318263053894,-0.005150945391505957,-0.04250625893473625,-0.059220366179943085,-0.13052435219287872,-0.032106488943099976,0.04319111257791519,0.11860871315002441,-0.07670184969902039,-0.13237613439559937,-0.03483967483043671,0.14524248242378235,-0.0652657300233841,-0.12400519847869873,-0.10243988037109375,-0.1641397923231125,-0.0179190244525671,-0.09828673303127289,-0.014151737093925476,-0.07395479828119278,-0.09732231497764587,-0.005534850526601076,0.016044778749346733,0.07685431092977524,-0.05752513185143471,0.023376265540719032,-0.008000071160495281,-0.10537060350179672,0.03762046620249748,0.02026069164276123,0.013569655828177929,-0.08837225288152695,-0.025320040062069893,0.02547183632850647,0.07045401632785797,-0.10890810191631317,-0.0563906654715538,-0.02616710215806961,-0.10498323291540146,0.08836465328931808,-0.0873010978102684,-0.06651647388935089,0.07740888744592667,-0.059339817613363266,0.03475254029035568,-0.00773408031091094,-0.00026933097979053855,0.02777293138206005,-0.03707113489508629,0.018909908831119537,-0.006728510372340679,0.08087918162345886,0.07304181903600693,0.10052845627069473,0.04698041453957558,-0.002307739807292819,-0.0038940587546676397,0.06225186213850975,-0.13820791244506836,0.015071581117808819,-0.08456211537122726,-0.041204459965229034,0.04924674704670906,0.04510455206036568,-0.024798307567834854,-0.021937614306807518,0.03405718132853508,0.16548733413219452,0.02277635969221592,-0.07064031064510345,0.02958936057984829,-0.18402177095413208,-0.09351892024278641,0.10393689572811127,0.014698614366352558,0.03456970676779747,0.15565937757492065,0.004565685987472534,0.1814248412847519,