{"params":{"dropout_prob":0.0,"l2_weight_decay":0.0,"l2_weight_decay_params":[],"l1_weight_decay":0.0,"l1_weight_decay_params":[],"contractive":0.0,"contractive_params":[],"reg":0.001,"learning_rate":"0.001,0.0001","n_attack_steps":10,"beta_robustness":0.0,"seed":0,"n_hidden":256,"n_layer":1,"batch_size":100,"boundary_loss":"madry","treat_as_constant":false,"abcd_etaA":0.001,"abcd_L":2,"p_norm":"inf","hessian_robustness":false,"awp":true,"warmup":0,"awp_gamma":0.1,"dt":1.0,"tau":20.0,"beta":2.0,"tau_adaptation":98.0,"thr":0.01,"thr_min":0.005,"refr":2,"dampening_factor":0.3,"sample_rate":16000,"eval_step_interval":400,"clip_duration_ms":1000,"window_size_ms":30.0,"window_stride_ms":10.0,"feature_bin_count":40,"in_repeat":1,"preprocess":"mfcc","data_url":"https:\/\/storage.googleapis.com\/download.tensorflow.org\/data\/speech_commands_v0.02.tar.gz","silence_percentage":10.0,"unknown_percentage":10.0,"validation_percentage":10.0,"testing_percentage":10.0,"n_thr_spikes":-1,"background_volume":0.1,"background_frequency":0.8,"time_shift_ms":100.0,"wanted_words":"yes,no,up,down,left,right","attack_size_constant":0.0,"initial_std_constant":0.0,"attack_size_mismatch":0.2,"initial_std_mismatch":0.001,"n_epochs":"80,20","optimizer":"adam","data_dir":"TensorCommands\/speech_dataset\/","session_id":1584105412,"desired_samples":16000,"window_size_samples":480,"window_stride_samples":160,"length_minus_window":15520,"spectrogram_length":98,"average_window_width":-1,"fingerprint_width":40,"fingerprint_size":3920,"label_count":8,"time_shift_samples":1600},"rng_key":[2559231170,241198752],"theta":{"W_in":[[-0.003626634133979678,-0.0076253763400018215,0.011394612491130829,0.01940009742975235,0.04482569172978401,0.014799029566347599,0.02793286181986332,0.020921802148222923,0.021180536597967148,0.020559361204504967,0.04324999451637268,0.02112148515880108,0.030248163267970085,0.024247754365205765,0.024841606616973877,0.04058804363012314,0.05374005064368248,0.021488536149263382,-0.0021100365556776524,0.04908283054828644,0.05213639885187149,0.015633007511496544,0.03069760650396347,0.005656088702380657,0.001780338934622705,0.02149309404194355,0.026960814371705055,0.04253339767456055,0.030972108244895935,0.022300489246845245,0.04215560480952263,0.05161274969577789,0.011844917200505733,0.053344566375017166,0.028355997055768967,0.006826214026659727,0.019826069474220276,0.004087635315954685,0.057622555643320084,0.0533553771674633,0.08297881484031677,0.0009103554766625166,0.06424493342638016,0.0126799950376153,0.0395500585436821,0.03482839837670326,0.03533399850130081,0.027593417093157768,0.006477009505033493,0.03188464790582657,0.02196507342159748,0.0126356715336442,0.016136037185788155,-0.0008486887090839446,0.04592375084757805,0.05566506087779999,0.03576766699552536,0.00712332408875227,0.01783737726509571,0.0266215018928051,0.00867579784244299,0.039477381855249405,0.021118393167853355,0.0404944121837616,0.0015235298778861761,0.04684492200613022,0.024908460676670074,0.010366704314947128,0.06245172396302223,0.016774006187915802,0.02854832448065281,0.023472238332033157,0.025014450773596764,0.013462590985000134,0.038399308919906616,0.05959801375865936,0.017538467422127724,0.04769473522901535,0.013285519555211067,0.05587811768054962,0.06461264938116074,0.015566426329314709,0.04025507718324661,0.02843380905687809,-0.007095606066286564,0.0697290301322937,-0.008930587209761143,0.11572408676147461,-0.021922549232840538,0.03823678940534592,0.021248074248433113,-0.0033701551146805286,-0.003442315384745598,0.020798925310373306,-0.006724858190864325,0.037670210003852844,0.021906375885009766,0.01222603302448988,0.038845498114824295,0.034208204597234726,0.016390278935432434,0.02525331825017929,0.014949672855436802,0.005078793969005346,-0.00023449657601304352,-0.003394227707758546,0.00999156292527914,0.027415743097662926,0.006684339139610529,0.04734325036406517,0.04589015617966652,0.0543692521750927,0.0550185851752758,0.0221716295927763,0.01620321162045002,0.01878797635436058,0.036966901272535324,0.03622039407491684,0.03881710022687912,0.012447012588381767,0.017970649525523186,0.005817216821014881,0.02867765538394451,0.0022607878781855106,0.04749573767185211,0.004139185883104801,0.034318916499614716,0.011632200330495834,0.04049146920442581,0.026290608569979668,0.031213507056236267,0.03959191218018532,0.0025501761119812727,0.005803651176393032,0.005522180814296007,-0.0028804067987948656,0.0660087913274765,0.0510593019425869,-0.0007108760182745755,0.021754348650574684,0.06428990513086319,0.10403459519147873,0.02436850592494011,-0.001980651868507266,0.047671299427747726,0.04161858558654785,0.004576878622174263,0.02847619354724884,0.03136641904711723,0.027966326102614403,0.03248460218310356,0.02765055187046528,0.09640548378229141,0.07120564579963684,-0.01521296612918377,0.043655358254909515,0.02524874359369278,0.05203193798661232,0.07694768905639648,0.024648260325193405,0.012939711101353168,0.011694391258060932,0.0464501678943634,0.04276997968554497,0.044438570737838745,0.03220714256167412,-0.022354567423462868,0.060965072363615036,0.03614714741706848,0.02993166632950306,-0.00205659749917686,0.045456502586603165,0.020245084539055824,0.027179842814803123,0.04863154888153076,0.02325509674847126,0.02145593799650669,0.042445696890354156,0.02617865428328514,0.017922185361385345,0.047203660011291504,0.025975823402404785,0.0256881695240736,0.06519892066717148,0.03700648248195648,0.045407965779304504,0.06514424830675125,0.019794100895524025,0.01849988102912903,0.03300035744905472,0.0075691514648497105,0.029231872409582138,0.023384207859635353,0.12179900705814362,0.00817007478326559,0.035434622317552567,0.01990964636206627,0.042041100561618805,0.047849129885435104,0.00306414975784719,0.0374218113720417,0.03037581406533718,0.020722433924674988,0.021813467144966125,0.026996057480573654,0.026991071179509163,0.01583055593073368,0.02747107855975628,0.011564739048480988,0.03811875358223915,0.00802634097635746,-0.009600474499166012,0.0405258983373642,0.005211513489484787,0.057896003127098083,0.004952613264322281,-0.0010010440601035953,0.0019433932611718774,0.04241296276450157,0.020212635397911072,0.033784832805395126,0.03703160211443901,0.024617569521069527,0.043087348341941833,0.008887561038136482,0.1105545237660408,0.02385488711297512,0.019758110865950584,0.06334395706653595,0.021575964987277985,0.0033642114140093327,0.007532669696956873,0.04010679945349693,0.004878206644207239,0.04869819059967995,0.018285680562257767,0.02850484475493431,0.03364408761262894,0.02272702194750309,0.04085087403655052,0.06952021270990372,0.0005166762857697904,0.023241059854626656,0.05473832041025162,0.0290409866720438,0.0441974401473999,0.056975483894348145,0.03809215873479843,0.016193484887480736,0.02585875801742077,0.055009398609399796,0.048058126121759415,0.023328695446252823,0.04908498749136925,0.05308648943901062,0.015256683342158794],[-0.1982244849205017,-0.15490414202213287,-0.11388800293207169,-0.036483284085989,-0.1138608306646347,-0.12983913719654083,-0.05389721691608429,-0.15316081047058105,0.21703071892261505,-0.005996215157210827,0.26498332619667053,0.17950807511806488,0.11451756209135056,0.11065783351659775,0.06649234145879745,-0.07399936020374298,0.11977705359458923,0.06504353880882263,0.04058811441063881,0.14136691391468048,-0.022005770355463028,-0.10897624492645264,0.044182613492012024,-0.13113147020339966,-0.09359145164489746,-0.18949653208255768,0.046502020210027695,0.06297831982374191,-0.023320147767663002,0.1531592607498169,-0.04864292964339256,0.04530540108680725,0.2284785956144333,0.03850968927145004,0.019426915794610977,-0.21094603836536407,0.0982896015048027,-0.12108960002660751,0.17861630022525787,0.08050920069217682,-0.03017035312950611,0.01281327661126852,-0.2827243208885193,-0.19927021861076355,0.09136742353439331,-0.059905409812927246,0.1066880002617836,-0.2280278503894806,0.11791668087244034,0.05889676511287689,0.1740797460079193,-0.1519659459590912,-0.1391415297985077,0.026400398463010788,0.04330280423164368,0.05232318863272667,-0.08712845295667648,0.1919666826725006,-0.17688164114952087,0.014253536239266396,-0.22411517798900604,0.010150274261832237,0.05999398231506348,0.24143052101135254,-0.022394239902496338,0.23111291229724884,0.1649627685546875,-0.1748792976140976,0.12864011526107788,0.025920728221535683,-0.03317481279373169,0.09457535296678543,0.14097823202610016,0.13424906134605408,-0.043144918978214264,0.05400744453072548,-0.12866412103176117,0.07187393307685852,-0.05728349834680557,0.04060278460383415,0.04413147643208504,0.05280192941427231,0.020920662209391594,-0.10924582928419113,0.04486040398478508,0.035961538553237915,0.1188405305147171,0.04044816642999649,-0.1805015504360199,-0.19625374674797058,0.027303636074066162,0.11477266252040863,-0.11594101786613464,0.13602076470851898,-0.19392721354961395,0.1790425181388855,0.11085054278373718,-0.04007142782211304,-0.09523141384124756,-0.07893024384975433,0.013917901553213596,-0.050937216728925705,-0.06724071502685547,0.19901598989963531,0.02503887191414833,-0.02766086906194687,-0.18380431830883026,-0.05655568093061447,0.10173142701387405,-0.05437035113573074,-0.06885595619678497,-0.047432515770196915,0.03199316933751106,-0.22320927679538727,-0.0030149132944643497,-0.08829041570425034,0.1394229382276535,0.026847511529922485,0.2090432494878769,0.06638109683990479,-0.08909381926059723,0.00931250024586916,0.13796162605285645,-0.22430934011936188,-0.1532592922449112,-0.09748956561088562,0.16325294971466064,-0.08993774652481079,-0.04864748567342758,-0.07828250527381897,0.01565662771463394,0.20096167922019958,-0.06025766208767891,-0.156277135014534,-0.15182529389858246,-0.1371573805809021,0.10294587910175323,-0.008158775977790356,-0.030133623629808426,-0.05385600030422211,0.08248297870159149,0.20428504049777985,0.054466910660266876,0.00949770212173462,-0.13247078657150269,0.135971337556839,0.13636329770088196,0.030018804594874382,0.01585436426103115,-0.032601386308670044,0.025955136865377426,0.07408591359853745,0.06439804285764694,0.08941340446472168,-0.009075435809791088,0.14821076393127441,-0.10645176470279694,0.15385372936725616,0.13116197288036346,0.14332523941993713,0.2038181573152542,0.14671899378299713,-0.11383736878633499,-0.043256208300590515,0.22945882380008698,0.200393944978714,-0.10861515998840332,0.15262974798679352,0.10050229728221893,0.011476949788630009,-0.12441549450159073,0.1467556655406952,0.0678558200597763,0.0758185163140297,0.1127227395772934,0.2320660948753357,0.18912142515182495,0.13858500123023987,0.11293608695268631,0.10531412065029144,0.01903565414249897,0.007810775190591812,0.015141510404646397,0.22743816673755646,0.0958484560251236,0.03427744656801224,-0.09049324691295624,0.06387759000062943,0.04823087155818939,-0.12202473729848862,0.2023089975118637,0.1527918577194214,-0.058142174035310745,-0.11084920912981033,0.024897949770092964,0.12413136661052704,-0.054081179201602936,0.21420767903327942,0.14759217202663422,-0.1738191395998001,0.0994473248720169,-0.06751006841659546,0.05704360455274582,0.014563774690032005,0.06696907430887222,0.16612450778484344,0.14864373207092285,-0.08304246515035629,0.09034053981304169,0.13703559339046478,-0.0650065466761589,-0.033316485583782196,0.050337228924036026,0.15659385919570923,-0.013977887108922005,0.05971062183380127,-0.11587460339069366,-0.15071779489517212,-0.03546077385544777,0.07640330493450165,-0.01596326194703579,-0.0608162060379982,0.18924716114997864,0.02911704033613205,0.059373848140239716,-0.023313185200095177,0.2534252107143402,-0.11563732475042343,0.11426988244056702,0.06631246954202652,-0.016575027257204056,-0.02805825136601925,0.14708927273750305,0.023634018376469612,0.1641724705696106,-0.21088442206382751,0.15121784806251526,-0.11622286587953568,0.17221693694591522,0.058849867433309555,-0.09568598866462708,-0.22672922909259796,-0.11237948387861252,0.2767145335674286,0.11721279472112656,0.13346987962722778,0.012187457643449306,0.11173874884843826,-0.13446961343288422,0.009416730143129826,0.10982894897460938,-0.11254888027906418,-0.05975358933210373,0.06794118881225586,0.10712557286024094,-0.2643794119358063],[-0.0612204447388649,0.12355136126279831,0.16402575373649597,0.17489056289196014,-0.40597933530807495,0.016355961561203003,0.35176441073417664,0.19577129185199738,0.17700450122356415,0.2641313076019287,-0.04840535670518875,0.05309569835662842,0.051881540566682816,-0.2099979668855667,-0.1516193002462387,-0.2761049270629883,0.35132038593292236,0.08073580265045166,-0.13274605572223663,0.14016616344451904,0.30462050437927246,0.04166220873594284,-0.046560823917388916,0.030320633202791214,-0.2050722986459732,-0.06139487028121948,-0.2855234444141388,0.24181567132472992,0.16107921302318573,0.06242459639906883,-0.1123366728425026,0.1062956154346466,-0.016839491203427315,0.08369556814432144,-0.2917838394641876,0.1761232167482376,-0.17206303775310516,-0.2806174159049988,-0.03771786391735077,0.31920990347862244,0.132223978638649,0.02893928997218609,0.0036218231543898582,0.10914945602416992,-0.00988687202334404,-0.24343658983707428,0.03265019506216049,0.09715484827756882,-0.16982951760292053,-0.27821433544158936,0.04889937862753868,-0.11516080796718597,-0.038241252303123474,-0.06753017008304596,-0.04682905599474907,0.25848498940467834,0.35185718536376953,-0.28747493028640747,-0.07994666695594788,-0.10708653181791306,-0.10093587636947632,-0.13826248049736023,-0.06956256181001663,0.18856672942638397,-0.2672974169254303,0.10099414736032486,-0.04520651698112488,0.02991202287375927,0.10290664434432983,0.19012901186943054,-0.24561449885368347,0.06715001165866852,0.1890222281217575,0.04731296747922897,0.3947940468788147,-0.30102217197418213,0.3062933683395386,0.15190759301185608,0.07293523848056793,0.20747072994709015,0.32237881422042847,-0.14836488664150238,0.07324276119470596,0.4198996126651764,-0.33686912059783936,-0.15673868358135223,-0.5056866407394409,-0.06336662918329239,0.02143404632806778,0.22045888006687164,0.26591819524765015,0.22117073833942413,0.145621195435524,0.005732402205467224,0.16024713218212128,0.0027597935404628515,-0.2234172821044922,0.12095010280609131,0.006653995718806982,0.4289354979991913,-0.3413229286670685,0.03303918614983559,-0.052139054983854294,0.22957837581634521,0.16488036513328552,0.11572544276714325,-0.1501382738351822,-0.007734398823231459,-0.0431118980050087,-0.42748191952705383,-0.28927361965179443,0.3332776129245758,-0.183384507894516,0.08102646470069885,0.08547404408454895,-0.2056669145822525,0.2289355993270874,-0.2402893304824829,0.06509464234113693,0.15168148279190063,-0.13588334619998932,0.1003878191113472,-0.028356870636343956,-0.04430587589740753,0.3991086184978485,0.027479596436023712,0.10394134372472763,-0.20856691896915436,0.24858932197093964,-0.049063198268413544,0.2593578100204468,-0.021599719300866127,0.1037500724196434,0.18022207915782928,0.13747182488441467,0.08635459095239639,-0.09954463690519333,-0.14033299684524536,0.03525558114051819,0.3853789269924164,0.03021940030157566,-0.27669185400009155,0.08242125064134598,0.07108800858259201,-0.041794553399086,-0.07961806654930115,0.005558669101446867,0.2618038058280945,0.19455556571483612,0.13710160553455353,0.0736975148320198,-0.11793948709964752,-0.01629149168729782,-0.2812974750995636,-0.6992652416229248,0.16705481708049774,0.012997318059206009,-0.249428391456604,0.2578735649585724,0.18451759219169617,0.025240318849682808,-0.1421596258878708,-0.17389602959156036,0.04983833432197571,-0.08724704384803772,-0.06692247837781906,0.026735946536064148,0.11536447703838348,5.327616599970497e-5,-0.12010768055915833,0.01657792553305626,-0.1126304492354393,-0.09562820941209793,-0.3237088620662689,0.009828133508563042,0.038382649421691895,0.04575555399060249,0.2605040371417999,-0.11874482780694962,-0.20280246436595917,0.377972811460495,0.30090972781181335,-0.11892183870077133,0.11429891735315323,-0.1394008845090866,0.047574639320373535,-0.5484670996665955,-0.15766265988349915,0.23360441625118256,-0.04448811337351799,0.39241915941238403,-0.0006360781262628734,0.12139072269201279,-0.002792607294395566,-0.17614738643169403,0.0769064724445343,0.08761321753263474,-0.18043085932731628,0.013319126330316067,0.06703274697065353,0.07923498004674911,0.28656938672065735,-0.13401387631893158,-0.13292232155799866,0.3421872854232788,0.1658996045589447,0.11040936410427094,0.40679070353507996,-0.3963550627231598,0.14823059737682343,-0.3417631685733795,0.15131644904613495,0.12266583740711212,-0.001957469852641225,-0.17180009186267853,-0.10861580073833466,-0.15965694189071655,-0.047823674976825714,-0.3010272681713104,0.29603999853134155,0.18967944383621216,0.2238531857728958,0.18358829617500305,-0.42866694927215576,0.17448949813842773,-0.3086945414543152,-0.14682254195213318,0.1468139886856079,0.0735422745347023,0.11327675729990005,-0.04587312042713165,-0.1543535739183426,-0.2241164594888687,-0.05359666794538498,0.24000205099582672,0.03357135131955147,-0.07959164679050446,-0.08240973949432373,-0.043868742883205414,-0.032951198518276215,0.3262925148010254,-0.024389926344156265,0.34852010011672974,0.011105257086455822,0.12761689722537994,0.1956060230731964,0.006869076751172543,0.010212084278464317,0.10876008868217468,-0.37212949991226196,0.24510662257671356,0.1807267665863037,0.1786227524280548,0.019725224003195763,0.16052772104740143,0.13746529817581177],[-0.0692354217171669,-0.31256118416786194,0.047098308801651,-0.11549712717533112,-0.11776857078075409,0.26744741201400757,0.03350456431508064,-0.47500211000442505,0.07393185049295425,-0.15626932680606842,0.08010213077068329,-0.08575344830751419,-0.031079372391104698,-0.21519500017166138,-0.2218169867992401,0.3757435381412506,0.3673489987850189,0.3879987597465515,-0.01005997508764267,0.24891214072704315,0.20288105309009552,-0.19144558906555176,-0.08143829554319382,0.06145957112312317,0.03185257315635681,-0.0611264668405056,0.3565150201320648,-0.32565978169441223,-0.00799502618610859,-0.04832291975617409,0.174539253115654,-0.2525580823421478,-0.15087376534938812,-0.010630503296852112,0.04035419970750809,-0.061008673161268234,0.0023249369114637375,-0.2547021806240082,-0.17976370453834534,-0.09426692873239517,-0.06255478411912918,-0.06319393962621689,-0.6034322381019592,-0.2735353112220764,-0.5633984208106995,-0.03974918648600578,-0.36051440238952637,0.5946400165557861,0.039551883935928345,0.3578612804412842,-0.4603115916252136,-0.02829039841890335,-0.09120992571115494,-0.12708494067192078,0.16626551747322083,0.15301275253295898,0.11352647840976715,0.197324737906456,0.1432059109210968,0.09824001044034958,-0.26484429836273193,0.010099725797772408,0.1880662590265274,-0.30383437871932983,-0.22305504977703094,-0.34106165170669556,0.07425827533006668,-0.36701613664627075,0.26715540885925293,-0.25988686084747314,0.09203692525625229,-0.1070101335644722,0.14501267671585083,-0.09256429225206375,-0.17466121912002563,0.22242814302444458,0.17688974738121033,-0.3604380488395691,-0.04183147847652435,0.4928991198539734,0.20694762468338013,-0.11605212837457657,0.06498674303293228,0.1171395406126976,-0.10881650447845459,0.04091908037662506,0.05305829271674156,0.14233477413654327,0.16645556688308716,0.31065133213996887,0.4306429624557495,0.1783394068479538,0.23625296354293823,-0.2943202555179596,0.05862845107913017,-0.3585827350616455,-0.04503839835524559,0.03662385791540146,0.04540882632136345,0.17054133117198944,0.11255401372909546,-0.05097047984600067,0.20750565826892853,-0.0025089557748287916,0.1602126955986023,-0.3090086877346039,-0.09853823482990265,-0.21088962256908417,-0.5049332976341248,0.3136918246746063,-0.03574158251285553,-0.11809118837118149,-0.012611748650670052,0.23034684360027313,-0.2752360999584198,-0.04870229586958885,-0.1265246570110321,-0.2114148586988449,-0.3847006559371948,0.29764530062675476,-0.21092911064624786,-0.4112670421600342,-0.20810310542583466,0.16136793792247772,-0.3427715003490448,-0.161269873380661,-0.221171572804451,0.23245331645011902,0.22657722234725952,-0.2739543616771698,-0.11822349578142166,0.09376098215579987,-0.016122952103614807,0.2937490940093994,0.21089373528957367,-0.04766751080751419,-0.007212638854980469,0.11286228150129318,0.05642835795879364,-0.036005932837724686,-0.43335601687431335,-0.04307786747813225,-0.09859979897737503,-0.2565694749355316,-0.24799011647701263,-0.02625085972249508,0.011078671552240849,0.4391326308250427,0.47766557335853577,0.36831900477409363,0.057715900242328644,-0.2800396680831909,0.08093532174825668,0.10442529618740082,-0.043333157896995544,-0.3360762894153595,0.563484787940979,0.19008353352546692,-0.15897966921329498,0.008544877171516418,-0.2637738287448883,0.08506549149751663,0.0794072151184082,-0.382718950510025,-0.02075021341443062,-0.3223322033882141,0.3500674068927765,0.3879636824131012,-0.10727840662002563,-0.11655943840742111,-0.24355287849903107,0.06302990019321442,-0.12972599267959595,-0.01790100708603859,-0.07865656912326813,0.045153845101594925,-0.1092529296875,-0.05448272451758385,0.010731722228229046,-0.27813634276390076,0.12400069832801819,0.32604074478149414,0.02462325245141983,-0.41226428747177124,-0.1415233165025711,0.3637144863605499,0.02505575306713581,-0.11030782014131546,0.06294894963502884,-0.13228271901607513,0.021829402074217796,0.2512102723121643,-0.0443122461438179,-0.16989603638648987,0.006556471344083548,0.3891948163509369,-0.15852107107639313,-0.10485682636499405,-0.07569963485002518,-0.05549607425928116,-0.09839943051338196,0.0927659347653389,0.26776495575904846,-0.14438733458518982,0.24320600926876068,0.2958643138408661,-0.16800864040851593,-0.19878768920898438,0.026579497382044792,0.012817397713661194,0.443387508392334,0.04449135810136795,0.22600863873958588,-0.31993186473846436,0.0857880488038063,-0.10134121030569077,-0.3825490176677704,0.4808996021747589,0.09043112397193909,0.33366864919662476,0.0383748859167099,-0.0831214115023613,0.14445437490940094,0.012983797118067741,-0.24996280670166016,-0.32891198992729187,-0.12380218505859375,0.11960534006357193,-0.21850888431072235,-0.1728551834821701,-0.3548417091369629,0.09861069172620773,-0.14634235203266144,0.06882099062204361,0.29340988397598267,0.32285720109939575,-0.35004183650016785,0.011891626752912998,-0.20998914539813995,-0.04646141827106476,-0.40798577666282654,0.050963178277015686,-0.46069157123565674,0.145137220621109,0.31319525837898254,0.25083085894584656,-0.3060781955718994,0.180206760764122,-0.12207614630460739,-0.3539828658103943,0.019613271579146385,-0.0961758941411972,0.11682742089033127,-0.2714284658432007,0.22494778037071228,-0.12568627297878265],[-0.1220705583691597,-0.19672192633152008,-0.3407835364341736,-0.5504946708679199,0.22440430521965027,-0.32199859619140625,-0.20919787883758545,-0.21144390106201172,0.20058701932430267,-0.49122878909111023,-0.09930887818336487,0.0703570693731308,0.1977781057357788,0.11146734654903412,0.28033775091171265,-0.1870984435081482,0.08208668231964111,0.26752421259880066,0.1723802536725998,-0.008030378259718418,0.0818282812833786,0.04864225164055824,0.36331191658973694,0.23077790439128876,0.23713763058185577,0.08103345334529877,0.12331727892160416,-0.23473946750164032,-0.3809809684753418,-0.017102940008044243,-0.22880883514881134,-0.267246812582016,0.10668732225894928,0.1618528664112091,-0.04433640092611313,0.24539539217948914,0.07007790356874466,0.14042261242866516,-0.3497108817100525,-0.28247275948524475,-0.016167255118489265,-0.10495509952306747,-0.228585347533226,-0.27969756722450256,0.19628560543060303,-0.09544574469327927,0.0596345029771328,0.3872514069080353,-0.14956924319267273,-0.009965677745640278,0.150377094745636,0.3227483928203583,0.17686587572097778,0.15856677293777466,-0.12512363493442535,-0.12173031270503998,-0.04972831532359123,0.248579204082489,-0.5021634697914124,-0.1448543518781662,0.032440707087516785,-0.13745445013046265,-0.0031981579959392548,0.001614798791706562,0.2915566861629486,-0.12958849966526031,0.14384962618350983,0.27308741211891174,-0.18653497099876404,-0.5150455832481384,-0.10899623483419418,-0.147769957780838,-0.010762355290353298,0.23049481213092804,-0.09518425166606903,0.20840749144554138,-0.2884247303009033,0.37576916813850403,0.3011849522590637,-0.13327109813690186,0.31870490312576294,-0.2281026840209961,0.12293671816587448,-0.33182695508003235,-0.16428981721401215,-0.12445014715194702,0.28560778498649597,0.10573294013738632,0.3267708122730255,-0.5832127928733826,-0.16336935758590698,0.015446753241121769,-0.08238105475902557,0.2325652688741684,0.3506246507167816,-0.0020870924927294254,0.07357825338840485,-0.5245125889778137,-0.3596814274787903,-0.3352546989917755,0.16148841381072998,0.03458227217197418,-0.086006298661232,0.12565495073795319,-0.4181843400001526,-0.6203010678291321,-0.4244082272052765,-0.32196152210235596,-0.028072113171219826,0.1982688158750534,-0.12358063459396362,-0.019059807062149048,-0.4518793821334839,-0.34958377480506897,-0.1641995757818222,0.19066700339317322,0.2705414891242981,-0.08227416127920151,0.06085716187953949,-0.06542474776506424,-0.03746066614985466,-0.3121975362300873,0.12202653288841248,0.27112269401550293,0.3115939497947693,-0.376268208026886,0.3566472828388214,0.16895557940006256,-0.2614733576774597,0.5924994945526123,-0.2928491234779358,0.1221868172287941,-0.218764990568161,-0.11188968271017075,-0.1859879046678543,-0.26147541403770447,-0.1646084487438202,-0.41639116406440735,0.12429645657539368,-0.3863252103328705,-0.08308352530002594,-0.3548090159893036,-0.31140607595443726,-0.33763450384140015,0.1876622587442398,0.19838005304336548,0.21546787023544312,0.215119868516922,-0.07189831137657166,-0.4553371071815491,-0.02654425799846649,0.12393641471862793,-0.3360263407230377,0.3467411696910858,0.18684539198875427,0.05950583517551422,-0.19152885675430298,-0.2735257148742676,-0.259877473115921,0.07971327006816864,0.13701827824115753,0.04927121847867966,0.08645419776439667,0.2721118927001953,0.29935064911842346,0.1911785900592804,0.09955263882875443,-0.3086322247982025,-0.011646488681435585,-0.1481206715106964,-0.2793416678905487,0.14993952214717865,0.26249054074287415,-0.043291088193655014,0.1033233180642128,0.11331270635128021,0.06364960968494415,0.1550232172012329,0.3005591630935669,-0.20765350759029388,-0.41341057419776917,-0.2524351179599762,0.0011132286163046956,0.18901969492435455,0.177438423037529,-0.20649993419647217,-0.04702691361308098,0.25299185514450073,-0.015381118282675743,-0.06690534949302673,0.23552466928958893,0.25958529114723206,-0.14949485659599304,0.0008622910245321691,-0.2161225974559784,0.3660637438297272,-0.41732609272003174,0.04806554690003395,0.27271926403045654,-0.11434996873140335,-0.11327004432678223,-0.3879508972167969,0.13390982151031494,-0.22090484201908112,0.03554606810212135,0.3660828769207001,0.04305023327469826,-0.290289044380188,0.4471958875656128,0.07644447684288025,-0.1869930624961853,0.20931784808635712,-0.02929462306201458,0.17591238021850586,-0.14169374108314514,0.28418293595314026,-0.15158545970916748,0.008744125254452229,0.13395138084888458,0.07972432672977448,-0.07229664921760559,-0.6356363892555237,0.20714469254016876,-0.20077410340309143,0.003477161517366767,-0.2636169195175171,0.28273630142211914,-0.44730550050735474,-0.19013194739818573,0.025057662278413773,0.13354253768920898,0.030612502247095108,0.3755832016468048,0.10865793377161026,0.20527079701423645,0.18838901817798615,0.14234764873981476,-0.2830568552017212,0.32856276631355286,-0.30034247040748596,0.1962355524301529,0.2970690131187439,0.06560515612363815,0.4122440814971924,0.25457507371902466,-0.05904395878314972,0.18013280630111694,-0.12903180718421936,0.36086714267730713,-0.3462667465209961,0.01994963549077511,0.005929588805884123,-0.36165857315063477,0.11320196092128754,0.014346206560730934,-0.22243978083133698],[0.11335814744234085,0.03711964562535286,0.23069103062152863,0.04836369305849075,-0.17088332772254944,-0.06748774647712708,0.013493441976606846,-0.16933010518550873,-0.11844123899936676,-0.3539591431617737,0.3112408518791199,-0.25730958580970764,-0.06537053734064102,0.38357436656951904,0.17808257043361664,-0.4982864260673523,0.054579827934503555,0.20952759683132172,0.1909506767988205,0.32856515049934387,-0.10312137752771378,0.07291730493307114,-0.07011178880929947,-0.316714882850647,0.16713681817054749,-0.11323152482509613,0.14585795998573303,0.40364280343055725,0.5843926072120667,-0.24820826947689056,0.19239932298660278,0.08681579679250717,-0.2785533666610718,-0.08305317163467407,-0.12059568613767624,0.3664667308330536,-0.24907991290092468,0.22607284784317017,0.09923629462718964,-0.2675059139728546,0.06292557716369629,-0.13670511543750763,-0.24074594676494598,-0.15682350099086761,-0.23827752470970154,0.3200196325778961,0.270563006401062,0.5016781687736511,-0.2582683563232422,-0.027424633502960205,-0.038675665855407715,-0.12835180759429932,0.02776498533785343,-0.07105574011802673,-0.21023699641227722,0.16870838403701782,0.18581287562847137,-0.013566182926297188,0.03514431416988373,-0.0703083872795105,0.3032209277153015,0.14681078493595123,0.06523928791284561,0.03779911249876022,-0.33792921900749207,-0.03387991338968277,-0.09248121082782745,-0.22598573565483093,-0.3076324164867401,0.03887582942843437,-0.038657184690237045,-0.34739717841148376,-0.0781254693865776,-0.33957019448280334,0.06643901020288467,0.11141712218523026,0.023035062476992607,-0.004151654429733753,-0.6715430617332458,-0.10337695479393005,0.23262222111225128,0.24124257266521454,-0.122007355093956,0.1181320920586586,-0.2630288898944855,0.30609777569770813,-0.1264389157295227,0.21928183734416962,0.3284815549850464,-0.03416740894317627,0.16453684866428375,-0.06317189335823059,0.018654292449355125,0.07156995683908463,-0.24579285085201263,0.1635044813156128,0.04645094648003578,0.21176819503307343,-0.43914687633514404,-0.10169602185487747,0.07396066933870316,-0.004534389823675156,0.29703542590141296,-0.015516137704253197,-0.21195459365844727,-0.2115354686975479,0.0937964916229248,0.13628552854061127,0.2912917137145996,0.11465255916118622,0.025357207283377647,0.024399805814027786,-0.07485544681549072,0.012967479415237904,-0.10496707260608673,-0.23429088294506073,-0.10037127137184143,0.5533866286277771,0.055653803050518036,-0.5631235837936401,-0.06193368136882782,-0.08608219027519226,0.014105918817222118,0.2867639660835266,-0.17489095032215118,-0.11504999548196793,-0.2899723947048187,-0.39327117800712585,0.34126558899879456,0.07864971458911896,0.10878943651914597,0.14253760874271393,-0.2848065495491028,0.026781577616930008,-0.19057857990264893,0.04294553026556969,-0.11748792231082916,0.02714359760284424,-0.5616995096206665,-0.09305258840322495,0.4760078191757202,-0.40715494751930237,0.021576588973402977,-0.1383945643901825,-0.013580108992755413,0.050539493560791016,-0.010700419545173645,-0.03602718189358711,0.19974233210086823,0.018854716792702675,-0.261458158493042,0.12540926039218903,0.028349002823233604,0.24962995946407318,-0.20185132324695587,-0.12222728878259659,-0.14962123334407806,0.09381002932786942,0.12244123965501785,0.237206369638443,0.10859540104866028,-0.27120718359947205,-0.3109181225299835,0.3965533375740051,0.3373037576675415,-2.6166853785980493e-6,-0.13432320952415466,-0.07087935507297516,0.0024947545025497675,0.09274668991565704,0.037134647369384766,-0.0590083934366703,-0.03676988184452057,-0.011940560303628445,-0.33635270595550537,0.14216965436935425,-0.1877470463514328,-0.08346584439277649,0.031079716980457306,-0.280073344707489,-0.1026415303349495,-0.010777721181511879,0.015523510053753853,0.08318628370761871,0.01917255111038685,0.09252758324146271,0.01443040743470192,-0.10196957737207413,-0.23961372673511505,-0.01823427714407444,-0.20559386909008026,0.2739252746105194,-0.2820548713207245,-0.0035964641720056534,-0.1498441845178604,0.2955552637577057,-0.19665998220443726,0.22772419452667236,0.04169773310422897,-0.021666457876563072,0.1591877043247223,-0.2852003872394562,0.01706438511610031,-0.3148361146450043,0.21934004127979279,0.09984088689088821,0.10539611428976059,0.14209401607513428,-0.09960257261991501,-0.01971684955060482,0.152574822306633,0.0977376401424408,0.2914247512817383,0.13029049336910248,-0.14042608439922333,-0.23555432260036469,0.0671016126871109,0.05038918927311897,0.2338891625404358,0.1422623097896576,-0.23518407344818115,0.24672582745552063,0.10854192823171616,-0.10309665650129318,0.22283339500427246,-0.3876308500766754,0.3020370900630951,-0.16546155512332916,-0.43558457493782043,0.2948547601699829,-0.08716502040624619,-0.09423823654651642,-0.10149739682674408,0.16730235517024994,0.4293702244758606,0.41701221466064453,-0.07082366198301315,0.07977595925331116,-0.22213953733444214,-0.28329581022262573,-0.2287893146276474,-0.07054326683282852,-0.2548104524612427,-0.25320687890052795,0.21045920252799988,-0.04010113328695297,0.2876700162887573,-0.25234121084213257,-0.2291620522737503,-0.07241751998662949,-0.06681089848279953,-0.02979726530611515,-0.1502133458852768,0.004550485871732235,-0.453914076089859,0.1687297523021698],[0.11295580863952637,0.15930846333503723,0.0965200662612915,0.1477910429239273,-0.08239597082138062,0.5129328370094299,0.21136626601219177,0.1379949003458023,-0.2476024031639099,0.13088953495025635,0.1154194325208664,-0.49306991696357727,-0.2349848747253418,-0.2347620725631714,-0.26135534048080444,-0.368982195854187,-0.16126297414302826,-0.13500449061393738,0.08146442472934723,0.17304761707782745,-0.2758267819881439,0.048951372504234314,0.06696273386478424,0.2144269347190857,-0.08117099106311798,0.5248748660087585,0.025429444387555122,0.025748969987034798,-0.02840842492878437,-0.5951554775238037,0.24280910193920135,-0.4712432622909546,-0.1306576430797577,0.010031802579760551,-0.06534108519554138,0.3364538550376892,-0.10713116079568863,0.185095876455307,-0.1735449880361557,0.353420615196228,-0.16909842193126678,-0.38523682951927185,0.4181743264198303,0.5388241410255432,0.4158913791179657,0.39430922269821167,-0.324635773897171,-0.1678442507982254,0.10222087055444717,-0.04350694641470909,-0.18053950369358063,0.2618573307991028,0.3518248498439789,-0.3344672918319702,0.014920403249561787,-0.0937860831618309,-0.4820815324783325,-0.020429059863090515,0.4208860695362091,0.32062041759490967,0.23520924150943756,0.28841596841812134,-0.07097722589969635,0.0968601405620575,0.3515286445617676,-0.15526273846626282,0.050566546618938446,0.07318472117185593,-0.10713137686252594,0.03692127391695976,0.2746671438217163,-0.2087295800447464,-0.14552518725395203,-0.3169018626213074,-0.11673159897327423,-0.42474666237831116,-0.1330609917640686,0.06083545461297035,0.1192529946565628,-0.21400144696235657,-0.07239718735218048,-0.06906495243310928,0.07218501716852188,0.22240883111953735,0.20729950070381165,0.29125267267227173,-0.13069573044776917,0.06721524149179459,-0.20798178017139435,0.22182251513004303,-0.24222694337368011,-0.31426364183425903,-0.09948132932186127,0.06927581876516342,0.048835963010787964,0.121125727891922,0.09508166462182999,-0.06405404955148697,0.08489105105400085,-0.285781592130661,-0.06486375629901886,-0.24256694316864014,0.1904020607471466,-0.3505367338657379,0.01374906487762928,-0.09494852274656296,0.467732697725296,0.07032183557748795,-0.2731936573982239,-0.3187422752380371,0.16593143343925476,0.360555499792099,0.32396000623703003,0.3643936216831207,-0.024694813415408134,0.15680204331874847,-0.5519186854362488,-0.1865515559911728,0.22960001230239868,-0.36263009905815125,0.4043625593185425,0.32233744859695435,-0.39855238795280457,-0.046570438891649246,-0.02899317257106304,-0.01344055961817503,-0.3380289375782013,-0.4205226004123688,0.019949333742260933,0.09034360945224762,-0.5273103713989258,-0.15855544805526733,-0.1641850471496582,0.17901676893234253,0.07324884831905365,0.30418628454208374,-0.03028780035674572,0.03010627068579197,-0.16188691556453705,-0.20682525634765625,-0.12866529822349548,0.055010877549648285,-0.38487839698791504,0.0824790894985199,-0.007392824627459049,-0.18250508606433868,-0.1111404076218605,-0.2209463119506836,0.034411557018756866,0.026881946250796318,-0.681622326374054,0.011483980342745781,0.01921330951154232,-0.008720943704247475,0.1099124327301979,-0.3684571087360382,0.3674694001674652,0.2387308031320572,-0.37272337079048157,-0.22501292824745178,-0.2698369324207306,-0.03811836615204811,0.17991842329502106,0.07739671319723129,0.26839157938957214,-0.24587588012218475,-0.26651519536972046,-0.07325827330350876,-0.5115378499031067,0.16378182172775269,-0.02443263679742813,0.10371633619070053,-0.2863580882549286,-0.07007908076047897,-0.004395016469061375,-0.1053849458694458,-0.051970239728689194,-0.1052144393324852,-0.08779836446046829,-0.0447092242538929,-0.18473370373249054,-0.07815235108137131,-0.02598448097705841,-0.2609059810638428,0.024918975308537483,0.13418959081172943,0.03127900883555412,-0.06485571712255478,0.08025367558002472,0.5663936138153076,0.06182900071144104,-0.35885104537010193,0.5275800228118896,-0.09080999344587326,-0.43140143156051636,-0.06725453585386276,0.016328703612089157,-0.1592855304479599,-0.033195048570632935,0.2021363079547882,-0.1905355453491211,-0.14435707032680511,-0.031708862632513046,0.30693501234054565,0.026820337399840355,-0.148243248462677,-0.4543413519859314,-0.2856013774871826,-0.0248299278318882,-0.6303260922431946,-0.0857974961400032,0.17743711173534393,-0.22065453231334686,-0.31404122710227966,0.09970357269048691,-0.16233763098716736,0.34577757120132446,-0.28365853428840637,0.10559221357107162,-0.20229104161262512,-0.42532360553741455,0.013865440152585506,-0.04459565877914429,0.6119357943534851,0.18765677511692047,-0.17064470052719116,-0.09926163405179977,0.2609281539916992,-0.3068658411502838,-0.26808756589889526,-0.1314704865217209,0.2525463402271271,-0.07138191908597946,0.11122515797615051,-0.16886299848556519,0.18106244504451752,-0.2767753303050995,-0.5004578828811646,-0.27813366055488586,0.25945281982421875,0.42183610796928406,-0.24296580255031586,-0.16356028616428375,0.0008082204149104655,-0.21704983711242676,-0.013356511481106281,-0.1390528380870819,0.18330371379852295,-0.027862340211868286,-0.10311335325241089,-0.2567466199398041,0.1087644174695015,0.1513538956642151,0.22930295765399933,-0.25378313660621643,0.05250635743141174],[0.23079770803451538,-0.2674381136894226,-0.04240015149116516,-0.25225114822387695,-0.6567387580871582,-0.03322377800941467,-0.09066268056631088,-0.12699253857135773,-0.2777775824069977,0.16361117362976074,-0.0625239834189415,-0.31781330704689026,-0.2164902687072754,-0.026356173679232597,0.2107619345188141,0.28789278864860535,-0.23672141134738922,0.03373222053050995,-0.08633743226528168,-0.1628766655921936,0.10228788107633591,-0.0910700112581253,0.29560601711273193,0.16173307597637177,0.54325932264328,0.30335158109664917,0.18428920209407806,-0.34585487842559814,0.12404458224773407,0.1644565761089325,-0.044471971690654755,-0.6074313521385193,-0.27719804644584656,0.4068078398704529,0.444124698638916,-0.4401697516441345,0.4069129526615143,0.4979120194911957,0.15511800348758698,0.3267066180706024,0.2730506956577301,-0.26181772351264954,-0.16715435683727264,-0.18195649981498718,-0.12249541282653809,0.2985818386077881,0.2690470814704895,0.18692204356193542,0.009058095514774323,-0.599765419960022,-0.3298678398132324,0.3027251660823822,0.17076776921749115,-0.45565536618232727,0.5560405254364014,-0.44859474897384644,-0.1609470546245575,0.0973823294043541,0.018676096573472023,0.1635565161705017,-0.1391318440437317,-0.2033168375492096,0.4524786174297333,-0.409767746925354,0.11946935206651688,-0.32024234533309937,-0.01032352726906538,-0.23035728931427002,-0.02168482169508934,0.11386848986148834,0.12197139859199524,0.22270633280277252,-0.1828928142786026,-0.22944369912147522,-0.22845540940761566,-0.6855958104133606,0.01580582931637764,0.4419032335281372,0.21462741494178772,-0.08628050237894058,-0.22406673431396484,0.09991809725761414,-0.5043008327484131,0.01721181906759739,0.25928178429603577,-0.029533009976148605,-0.15458358824253082,-0.06705408543348312,-0.1461174637079239,-0.2344624549150467,-0.12970495223999023,-0.2764219641685486,0.015117183327674866,0.3844224512577057,0.0408555269241333,-0.21219970285892487,-0.04452916607260704,-0.3414943218231201,0.11636248975992203,-0.4633268713951111,0.14384618401527405,0.36197739839553833,0.4229391813278198,-0.1602095514535904,-0.1962527334690094,0.005207158625125885,0.468916654586792,-0.0777369812130928,-0.2602608799934387,0.014103312976658344,0.11138179898262024,-0.1715666651725769,0.4924445152282715,0.44261637330055237,0.30966615676879883,0.08511876314878464,-0.5720058679580688,-0.04498610645532608,-0.3135680556297302,-0.3036167323589325,0.07211624830961227,-0.13638612627983093,0.0013851728290319443,0.0912993922829628,-0.4678163230419159,0.06933146715164185,-0.47413763403892517,-0.4008335471153259,-0.3121805191040039,-0.20320454239845276,-0.16513894498348236,-0.021687734872102737,-0.5411432981491089,0.14487424492835999,0.13850107789039612,-0.10245080292224884,0.19795344769954681,0.1872989386320114,0.31697556376457214,-0.3133890628814697,0.0772014930844307,0.4953592121601105,0.05375533178448677,-0.15335805714130402,-0.07443077862262726,0.024357279762625694,-0.1001267060637474,0.4635012745857239,-0.15667060017585754,0.29899799823760986,0.6125533580780029,-0.026954378932714462,0.2979205548763275,-0.1668223887681961,0.04772937297821045,-0.04256454110145569,0.3440737724304199,0.17865197360515594,-0.11918769776821136,0.007924510166049004,-0.3964388370513916,0.12681740522384644,-0.16658127307891846,-0.08097727596759796,-0.05034506320953369,0.017076466232538223,-0.1715465784072876,-0.07840488851070404,0.11053512990474701,0.212235227227211,-0.26724714040756226,-0.28497645258903503,0.04042039439082146,0.037888940423727036,-0.21409408748149872,-0.19952994585037231,-0.43544718623161316,-0.2142862230539322,-0.06098121777176857,0.14245232939720154,-0.20219576358795166,0.23774071037769318,0.12458174675703049,-0.5716660022735596,0.15681572258472443,-0.01655181311070919,-0.10613813996315002,0.2823503017425537,-0.07519670575857162,0.3570277988910675,0.06535962969064713,0.14768429100513458,0.11840217560529709,0.08120317757129669,-0.33503878116607666,-0.375961035490036,0.35584738850593567,-0.1300048679113388,-0.21996356546878815,0.0633535236120224,-0.05757325887680054,-0.04025525972247124,0.27227523922920227,0.4998111128807068,-0.10824130475521088,0.13932199776172638,-0.5180001854896545,-0.12486901879310608,0.08474363386631012,0.2655532956123352,-0.31093090772628784,0.03534293547272682,0.13229289650917053,-0.3442166745662689,0.3598065972328186,0.18588212132453918,0.38051968812942505,-0.0643051266670227,0.16175948083400726,0.10500802844762802,-0.29739099740982056,-0.37557196617126465,-0.10125576704740524,-0.14007088541984558,0.18920010328292847,0.21932533383369446,-0.10371238738298416,-0.10850784182548523,0.25637078285217285,-0.07716063410043716,0.11387118697166443,0.21838027238845825,0.04400135576725006,-0.06217082217335701,-0.04517197981476784,0.36832478642463684,-0.1230863407254219,-0.607174813747406,-0.40919557213783264,0.13739459216594696,-0.2640301287174225,0.07621108740568161,0.010782882571220398,-0.1388266235589981,-0.0880763828754425,-0.005568631924688816,0.24564862251281738,0.4288741648197174,0.05224873125553131,-0.1460663080215454,-0.3267400860786438,-0.48563623428344727,-0.1977970451116562,0.17737336456775665,-0.11897249519824982,-0.16573074460029602],[0.278142511844635,0.11545184254646301,0.0642535388469696,0.09572543203830719,0.20165012776851654,-0.7264580726623535,-0.15119583904743195,0.04707355797290802,0.008427051827311516,0.09808081388473511,0.11034809798002243,-0.36194053292274475,-0.023701542988419533,-0.04408904165029526,0.3647185266017914,-0.3215714991092682,-0.050049301236867905,-0.22062529623508453,0.08801738172769547,-0.23900529742240906,-0.4272698760032654,-0.007843286730349064,0.04860397428274155,-0.10723838955163956,0.31637829542160034,-0.6978675127029419,0.019995134323835373,-0.003996594808995724,0.1875060349702835,0.058664996176958084,0.1365346759557724,-0.33034271001815796,-0.0375947467982769,-0.06449973583221436,-0.11212652921676636,-0.08428655564785004,0.18497318029403687,0.06867526471614838,0.5166246891021729,-0.09975928068161011,-0.15978799760341644,-0.2924177348613739,0.06894183903932571,-0.21739600598812103,0.28752291202545166,-0.30737900733947754,0.1148892492055893,-0.09911225736141205,0.08813995122909546,-0.3256988525390625,0.08204510807991028,-0.3039143979549408,0.3255985975265503,-0.20095068216323853,-0.024172820150852203,-0.34913599491119385,0.006688579451292753,-0.38329964876174927,-0.2963877320289612,-0.06939364969730377,-0.18015286326408386,0.027094950899481773,-0.010988467372953892,-0.2131393998861313,0.23475918173789978,-0.4282757043838501,-0.01160365715622902,0.100408174097538,-0.014571054838597775,-0.19005025923252106,-0.7557206153869629,0.08788439631462097,0.005631547886878252,0.029731396585702896,0.08752568066120148,-0.2594265937805176,0.05903090536594391,-0.3777437210083008,0.25602227449417114,0.17415818572044373,-0.1985548734664917,-0.30852144956588745,0.2886991798877716,0.11678317934274673,0.06590054929256439,-0.17852245271205902,-0.21825218200683594,-0.15166868269443512,-0.18349868059158325,-0.36594974994659424,-0.09915520995855331,-0.1756361722946167,0.33311060070991516,-0.19320286810398102,-0.028254935517907143,-0.022552581503987312,0.17764762043952942,-0.19277282059192657,-0.16601960361003876,-0.12749744951725006,0.10990642011165619,0.14439140260219574,-0.15904295444488525,-0.07759321480989456,-0.028544781729578972,-0.1825224608182907,0.26244574785232544,-0.16271445155143738,-0.2712964713573456,-0.3406903147697449,-0.6675978899002075,-0.03938880190253258,0.04727315530180931,-0.02431257627904415,-0.06440722197294235,-0.7315788865089417,-0.13590499758720398,0.26884928345680237,0.06711500883102417,-0.3428862988948822,-0.06536488234996796,0.0750054195523262,0.39174187183380127,0.06024111807346344,-0.02392764762043953,0.15534046292304993,0.12991727888584137,-0.03979353606700897,0.08729973435401917,0.2532891035079956,0.5287405252456665,0.4424850642681122,-0.3661257326602936,-0.10695762932300568,-0.1966313272714615,-0.23929747939109802,0.16166424751281738,0.14325034618377686,0.12419608980417252,0.05603118613362312,-0.4256376624107361,0.39007672667503357,0.2340209186077118,-0.3643846809864044,0.15980158746242523,0.06135086342692375,-0.054856326431035995,0.16357392072677612,-0.17689765989780426,-0.30844226479530334,0.5428038239479065,0.01248460728675127,0.08929943293333054,-0.15091346204280853,0.11280390620231628,0.3081972002983093,-0.1869584023952484,0.06798426806926727,-0.17199258506298065,-0.23052936792373657,-0.048988357186317444,-0.0038323216140270233,0.014974483288824558,0.19488075375556946,-0.009815435856580734,-0.2359027862548828,-0.1270340234041214,-0.11743715405464172,0.6260460615158081,0.02596021629869938,-0.11131610721349716,0.2151087522506714,-0.14577269554138184,0.1329420953989029,0.11854643374681473,-0.04796675220131874,0.007500120904296637,-0.06994897872209549,0.2265653908252716,0.07029390335083008,0.013164760544896126,0.07164301723241806,0.09002017229795456,0.07096067070960999,-0.11233171820640564,0.3473651111125946,0.05400979518890381,0.21999508142471313,-0.11554190516471863,-0.29386240243911743,0.40819230675697327,-0.12056630104780197,-0.11268419772386551,0.21576036512851715,-0.39546048641204834,-0.19059957563877106,0.07464424520730972,-0.31097325682640076,0.027747228741645813,0.1690656989812851,0.7611309885978699,-0.20352137088775635,0.07143675535917282,0.03393383324146271,-0.17448855936527252,0.09264305979013443,0.21707403659820557,-0.017639994621276855,0.21215644478797913,-0.329619437456131,0.10320647805929184,-0.20007595419883728,-0.18431928753852844,0.15965130925178528,0.2284223884344101,0.1692482829093933,0.2310502529144287,0.045908886939287186,0.2898281216621399,-0.17706577479839325,-0.2952858507633209,0.16793565452098846,-0.1723465919494629,-0.0027054972015321255,-0.19132393598556519,0.14087828993797302,0.10833875089883804,-0.24623510241508484,0.06672319024801254,0.4804832339286804,0.21894042193889618,0.09812008589506149,0.292877733707428,0.1282924860715866,0.1910749226808548,0.35534408688545227,0.17283841967582703,0.05806369334459305,-0.03219594806432724,-0.004931884817779064,0.15545745193958282,-0.05606139823794365,0.17943306267261505,0.23990486562252045,-0.22517047822475433,-0.05775060877203941,0.10737551003694534,-0.1787978559732437,-0.05351674556732178,-0.044698700308799744,-0.05446226894855499,-0.11968860030174255,0.1356724500656128,0.05994376540184021,-0.04360353946685791,-0.09276728332042694],[0.13210877776145935,0.02023543417453766,0.1511283814907074,0.222306489944458,0.5414789915084839,0.6887458562850952,-0.6891414523124695,-0.10577425360679626,-0.08342980593442917,-0.050261665135622025,0.21945539116859436,0.002906683599576354,-0.15364763140678406,-0.16746948659420013,0.06793488562107086,-0.2435084730386734,-0.10260157287120819,0.2403492033481598,-0.19344735145568848,0.44971418380737305,-0.20491807162761688,-0.23539717495441437,-0.23190516233444214,-0.09021380543708801,-0.2816154360771179,0.45034122467041016,0.14009732007980347,0.3819516897201538,0.0058179209008812904,0.13807035982608795,0.1277751326560974,0.042906034737825394,0.3285585343837738,-0.1296723186969757,0.08216169476509094,0.21573683619499207,-0.35321319103240967,-0.5078200697898865,0.2315690517425537,0.4780217707157135,0.3496111035346985,-0.16933545470237732,-0.3217487037181854,0.5027444958686829,0.08706281334161758,0.026952704414725304,-0.009938064962625504,0.10708517581224442,0.18744118511676788,-0.04206192493438721,0.15033334493637085,0.11130519956350327,0.3126150965690613,-0.3383651375770569,-0.31205305457115173,0.05425161123275757,-0.047513555735349655,0.02141893282532692,-0.08805901557207108,-0.03160914033651352,-0.2013722062110901,0.01110200583934784,0.1380019336938858,-0.1824060082435608,0.06967392563819885,-0.3111948072910309,0.03791753947734833,0.3251582682132721,0.306902676820755,-0.16448494791984558,-0.16549962759017944,0.13075663149356842,0.03209802508354187,-0.04882621020078659,0.07219334691762924,-0.33253994584083557,0.007820675149559975,-0.14613795280456543,-0.3262050151824951,0.16343526542186737,-0.47501757740974426,-0.12578649818897247,0.15281635522842407,0.33569538593292236,0.3419324457645416,-0.10197868198156357,0.21109183132648468,0.33824044466018677,-0.0389438234269619,0.2733418643474579,-0.3126118779182434,-0.013484046794474125,0.2889415919780731,-0.4754754900932312,-0.11308322101831436,0.401754766702652,0.20999282598495483,-0.16702763736248016,0.11475000530481339,0.014806589111685753,-0.04933536797761917,-0.11354967206716537,-0.2072422057390213,0.07621943205595016,0.48513472080230713,-0.08585339039564133,0.15560342371463776,0.10768163949251175,-0.004925108980387449,-0.5893200635910034,-0.41131410002708435,-0.46992385387420654,0.16256317496299744,-0.18015913665294647,0.07430900633335114,0.2850668728351593,0.03414950892329216,-0.2832592725753784,0.20247603952884674,0.02339055761694908,0.11592256277799606,0.3787567913532257,0.11439413577318192,0.1556658148765564,-0.11940813809633255,0.034110285341739655,-0.4163341522216797,-0.04152393713593483,0.24975638091564178,-0.12491390854120255,0.5766699314117432,0.1698113977909088,0.04834333062171936,-0.05909571424126625,0.16764159500598907,0.1780886948108673,0.12888483703136444,0.10530876368284225,0.1892627328634262,-0.08382512629032135,0.17938461899757385,0.3962820768356323,0.0010514213936403394,-0.2775803506374359,-0.4050075113773346,0.06718336790800095,-0.13315346837043762,-0.3412781059741974,0.14821462333202362,0.4209249019622803,-0.7016086578369141,0.016278473660349846,0.005755774676799774,-0.2745659649372101,-0.19410976767539978,-0.3442889451980591,-0.1291133165359497,0.25052610039711,-0.2654939889907837,-0.07989684492349625,-0.3488632142543793,0.33797749876976013,0.5505352020263672,-0.07445111125707626,0.28843921422958374,-0.09999112784862518,-0.023254208266735077,0.04397499933838844,-0.042532939463853836,-0.04343000799417496,-0.04784443974494934,-0.06466827541589737,-0.10120335966348648,0.26688289642333984,0.3493170440196991,-0.04261825233697891,-0.16330264508724213,-0.03437196835875511,0.1488625705242157,0.1429280936717987,0.07264270633459091,0.27436113357543945,-0.23648701608181,0.014131876640021801,-0.39064958691596985,-0.1199129968881607,0.07168097794055939,-0.48420360684394836,-0.1570035219192505,0.23514394462108612,-0.09236882627010345,0.14072412252426147,0.6731843948364258,-0.04586191475391388,-0.10285194218158722,-0.1326000690460205,0.0916806310415268,0.5789551138877869,-0.01618981547653675,0.151681050658226,-0.09390637278556824,-0.052820950746536255,0.004094879608601332,0.08191946148872375,-0.1266293227672577,-0.046767596155405045,0.20259332656860352,0.05200605094432831,-0.11104066669940948,-0.1987328678369522,-0.29761841893196106,0.12437551468610764,-0.49824681878089905,0.3082123398780823,-0.42571747303009033,-0.14085452258586884,0.25483497977256775,-0.17933359742164612,-0.22993789613246918,-0.1757829189300537,-0.15195851027965546,0.08350608497858047,0.024938808754086494,0.13058006763458252,0.6762167811393738,-0.23375684022903442,0.1537119448184967,0.31651440262794495,0.022050103172659874,-0.30370214581489563,-0.14386127889156342,-0.2747081518173218,0.37124571204185486,0.23696821928024292,-0.1735363006591797,-0.22613012790679932,0.18930566310882568,-0.057828690856695175,0.13195885717868805,0.23403792083263397,0.10641351342201233,-0.3361663520336151,-0.053527165204286575,0.19901704788208008,-0.19717937707901,0.24231301248073578,-0.08416476100683212,-0.27164340019226074,0.17517006397247314,0.2832326292991638,-0.036545876413583755,-0.3411655128002167,-0.013736994005739689,0.034971874207258224,-0.21657928824424744,0.36426064372062683],[-0.17276206612586975,0.1522432565689087,0.12397865206003189,-0.03888131305575371,0.42296233773231506,0.30429908633232117,0.4269121289253235,0.298583060503006,-0.041049931198358536,-0.055315617471933365,0.07740994542837143,0.017735382542014122,-0.18679989874362946,0.040516793727874756,-0.15416188538074493,-0.008527625352144241,-0.11180189996957779,-0.4005942642688751,-0.22458761930465698,-0.17822027206420898,-0.05283306539058685,0.1924867033958435,-0.1136869266629219,0.26458248496055603,0.04699910059571266,0.26569315791130066,0.031356532126665115,0.09405019879341125,0.14652429521083832,0.04798094183206558,0.28044289350509644,0.2176528126001358,-0.018153199926018715,-0.07387633621692657,-0.00242924434132874,0.3205053210258484,-0.0012436858378350735,0.23238152265548706,-0.34441280364990234,-0.11719833314418793,-0.3602769374847412,0.20761440694332123,0.19340956211090088,-0.028440553694963455,0.22507458925247192,0.057902250438928604,-0.06883224099874496,-0.28115594387054443,-0.2323072850704193,0.2519870400428772,-0.005045053083449602,-0.27098098397254944,0.2526094913482666,-0.2728513777256012,0.48664993047714233,-0.01699473336338997,-0.11753269284963608,0.15810030698776245,0.10406292974948883,0.07205790281295776,0.21315455436706543,-0.06034516170620918,-0.09068317711353302,0.1244906634092331,0.012995213270187378,0.1887846291065216,-0.05091794952750206,0.10137918591499329,-0.19031523168087006,-0.4359191060066223,0.4353893995285034,0.034898146986961365,-0.1584136039018631,0.3480546474456787,0.010208696126937866,0.2544707953929901,0.016104167327284813,-0.16873906552791595,0.45761093497276306,-0.12433174252510071,-0.3364201784133911,0.5134033560752869,0.34917914867401123,-0.2330503910779953,0.06294458359479904,-0.08615214377641678,0.013635427691042423,0.13854160904884338,-0.01669599488377571,0.35492175817489624,0.10626059770584106,-0.08759816735982895,-0.24295084178447723,-0.4618578851222992,0.2426433563232422,0.14909440279006958,-0.32501038908958435,0.3025375306606293,0.35565680265426636,-0.33826127648353577,-0.2058013677597046,0.0694609135389328,0.26444101333618164,-0.1349000632762909,-0.049670226871967316,0.08468128740787506,-0.10237544029951096,0.4539022445678711,0.22366619110107422,-0.4054749011993408,-0.11254816502332687,0.08541537821292877,0.3408139646053314,-0.031310178339481354,0.36603453755378723,-0.3626192510128021,-0.1366037130355835,0.0016617010114714503,-0.002185170305892825,0.055408772081136703,0.2516443133354187,0.5616090297698975,-0.14798986911773682,-0.07411953061819077,0.5322374701499939,0.07807929813861847,-0.14694301784038544,0.16379088163375854,-0.14476966857910156,0.18982663750648499,-0.23734386265277863,0.1499602496623993,-0.023107092827558517,0.0735878273844719,0.22150571644306183,0.18553486466407776,0.0675707757472992,0.22656743228435516,-0.2521132230758667,0.059857308864593506,0.1658584028482437,0.3443737030029297,-0.06648548692464828,0.24421238899230957,-0.4271755516529083,0.09559927135705948,-0.10255280137062073,-0.365715354681015,-0.17589332163333893,0.13102026283740997,0.23941022157669067,-0.4840984642505646,0.2977871894836426,0.07266001403331757,-0.44682273268699646,-0.26344338059425354,0.4108125865459442,0.10616146773099899,0.224574476480484,-0.030323898419737816,0.08522270619869232,-0.2198074758052826,0.3269444704055786,-0.022295145317912102,-0.10274690389633179,0.23807260394096375,-0.1880999654531479,0.07050386071205139,-0.14584317803382874,0.012915534898638725,-0.00215866114012897,-0.26713797450065613,-0.3446645736694336,-0.29898300766944885,-0.26515302062034607,-0.18057362735271454,-0.25873324275016785,-0.14011943340301514,-0.32436951994895935,0.06603220105171204,0.061420150101184845,-0.05863090977072716,0.3627607822418213,-0.06595045328140259,-0.18277530372142792,0.03139112889766693,0.006410141941159964,0.045483898371458054,0.2113848477602005,0.34157317876815796,-0.46016567945480347,-0.107537180185318,-0.3340218961238861,-0.3884085416793823,0.10206979513168335,0.011581329628825188,0.2919982373714447,-0.21418064832687378,-0.0914260596036911,0.13940191268920898,-0.7232124209403992,0.16913112998008728,0.09480361640453339,0.16030187904834747,-0.14865414798259735,-0.23594196140766144,-0.14115673303604126,0.15946897864341736,-0.43650272488594055,-0.21329200267791748,-0.6841990947723389,0.032579127699136734,0.2487531453371048,-0.19538207352161407,0.07373487204313278,0.04258520528674126,-0.2566166818141937,-0.280666708946228,-0.06006535142660141,-0.007219041232019663,0.16246801614761353,-0.27694591879844666,-0.15310293436050415,-0.1808747500181198,-0.05425310507416725,0.1011544018983841,0.14198198914527893,0.335260272026062,0.2924608588218689,-0.11495637893676758,0.49013903737068176,-0.053792063146829605,-0.30087336897850037,-0.14182764291763306,-0.08729667961597443,-0.5131655931472778,-0.07983505725860596,-0.36690664291381836,0.22357049584388733,0.5701320767402649,0.31918326020240784,-0.4158692955970764,0.271858811378479,-0.2300984114408493,-0.23187702894210815,-0.19198624789714813,-0.30085980892181396,0.22513307631015778,0.5590195059776306,0.5639488697052002,-0.07088916748762131,0.2828684151172638,0.13160623610019684,0.017206331714987755,0.1943039745092392,0.44548845291137695],[0.1927351951599121,-0.22509713470935822,0.16957847774028778,-0.17501075565814972,0.07797234505414963,-0.4763203263282776,0.42320260405540466,0.30024296045303345,-0.07846413552761078,-0.043763384222984314,-0.187277689576149,-0.10975561290979385,0.06884445995092392,-0.09370467811822891,0.4169219434261322,0.27738234400749207,0.1674753576517105,0.13461117446422577,0.010305879637598991,0.05419189855456352,-0.04498017951846123,-0.2642979919910431,-0.21090993285179138,-0.2273908257484436,-0.12173386663198471,-0.13246794044971466,0.2406253069639206,0.2591066360473633,0.23614132404327393,-0.0018333785701543093,0.28295812010765076,0.6845117211341858,0.15528543293476105,-0.28830644488334656,-0.09282278269529343,-0.08819656074047089,-0.03195697069168091,0.12033852189779282,-0.4548736810684204,-0.012600503861904144,-0.2859315872192383,0.4869561791419983,0.3008798062801361,-0.2025289088487625,-0.24321700632572174,0.09055145829916,-0.550803542137146,-0.060061000287532806,0.2636859714984894,0.07572893053293228,0.13119587302207947,0.018995804712176323,0.10972648113965988,0.046993497759103775,-0.6887307167053223,0.156959667801857,-0.27084630727767944,-0.1861434429883957,0.11009486019611359,-0.05815831571817398,-0.190773144364357,0.003960037603974342,0.05136949196457863,0.22808976471424103,-0.01697385497391224,-0.050679467618465424,0.1335953176021576,-0.038261402398347855,0.2714322805404663,0.002856847830116749,0.5243873596191406,-0.19220516085624695,0.3799973428249359,0.22237929701805115,0.1642928421497345,0.08893285691738129,-0.29237231612205505,-0.4144906997680664,-0.3480195105075836,-0.21481148898601532,-0.004899222403764725,-0.3183395564556122,-0.09483064711093903,-0.38201406598091125,-0.006392054725438356,-0.38539910316467285,-0.346800297498703,-0.05734945833683014,0.05918305739760399,-0.09191879630088806,-0.019634734839200974,-0.05927865579724312,-0.2527267038822174,0.3432217240333557,0.049175675958395004,0.08676204830408096,0.060923587530851364,-0.27236101031303406,-0.33695462346076965,-0.0697816014289856,0.046458709985017776,-0.101667121052742,-0.35377633571624756,0.07607794553041458,0.2822508215904236,-0.04810195416212082,0.0008561074500903487,0.1943105161190033,-0.1312808245420456,-0.36461377143859863,0.43945255875587463,0.08259464800357819,0.022786913439631462,-0.2264936864376068,0.21437811851501465,0.5471476316452026,-0.009213649667799473,-0.5436304211616516,0.06969790160655975,0.5766153335571289,-0.094244085252285,-0.42896655201911926,0.12100598216056824,-0.12582972645759583,-0.4308812916278839,-0.05049646273255348,0.13925199210643768,0.6446096897125244,-0.18738266825675964,0.35476991534233093,-0.39526814222335815,0.03792927786707878,0.15564581751823425,-0.1649715006351471,-0.14395979046821594,-0.28268447518348694,0.3051759600639343,0.2223028838634491,0.09589650481939316,-0.026147251948714256,0.09090016037225723,0.0779862105846405,0.053053196519613266,0.6535406112670898,-0.3421393930912018,0.22355608642101288,0.16986083984375,0.17354287207126617,-0.1488189846277237,0.007752807345241308,0.08932296931743622,-0.12567608058452606,0.04542737454175949,0.06423614919185638,0.1662820428609848,0.21396653354167938,-0.1466170847415924,-0.323501318693161,0.08124992251396179,0.15944036841392517,0.16052813827991486,-0.030300922691822052,0.1487329602241516,-0.21713188290596008,0.38247039914131165,0.12065902352333069,0.09203021228313446,0.027785586193203926,0.22787897288799286,0.22805537283420563,0.07396819442510605,0.11956115067005157,0.11445867270231247,0.09291505068540573,0.3566645383834839,0.07825049757957458,0.008368028327822685,0.045032475143671036,0.13789574801921844,0.14398351311683655,-0.004270361270755529,-0.08667106926441193,-0.09446977078914642,-0.10964680463075638,0.12608328461647034,-0.18074338138103485,0.09147383272647858,0.03207568824291229,-0.15399517118930817,0.0161896999925375,-0.10123879462480545,-0.14888261258602142,0.2387530356645584,0.11478918790817261,0.09832024574279785,-0.013192258775234222,-0.17394375801086426,0.1761053055524826,0.0007847012602724135,0.44344571232795715,-0.3463360369205475,-0.07450970262289047,-0.14962762594223022,0.06668950617313385,-0.05003965646028519,-0.09304432570934296,-0.05582556128501892,0.07084903866052628,-0.036428000777959824,0.10765363276004791,-0.42728713154792786,0.04426078125834465,-0.38629260659217834,-0.21908678114414215,0.26183125376701355,0.18351444602012634,-0.04988257214426994,-0.03703808784484863,-0.22108928859233856,-0.02535041980445385,0.3526644706726074,0.38603076338768005,0.06325601786375046,0.04794784635305405,0.17151090502738953,-0.07067331671714783,0.2863819897174835,-0.16392114758491516,0.05328522250056267,-0.14692282676696777,0.27352476119995117,-0.02909168414771557,0.036664120852947235,-0.19629114866256714,-0.10190027207136154,0.567205548286438,0.226418137550354,0.34693267941474915,0.12565748393535614,-0.5395488142967224,0.12683163583278656,-0.06472345441579819,-0.2271275669336319,0.11464053392410278,-0.0459047295153141,-0.22670115530490875,0.055170126259326935,0.2932773232460022,-0.46397677063941956,0.16412967443466187,0.5405918955802917,0.28982803225517273,-0.1291836053133011,-0.31856927275657654,-0.22962713241577148,-0.17323820292949677],[-0.11442891508340836,-0.20189210772514343,-0.22243236005306244,0.12110131978988647,-0.2674849331378937,0.13853804767131805,0.11257308721542358,-0.31535181403160095,0.2052147090435028,-0.07996615022420883,-0.2601320147514343,0.19709274172782898,-0.39754074811935425,0.16783414781093597,0.05908204987645149,0.12432632595300674,-0.17164911329746246,-0.2631379961967468,-0.09872116148471832,0.04353373125195503,0.5199781060218811,-0.06702199578285217,0.07340889424085617,0.09302056580781937,-0.09645139425992966,0.07886403799057007,0.22327987849712372,-0.3386414647102356,-0.24343648552894592,-0.04824388027191162,0.07382417470216751,0.19477222859859467,0.1099693775177002,0.056920308619737625,-0.05445067584514618,0.015268679708242416,0.029139941558241844,0.09580502659082413,0.43170788884162903,0.2212359458208084,0.10989952832460403,0.0503995344042778,0.32858753204345703,0.10890873521566391,-0.0037678515072911978,0.11270736902952194,0.06583284586668015,-0.3569187819957733,-0.348140686750412,0.472647100687027,-0.04072626680135727,0.47591981291770935,-0.06304488331079483,0.418110191822052,-0.13558678328990936,0.06748677790164948,0.5202277302742004,0.0750294029712677,-0.2085786759853363,0.3840439021587372,0.021101301535964012,-0.5471135973930359,-0.2587723731994629,-0.0006917368154972792,0.32534483075141907,-0.08068974316120148,0.1419883668422699,-0.10530833899974823,0.03872770443558693,-0.03813062980771065,-0.6254177093505859,0.08973273634910583,-0.02556549198925495,0.10872166603803635,0.07363326102495193,-0.7592798471450806,0.03532504662871361,0.012699811719357967,0.0011051053879782557,-0.180999293923378,-0.1981433928012848,0.01243536826223135,-0.24896085262298584,0.33780062198638916,-0.13248641788959503,0.17281918227672577,-0.16489098966121674,0.26193302869796753,-0.14935508370399475,0.0010158116929233074,-0.12403649091720581,0.05094494670629501,-0.15662723779678345,0.32033294439315796,0.3665297329425812,-0.05848347023129463,-0.27842554450035095,0.1309759020805359,0.30526822805404663,0.10642553865909576,-0.3015323281288147,-0.003371359081938863,0.010746099054813385,0.07644184678792953,-0.20655740797519684,-0.18425284326076508,-0.44618165493011475,0.08201867341995239,-0.17944248020648956,-0.3931633234024048,-0.266501247882843,0.13106904923915863,0.015941480174660683,-0.16895022988319397,0.08854394406080246,0.24615612626075745,0.18430091440677643,0.16062241792678833,0.05892476439476013,0.30009138584136963,-0.22196809947490692,-0.16120806336402893,-0.06952930986881256,0.3503972291946411,0.41012492775917053,0.01035075169056654,0.3048913776874542,0.09037917107343674,0.3235388696193695,0.09750454872846603,-0.23827865719795227,0.2075398564338684,-0.08212432265281677,0.3114171326160431,0.24898958206176758,0.10945937037467957,0.09660179167985916,-0.08333317935466766,0.21092966198921204,0.5235410332679749,-0.19632036983966827,-0.28006675839424133,0.19417577981948853,0.444689005613327,-0.038667723536491394,-0.08458850532770157,-0.2542632818222046,0.1521746963262558,0.0342077799141407,0.4611718952655792,-0.4460300803184509,-0.08800546079874039,0.013779076747596264,-0.008909648284316063,0.17587219178676605,0.011937425471842289,0.1332997977733612,-0.2147945761680603,0.08781778067350388,-0.10635177791118622,-0.09262822568416595,-0.14856599271297455,-0.451045960187912,-0.04896124079823494,-0.1470540463924408,0.08147633820772171,0.5261945128440857,0.022293388843536377,-0.10618212819099426,-0.14418673515319824,-0.23766018450260162,-0.14273549616336823,-0.27742481231689453,-0.22760601341724396,0.3680833578109741,-0.06770000606775284,-0.3566649258136749,-0.18727286159992218,-0.2734707295894623,-0.1626335233449936,0.22497348487377167,-0.016764340922236443,-0.0683719739317894,-0.07201866805553436,0.12875084578990936,-0.11586295813322067,0.03336162120103836,-0.04257727786898613,0.1720573604106903,-0.2627149522304535,-0.46250730752944946,0.11416532099246979,0.24497896432876587,0.2358189821243286,0.21919450163841248,-0.045394573360681534,0.0982397124171257,-0.034028537571430206,-0.005550527013838291,-0.07591698318719864,0.49993735551834106,0.030967846512794495,0.016578571870923042,-0.25016817450523376,-0.031138477846980095,-0.241642564535141,-0.18524612486362457,0.04677347466349602,-0.1585366129875183,0.14969560503959656,0.4478623867034912,-0.12189662456512451,-0.3178684115409851,0.1681661605834961,-0.16699430346488953,0.15444672107696533,-0.41681548953056335,0.16214939951896667,-0.38067105412483215,-0.05561871826648712,0.7519543170928955,-0.18101866543293,0.1612602323293686,-0.13639669120311737,-0.22033748030662537,0.24976132810115814,0.06949689984321594,0.14660000801086426,0.06299570947885513,-0.07253963500261307,-0.06769964843988419,0.004571710247546434,-0.07678698748350143,-0.03390633314847946,-0.1333327293395996,-0.13539311289787292,0.049262527376413345,0.6369115710258484,-0.13207761943340302,0.48630857467651367,0.16656096279621124,0.4931611120700836,0.025052085518836975,-0.09365472942590714,-0.12806473672389984,-0.145635724067688,0.02688686177134514,-0.04112331569194794,0.7237948775291443,0.10423658788204193,0.3432570993900299,-0.19080902636051178,0.20004677772521973,-0.11526982486248016,-0.22344830632209778,0.5283082127571106],[0.17316070199012756,-0.13379965722560883,-0.33472901582717896,0.3191237449645996,0.5588182210922241,0.050093792378902435,-0.03966550529003143,-0.25821223855018616,0.03727176785469055,0.012037730775773525,-0.6311607956886292,-0.08545364439487457,-0.09630031883716583,0.19832691550254822,0.32156622409820557,-0.10935879498720169,-0.04538440331816673,0.22059360146522522,0.10212472081184387,-0.15935464203357697,-0.09354301542043686,0.02941724844276905,-0.03616219013929367,0.05450453609228134,-0.09625230729579926,0.3340347111225128,-0.09296844154596329,-0.31544044613838196,-0.10787642002105713,-0.02366473153233528,0.5504488348960876,0.2931499183177948,0.03576196730136871,0.047074370086193085,0.26704540848731995,0.5509057641029358,0.2514491081237793,0.4098813235759735,0.4063900113105774,-0.24056050181388855,0.13968507945537567,-0.006606371141970158,-0.3158257305622101,-0.5291540026664734,-0.3244534432888031,0.1416676938533783,-0.1230325847864151,0.6333661675453186,0.03635510429739952,-0.48783954977989197,-0.08393590897321701,0.19731229543685913,0.225106343626976,0.21042978763580322,-0.18557778000831604,0.06682975590229034,0.24950271844863892,0.3020394742488861,-0.1442394256591797,0.2078143060207367,-0.07590232789516449,-0.5223900675773621,-0.19498850405216217,0.20525813102722168,-0.27348601818084717,-0.009660868905484676,0.047976914793252945,0.3606511354446411,0.3234141767024994,-0.1478005349636078,0.1079956516623497,-0.180869922041893,0.06487128138542175,0.052631109952926636,0.20821832120418549,-0.13920746743679047,0.08790387213230133,-0.038005635142326355,0.017682557925581932,-0.1368180513381958,0.10012305527925491,-0.12991490960121155,-0.5077999830245972,-0.07592903077602386,0.03861748427152634,-0.06452923268079758,-0.16519439220428467,0.03852401673793793,-0.0073081133887171745,-0.013069945387542248,-0.13265040516853333,-0.18442955613136292,-0.3813249468803406,0.39306747913360596,0.2971457540988922,-0.16914449632167816,-0.03341744467616081,0.5150280594825745,-0.27105286717414856,-0.08003976196050644,0.055950988084077835,0.04922451823949814,0.15689155459403992,-0.03617598116397858,-0.052409738302230835,0.37588760256767273,0.09527217596769333,-0.07038747519254684,-0.03396956995129585,-0.6344068050384521,-0.29866617918014526,-0.08200055360794067,-0.19949720799922943,-0.4425634443759918,0.0741136446595192,-0.3458361327648163,0.43896034359931946,0.18906809389591217,0.2644115388393402,-0.0352783128619194,-0.05211865156888962,-0.09211719036102295,-0.31567224860191345,0.6176779866218567,0.0592658556997776,0.3452971875667572,0.041372984647750854,0.26501813530921936,-0.05373585596680641,-0.3045022189617157,0.25629717111587524,0.12727318704128265,0.03428862988948822,-0.1899784654378891,-0.20477814972400665,-0.12631385028362274,0.25216230750083923,-0.12926624715328217,-0.15485884249210358,0.03821157291531563,0.15274259448051453,-0.1610150933265686,-0.1454879194498062,0.2684127688407898,0.27692678570747375,-0.0963411033153534,-0.08106822520494461,-0.4623177945613861,0.005458567291498184,-0.0012788493186235428,-0.12837471067905426,0.23619259893894196,-0.03188915550708771,0.4003960192203522,0.2357008010149002,0.06640542298555374,0.24064113199710846,-0.1569681018590927,0.06107689440250397,0.22677838802337646,0.413779079914093,0.033470723778009415,0.2404051572084427,0.31402280926704407,-0.3335757851600647,-0.08261123299598694,0.31028488278388977,0.20319828391075134,-0.115049347281456,0.17298683524131775,-0.22664040327072144,0.03925296664237976,0.28315576910972595,-0.05763927474617958,0.09828256815671921,0.07020452618598938,-0.06661976128816605,0.08629798889160156,0.02543722093105316,-0.07550279796123505,0.2528896629810333,-0.2921949028968811,-0.3850964605808258,0.2145168036222458,-0.02744651772081852,0.18068863451480865,-0.15417136251926422,-0.022157961502671242,-0.2211478352546692,0.10587754100561142,-0.12285369634628296,-0.039274126291275024,-0.3064865171909332,0.24271436035633087,-0.4275502860546112,-0.21266886591911316,-0.24153022468090057,-0.1208205372095108,0.010850436054170132,-0.318114697933197,0.21367116272449493,0.18123362958431244,-0.11839866638183594,-0.18482083082199097,0.10761351883411407,0.5599569082260132,0.0310505460947752,-0.018983066082000732,0.29765400290489197,0.3399192988872528,-0.6622403860092163,-0.006502656731754541,-0.2280883640050888,0.28278669714927673,0.0982171967625618,0.09989285469055176,-0.2860523462295532,0.39812949299812317,-0.1715441644191742,0.004958210047334433,0.11081123352050781,0.1369200348854065,0.12264315038919449,-0.15134046971797943,0.0017094702925533056,0.050788432359695435,-0.22166390717029572,-0.06457549333572388,0.014567892998456955,-0.003791580442339182,-0.02960519678890705,0.042721424251794815,-0.03754222393035889,0.2691437005996704,-0.15203356742858887,0.06649687886238098,0.05596943944692612,0.8762070536613464,-0.07238239794969559,-0.027508776634931564,-0.2864147424697876,0.9245002269744873,0.06170530617237091,-0.30185672640800476,-0.24903132021427155,-0.08263123035430908,0.21787239611148834,-0.06260152906179428,0.06907857954502106,-0.2689375579357147,-0.07156633585691452,0.22185711562633514,0.17991380393505096,-0.03125413879752159,-0.41996294260025024,0.3457930386066437],[-0.19579437375068665,-0.008903436362743378,-0.062272001057863235,0.03925323113799095,-0.3011035919189453,-0.038188863545656204,0.2614394724369049,0.28098827600479126,-0.06735546886920929,-0.23893862962722778,0.0659182071685791,0.2542032301425934,-0.00938045047223568,0.12339217960834503,0.14322428405284882,0.3190942704677582,0.039830561727285385,0.1224370151758194,0.1349969357252121,-0.1441848874092102,0.1952972412109375,-0.2836253046989441,-0.19081686437129974,0.07757542282342911,-0.11075569689273834,0.22475752234458923,0.06057431176304817,0.002409743843600154,-0.05771342292428017,-0.449576199054718,-0.10711032897233963,-0.11580370366573334,-0.045049432665109634,0.22976750135421753,0.07050733268260956,0.019089622423052788,0.03214307129383087,-0.12979215383529663,-0.05642036721110344,-0.000984726706519723,0.11501353979110718,0.43694257736206055,0.17112311720848083,0.11471010744571686,-0.005815858952701092,0.10932956635951996,0.0022408273071050644,0.19848279654979706,-0.09892856329679489,0.2552972733974457,0.10397940129041672,0.14573918282985687,-0.18133433163166046,0.5468539595603943,0.0415983721613884,-0.44097426533699036,0.04033394530415535,-0.22897326946258545,-0.0363469235599041,0.056140173226594925,-0.11939176172018051,-0.1878012865781784,-0.10775605589151382,0.15958693623542786,0.2608402967453003,-0.041829805821180344,0.07718425989151001,0.09350200742483139,-0.007280705496668816,0.1041296124458313,0.11598043143749237,-0.269616037607193,0.2775091230869293,-0.12005598098039627,0.2916794419288635,-0.0602298378944397,-0.15232355892658234,-0.13661836087703705,0.05642971768975258,0.18987427651882172,0.23511351644992828,-0.019353730604052544,-0.16461582481861115,-0.0009298096993006766,0.028047313913702965,-0.13437268137931824,0.16389906406402588,0.18898813426494598,0.4154551029205322,0.06974031776189804,-0.00217486172914505,0.1538994312286377,0.12752962112426758,0.12208786606788635,-0.3779240548610687,0.17282132804393768,0.1043839380145073,0.9572787880897522,-0.05247669294476509,0.13934220373630524,0.22633181512355804,-0.32401737570762634,0.09536837041378021,-0.08435579389333725,0.016472194343805313,-0.15962865948677063,0.4736972749233246,-0.01994478702545166,0.00497030932456255,0.09159490466117859,0.36361390352249146,-0.07784421741962433,-0.08219645917415619,0.08207367360591888,-0.08114726096391678,0.4287838041782379,0.01817251183092594,0.15939532220363617,-0.23376451432704926,-0.5506436824798584,0.1629188358783722,0.006056427489966154,0.0019901744090020657,0.22889038920402527,0.059308215975761414,0.4428333342075348,0.10934952646493912,-0.16082969307899475,0.0510777086019516,0.18403999507427216,-0.02994290180504322,0.37367430329322815,-0.25535327196121216,-0.15613606572151184,-0.04386436566710472,0.03793220967054367,-0.12283340096473694,-0.2808411419391632,0.19533856213092804,-0.17102371156215668,0.001529733301140368,0.004559685941785574,0.043359335511922836,-0.1787915825843811,-0.44157272577285767,-0.11564122885465622,-0.06357371807098389,0.08014339208602905,-0.08936634659767151,0.3029116094112396,0.3558271825313568,-0.34204891324043274,-0.16135448217391968,0.09588517248630524,0.3979533016681671,0.04431624710559845,-0.08349858969449997,-0.20619389414787292,-0.3283342719078064,0.28891488909721375,-0.10021154582500458,0.17084375023841858,-0.14701053500175476,0.363797128200531,-0.6545189619064331,0.13110530376434326,-0.05290329083800316,0.12854743003845215,-0.03689918294548988,0.12397340685129166,-0.06105704605579376,0.0037258421070873737,0.06578651815652847,0.012201780453324318,0.296665221452713,0.13572800159454346,0.2887195348739624,-0.22607392072677612,0.2114114910364151,-0.04281473159790039,0.04750998318195343,-0.1851631999015808,0.07726702094078064,-0.12593212723731995,0.02998967655003071,0.4719277322292328,0.05727985128760338,0.05386572703719139,-0.05847509950399399,0.08492425829172134,0.5247904658317566,0.4865007996559143,0.10388819873332977,0.19744297862052917,0.04090650752186775,-0.0934571772813797,-0.10244900733232498,-0.01975679211318493,0.11318319290876389,-0.18446581065654755,-0.4102519750595093,-0.1388961225748062,0.17838017642498016,-0.08567420393228531,0.03569168224930763,0.00936637818813324,-0.13754278421401978,-0.016747966408729553,-0.23061731457710266,0.3249342143535614,-0.010660377331078053,0.17872574925422668,-0.1957324743270874,0.16805538535118103,0.3060297667980194,-0.21084094047546387,0.21996937692165375,0.3143745958805084,0.23187750577926636,-0.08565416187047958,-0.31262433528900146,0.025616247206926346,0.19484902918338776,-0.03921887278556824,0.25173136591911316,-0.15708571672439575,0.0033625417854636908,-0.1667817384004593,0.08322419226169586,-0.15479914844036102,-0.07434204965829849,-0.10913825035095215,0.13993996381759644,-0.09640765935182571,0.02096930705010891,0.00550942774862051,-0.06472659856081009,0.048601310700178146,0.24311207234859467,-0.05011841654777527,0.43202880024909973,0.047682370990514755,-0.22603446245193481,0.1516847461462021,0.13699659705162048,0.36169975996017456,0.4775007963180542,0.21068710088729858,-0.12335126101970673,-0.16116389632225037,-0.05840757489204407,0.5133592486381531,0.05594896897673607,-0.23342201113700867,-0.04501205310225487,-0.21566927433013916],[0.3497730493545532,-0.07854893803596497,0.017537036910653114,0.2275763303041458,-0.5028666257858276,0.0027611537370830774,-0.3743828535079956,0.04821264371275902,-0.209583580493927,0.09245569258928299,0.475383996963501,-0.4380788207054138,-0.04054630175232887,0.0398012138903141,-0.00910994689911604,-0.07821375131607056,-0.15044769644737244,-0.016157058998942375,-0.2978830933570862,0.0054492042399942875,0.26366370916366577,-0.007254155818372965,-0.17338824272155762,0.08573796600103378,0.4614250063896179,0.12883801758289337,-0.2774374783039093,0.2238193303346634,-0.2633305788040161,0.06355827301740646,-0.33332762122154236,-0.25217705965042114,-0.3809411823749542,0.10319866985082626,0.09072895348072052,0.06574582308530807,-0.2825348973274231,0.056056588888168335,-0.14774736762046814,0.1988368034362793,-0.09604166448116302,0.3816254436969757,0.059100937098264694,0.01558498851954937,0.07344886660575867,0.038903266191482544,0.20649631321430206,0.10622710734605789,-0.0024861046113073826,0.4012387990951538,-0.1168871596455574,-0.4031126797199249,0.16685763001441956,-0.4580063223838806,-0.06668657809495926,0.02997908554971218,-0.2187465876340866,-0.21550723910331726,-0.05336141958832741,-0.030833330005407333,0.10834043473005295,-0.04569283127784729,-0.03335276246070862,-0.16119851171970367,-0.33910831809043884,0.003389317076653242,0.1381436437368393,0.07065191864967346,-0.3868279457092285,-0.19591224193572998,-0.22503133118152618,-0.2991235554218292,-0.14863494038581848,-0.3146417737007141,0.014345628209412098,0.31935837864875793,0.12134721875190735,-0.006344376597553492,-0.000431295542512089,-0.055213745683431625,-0.3385082483291626,-0.14051446318626404,-0.1462884247303009,-0.043212588876485825,-0.036948081105947495,-0.22998051345348358,-0.11162763088941574,-0.4028102159500122,0.08410071581602097,0.05849854648113251,0.10098333656787872,-0.12533222138881683,-0.11916034668684006,-0.09189508110284805,0.11626379936933517,-0.07221415638923645,-0.19917449355125427,0.033214177936315536,0.18449050188064575,-0.013240891508758068,-0.21788553893566132,-0.37818121910095215,-0.031331196427345276,-0.09305568039417267,0.0342109315097332,-0.28019046783447266,0.1350090503692627,0.10417022556066513,-0.11085424572229385,0.07237833738327026,-0.43394163250923157,0.14570629596710205,0.3416677713394165,-0.08203833550214767,-0.2161788046360016,-0.4341050088405609,-0.19240012764930725,0.013180541805922985,-0.1957806497812271,0.08331997692584991,-0.10027274489402771,0.1232534795999527,0.044931940734386444,-0.07692231237888336,-0.16852061450481415,0.3211921155452728,-0.19548183679580688,0.04573150351643562,-0.14615315198898315,-0.289681613445282,-0.006936757359653711,-0.20911066234111786,-0.022122425958514214,0.25107747316360474,0.08389367908239365,0.033314287662506104,0.417975515127182,-0.18949641287326813,-0.12510423362255096,0.023652276024222374,-0.37471437454223633,-0.006084416061639786,0.3367169201374054,-0.33908945322036743,0.025456910952925682,-0.24055686593055725,-0.16959801316261292,-0.16716770827770233,0.08202558755874634,-0.0672183483839035,0.33023524284362793,-0.03781432658433914,-0.11018957942724228,-0.2780872881412506,-0.08651064336299896,-0.10757049918174744,-0.1776285618543625,0.11875902861356735,-0.08549496531486511,0.19758114218711853,-0.04643121361732483,-0.25145167112350464,-0.6096035242080688,0.02909654565155506,-0.23904551565647125,0.03608408570289612,0.16577266156673431,-0.23813199996948242,0.35481637716293335,0.45900821685791016,0.05769740790128708,-0.2715623378753662,0.35212165117263794,-0.08335501700639725,0.28957071900367737,-0.2052891105413437,0.21813057363033295,-0.13853542506694794,-0.38870105147361755,0.22755202651023865,-0.07780133932828903,-0.06427901238203049,-0.13533765077590942,0.22299933433532715,-0.16867762804031372,0.7259404063224792,0.4093169867992401,-0.23283569514751434,-0.021020278334617615,-0.15044036507606506,-0.22303058207035065,-0.35012590885162354,-0.3396326005458832,0.1326388716697693,-0.17598366737365723,-0.07703524082899094,0.3615275025367737,-0.3074376583099365,0.03162286803126335,0.17092041671276093,-0.05423705652356148,0.06300056725740433,-0.1567058563232422,0.29468443989753723,-0.32940295338630676,-0.12246696650981903,-0.3019016683101654,0.06447987258434296,-0.04383083060383797,0.3631458878517151,0.09279659390449524,0.00842133816331625,-0.08739208430051804,0.3355681598186493,0.20779864490032196,-0.17276524007320404,0.2682761549949646,-0.4732779860496521,0.32286790013313293,-0.022956499829888344,0.004556520842015743,-0.24635764956474304,-0.09778716415166855,0.1232931911945343,0.04373953491449356,0.02961253747344017,-0.13964571058750153,0.2574067711830139,0.1067262589931488,0.16804350912570953,-0.26316341757774353,0.1447659432888031,0.01789805106818676,0.004768256098031998,-0.2798175811767578,0.22746779024600983,-0.09536104649305344,0.350741446018219,0.014910080470144749,0.33788424730300903,-0.348212331533432,0.22747766971588135,-0.07809554785490036,-0.10936176776885986,0.02990061044692993,-0.305473655462265,-0.1771339774131775,-0.04051561653614044,-0.378537654876709,-0.028112342581152916,-0.4990900158882141,0.06318517029285431,0.0005012804758735001,-0.3702252209186554,-0.13873878121376038,-0.1804095059633255],[0.000529976561665535,-0.15524862706661224,-0.04253523051738739,-0.09123627841472626,-0.3275616765022278,-0.0677851065993309,0.019640279933810234,-0.19831563532352448,-0.06442683935165405,0.051095400005578995,-0.03302394598722458,-0.2242509424686432,-0.05640711635351181,0.11462775617837906,0.20570242404937744,0.3365034759044647,-0.21152503788471222,-0.1775183379650116,-0.09905721247196198,0.2328232228755951,-0.07683642953634262,0.12642374634742737,-0.04150167107582092,-0.06746572256088257,-0.041715655475854874,0.12889361381530762,-0.00937721785157919,-0.08327207714319229,0.262909859418869,0.1835193634033203,-0.0279002133756876,0.210004985332489,0.12034108489751816,0.2949950098991394,0.06672148406505585,0.1572551131248474,0.04338850826025009,-0.22028209269046783,0.105929434299469,-0.17679361999034882,0.2789333164691925,0.2880164086818695,-0.06542500853538513,0.20222167670726776,0.17912881076335907,-0.2849557101726532,-0.3958422541618347,0.18394728004932404,0.3285622000694275,0.07593125104904175,0.026085693389177322,0.11440522223711014,-0.09707950055599213,-0.004142289515584707,-0.27616727352142334,0.06331721693277359,-0.4944847524166107,0.0400271862745285,-0.1652037650346756,0.18674258887767792,-0.13843266665935516,0.00825763400644064,0.05341816693544388,0.17550744116306305,0.27455753087997437,0.049477025866508484,-0.04129339009523392,-0.053310737013816833,-0.06584291905164719,0.2444126009941101,-0.3256973326206207,0.02066538855433464,-0.31243813037872314,0.011994197964668274,0.03028710000216961,0.389078289270401,-0.20486503839492798,-0.05438533052802086,0.08877405524253845,-0.11499547958374023,0.13593854010105133,0.2111407369375229,0.2362784445285797,0.007280662655830383,0.15708991885185242,-0.32983964681625366,0.291205495595932,0.19536156952381134,0.20210771262645721,-0.20651660859584808,-0.053209394216537476,-0.07377292215824127,-0.007892895489931107,-0.14076603949069977,0.37397828698158264,0.4372194707393646,-0.007024175953119993,-0.25865092873573303,-0.2102113515138626,0.07813187688589096,0.006262080743908882,-0.19413404166698456,0.13892653584480286,0.05023130401968956,-0.012564538046717644,0.10272490978240967,0.1274580955505371,-0.03902072459459305,0.11663838475942612,0.2056330442428589,0.4763530194759369,0.16048721969127655,0.11815617233514786,-0.2449253499507904,-0.06813297420740128,0.00944315642118454,0.2245979607105255,0.16238996386528015,0.15842410922050476,-0.11425019800662994,-0.023982252925634384,0.07979197800159454,0.30065035820007324,0.42711636424064636,-0.14525829255580902,-0.13148434460163116,-0.01840808428823948,-0.23686322569847107,-0.07397416234016418,-0.05130960792303085,-0.13315902650356293,0.058410804718732834,0.29494091868400574,-0.11795685440301895,0.02905426174402237,-0.10098744183778763,0.42849236726760864,0.037320464849472046,0.2130700796842575,-0.10229146480560303,-0.04288380593061447,-0.15721909701824188,0.19539055228233337,-0.1485045850276947,0.10168398916721344,0.08769433945417404,0.019415289163589478,0.5515649318695068,-0.2239743173122406,0.31656524538993835,0.005724840331822634,0.2156803011894226,0.08450864255428314,-0.2925674617290497,0.15010711550712585,0.005291258916258812,-0.282819539308548,-0.018464302644133568,-0.09653668850660324,0.4609099328517914,0.07469716668128967,0.07550336420536041,-0.11492931842803955,0.283604234457016,0.1369730532169342,0.12590783834457397,0.23108646273612976,-0.09167473763227463,-0.03154072165489197,0.2610340416431427,0.06228424608707428,0.06423870474100113,-0.18450583517551422,0.10080549865961075,0.2111627459526062,0.04310526326298714,0.24260786175727844,-0.20222337543964386,0.04504748433828354,-0.2755645513534546,-0.28322362899780273,-0.22597728669643402,0.1030038595199585,0.1519562005996704,0.14182981848716736,0.32321256399154663,-0.08774334192276001,-0.08532409369945526,0.07328782975673676,-0.030935488641262054,-0.09067751467227936,0.17860358953475952,-0.03342883661389351,-0.08496230095624924,0.3684616684913635,0.17845843732357025,0.1388636976480484,0.12973622977733612,-0.024569332599639893,0.40760284662246704,0.10811248421669006,-0.11018592119216919,-0.07349065691232681,0.23935309052467346,-0.019687432795763016,0.22607891261577606,-0.39543616771698,-0.14336642622947693,0.17608195543289185,-0.08257526904344559,-0.08730048686265945,0.024659331887960434,0.07003091275691986,-0.16216766834259033,-0.14433301985263824,0.11333796381950378,0.2828885316848755,-0.2124813199043274,0.07073180377483368,-0.005380909889936447,-0.0714017003774643,-0.02941223978996277,-0.13963806629180908,-0.19983290135860443,-0.4312453269958496,-0.06716866046190262,0.31518301367759705,-0.0916091650724411,-0.11735813319683075,0.19194169342517853,0.22569116950035095,0.27249130606651306,-0.028018662706017494,0.12691016495227814,0.16923704743385315,-0.14509402215480804,0.2734885513782501,-0.20650054514408112,-0.0881006196141243,0.36893409490585327,0.05354996398091316,0.2862282693386078,0.22376073896884918,-0.13273702561855316,0.40515246987342834,-0.01150896493345499,0.10677206516265869,0.20633946359157562,0.41521498560905457,-0.22207383811473846,-0.3260881006717682,0.2204708606004715,-0.1394425332546234,-0.06550182402133942,0.22663713991641998,0.03276810795068741],[0.3316905200481415,-0.2591139078140259,-0.05106211081147194,-0.07175871729850769,0.11232925951480865,-0.10185964405536652,-0.21337082982063293,-0.10377585887908936,0.05077017843723297,-0.003663460724055767,0.06903888285160065,-0.010202798061072826,0.24027064442634583,-0.17332136631011963,-0.08998093008995056,0.14343056082725525,0.0013316008262336254,0.20758633315563202,-0.008134383708238602,-0.3560273051261902,-0.3698481321334839,-0.01714753359556198,-0.3808121085166931,-0.026736920699477196,0.05450914800167084,-0.05260390415787697,0.008026216179132462,0.06394939124584198,0.002003160770982504,0.4631704092025757,-0.0848766416311264,-0.400013267993927,0.08122885227203369,0.3594416379928589,0.2062491774559021,-0.5348900556564331,0.1601644605398178,0.3200800120830536,0.35455355048179626,-0.040694817900657654,-0.16460615396499634,0.49405717849731445,0.4073224663734436,0.19727663695812225,0.22763052582740784,-0.10476630181074142,0.16848315298557281,-0.10143524408340454,0.39308643341064453,0.1377769112586975,-0.2898070514202118,0.09395714104175568,-0.18125595152378082,0.34020984172821045,0.5138006210327148,0.029030587524175644,0.3585120737552643,0.19689330458641052,-0.017413031309843063,0.31003355979919434,-0.003972246777266264,0.23774303495883942,0.2791670560836792,-0.18898628652095795,-0.177954763174057,0.09005487710237503,0.001784167136065662,-0.27931755781173706,-0.13790307939052582,0.01213925238698721,0.20606529712677002,-0.008043453097343445,-0.11883178353309631,0.11532546579837799,0.22185322642326355,-0.021858999505639076,0.057277511805295944,0.13808631896972656,0.16821983456611633,0.21296104788780212,-0.04424383118748665,0.027774304151535034,0.025261463597416878,-0.13242822885513306,0.38747259974479675,-0.47262078523635864,0.3539661169052124,-0.04801333695650101,-0.07350904494524002,0.05547122284770012,-0.1835583746433258,0.01849691942334175,0.2623920142650604,-0.42804327607154846,-0.18634405732154846,-0.13418753445148468,0.2034788429737091,-0.191889226436615,0.049171265214681625,0.545698344707489,0.18059080839157104,-0.24817697703838348,-0.24718184769153595,0.09279707819223404,0.025298522785305977,-0.13951155543327332,0.6431591510772705,0.13532322645187378,-0.15632124245166779,0.01950003020465374,-0.5789588689804077,0.03565770387649536,0.2276378720998764,-0.03060012497007847,-0.007272993214428425,-0.23618073761463165,0.2544163167476654,-0.19096983969211578,-0.07890801876783371,0.004114473704248667,-0.17250053584575653,0.02752384915947914,0.22596514225006104,0.21489593386650085,-0.42531803250312805,0.4545251429080963,-0.04378703609108925,0.383226603269577,-0.2982662320137024,0.17111802101135254,0.5679537653923035,-0.434426486492157,-0.11583961546421051,-0.07031377404928207,0.06069517135620117,-0.03227385878562927,-0.07603844255208969,-0.24378782510757446,-0.25212717056274414,0.010583020746707916,0.1595529019832611,0.03143869712948799,0.09795832633972168,0.25411415100097656,-0.019965026527643204,0.015256172977387905,-0.12274114042520523,-0.3501759469509125,0.001476094126701355,0.3502894937992096,0.30529549717903137,0.024044310674071312,0.10613977909088135,-0.0579163134098053,0.2936471998691559,0.029587216675281525,-0.2976890504360199,0.26819929480552673,0.26946911215782166,0.2857455611228943,0.09473195672035217,0.038375917822122574,0.19456259906291962,-0.0606498084962368,0.06703998148441315,-0.008663870394229889,0.5120105147361755,-0.2066362202167511,0.29649296402931213,0.30353739857673645,0.044345710426568985,0.042488258332014084,0.3385073244571686,-0.18114063143730164,0.006917306687682867,-0.04642346873879433,0.5919437408447266,0.1846853792667389,-0.24888889491558075,0.3791544437408447,-0.03902701660990715,-0.17769327759742737,0.17941026389598846,-0.099281907081604,-0.20005938410758972,0.6067792773246765,-0.16156239807605743,-0.0022735539823770523,0.03360651805996895,-0.3533405363559723,0.045403312891721725,-0.15233661234378815,-0.25508520007133484,0.1901174634695053,-0.30141475796699524,0.08916662633419037,0.054423145949840546,-0.16126199066638947,-0.11865929514169693,-0.07198600471019745,0.2142036110162735,-0.03173953667283058,-0.15151482820510864,0.18864814937114716,-0.09736991673707962,-0.14591237902641296,-0.32136082649230957,0.09850382804870605,-0.08119269460439682,-0.08553263545036316,-0.09512230008840561,0.03213288635015488,-0.05435090512037277,0.24233020842075348,-0.36714887619018555,0.05727699398994446,0.19040824472904205,0.040972787886857986,0.09941696375608444,0.009309087879955769,-0.13597404956817627,-0.010461507365107536,-0.16860271990299225,-0.0912010595202446,0.1304614096879959,-0.10113784670829773,0.09988009929656982,0.13194860517978668,-0.03447440266609192,0.11268585920333862,-0.04396439716219902,-0.021734043955802917,-0.027890769764780998,0.045749373733997345,-0.005477588158100843,-0.057113949209451675,-0.09108157455921173,0.08162625879049301,0.17211215198040009,-0.04468173533678055,0.11145614087581635,-0.04495023190975189,-0.2024795413017273,0.19267630577087402,0.17493167519569397,-0.07544399797916412,-0.2833731770515442,-0.19390952587127686,-0.13503466546535492,0.12780378758907318,0.07989481836557388,0.31817173957824707,0.17199304699897766,-0.17972907423973083,-0.432821124792099,-0.3442911207675934],[-0.0067196134477853775,-0.08757951110601425,0.1847805380821228,0.19889163970947266,0.42481064796447754,-0.08714131265878677,0.25231537222862244,-0.18127098679542542,0.07289443910121918,-0.22296792268753052,-0.22974786162376404,-0.17977958917617798,0.15874624252319336,-0.1279766708612442,0.24028730392456055,-0.014699147082865238,0.08178593963384628,-0.10427650064229965,-0.21312209963798523,-0.21082067489624023,-0.2277575433254242,0.25414347648620605,-0.205026775598526,0.2387399673461914,0.1613542139530182,0.05931990221142769,-0.15797492861747742,0.44895994663238525,-0.19389663636684418,0.2446964532136917,0.3469402492046356,-0.2020200788974762,0.19718919694423676,0.16386766731739044,0.10063058137893677,-0.2287919670343399,-0.32210129499435425,0.187492236495018,-0.4074871242046356,-0.107940174639225,-0.5432541966438293,0.006143445149064064,0.21639969944953918,0.18014751374721527,0.25001975893974304,0.09023526310920715,-0.11156091094017029,0.16396822035312653,-0.21756978332996368,0.16109023988246918,0.20294003188610077,0.06671226769685745,-0.01864669844508171,0.45038190484046936,-0.09837055951356888,-0.18733741343021393,-0.04520481824874878,0.12471572309732437,-0.11640945822000504,0.11835929751396179,0.1555236130952835,0.02462623082101345,-0.16468501091003418,0.1345362812280655,0.029390590265393257,-0.006034719292074442,-0.06925011426210403,-0.04235992953181267,0.07978182286024094,-0.46108660101890564,-0.1436408907175064,-0.3376731872558594,-0.2509244978427887,-0.16223375499248505,-0.07274368405342102,-0.029438426718115807,0.06671498715877533,-0.08728636056184769,0.11983287334442139,0.12946771085262299,0.08061101287603378,0.02148350514471531,0.09231699258089066,0.11776226758956909,-0.10045754164457321,-0.49490073323249817,0.13752400875091553,0.09538571536540985,0.1559862494468689,0.12554986774921417,-0.03940071538090706,0.17288273572921753,-0.3282303214073181,0.06886826455593109,-0.1847396045923233,0.2520011365413666,0.02857750840485096,-0.06745272129774094,0.08274415880441666,-0.19514022767543793,-0.23682916164398193,-0.596066415309906,-0.013304350897669792,-0.02279004268348217,-0.2722119390964508,-0.1574307531118393,0.013373130932450294,-0.06874532997608185,0.2924901247024536,-0.20563937723636627,-0.13970327377319336,0.2913774251937866,-0.24155870079994202,0.26704636216163635,0.15613536536693573,0.11018487811088562,0.015883654356002808,0.10524803400039673,-0.16535697877407074,0.15952236950397491,0.04549386724829674,0.2503802478313446,0.6783111691474915,0.19333115220069885,0.21198716759681702,-0.06086152791976929,0.0602397695183754,-0.05977889895439148,-0.40990492701530457,0.1560998260974884,-0.31015947461128235,-0.21623753011226654,0.3803728222846985,0.24759867787361145,-0.0566994771361351,0.30933451652526855,-0.12285717576742172,0.1162809208035469,0.12034263461828232,-0.14483655989170074,-0.057242896407842636,0.18938048183918,-0.18409469723701477,0.054432664066553116,-0.003672203281894326,0.1427682638168335,0.1695224791765213,-0.06085468456149101,0.08784918487071991,-0.06517587602138519,-0.2647410035133362,-0.17365168035030365,0.05949045345187187,-0.437029093503952,0.07788965851068497,0.1530519425868988,-0.15199533104896545,-0.38674965500831604,0.20118270814418793,0.04271514341235161,-0.01016239169985056,-0.18676629662513733,-0.06824222952127457,-0.09297695755958557,0.03767344355583191,-0.21394935250282288,0.0720299705862999,0.5047690868377686,-0.003984197974205017,0.13695713877677917,0.06653331220149994,-0.24713170528411865,0.43320801854133606,-0.3022509515285492,-0.08717865496873856,0.02928352914750576,0.14584186673164368,-0.1385360062122345,-0.004283877555280924,-0.04812068119645119,0.06892402470111847,-0.23892320692539215,0.07826007157564163,0.2896782159805298,-0.1328422874212265,-0.22802525758743286,0.25544464588165283,0.17078599333763123,0.0007319949218071997,0.09383387863636017,0.04102104529738426,-0.38613569736480713,0.21947398781776428,-0.31425976753234863,-0.2763587236404419,-0.03200475871562958,-0.3549738824367523,-0.03229955583810806,-0.148912250995636,0.04770083352923393,-0.3558546006679535,0.05165928229689598,-0.2889387011528015,-0.4619556963443756,-0.25575658679008484,-0.25861847400665283,0.10996408015489578,-0.06472009420394897,-0.38580605387687683,-0.3174920380115509,-0.625078022480011,-0.06599851697683334,-0.3718340992927551,-0.178355872631073,0.2860647141933441,0.05403885990381241,-0.22252289950847626,-0.3813461661338806,0.180900439620018,-0.08962452411651611,-0.36455872654914856,-0.0676049292087555,-0.08135103434324265,-0.19011901319026947,-0.02767079882323742,0.058831796050071716,0.2826932966709137,0.11249290406703949,-0.028538670390844345,0.06506749987602234,-0.15609747171401978,