{"params":{"dropout_prob":0.0,"l2_weight_decay":0.0,"l2_weight_decay_params":[],"l1_weight_decay":0.0,"l1_weight_decay_params":[],"contractive":0.0,"contractive_params":[],"reg":0.001,"learning_rate":"0.001,0.0001","n_attack_steps":10,"beta_robustness":0.0,"seed":1,"n_hidden":256,"n_layer":1,"batch_size":100,"boundary_loss":"madry","treat_as_constant":false,"abcd_etaA":0.1,"abcd_L":2,"p_norm":"inf","hessian_robustness":false,"awp":true,"noisy_forward_std":0.0,"warmup":0,"awp_gamma":0.1,"awp_perturb_input":false,"eps_pga":0.01,"nb_iter":3,"dt":1.0,"tau":20.0,"beta":2.0,"tau_adaptation":98.0,"thr":0.01,"thr_min":0.005,"refr":2,"dampening_factor":0.3,"sample_rate":16000,"eval_step_interval":400,"clip_duration_ms":1000,"window_size_ms":30.0,"window_stride_ms":10.0,"feature_bin_count":40,"in_repeat":1,"preprocess":"mfcc","data_url":"https:\/\/storage.googleapis.com\/download.tensorflow.org\/data\/speech_commands_v0.02.tar.gz","silence_percentage":10.0,"unknown_percentage":10.0,"validation_percentage":10.0,"testing_percentage":10.0,"n_thr_spikes":-1,"background_volume":0.1,"background_frequency":0.8,"time_shift_ms":100.0,"wanted_words":"yes,no,up,down,left,right","attack_size_constant":0.0,"initial_std_constant":0.0,"attack_size_mismatch":0.2,"initial_std_mismatch":0.001,"n_epochs":"80,20","optimizer":"adam","data_dir":"TensorCommands\/speech_dataset\/","session_id":3434787254,"desired_samples":16000,"window_size_samples":480,"window_stride_samples":160,"length_minus_window":15520,"spectrogram_length":98,"average_window_width":-1,"fingerprint_width":40,"fingerprint_size":3920,"label_count":8,"time_shift_samples":1600},"rng_key":[1381439919,676017915],"theta":{"W_in":[[0.015705063939094543,0.04873764142394066,0.1278311312198639,0.06459257006645203,0.004249163903295994,-0.004326822701841593,0.02952628768980503,0.02607443742454052,0.0008934250799939036,-2.4714106984902173e-5,0.01344308815896511,0.028446020558476448,0.05534332990646362,0.018219254910945892,0.05805332958698273,0.02848634496331215,0.0028098993934690952,0.010557185858488083,0.0037362989969551563,0.03149661421775818,0.005043921526521444,0.028716228902339935,0.04701957479119301,0.05670702084898949,0.043727975338697433,0.07640550285577774,0.0008335905731655657,0.029452094808220863,-0.002338137710466981,0.06542199850082397,0.03710523992776871,0.03472476825118065,0.028180090710520744,0.038993485271930695,0.038824260234832764,0.049940336495637894,0.006064251996576786,0.01675778068602085,0.024106444790959358,0.01840330846607685,0.019270697608590126,0.05657403916120529,0.025223353877663612,0.027097593992948532,0.06466785073280334,0.05143499746918678,0.018535111099481583,0.027113160118460655,0.04665776714682579,0.007376490160822868,0.0404222309589386,0.03074517659842968,0.014336011372506618,0.0352567620575428,-0.0033016714733093977,0.03796852007508278,0.06696799397468567,0.024583106860518456,0.008798602968454361,0.012920202687382698,-0.0001517974305897951,0.019267216324806213,0.043905697762966156,0.034801632165908813,0.027769099920988083,0.002438580384477973,0.056472521275281906,0.029161332175135612,0.026043862104415894,0.04779687523841858,0.02758636139333248,0.0331619530916214,0.017026906833052635,0.04798971489071846,0.0030873198993504047,0.028504781424999237,0.016603143885731697,0.007373838685452938,0.027552926912903786,0.02075798250734806,-0.0029921364039182663,0.027468767017126083,0.03981170430779457,0.10901113599538803,0.11045065522193909,0.018711555749177933,0.032892290502786636,0.016425184905529022,0.023176243528723717,0.0023577786050736904,0.026203501969575882,0.009937810711562634,0.04062538221478462,0.05063372105360031,0.05153732746839523,0.015219488181173801,0.04218228533864021,0.006340633612126112,0.004193434026092291,0.030692651867866516,0.038151126354932785,0.010540069080889225,0.002429155632853508,0.01236727088689804,0.017581980675458908,0.0027665651869028807,0.0549144372344017,0.025402281433343887,0.010783915407955647,0.01750635914504528,0.017054712399840355,0.05446762591600418,0.02488485537469387,0.018479634076356888,0.05931679904460907,0.06179823726415634,0.01611166261136532,0.03488433361053467,0.05627318471670151,0.039392080157995224,0.03325412794947624,0.04171008616685867,0.019000491127371788,0.08420241624116898,0.009117144159972668,0.0014844579854980111,0.043658725917339325,0.03602830693125725,0.04123480245471001,0.011174471117556095,0.044533729553222656,0.01761317066848278,0.039296429604291916,0.018383191898465157,0.14079581201076508,0.015443953685462475,0.020974181592464447,0.03083435259759426,-0.0029113462660461664,0.0427347868680954,0.016605524346232414,0.016230253502726555,0.012532917782664299,-0.002623714506626129,0.018185537308454514,0.057589638978242874,0.028765160590410233,0.03352252393960953,0.02900655008852482,0.04095960408449173,0.008722970262169838,0.027684835717082024,0.01719210110604763,0.029258862137794495,0.028409430757164955,0.0383615605533123,0.06940136849880219,0.02271508052945137,0.050944212824106216,0.023674413561820984,0.0005311087588779628,0.02676990255713463,-0.0020037672948092222,0.03289143368601799,0.029910020530223846,0.024659113958477974,0.02827398106455803,0.0347168855369091,0.03378656134009361,0.004078237805515528,0.021837575361132622,0.014240778051316738,0.0397665910422802,-0.013053764589130878,0.028480179607868195,0.012124736793339252,0.000491487211547792,0.0325964130461216,0.04026136174798012,0.0026682124007493258,-0.0006958662997931242,0.01348989550024271,0.0176774300634861,0.016136489808559418,0.03461548313498497,0.02522209845483303,0.008115462027490139,0.08624918013811111,0.008266691118478775,0.04527265205979347,0.005725746043026447,0.03750849515199661,0.035378970205783844,0.13815955817699432,0.0401216559112072,0.024052994325757027,0.05506901070475578,0.034004975110292435,0.0934981182217598,-0.004286484327167273,0.04562200978398323,0.04578515142202377,0.029857605695724487,0.05096155405044556,0.012590933591127396,0.02916138619184494,0.011130950413644314,0.04850253090262413,0.025339309126138687,0.05272457003593445,0.023680489510297775,-0.006413417402654886,0.04514253884553909,0.02922777459025383,0.006234254688024521,0.02587689645588398,0.05807814374566078,0.03097747638821602,0.029215127229690552,0.03842953220009804,0.007122118957340717,0.024993157014250755,0.02144918404519558,0.04220378398895264,0.016810830682516098,0.03395989164710045,0.029490280896425247,0.048988863825798035,0.015853900462388992,0.05567927286028862,0.005856607109308243,0.0363704115152359,0.023253818973898888,0.048658836632966995,0.035501156002283096,0.06965670734643936,0.05686478689312935,0.0003746067814063281,0.024601638317108154,0.012558141723275185,0.028082355856895447,0.02570532076060772,0.06120917946100235,0.007661066483706236,0.03330957889556885,0.06081745773553848,0.0074106017127633095,0.03122587502002716,0.03316105902194977,0.04439699649810791,0.04597712680697441,-0.01695113256573677,0.04274220019578934,0.06539210677146912,0.019014908000826836,0.031604964286088943],[0.009988759644329548,0.15567554533481598,0.08835220336914062,0.2560552954673767,0.23532453179359436,-0.0946161299943924,-0.001838205847889185,0.13176098465919495,-0.14998437464237213,-0.20396089553833008,-0.03483247011899948,0.09558818489313126,0.07961948961019516,-0.07762853801250458,0.015085844323039055,-0.042432766407728195,-0.11023087799549103,0.014242783188819885,-0.2107502818107605,-0.012480171397328377,-0.0801490992307663,0.0039741275832057,0.060672879219055176,-0.03729567676782608,0.1920192986726761,0.11598840355873108,0.0816730409860611,-0.09143094718456268,0.18211370706558228,0.08634478598833084,0.0039639840833842754,0.13271170854568481,-0.09066756814718246,-0.16363193094730377,0.0763980820775032,0.12164879590272903,-0.045279182493686676,0.031024474650621414,0.1300097554922104,0.20067089796066284,-0.18904973566532135,0.15201175212860107,0.009326573461294174,-0.11285033077001572,-0.11383675783872604,0.07377082854509354,-0.10105200111865997,0.09637409448623657,0.12342339009046555,-0.1603943407535553,0.140796959400177,0.17350000143051147,-0.10665975511074066,0.02943486161530018,-0.22479748725891113,0.0004029035335406661,0.14441150426864624,0.07370886951684952,0.12053580582141876,-0.07798240333795547,0.0849698930978775,0.021959086880087852,0.0611911304295063,0.17418023943901062,0.12252837419509888,-0.2482353299856186,-0.1252254694700241,-0.02437310293316841,0.16233158111572266,-0.10143471509218216,-0.11744842678308487,0.14212094247341156,0.13049402832984924,0.08040779083967209,-0.15054549276828766,0.21881042420864105,-0.22500383853912354,0.1581922173500061,0.2150431126356125,0.052382078021764755,-0.21146604418754578,0.21145637333393097,0.23881034553050995,0.18676213920116425,-0.019406450912356377,-0.03379884734749794,0.19999819993972778,-0.0078358119353652,-0.05237286910414696,-0.0025099613703787327,-0.09549316018819809,0.23480822145938873,0.14414101839065552,-0.06425223499536514,0.10153818875551224,0.1726209670305252,-0.049921415746212006,-0.11573704332113266,-0.14817863702774048,-0.11464229226112366,0.026057589799165726,0.1807059347629547,-0.04332480952143669,-0.12797921895980835,-0.04235188290476799,-0.1955662965774536,-0.0995800569653511,-0.04793521389365196,-0.036537688225507736,-0.12152832001447678,-0.0789981260895729,0.13783320784568787,0.05454147607088089,0.10670358687639236,0.09830939769744873,0.1578245908021927,-0.0036515824031084776,0.12267666310071945,0.11336211860179901,0.1710050404071808,-0.02274717390537262,0.1527707278728485,0.1275765597820282,-0.019053371623158455,-0.09091285616159439,-0.14205767214298248,-0.0827348455786705,-0.14578615128993988,-0.11729026585817337,0.09908923506736755,-0.15016791224479675,0.2024640440940857,-0.10323002189397812,-0.0647091343998909,0.13503625988960266,-0.09427406638860703,0.0005979857523925602,0.12661442160606384,-0.19144076108932495,-0.014893594197928905,0.17057660222053528,0.18745364248752594,0.07638606429100037,-0.1355789601802826,-0.12118538469076157,-0.09381088614463806,0.1348665952682495,-0.003844489809125662,0.1386912614107132,0.08992092311382294,-0.1608632355928421,0.1429629623889923,0.021026819944381714,-0.08574175089597702,0.1671883910894394,0.1645437628030777,-0.0611579529941082,-0.06336768716573715,0.13749326765537262,-0.16504763066768646,-0.20149122178554535,0.13501621782779694,-0.22785599529743195,0.01373022049665451,-0.157120019197464,-0.10800184309482574,-0.002919313730672002,0.13367094099521637,0.15031036734580994,-0.010388648137450218,-0.06247236207127571,0.11117812991142273,-0.15382225811481476,0.1291869431734085,0.04355384781956673,-0.1568872481584549,-0.03377683088183403,0.031640250235795975,-0.004021473228931427,-0.22812725603580475,-0.07451805472373962,-0.11973158270120621,0.2385765165090561,0.12604911625385284,0.13445840775966644,0.1055568978190422,0.2070418894290924,-0.08950332552194595,-0.02191345952451229,0.03907526656985283,-0.04086925834417343,-0.07066132128238678,-0.023991741240024567,-0.0876741036772728,0.08643671870231628,0.09486180543899536,-0.02647978626191616,-0.013892500661313534,-0.06417415291070938,-0.0402490459382534,0.1348048746585846,-0.0702483132481575,0.008855048567056656,-0.24379028379917145,-0.07174454629421234,-0.033356793224811554,0.09680032730102539,0.17994284629821777,0.02961907535791397,-0.0184499341994524,0.0608280673623085,-0.06101450324058533,-0.015165229327976704,0.054994452744722366,-0.23373249173164368,0.06317608803510666,-0.2421000897884369,0.09349299222230911,-0.06671931594610214,-0.033034976571798325,0.009103101678192616,-0.10518117994070053,0.10606195032596588,0.10110379755496979,-0.09622519463300705,0.18409402668476105,0.013792346231639385,0.0746111199259758,-0.00905104260891676,0.22790655493736267,-0.00790449883788824,0.17192892730236053,-0.13544778525829315,-0.021604260429739952,-0.07620399445295334,0.06578168272972107,0.16602958738803864,-0.22275298833847046,0.06344378739595413,0.05913497507572174,0.1971546858549118,0.04027621075510979,0.09070440381765366,-0.14955195784568787,0.08276691287755966,-0.15960325300693512,0.09053108841180801,0.01492281910032034,0.1033489853143692,-0.0865059420466423,0.12872247397899628,-0.12557204067707062,0.03470657393336296,0.13996273279190063,-0.09721043705940247,0.05754154920578003],[-0.006132882554084063,-0.011760632507503033,-0.4719603955745697,0.03458680585026741,-0.16534608602523804,-0.43324217200279236,0.21675388514995575,0.08710732311010361,0.2224384993314743,-0.002663876162841916,-0.03054329939186573,-0.4643733501434326,0.38042113184928894,-0.06850001960992813,-0.0016832213150337338,0.3636001646518707,0.034820493310689926,-0.15272019803524017,0.024061940610408783,0.35571199655532837,0.1233602911233902,0.054783448576927185,0.12709510326385498,0.12680232524871826,0.009464628994464874,-0.0743313655257225,-0.4101838171482086,0.0809510126709938,0.020309315994381905,-0.22734197974205017,0.2486230581998825,0.033933840692043304,-0.25768283009529114,0.03802594542503357,0.0007653807406313717,0.2533877491950989,0.2613799273967743,0.036216240376234055,0.05105862393975258,0.09987157583236694,0.04926834627985954,-0.06914301961660385,0.08140973001718521,0.0803634449839592,0.0891532376408577,-0.3168615400791168,-0.3467041552066803,-0.03339514508843422,-0.14312207698822021,0.10496781021356583,0.13839787244796753,0.017165295779705048,-0.008166225627064705,0.1907743662595749,0.11821570247411728,0.07038088887929916,0.16365483403205872,0.2708154022693634,0.04810648784041405,0.09552524983882904,0.2115507870912552,0.08002530038356781,0.07004006206989288,-0.23171472549438477,-0.14791376888751984,-0.046214085072278976,0.268523633480072,-0.26858341693878174,-0.03494194895029068,0.34719929099082947,-0.045922406017780304,-0.013122017495334148,0.26697787642478943,0.2334635704755783,-0.10577542334794998,0.22654709219932556,0.12239222228527069,0.08854306489229202,-0.08298768103122711,-0.24055571854114532,0.0035606359597295523,0.03994181007146835,0.37676364183425903,0.12010153383016586,0.1733526885509491,-0.06499097496271133,0.19201216101646423,-0.18072542548179626,-0.06916700303554535,-0.16538992524147034,0.04893914982676506,-0.1741536557674408,-0.07263412326574326,-0.05317363515496254,-0.1797841340303421,0.25374671816825867,0.02828846499323845,-0.34200605750083923,0.12053044140338898,-0.11779660731554031,0.28718170523643494,0.017988717183470726,-0.14442357420921326,-0.07140226662158966,-0.059920378029346466,-0.04713483899831772,-0.1326272338628769,-0.17962493002414703,0.19058391451835632,0.1644422709941864,-0.20693059265613556,-0.04351593926548958,-0.04707978665828705,0.012223795987665653,0.16536444425582886,0.009205104783177376,-0.11056075990200043,-0.17977279424667358,-0.11334134638309479,-0.15491260588169098,0.1767161786556244,0.22494614124298096,0.2609747052192688,-0.4104928970336914,0.17366616427898407,0.03984072431921959,-0.3597455322742462,-0.017037728801369667,0.09255699813365936,0.27410152554512024,0.003483094973489642,-0.07876365631818771,-0.4420369565486908,0.08577775210142136,0.1504378765821457,0.25695163011550903,0.2571558952331543,0.04537014663219452,0.16654299199581146,0.4553660452365875,0.3397199213504791,-0.05281446874141693,0.0505070686340332,-0.11194590479135513,-0.15237894654273987,0.3517293334007263,-0.17751926183700562,0.3354267477989197,-0.0008065026486292481,0.2713777422904968,-0.19839641451835632,0.14655353128910065,-0.29672616720199585,0.2826669216156006,-0.17184394598007202,0.11735252290964127,0.4105566442012787,0.4173082113265991,-0.05233319476246834,0.13734188675880432,0.11576530337333679,-0.06306732445955276,0.07558563351631165,0.07392849028110504,0.23925602436065674,-0.07096651196479797,-0.3677231967449188,0.03927059844136238,0.036416321992874146,0.15072908997535706,0.30725398659706116,-0.08783885836601257,0.1783837378025055,-0.5654296875,-0.33963069319725037,0.13221722841262817,0.050966814160346985,0.027373813092708588,0.05756097286939621,0.13110467791557312,0.01530008390545845,0.1203397661447525,-0.15611058473587036,-0.23354090750217438,0.0890783816576004,-0.3059767484664917,0.20483790338039398,-0.33012038469314575,0.13275457918643951,-0.021891621872782707,0.08784130960702896,0.3701576888561249,-0.12980374693870544,-0.03203326836228371,-0.07747839391231537,-0.1483144462108612,0.2188604176044464,0.2071819007396698,0.14612770080566406,0.16519275307655334,0.18547242879867554,0.012407849542796612,-0.30185869336128235,-0.12121216207742691,0.1255538910627365,0.13304932415485382,-0.15418536961078644,0.008101269602775574,-0.127140611410141,0.05882037803530693,-0.20790240168571472,-0.03958408907055855,0.3702523410320282,0.06986973434686661,0.06422411650419235,-0.16288743913173676,0.029120231047272682,0.3046470284461975,0.38345107436180115,0.31837376952171326,0.11630050837993622,-0.0026932954788208008,-0.2043016105890274,-0.1939479410648346,-0.18434879183769226,0.04409172013401985,-0.14946825802326202,0.13831807672977448,0.010563268326222897,0.3259955942630768,-0.13414236903190613,-0.03389490768313408,0.31187954545021057,0.00010110149742104113,0.17891652882099152,0.2898792326450348,0.08612793684005737,0.07171723246574402,-0.18489719927310944,-0.12743917107582092,0.0945129320025444,-0.06325791031122208,0.00236997427418828,-0.4282034635543823,-0.14037571847438812,0.2869707942008972,0.07758121192455292,0.23421594500541687,0.16597594320774078,0.186247318983078,0.12857085466384888,0.045163340866565704,-0.11299214512109756,0.14733174443244934,-0.14253894984722137,0.02496018446981907],[-0.32380256056785583,0.19132184982299805,-0.3163507580757141,-0.3207061290740967,0.05310691148042679,-0.38523635268211365,-0.12130968272686005,-0.007321658544242382,0.10890652239322662,-0.23315882682800293,-0.011968162842094898,0.11818651854991913,-0.1286955028772354,-0.2505033016204834,-0.09887102991342545,-0.058196909725666046,-0.17339260876178741,0.06208363547921181,-0.007846935652196407,0.17054009437561035,0.23620817065238953,0.021237602457404137,-0.11049236357212067,-0.08018654584884644,-0.32571613788604736,-0.06661417335271835,0.0046926033683121204,0.1935408115386963,-0.36374178528785706,0.007864686660468578,0.15786206722259521,-0.3025323748588562,-0.19878089427947998,0.17795340716838837,-0.18412242829799652,0.03549440950155258,0.16617996990680695,-0.1771145761013031,-0.014793571084737778,-0.2740206718444824,0.21916061639785767,0.24469150602817535,-0.264397531747818,0.171216681599617,0.5088958740234375,-0.2102133184671402,-0.12207634747028351,-0.1024458259344101,-0.034137748181819916,-0.09243962913751602,0.2591842710971832,0.003110152669250965,0.18264175951480865,0.3451808989048004,-0.19120489060878754,0.10181232541799545,-0.25538694858551025,0.29541289806365967,-0.14948387444019318,-0.12327079474925995,0.2786661684513092,-0.3551225960254669,0.11219049990177155,-0.11444364488124847,0.07126321643590927,0.03781848028302193,-0.4089139401912689,-0.31997644901275635,-0.2503519058227539,0.13177837431430817,-0.29391881823539734,0.2583838403224945,0.21218912303447723,0.0959412083029747,0.009194419719278812,-0.10595904290676117,-0.017992351204156876,-0.15767551958560944,-0.23607516288757324,-0.06726490706205368,0.06172800436615944,-0.3720550835132599,0.11042588204145432,-0.15716961026191711,-0.057839442044496536,-0.36209362745285034,0.023530064150691032,-0.1363210529088974,0.02837754786014557,0.03374241292476654,0.49480384588241577,-0.012211872264742851,-0.064693883061409,-0.04129653424024582,-0.18960048258304596,0.04734307900071144,-0.05340420827269554,-0.3035026490688324,-0.10068192332983017,0.02043582685291767,0.2904435396194458,-0.11574254930019379,-0.14262273907661438,0.05165299400687218,0.4310525059700012,0.09858337789773941,0.03741772100329399,-0.07013248652219772,-0.13659219443798065,-0.46971407532691956,-0.3823615610599518,0.4462663233280182,-0.2527274191379547,0.014188687317073345,0.18077121675014496,-0.2785298526287079,0.13366638123989105,-0.4133286774158478,0.13807518780231476,-0.2725943922996521,-0.026074832305312157,0.1671437919139862,-0.3025408685207367,0.0626293197274208,0.24920959770679474,0.22397775948047638,0.06596549600362778,0.05279550328850746,0.39903703331947327,0.23738960921764374,-0.07928390800952911,-0.06195806711912155,0.2696165144443512,0.004070370923727751,0.2587844729423523,0.11823350191116333,0.09326701611280441,-0.09046397358179092,0.11142630875110626,0.014199087396264076,-0.0490991584956646,-0.01009315624833107,-0.04356718808412552,0.24908417463302612,-0.22990170121192932,-0.09220202267169952,-0.1889263540506363,-0.28581225872039795,0.39729782938957214,-0.1261080950498581,-0.27459660172462463,-0.4737396240234375,-0.057900186628103256,0.28238165378570557,-0.012851115316152573,-0.43869054317474365,0.256230890750885,0.03001173958182335,-0.13952702283859253,0.13575658202171326,-0.22733482718467712,0.22121156752109528,0.10689633339643478,0.053244296461343765,-0.3218034505844116,-0.05374859273433685,-0.11721597611904144,-0.00861391518265009,-0.18103303015232086,-0.1546379029750824,-0.27365511655807495,0.07241060584783554,0.24026329815387726,0.017822233960032463,0.3983009457588196,0.13224245607852936,-0.04861800745129585,0.2430717796087265,0.3254682719707489,0.08496138453483582,-0.09798578172922134,-0.2178780436515808,-0.104018934071064,-0.07286616414785385,0.17187398672103882,0.06492418050765991,-0.061796486377716064,0.47864845395088196,-0.10354627668857574,0.29626286029815674,0.12431970983743668,0.23700818419456482,0.04647456482052803,0.21031896770000458,-0.25384366512298584,-0.18905898928642273,0.6241328120231628,0.5290930271148682,-0.3104676902294159,0.06212475895881653,-0.33744439482688904,0.15244942903518677,-0.023345936089754105,-0.2195168286561966,-0.15239021182060242,0.21265839040279388,-0.46372243762016296,-0.18619795143604279,-0.07130473852157593,0.29783886671066284,-0.05568424239754677,0.12778717279434204,-0.09775519371032715,-0.23593668639659882,0.04152674973011017,-0.14659760892391205,0.20746386051177979,0.25931063294410706,0.04144740104675293,-0.027261177077889442,0.23819555342197418,0.019480666145682335,-0.06643184274435043,0.1648682951927185,-0.14190156757831573,-0.4169329106807709,-0.2128600776195526,0.34615465998649597,-0.19108009338378906,0.3208175301551819,-0.02639508806169033,-0.12026391923427582,-0.3090650737285614,-0.06920116394758224,-0.0989346131682396,0.009608695283532143,-0.2026231735944748,0.023232674226164818,0.07022105157375336,-0.054088130593299866,0.03693460300564766,-0.01684224233031273,-0.2268434464931488,0.3794669508934021,0.3918275833129883,-0.2484314739704132,-0.03146274760365486,0.39340153336524963,-0.1674778312444687,-0.031451694667339325,-0.5541862845420837,-0.09141279011964798,0.17196717858314514,0.4509868025779724,0.024508683010935783,-0.08095547556877136],[-0.34161558747291565,0.4339931309223175,-0.6033443212509155,0.16241680085659027,0.5231117010116577,-0.04537742957472801,0.11769111454486847,-0.04967910423874855,-0.23688775300979614,-0.10399789363145828,0.06849401444196701,0.03398515656590462,-0.07073863595724106,-0.3310893774032593,-0.47244831919670105,-0.7040787935256958,-0.14052845537662506,0.24655352532863617,0.44537174701690674,-0.2947753369808197,-0.5010858178138733,-0.34452658891677856,0.30389681458473206,-0.04036826640367508,0.03376174345612526,-0.18207477033138275,0.5156340599060059,-0.6006388068199158,0.23536604642868042,-0.026102911680936813,0.045766524970531464,0.30598828196525574,-0.04537399113178253,-0.5685708522796631,-0.01469455286860466,0.006113618146628141,0.14644743502140045,-0.24226759374141693,-0.06803064048290253,0.1844533234834671,0.22237631678581238,0.024671128019690514,0.15681985020637512,0.08033303916454315,0.43174099922180176,-0.12451891601085663,0.32452091574668884,-0.2737973928451538,0.26747456192970276,-0.2434055209159851,0.258521169424057,0.12053174525499344,-0.43766140937805176,0.41023343801498413,-0.2859416902065277,0.039210330694913864,-0.32662132382392883,0.08661860972642899,0.0019284908194094896,-0.30956926941871643,-0.022308874875307083,-0.2552609145641327,0.31060245633125305,0.10325484722852707,0.12036177515983582,0.120385080575943,-0.1720886528491974,0.19017934799194336,0.14601142704486847,-0.4273039400577545,0.08088595420122147,0.3810802698135376,0.17444100975990295,-0.24186517298221588,-0.17446395754814148,0.12394387274980545,-0.15686127543449402,0.1094721183180809,0.24828851222991943,-0.056458730250597,-0.10277054458856583,-0.05191638693213463,0.10857032984495163,0.02151983045041561,-0.20539076626300812,0.1484156996011734,0.1642187088727951,-0.04800146818161011,0.31571266055107117,-0.22261837124824524,-0.16490396857261658,0.13849090039730072,0.01958979107439518,0.19756059348583221,0.07465378195047379,0.08486808091402054,-0.056083016097545624,-0.2535361647605896,0.13793450593948364,-0.27663010358810425,-0.17757481336593628,0.11808376759290695,0.07696600258350372,-0.1725442260503769,0.03427807614207268,-0.24733462929725647,-0.0488797202706337,-0.39656004309654236,-0.11810874938964844,-0.07775100320577621,0.16967418789863586,0.3859418034553528,0.3556962311267853,0.13557855784893036,0.0072530657052993774,0.3255007266998291,0.09362491965293884,0.09341350197792053,-0.1583266258239746,0.31863322854042053,-0.5797300338745117,0.34486380219459534,-0.14500592648983002,-0.1332758665084839,-0.2027186006307602,-0.09761346876621246,-0.05586349591612816,-0.0019233060302212834,-0.21601763367652893,-0.08777724951505661,0.25453418493270874,0.34173595905303955,0.028443703427910805,-0.13179588317871094,-0.15635152161121368,-0.2057640105485916,-0.3389819264411926,-0.01768219843506813,0.30755773186683655,-0.2546248137950897,0.2029767781496048,0.03182438015937805,-0.3732542097568512,-0.3149241507053375,0.12654335796833038,-0.11026401072740555,0.1681802123785019,-0.08165321499109268,0.1767704039812088,0.13520820438861847,0.35365113615989685,0.12012878805398941,0.0856960266828537,-0.28503915667533875,0.003115542931482196,-0.1788644790649414,-0.018039030954241753,-0.3530019223690033,-0.20843438804149628,-0.21399086713790894,-0.2678212821483612,0.024385273456573486,-0.012389330193400383,-0.023119503632187843,-0.3051890432834625,-0.18876923620700836,-0.17498229444026947,0.07984265685081482,0.08877447992563248,-0.5211402773857117,0.2095280885696411,0.24950075149536133,-0.24812979996204376,0.33970290422439575,0.3778510093688965,-0.15826091170310974,-0.05206657946109772,-0.16119644045829773,-0.1163608506321907,0.19489559531211853,-0.6696147322654724,-0.0027730141300708055,0.13924774527549744,0.132572740316391,-0.2955548167228699,0.07242385298013687,0.18375642597675323,-0.30555984377861023,-0.18209390342235565,-0.014160689897835255,0.14788228273391724,-0.03187002241611481,-0.40373995900154114,0.10820057988166809,0.2055853307247162,-0.035651031881570816,-0.04309707134962082,-0.24547721445560455,-0.2396591603755951,0.1394003927707672,-0.14113661646842957,-0.45148876309394836,0.1372387558221817,-0.16546311974525452,-0.38410040736198425,-0.24906501173973083,-0.2390557825565338,0.4079078137874603,0.21682973206043243,0.47876888513565063,0.27564293146133423,0.014951201155781746,-0.2806234061717987,-0.1273384392261505,0.14362376928329468,0.25287240743637085,0.06924405694007874,0.15578866004943848,-0.29312142729759216,0.09281130135059357,-0.25075849890708923,-0.11229205131530762,0.13279616832733154,-0.04344604164361954,0.06364511698484421,0.18201223015785217,0.2152656465768814,0.2055172175168991,-0.09702780842781067,0.3219425678253174,-0.17300230264663696,0.1676097959280014,0.16248376667499542,-0.5153335928916931,-0.20926840603351593,-0.30938801169395447,0.06107524409890175,-0.014104913920164108,0.17542631924152374,0.18791250884532928,0.3301258385181427,0.00813154224306345,-0.2642798125743866,0.4354417622089386,0.41570359468460083,0.26271969079971313,-0.14723172783851624,-0.0038306869100779295,-0.21966791152954102,-0.23127740621566772,0.09496472775936127,0.06348620355129242,0.03517162799835205,-0.22405698895454407,-0.3533232808113098,0.1324295699596405],[-0.25212204456329346,0.12506283819675446,-0.31205371022224426,0.06360812485218048,-0.08312439918518066,-0.2026105672121048,-0.18752442300319672,-0.21159525215625763,-0.17844653129577637,-0.055841539055109024,0.01566750928759575,-0.10118865221738815,0.08261148631572723,0.30047398805618286,-0.303106427192688,-0.2153008133172989,0.07214666903018951,-0.25840383768081665,0.1321401447057724,0.31078770756721497,0.06191323325037956,-0.4418462812900543,0.04517834633588791,0.10138364881277084,0.289132297039032,-0.04143738001585007,0.07935789227485657,-0.029436945915222168,-0.039260149002075195,-0.2316390573978424,-0.5274583697319031,0.051066864281892776,0.2512769401073456,0.03439480811357498,0.3183317482471466,-0.2970186173915863,0.2017621248960495,-0.31778696179389954,-0.18366460502147675,0.16939377784729004,0.12727150321006775,-0.4966740906238556,-0.011488874442875385,-0.38376161456108093,0.5381007790565491,0.1431678831577301,0.02945816144347191,0.11231499165296555,0.2856050133705139,-0.06405907869338989,-0.03592238947749138,-0.29850518703460693,0.08453379571437836,0.22945347428321838,-0.07007336616516113,-0.10288587212562561,-0.026616504415869713,0.08142644912004471,-0.005501565057784319,-0.1037970557808876,0.02108028344810009,0.40660446882247925,0.18421722948551178,-0.27922695875167847,0.2110559344291687,0.10868816822767258,-0.09229828417301178,-0.1515006124973297,0.31367620825767517,0.15193787217140198,-0.17382830381393433,0.3582366704940796,0.1331533044576645,-0.005423549562692642,0.0786418542265892,0.3793613016605377,0.0903300866484642,-0.29687801003456116,0.09019885212182999,-0.17527978122234344,0.334359735250473,0.0937691479921341,0.07505898177623749,0.07960866391658783,0.4306640923023224,-0.2358458936214447,-0.1348942518234253,-0.20272286236286163,0.20537373423576355,0.09922907501459122,-0.23668114840984344,-0.23427331447601318,-0.10759877413511276,0.1924288123846054,-0.07029857486486435,0.055896032601594925,-0.2916280925273895,-0.006244938354939222,-0.0033963657915592194,0.2238118201494217,-0.24788136780261993,-0.35802021622657776,-0.2172512710094452,-0.1608268916606903,-0.5422986149787903,-0.29023218154907227,-0.2068835347890854,0.02173878811299801,-0.4845234453678131,0.061971768736839294,-0.07337018847465515,0.2772197723388672,0.14598676562309265,-0.017165444791316986,0.13008704781532288,-0.35849297046661377,-0.1610945612192154,0.3844117224216461,-0.3104127049446106,0.04066810384392738,0.21878516674041748,0.32022473216056824,-0.12700994312763214,-0.19106021523475647,-0.20837770402431488,0.26619526743888855,0.19655203819274902,-0.07672074437141418,-0.26109009981155396,-0.09585124254226685,0.07844679802656174,0.03530729562044144,0.17123302817344666,0.03320666775107384,0.09761590510606766,0.014950433745980263,-0.2085859626531601,0.1717512607574463,0.5713154077529907,-0.1531616449356079,-0.13884122669696808,0.04573988914489746,-0.34954506158828735,0.15878704190254211,0.17252691090106964,0.17472857236862183,0.5619376301765442,0.3304879367351532,-0.2574906051158905,-0.09885064512491226,0.16926570236682892,0.04852849617600441,0.11422809213399887,-0.14813195168972015,-0.1854792833328247,-0.03047346882522106,0.1462559849023819,-0.09906037896871567,-0.06013857200741768,-0.23655670881271362,-0.044256292283535004,-0.048277199268341064,0.3073783218860626,0.16573673486709595,0.3069038689136505,0.2520981431007385,-0.25749513506889343,-0.2755805552005768,0.12440237402915955,-0.16753798723220825,-0.42403194308280945,-0.3002813756465912,0.2591618299484253,-0.17616812884807587,-0.14701730012893677,0.07096868753433228,-0.14851786196231842,0.02237945795059204,-0.2913428843021393,0.1193225085735321,-0.2118200659751892,-0.09091238677501678,0.1429338902235031,0.09928304702043533,-0.59360671043396,0.14637689292430878,-0.25728917121887207,0.028733765706419945,0.060096848756074905,-0.05146663635969162,0.07524267584085464,0.04326137900352478,0.006222781725227833,0.2410084754228592,0.18617187440395355,0.22654810547828674,0.2764393389225006,0.3868728280067444,0.33986297249794006,-0.41450217366218567,0.3561079204082489,0.09771087765693665,-0.10476507991552353,-0.18299178779125214,-0.2856408655643463,0.15403428673744202,-0.14624632894992828,-0.01148207113146782,-0.08355998992919922,0.3499641716480255,0.04909124597907066,-0.08915608376264572,-0.04886019974946976,-0.18279914557933807,0.24131989479064941,0.08689054846763611,-0.2931574881076813,0.22102604806423187,0.041731514036655426,0.25719350576400757,-0.2878604233264923,0.08580349385738373,0.009267129935324192,-0.10778766870498657,-0.16700059175491333,0.14079539477825165,0.4140348732471466,0.11747107654809952,-0.19600878655910492,0.41823145747184753,-0.2001364678144455,-0.011067100800573826,-0.490503191947937,-0.06958062201738358,-0.09029459208250046,8.917472587199882e-5,0.07606974244117737,0.23519179224967957,-0.18536560237407684,0.06917794048786163,-0.05523008480668068,0.18595726788043976,0.1840851604938507,-0.023057948797941208,0.20239096879959106,-0.3026113510131836,-0.24615415930747986,0.3839472234249115,0.33856403827667236,0.05651570484042168,0.05485524237155914,-0.11359183490276337,-0.20037516951560974,0.12671108543872833,0.34191015362739563,-0.19224360585212708],[-0.4735853672027588,-0.32195279002189636,-0.27638450264930725,-0.17693991959095,0.16025054454803467,0.20439013838768005,-0.1269882619380951,-0.31035661697387695,0.2518596947193146,-0.07511486113071442,0.39688363671302795,0.5367542505264282,-0.0038921041414141655,0.06943674385547638,0.1258006989955902,0.18571925163269043,-0.05155422165989876,-0.025266338139772415,-0.33233264088630676,-0.05118962749838829,0.22704476118087769,0.21956269443035126,0.02544611506164074,0.13646474480628967,0.18119125068187714,0.36258038878440857,0.2698342502117157,0.31849899888038635,0.05608900263905525,0.18085977435112,-0.36971932649612427,-0.020917600020766258,0.1477968543767929,0.4122542440891266,-0.2927232086658478,-0.22996972501277924,0.3329380750656128,0.07289084047079086,-0.17168843746185303,-0.37934377789497375,0.026317743584513664,-0.4859590530395508,-0.05164363235235214,-0.16208255290985107,0.097042977809906,0.3980938196182251,0.39167463779449463,-0.1880900263786316,0.1202588900923729,0.11289740353822708,-0.5057067275047302,-0.31589365005493164,0.11335889250040054,-0.07602721452713013,-0.08960536867380142,-0.03675747290253639,-0.3654918968677521,-0.07655849307775497,0.11422029137611389,0.30919399857521057,-0.21630343794822693,-0.14270612597465515,-0.4434279501438141,0.4436635375022888,0.012453315779566765,-0.2772020101547241,0.1870807707309723,0.035966649651527405,-0.25957170128822327,0.4095548391342163,0.44839411973953247,-0.2750161588191986,-0.11941651999950409,0.09091454744338989,0.20433665812015533,0.03146478906273842,0.18110471963882446,-0.27004846930503845,-0.04974818229675293,0.12133893370628357,-0.2965265214443207,0.17575359344482422,-0.3720625340938568,0.4366680085659027,-0.10398752987384796,0.3127814829349518,-0.25720399618148804,0.2801779508590698,-0.33444786071777344,0.28157922625541687,0.12332671880722046,-0.1793638914823532,-0.3931153416633606,-0.19616533815860748,-0.11277186870574951,-0.4613342881202698,-0.0786372721195221,0.5031366348266602,0.25345736742019653,-0.08357878774404526,-0.4047624170780182,-0.39269140362739563,0.4196091294288635,0.16522996127605438,0.028401674702763557,0.3886948525905609,0.11756967008113861,0.3059958815574646,0.23489637672901154,0.27806276082992554,0.1058349534869194,0.004323196597397327,-0.4541756808757782,-0.4155462682247162,-0.3274064064025879,0.03597371280193329,0.01757507212460041,-0.15346771478652954,-0.010603050701320171,-0.25045251846313477,0.12554125487804413,-0.10907824337482452,-0.496168315410614,0.10729008167982101,-0.10784813016653061,-0.04664682596921921,0.1360756903886795,0.39797496795654297,-0.3951071500778198,-0.27575066685676575,-0.1561356633901596,-0.19171994924545288,-0.356277734041214,-0.027256030589342117,-0.1215883195400238,-0.17902328073978424,0.02759377844631672,0.19792440533638,-0.004151672124862671,-0.154801607131958,-0.2963579595088959,0.002805211814120412,-0.11333440244197845,0.1060345396399498,0.4607446789741516,0.5134146213531494,-0.1960902214050293,-0.10813066363334656,-0.12001224607229233,-0.4935167133808136,-0.12433866411447525,-0.08936532586812973,0.08670804649591446,0.026268336921930313,-0.2568929195404053,0.16929377615451813,0.13600927591323853,-0.10823745280504227,0.20406775176525116,0.27204057574272156,0.1665979027748108,0.049639467149972916,-0.20274333655834198,-0.06381214410066605,0.2975238561630249,0.05728437006473541,-0.48893171548843384,-0.6269605159759521,-0.3141898810863495,-0.04416729509830475,0.01625213772058487,-0.10029937326908112,0.22676022350788116,-0.11249297112226486,-0.1421552449464798,-0.2228187918663025,-0.01815473660826683,-0.15592651069164276,0.6931313276290894,0.02800077013671398,0.16164138913154602,-0.09033491462469101,0.28977715969085693,0.10492166876792908,-0.20504897832870483,-0.011451243422925472,-0.13851426541805267,-0.10290561616420746,-0.548461377620697,0.5227912664413452,-0.0842757299542427,-0.18917052447795868,0.4307941198348999,-0.4326782822608948,-0.026168037205934525,0.17386212944984436,0.10718675702810287,-0.11597861349582672,0.3444461226463318,0.054185934364795685,-0.47504672408103943,0.09225540608167648,0.1620759218931198,0.595710813999176,-0.21009905636310577,-0.17816714942455292,0.0741281807422638,-0.43110230565071106,0.059631168842315674,0.06164975091814995,-0.08202938735485077,-0.2238554209470749,-0.29827001690864563,-0.29435765743255615,-0.09080379456281662,-0.19850024580955505,0.2851974070072174,-0.23388975858688354,-0.277050256729126,-0.32314613461494446,-0.42661958932876587,0.38950490951538086,0.07357896864414215,0.27185124158859253,0.3401966392993927,-0.2739393413066864,-0.05899163335561752,-0.3109871745109558,-0.45530787110328674,0.15285319089889526,0.3413890302181244,-0.2934108078479767,-0.14189493656158447,0.13715894520282745,0.06257234513759613,-0.19381476938724518,-0.12055003643035889,0.022576503455638885,-0.4432292878627777,-0.18776367604732513,-0.13587594032287598,0.1434733122587204,-0.08118701726198196,-0.3164452612400055,0.11411017924547195,0.3015750050544739,-0.26629602909088135,0.043507169932127,-0.22304633259773254,0.46908044815063477,-0.395113468170166,-0.286808580160141,0.06167646497488022,-0.26817649602890015,0.23427154123783112,-0.43230560421943665],[-0.32082071900367737,0.23961026966571808,0.21668189764022827,-0.25723180174827576,0.39103376865386963,-0.023167485371232033,-0.40724003314971924,-0.3423457145690918,-0.1679176241159439,-0.00385758513584733,0.08951409161090851,0.19486704468727112,-0.19703786075115204,0.007148181553930044,0.39389997720718384,0.046277355402708054,0.33856716752052307,0.3504943251609802,0.2139386087656021,-0.045090723782777786,0.15674926340579987,0.5603125095367432,-0.0006784343277104199,-0.5066736340522766,-0.22139717638492584,0.5320675373077393,0.06783194094896317,-0.030178066343069077,-0.3118450939655304,0.12916262447834015,-0.05674643814563751,0.04581143334507942,0.19820326566696167,0.005053830798715353,-0.09932361543178558,0.07818333059549332,-0.0946977436542511,0.0793822854757309,-0.2545517086982727,-0.2313610017299652,0.2959941029548645,-0.19370290637016296,0.43610697984695435,0.6390506625175476,-0.1777651011943817,0.12779803574085236,0.06471968442201614,-0.015838706865906715,-0.01833435334265232,-0.2378930300474167,0.3284536600112915,-0.23560363054275513,0.635999321937561,0.06653816252946854,-0.03846358880400658,0.48084431886672974,-0.21618302166461945,0.018265632912516594,0.24158062040805817,0.1964745670557022,-0.3094455897808075,-0.1818828582763672,-0.5824129581451416,0.05342096835374832,-0.11643849313259125,0.0063852304592728615,-0.17394237220287323,0.3037347197532654,-0.36943212151527405,0.13013477623462677,0.2945035696029663,0.13438667356967926,-0.24726833403110504,-0.048385363072156906,0.16158802807331085,-0.30307865142822266,0.1291295439004898,-0.24941354990005493,-0.361088365316391,-0.2296047806739807,0.22290416061878204,-0.32089677453041077,-0.3495800197124481,0.07041248679161072,0.3941926956176758,-0.04913976043462753,-0.14570097625255585,0.3143935799598694,-0.11821750551462173,-0.5782182216644287,0.2838626205921173,-0.15142317116260529,0.21077510714530945,-0.42814913392066956,0.6409505009651184,-0.028346411883831024,0.43175312876701355,0.4037908911705017,-0.019187139347195625,-0.19632595777511597,-0.1815340518951416,-0.24457213282585144,0.20348569750785828,0.35832157731056213,-0.2238219678401947,-0.08361081779003143,-0.30658018589019775,-0.028278768062591553,0.14405794441699982,-0.28023654222488403,0.5020961165428162,-0.23311778903007507,0.18151633441448212,0.06742004305124283,-0.2216464877128601,-0.038895636796951294,0.294912725687027,0.006449016276746988,0.3771462142467499,0.04906434565782547,-0.24651500582695007,-0.006450945511460304,-0.19663016498088837,0.20123136043548584,-0.002365767490118742,0.047307394444942474,0.14501701295375824,0.4489308297634125,-0.47750723361968994,-0.03816104307770729,-0.40258657932281494,-0.08319559693336487,-0.42994603514671326,0.0873861014842987,0.38248151540756226,-0.003420624416321516,-0.06828542053699493,0.33705875277519226,-0.05690814554691315,-0.18774834275245667,-0.1744672805070877,-0.07237608730792999,0.12822233140468597,0.2427339404821396,-0.022153252735733986,-0.39991024136543274,0.04635794833302498,-0.19587059319019318,0.1429319977760315,-0.47613388299942017,-0.010177118703722954,-0.24839451909065247,0.3882419168949127,-0.09093189984560013,-0.5588021278381348,0.045771755278110504,-0.01637798734009266,-0.18235988914966583,-0.09646794199943542,0.031293708831071854,-0.30917224287986755,-0.029494330286979675,0.2909835875034332,-0.01813626103103161,-0.1447899043560028,0.0965392217040062,-0.11211739480495453,0.09543252736330032,-0.21163932979106903,0.25589048862457275,-0.26800715923309326,0.30125460028648376,0.07014022022485733,0.11093111336231232,0.1787044107913971,0.0660170465707779,-0.01735702157020569,0.34186646342277527,0.24655038118362427,0.06075888127088547,-0.09956816583871841,0.020540844649076462,0.29541438817977905,-0.10775046795606613,-0.2940896153450012,0.08859971165657043,-0.2233976423740387,0.13344690203666687,0.007541211321949959,0.08606480807065964,0.037838347256183624,-0.03897079825401306,0.2502342462539673,0.005262297112494707,0.13086777925491333,0.21157121658325195,-0.0528591088950634,-0.15222521126270294,-0.28232645988464355,-0.05779147148132324,-0.6889626383781433,0.17020981013774872,0.24900183081626892,-0.06001777574419975,0.36876434087753296,0.1845771074295044,-0.15208184719085693,-0.26960569620132446,0.0897522121667862,-0.05913737043738365,0.07326599210500717,-0.09434085339307785,-0.06486958265304565,0.3358250558376312,0.22049148380756378,0.40028685331344604,-0.012357045896351337,-0.2732221484184265,-0.35839033126831055,-0.2849818468093872,-0.46122151613235474,0.3699541389942169,-0.22470000386238098,0.10090179741382599,-0.19437552988529205,-0.2069815993309021,0.09435058385133743,-0.28180983662605286,-0.4637603461742401,0.07848954200744629,0.1404087394475937,0.16944852471351624,0.0687946230173111,0.25877875089645386,0.06442485004663467,-0.3978581726551056,0.3377801179885864,0.22215285897254944,-0.09765129536390305,0.12370744347572327,-0.14816494286060333,0.14154939353466034,0.02181239239871502,0.21711689233779907,-0.1755247861146927,-0.2311629354953766,0.1526883840560913,0.0736384317278862,0.011032399721443653,-0.2667348086833954,0.02022586762905121,-0.44599461555480957,0.40366271138191223,-0.06992755085229874,0.3382343351840973,0.5968285202980042],[-0.264173299074173,0.08168988674879074,0.24057263135910034,0.22358857095241547,-0.15581433475017548,0.03853626549243927,0.19755859673023224,-0.12832359969615936,-0.1757463961839676,-0.07350985705852509,-0.08857972919940948,-0.05016191303730011,-0.3328048884868622,0.09160339832305908,-0.07554637640714645,-0.031797993928194046,0.04565863683819771,0.1631760150194168,0.2982320785522461,0.003552704816684127,-0.3978293538093567,-0.07468213140964508,0.10886084288358688,-0.056111957877874374,-0.2708590626716614,0.05186843127012253,0.28649643063545227,-0.4101908504962921,-0.09057360142469406,-0.6695690751075745,0.07495196163654327,0.009878725744783878,0.0853133276104927,-0.38419291377067566,0.6025545597076416,-0.1781369000673294,0.13899250328540802,-0.19755783677101135,-0.021544920280575752,0.2895631492137909,-0.061519015580415726,-0.24069397151470184,0.14715352654457092,-0.3678969144821167,0.13974599540233612,-0.3248821198940277,-0.956177830696106,0.31241193413734436,0.06662646681070328,-0.1395014524459839,0.32183825969696045,-0.3742137551307678,0.09403201937675476,-0.046747516840696335,-0.11536698788404465,0.10105355083942413,-0.1133180558681488,-0.04301249980926514,0.24787361919879913,-0.1756666898727417,-0.021825414150953293,-0.22261647880077362,-0.41153278946876526,0.052409373223781586,0.1917831152677536,0.26857492327690125,0.28287556767463684,-0.11331541836261749,0.27946770191192627,-0.17781443893909454,-0.036932747811079025,-0.09455133974552155,0.006255637854337692,0.15752647817134857,0.5188978314399719,-0.25989168882369995,-0.04678754881024361,-0.29584619402885437,-0.13283027708530426,0.23716528713703156,-0.004230976104736328,-0.15001608431339264,-0.1255294680595398,-0.6808152794837952,-0.033046286553144455,0.2058311402797699,0.08223710209131241,0.3412475883960724,-0.17530958354473114,-0.23524758219718933,-0.35786426067352295,-0.15351365506649017,-0.00635262718424201,-0.15724579989910126,0.14237898588180542,-0.24445189535617828,-0.26625144481658936,0.08292434364557266,0.2652047574520111,-0.16411706805229187,-0.013851568102836609,-0.11738637834787369,0.1071714460849762,0.12061328440904617,-0.22713056206703186,-0.1149483472108841,0.3608936667442322,0.010117182508111,-0.00473333615809679,-0.1331365704536438,0.21820299327373505,-0.1478453278541565,0.5116159915924072,0.3925788700580597,-0.34817197918891907,-0.06594965606927872,0.2611621618270874,0.18602938950061798,0.13038860261440277,0.17917431890964508,0.18540136516094208,0.11763226985931396,0.1939294934272766,0.29826468229293823,0.07219520211219788,0.007839103229343891,0.09085255861282349,-0.6378272771835327,-0.0014062386471778154,0.05661538243293762,-0.25349459052085876,-0.34571555256843567,-0.1210612803697586,-0.14363285899162292,0.28850457072257996,0.133583202958107,-0.05075107142329216,-0.16994765400886536,0.08053330332040787,-0.13241565227508545,-0.061435919255018234,-0.2823866307735443,0.010939749889075756,0.010017244145274162,0.19410087168216705,-0.09566069394350052,-0.12334170192480087,-0.039499104022979736,-0.09476905316114426,0.026998678222298622,0.010974940843880177,0.128925159573555,-0.227309450507164,0.1148013025522232,-0.39188724756240845,-0.06582578271627426,-0.2512331008911133,-0.11711259186267853,0.22720913589000702,-0.28444358706474304,-0.08946333825588226,0.12703534960746765,-0.0709230899810791,-0.27835988998413086,-0.1324978768825531,-0.1180863305926323,-0.42631056904792786,0.1998414695262909,0.46569395065307617,-0.049981195479631424,-0.008506560698151588,-0.06982476264238358,0.03729529306292534,-0.056111808866262436,0.03764672204852104,0.09688857197761536,-0.1943807601928711,0.016512401401996613,-0.5784607529640198,0.14780913293361664,0.0070690675638616085,0.0562593936920166,0.14281165599822998,0.07347026467323303,-0.3248257040977478,0.08032222092151642,0.0720590278506279,0.3678794205188751,0.7838535904884338,-0.3734613358974457,0.20062847435474396,-0.03156719356775284,-0.0012240905780345201,0.07337234169244766,-0.043367184698581696,0.1224667951464653,-0.3914277255535126,-0.07547689974308014,0.24505604803562164,0.36443546414375305,0.06327979266643524,0.09355766326189041,0.20946933329105377,-0.24976736307144165,-0.09087467938661575,0.3459106981754303,0.034965503960847855,0.17282722890377045,-0.7243242859840393,0.3745936155319214,0.06061263382434845,-0.31232988834381104,-0.040335752069950104,0.12750661373138428,0.11690948158502579,0.02805052325129509,-0.12689554691314697,-0.0484650619328022,-0.17391453683376312,-0.020687511190772057,-0.06925757974386215,-0.2435903400182724,0.21952447295188904,0.2772650122642517,0.41166919469833374,-0.0874883383512497,0.12810184061527252,-0.23696008324623108,-0.044321220368146896,0.01077920850366354,-0.035681482404470444,0.24893437325954437,0.26091477274894714,-0.005250806920230389,0.2143591344356537,-0.22761762142181396,0.29135003685951233,0.24816453456878662,0.43937528133392334,-0.0327177457511425,-0.12588487565517426,0.0021885938476771116,0.6568946838378906,0.46143242716789246,-0.12206647545099258,-0.08246821165084839,0.052096039056777954,-0.027051789686083794,-0.15367533266544342,-0.33406880497932434,0.09257110953330994,0.055487047880887985,0.14941799640655518,0.22479119896888733,-0.11568466573953629,0.417146772146225],[-0.05440357327461243,0.3918154239654541,0.312881737947464,0.3125981092453003,-0.29170167446136475,-0.04276685416698456,-0.0033332910388708115,-0.3492673933506012,0.11466765403747559,-0.04694193974137306,0.11163835227489471,0.07875452935695648,-0.18192385137081146,-0.057844001799821854,0.1712661236524582,0.2987762987613678,-0.16648991405963898,-0.45472219586372375,0.10033329576253891,-0.04371938481926918,0.16032439470291138,-0.2200235277414322,0.40583133697509766,0.015419882722198963,-0.17450718581676483,-0.24302026629447937,-0.23550628125667572,0.3821772336959839,0.3261905610561371,-0.09794525057077408,-0.2472667694091797,-0.2527576684951782,-0.17166180908679962,0.26415786147117615,-0.0652570053935051,-0.03754429146647453,0.13740460574626923,0.059198375791311264,0.08186603337526321,-0.22055305540561676,-0.4468599855899811,0.16085077822208405,-0.07865837961435318,-0.24158500134944916,0.30984288454055786,-0.1421191692352295,-0.19989420473575592,0.28211915493011475,-0.14595985412597656,-0.029589500278234482,0.01018668431788683,-0.38310760259628296,0.12773509323596954,0.08334752172231674,-0.1433510035276413,0.013620265759527683,-0.30649831891059875,-0.03735964372754097,0.05837923288345337,0.33456218242645264,-0.049288779497146606,0.24052754044532776,0.03751019015908241,0.14341995120048523,0.4030737280845642,0.18146194517612457,-0.18051137030124664,-0.12737905979156494,0.20415206253528595,0.6989772915840149,-0.10261815786361694,-0.021261848509311676,-0.13694408535957336,0.31728696823120117,-0.04733147472143173,-0.03391047567129135,0.2828198969364166,-0.11605998873710632,0.024807075038552284,0.005075886845588684,-0.24731485545635223,0.19244559109210968,0.006642085034400225,0.442737877368927,0.13729113340377808,0.1259680688381195,-0.11821034550666809,0.3467760682106018,-0.03589249774813652,0.2571209967136383,0.12296563386917114,0.22013014554977417,0.20700018107891083,0.12103818356990814,-0.44291725754737854,-0.06857740879058838,-0.0037428108043968678,0.4421185851097107,0.1693393886089325,-0.11012957990169525,-0.08547286689281464,0.04615200310945511,0.0880345031619072,0.13482652604579926,0.30993521213531494,0.1958688348531723,0.49113401770591736,0.23107239603996277,0.05442347750067711,0.018790559843182564,-0.16904261708259583,0.07588601857423782,-0.48245030641555786,-0.30036213994026184,0.06268297135829926,-0.36360031366348267,0.01988382078707218,0.11469696462154388,-0.27783530950546265,0.2734200358390808,0.001828736742027104,-0.009386503137648106,-0.07384008914232254,0.15206418931484222,-0.15569567680358887,0.16966144740581512,-0.1686173677444458,0.11288855224847794,0.1718362271785736,0.07953985035419464,0.41302230954170227,0.10297680646181107,-0.15592816472053528,-0.010226589627563953,-0.08812426030635834,-0.2713526487350464,0.005626675207167864,-0.21238024532794952,0.0962207093834877,-0.07220828533172607,-0.06569430977106094,0.0577617846429348,-0.008241919800639153,0.09368789941072464,0.09750553965568542,-0.08690245449542999,0.3120381832122803,0.1493348777294159,-0.11455570161342621,-0.12585444748401642,0.10452325642108917,0.2894645035266876,-0.4787788987159729,0.01487492024898529,-0.47655418515205383,-0.09323913604021072,-0.016623128205537796,-0.04912947490811348,0.388002872467041,0.17376011610031128,-0.06923644244670868,0.4110366106033325,-0.10633355379104614,-0.1940847486257553,-0.5686101317405701,-0.02920321747660637,-0.6600309014320374,0.007406977005302906,0.026350397616624832,-0.005589268635958433,-0.14839844405651093,0.056451812386512756,0.09348912537097931,-0.1287170797586441,0.028909407556056976,-0.11440766602754593,0.21515898406505585,-0.4180312752723694,0.21296484768390656,-0.05044237896800041,0.3800664246082306,-0.1196608692407608,-0.1708720624446869,-0.4773610532283783,0.1504715383052826,0.15107861161231995,-0.03144426271319389,-0.0019385673804208636,-0.20597043633460999,-0.13145944476127625,-0.2235575020313263,-0.10077903419733047,0.1484803557395935,0.02394440397620201,-0.2995584011077881,0.22015108168125153,0.04871249943971634,-0.3895625174045563,0.001800256548449397,-0.17401592433452606,-0.28336259722709656,-0.27025729417800903,-0.29005855321884155,0.1734115034341812,-0.05478470027446747,0.11854279786348343,0.5146661996841431,0.20702287554740906,-0.27467525005340576,0.19182956218719482,-0.16892540454864502,0.36312180757522583,0.09615999460220337,0.03884989023208618,-0.15702833235263824,-0.07978615164756775,-0.16081061959266663,-0.1464013010263443,-0.29543831944465637,0.15081652998924255,0.010280892252922058,-0.06189998239278793,0.346099317073822,0.3690527081489563,0.10354243218898773,-0.16078408062458038,0.18157698214054108,-0.13549281656742096,-0.2539668679237366,-0.02780233696103096,-0.019116519019007683,-0.19565773010253906,0.04257877543568611,-0.16729970276355743,-0.25156399607658386,0.03850649669766426,-0.3666905462741852,0.24676533043384552,0.257106751203537,-0.3764151334762573,-0.21550944447517395,-0.12184370309114456,-0.09708105027675629,0.11205719411373138,0.13635726273059845,-0.014333007857203484,-0.0314582958817482,0.29230719804763794,0.22237582504749298,-0.5897123217582703,-0.1423642784357071,-0.05563243478536606,-0.06299086660146713,-0.0587763749063015,-0.08667662739753723,-0.77791827917099],[0.5902451276779175,0.01993783749639988,0.2830374538898468,-0.12626463174819946,-0.151882141828537,0.32355979084968567,0.18743735551834106,-0.20677949488162994,0.27742013335227966,-0.18442712724208832,0.37103739380836487,0.11875677853822708,0.12031765282154083,-0.19270388782024384,0.3657386600971222,-0.36046621203422546,0.3569398522377014,-0.2756819725036621,-0.08571822941303253,0.07838385552167892,0.30089643597602844,0.33841484785079956,0.0229781623929739,0.2605370879173279,0.09925824403762817,0.01682363823056221,0.13018923997879028,-0.030087502673268318,0.03559811785817146,0.4273020029067993,-0.17402318120002747,-0.31121155619621277,-0.35966819524765015,0.3342265486717224,-0.2053779661655426,-0.002567646326497197,0.18095266819000244,0.15342165529727936,-0.20770063996315002,-0.1662217378616333,-0.26480892300605774,0.49683550000190735,-0.5072933435440063,0.7989698648452759,0.14603058993816376,0.11252856999635696,-0.26174646615982056,-0.030424872413277626,-0.2985904812812805,0.1957215666770935,-0.03728656843304634,0.16228502988815308,0.11849777400493622,-0.15237820148468018,0.1157485768198967,-0.020661087706685066,0.33838075399398804,0.1286633461713791,0.1774798035621643,0.1797064244747162,-0.02730977162718773,0.14535363018512726,0.24085697531700134,0.23334842920303345,-0.02294315956532955,0.07293500006198883,0.18655695021152496,0.2842932343482971,-0.10716497153043747,-0.5708431601524353,0.4676828682422638,-0.14981390535831451,-0.07055603712797165,-0.21071583032608032,-0.08511778712272644,-0.2182713747024536,0.020621944218873978,0.17724862694740295,0.04942872002720833,-0.4815574586391449,-0.010465501807630062,-0.21026667952537537,-0.25056785345077515,-0.5524080395698547,-0.3096245229244232,0.030310427770018578,-0.14445053040981293,0.018669696524739265,0.5121688842773438,-0.022429756820201874,0.4252506196498871,0.10330655425786972,-0.16210198402404785,0.09565181285142899,0.027722636237740517,-0.1278609037399292,0.17103399336338043,0.0026953842025250196,-0.007912779226899147,0.22604408860206604,0.16088257730007172,0.3120484948158264,0.009557983838021755,0.1669325977563858,0.16534920036792755,-0.05421297252178192,0.15431365370750427,-0.1264909952878952,0.5614633560180664,0.4039183557033539,0.27973976731300354,-0.29066213965415955,0.12233457714319229,-0.1932642161846161,-0.330752432346344,0.25150179862976074,-0.6075234413146973,-0.25769445300102234,0.012439345009624958,-0.2660578489303589,-0.22669754922389984,-0.2516579329967499,-0.2259203940629959,0.08372525870800018,0.04026717692613602,0.4627408981323242,0.14053356647491455,0.3464276194572449,-0.016897281631827354,-0.2393302470445633,0.512712836265564,0.6003984808921814,-0.4684162139892578,0.3049207329750061,0.19089382886886597,0.1860186606645584,-0.13765110075473785,0.1724015325307846,0.2574083209037781,-0.2519042193889618,-0.11782876402139664,0.020800545811653137,0.0344301201403141,0.5413008332252502,0.0567912794649601,0.17822754383087158,0.2576809227466583,0.07955534011125565,-0.3968026638031006,0.019026294350624084,-0.023727191612124443,-0.17060606181621552,-0.5017038583755493,-0.02898385375738144,-0.14862900972366333,0.41367554664611816,-0.14800028502941132,-0.13973765075206757,0.1617654412984848,0.3659621775150299,0.03920615464448929,-0.378771036863327,-0.06527267396450043,-0.010668326169252396,0.01438924204558134,0.2677764296531677,-0.08448710292577744,0.0867086797952652,0.09785857796669006,-0.16887103021144867,0.1569017767906189,-0.3241356611251831,0.07399680465459824,-0.0011491094483062625,-0.19766207039356232,0.3907985985279083,0.032747600227594376,0.2732566297054291,0.010197460651397705,0.020371336489915848,0.23386693000793457,0.3565095067024231,-0.2570585012435913,0.2129039317369461,0.23874248564243317,-0.202577605843544,-0.007175006903707981,0.22228385508060455,-0.45457252860069275,-0.22085519134998322,0.1804969310760498,-0.027349155396223068,-0.046851713210344315,0.022548481822013855,-0.04279443621635437,0.09565449506044388,-0.2886880040168762,0.18435457348823547,-0.27784353494644165,0.026967080309987068,-0.18568404018878937,-0.02566777728497982,0.002937143901363015,0.24381105601787567,0.10845606029033661,0.0029832697473466396,0.43229004740715027,-0.325092613697052,0.39328038692474365,-0.2524968385696411,-0.2531079053878784,0.35943594574928284,0.2460603415966034,-0.1337682008743286,-0.2240428924560547,-0.18083608150482178,-0.08395850658416748,-0.2798977196216583,0.044283416122198105,-0.38655897974967957,-0.29596030712127686,0.23550520837306976,0.06790057569742203,-0.3883119523525238,0.2025398164987564,0.2866468131542206,-0.02050176076591015,0.08669985830783844,-0.4848679006099701,-0.21582631766796112,-0.24200038611888885,-0.12241727113723755,0.500901460647583,0.03572555631399155,-0.03506406024098396,-0.06876730173826218,0.3315863311290741,0.27454185485839844,0.05645660683512688,-0.09883100539445877,-0.22851437330245972,-0.150131955742836,-0.5854068398475647,-0.27310711145401,-0.14358915388584137,0.3009406626224518,0.07804513722658157,-0.535918653011322,0.12352516502141953,0.30840274691581726,-0.15543340146541595,0.3800064027309418,0.0798410177230835,0.08421485871076584,0.09175349026918411,0.10479997098445892],[0.4480642080307007,-0.4491669237613678,0.00918402150273323,0.1802372932434082,-0.051882170140743256,-0.38161933422088623,-0.012130414135754108,0.08894087374210358,-0.007048008963465691,0.4176303744316101,-0.2583593428134918,0.19282308220863342,0.3937477171421051,0.012247291393578053,-0.29034754633903503,0.0631466656923294,-0.09052784740924835,0.07004327327013016,-0.06589183211326599,0.07051185518503189,-0.13652457296848297,-0.15977925062179565,0.049905065447092056,0.4197918772697449,0.27462852001190186,0.12121373414993286,0.04090707004070282,0.34489601850509644,-0.16852693259716034,0.09748336672782898,0.1088833138346672,-0.03510646894574165,-0.039801012724637985,0.06204649806022644,-0.1301969587802887,0.27582961320877075,-0.1316894292831421,0.05720260739326477,0.6929341554641724,0.3442820906639099,-0.09911453723907471,-0.08460608124732971,0.16559703648090363,-0.20270328223705292,-0.11431585997343063,-0.26289424300193787,0.5557952523231506,0.05264771729707718,-0.10859128832817078,-0.2023673951625824,0.1204470694065094,0.18259240686893463,-0.010271069593727589,0.08727960288524628,0.16210268437862396,-0.2148125320672989,0.2370767593383789,0.23471827805042267,-0.26797252893447876,-0.4800691604614258,0.09284117817878723,0.22646446526050568,0.18038779497146606,-0.05360746383666992,-0.09629586338996887,-0.17755325138568878,0.25645431876182556,-0.048709090799093246,-0.21086658537387848,-0.023481028154492378,-0.13788342475891113,0.0455826073884964,-0.01611291989684105,0.1503324806690216,-0.48207277059555054,0.1433023065328598,-0.24918141961097717,0.13969677686691284,0.2053842842578888,0.3175303339958191,0.07250329852104187,-0.0184006430208683,-0.025148924440145493,0.10905195772647858,0.11070495843887329,-0.29845482110977173,0.3466780483722687,-0.24269597232341766,0.09734243899583817,-0.2224058210849762,-0.1076204776763916,-0.1551951915025711,0.30370646715164185,-0.2777932286262512,-0.17401978373527527,0.10952813178300858,-0.12458768486976624,-0.07779892534017563,-0.26195648312568665,0.04648487642407417,0.14105115830898285,0.028122536838054657,0.08231636881828308,0.13116119801998138,0.08690638840198517,-0.5212420225143433,0.42183905839920044,-0.19693627953529358,-0.7125813961029053,0.20572954416275024,-0.0943959429860115,0.16153135895729065,0.17166711390018463,-0.07729287445545197,-0.017049795016646385,-0.06367064267396927,-0.014169358648359776,-0.27762141823768616,0.4149285852909088,0.08866432309150696,0.34169280529022217,0.1842496693134308,-0.1598075032234192,0.11542920768260956,0.15004028379917145,0.18263648450374603,-0.09847480803728104,0.39988696575164795,0.08820410072803497,0.07529308646917343,-0.31224891543388367,-0.006687398999929428,0.1293153315782547,-0.26799365878105164,-0.13782957196235657,0.08226899057626724,-0.05307180434465408,0.1721452921628952,0.10731670260429382,-0.05489075556397438,0.0305057093501091,0.20573607087135315,-0.10860889405012131,0.2833201587200165,-0.14983268082141876,-0.025624195113778114,-0.22291570901870728,0.24029776453971863,0.0018874213565140963,0.21797464787960052,-0.2066604197025299,-0.07140723615884781,0.3136676847934723,-0.1625087708234787,0.5168381333351135,-0.08473031222820282,-0.05953459069132805,-0.11694440245628357,-0.1576152741909027,-0.17746542394161224,0.014171004295349121,0.3236753046512604,0.12352815270423889,0.013290271162986755,0.5179999470710754,0.019970156252384186,-0.3903481364250183,0.30465155839920044,0.010091100819408894,-0.4982994496822357,-0.11717142164707184,-0.323880672454834,0.27355509996414185,-0.04537580907344818,0.11159449070692062,-0.05629470571875572,-0.0006301506073214114,-0.30588048696517944,-0.10887112468481064,0.06862453371286392,-0.005830857902765274,0.18598690629005432,0.1205381527543068,0.08149176836013794,0.1905907392501831,-0.3448294699192047,0.02858554944396019,0.38255172967910767,-0.11535319685935974,-0.14016605913639069,-0.009466901421546936,-0.036601562052965164,-0.18382690846920013,-0.17262038588523865,-0.04943499714136124,0.0035820002667605877,-0.36513403058052063,0.08049049973487854,0.43761464953422546,0.33998316526412964,-0.03192385658621788,0.03092190809547901,0.17945101857185364,0.3992798328399658,-0.012052545323967934,0.07784436643123627,0.061961580067873,0.2597846984863281,0.6542361974716187,0.349812388420105,0.30012819170951843,-0.4395122826099396,0.03404851257801056,-0.2724255621433258,0.050169333815574646,-0.17141951620578766,0.10960521548986435,-0.17877019941806793,0.11103257536888123,0.05699373781681061,0.32282590866088867,-0.2908973693847656,-0.039705365896224976,-0.022931698709726334,-0.10920172184705734,0.1151650920510292,-0.08835573494434357,-0.001141991000622511,-0.14578042924404144,0.014106015674769878,-0.2994650602340698,0.2455991804599762,0.05942445993423462,-0.02057577297091484,0.06800965219736099,0.24268735945224762,-0.15143992006778717,0.2003094106912613,-0.08170939981937408,0.012397179380059242,0.3553229570388794,0.19551575183868408,-0.4381091594696045,-0.021667584776878357,0.26118698716163635,0.2543494403362274,0.21362759172916412,-0.2072458118200302,0.17308680713176727,0.0957556664943695,0.01686888188123703,0.2537824511528015,-0.2741530239582062,0.04600612819194794,0.04635965824127197,-0.12090954929590225],[0.5231007933616638,-0.12357933819293976,-0.030167022719979286,-0.054311852902173996,-0.05191297456622124,0.0012720273807644844,0.3417137861251831,-0.5149799585342407,-0.0669846460223198,0.07173026353120804,-0.008116831071674824,-0.30687642097473145,-0.05420367792248726,-0.1926092505455017,0.06494869291782379,0.0036291980650275946,0.1964942067861557,-0.10011667758226395,0.31268441677093506,-0.14585237205028534,-0.05180394649505615,-0.12640567123889923,0.17650356888771057,-0.271074116230011,-0.16433799266815186,-0.5383697152137756,-0.24112924933433533,-0.05839814245700836,-0.12317925691604614,-0.5714383721351624,-0.6746790409088135,0.19538450241088867,-0.24094341695308685,0.0069920071400702,-0.09972331672906876,-0.2398672252893448,-0.12935709953308105,0.013741566799581051,0.28177404403686523,0.137347012758255,0.6829148530960083,-0.003941038157790899,0.43682312965393066,-0.024157794192433357,0.3307543992996216,-0.25925394892692566,0.015126533806324005,0.07161658257246017,-0.4935632646083832,0.1598774492740631,-0.3277008533477783,0.34436580538749695,-0.21408770978450775,-0.2040259689092636,-0.13625028729438782,-0.10911621153354645,0.10802119225263596,0.07268118113279343,-0.05100575089454651,0.39426684379577637,0.11609657853841782,-0.017094159498810768,-0.36318129301071167,0.05967755988240242,-0.09946253895759583,0.12085317075252533,-0.2679389417171478,-0.1442054957151413,0.1939908117055893,0.1904255598783493,-0.10016216337680817,-0.04962318763136864,-0.15729263424873352,0.08542003482580185,-0.5880381464958191,0.0014483086997643113,0.23271384835243225,0.15012259781360626,-0.10881374776363373,-0.15370962023735046,0.4257192015647888,-0.10816860944032669,0.16058427095413208,0.7869465351104736,0.03348899260163307,-0.08676593750715256,0.10148060321807861,0.1534586250782013,-0.41438186168670654,-0.31627970933914185,0.023517444729804993,-0.029164111241698265,0.16443878412246704,-0.23992407321929932,0.061551496386528015,0.11003053933382034,0.2896687388420105,0.07314947247505188,0.15188883244991302,0.0858764499425888,0.31652724742889404,0.13298548758029938,-0.07829038798809052,-0.04811520874500275,0.26290595531463623,-0.02576977014541626,-0.10549627244472504,0.40924906730651855,0.3807646334171295,0.012586547993123531,-0.26133647561073303,0.007053910754621029,-0.04389970377087593,-0.4108685553073883,-0.05871171876788139,-0.10612058639526367,-0.20077678561210632,-0.2103816419839859,-0.16523781418800354,-0.18178603053092957,-0.058809664100408554,-0.10058912634849548,0.13638058304786682,0.0982399731874466,-0.006413356866687536,-0.25215256214141846,-0.21842637658119202,-0.29076215624809265,0.03364885598421097,0.09921647608280182,-0.3662447929382324,-0.02946123108267784,0.5560580492019653,0.2680497169494629,-0.34810641407966614,-0.05562422052025795,0.08718150854110718,-0.22798879444599152,-0.1291658878326416,0.1728382259607315,0.07719984650611877,-0.009068746119737625,0.006354305427521467,-0.040012624114751816,-0.04169579967856407,0.27675285935401917,-0.09908457100391388,-0.3454473316669464,-0.031984634697437286,-0.030351219698786736,0.27820712327957153,0.06705693155527115,0.43349766731262207,0.2608035206794739,0.13562192022800446,-0.040241628885269165,0.30403053760528564,0.2657252550125122,-0.44300931692123413,-0.5037233233451843,0.047578662633895874,0.1154777929186821,0.1898127943277359,-0.012951239012181759,0.062222883105278015,0.06721775978803635,0.07371186465024948,-0.07673180848360062,0.0504089780151844,0.07048871368169785,0.26504650712013245,-0.06698720157146454,-0.406071275472641,-0.10964680463075638,-0.02690035104751587,0.11001046746969223,-0.022785460576415062,-0.20754435658454895,0.045159436762332916,0.03388473764061928,-0.24608737230300903,0.04588008299469948,0.12488051503896713,0.31254544854164124,0.2884703576564789,-0.03858159855008125,0.25362128019332886,0.014150621369481087,0.4738743007183075,0.2239542007446289,0.454726904630661,0.19610707461833954,0.09703826159238815,0.03947114944458008,0.02635294757783413,0.0844341591000557,0.032825734466314316,-0.0794910416007042,0.5018640160560608,-0.04171953722834587,-0.08022841811180115,0.09593501687049866,-0.17910276353359222,0.2796759307384491,-0.009147677570581436,-0.03895874693989754,0.14815007150173187,-0.13709650933742523,-0.24214082956314087,-0.10675900429487228,-0.4223558008670807,0.19830581545829773,0.23278595507144928,-0.0032988586463034153,0.29839614033699036,0.015337641350924969,0.17311576008796692,-0.041846733540296555,0.1331167221069336,0.3463709056377411,0.7544872760772705,-0.08839650452136993,-0.015486081130802631,-0.32357311248779297,-0.14900875091552734,0.17864006757736206,-0.26549646258354187,0.09931248426437378,0.17338281869888306,-0.07072845101356506,0.05701320245862007,-0.026453042402863503,0.2678931653499603,0.0135849853977561,-0.045128095895051956,0.11585930734872818,-0.1536969691514969,0.24090984463691711,0.11195284128189087,0.17850224673748016,-0.10053890198469162,-0.12819784879684448,0.644999086856842,0.17600254714488983,-0.09564009308815002,0.12885171175003052,0.10809164494276047,0.06185908988118172,-0.08594756573438644,0.22836443781852722,-0.04414111003279686,0.21994729340076447,-0.1147177591919899,-0.1887553185224533,-0.1215221956372261,-0.15643195807933807],[0.4884043037891388,0.09958794713020325,0.1915484368801117,0.10300838947296143,0.3151191473007202,-0.2843535244464874,-0.08069166541099548,-0.6713190078735352,-0.13222654163837433,0.44459378719329834,0.12323165684938431,0.06970735639333725,0.14887216687202454,0.07795505225658417,0.08405079692602158,0.12483729422092438,0.10052645206451416,0.21515776216983795,0.2428397834300995,-0.20811206102371216,0.014126022346317768,-0.05116744711995125,0.06579139083623886,-0.5124217867851257,-0.06095944344997406,-0.4101565480232239,-0.17910659313201904,-0.1057853028178215,0.3165302276611328,0.06824950873851776,0.1468883603811264,0.05276748538017273,0.15825578570365906,0.027439968660473824,0.5246078372001648,0.20645375549793243,-0.15504707396030426,0.17100495100021362,0.3005974292755127,0.15818633139133453,0.47683995962142944,-0.4638892710208893,0.04905874654650688,0.06278743594884872,0.2848115563392639,-0.045831628143787384,-0.23251137137413025,0.1976708173751831,-0.012556524947285652,-0.08008243888616562,-0.3651597201824188,0.1996941864490509,-0.24382135272026062,0.28235530853271484,0.014626184478402138,-0.348492830991745,0.11609896272420883,0.29873815178871155,-0.20972678065299988,0.333080530166626,-0.10050759464502335,-0.037585776299238205,-0.42928752303123474,-0.25016647577285767,0.16659170389175415,0.6089159250259399,-0.045322127640247345,-0.40662312507629395,-0.03987962752580643,-0.23495212197303772,-0.02552652172744274,0.0631122812628746,-0.13584613800048828,-0.22731895744800568,0.2817932963371277,-0.006519623566418886,-0.11550520360469818,0.020560603588819504,0.033937353640794754,-0.04425916448235512,0.1334918588399887,-0.008451963774859905,0.2148231565952301,0.054674454033374786,0.17103905975818634,-0.01755255088210106,0.17270106077194214,-0.24953800439834595,-0.2646493911743164,0.21350881457328796,0.4529598355293274,0.18871858716011047,0.07830945402383804,-0.2670874297618866,0.11015990376472473,0.2549467086791992,0.09863946586847305,-0.17027129232883453,-0.04768943414092064,-0.08091975003480911,0.27009880542755127,0.040235862135887146,-0.20914915204048157,0.09439165890216827,0.2193932980298996,-0.18505792319774628,-0.1366085261106491,-0.018516475334763527,-0.20120273530483246,-0.16121436655521393,-0.2474122941493988,0.05947531759738922,-0.07737434655427933,-0.23042212426662445,-0.0851445123553276,-0.2677486538887024,-0.030530979856848717,-0.015469401143491268,-0.017024366185069084,-0.032141752541065216,0.0791838988661766,0.19164824485778809,0.021671714261174202,-0.0016906142700463533,-0.10552918165922165,0.6200690269470215,-0.03229613974690437,0.10728994756937027,-0.45796024799346924,-0.04600386694073677,0.2953006625175476,-0.19103088974952698,-0.4535924196243286,-0.027294889092445374,0.1664564162492752,-0.0702408105134964,0.003685553325340152,0.18036088347434998,-0.1885426789522171,0.21331560611724854,0.09030292928218842,0.3229174017906189,-0.20906434953212738,0.2360721379518509,-0.23006801307201385,-0.0840868279337883,-0.23972782492637634,0.11375433951616287,-0.0898950845003128,0.11109205335378647,0.06537239998579025,0.07195175439119339,0.13353686034679413,0.004810031969100237,-0.34398090839385986,-0.021496877074241638,-0.01891252025961876,-0.3405236303806305,-0.5559412837028503,0.062176164239645004,0.016142532229423523,-0.0338880829513073,0.266696572303772,-0.07775826007127762,-0.1648387461900711,-0.03307485207915306,0.372270405292511,0.1328580230474472,0.08555122464895248,0.19481097161769867,0.09016499668359756,-0.10788120329380035,0.04782703146338463,0.03763201832771301,-0.12094336003065109,0.6167905330657959,-0.16889746487140656,-0.023223312571644783,0.003813384100794792,-0.00827224925160408,0.2601030468940735,-0.5082923769950867,0.7041810750961304,0.20502690970897675,-0.14426380395889282,0.022797945886850357,0.10348153114318848,-0.010566283948719501,-0.4965123236179352,0.024391938000917435,-0.04449101909995079,-0.018736617639660835,0.13927607238292694,0.253219872713089,-0.014213225804269314,0.2528976798057556,0.032169751822948456,-0.0786469355225563,-0.38728928565979004,-0.2755700945854187,0.35032057762145996,0.20583544671535492,-0.2223685383796692,0.29663798213005066,0.21160423755645752,-0.08911086618900299,0.02840813808143139,0.018793031573295593,0.2866189181804657,-0.005691988859325647,0.23738186061382294,0.20611169934272766,-0.1079234853386879,-0.1303095668554306,0.3698641359806061,-0.00900842435657978,-0.047509606927633286,-0.38800185918807983,-0.12338413298130035,0.24498175084590912,0.24217620491981506,-0.2873830497264862,-0.10319963842630386,-0.26736316084861755,0.07308629900217056,0.055283281952142715,0.1797003149986267,-0.21871788799762726,-0.02817847952246666,-0.013237148523330688,-0.03429163619875908,-0.009812128730118275,0.0381108894944191,0.1291685253381729,0.21003064513206482,0.014461877755820751,-0.052773617208004,0.24523630738258362,0.15854987502098083,0.053275249898433685,-0.05208044871687889,-0.39683735370635986,0.29339665174484253,0.04851866886019707,0.22047261893749237,-0.21336093544960022,-0.30599936842918396,-0.09049572795629501,0.03907110169529915,0.2799273431301117,-0.034758128225803375,0.12260161340236664,0.39540013670921326,0.30961886048316956,0.10408885031938553,-0.20299218595027924],[-0.3461231589317322,-0.09439076483249664,-0.1067369133234024,0.14465585350990295,0.09005071967840195,-0.46189701557159424,-0.25739285349845886,-0.051362380385398865,-0.1672796756029129,-0.37389039993286133,0.09953838586807251,0.2506893277168274,0.0221108291298151,-0.2560843825340271,0.11030466854572296,-0.27263012528419495,-0.07706189900636673,-0.01371096633374691,-0.6054124236106873,0.13074864447116852,-0.08066648989915848,-0.023694494739174843,0.11056852340698242,0.4442070424556732,0.25843754410743713,0.26122599840164185,0.03331076726317406,-0.0507790669798851,0.255267858505249,0.46354007720947266,-0.025344161316752434,0.2971545457839966,-0.05859917774796486,-0.3565451204776764,0.13377682864665985,-0.17517946660518646,0.26507216691970825,-0.3549187481403351,0.20547275245189667,0.008875858969986439,-0.47011467814445496,0.1029505580663681,-0.2846739590167999,-0.24112795293331146,-0.020343834534287453,-0.13578487932682037,0.3091534674167633,-0.1390780657529831,0.018322642892599106,0.05113331228494644,-0.02341197431087494,-0.17927609384059906,0.07401546090841293,0.49671441316604614,-0.040598541498184204,-0.17442184686660767,-0.07379096746444702,-0.0802546963095665,-0.3581928610801697,-0.23085011541843414,0.015181981027126312,0.23262149095535278,0.37940913438796997,0.1739850491285324,0.13151809573173523,-0.391651451587677,0.3595826029777527,0.19422118365764618,-0.13294316828250885,-0.2130032479763031,0.2133735865354538,0.1544695645570755,0.05901464447379112,0.17764721810817719,0.3512589633464813,0.20611366629600525,-0.09616819769144058,0.12248219549655914,0.13491486012935638,-0.1422617882490158,-0.1429639756679535,-0.14535151422023773,-0.03566597029566765,-0.24830317497253418,0.5483373999595642,-0.08513016998767853,0.22551396489143372,-0.2771836221218109,0.5319023728370667,0.1264396756887436,-0.07102549076080322,-0.025866487994790077,-0.22257480025291443,-0.23813751339912415,-0.05537501350045204,0.0325872004032135,0.29832473397254944,-0.1974487453699112,-0.05692453309893608,-0.0829491913318634,-0.02484079636633396,-0.17962686717510223,-0.04349793866276741,-0.19262784719467163,0.0458909273147583,0.008530936203897,-0.18418899178504944,0.220899298787117,-0.14096593856811523,-0.23894356191158295,-0.2163490355014801,0.20136509835720062,0.09832960367202759,0.14229439198970795,-0.23644699156284332,0.18670928478240967,0.30908000469207764,0.20348772406578064,0.25641095638275146,0.19634558260440826,0.007596278563141823,0.2721213400363922,-0.03559519723057747,-0.3283228874206543,0.11853417009115219,0.3880152106285095,0.09453991055488586,0.24556714296340942,0.15535230934619904,-0.041614189743995667,0.5407160520553589,0.013458752073347569,-0.48858189582824707,-0.005083973985165358,-0.21589314937591553,0.043893199414014816,-0.23737041652202606,0.3329532742500305,-0.27984899282455444,-0.006478216033428907,0.12665939331054688,-0.025744808837771416,-0.3203860819339752,-0.04389862343668938,0.17447543144226074,0.6072487831115723,0.022893432527780533,-0.26387250423431396,0.2778026759624481,0.18199355900287628,0.2100345939397812,0.11033448576927185,-0.2951549291610718,0.22516101598739624,0.020452652126550674,0.029507357627153397,-0.36045804619789124,-0.11851182579994202,0.17383477091789246,-0.08751033246517181,-0.28572994470596313,0.1278209537267685,-0.08008167892694473,0.07836882025003433,0.3968861401081085,-0.0944591537117958,0.04019604250788689,0.014456360600888729,-0.1304776817560196,0.03503042832016945,0.018949365243315697,0.05629318952560425,0.14045603573322296,0.0026410259306430817,0.02441752701997757,0.11569324135780334,-0.1306615024805069,0.12932534515857697,0.19079473614692688,0.13451668620109558,0.0328872948884964,0.2158905267715454,0.2662411332130432,0.04856044054031372,-0.1961621344089508,0.17326773703098297,-0.2548326551914215,0.05402405560016632,-0.04995597526431084,-0.1674434095621109,-0.04757995158433914,0.13133154809474945,-0.050481636077165604,-0.41051262617111206,-0.3171248137950897,0.027929771691560745,-0.1936311423778534,0.06577093154191971,0.042538970708847046,-0.22951753437519073,-0.29632890224456787,-0.16786015033721924,0.18009674549102783,0.3129481077194214,-0.22313342988491058,0.007346395403146744,-0.14982198178768158,0.30343496799468994,0.2526557147502899,-0.06247051805257797,0.3137259781360626,0.10291966795921326,0.14750245213508606,-0.07489442080259323,-0.2836141586303711,-0.01784328557550907,-0.08341704308986664,0.12906718254089355,-0.04486700892448425,0.10635332763195038,-0.08844346553087234,0.08250461518764496,0.034302644431591034,-0.21885628998279572,-0.0013992066960781813,-0.1482829600572586,-0.08354147523641586,0.3747018575668335,0.37840214371681213,-0.15045270323753357,0.19783593714237213,-0.09899814426898956,-0.24928018450737,0.07754318416118622,-0.017901413142681122,-0.20463867485523224,-0.04565465450286865,-0.2378658652305603,-0.23270314931869507,0.03895413875579834,0.1003604382276535,-0.06802723556756973,-0.3020928204059601,0.0005134603125043213,0.06552957743406296,0.19876781105995178,-0.13455742597579956,-0.035086024552583694,-0.15431462228298187,0.6456551551818848,-0.39919018745422363,0.025411851704120636,0.25127846002578735,0.3318631947040558,0.04389416426420212,0.24689120054244995],[-0.08093439787626266,-0.367641806602478,-0.03168800100684166,-0.14650972187519073,-0.0560428723692894,0.24309709668159485,-0.036722782999277115,0.32002466917037964,0.08959422260522842,-0.5260644555091858,0.02448415383696556,-0.008775100111961365,-0.01453979592770338,0.17388010025024414,0.02274297922849655,0.07180676609277725,0.17231479287147522,-0.2837089002132416,0.32581430673599243,-0.2383875697851181,-0.3329084813594818,-0.0871274396777153,0.09996285289525986,-0.12506462633609772,-0.033424317836761475,0.296375572681427,0.16553032398223877,0.09925046563148499,-0.11774451285600662,-0.26664888858795166,0.012607386335730553,-0.17953824996948242,-0.08279435336589813,-0.2501560151576996,-0.02686915174126625,-0.13170801103115082,0.6419333219528198,-0.10664570331573486,0.4197201132774353,-0.06812883913516998,-0.40921247005462646,0.013448910787701607,-0.37998485565185547,0.35827359557151794,-0.07230858504772186,0.06504665315151215,-0.4727897047996521,0.13715854287147522,-0.07175391912460327,-0.14385996758937836,-0.16294793784618378,-0.26852431893348694,0.16796883940696716,-0.0006845465977676213,0.282257080078125,-0.10456252843141556,0.09645023196935654,-0.12688696384429932,-0.20990191400051117,0.08759851008653641,-0.063213050365448,0.19646970927715302,-0.10760290920734406,-0.23310232162475586,-0.08745434135198593,-0.33940473198890686,0.12913335859775543,0.029595809057354927,-0.1522551029920578,-0.038530025631189346,0.36478084325790405,-0.23069007694721222,-0.0073104011826217175,-0.15176984667778015,0.7051923274993896,-0.19122052192687988,0.29119277000427246,-0.22539997100830078,-0.08692243695259094,-0.3182782232761383,-0.17984223365783691,-0.11484376341104507,-0.0004094845789950341,-0.1279987245798111,-0.12170478701591492,-0.20580418407917023,-0.05992729961872101,0.06844094395637512,-0.7290095686912537,0.05824083089828491,0.30879080295562744,-0.18402309715747833,-0.032926809042692184,0.14148016273975372,0.3103185296058655,-0.2589270770549774,0.10737747699022293,0.11536849290132523,-0.019202683120965958,-0.04176173731684685,-0.07325579226016998,-0.28918832540512085,-0.344509482383728,0.4134761393070221,0.05254960060119629,-0.4008046090602875,-0.15722665190696716,-0.12271223962306976,0.34801506996154785,0.03494942560791969,0.23719801008701324,-0.23219306766986847,0.0709635466337204,0.11789433658123016,0.06821388006210327,-0.14002102613449097,-0.009177320636808872,0.028634214773774147,0.3137718141078949,0.04928712546825409,-0.023561984300613403,0.19076178967952728,0.10314701497554779,-0.05221370980143547,0.04407810419797897,-0.09386163204908371,0.2319316864013672,0.2195892632007599,-0.12975384294986725,-0.027429882436990738,-0.42754584550857544,-0.0046716551296412945,-0.44391337037086487,-0.2162761688232422,-0.34739428758621216,-0.08510797470808029,0.22242151200771332,0.00800541415810585,0.29908496141433716,-0.07151054590940475,-0.0972873792052269,-0.12783385813236237,-0.0775860920548439,-0.4897688627243042,-0.06557118892669678,-0.2184189110994339,0.03441961109638214,-0.042144980281591415,-0.2830621302127838,-0.23973311483860016,-0.3947207033634186,-0.24183861911296844,-0.2361554056406021,0.015545008704066277,0.07797188311815262,-0.06268361955881119,0.08838260173797607,0.059830717742443085,0.25141170620918274,0.1406569629907608,0.10902929306030273,0.0931360051035881,-0.30059704184532166,0.1673278659582138,0.42443621158599854,-0.08301546424627304,0.07673569768667221,-0.22400431334972382,0.2111646831035614,0.15176478028297424,-0.29562413692474365,0.003555383998900652,0.15987563133239746,-0.06806519627571106,-0.14391174912452698,-0.5663702487945557,-0.3196254372596741,-0.6051109433174133,-0.302554190158844,-0.2517006993293762,-0.020075064152479172,-0.05239558964967728,-0.4324895739555359,-0.2090500444173813,-0.2153560370206833,-0.13437624275684357,-0.5298073887825012,-0.09446682035923004,0.5277413129806519,-0.5473769903182983,-0.31784167885780334,0.026811139658093452,-0.08102896064519882,-0.0364808663725853,-0.2222747504711151,-0.08144860714673996,0.1357172280550003,0.18600480258464813,0.09940777719020844,0.014583241194486618,0.10369181632995605,0.39737728238105774,-0.0037295608781278133,-0.3399463891983032,-0.010570102371275425,-0.13000912964344025,-0.05546344071626663,-0.1768541932106018,-0.4354732036590576,-0.42124247550964355,0.09401551634073257,-0.1306493580341339,-0.09399079531431198,0.44853854179382324,-0.3774430751800537,-0.07810461521148682,-0.23159612715244293,-0.1948975771665573,-0.0017868069699034095,0.06848835200071335,-0.35228121280670166,0.11831922829151154,-0.08592390269041061,0.040098004043102264,-0.15136712789535522,-0.33804091811180115,-0.03740600869059563,-0.07749196887016296,0.1980157494544983,0.3307800590991974,-0.21839222311973572,0.20297527313232422,-0.20862486958503723,-0.16995711624622345,0.10269390046596527,-0.2675081789493561,-0.25973302125930786,-0.15467387437820435,-0.008297921158373356,0.10825793445110321,0.02541498839855194,0.20159313082695007,0.0018530064262449741,0.23193661868572235,-0.05509811267256737,-0.493338942527771,-0.09169335663318634,0.28766003251075745,0.1202181950211525,-0.3510412573814392,-0.1402886062860489,-0.04741779714822769,-0.06914610415697098,0.14883427321910858,-0.07418232411146164,0.11401420086622238],[-0.012736926786601543,-0.3982391357421875,-0.20281653106212616,-0.04029402136802673,0.4694199860095978,0.1270449459552765,0.18648728728294373,0.20177309215068817,-0.05362118408083916,0.4113920032978058,0.21463406085968018,-0.03428316488862038,0.06020110100507736,-0.03465709090232849,0.13567788898944855,0.1648455113172531,-0.2833475172519684,-0.19754211604595184,0.05476746708154678,-0.18760056793689728,0.02324293553829193,0.36109375953674316,0.1301698088645935,0.3310664892196655,0.0806116834282875,-0.06901464611291885,-0.08301220834255219,0.13229992985725403,0.36667847633361816,-0.26758116483688354,0.04289606958627701,-0.031140320003032684,-0.039620839059352875,0.047883227467536926,-0.05423910915851593,-0.015735479071736336,-0.6200070977210999,0.25547587871551514,0.1741621047258377,-0.20279042422771454,-0.18294572830200195,-0.2393956035375595,0.24705398082733154,0.1298893690109253,0.21879546344280243,-0.0723988488316536,-0.3250974714756012,0.1033378541469574,-0.05202489346265793,-0.008049236610531807,0.350273996591568,-0.0785682201385498,0.0970778688788414,-0.13077977299690247,-0.10442642122507095,-0.1468154639005661,0.055308423936367035,-0.18146926164627075,0.08268091827630997,-0.16080664098262787,-0.1143544390797615,0.004118400160223246,0.14576448500156403,-0.0059306626208126545,0.08171785622835159,-0.12065856158733368,0.4786624610424042,-0.04228747636079788,0.18771222233772278,0.04759925603866577,0.13020142912864685,-0.12034885585308075,-0.19358117878437042,-0.06208481639623642,0.08838478475809097,-0.1416279375553131,0.4609224200248718,-0.1577128916978836,-0.08521147817373276,0.056130439043045044,0.27824121713638306,-0.06806977838277817,-0.11827132105827332,-0.2708899974822998,-0.30265673995018005,0.22937583923339844,0.018132399767637253,-0.1668916940689087,-0.015512954443693161,-0.3940339684486389,-0.15944699943065643,0.13358080387115479,-0.0032572599593549967,0.21752634644508362,0.18702755868434906,-0.03620151802897453,0.2809649705886841,0.0893857479095459,0.04042268171906471,0.1372031420469284,-0.1748374104499817,-0.03892595320940018,0.21320711076259613,0.5467343926429749,-0.2560412883758545,0.040324363857507706,-0.3250691294670105,0.07078894972801208,0.09032562375068665,0.3167567253112793,-0.011396464891731739,-0.257488876581192,0.09365740418434143,-0.3549472987651825,-0.03324049338698387,-0.085820272564888,0.25968998670578003,0.27755481004714966,0.062029145658016205,0.24680191278457642,0.02767493762075901,0.2509849965572357,0.032743051648139954,-0.020032841712236404,-0.08399812877178192,0.731309175491333,-0.28459984064102173,-0.28541111946105957,0.17440541088581085,-0.052883073687553406,-0.1317135989665985,-0.020322058349847794,0.4844408333301544,0.06544683873653412,0.148197203874588,-0.08732959628105164,-0.09356032311916351,0.09907186776399612,-0.12281573563814163,0.015268268994987011,-0.33524224162101746,0.24936802685260773,-0.061813414096832275,-0.15379071235656738,-0.012651664204895496,-0.014106057584285736,0.0934690535068512,0.2251274436712265,0.001974034821614623,-0.10796455293893814,0.5217345356941223,-0.1083013191819191,0.46403977274894714,-0.1699322760105133,0.26412203907966614,0.1445455551147461,0.02093460224568844,-0.22564058005809784,-0.2820015549659729,-0.026222195476293564,-0.28153398633003235,0.09413489699363708,0.32652270793914795,0.13503828644752502,0.2647313177585602,-0.06361180543899536,0.08434870839118958,-0.28266528248786926,-0.05662192404270172,0.11510727554559708,0.0061069452203810215,-0.0028966956306248903,-0.14758077263832092,0.1379380077123642,0.09506936371326447,0.41789817810058594,-0.06013404205441475,-0.42149537801742554,0.24674645066261292,-0.2331811934709549,0.37187111377716064,0.06156665459275246,-0.2918553948402405,-0.17675670981407166,-0.29630619287490845,-0.09666553884744644,-0.12327084690332413,-0.0838613212108612,0.023262638598680496,-0.36758139729499817,0.36461013555526733,-0.1615387201309204,0.22023707628250122,0.10241089016199112,0.016345685347914696,-0.08222835510969162,-0.025517797097563744,-0.12087012827396393,-0.10380402952432632,-0.28863081336021423,0.03987686708569527,0.1409229189157486,0.11299654096364975,-0.46766066551208496,-0.0905437022447586,-0.3084231913089752,0.06962709128856659,-0.037161845713853836,-0.17327454686164856,0.2792133390903473,-0.05027047544717789,0.17008468508720398,-0.30904117226600647,0.4185778498649597,-0.004626196809113026,0.14595606923103333,-0.35298699140548706,0.007602705620229244,-0.14107036590576172,-0.017311496660113335,-0.01907961629331112,0.0445578470826149,0.056928277015686035,0.30354493856430054,0.05458903685212135,-0.06461883336305618,-0.38999801874160767,0.22872096300125122,-0.16937817633152008,0.08762186765670776,0.4823162853717804,-0.09179932624101639,0.024792302399873734,-0.2950855791568756,-0.19189316034317017,-0.10900155454874039,-0.15633361041545868,0.3637215197086334,0.025178685784339905,-0.10470850765705109,0.01983802393078804,-0.014609549194574356,0.10091090202331543,-0.026940831914544106,-0.15436400473117828,0.30735963582992554,0.16334909200668335,0.31357142329216003,-0.03984894976019859,-0.1179175078868866,-0.13975003361701965,0.1737269014120102,-0.13921785354614258,0.24864287674427032,-0.1515364646911621,-0.10225687175989151],[0.20318977534770966,-0.31910595297813416,-0.6641930341720581,-0.08300399780273438,0.08008931577205658,-0.029250916093587875,0.17885446548461914,-0.07033633440732956,-0.08249732851982117,-0.09462504088878632,0.10002037137746811,0.16708528995513916,-0.3599696755409241,-0.016606103628873825,0.2484816461801529,-0.1270246058702469,0.08012068271636963,0.16662821173667908,0.23319172859191895,-0.012850875034928322,0.07806643843650818,0.15778374671936035,-0.11121317744255066,0.16675281524658203,-0.14655160903930664,0.06851306557655334,-0.12020765990018845,-0.11702144891023636,0.06206120550632477,-0.036130405962467194,-0.1481105387210846,0.052192945033311844,-0.16203337907791138,-0.055610354989767075,-0.11327289044857025,0.2328202724456787,-0.24331164360046387,0.139847531914711,0.19534875452518463,0.10932911187410355,0.20363104343414307,-0.05331338942050934,-0.02735334448516369,-0.08781847357749939,0.01317981630563736,-0.09858493506908417,-0.3193643093109131,0.20431886613368988,-0.08774024248123169,0.16629110276699066,-0.10067930817604065,-0.04538145661354065,-0.2402479648590088,0.09304256737232208,-0.2401043027639389,0.11288653314113617,-0.0165617186576128,-0.1364348977804184,0.9048838019371033,-0.03604516386985779,-0.2608482241630554,0.006840582471340895,-0.10535283386707306,0.20802009105682373,0.19402094185352325,0.14575466513633728,-0.17056208848953247,0.03547871485352516,0.15507279336452484,-0.12278080731630325,0.086736761033535,-0.15124817192554474,-0.0029328835662454367,-0.10807066410779953,-0.03429397940635681,-0.20449763536453247,-0.11430827528238297,0.0812864899635315,0.16305111348628998,0.07941654324531555,0.7432935833930969,0.1926819086074829,0.03843428194522858,-0.09819280356168747,-0.1654404103755951,-0.1908194124698639,-0.1275065392255783,-0.18158891797065735,0.07729250937700272,0.4076271057128906,-0.13623328506946564,0.13628418743610382,0.15849943459033966,0.3976713716983795,0.14016428589820862,0.11618965864181519,-0.05843058228492737,-0.0004521651135291904,-0.19395428895950317,-0.2628480792045593,0.010944318026304245,-0.0012756120413541794,-0.1942727267742157,-0.03491601720452309,0.27534881234169006,-0.443798303604126,-0.04912484064698219,-0.24343198537826538,-0.13101376593112946,0.019811129197478294,-0.21389222145080566,-0.1656196117401123,-0.2621581554412842,0.16894608736038208,0.3384658098220825,-0.09159385412931442,0.09720580279827118,0.14485850930213928,-0.13358177244663239,0.057951826602220535,0.13843944668769836,-0.005761932581663132,0.3525165915489197,-0.03991909325122833,0.053206607699394226,0.11277129501104355,0.0805625393986702,-0.08744653314352036,0.14259140193462372,0.020316902548074722,-0.07796482741832733,0.1937565803527832,-0.12874901294708252,-0.13098405301570892,0.06379576027393341,0.22933784127235413,0.061810411512851715,-0.006919391918927431,0.0625622496008873,-0.16994202136993408,0.10608130693435669,-0.02037263847887516,-0.010802087374031544,0.13374492526054382,-0.07456158101558685,-0.31606945395469666,-0.053140394389629364,0.18302606046199799,0.12505529820919037,0.07790573686361313,-0.06865677982568741,-0.12136586755514145,-0.3064292371273041,0.14194688200950623,0.5264731645584106,-0.14418701827526093,0.2790655791759491,0.18598361313343048,-0.30695709586143494,-0.1404145210981369,-0.20579347014427185,0.18401695787906647,0.7718059420585632,-0.18211092054843903,-0.17739643156528473,0.0988113135099411,0.4697924554347992,-0.13708029687404633,0.08807258307933807,0.30913442373275757,-0.17405113577842712,0.28319209814071655,-0.23128916323184967,0.36475974321365356,-0.008949102833867073,0.020313557237386703,-0.05981310456991196,-0.19484947621822357,0.07967277616262436,0.10855395346879959,0.1183261051774025,-0.04213413968682289,0.5397104620933533,0.020065192133188248,0.3986307978630066,0.1038823351264,0.05543077737092972,-0.028720170259475708,-0.02041691541671753,-0.28616711497306824,0.5789510607719421,0.14502613246440887,0.007436429616063833,0.23568297922611237,-0.08473113179206848,0.11889732629060745,-0.03481191024184227,-0.10632645338773727,0.25874099135398865,0.09609824419021606,0.1617041826248169,-0.01953253522515297,0.17871032655239105,-0.2643236517906189,0.07957719266414642,-0.07934968173503876,-0.1450660526752472,-0.2781248390674591,-0.013612248003482819,0.4328869581222534,0.5457133650779724,-0.16351570188999176,-0.11685153096914291,0.4955805242061615,0.627711832523346,-0.14520369470119476,-0.351975679397583,-0.1444709748029709,0.3837524950504303,0.1506345272064209,-0.29900896549224854,-0.050083547830581665,-0.23564587533473969,-0.09313361346721649,0.2271633744239807,0.19686268270015717,-0.2813269793987274,-0.17039905488491058,-0.41522955894470215,0.08287589997053146,-0.15205951035022736,0.2879539728164673,-0.23177988827228546,0.1477329581975937,0.04769313335418701,-0.03140817955136299,0.2917163372039795,0.5899187922477722,0.20803147554397583,-0.04135766252875328,-0.07343056052923203,-0.2880373001098633,0.18989674746990204,-0.14133192598819733,0.09175870567560196,-0.1667357236146927,0.04376871511340141,-0.13366135954856873,0.07012321054935455,-0.35838547348976135,0.10310927778482437,-0.0289858840405941,0.10524345189332962,0.3637985289096832,-0.19597119092941284,0.3157525062561035],[-0.19302742183208466,-0.31160303950309753,0.3087858557701111,-0.0914098471403122,-0.14736002683639526,0.5593892931938171,0.18267007172107697,-0.3621935248374939,-0.14510010182857513,0.08547520637512207,0.3851996660232544,-0.07557684183120728,0.03320946544408798,0.07729124277830124,-0.07908177375793457,-0.09345253556966782,-0.06415166705846786,-0.2047698050737381,-0.6752094626426697,0.12026741355657578,0.1693391650915146,-0.12151659280061722,0.2304144650697708,-0.3948403298854828,0.03358173370361328,-0.1174488216638565,-0.013023842126131058,0.37377646565437317,0.05244364216923714,0.12867267429828644,-0.5421296954154968,-0.17966371774673462,0.1978408545255661,0.36437347531318665,-0.08576660603284836,0.11988183110952377,0.42347773909568787,-0.0752679854631424,-0.055136650800704956,-0.006419379264116287,-0.0411703884601593,-0.45055487751960754,-0.18280276656150818,-0.15342429280281067,0.21533778309822083,0.010293546132743359,0.08320291340351105,-0.03280169889330864,-0.1385790854692459,0.15437431633472443,0.15120790898799896,0.08454257249832153,0.11777562648057938,-0.010278158821165562,-0.06826478242874146,-0.1429034322500229,-0.25296294689178467,0.09514810889959335,-0.04720139130949974,0.1774517297744751,0.056583426892757416,-0.1072329729795456,-0.029633481055498123,0.3182211220264435,0.13586904108524323,-0.6281775236129761,0.18801002204418182,0.28408870100975037,0.141119584441185,0.23704977333545685,-0.22825179994106293,-0.4430679678916931,0.023602185770869255,-0.4653128385543823,-0.17155329883098602,0.12149149924516678,-0.29127395153045654,0.03001539595425129,-0.2429913431406021,-0.11249478906393051,-0.214712992310524,-0.26764777302742004,0.01624269224703312,-0.5038323998451233,-0.32687053084373474,0.16420666873455048,0.19230332970619202,-0.14262676239013672,-0.3446706235408783,0.3002685606479645,-0.06721583753824234,-0.10851301997900009,-0.00509727792814374,-0.038767632097005844,0.03268173709511757,-0.06456255167722702,-0.1539793163537979,-0.2951548397541046,0.20494885742664337,-0.13720503449440002,-0.3425210416316986,0.06810348480939865,0.11006463319063187,0.07746561616659164,0.06574080139398575,-0.22787821292877197,0.5394233465194702,0.21425829827785492,0.1815529316663742,0.05310557037591934,0.41316044330596924,-0.09702270478010178,0.21750426292419434,0.002702109282836318,-0.5539734363555908,0.04862334206700325,0.10257942229509354,-0.22608065605163574,-0.10266929119825363,-0.03592216968536377,-0.012737380340695381,-0.3489866256713867,-0.16513636708259583,0.07365421950817108,-0.07788559049367905,-0.44473937153816223,0.06890856474637985,-0.28070345520973206,-0.2716304063796997,0.07609184831380844,0.49256405234336853,0.13468317687511444,-0.07597722858190536,-0.10639403015375137,-0.3160005211830139,-0.1067797839641571,-0.00991044845432043,0.11828077584505081,0.02809942327439785,0.01608632691204548,0.3253536522388458,0.05882146209478378,0.19847576320171356,0.11109080165624619,0.2605127692222595,-0.11932837218046188,-0.09175115078687668,-0.047229520976543427,-0.07806394249200821,0.043686605989933014,-0.2932301461696625,0.09690120816230774,-0.2657466530799866,0.1562633067369461,0.07054461538791656,-0.044157546013593674,-0.1940319538116455,-0.0327855609357357,-0.22293449938297272,-0.12374512851238251,0.023434532806277275,0.23251338303089142,-0.3757103681564331,-0.1867019236087799,0.6951496601104736,0.05074664205312729,-0.30467501282691956,-0.32585349678993225,-0.14000475406646729,-0.46718987822532654,0.0017597846454009414,-0.16044451296329498,0.13220831751823425,0.09700103104114532,-0.1467212587594986,-0.013106828555464745,0.1380714327096939,-0.12436755746603012,-0.021578187122941017,-0.12837007641792297,-0.5200443863868713,0.09595181792974472,0.5440509915351868,-0.3780033588409424,-0.02384484000504017,0.17886053025722504,0.23255254328250885,0.02441822551190853,0.018514471128582954,-0.4385784864425659,-0.006344872061163187,0.0011285013752058148,0.017811927944421768,-0.26406389474868774,-0.1413620412349701,0.24289853870868683,0.008774933405220509,-0.18415851891040802,-0.18765416741371155,0.2134704440832138,0.06304962188005447,0.20366983115673065,0.042522888630628586,0.7961071133613586,0.24183975160121918,-0.4661013185977936,0.2891770303249359,-0.0011723681818693876,-0.04916553571820259,0.016555305570364,0.15134018659591675,0.2694661319255829,-0.18658828735351562,0.16004028916358948,0.02873760275542736,0.12991885840892792,-0.20089676976203918,0.20131486654281616,-0.36112353205680847,-0.54643315076828,0.23307932913303375,