{"params":{"dropout_prob":0.0,"l2_weight_decay":0.0,"l2_weight_decay_params":[],"l1_weight_decay":0.0,"l1_weight_decay_params":[],"contractive":0.0,"contractive_params":[],"reg":0.001,"learning_rate":"0.001,0.0001","n_epochs":"80,20","n_attack_steps":10,"beta_robustness":1.0,"seed":4,"n_hidden":256,"n_layer":1,"batch_size":100,"boundary_loss":"kl","treat_as_constant":false,"p_norm":"inf","dt":1.0,"tau":20.0,"beta":2.0,"tau_adaptation":98.0,"thr":0.01,"thr_min":0.005,"refr":2,"dampening_factor":0.3,"sample_rate":16000,"eval_step_interval":400,"clip_duration_ms":1000,"window_size_ms":30.0,"window_stride_ms":10.0,"feature_bin_count":40,"in_repeat":1,"preprocess":"mfcc","data_url":"https:\/\/storage.googleapis.com\/download.tensorflow.org\/data\/speech_commands_v0.02.tar.gz","silence_percentage":10.0,"unknown_percentage":10.0,"validation_percentage":10.0,"testing_percentage":10.0,"n_thr_spikes":-1,"background_volume":0.1,"background_frequency":0.8,"time_shift_ms":100.0,"wanted_words":"yes,no,up,down,left,right","attack_size_constant":0.0,"initial_std_constant":0.0,"attack_size_mismatch":0.2,"initial_std_mismatch":0.001,"optimizer":"adam","data_dir":"TensorCommands\/speech_dataset\/","session_id":3514725060,"desired_samples":16000,"window_size_samples":480,"window_stride_samples":160,"length_minus_window":15520,"spectrogram_length":98,"average_window_width":-1,"fingerprint_width":40,"fingerprint_size":3920,"label_count":8,"time_shift_samples":1600},"rng_key":[3987283381,3247793887],"theta":{"W_in":[[-0.0017146560130640864,-0.0007191491313278675,0.01390304509550333,0.013615070842206478,0.01339054387062788,0.020471595227718353,0.0003024098987225443,-0.0011418601498007774,0.020694883540272713,0.02031300961971283,0.007209473289549351,-0.0009890816872939467,0.0046866293996572495,0.0011713514104485512,0.03696957230567932,-0.0007354117115028203,9.639398194849491e-5,0.0026591310743242502,0.00014218030264601111,0.015639569610357285,0.007560548838227987,0.00017638369172345847,0.025934306904673576,0.0171634703874588,3.2572213967796415e-5,0.03813605755567551,0.029221830889582634,-0.008923031389713287,0.002385335974395275,0.02283668704330921,0.017232680693268776,0.0016218465752899647,0.007337905000895262,0.02567392773926258,0.0035926243290305138,0.01984238810837269,0.01778220944106579,0.010705024003982544,0.03822750225663185,-0.004028017167001963,0.000767500139772892,-0.009617967531085014,0.0024721678346395493,0.00020586527534760535,0.005509256850928068,0.00913897342979908,0.022543124854564667,0.060283370316028595,0.0001298209244851023,0.004220190457999706,0.0707538053393364,-0.0003143475332763046,0.0009209418785758317,0.010295710526406765,0.00647760508581996,0.010119268670678139,-0.0055822161957621574,0.018416432663798332,0.008423112332820892,0.00044313722173683345,0.04697606340050697,0.0029337808955460787,-0.004629308823496103,-0.0011585678439587355,0.04017991945147514,0.03578018769621849,0.006861260160803795,0.019821956753730774,0.012299020774662495,0.0023530020844191313,0.005969326943159103,0.0021353205665946007,0.00931695755571127,0.009573224000632763,-0.006449856795370579,0.004869129508733749,0.06685056537389755,0.020348984748125076,0.0038227341137826443,0.0006338806706480682,0.00375435221940279,0.015696607530117035,0.00021543371258303523,-0.005673939827829599,0.0009396217064931989,0.014229045249521732,0.0003411034122109413,0.0009825172601267695,0.03790063410997391,-0.00010379116429248825,0.009793543256819248,0.026294251903891563,0.024523092433810234,0.00045088506885804236,0.02477007918059826,-0.0006962532643228769,0.01663307286798954,0.0029155563097447157,0.0019356003031134605,0.009846631437540054,0.01634320244193077,0.0045969123020768166,0.016995545476675034,0.004109162837266922,0.01952592097222805,0.01749945618212223,0.013582566753029823,0.00825454667210579,0.008171279914677143,0.003614783752709627,0.010847584344446659,0.012881199829280376,0.03965410217642784,0.004676524084061384,0.04649290069937706,0.01087593287229538,0.006405184511095285,0.013262109830975533,-0.003183690132573247,0.024697767570614815,0.03132066875696182,0.0006641806103289127,0.008517066948115826,0.0022586300037801266,0.02597750350832939,-0.0008724110666662455,0.006028978154063225,0.0014051334001123905,-0.002203788608312607,0.0019108280539512634,0.016935773193836212,0.011903969570994377,0.021058164536952972,0.027847090736031532,-0.0033389581367373466,0.012618803419172764,0.0022386997006833553,-0.0015522448811680079,0.0017075593350455165,0.013496562838554382,0.0031271728221327066,-0.0002774000749923289,0.015307582914829254,-0.004478237126022577,-4.5719731133431196e-5,0.013875029049813747,0.005166657269001007,0.0005375276086851954,0.008972997777163982,0.0011424691183492541,-0.011861559003591537,0.001197389094159007,-0.00044286876800470054,0.0005408574943430722,0.004804111085832119,0.007052616681903601,0.014432619325816631,0.0384262315928936,0.001954109640792012,0.007570438086986542,0.0033829165622591972,0.01175504457205534,0.028398649767041206,0.013941950164735317,0.033950187265872955,0.01400435995310545,-0.007251724135130644,0.0029547710437327623,0.013611705973744392,-0.00041844669613055885,0.00479317968711257,0.0020789108239114285,0.04075268656015396,0.004647177644073963,0.05698246508836746,0.0285855233669281,0.021705036982893944,-0.002475183689966798,0.030162004753947258,0.006125851068645716,0.010516762733459473,0.016278507187962532,0.01405474916100502,0.04542858526110649,0.016831066459417343,0.0009211337892338634,0.005837887525558472,0.029732370749115944,0.0018015579553321004,0.000517760228831321,-0.0007711095968261361,-0.0007626151200383902,-0.0030257171019911766,0.013205856084823608,0.010147792287170887,0.0019134419271722436,-0.005363272037357092,-0.003733124351128936,0.009634112007915974,0.012941757217049599,0.03080875054001808,0.0018168403767049313,0.12588350474834442,0.031767334789037704,0.019614743068814278,0.04629131034016609,0.010200120508670807,0.0016478656325489283,-0.006491902284324169,-0.026379628106951714,-0.0002639044832903892,0.03550013527274132,0.0006798913818784058,0.0014789080014452338,3.30622133333236e-5,0.0006776999216526747,0.0014083869755268097,-0.0025732156354933977,0.008056990802288055,0.05230556055903435,0.000645902007818222,0.001980670727789402,0.007130039390176535,0.011562926694750786,0.015224709175527096,0.02332097850739956,0.009014470502734184,-0.0004470233106985688,0.03098299354314804,0.028148988261818886,0.023681553080677986,-0.00942971557378769,-0.002270896453410387,0.010454238392412663,0.0028975370805710554,0.00017600716091692448,0.0010369354858994484,0.0281533095985651,0.0003538781893439591,0.009202915243804455,0.025888269767165184,0.007612545043230057,0.009237390011548996,-0.0005393129540607333,0.011682629585266113,0.022625502198934555,0.004934517666697502,-0.022194713354110718,0.01716385781764984,0.019310563802719116,0.006939741782844067,0.0064191375859081745,-0.0025506282690912485,0.022313948720693588,0.02266661822795868,0.007507316768169403],[-0.037752993404865265,-0.02214878797531128,0.07127398252487183,0.051285095512866974,-8.658788283355534e-5,-0.0797143206000328,-0.14090260863304138,-0.04135309159755707,0.0013210889883339405,-0.011117064394056797,0.0023414110764861107,-0.0018446878530085087,-0.21951274573802948,-0.0010275507811456919,-0.008462389931082726,-0.17384538054466248,-0.0016878265887498856,0.020654665306210518,-0.01636482961475849,0.00010745206964202225,0.007202859967947006,-0.08262237906455994,0.0003659494104795158,0.0007525718538090587,-0.00030428433092311025,-0.007050936575978994,-0.016124747693538666,0.0064279609359800816,0.018863223493099213,0.002220647409558296,0.05184270814061165,0.0010616882937029004,0.026454418897628784,-0.014816682785749435,-0.005180670879781246,-0.14727270603179932,0.06316190212965012,-0.0008841371163725853,-0.004960480611771345,0.02265750989317894,0.0003133344871457666,0.020477836951613426,-0.00028676557121798396,-0.0856558158993721,0.0037815840914845467,-0.01004346925765276,0.00026693454128690064,-0.006739061791449785,-0.19752466678619385,0.09510963410139084,-0.0019749817438423634,-0.05251298472285271,-0.0020905148703604937,0.04552854225039482,0.06572770327329636,0.08564458787441254,-0.00046130490954965353,0.03571365773677826,0.08558870106935501,-0.014630521647632122,0.02209327556192875,0.09307640790939331,-0.18834149837493896,-0.15368680655956268,-0.014946763403713703,0.010611548088490963,0.05388455092906952,0.0023415470495820045,-0.0009318878292106092,0.013581771403551102,0.012990123592317104,0.0926109328866005,0.01832544431090355,-0.00047009906847961247,-0.010336782783269882,0.0073363035917282104,-0.009999491274356842,0.0002477663801982999,0.05257539823651314,0.09745990484952927,0.06986086815595627,0.11086370795965195,-0.15727531909942627,-0.10534127801656723,1.1874908523168415e-7,0.002573821460828185,0.008401519618928432,0.004078008234500885,0.005204393994063139,-0.01657974347472191,-0.009552380070090294,0.0007794654811732471,-5.131724537932314e-5,1.3296075849211775e-5,0.06140295788645744,-0.20530080795288086,-0.020546339452266693,-0.002429401967674494,0.08171191811561584,0.04706181585788727,-0.03192326799035072,0.0011008813744410872,0.07151035219430923,0.0039530000649392605,0.0005776226171292365,0.0007459267508238554,-0.00012921664165332913,0.017196377739310265,-0.09402327239513397,0.002615522826090455,-0.012456046417355537,0.012844528071582317,-0.027372339740395546,0.08738438785076141,-0.07069235295057297,0.009977376088500023,0.05436338111758232,0.01574825868010521,-0.12533694505691528,-0.0037045711651444435,0.09751775115728378,0.05095461755990982,0.07717164605855942,0.003079486545175314,4.32696397183463e-5,0.011793401092290878,0.019722718745470047,-0.10108353197574615,-0.10541475564241409,0.0024838517419993877,0.06069684028625488,0.09363216906785965,0.00022063219512347132,0.001976271392777562,-0.0010369844967499375,0.08756855875253677,0.0007144245901145041,0.03336440771818161,0.008724400773644447,-0.01425707433372736,-0.11696784943342209,-0.0882781371474266,-2.4532366296625696e-5,0.009966005571186543,-0.1564011424779892,0.059591010212898254,0.08300304412841797,0.0001374579587718472,-0.04977768659591675,5.6089163990691304e-5,0.013238457962870598,-0.0029770354740321636,-0.02471710741519928,-0.004186597652733326,0.001109098200686276,0.08780305087566376,0.05515831336379051,-0.009512949734926224,0.028236474841833115,0.059666529297828674,-0.03658760339021683,-6.253097672015429e-5,-0.04286826774477959,-0.0012854670640081167,0.11562087386846542,0.012177493423223495,0.009616854600608349,0.0012001135619357228,0.04559428617358208,-0.0992085337638855,-0.00021891947835683823,-0.011984357610344887,0.026292504742741585,0.0726633220911026,0.060861945152282715,-0.013301767408847809,0.08378702402114868,-5.434747436083853e-6,-0.033704645931720734,0.0677885040640831,0.006098125129938126,0.13716194033622742,0.01755015179514885,-0.016736337915062904,0.0562601312994957,0.0688072219491005,0.07535926252603531,0.0004699257551692426,0.07167164981365204,0.04086536541581154,-0.07924527674913406,-0.013248005881905556,-0.0005842234240844846,0.060456328094005585,0.07818398624658585,0.0008057043887674809,-0.011874374933540821,-0.029437460005283356,0.08640246838331223,0.00677854148671031,0.0011358873452991247,0.008032621815800667,0.004717706236988306,-0.02554531767964363,0.01711428537964821,-0.014054693281650543,0.0327114462852478,0.00013381274766288698,0.0018620999762788415,-0.07213369756937027,-0.09271816164255142,0.02594258263707161,0.02928084507584572,0.11091414839029312,-0.11180004477500916,0.048514969646930695,0.08281243592500687,-0.05830557271838188,0.027136754244565964,-0.0062541416846215725,0.022784322500228882,0.06650660932064056,0.015392698347568512,0.06924410909414291,-0.0010033724829554558,0.001118387095630169,0.009710977785289288,-0.14466983079910278,-0.00041385923395864666,-0.009575857780873775,-0.012097135186195374,-0.20830927789211273,-0.16011415421962738,0.0010866103693842888,-0.00020391162252053618,-0.00045284631778486073,-0.0003475658886600286,-0.00019564144895412028,-0.24262964725494385,0.06501779705286026,-0.0013839690946042538,0.11176806688308716,0.06952997297048569,-0.09933101385831833,0.00612039165571332,1.368584344163537e-5,-0.00250419182702899,0.00395698007196188,-0.0002460417745169252,0.0005105413147248328,0.10428758710622787,0.06695734709501266,-0.22730445861816406,0.030756257474422455,-0.08502355217933655,0.06266267597675323],[-0.00690433057025075,0.00035229718196205795,-0.053915977478027344,0.037041693925857544,0.1706475466489792,0.0946991816163063,-0.06935178488492966,0.00016511318972334266,-0.010086425580084324,0.07033511251211166,-0.0005108260083943605,-0.14581197500228882,-0.0001316473790211603,-0.0009429029887542129,-0.07493586838245392,-0.003141741966828704,-0.11512067914009094,-0.1802629828453064,0.00795377790927887,0.16100212931632996,-0.06014829874038696,-0.06903424859046936,0.01758340559899807,-0.006525775417685509,-0.0003664667019620538,0.056073158979415894,0.05084723234176636,-0.06175566464662552,-0.013923754915595055,-0.11460711807012558,0.2223605215549469,-0.0030177149455994368,0.052518751472234726,0.031625159084796906,0.002778145018965006,-0.08360140025615692,-0.031909726560115814,0.00027347111608833075,-0.10166405141353607,0.0006780949188396335,-0.15633569657802582,0.01937813311815262,-0.0017975165974348783,-0.025201793760061264,-0.04372281953692436,-0.005371069069951773,-0.09527306258678436,0.08979036659002304,-0.005472828168421984,-2.9239172363304533e-5,0.0006345956935547292,-0.0005114807281643152,-0.03814200311899185,-0.037144120782613754,0.06028319150209427,-0.06542691588401794,-0.03570152446627617,0.03327740728855133,-0.0018724404508247972,-0.07489944249391556,-0.0058989753015339375,0.0006280483212321997,0.1090458333492279,0.08860988169908524,0.051554225385189056,-0.010772074572741985,0.002288717543706298,-0.15969647467136383,0.0016885499935597181,-9.097229485632852e-5,0.1270104944705963,-0.0010821799514815211,-0.03189265355467796,-0.08637871593236923,0.00011769356933655217,-0.16381444036960602,0.0019210610771551728,0.12588618695735931,-0.0004837406740989536,0.06644009053707123,-0.001484785694628954,0.210805281996727,0.013441608287394047,0.003751785960048437,-0.004121008329093456,-0.1573915034532547,0.07707379013299942,-0.0010512511944398284,-0.11417089402675629,-0.17361420392990112,0.009036922827363014,-9.719277295516804e-5,0.12012344598770142,-0.001117025618441403,-0.18246199190616608,0.1289825439453125,-0.00041589431930333376,0.11058639734983444,-0.10042139142751694,-0.00047766848001629114,-0.05875170975923538,0.1862260103225708,-0.07295273244380951,0.00034709781175479293,-0.0712830126285553,-0.1759432852268219,0.17189548909664154,-0.09702018648386002,-0.08209162950515747,-0.0403699167072773,0.0006503505283035338,-0.15376025438308716,0.21422183513641357,-0.04412563890218735,0.001289805513806641,0.15088479220867157,-0.15448349714279175,0.0006212412845343351,0.0004165722639299929,0.007601109333336353,-0.004707661923021078,-0.12376188486814499,-0.06479902565479279,0.0003982012567576021,-0.03899894282221794,-0.2846914827823639,-0.15955761075019836,-0.06294814497232437,0.003303629346191883,-0.05086861550807953,-9.455365216126665e-5,0.1608331799507141,0.00018762370746117085,-0.08391890674829483,-0.14934061467647552,-0.07461170852184296,-0.144581139087677,0.0050330632366240025,-0.024686893448233604,-0.06680282205343246,0.28116199374198914,-0.013058717362582684,0.14058685302734375,0.04878269508481026,0.012490480206906796,0.16116963326931,-8.716349839232862e-5,-0.09292703866958618,0.12343490123748779,0.0013664833968505263,-0.002575659891590476,0.0485462062060833,0.00019529000564944,-0.379141628742218,0.14052796363830566,-0.02366791106760502,-0.10488864034414291,0.04045441374182701,-0.13837268948554993,0.0011519835097715259,-0.032248035073280334,0.1685478538274765,0.0011156507534906268,0.161107137799263,0.20972196757793427,-0.012098386883735657,-0.013170606456696987,-0.0048511638306081295,-0.00022819080913905054,-0.2274434119462967,-0.0011382106458768249,0.10459860414266586,-0.01872759684920311,-0.010643851943314075,-0.2100447565317154,0.1960938274860382,-0.01505124382674694,0.0024181404151022434,-0.13998690247535706,-0.022372962906956673,0.09800491482019424,-0.07099351286888123,-0.1446073055267334,2.661588223418221e-5,-0.1979590654373169,0.0005955484230071306,0.0006162254721857607,0.0082195233553648,-0.0009990778053179383,-0.3604893088340759,0.00013967473933007568,-0.17350102961063385,-0.29005298018455505,-0.021695390343666077,0.0005806642584502697,-0.0008407490677200258,-0.11100472509860992,-0.010705888271331787,-0.00013717568072024733,-0.12095335870981216,0.0001678217522567138,-0.016281619668006897,-0.3624233603477478,0.10454688966274261,-0.14891871809959412,-0.00017142297292593867,0.0013501063222065568,-0.22732260823249817,0.021403633058071136,-0.007423838134855032,0.0009229972492903471,-0.27108362317085266,-0.20322366058826447,0.11031036078929901,0.020426539704203606,-0.008522771298885345,0.08816276490688324,2.3585807866766118e-5,0.041427213698625565,-0.02978251315653324,0.029834453016519547,0.0004243640578351915,-0.0004225333104841411,0.00015098809672053903,-0.0694841518998146,-0.12497356534004211,0.0984453558921814,0.009340375661849976,0.13024859130382538,0.08220737427473068,0.03115573711693287,0.002515999600291252,0.005489226896315813,0.11094363778829575,0.0065434640273451805,0.08190365135669708,-0.003928877413272858,-0.2339847981929779,-0.09046366810798645,-0.0001767736830515787,-0.051332633942365646,-0.00017251624376513064,-0.039632201194763184,0.0011128796031698585,0.004539530724287033,0.16236408054828644,-0.0009046033956110477,-0.00018652463040780276,0.1411706954240799,-0.000185923941899091,0.0043355911038815975,-0.05325876548886299,0.0014751458074897528,0.14577364921569824,0.1341380774974823,-0.02130453661084175],[-0.13541993498802185,3.8137110095703974e-5,-0.1010930985212326,-0.04251531511545181,0.2098734825849533,0.2626981735229492,-0.023136954754590988,0.22530141472816467,0.22329461574554443,-0.022627200931310654,-0.053487829864025116,0.2744976282119751,0.11521778255701065,-0.021439634263515472,-0.00032080578966997564,-0.004317497368901968,-0.05557231605052948,0.0851360335946083,0.0019179395167157054,0.1423317790031433,-0.04134240746498108,0.1295437216758728,-0.0015947915380820632,0.06981092691421509,-0.06023086979985237,-0.001118368934839964,-0.05257468298077583,0.019344916567206383,-0.016855504363775253,-0.05241195857524872,-0.016427431255578995,-0.07800839841365814,0.1402885764837265,-0.07415679842233658,-0.06381350755691528,-0.09006467461585999,-0.06628645956516266,-0.033177830278873444,0.00021907665359321982,0.05470007285475731,-0.00507829524576664,0.00028192700119689107,-0.009092098101973534,-0.06032043695449829,-0.0005262934719212353,0.06322846561670303,0.009161097928881645,-0.015021918341517448,-0.0029042745009064674,-0.17277632653713226,0.05417519435286522,-0.06929067522287369,0.056337788701057434,0.00034220784436911345,0.10247249156236649,-0.1266513168811798,0.0007350784726440907,-0.09079483896493912,-0.12862002849578857,-0.041303228586912155,-0.0014153887750580907,-0.09446036070585251,-0.0005932881031185389,-0.23432324826717377,-0.08333142101764679,-0.03243866562843323,-0.22012294828891754,0.006672328803688288,0.06538049876689911,-0.04054796323180199,0.07677992433309555,-0.14584892988204956,0.0003969949611928314,0.09528377652168274,-0.004167715087532997,0.05458742007613182,0.0023206628393381834,0.2842215597629547,-0.1506529450416565,0.011807668022811413,-0.12345265597105026,0.05668701231479645,0.03465582802891731,0.017170215025544167,-0.06192373111844063,0.019278477877378464,0.25549182295799255,-0.1089208573102951,-0.005634071305394173,0.05511714518070221,0.0016010706312954426,0.0013743456220254302,0.12716691195964813,-0.05820038542151451,-0.016795529052615166,0.10667448490858078,-0.09127915650606155,0.000996135058812797,-0.006433091592043638,0.06820808351039886,-0.01690332591533661,-0.14029757678508759,-0.0002665565989445895,-0.015384946018457413,0.000700657139532268,0.00012588113895617425,-0.1625354290008545,0.006257320288568735,0.0045583308674395084,-0.10550124943256378,-0.000321345025440678,0.12948866188526154,0.06387825310230255,-0.14324185252189636,-0.010024076327681541,0.18791121244430542,0.003696244675666094,0.19883611798286438,-0.0011335605522617698,-0.12298489362001419,-0.24332736432552338,-0.016155196353793144,-0.12861062586307526,0.0009191622957587242,-0.01641959510743618,-0.0016291080974042416,0.07984703034162521,0.01766050234436989,-0.0008958689286373556,-0.07360661029815674,0.03433797508478165,0.014546623453497887,-0.019783981144428253,-0.22991807758808136,0.13161323964595795,-0.057463403791189194,-0.0031846046913415194,-0.3851723074913025,-0.06011300906538963,0.01941131055355072,-0.0002621864841785282,-0.17047831416130066,0.08855898678302765,0.20929646492004395,0.0017673459369689226,0.27757418155670166,-0.19668592512607574,-0.018632128834724426,-8.723893552087247e-5,-4.995739436708391e-5,0.003540757577866316,-0.006160692777484655,-0.32435616850852966,-0.04607265815138817,0.0004238119872752577,-0.15806615352630615,0.000697529932949692,-0.09175028651952744,-0.0004447118262760341,-0.1275123506784439,0.00897710956633091,0.0035569698084145784,-0.11763123422861099,0.15553860366344452,-0.001056912587955594,0.0536225363612175,-0.010858560912311077,-0.10426738858222961,-0.14122633635997772,0.3170044720172882,-0.14133812487125397,0.00018833053763955832,-0.0011114755179733038,-0.1581697165966034,0.08452056348323822,0.00012125618377467617,-0.1020062193274498,-0.28786396980285645,0.0622837133705616,-0.12529751658439636,0.1474500149488449,0.0052154166623950005,0.008096464909613132,0.17202840745449066,0.03283543139696121,-0.15037137269973755,-0.2717134356498718,0.12632030248641968,-0.09191061556339264,0.0011442257091403008,-0.00030390347819775343,0.02874957025051117,0.14890454709529877,-0.1928209364414215,-0.214366152882576,-0.0035615437664091587,0.043774645775556564,0.010583307594060898,-0.0006423353333957493,-0.18593797087669373,-0.2570851147174835,0.02386433072388172,0.00035257969284430146,0.0030721535440534353,0.015172033570706844,0.052246563136577606,-0.027461081743240356,0.00017922493861988187,-0.018043743446469307,0.09125443547964096,-0.23445136845111847,0.18109042942523956,0.0032766596414148808,0.07833605259656906,-0.03870326280593872,-0.1163732036948204,0.1618255078792572,-0.001221426180563867,0.28615444898605347,-0.03112889640033245,0.21649928390979767,-0.12440278381109238,-8.566271571908146e-5,-0.111406609416008,0.07926474511623383,0.20298396050930023,0.04266761615872383,-0.015449956059455872,0.15711744129657745,-0.02614319697022438,-0.05370074510574341,-0.1195075735449791,-0.0675092563033104,0.0011814581230282784,-0.007229943759739399,0.22059670090675354,-0.07653670012950897,0.0013134180335327983,-0.18340550363063812,-0.13445410132408142,0.10953576117753983,-0.12266557663679123,-0.13274723291397095,-0.28228601813316345,-0.29840362071990967,0.09648840874433517,0.1504760980606079,0.007657365407794714,0.09940528124570847,-0.007172782439738512,0.1571550965309143,-0.08242229372262955,-0.04170038178563118,-0.007298724260181189,0.08855065703392029,-0.1514207273721695],[0.04414189234375954,0.40339982509613037,0.1571492701768875,0.005525719840079546,-0.33556637167930603,-0.5544766187667847,-0.003306078026071191,0.17335401475429535,-0.2873648405075073,0.0002062241401290521,-0.23318687081336975,0.07383330166339874,-0.8889930844306946,-0.00038541510002687573,-0.0006364408181980252,-5.3536288760369644e-5,-0.015263053588569164,-0.0001864300575107336,-0.08498460054397583,-0.23042891919612885,0.11693204194307327,-0.036407798528671265,-0.0382511168718338,-0.07458813488483429,-0.0011063730344176292,0.09452536702156067,0.034431010484695435,0.09919632226228714,-0.0006101814215071499,0.09752389043569565,-0.11227167397737503,-5.1566454203566536e-5,-0.0019069252302870154,0.0013710163766518235,-0.3712572455406189,-0.0024435301311314106,0.21000739932060242,-0.03938225656747818,-0.0013200708199292421,0.0003388793847989291,-0.010130498558282852,-0.012712809257209301,-0.09146250784397125,-0.1522655487060547,0.03128092736005783,0.08052410185337067,-0.06383436173200607,0.13254329562187195,-0.28476694226264954,0.09069216996431351,0.06070314347743988,0.004517143126577139,-0.010112825781106949,-0.0005297010065987706,0.014857630245387554,0.13873794674873352,-0.17998458445072174,-0.08322997391223907,0.13732196390628815,0.015649590641260147,-0.22509892284870148,0.09773077070713043,-0.000342755694873631,-0.0004140972450841218,0.059696171432733536,0.10983756929636002,0.03423970565199852,-0.11214987188577652,-0.041338466107845306,0.09978760778903961,-0.004246019758284092,0.08349059522151947,0.05244557932019234,-0.012265770696103573,0.6411824226379395,0.003465463872998953,0.06346552073955536,-0.2847747504711151,0.008976053446531296,0.061039235442876816,0.050990961492061615,-0.00215305108577013,-0.35992783308029175,0.2212957888841629,-0.00014697010919917375,-0.06743006408214569,0.033717699348926544,-0.0003669573343358934,0.3281821608543396,0.0013620819663628936,-0.08693134039640427,-0.04756974056363106,-0.23534925282001495,-0.0017934318166226149,0.2912227511405945,-0.28568384051322937,0.0035390492994338274,-0.1345992386341095,0.04111102968454361,0.07886673510074615,-0.0003503803163766861,0.00927649810910225,0.04884502291679382,-0.04301188513636589,-0.04525642842054367,0.12799061834812164,-0.19573695957660675,0.1422605663537979,-0.0026766741648316383,0.03499884903430939,-0.15018349885940552,-0.09363266825675964,0.011301912367343903,0.08252783119678497,0.002257198328152299,-0.25856703519821167,-0.002142460085451603,-0.020340915769338608,-0.013677067123353481,0.014885742217302322,0.25551488995552063,0.08031637966632843,0.09866352379322052,-0.17625115811824799,0.0061335270293056965,0.053470563143491745,0.007759712170809507,-0.10722912847995758,0.026898864656686783,0.028929997235536575,-0.0024251104332506657,0.0044448766857385635,-0.042275894433259964,0.3464464843273163,-0.0004237020038999617,0.23049983382225037,3.431713776080869e-5,-0.056607525795698166,0.012251763604581356,-0.011799951083958149,-0.27270275354385376,-0.059548698365688324,-0.2342367321252823,0.001322840340435505,-0.27116870880126953,0.06507190316915512,-0.03554911911487579,-0.05973789095878601,-0.18076452612876892,-0.07662728428840637,0.005568335298448801,-0.22955067455768585,-0.0002748756087385118,-0.4260575771331787,-0.05793163925409317,0.18308503925800323,0.16239230334758759,0.01956235244870186,0.02501615323126316,0.03024936653673649,-0.046838611364364624,-0.22949500381946564,-0.10937507450580597,-0.2526869773864746,0.0004809277888853103,0.005032095592468977,-0.01551001239567995,-0.0003187721304129809,0.21818940341472626,0.0032872760202735662,0.07965406030416489,-0.160552516579628,-0.3889927268028259,0.073248490691185,-0.17307500541210175,0.1321980059146881,0.009676131419837475,-0.275797963142395,-0.0022819137666374445,0.0846465453505516,-0.08168528974056244,-0.003820248879492283,0.058083586394786835,0.35183754563331604,0.17780497670173645,0.07908201962709427,-0.0002825094270519912,-0.15177267789840698,0.056239932775497437,0.177475243806839,0.14478899538516998,-0.004365746397525072,0.17400987446308136,0.13201205432415009,3.266239946242422e-5,-0.059033043682575226,-0.08475888520479202,-0.13317839801311493,0.003837527008727193,0.08502833545207977,0.147215336561203,-0.015259088017046452,-0.35073062777519226,0.32453495264053345,0.008268709294497967,0.28293856978416443,0.12172703444957733,0.004122765269130468,-0.16659145057201385,0.0005934984656050801,0.31488117575645447,-0.009438663721084595,0.023243362084031105,0.044708650559186935,-0.1608041226863861,0.044958170503377914,0.0004505522083491087,0.2565198242664337,0.20609065890312195,-0.01246215682476759,-0.00402580201625824,0.05652724578976631,0.03602401539683342,0.01843094266951084,0.055105503648519516,0.034261830151081085,-0.0001236856187460944,-0.00012977780716028064,-0.24119868874549866,0.012042516842484474,0.007532408926635981,-3.0861443519825116e-5,5.4124211601447314e-5,-0.005596322473138571,-0.2360280305147171,0.0365842804312706,-0.00021662440849468112,0.12394988536834717,0.17260132730007172,0.03718290105462074,-0.05077265202999115,0.10742350667715073,0.12726202607154846,-0.0015596853336319327,-0.11348582059144974,-0.23014415800571442,0.0007379167946055532,0.0010160416131839156,-0.2390013337135315,0.0010712227085605264,0.3398377299308777,0.13872896134853363,0.0007020308403298259,-0.0013341223821043968,-0.0008725218940526247,0.12400106340646744],[0.006794555578380823,0.1450010985136032,0.21962110698223114,-5.152844823896885e-5,0.025853021070361137,0.007870898582041264,-0.0425475612282753,0.05208341032266617,-0.1423449069261551,0.0004992400645278394,0.00010828526865225285,0.09815312922000885,-0.32268276810646057,0.10379564017057419,-0.002813768107444048,-0.010107314214110374,-0.15173935890197754,-0.10377898067235947,-0.09442068636417389,0.0007120546652004123,-0.017954619601368904,0.3302671015262604,-0.09261246770620346,0.0003052597166970372,9.981029143091291e-5,0.00238816742785275,-0.0006542344926856458,-0.04707498475909233,-0.2622131407260895,0.004464918747544289,0.14997610449790955,0.07838097959756851,0.10457582026720047,0.0006972593837417662,-0.003237000200897455,-0.00018672985606826842,0.08066020905971527,-0.11509361863136292,-0.0010240536648780107,0.002543466631323099,-0.0059297531843185425,-0.007219942752271891,0.0728682279586792,-0.021567435935139656,-0.10880007594823837,-0.04919670149683952,-0.07993033528327942,-0.00022845331113785505,0.0005901627009734511,0.14545074105262756,0.015480587258934975,-0.0005104798474349082,-0.05803658068180084,0.06152910739183426,-0.05260305479168892,0.026276390999555588,-0.17531394958496094,-0.17604047060012817,0.012788316234946251,-0.02822926640510559,0.00018046596960630268,0.09879989176988602,-0.17010055482387543,-0.10088099539279938,0.00275977305136621,0.005406028591096401,0.0005900887190364301,-0.08308359235525131,-0.18536274135112762,-0.19260314106941223,0.016123712062835693,0.08395220339298248,0.14783799648284912,-0.13237303495407104,0.405681312084198,-0.10604219138622284,0.0421515591442585,-0.0348503440618515,-0.044379834085702896,-0.03437083587050438,-0.044676560908555984,-0.03098093904554844,-0.0012702388921752572,0.25828683376312256,0.08125491440296173,0.009195495396852493,-0.0858570858836174,0.12094732373952866,0.21743164956569672,-0.03093046322464943,0.0005918408860452473,-0.016734547913074493,-0.00023662504099775106,0.059676431119441986,-0.03681309148669243,-0.4337034821510315,0.003305572783574462,0.06012028083205223,-0.10126253217458725,-0.038785163313150406,-0.0019289196934551,-0.0009825280867516994,0.16949127614498138,0.10211557894945145,-0.1137191578745842,0.1558036506175995,0.2128160446882248,0.010556853376328945,-0.11946524679660797,0.17244745790958405,0.03245839104056358,-0.08367795497179031,-0.00015724034165032208,-0.002757510170340538,0.026951750740408897,-0.08862706273794174,-0.034140825271606445,0.30580002069473267,-0.0003249327128287405,0.11516140401363373,0.010535014793276787,-0.048361074179410934,0.0051942309364676476,0.0062267230823636055,0.0003624452219810337,-0.02160399593412876,-0.06150877848267555,0.002174345077946782,0.5115349888801575,0.01935398578643799,-0.0021608644165098667,-0.0361110158264637,-0.11712117493152618,0.0835537239909172,-0.022747594863176346,0.2806662321090698,-0.07043074816465378,0.14790883660316467,0.08042261749505997,0.06965644657611847,0.009629551321268082,-0.0130209531635046,-0.0008832421735860407,-0.0008000758243724704,0.0002069566398859024,0.1576455682516098,0.006912854500114918,-0.0017794016748666763,0.07407920807600021,0.09636799991130829,-0.0013309043133631349,-0.06332161277532578,-0.20974664390087128,-0.20428046584129333,0.03048696741461754,0.2327476292848587,0.00015694339526817203,0.00027931720251217484,-0.04407533258199692,-0.08249883353710175,-0.011318370699882507,-3.396641477593221e-5,0.27359965443611145,0.006397233810275793,0.00034660883829928935,-0.10760507732629776,-0.028471585363149643,0.216914564371109,0.07590340822935104,0.028741132467985153,0.13104279339313507,0.04952216520905495,0.00011075853399233893,0.016941633075475693,-0.1570999175310135,-0.010910042561590672,0.0035638678818941116,-0.08188643306493759,3.5494005715008825e-5,0.10948257148265839,-0.02365540899336338,-0.025288846343755722,0.10244550555944443,0.004680357873439789,-0.0013329243520274758,-0.07876698672771454,0.012523985467851162,-0.0005342820077203214,-0.09285958111286163,0.00031841039890423417,0.17452791333198547,0.0045647709630429745,0.056338176131248474,0.15498454868793488,0.1664315164089203,0.10563446581363678,-0.029391052201390266,-0.06647028774023056,-0.00809119176119566,0.1818786859512329,0.1931811422109604,0.07866676151752472,-0.3933994174003601,0.042528312653303146,0.022077132016420364,0.059990499168634415,0.0010409667156636715,0.003819847945123911,-0.012007202953100204,-0.007894111797213554,-0.3258945047855377,-0.004516934044659138,-0.1182539165019989,-0.0029592460487037897,0.017928900197148323,-0.08378578722476959,-0.016841035336256027,0.4201917350292206,0.21894526481628418,-0.009922175668179989,-0.19170036911964417,-0.11343338340520859,-0.2100183516740799,-0.0035506959538906813,0.037752896547317505,0.23462200164794922,0.1538829207420349,-0.31612569093704224,-0.04998484253883362,0.0005703250062651932,0.013641642406582832,-0.03769867122173309,0.014647449366748333,0.0018350284080952406,-0.007839076220989227,-0.2572390139102936,0.0950026586651802,0.26685631275177,-0.06051192432641983,0.09750770777463913,-0.01605057902634144,0.02517738565802574,0.046904075890779495,-0.18134300410747528,0.18582205474376678,-0.00014060594548936933,0.002151760272681713,-0.032749928534030914,0.00398138165473938,-0.12582343816757202,0.2405337393283844,0.12247727066278458,-0.2405528575181961,0.001511419308371842,0.06906502693891525,0.13601480424404144],[0.015243214555084705,0.00010413341078674421,-0.2547987997531891,0.17234525084495544,0.02047872729599476,0.379385769367218,0.537939727306366,-6.081282117520459e-5,0.26936566829681396,0.07761626690626144,0.05699094757437706,0.024382540956139565,0.49120646715164185,-0.11559876054525375,-0.00036215875297784805,0.20148026943206787,-0.12706220149993896,0.0018830611370503902,-0.2139144241809845,-0.05813775956630707,-0.0015328086446970701,0.027790039777755737,-0.0007253265357576311,0.048031941056251526,-0.1856883466243744,0.19891375303268433,0.0076187970116734505,0.0149367181584239,-0.002078036777675152,0.13387010991573334,-0.06753577291965485,-0.07903075963258743,-0.1571677029132843,0.018211711198091507,0.07388224452733994,0.030946236103773117,-0.00019222691480536014,0.12043899297714233,5.144382157595828e-5,0.12271428853273392,0.0007331091910600662,0.03210095688700676,-0.1395416408777237,0.3312600255012512,-0.11756010353565216,0.009500604122877121,-0.00016338264686055481,0.1286095380783081,0.35106179118156433,-0.23872917890548706,-0.21986226737499237,0.005033728200942278,-0.35665440559387207,-0.201394185423851,-0.022754671052098274,-0.11964167654514313,-0.2906476855278015,-0.4737703800201416,-0.13632754981517792,0.0005393854808062315,0.09607207030057907,-0.14578141272068024,0.016976824030280113,0.004321914631873369,0.11382139474153519,-0.18780308961868286,-0.16926714777946472,0.0681350976228714,0.13237905502319336,-0.14580056071281433,-0.1161736324429512,-0.2594398260116577,0.0001461954234400764,-0.22020810842514038,0.00028281117556616664,-0.008200586773455143,0.08289834856987,-0.0007155000348575413,-0.038610536605119705,-0.17291642725467682,-0.22851146757602692,-0.16153058409690857,0.20477452874183655,0.21193476021289825,-0.20261874794960022,-0.31258583068847656,-0.1716533899307251,-0.08185755461454391,-9.219219464284834e-6,-0.11248226463794708,0.08768263459205627,0.2405543029308319,-0.10116951167583466,-0.2789018154144287,0.07556381821632385,0.1922324001789093,0.022199982777237892,-0.02466261386871338,-0.16093793511390686,-0.18639375269412994,-0.36217623949050903,0.0019826723728328943,-0.0011649380903691053,-0.16106751561164856,-0.0009844209998846054,0.03704586625099182,0.0039309123530983925,0.025417214259505272,0.4468441903591156,-0.05802220478653908,0.11849794536828995,0.1704125702381134,-0.47409677505493164,-0.22374241054058075,0.015790173783898354,-0.014780053868889809,0.009200391359627247,-0.18348805606365204,0.0007547495770268142,0.028180977329611778,-0.028630394488573074,-0.0245716143399477,-0.20672692358493805,0.3144248425960541,-0.042609043419361115,0.006550910882651806,0.008525989018380642,0.32548147439956665,0.0031621030066162348,-0.019091105088591576,0.08103827387094498,-0.26486676931381226,0.05157913267612457,0.1319233924150467,-0.15729069709777832,-0.07504933327436447,-0.015699133276939392,0.09145718812942505,-0.014125700108706951,0.11206652969121933,-0.18960390985012054,0.3072977662086487,-0.08700268715620041,0.16339094936847687,0.24254146218299866,-0.1277259737253189,-0.07228203117847443,-0.09633494913578033,6.448981002904475e-5,-0.18059518933296204,0.016954340040683746,0.008195200935006142,0.48992815613746643,0.08482067286968231,-0.043731700628995895,-0.28139787912368774,-0.07373903691768646,0.17575639486312866,-0.09401057660579681,-0.1736890822649002,-0.1028832346200943,-0.07571101188659668,0.18143126368522644,-0.009399688802659512,-0.004697855096310377,0.0002539328415878117,-0.005018944852054119,-0.1909216046333313,-0.10579322278499603,-0.3828652799129486,-0.054872777312994,-0.012708504684269428,0.06771170347929001,-0.1699853241443634,0.10312721133232117,-0.29309189319610596,-0.021509801968932152,-0.013632569462060928,0.00028689714963547885,-0.024029813706874847,-0.12415164709091187,-0.025879327207803726,-0.3085625171661377,-0.0686364397406578,-0.09727945178747177,-0.18104667961597443,-0.1584159880876541,0.0018465211614966393,-0.20835581421852112,-0.0018718040082603693,0.00017143707373179495,-0.07517776638269424,0.1155671700835228,-0.23136724531650543,-0.23733827471733093,-0.16555549204349518,-0.12040896713733673,-0.35876601934432983,0.00592145137488842,0.21113456785678864,0.001193998847156763,0.0002657863078638911,-0.00898625049740076,-0.000667243788484484,0.17159071564674377,0.0013167248107492924,-0.24963954091072083,0.003989836201071739,-0.0022219030652195215,-0.0012613276485353708,0.005613881628960371,0.013881186954677105,0.057574156671762466,-0.12515348196029663,-0.028515908867120743,0.011778400279581547,-0.1361166387796402,0.0003412871155887842,-0.12851841747760773,1.2842888281738851e-5,-0.19301636517047882,-0.1774698793888092,-0.12416999042034149,-0.07640337198972702,-0.0007201883709058166,0.00017029033915605396,-0.13048572838306427,0.13808973133563995,-0.03554057702422142,0.07794319093227386,0.10753960907459259,0.23051227629184723,0.17669923603534698,-0.08508243411779404,-0.01290016621351242,-0.2695786654949188,-0.1241343766450882,0.13684584200382233,0.2307921051979065,-0.0004524279502220452,-0.13080738484859467,-0.06965849548578262,-0.19158287346363068,0.2853524684906006,0.008165234699845314,-0.09868315607309341,0.11879649758338928,-0.017343157902359962,-0.024165907874703407,-0.15878024697303772,-0.0074949488043785095,-0.10671374946832657,0.21598346531391144,-0.25686806440353394,-0.32859301567077637,-0.15228880941867828],[0.09007228165864944,-0.041294872760772705,8.082628482952714e-5,0.00012899312423542142,0.025140946730971336,-0.1056596040725708,0.3363640606403351,-0.0004234401567373425,0.0013353334506973624,-0.3223470449447632,0.13946212828159332,-0.37691637873649597,0.12065070867538452,0.0009120323229581118,0.00026871278532780707,0.04517686739563942,0.014503410086035728,-0.022735636681318283,-0.023256823420524597,-0.10434740036725998,0.09224378317594528,-0.025558115914463997,0.3137315511703491,0.010488097555935383,0.19948755204677582,-0.2906142771244049,-0.17011761665344238,0.07217388600111008,0.25529634952545166,0.27560338377952576,-0.28344154357910156,0.1415167897939682,0.0009074927656911314,-0.20976467430591583,-0.029736094176769257,0.017586247995495796,0.00048037461237981915,0.12756769359111786,6.515719724120572e-5,0.052295222878456116,0.06711499392986298,0.09347176551818848,-0.002062395215034485,0.14822109043598175,0.00886355061084032,0.0014580386923626065,0.13469839096069336,-0.18949054181575775,0.02472829259932041,-0.2449725866317749,0.013315930031239986,0.13528022170066833,-0.07883841544389725,0.2627357542514801,0.054495055228471756,0.00026919713127426803,-0.1644545942544937,-0.14879824221134186,-0.0651298314332962,0.2546183466911316,0.09990990161895752,-0.17235325276851654,-3.995071892859414e-5,-0.09308154135942459,-0.055928461253643036,-0.34403038024902344,0.0012766435975208879,0.03852282837033272,0.24506808817386627,0.06780298799276352,-0.00665843253955245,-0.16271857917308807,-0.0009387602331116796,-0.14029847085475922,-0.18327057361602783,-0.06663170456886292,-0.010075683705508709,-0.08279736340045929,-0.23159410059452057,-0.20536689460277557,-0.31016263365745544,-0.15570653975009918,-0.003414687467738986,0.16537459194660187,0.02102437987923622,0.0013845071662217379,-0.022092338651418686,0.07776474952697754,-0.0011946855811402202,-0.17213816940784454,0.006183162797242403,0.3439325988292694,-0.11916842311620712,0.08692270517349243,0.026241622865200043,-0.0011521999258548021,-0.2082630842924118,-0.08463696390390396,-0.2842631936073303,0.10395463556051254,-0.09735799580812454,-0.03372679650783539,0.000859846652019769,0.00420136284083128,0.2161974161863327,7.999668014235795e-5,-0.13846996426582336,-0.0005088929319754243,0.7466784119606018,0.000595330260694027,-0.00033093622187152505,0.0005866554565727711,-0.21383440494537354,0.020732823759317398,-0.007444389164447784,0.24846342206001282,0.0009032817324623466,0.11653054505586624,0.01734410971403122,-0.1271330714225769,0.0006209203274920583,-0.13804835081100464,0.03708278387784958,0.037762247025966644,0.3549896478652954,0.022287938743829727,-0.08515601605176926,0.07821888476610184,-0.048163264989852905,0.0005337580223567784,-0.00037793858791701496,-0.2138737142086029,0.387693852186203,-1.0037256288342178e-5,-0.2513018846511841,-0.0010124633554369211,0.13791312277317047,-0.08436091989278793,0.016708122566342354,0.030165836215019226,-0.21121422946453094,0.2244584709405899,-0.1815892606973648,0.14630332589149475,0.31115201115608215,-0.13886769115924835,-0.2868613302707672,-0.0008070452022366226,-0.05570254102349281,-2.922717249020934e-5,0.016662385314702988,0.007086798548698425,-0.019611231982707977,0.027004573494195938,-0.044043418020009995,-0.0022849105298519135,0.0004228724865242839,-0.147350013256073,-0.11113689839839935,-0.290649950504303,0.015764782205224037,-0.16389243304729462,-0.01271448191255331,-0.025316545739769936,-0.14938846230506897,0.0009747011354193091,-0.06973539292812347,0.010959172621369362,0.030277766287326813,-0.28609970211982727,0.04911888763308525,-0.05071987211704254,0.03786787763237953,-0.02155751921236515,-0.013699683360755444,-0.3981575071811676,-0.12366925925016403,-0.08871365338563919,-0.22481152415275574,-1.175757461169269e-5,0.22691546380519867,-0.03784985467791557,-0.19408904016017914,-0.38949766755104065,-0.0024880608543753624,-0.21667718887329102,-0.18204520642757416,-0.0003778795071411878,-0.2465406358242035,0.00017395657778251916,-0.001956420484930277,-0.18217825889587402,0.07223597168922424,-0.00020528928143903613,-0.3160251975059509,0.00018759816884994507,-0.1097797378897667,-0.40294623374938965,-0.09333643317222595,0.08162575960159302,-0.02017844282090664,-0.14219459891319275,0.002892197109758854,-0.34643372893333435,0.03650611266493797,-0.4074777364730835,0.11693092435598373,0.147936150431633,-0.06741994619369507,0.0031662925612181425,0.0045985328033566475,-0.17276090383529663,0.007846860215067863,-0.15312816202640533,-0.0005122105940245092,-0.1346854269504547,-0.023509109392762184,-0.05873512476682663,-0.0002007332514040172,0.0006678570643998682,-0.0020558778196573257,-0.2670433521270752,0.32514891028404236,-0.30650705099105835,-0.005620832089334726,-0.0004077828780282289,-0.02161906473338604,-0.20256935060024261,0.029897762462496758,-0.26774343848228455,-0.21981531381607056,-0.0003660936781670898,0.0003127261297777295,-0.01981588453054428,-0.00026704012998379767,-0.20676855742931366,0.008791867643594742,-0.0009912613313645124,0.6708821654319763,8.174994582077488e-5,-0.048018574714660645,-0.17446741461753845,0.07172904908657074,0.07034409046173096,-0.14050954580307007,-0.11481694132089615,0.13306665420532227,-0.029113510623574257,-0.017893528565764427,0.41671040654182434,-0.006939900107681751,0.0004003314534202218,-0.0004286151670385152,-0.28280502557754517,-0.43643128871917725,2.8575368560268544e-7],[0.19095927476882935,0.08367633074522018,0.178848996758461,-0.15452229976654053,0.00027631191187538207,-0.34202367067337036,-0.39823687076568604,0.1303652822971344,-0.08138690888881683,0.00481643620878458,-0.0010769657092168927,-0.02481781505048275,-0.33631181716918945,0.3106658160686493,0.08576685935258865,0.06604162603616714,-0.10236205905675888,-0.029164133593440056,-0.32875457406044006,0.0006579136243090034,-0.4155726730823517,-0.02540755830705166,-0.06472441554069519,0.02883116342127323,0.1781049221754074,-0.00016333571693394333,0.01801554672420025,0.02625112421810627,-0.02759581245481968,-0.2734108567237854,-0.015574087388813496,0.009465109556913376,-0.01450072880834341,-0.0008466525468975306,-0.008822627365589142,-0.011757135391235352,0.14081406593322754,-0.018207266926765442,0.176536425948143,0.30388012528419495,0.06532956659793854,-0.10077297687530518,0.2818828821182251,0.010888464748859406,0.001402793568558991,-0.004487599711865187,-0.0002347756817471236,0.030195852741599083,-0.21182140707969666,0.07984203845262527,0.0007537658675573766,0.05378466472029686,-0.16319169104099274,0.1473645716905594,-0.0011353372829034925,0.06546205282211304,-0.08716350793838501,0.005355863831937313,0.0032364497892558575,7.964241376612335e-5,0.05260889604687691,0.03005427122116089,0.008654547855257988,0.17155811190605164,-0.00029696154524572194,-0.07948004454374313,0.17379635572433472,-1.970350422197953e-5,-0.22666697204113007,0.0035466121044009924,-0.01520620472729206,0.07162975519895554,-0.006506755016744137,-0.4911889433860779,0.06608197093009949,-0.05182885378599167,-0.14581046998500824,0.0020130123011767864,-0.21716353297233582,-0.014224872924387455,-0.10739775747060776,-0.28046518564224243,-0.0007759836153127253,0.08423590660095215,0.3990175426006317,-0.29722878336906433,-0.08436335623264313,0.10240588337182999,-0.000221523194340989,0.06496144086122513,-0.0003181639185640961,-0.025784943252801895,0.07184098660945892,0.40632128715515137,5.906840669922531e-7,-0.17640511691570282,-0.0009168153046630323,0.000704720732755959,-0.02835245616734028,-0.00413560401648283,0.002586753573268652,0.0028219339437782764,0.1005556508898735,0.29989054799079895,0.0003563548962119967,-0.004366578999906778,-0.0060266973450779915,-0.011039475910365582,-0.9516481161117554,0.006212199106812477,0.019565211609005928,-0.030408799648284912,-0.11066704988479614,0.1224949061870575,0.002512623555958271,-0.22055305540561676,0.09170494973659515,-0.0031554035376757383,0.07162181288003922,0.00019864621572196484,0.0066176350228488445,-0.09097795188426971,0.18750636279582977,0.023349683731794357,0.1644887924194336,-0.03571632504463196,-0.023259449750185013,-0.4340156316757202,0.012773185968399048,0.059584181755781174,-0.053404174745082855,-0.21907222270965576,-0.009183530695736408,-0.00016306337784044445,-0.1480018049478531,0.25738248229026794,0.024677161127328873,-0.06849248707294464,0.05963320657610893,0.01080296840518713,0.09070749580860138,0.03223971277475357,0.09036976844072342,0.12899617850780487,-0.3747510015964508,-0.015622499398887157,-0.16334877908229828,0.00404900498688221,0.026644965633749962,0.34629303216934204,0.0039749895222485065,-0.009883102029561996,0.019406862556934357,0.2701515853404999,-0.03873090818524361,0.15108074247837067,0.1565491110086441,0.02524237334728241,-0.03870341554284096,-0.07796797156333923,0.012668604031205177,0.003157301340252161,0.06592395156621933,0.0038641851861029863,-0.24301260709762573,0.00026491773314774036,-0.0031525082886219025,0.27473434805870056,0.21412111818790436,-0.0019570256117731333,0.003306400030851364,-0.003740607528015971,0.0155109828338027,0.009405589662492275,0.022155575454235077,-0.005480670835822821,-0.2620094120502472,-0.010246286168694496,0.18070156872272491,0.030685000121593475,-0.121403269469738,-0.01824539713561535,-0.16460555791854858,-0.011194639839231968,0.15061736106872559,0.0021783611737191677,-0.07938093692064285,0.03256830945611,-0.0701247826218605,-0.04926761984825134,0.024891488254070282,-0.25374719500541687,-0.08903688937425613,0.2188323736190796,0.06810365617275238,0.32649433612823486,-0.02534358575940132,-0.17892016470432281,-0.008753950707614422,-0.03587791323661804,0.06133562698960304,0.009319107048213482,0.28586897253990173,-0.01063014566898346,-0.05428114905953407,5.156688712304458e-5,0.04056280478835106,0.031065475195646286,-0.0023994946386665106,0.009234418161213398,0.16809137165546417,0.09804394096136093,-0.015365475788712502,-0.12184755504131317,-0.002128191292285919,-0.17736642062664032,-0.019695371389389038,0.04666845500469208,-0.0007110247388482094,0.20428787171840668,-0.08996251225471497,-0.1093824952840805,-0.0017833163728937507,-0.13258381187915802,-0.050236061215400696,-0.007833476178348064,0.01831052266061306,0.2027413547039032,-0.022606123238801956,-0.0007577057112939656,-0.0010193886701017618,-0.001771147595718503,-0.08850985765457153,-0.12076278030872345,-0.28157365322113037,-0.1859074980020523,0.28794026374816895,-0.1262766569852829,-0.6437563300132751,3.618977279984392e-5,-0.2789366543292999,-0.0024588722735643387,0.13491381704807281,0.26347559690475464,0.0015296946512535214,0.03914429247379303,-0.13569489121437073,0.013386137783527374,0.019452324137091637,0.0022968908306211233,0.0003887158236466348,0.0932963639497757,-0.0004042485961690545,-0.11152401566505432,-0.0012346472358331084,0.12768612802028656],[-0.06663601845502853,0.00015236194303724915,0.003372287144884467,0.2560913562774658,0.0655893012881279,0.5385268330574036,0.020552856847643852,0.09080222994089127,0.07027096301317215,-0.23917268216609955,-0.08645661920309067,-0.08388728648424149,0.015387159772217274,-0.002087157918140292,0.17179863154888153,0.23712649941444397,0.04804346710443497,0.13851220905780792,-0.2912834882736206,0.01681063137948513,-0.16866938769817352,0.008539878763258457,-0.1633070558309555,-0.11964106559753418,-0.2754093110561371,-0.3330834209918976,-0.2647773027420044,0.015746841207146645,-0.11178458482027054,-0.13250663876533508,0.011147303506731987,-0.052286118268966675,-0.08372096717357635,-0.32047662138938904,0.1629752516746521,0.0008330144919455051,-0.027363892644643784,0.11635976284742355,0.1515440046787262,0.23053814470767975,0.0004520982038229704,-0.13721346855163574,0.03892279416322708,0.20294994115829468,0.005774748511612415,-0.019029702991247177,-0.023468267172574997,-0.12242244929075241,0.002085295505821705,-0.017141910269856453,-0.03816702589392662,-0.058287229388952255,-0.2608995735645294,0.0011888996232300997,0.12473372370004654,0.001926150289364159,-0.016100093722343445,-0.1219315454363823,-0.011853906325995922,-0.291733980178833,-0.0003557750897016376,-0.002685670740902424,0.06380140781402588,0.028947297483682632,-0.4241434931755066,0.21811610460281372,0.035632647573947906,-0.0008375071920454502,0.011855894699692726,-0.1417449414730072,-0.08373478055000305,-0.00024855302763171494,-0.025215964764356613,-0.25999343395233154,0.010498229414224625,0.1597607433795929,0.09951598197221756,-0.014070199802517891,-0.050787001848220825,0.031748779118061066,0.044483430683612823,0.0007508302223868668,0.14641036093235016,-0.0984484851360321,-0.07337616384029388,-0.09219187498092651,-0.003884429344907403,-0.08670375496149063,-0.11628632992506027,0.012718863785266876,0.07065033167600632,0.1396840661764145,0.003464451292529702,-0.16663502156734467,-0.03898011893033981,0.21897760033607483,-0.05787741765379906,0.06156334653496742,0.14153416454792023,-0.028906751424074173,-0.16768482327461243,0.001191425253637135,-0.02398322895169258,-0.025512613356113434,-0.21314045786857605,-0.2251565158367157,0.14397192001342773,-0.24391819536685944,0.04881582409143448,-0.03257304057478905,0.1936621218919754,0.12417687475681305,-0.06151089072227478,-0.02827213890850544,0.05339370295405388,-0.0008640402811579406,0.10773367434740067,-0.3141886591911316,0.0053388699889183044,-0.2595818042755127,-0.013660093769431114,0.04288371279835701,-0.09548728913068771,-0.0015025910688564181,-0.30274948477745056,0.005594730842858553,0.1415092498064041,-0.0044298297725617886,0.0001670229685259983,-0.01210185419768095,0.007344204932451248,-0.09831880033016205,-0.12768380343914032,-0.0816020742058754,-0.2047283798456192,-0.003657521679997444,-0.031544279307127,0.03507601469755173,-0.0698353722691536,0.017210042104125023,0.014005384407937527,0.11380451917648315,0.04469744488596916,0.26322808861732483,0.00015016089309938252,-0.011691045947372913,0.022708920761942863,0.015516952611505985,0.0951991081237793,0.029765527695417404,0.0681653693318367,0.07259149849414825,0.22410722076892853,0.38796350359916687,0.04037633165717125,0.005667724646627903,0.005323092453181744,-0.3422773480415344,0.11291657388210297,0.0337749607861042,-0.29280394315719604,0.024856405332684517,0.1507263481616974,0.05296255275607109,-0.0007035927847027779,0.0852411538362503,0.27304109930992126,-0.0076853553764522076,0.012637533247470856,0.0004994541523046792,-0.06714481115341187,0.11785393953323364,0.024224134162068367,0.002232197904959321,0.2662743031978607,0.0003853265952784568,0.13914544880390167,0.18589022755622864,-0.002240037778392434,-0.009997445158660412,-0.01873338222503662,0.022843288257718086,-0.1028977707028389,0.31186744570732117,0.09165552258491516,0.10799545794725418,0.02611829899251461,0.003562456928193569,0.12605521082878113,-0.058635108172893524,0.0018519182922318578,-0.08345665037631989,0.01989728957414627,4.362690742709674e-5,0.0015244695823639631,-0.0005582868470810354,-0.19348227977752686,-0.2279372215270996,0.14835840463638306,0.03178798034787178,-0.12032294273376465,0.38677433133125305,0.3056770861148834,-0.19398775696754456,0.007883715443313122,0.293977826833725,0.1291302740573883,-0.02172754518687725,-0.012162244878709316,0.05222488194704056,-0.06496590375900269,0.07916253060102463,0.12971661984920502,0.018508173525333405,-0.012442831881344318,-0.026445552706718445,0.0005870332242920995,0.004997377749532461,0.0006780046969652176,-0.0005801403895020485,0.03961143642663956,0.08909080177545547,-0.30198192596435547,0.135056272149086,-0.01058942824602127,-0.11115651577711105,-0.06826519966125488,0.0034186881966888905,0.042682819068431854,-0.2872486114501953,-0.26037347316741943,0.093562550842762,0.015960155054926872,0.032936662435531616,-0.004409078508615494,-0.0050250934436917305,-0.0782243013381958,-0.16583961248397827,-0.1682819128036499,-0.0027704238891601562,-0.1619156301021576,0.007234012708067894,-0.040508754551410675,0.005824460182338953,0.06997629255056381,0.00010914575250353664,-0.0911116749048233,0.011565910652279854,0.03633492439985275,-0.4904191195964813,-0.02121906541287899,-0.004598654340952635,0.033467672765254974,-0.1266097128391266,0.0007314511458389461,-0.00063996238168329],[0.0578906424343586,0.002181446645408869,-0.0173821821808815,-0.0007464384543709457,-0.020623624324798584,-0.17227651178836823,0.22937709093093872,0.001977801090106368,0.09661491215229034,0.13776397705078125,0.0525992326438427,-0.41381826996803284,0.2958762049674988,-0.3229467272758484,0.3164859116077423,0.14871340990066528,0.3114436864852905,-0.012579702772200108,-0.00879058986902237,0.00016997694910969585,0.011022635735571384,-0.14035452902317047,0.24585561454296112,0.0047216289676725864,-0.43152138590812683,0.06149343401193619,0.16645994782447815,0.05802052468061447,0.10228867083787918,0.004140709992498159,8.003367111086845e-5,-0.11387237906455994,-0.0015939453151077032,0.17611846327781677,0.003363278927281499,-0.005209452006965876,-0.3229197859764099,0.04188993573188782,0.15831683576107025,0.08891479671001434,0.001223099767230451,-0.23829667270183563,-0.29402482509613037,0.08750328421592712,-0.00035686788032762706,-0.18204957246780396,0.024011220782995224,0.002061329083517194,0.06154270097613335,-0.03147662803530693,-0.07476714998483658,0.0006567445816472173,-0.018535424023866653,-0.02948714978992939,0.07090900093317032,-0.11381004005670547,0.0006248193676583469,0.2355949431657791,0.0007676780805923045,-0.0016812277026474476,7.460063352482393e-5,-0.00011478073429316282,0.1182689368724823,0.1286473572254181,0.1250198781490326,0.09105770289897919,0.0006272252649068832,-0.01693843863904476,0.1614413559436798,0.018074162304401398,-0.017069939523935318,-0.014741901308298111,-0.19636170566082,-0.22977010905742645,0.0008331209537573159,0.007849208079278469,-0.07782307267189026,0.002071813214570284,0.06292013823986053,-0.0002895703655667603,0.11131394654512405,0.1168825551867485,0.016862064599990845,-0.04878681153059006,-0.6014043688774109,0.10685420036315918,-4.763868491863832e-5,-0.17778244614601135,-0.4040800929069519,-0.10807794332504272,0.015476825647056103,0.005523487459868193,-0.02167787216603756,-0.7205374836921692,-0.0013090086868032813,0.25338608026504517,0.12577787041664124,-0.17921189963817596,0.0716584175825119,-0.0018496275879442692,-0.4174298048019409,-0.05616513639688492,0.0019190042512491345,-0.47443193197250366,0.04542822390794754,0.011018560267984867,-0.00791188981384039,-0.04321911558508873,0.1852552741765976,-0.0011611098889261484,-0.00014502830163110048,0.00017937102529685944,-0.07258596271276474,-0.13166165351867676,-0.09179455786943436,0.029460875317454338,-0.21484528481960297,0.06649357825517654,-0.000806600961368531,0.1396266520023346,-0.003118538996204734,0.049496572464704514,-0.18881553411483765,0.022160127758979797,0.015574691817164421,-0.008024800568819046,-0.007969681173563004,-0.0014745371881872416,0.019219055771827698,-0.015089411288499832,-0.0014267000369727612,0.09229565411806107,0.2905883491039276,-0.1655355542898178,-0.4217551648616791,-0.2717524766921997,-0.02385687455534935,0.13565760850906372,-0.06157172843813896,0.005480153486132622,-0.1779220849275589,0.09433088451623917,-0.177655428647995,0.11344752460718155,0.5737676024436951,-0.11909767240285873,0.056668441742658615,-0.0015659347409382463,-0.06833717226982117,-0.3818299472332001,0.037170570343732834,0.04123790189623833,-0.000598601414822042,0.1506267786026001,-0.09250003099441528,-0.00806349329650402,-0.3116919696331024,0.009090082719922066,-0.00315642636269331,0.010193082503974438,-0.35688868165016174,-0.0467834435403347,-0.1648353785276413,0.0015037516131997108,0.20604132115840912,0.0031422441825270653,0.010685456916689873,-0.16164489090442657,-0.29261642694473267,0.10643454641103745,-0.0012547547230497003,-0.1631779670715332,0.007140178699046373,-0.007783688139170408,0.0103090675547719,0.06924779713153839,0.14915284514427185,0.3273795545101166,0.014007879421114922,-0.0732058733701706,0.0631217211484909,-0.0034924871288239956,0.08020501583814621,-0.00013598651275970042,-0.30939674377441406,0.00534454733133316,0.045198649168014526,-0.0028859341982752085,0.02311795949935913,-0.21086405217647552,0.008037145249545574,-0.0034838493447750807,0.004697991535067558,-0.06899057328701019,-0.0014852096792310476,-0.48370394110679626,-0.1774241179227829,-0.1496807038784027,0.004257712047547102,-0.023086486384272575,0.022930610924959183,-0.008767890743911266,0.007256688550114632,-0.07928669452667236,0.007588028907775879,0.05689364671707153,-0.08884557336568832,-0.11682756245136261,0.0001459859195165336,0.042373787611722946,0.2826637029647827,-0.15932610630989075,-0.0008342150831595063,-0.00664139399304986,-0.10462818294763565,0.11044259369373322,0.0026810637209564447,0.023138199001550674,-0.24779677391052246,0.0002968308108393103,-0.0004664740990847349,0.016187874600291252,0.03111877292394638,0.09966105222702026,-0.025507476180791855,-0.020464057102799416,-0.008203906938433647,0.21859696507453918,0.0004962566308677197,0.1918676793575287,0.1210559830069542,0.14313668012619019,0.04874967038631439,-0.01712826080620289,0.06047256663441658,0.03345782309770584,-0.21190980076789856,-0.00029129371978342533,0.17225907742977142,-0.2960047721862793,-0.3301919400691986,0.0024605519138276577,-0.17084026336669922,0.015541371889412403,0.06836263090372086,-0.010134704411029816,0.0006293295882642269,-0.01866058260202408,0.007572048343718052,0.15034173429012299,-0.16735577583312988,-0.1559530645608902,0.38322699069976807,0.010817478410899639,0.06637552380561829,-0.04385942220687866],[0.025211330503225327,0.1144939661026001,0.0003694839251693338,0.04022175446152687,0.1480337232351303,-0.027221551164984703,0.017396394163370132,-0.0030799845699220896,-0.0471026785671711,0.18895404040813446,-0.09842769801616669,-0.19997237622737885,-0.18897956609725952,-0.3328576385974884,0.12518104910850525,0.03976470232009888,0.18687768280506134,-0.04131490737199783,0.21067842841148376,0.012315829284489155,0.35650989413261414,-0.17299145460128784,-0.3070346415042877,-0.01856793463230133,0.0007237984682433307,0.21488603949546814,0.21153314411640167,-0.1315862387418747,-0.08240053057670593,-0.1144118383526802,0.14291180670261383,-0.06528541445732117,-0.009244944900274277,0.16253751516342163,-0.020013632252812386,0.14564688503742218,-0.0007187256123870611,-0.12719185650348663,0.00022744221496395767,0.20520007610321045,4.434189759194851e-5,-0.09763416647911072,-0.31254854798316956,-0.07498883455991745,-0.02996925450861454,-0.2334175705909729,0.0005310475244186819,-5.406836135080084e-5,-0.101181261241436,0.04134870693087578,-0.04800774157047272,0.013033568859100342,-0.013031859882175922,0.05140385776758194,-0.02254323475062847,0.0357498973608017,0.2781705856323242,0.27803751826286316,0.11645027250051498,0.08030184358358383,0.0005834619514644146,0.10852580517530441,-0.017689300701022148,-0.08966191112995148,0.08099277317523956,-0.00896239560097456,0.1574336290359497,0.0063271066173911095,-0.25993937253952026,-0.049617402255535126,-0.029928911477327347,0.08839603513479233,-0.013053368777036667,-0.253596693277359,0.026455843821167946,-0.06550228595733643,-0.09824244678020477,0.02383611351251602,0.039848145097494125,0.0703728124499321,0.04729815945029259,0.14120551943778992,-0.009482217021286488,0.04552898183465004,-0.2583232820034027,-0.058247532695531845,0.07249964773654938,-0.0782618522644043,-0.007517240475863218,-0.07204518467187881,-0.06446711719036102,-0.14795361459255219,0.1036357507109642,-0.15627552568912506,0.04119063541293144,-0.17708513140678406,0.1851075440645218,0.03937434405088425,-0.011246777139604092,-0.12345226109027863,0.025223636999726295,0.004032698925584555,0.004445626400411129,-0.12445248663425446,-0.0003455323458183557,-0.005860854871571064,0.1728743612766266,0.0005674035637639463,-0.0021843970753252506,-0.20073918998241425,-0.08980964869260788,-0.0030561243183910847,0.05945255979895592,0.0006127104279585183,-0.10354302078485489,-0.00031336850952357054,-0.014462962746620178,-0.09666337072849274,0.05565320700407028,0.10256900638341904,-0.00024341302923858166,-0.0052163866348564625,0.03912702947854996,0.00940589141100645,-0.14255096018314362,-0.001960806082934141,-0.025640729814767838,-0.37834540009498596,0.015508238226175308,-0.0757828950881958,-0.06462903320789337,0.07021279633045197,-0.37306347489356995,-0.08137496560811996,-0.3025144338607788,0.0002349284040974453,-0.05684792995452881,0.13618387281894684,-0.05193854495882988,-0.006543168798089027,-0.03751485422253609,-0.011846644803881645,0.02780955098569393,0.008305927738547325,-0.41159412264823914,-0.0120691591873765,-0.009780341759324074,-0.04028071463108063,0.0567464642226696,-0.3429186940193176,0.004067528992891312,-0.18124742805957794,-0.42466363310813904,0.08383025228977203,0.07689844816923141,-0.000928022782318294,0.07827556878328323,0.1051550805568695,-0.0533207468688488,0.02261192351579666,-0.21313929557800293,0.09645569324493408,0.12277776747941971,0.02507985569536686,0.14291450381278992,0.10307479649782181,-0.025162821635603905,-0.4033482074737549,-0.029943324625492096,0.308817982673645,-0.1844361275434494,0.04247644916176796,-0.0019129285356029868,0.002150517189875245,0.15655630826950073,0.04566492140293121,0.078664131462574,0.2992674708366394,0.41504746675491333,-0.03170130401849747,-0.0043531619012355804,0.06892669945955276,0.41001665592193604,-0.17832688987255096,0.001444164547137916,0.005442213732749224,0.3284881114959717,0.1838705986738205,0.04289015755057335,-0.0034134930465370417,0.030331086367368698,-0.23118437826633453,-0.12851782143115997,-0.0012815645895898342,-3.120152905466966e-5,-0.2037516087293625,0.2055748552083969,0.03038657084107399,0.1466647833585739,-0.0457616001367569,0.19629542529582977,-0.29981979727745056,0.29804301261901855,-0.0056546274572610855,-0.1046835258603096,-0.0008563773590140045,0.10824619233608246,0.002745209261775017,0.08636463433504105,-0.061226747930049896,-0.12360788136720657,-0.0001828491222113371,-0.003540106350556016,0.005302106495946646,-0.1851542443037033,0.0035802097991108894,-0.055235374718904495,0.06466443836688995,-0.0046010310761630535,0.050792742520570755,0.08264525979757309,0.041017185896635056,-0.006397302262485027,0.009090032428503036,0.14353704452514648,0.07030244916677475,-0.035623494535684586,-0.08309750258922577,-0.006130849942564964,0.18829163908958435,0.2162172496318817,-0.15678410232067108,-0.1032533049583435,0.10991586744785309,-0.1875171959400177,0.1552005112171173,-0.28757333755493164,-0.0036883081775158644,-0.08439096808433533,-0.12735328078269958,-0.24437925219535828,0.177158921957016,0.0050178589299321175,-0.040622882544994354,-0.2636144757270813,0.07154069095849991,-0.0844767764210701,-0.028123529627919197,0.047954022884368896,-0.04816659912467003,0.0077283671125769615,0.004044768866151571,-0.361197829246521,0.1671029031276703,-0.015249527059495449,-0.023026786744594574],[0.0013645844301208854,0.2259959727525711,-0.0021312276367098093,0.01907449960708618,-0.08656518906354904,0.3263533413410187,-0.03680562227964401,0.0006290849414654076,0.05912762135267258,0.10281427949666977,0.0043324981816112995,0.04215468093752861,0.1547975242137909,0.3133161962032318,-0.12783314287662506,0.03912442550063133,0.35911014676094055,-0.0014129332266747952,0.02676248736679554,0.011964277364313602,-0.1514802873134613,0.0047695450484752655,-0.009137580171227455,0.0017834267346188426,0.508208692073822,0.15813732147216797,-0.0050247288309037685,0.07002300769090652,0.001175877288915217,0.12176989763975143,-0.08266101777553558,0.04333117604255676,-0.028500376269221306,0.09981878101825714,-0.0015394818037748337,0.07044146209955215,-0.00018672595615498722,0.15748436748981476,-0.14883731305599213,-0.009685610421001911,-0.11658886075019836,-0.01225143764168024,0.139081671833992,-0.0452737919986248,0.1244971975684166,0.036465734243392944,0.003582768142223358,0.19848257303237915,0.007456953637301922,-0.0073482743464410305,0.02061864174902439,0.0927753672003746,-0.1856352984905243,-0.05989982932806015,0.03148183971643448,0.0004492609587032348,0.04069766029715538,0.01426637452095747,-0.04620463401079178,0.17107225954532623,-0.3236391544342041,-0.02790708653628826,0.21081702411174774,0.23958061635494232,0.11339355260133743,0.04011128842830658,-0.0359172523021698,-0.0016215364448726177,0.010700473561882973,0.13767364621162415,-0.0006070535164326429,-0.0010923416120931506,-0.0022894502617418766,-0.34732773900032043,0.050006378442049026,0.014985809102654457,0.1194441169500351,-0.03467140719294548,0.044165655970573425,0.0709003284573555,0.060190800577402115,0.058096688240766525,0.013931036926805973,0.07255563139915466,0.4077591896057129,-0.01615825854241848,0.0018290638690814376,0.0798749029636383,0.0026058978401124477,-0.10478289425373077,0.060394417494535446,-0.004921030718833208,0.050418902188539505,0.5517023801803589,0.01564352586865425,0.3243616819381714,-0.00135712418705225,0.00781946163624525,0.10177817195653915,-0.07840810716152191,-0.0740119218826294,0.04606997221708298,-0.004780832212418318,0.3353853225708008,0.002257535234093666,0.008129475638270378,-0.15051041543483734,-0.010079235769808292,-0.16955971717834473,0.14053604006767273,0.07131879776716232,-0.0035303409676998854,0.12415799498558044,0.013041271828114986,-0.015344446524977684,-0.0011394876055419445,-0.06486236304044724,-0.18477199971675873,0.1843741238117218,0.16505293548107147,0.0014744853833690286,-0.009023495949804783,0.0001416200102539733,-0.33367520570755005,-0.031597159802913666,0.036563415080308914,-0.030520044267177582,0.10979054868221283,0.17971579730510712,0.02820318005979061,0.05783180519938469,0.03743584454059601,-0.029030192643404007,-0.0005090121412649751,-0.22325481474399567,-0.1875617951154709,0.012617361731827259,0.19362621009349823,0.025385651737451553,-0.0002964437589980662,0.20055410265922546,-0.008601782843470573,0.002876811660826206,-0.001489052432589233,-0.01083154883235693,-0.03305967524647713,0.057281121611595154,-0.057519055902957916,0.03412624076008797,0.27888673543930054,-0.17913614213466644,0.09118399024009705,0.08445107191801071,-0.06498131155967712,0.02917494624853134,0.00030027577304281294,0.0005490725161507726,0.1761881709098816,0.027933156117796898,0.1519736498594284,0.06993906199932098,-0.00028866599313914776,-0.0035711254458874464,0.0018090964294970036,0.0459594689309597,0.15635374188423157,-0.004617210477590561,0.3456098735332489,-0.09455347061157227,0.08608752489089966,0.18549992144107819,0.03521032631397247,-0.3254169225692749,0.029012642800807953,-0.1854824274778366,0.18733307719230652,0.009123914875090122,0.009161689318716526,-0.19851884245872498,-0.005221961531788111,-0.0074674589559435844,-0.04964460805058479,0.04153316840529442,-0.3490763008594513,-0.01642737351357937,0.10799188911914825,-0.013311250135302544,0.0007876743911765516,0.13213461637496948,-0.011274183169007301,0.27948302030563354,-0.3603178858757019,0.14381043612957,-0.019179532304406166,-0.07475274801254272,0.42354413866996765,-0.1809023916721344,-0.01858927123248577,0.004590604919940233,-0.017668848857283592,-0.00475468160584569,0.011863063089549541,-0.1383248120546341,-0.002481084782630205,0.006147915497422218,-0.1581612527370453,-0.19964133203029633,0.0033858551178127527,0.03619221970438957,-0.02488706260919571,0.20288260281085968,-0.04256816208362579,0.00536813959479332,0.05793546512722969,0.07456537336111069,0.054125651717185974,0.008397063240408897,0.177713081240654,-0.12857931852340698,-0.0012699541402980685,-0.055811211466789246,0.15294679999351501,-0.05910942703485489,0.0505177266895771,-6.544677307829261e-5,0.014386001043021679,-0.002685609506443143,0.24212484061717987,0.06300501525402069,0.17416352033615112,0.11977443099021912,0.0015934427501633763,0.4639962911605835,0.17809852957725525,-0.10447478294372559,0.28271380066871643,0.36157360672950745,-0.0005638750153593719,0.05793040245771408,-0.0684005543589592,-0.014258479699492455,-0.024126354604959488,0.0007094557513482869,0.12510289251804352,0.1825016736984253,0.03750058636069298,-0.05961887910962105,0.03046979382634163,0.022631043568253517,-0.11332733929157257,-0.10115385055541992,-0.00010979279613820836,0.08772942423820496,0.014778212644159794,0.0009601328638382256,-0.0006989252287894487],[-0.041484538465738297,0.1617315113544464,0.07829564809799194,-0.0022535985335707664,-0.001431019278243184,-0.07856191694736481,0.000595024845097214,1.0551718473434448,0.1599256694316864,0.003887758357450366,0.019230198115110397,-0.08979702740907669,-0.101248599588871,0.22296017408370972,-0.005504060070961714,-0.010758250951766968,0.02203584462404251,-0.0007890670676715672,0.5359049439430237,0.017079045996069908,-0.0013237331295385957,0.2576253116130829,-0.006153747905045748,0.038681190460920334,0.0012434367090463638,0.0006669398280791938,-0.027883633971214294,0.0006376398960128427,0.001042176503688097,0.1774788796901703,-0.003341084346175194,0.07373519241809845,-0.0005646819481626153,-0.049318645149469376,0.030107123777270317,0.06306321173906326,-0.0003401136491447687,-0.10626397281885147,-0.0007776545244269073,-0.11402102559804916,-0.363339900970459,-0.006234169006347656,0.2806570827960968,-0.011476939544081688,-0.00348388752900064,0.12179992347955704,0.003145236289128661,-0.03403759375214577,0.01125212013721466,0.07802677154541016,0.01875544711947441,-0.07036889344453812,-0.06539244204759598,0.011249358765780926,-0.024823002517223358,0.07780788093805313,0.03103554993867874,-0.0009462913731113076,0.007702680770307779,-0.05441552773118019,-0.6828920245170593,0.029763584956526756,-0.21283994615077972,-0.06930840015411377,-0.04797101765871048,0.03483699634671211,-0.010680255480110645,0.005419273395091295,-0.004277162253856659,-0.0006147092208266258,-0.07650129497051239,0.03337322548031807,-0.012422144412994385,-0.3327668309211731,0.010924035683274269,-0.005370620172470808,0.0020836880430579185,0.013181344605982304,0.003685923060402274,-0.0053327553905546665,0.004153877962380648,0.009420576505362988,-0.0029663327150046825,0.012749670073390007,0.07557334005832672,-0.10690575838088989,-0.0025170212611556053,0.08527997881174088,0.05866328999400139,-0.08540628105401993,-0.029311755672097206,0.012592933140695095,0.0011947083985432982,0.020431388169527054,0.19264598190784454,-0.27953484654426575,0.0005493821809068322,0.006240929011255503,0.0179020706564188,-0.08832240849733353,-0.009340726770460606,0.08386772125959396,0.09487619251012802,0.0007101520313881338,0.0007756522973068058,0.009489673189818859,0.007018745876848698,0.137921541929245,0.21577486395835876,0.0558389350771904,-0.03915009647607803,-0.010907821357250214,0.24312858283519745,0.05003581941127777,0.013611813075840473,0.008975474163889885,0.03010055236518383,-0.004116526339203119,0.013233272358775139,-0.11518881469964981,-0.01612355373799801,0.01087383832782507,-0.002338527701795101,-0.3574661612510681,0.02340003475546837,0.014874801971018314,0.021240703761577606,0.047304362058639526,0.40116554498672485,0.03704236075282097,0.11486959457397461,0.0015694150933995843,0.0022713809739798307,0.16652812063694,-0.3065820336341858,-0.0028922115452587605,-0.0005427287542261183,-0.059678222984075546,0.051077067852020264,0.1541408747434616,-0.03359997645020485,-0.036265477538108826,0.024748073890805244,0.008689903654158115,0.05177644267678261,-0.03361208364367485,-0.013897484168410301,-0.21685901284217834,-0.00102989433798939,0.1699981689453125,-0.11520778387784958,-0.0012850714847445488,-0.20916233956813812,-0.4646166265010834,-0.013784324750304222,0.09396283328533173,0.002776370383799076,-0.13298535346984863,0.04209217429161072,0.034289125353097916,0.37198078632354736,-0.015451615676283836,-0.003842498641461134,-0.016767384484410286,3.469034709269181e-5,0.2263304889202118,-0.028045007959008217,0.0018089392688125372,-0.0021284720860421658,0.0024332560133188963,-0.0039584944024682045,-0.0010628767777234316,-0.6849236488342285,0.004469484090805054,-0.1975168138742447,0.025021471083164215,0.017914144322276115,0.014552590437233448,0.2885642647743225,0.052206315100193024,-0.028714478015899658,0.005247247405350208,-0.10854540020227432,-0.0036227242089807987,-0.0007248228066600859,0.010708959773182869,6.612303695874289e-5,0.04803580045700073,-0.0003099283785559237,0.0089256651699543,0.6359189748764038,-0.18924003839492798,0.16674816608428955,0.00669888174161315,0.12212038785219193,0.03443588316440582,0.04708024859428406,-0.29923173785209656,0.05604304373264313,0.16191981732845306,0.016740528866648674,0.12454966455698013,-0.1494225710630417,-0.1235639676451683,0.008145290426909924,-0.00166672735940665,0.045508917421102524,0.11705010384321213,-0.09209633618593216,0.016652144491672516,-0.11519627273082733,-0.03236255794763565,0.0010146083077415824,0.00010651542106643319,0.054903365671634674,0.01123981736600399,0.011880872771143913,0.024668678641319275,0.019292153418064117,-0.3610362410545349,-0.09361037611961365,0.020035259425640106,0.02875189669430256,-0.01022686529904604,0.2357615828514099,0.09467584639787674,-0.1361326277256012,-0.4041583836078644,0.09244725853204727,-0.1694982647895813,-0.07901393622159958,-0.0414908230304718,0.3882288932800293,0.02012568712234497,0.00016789067012723535,0.024637773633003235,0.12452518939971924,0.07769409567117691,-0.00017578911501914263,0.0001960247609531507,-0.0015939503209665418,-0.0057992651127278805,7.413918501697481e-5,-0.28435197472572327,0.22102899849414825,-0.0007496369653381407,0.04761084169149399,0.004941833671182394,0.004562603309750557,-0.08232701569795609,-0.0005509523907676339,0.08611337840557098,-0.10645415633916855,0.0020551264751702547,0.05755767226219177,0.047068506479263306],[-0.07980784773826599,-0.000765581033192575,0.014196602627635002,0.012156433425843716,-0.010421079583466053,-0.24934105575084686,0.12136546522378922,-0.08174985647201538,-0.0006307318690232933,0.4563603699207306,-0.0008148278575390577,0.019163375720381737,-0.035682450979948044,-0.08040684461593628,-0.05774562433362007,-0.06343711912631989,-0.14099913835525513,0.0010275517124682665,0.3804396092891693,0.06850365549325943,0.19413118064403534,0.10590720921754837,0.005212048534303904,0.0003304278361611068,-0.05007343366742134,0.39681699872016907,0.3398633301258087,-0.021328521892428398,0.00011602112499531358,0.002841221634298563,0.07185987383127213,0.0003011651278939098,0.0028827255591750145,0.5897547602653503,-0.044006895273923874,0.34485581517219543,0.07516837120056152,0.0018854305380955338,-0.08669250458478928,-0.07737330347299576,-0.1308697909116745,0.12021229416131973,-0.025438759475946426,0.0005699075991287827,0.01980813406407833,0.4494524598121643,0.0017335681477561593,0.18758004903793335,0.0015490627847611904,0.000721246877219528,-0.02027956210076809,-0.0027347400318831205,0.023318707942962646,-0.0018600436160340905,0.0033747816924005747,-0.034589316695928574,0.13844846189022064,-0.317537784576416,0.00307291466742754,0.006592618301510811,-0.11820991337299347,0.009789428673684597,-0.014637508429586887,-0.004621675703674555,0.27571240067481995,0.026383867487311363,-0.016050146892666817,-0.023127233609557152,-5.871097891940735e-5,0.05777128040790558,-0.013654367066919804,-0.0017738427268341184,-0.014830218628048897,-0.028221096843481064,0.002636576537042856,-0.0003078072040807456,0.0031149014830589294,-0.0005048377206549048,-0.02478751353919506,-0.003089813282713294,-0.008443105034530163,0.0014033326879143715,-0.004092907998710871,0.09307257831096649,-0.05392296239733696,-0.035610001534223557,0.002157436916604638,0.0004113806935492903,0.0017061000689864159,-0.1023898497223854,-0.05959001183509827,0.018655812367796898,-0.008736235089600086,-0.04728683829307556,-0.07427970319986343,-0.11406106501817703,0.3775201439857483,0.0013295402750372887,0.008749101310968399,-0.0703720971941948,-0.03415833041071892,0.04909180477261543,0.18506184220314026,-0.1974453330039978,0.016052233055233955,0.0012325386051088572,0.004304373171180487,0.013349132612347603,0.012479693628847599,-0.0021793602500110865,-0.004166077822446823,0.04725106433033943,0.00817119050770998,-0.05773048847913742,0.19955594837665558,0.006954464595764875,0.00015004468150436878,-0.01218779943883419,0.07008060067892075,0.40015241503715515,-0.09445156902074814,-0.0010751913068816066,-0.024413878098130226,0.0002357427147217095,0.10193604975938797,0.07020080089569092,0.05859464779496193,-0.08954710513353348,0.002745466073974967,-0.011559869162738323,0.02003101259469986,0.038062356412410736,0.00011772089783335105,0.004679931327700615,0.15691813826560974,0.0001352382096229121,-0.00837782770395279,0.014528768137097359,-0.003183200489729643,-0.01202921848744154,-0.04496792331337929,-0.00752276973798871,0.03249363228678703,0.00949623342603445,-0.01808844693005085,0.18285955488681793,-0.03015275113284588,-0.07890477031469345,0.07510025054216385,-0.0737239345908165,0.00865818839520216,0.00843327958136797,0.01848992332816124,-0.1463232934474945,0.055015403777360916,0.00432606739923358,0.07424043118953705,0.5029853582382202,0.0016961493529379368,0.11847970634698868,0.15828506648540497,-0.00012757715012412518,0.002847174648195505,-0.0031806170009076595,0.010636645369231701,0.2769404649734497,-0.05064719170331955,0.00039266300154849887,-0.0370170958340168,-0.11834981292486191,0.00452102767303586,-0.0005864474223926663,-0.04069275036454201,-0.0206754207611084,0.0013365739723667502,-0.06039651483297348,0.12594182789325714,-0.2820965051651001,0.09992729127407074,0.010808011516928673,-0.024089695885777473,-0.01717236638069153,-0.06759501993656158,0.01290526706725359,0.11250556260347366,-0.02847314067184925,-0.04635082185268402,0.00022517087927553803,-0.009778204374015331,0.01362323947250843,-8.268994861282408e-5,0.0036864816211163998,-0.024456972256302834,-0.0009172571008093655,-0.09519945085048676,-0.20721691846847534,0.3466868996620178,-0.009011712856590748,0.1221131756901741,-0.0006910025258548558,0.3594386577606201,0.38423267006874084,-0.036439310759305954,0.10545862466096878,-0.1323690116405487,0.0003600409545470029,-6.813807704020292e-5,-0.013420114293694496,0.0038657449185848236,0.012392048723995686,0.06514027714729309,0.004641963168978691,0.028108200058341026,0.012191967107355595,0.02474166825413704,0.020934900268912315,0.00031933042919263244,0.0006851213402114809,0.19476714730262756,-0.03000876121222973,-0.10583396255970001,0.001439769403077662,-0.00017581200518179685,-0.01368662714958191,0.008119191974401474,0.05197838693857193,-0.02638757787644863,0.005133096594363451,0.03690751641988754,0.45411863923072815,0.42086541652679443,0.01470115128904581,0.007243427447974682,-0.0003173904842697084,-0.2042986899614334,-0.09473542869091034,-0.07015658169984818,-0.0033089322969317436,0.1655803620815277,-0.032086748629808426,0.24614019691944122,0.0019311130745336413,-0.045126497745513916,0.00017548995674587786,-0.19520315527915955,-0.0004341433523222804,0.017085788771510124,0.0073718479834496975,0.016472358256578445,0.1882360875606537,0.134938582777977,0.03760525956749916,0.008613783866167068,-0.19814831018447876,0.0013111057924106717,4.746201739180833e-5],[0.011145351454615593,-0.15835453569889069,-0.0087230633944273,0.07977002114057541,-0.15028756856918335,-0.007299336139112711,0.004428907297551632,-0.7239022254943848,0.19233353435993195,-0.0016750041395425797,0.17956967651844025,0.051305774599313736,0.05508808791637421,-0.026020677760243416,-0.4261046051979065,-0.02487170323729515,-0.2891199588775635,0.0023784583900123835,0.03152387589216232,0.003351181512698531,-0.31898218393325806,-0.019411882385611534,0.04683259502053261,0.0239411573857069,0.0014335388550534844,0.0007925968966446817,-0.00169813830871135,0.0965409055352211,-0.10411396622657776,0.19122134149074554,-0.01343454048037529,-0.002204000251367688,-0.08241095393896103,-0.0007877597818151116,-0.007453312631696463,0.07649093866348267,0.0011683180928230286,0.007579243276268244,-0.3230293095111847,-0.15179705619812012,-0.00044400154729373753,-0.004976029507815838,-0.08170867711305618,0.0404919795691967,-0.0888601541519165,0.2415715456008911,0.003871307708323002,-0.011183667927980423,0.19908423721790314,-0.0015660447534173727,-0.09801289439201355,0.0021183087956160307,-0.12820811569690704,0.18677689135074615,-0.006773863919079304,0.0007721040747128427,0.20825164020061493,0.035213254392147064,0.006355816498398781,-0.0038659691344946623,0.43155911564826965,-8.970010821940377e-5,-0.0011752613354474306,-0.0011150685604661703,-0.06786210089921951,0.04330829158425331,-0.010941889137029648,-0.0019291798816993833,-0.005911468528211117,0.0002981277648359537,0.0023934561759233475,-0.026852039620280266,-0.0019629301968961954,-0.15060967206954956,0.00230406760238111,-0.023206496611237526,0.008560631424188614,0.06265221536159515,0.0008805253892205656,-0.09077798575162888,-0.0041076308116316795,-0.0732196792960167,-0.009084445424377918,-0.21023589372634888,0.02348872274160385,0.15403427183628082,0.11361716687679291,0.0022073383443057537,0.026811283081769943,0.08337338268756866,-0.002358274767175317,0.0006528339581564069,-0.0005860942183062434,0.0011839907383546233,-0.26324811577796936,0.008220422081649303,0.0758548378944397,-0.012396805919706821,-0.17128930985927582,-0.2597983181476593,-0.013750438578426838,-0.011958187445998192,0.0028209672309458256,0.022964080795645714,0.0076819793321192265,-0.06402111053466797,-0.024036727845668793,-0.0002686870575416833,-0.015760786831378937,0.04041263461112976,0.0037976421881467104,0.012450392358005047,-0.016657521948218346,0.06434609740972519,0.012322166934609413,-0.0278718713670969,0.029816268011927605,-0.04899816960096359,-0.12783369421958923,-0.04235600307583809,0.05433722585439682,-0.003410766366869211,0.03678911179304123,0.24062037467956543,0.09879419952630997,0.017388077452778816,0.0014587128534913063,0.15736640989780426,-0.24633820354938507,0.0029494238551706076,0.18812648952007294,-0.02585756406188011,0.10527095198631287,-0.002850150689482689,0.2907616198062897,0.02029019221663475,0.010094024240970612,-0.21048931777477264,0.006028809119015932,0.06377895176410675,-0.010282378643751144,0.15584972500801086,-0.017650287598371506,0.06659585237503052,0.47884654998779297,-0.08143247663974762,-0.0013099736534059048,0.14400668442249298,-0.02141730487346649,-0.04140620306134224,0.0038476584013551474,0.017689527943730354,-0.0025049468968063593,0.4318316578865051,-0.003404760267585516,-0.01894833706319332,-0.005264085251837969,-0.005166166462004185,-0.06781834363937378,0.004664461128413677,-0.02475898340344429,-0.006375193130224943,-0.0007678919355385005,0.004279700107872486,0.08112020045518875,0.056744176894426346,0.041820913553237915,0.08546433597803116,-0.0005694375140592456,0.29816997051239014,0.002667220076546073,-0.003601799486204982,0.45994001626968384,-0.00040337329846806824,0.2552105486392975,-0.2401352822780609,0.17162789404392242,-0.02218448370695114,-0.003641416784375906,0.000381352670956403,-0.009534555487334728,-0.006548603530973196,0.43091654777526855,-0.28888022899627686,-0.06887184828519821,-0.10906863957643509,-0.0009248336427845061,0.0314183384180069,-0.14117763936519623,-0.19938774406909943,-0.5573071837425232,-0.15912091732025146,-0.2813447117805481,-0.0003845171013381332,-0.0006104630301706493,0.007488872855901718,0.04295434430241585,0.06499093025922775,-0.023603424429893494,0.001436621299944818,0.004599937703460455,0.14810815453529358,-0.010428768582642078,0.0008816729532554746,-0.11929231882095337,-0.4393448531627655,0.037950292229652405,-0.0206211656332016,0.003254639683291316,0.08075017482042313,-0.3651817739009857,-0.14762118458747864,-0.005788170266896486,-0.04648138955235481,-0.0003443878376856446,-0.005553948227316141,0.005597427953034639,-0.24793976545333862,-0.005805460270494223,0.13968560099601746,-0.10920892655849457,-0.081222765147686,-0.002308022230863571,-0.040763404220342636,-0.07577922940254211,0.0038018289487808943,-0.03885122761130333,-0.00874538253992796,0.042834848165512085,-0.004308877978473902,-0.007155637722462416,0.09570145606994629,-0.0513022243976593,0.0003153774014208466,0.004103729035705328,0.0007899668999016285,-0.00022572244051843882,-0.01798968017101288,0.0076815057545900345,-0.10257074981927872,0.23932592570781708,0.008879473432898521,-0.0008571380167268217,-0.018749181181192398,-0.021753156557679176,-0.0009087333455681801,-0.1804974526166916,0.00010603156988509,0.019439563155174255,0.06217220053076744,-0.005895657930523157,-0.008750328794121742,0.03444930166006088,-0.181772381067276,-0.13599348068237305,-0.000702190154697746],[0.001795456511899829,0.38808876276016235,0.004482448101043701,0.00048146810149773955,-0.3199617266654968,-0.07166865468025208,0.00480622798204422,0.703507125377655,0.001345828641206026,0.08607693761587143,-0.0029806054662913084,0.004894443787634373,-0.06106013432145119,0.016551820561289787,-0.013470306992530823,-0.008033759891986847,-0.11702607572078705,0.0384385921061039,0.1406812220811844,-0.11325034499168396,-0.007038389798253775,0.13932840526103973,-0.03524654731154442,-0.000540540786460042,0.14798645675182343,0.16930609941482544,0.017409654334187508,-0.00046198099153116345,0.03631299361586571,-0.006785186007618904,-0.009301913902163506,0.0011134182568639517,-0.09553975611925125,0.021779654547572136,0.014044216834008694,0.0009072347893379629,0.0024074348621070385,0.004948613233864307,-0.01036148238927126,-0.015778901055455208,-0.24971693754196167,-0.002267134841531515,-0.0015107528306543827,-0.001446886919438839,-0.0016725016757845879,-0.04210599139332771,-0.013956001028418541,0.15886498987674713,-0.04817549139261246,0.02796686813235283,-0.003283873898908496,-0.00024402604321949184,-0.001054351101629436,0.10626186430454254,0.004295745864510536,0.0032045927364379168,0.106992207467556,-0.04381592944264412,0.0028763434384018183,0.013428700156509876,-0.06406281888484955,0.0001760788436513394,0.04591061919927597,-0.005996886640787125,0.000842762237880379,-0.0058320448733866215,0.0010047112591564655,-0.003046999219805002,-0.0004199502582196146,-0.03846987709403038,-0.07783102244138718,-0.0012449623318389058,-0.005483952816575766,0.1264805793762207,0.2003125697374344,0.1055886447429657,0.13597837090492249,-0.10460291057825089,-0.048745047301054,-0.0033517484553158283,-0.08307872712612152,-0.16919197142124176,-0.015594721771776676,-0.0545094832777977,0.1372847557067871,0.017975054681301117,-0.08741961419582367,0.04001129791140556,-0.0337030328810215,0.3927731513977051,-0.02836371771991253,0.0029884125106036663,-0.02076893299818039,0.07001499086618423,-0.06923490762710571,-0.04617736116051674,0.06114068999886513,0.0010248890612274408,-0.0010248483158648014,-0.13243509829044342,0.004119107965379953,0.0013692645588889718,0.0031473354902118444,0.1908591240644455,-0.006114594172686338,-0.0075905220583081245,0.004821954760700464,-0.0008141077705658972,-0.13621775805950165,0.0007956832414492965,-0.0007781161111779511,-0.0019334035459905863,-0.010812084190547466,0.022846205160021782,0.0016014004359021783,-0.006720485631376505,0.012969129718840122,-0.047823671251535416,-0.014275997877120972,0.08471585810184479,-0.0012117227306589484,-0.002346320077776909,0.014886169694364071,-0.02063930034637451,0.004612752236425877,0.01149411965161562,0.0031711002811789513,-0.13436201214790344,0.6992598176002502,-0.0016240134136751294,0.030375218018889427,-0.0561651736497879,-0.09161566197872162,0.0006609043339267373,0.3214367926120758,0.005769084207713604,0.007536869030445814,-0.03674767166376114,0.002759455470368266,0.000814224942587316,-0.07446754723787308,-0.014977436512708664,0.0012762462720274925,-0.2637438178062439,-0.044872138649225235,-0.018573792651295662,-0.02910676971077919,-0.009596504271030426,-0.02166067250072956,0.025773538276553154,-0.03694209083914757,0.0027028112672269344,0.09931191056966782,-0.022234929725527763,-0.0691557452082634,-0.0002063583815470338,0.0978393480181694,0.02721453085541725,-0.00291243614628911,-0.13887439668178558,-0.23755815625190735,-0.009590305387973785,0.000696058792527765,-0.12800233066082,-0.140542134642601,0.2728831470012665,0.3097873330116272,0.0499899685382843,-0.0005546596366912127,-0.22538505494594574,0.0014593310188502073,-0.04590136185288429,-0.006114668678492308,-0.0019057851750403643,-0.1344641149044037,-0.0331023745238781,-0.07570745050907135,-0.0028773334342986345,0.02253807708621025,0.005810507107526064,-0.053032949566841125,0.02312951162457466,0.21570813655853271,0.019195903092622757,0.024765484035015106,-0.008485909551382065,0.009959177114069462,0.003428765805438161,-0.05295921117067337,0.12974461913108826,0.645099401473999,0.3030111789703369,-0.0006837162072770298,0.0005276553565636277,0.042109426110982895,0.29897603392601013,0.002930666785687208,-0.010675200261175632,-0.0004816001746803522,-0.07750751823186874,0.0008438749355264008,-0.014510386623442173,-0.42742177844047546,0.028593331575393677,0.0004864513175562024,0.013379623182117939,-0.01726270467042923,0.0906509980559349,-0.04201647639274597,-0.0025369783397763968,0.3516221344470978,-0.01406693086028099,0.0669625774025917,-0.013644016347825527,-0.08062982559204102,-0.004099513869732618,-0.061684396117925644,0.5274609327316284,0.001859267009422183,-0.011066914536058903,0.06717032194137573,-0.11637774854898453,-0.044048745185136795,-0.047751400619745255,0.016584867611527443,-0.20172110199928284,-0.13530349731445312,0.08610185980796814,-0.005041416268795729,0.028655510395765305,0.025193670764565468,0.038989122956991196,-0.009189484640955925,-0.05086027458310127,-0.0019256926607340574,-0.10571350157260895,0.02375163696706295,-0.13002000749111176,-1.0954785466310568e-5,-0.010602874681353569,-0.17139223217964172,0.002763163298368454,-0.01219271495938301,-0.0017754582222551107,0.042381368577480316,-0.036077313125133514,-0.14409641921520233,-0.011974243447184563,-0.0024411194026470184,0.0006359122926369309,-0.0159633569419384,-0.0021390558686107397,0.24245071411132812,-0.15425054728984833,-0.05109044536948204,-0.0005621274467557669],[3.45521948474925e-5,0.16804972290992737,0.0002566234616097063,0.002508019795641303,-0.00021459173876792192,-0.06847836077213287,-0.05043191835284233,0.3282184302806854,0.030820922926068306,0.002045565517619252,0.05587882921099663,-0.03968091681599617,0.10052672773599625,0.09110696613788605,-0.06095525622367859,-0.09223321080207825,0.5385866165161133,0.013356841169297695,0.057852115482091904,0.0004935276228934526,-0.04363786801695824,-0.018763847649097443,0.10766556859016418,-0.046658724546432495,-0.017136022448539734,-0.0017757301684468985,-0.0019808204378932714,-0.09431406855583191,0.04783250391483307,-0.05149335414171219,0.002655467251315713,-0.03198452666401863,0.005856961477547884,-0.0012061839224770665,0.030122827738523483,0.2786881625652313,-0.00047331483801826835,0.11717420071363449,-0.026213856413960457,0.2368779331445694,-0.0007351607200689614,0.003388194367289543,0.1965840756893158,-0.001250867499038577,0.003318721428513527,-0.037172481417655945,-0.029387909919023514,0.02390526980161667,-0.01835370436310768,0.02132832258939743,0.005415007937699556,-0.00023259411682374775,0.07430092245340347,0.117381751537323,0.043431319296360016,-0.0011248240480199456,-0.01294203381985426,0.11359044164419174,0.001885637640953064,-0.07666223496198654,-0.227858304977417,0.0009054961847141385,-0.009457128122448921,-0.000830339384265244,-0.0003580735356081277,-0.11151792854070663,0.002316003665328026,-0.052479736506938934,0.07633810490369797,0.0020278531592339277,-0.01404454093426466,-0.004576821345835924,-0.0012091872049495578,0.023972107097506523,0.2580849528312683,0.011390192434191704,0.022970903664827347,0.1801411360502243,0.003979068715125322,-0.008356355130672455,0.12084614485502243,-0.04369790479540825,0.001188935013487935,0.11005415767431259,0.0013681259006261826,-0.03810960426926613,-0.0603179931640625,-0.00014503145939670503,0.28246963024139404,-0.056760821491479874,0.012010201811790466,0.021486759185791016,-0.0009689498692750931,0.0002749754930846393,-0.10185427218675613,0.0024634632281959057,0.01724071055650711,0.02282850816845894,0.042512305080890656,-0.05251706764101982,-0.012189225293695927,-0.0024940415751188993,0.0035132383927702904,-0.00036172603722661734,-0.0018156715668737888,0.004740023519843817,-0.003784655360504985,0.00478841969743371,-0.05288241431117058,-0.07380110770463943,0.008340176194906235,0.0015475167892873287,0.012663692235946655,-0.00010949771240120754,0.00397354643791914,0.03536364808678627,0.25526881217956543,-0.0009151963167823851,0.026167070493102074,-0.0007039660704322159,0.002605188637971878,0.07515332102775574,-0.0007948916754685342,-0.03134686127305031,0.2411523461341858,-0.01718863658607006,0.015361608937382698,-0.016619989648461342,0.41174066066741943,-0.0020045980345457792,0.02228446491062641,0.0026761721819639206,0.27291640639305115,0.0007955294568091631,-0.061462849378585815,0.09886663407087326,-0.016836635768413544,0.030923573300242424,0.0010356808779761195,0.02406294271349907,0.05470571294426918,-0.003444527043029666,0.06191730499267578,0.17817234992980957,-0.05471641197800636,-0.03656353801488876,0.004500042647123337,-0.15970838069915771,-0.00023813928419258446,0.22392834722995758,0.00022447013179771602,0.03032604046165943,0.02768854983150959,-0.32553407549858093,0.0024680302012711763,-3.438597923377529e-5,0.08408164232969284,-0.00040399888530373573,-0.0026832211297005415,-0.02795524150133133,-0.21900531649589539,-0.00026688387151807547,0.0004244136798661202,-0.0002362666418775916,-0.20921123027801514,0.13892948627471924,0.21447743475437164,-0.0012166823726147413,-0.001327297417446971,0.02340671792626381,-0.14413002133369446,0.0024543139152228832,-0.03644980862736702,0.0023662943858653307,-0.020141243934631348,0.00046312742051668465,-0.019670143723487854,-0.001134128193370998,-0.0027342569082975388,0.04070253670215607,0.010564234107732773,0.00517231784760952,-0.0031292238272726536,0.26355189085006714,0.08591781556606293,0.007058003917336464,0.0022014384157955647,-0.0016485507367178798,-0.0014871753519400954,0.005942676216363907,0.2942463755607605,0.21574857831001282,0.244086354970932,-0.0027912231162190437,0.10794500261545181,0.024512752890586853,-0.05515386909246445,-0.13100303709506989,-0.01230389904230833,0.0012649745913222432,-0.006785450968891382,0.4650217890739441,-0.07120604068040848,0.04084356874227524,-0.029717015102505684,0.18672087788581848,0.08892739564180374,0.003604762488976121,-0.00343266106210649,-0.0006401565624400973,0.0004170999163761735,0.0904906615614891,0.00875025149434805,-0.0035043121315538883,0.03493565320968628,-0.004993829410523176,-0.006220012903213501,0.29717376828193665,-0.02145404741168022,-0.3323570489883423,0.017278477549552917,0.036569152027368546,0.15512005984783173,-0.00957801379263401,-0.01775548607110977,0.009125327691435814,-0.08140214532613754,0.14264969527721405,0.0008169775828719139,0.007847441360354424,-0.002245810115709901,0.003948612604290247,-0.02420567162334919,0.0004906491958536208,0.008519422262907028,-0.0006477278075180948,-0.000754025939386338,0.003939149901270866,-0.13973821699619293,0.0002728535619098693,-0.11148127913475037,0.002875900361686945,-0.020053621381521225,0.03421911969780922,0.06257326900959015,-0.0006784893339499831,-0.22808831930160522,-0.0012175528099760413,-0.0006520982715301216,0.0584750697016716,-0.0036627701483666897,-0.0018961671739816666,-0.006686842534691095,-0.0017682245234027505,0.0006302464753389359,-0.0027115195989608765],[-0.00029929750598967075,-0.0011270256945863366,-0.027635369449853897,0.0009353693458251655,-0.19243134558200836,0.005941200535744429,0.03335406258702278,0.0007830466493032873,0.03199112042784691,0.0050500063225626945,-0.08546137809753418,-0.15673445165157318,0.06424707174301147,-0.008836215361952782,0.1992938369512558,0.0005514833610504866,-0.006324195768684149,-0.04066392779350281,-0.08911021053791046,-0.024397529661655426,-0.0020939745008945465,-0.298094779253006,-0.09160222858190536,-0.004628975875675678,-0.10940040647983551,0.0036266681272536516,0.000245883857132867,-0.011023910716176033,-0.03133821859955788,-0.19547435641288757,0.05649898946285248,-0.09760726988315582,-0.22308726608753204,0.0044753518886864185,-0.0030552935786545277,0.22827403247356415,-0.01934686116874218,0.02719605341553688,0.2744445204734802,0.008718186989426613,0.006509048864245415,-0.13473574817180634,-0.2193080484867096,0.003631869563832879,-0.030072078108787537,0.00021824499708600342,-0.007850618101656437,0.0018307274440303445,0.015434824861586094,-0.0010549620492383838,-0.052882954478263855,-0.0011359791969880462,0.35163185000419617,-0.07461270689964294,-0.05148627236485481,0.0013699388364329934,0.00208617583848536,-0.05405445396900177,0.0011671542888507247,-0.059851229190826416,0.004503099247813225,-0.002868680050596595,0.06811494380235672,0.11093701422214508,-0.0011894297786056995,-0.05575111135840416,-0.006733852904289961,-0.00019452039850875735,-0.002507367404177785,-0.06643566489219666,-0.01632717251777649,-0.0029240429867058992,-0.0999358668923378,0.04693272337317467,-0.0007551044691354036,-0.012274733744561672,