{"params":{"dropout_prob":0.0,"l2_weight_decay":0.0,"l2_weight_decay_params":[],"l1_weight_decay":0.0,"l1_weight_decay_params":[],"contractive":0.0,"contractive_params":[],"reg":0.001,"learning_rate":"0.001,0.0001","n_attack_steps":10,"beta_robustness":0.125,"seed":0,"n_hidden":256,"n_layer":1,"batch_size":100,"boundary_loss":"kl","treat_as_constant":false,"abcd_etaA":0.001,"abcd_L":2,"p_norm":"inf","dt":1.0,"tau":20.0,"beta":2.0,"tau_adaptation":98.0,"thr":0.01,"thr_min":0.005,"refr":2,"dampening_factor":0.3,"sample_rate":16000,"eval_step_interval":400,"attack_size_constant":0.0,"initial_std_constant":0.0,"attack_size_mismatch":0.2,"initial_std_mismatch":0.001,"clip_duration_ms":1000,"window_size_ms":30.0,"window_stride_ms":10.0,"preprocess":"mfcc","feature_bin_count":40,"in_repeat":1,"n_thr_spikes":-1,"n_epochs":"150,50","optimizer":"adam","data_dir":"ECG\/ecg_recordings\/","session_id":3910474091,"desired_samples":16000,"window_size_samples":480,"window_stride_samples":160,"length_minus_window":15520,"spectrogram_length":100,"average_window_width":-1,"fingerprint_width":2,"fingerprint_size":3920},"rng_key":[1764155921,3972924840],"theta":{"W_in":[[-0.0052559697069227695,0.04527807980775833,0.19738204777240753,-0.055344779044389725,-0.10941427201032639,0.1620505303144455,0.010335388593375683,-0.2072303742170334,0.044269416481256485,-0.2142137587070465,0.08378289639949799,0.009967545978724957,-0.14298008382320404,-0.0060995230451226234,-0.04457385838031769,-0.1134268194437027,0.19859585165977478,0.17251434922218323,0.18841993808746338,0.06878969818353653,-0.14552651345729828,-0.015466580167412758,0.2647111713886261,-0.10177398473024368,0.05259402096271515,-0.11877118796110153,-0.00481877475976944,-0.0958370640873909,0.275706022977829,-0.000526692601852119,-0.022747019305825233,0.07691897451877594,0.15618309378623962,-0.11969534307718277,-0.0652552917599678,-0.008617378771305084,-0.14242403209209442,-0.005078710149973631,0.2020338475704193,-0.05662410333752632,-0.013587966561317444,-0.001945132971741259,0.22714602947235107,0.05067829042673111,0.26709190011024475,-0.12890835106372833,-0.019783835858106613,0.145461305975914,-0.13938768208026886,0.004434631206095219,0.20667846500873566,-0.004574714228510857,-0.016811255365610123,0.14676177501678467,0.32156622409820557,-0.0020329600665718317,0.30902349948883057,-0.03465580195188522,0.28990638256073,-0.1254124492406845,-0.0006182165816426277,-0.00848513375967741,-0.005252351518720388,0.06089674308896065,-0.08598418533802032,-0.0795062780380249,-0.1323246955871582,-0.10072673112154007,-0.04925117641687393,0.034312330186367035,-0.15323269367218018,0.06770461797714233,0.11930534988641739,0.005534555297344923,-0.11767960339784622,-0.20609883964061737,0.04482359066605568,-0.23008045554161072,-0.15264493227005005,0.005064504686743021,0.2330908626317978,-0.14740483462810516,0.10261644423007965,-0.16974416375160217,0.04821021109819412,0.029570965096354485,-0.06119748204946518,-0.004380968399345875,0.0564478300511837,-0.08276113867759705,0.23671406507492065,0.13788354396820068,0.15968839824199677,0.11530283838510513,-0.20585699379444122,-0.08088428527116776,-0.17602132260799408,-0.10748308897018433,0.08531598746776581,0.045012108981609344,-0.10480861365795135,0.07794496417045593,0.08266104757785797,0.09012201428413391,0.017315272241830826,-0.25667545199394226,0.2658516466617584,-0.0359366349875927,-0.0965915098786354,-0.01556910015642643,-0.0014880654634907842,0.043941788375377655,0.03638525307178497,-0.05414026975631714,0.02565702423453331,0.050315339118242264,-0.010980404913425446,0.10843949019908905,-0.002685884013772011,-0.12031207978725433,-0.007951089181005955,-0.0012330664321780205,0.13640575110912323,-0.0026059302035719156,0.30686599016189575,-0.002265680581331253,-0.0015690181171521544,0.0016006124205887318,-0.05894683301448822,-0.00031850862433202565,0.039354871958494186,0.16084903478622437,0.24663908779621124,0.12712882459163666,0.13131782412528992,-0.024215038865804672,-0.24541430175304413,-0.009356597438454628,0.16730280220508575,-0.000521078531164676,0.0710577517747879,0.08322960138320923,-0.011525312438607216,0.005052037071436644,0.01948065496981144,-0.02846742607653141,0.12653666734695435,-0.12795516848564148,0.06670117378234863,-0.11920930445194244,0.18071122467517853,0.20082789659500122,-0.003058307571336627,0.009535079821944237,-0.06696982681751251,0.08190174400806427,-0.010877630673348904,0.09024344384670258,-0.09456246346235275,-0.18633946776390076,-0.17398755252361298,0.2506239414215088,-0.19929079711437225,-0.1572479009628296,-0.002124133985489607,0.11175164580345154,-0.17709104716777802,-0.09643172472715378,-0.012714030221104622,0.08921763300895691,0.14710694551467896,-0.030634108930826187,0.3470306694507599,0.20853234827518463,0.020561538636684418,-0.11427679657936096,-0.15234194695949554,-0.047577474266290665,-0.0584627129137516,0.018248524516820908,0.15765811502933502,0.029633142054080963,-0.2363310158252716,0.13660049438476562,0.057764407247304916,0.02323702722787857,0.001802879967726767,0.14461684226989746,0.12480814754962921,0.01325147319585085,0.03767702355980873,-0.28836947679519653,-0.05256083235144615,-0.010492943227291107,-0.007365371100604534,-0.005706694442778826,0.19912540912628174,-0.005719117820262909,-0.00241722515784204,0.12849365174770355,-0.12757658958435059,-0.10731524974107742,0.1588602215051651,0.12109095603227615,0.010741929523646832,-0.047605250030756,-0.1510055810213089,0.08789968490600586,0.0968869999051094,-0.021358514204621315,0.16582565009593964,-0.04909410700201988,0.09710722416639328,0.08952595293521881,-0.14449754357337952,0.1505836695432663,-0.09956593066453934,0.2047099471092224,-0.0004935931065119803,-0.04186831787228584,-0.10010387748479843,-0.01927262544631958,-0.09970498830080032,0.060346897691488266,-0.07000436633825302,-0.037873316556215286,-0.001126977032981813,0.0966007187962532,0.012796144932508469,-0.0182828139513731,-0.007765140850096941,-0.005418133456259966,-0.002068564295768738,0.12238938361406326,0.09110219031572342,-0.09240993112325668,-0.009978743270039558,-0.07768573611974716,-0.0027609129901975393,0.006758358329534531,0.1523617058992386,0.16575731337070465,0.14302892982959747,-0.0026603485457599163,-0.11775936931371689,-0.041127629578113556,-0.019426632672548294,0.13420352339744568,0.03808048740029335,-0.18368327617645264,-0.03240957483649254,-0.10311103612184525,-0.00412483885884285,-0.001420757733285427,0.27905943989753723,0.0027363526169210672],[-0.03279842063784599,0.23177969455718994,0.08502379804849625,0.16028089821338654,0.16313105821609497,0.20268116891384125,-0.18643662333488464,0.2114139199256897,0.11380529403686523,-0.25497785210609436,0.27366119623184204,-0.13940031826496124,-0.28290855884552,-0.0839165672659874,-0.053421009331941605,-0.18971487879753113,0.07942701876163483,0.04747302457690239,0.15009820461273193,0.14547652006149292,-0.23368369042873383,0.10810805857181549,0.15596210956573486,-0.22391749918460846,0.2487296760082245,0.11895813792943954,-0.06993366032838821,0.18276648223400116,-0.16652138531208038,-0.14602677524089813,-0.1411542147397995,0.20110628008842468,-0.10725436359643936,0.18285834789276123,0.1829831898212433,-0.01684289239346981,-0.2415437251329422,-0.05994900315999985,0.10717896372079849,0.3687775135040283,-0.13758958876132965,-0.035022880882024765,0.1176292672753334,0.16695944964885712,-0.17308945953845978,-0.28481346368789673,-0.21263737976551056,0.0923633724451065,-0.24392478168010712,-0.0808509886264801,0.14133499562740326,-0.03406043350696564,0.11260984092950821,0.12486164271831512,0.12729068100452423,-0.08010246604681015,0.12982730567455292,-0.15903998911380768,-0.19963961839675903,0.226887047290802,-0.006914863362908363,-0.13488233089447021,-0.11788643151521683,0.12542176246643066,-0.290836364030838,-0.20978134870529175,-0.24737200140953064,0.03479788452386856,0.16410930454730988,0.011988481506705284,0.16349798440933228,0.10004593431949615,0.03269512951374054,0.055796731263399124,-0.2112230360507965,-0.343872606754303,0.04198247194290161,0.25709298253059387,-0.23337221145629883,0.28725579380989075,-0.3239782154560089,-0.3100907504558563,0.20606829226016998,-0.251220166683197,0.2009786069393158,0.18738938868045807,0.09803326427936554,-0.12962208688259125,0.20623144507408142,-0.20187464356422424,0.1266712248325348,0.16769348084926605,0.13873842358589172,0.1654115915298462,0.27146074175834656,-0.037754129618406296,0.19736561179161072,-0.1972317397594452,0.2187853306531906,0.018987344577908516,0.08535503596067429,0.030455762520432472,0.10141868144273758,0.1427391916513443,0.07849214226007462,0.24634143710136414,-0.17378073930740356,-0.06692440062761307,0.14565329253673553,-0.2032690793275833,-0.20501872897148132,0.25677919387817383,0.17330852150917053,-0.15527896583080292,0.02625889703631401,0.056749388575553894,-0.2203950583934784,0.016632379963994026,-0.09833740442991257,0.1580796092748642,-0.013367781415581703,-0.04077954962849617,0.05385541170835495,-0.2055918574333191,-0.13915158808231354,-0.15091799199581146,-0.013854995369911194,-0.15165704488754272,-0.10121989250183105,0.12009558081626892,0.059857938438653946,0.07855822145938873,0.14347678422927856,0.08331593871116638,0.171449676156044,-0.0897563248872757,-0.11097585409879684,-0.0059415120631456375,0.04267077147960663,-0.0004954856703989208,-0.26831933856010437,0.03906476870179176,-0.17508861422538757,-0.026396816596388817,0.13449545204639435,-0.11362197250127792,-0.028970815241336823,-0.2376008927822113,0.12203985452651978,0.2613177001476288,0.17185330390930176,0.10624105483293533,-0.06736690551042557,0.01190711185336113,-0.0073573351837694645,0.024396583437919617,-0.07046891003847122,0.03163759782910347,0.14388787746429443,0.09170962870121002,-0.07357294857501984,0.18189461529254913,0.16855747997760773,0.18158477544784546,-0.013557725585997105,0.19852448999881744,0.161856010556221,0.10092057287693024,0.2544030249118805,0.03170125186443329,0.14839918911457062,-0.20210546255111694,0.08677306026220322,0.14851510524749756,0.015480101108551025,-0.18234775960445404,0.17699368298053741,0.10549698024988174,0.15610840916633606,0.10904096066951752,0.1394883245229721,0.013045803643763065,0.16020365059375763,-0.1718515306711197,0.26438626646995544,0.08186843246221542,-0.09594851732254028,0.18281342089176178,0.1875533163547516,0.017334487289190292,0.10784321278333664,0.24048277735710144,-0.17642180621623993,0.0105882054194808,-0.12442418187856674,0.036914803087711334,0.17088846862316132,-0.04841655492782593,-0.037138476967811584,0.1573457568883896,-0.05538776516914368,-0.19316235184669495,0.20148560404777527,0.14215125143527985,-0.14829957485198975,0.005964967887848616,-0.2744258940219879,0.10516971349716187,0.08071782439947128,-0.20436500012874603,0.08109705150127411,0.0008287659147754312,0.17983925342559814,0.21912574768066406,-0.20014525949954987,-0.07398650050163269,-0.024516206234693527,0.10822835564613342,-0.007566540036350489,0.18816937506198883,0.09347441047430038,-0.1388297975063324,0.14333684742450714,-0.009119520895183086,-0.15021583437919617,-0.10227516293525696,-0.06309495866298676,-0.012846022844314575,0.02604174055159092,-0.16940832138061523,-0.030550768598914146,-0.24019262194633484,-0.08732001483440399,0.03803648054599762,0.03525882214307785,0.11356352269649506,-0.04763191565871239,0.006931427866220474,-0.059280600398778915,0.02704324945807457,0.16563959419727325,0.054694268852472305,0.18522009253501892,-0.021179387345910072,0.13451363146305084,-0.13811510801315308,0.27110275626182556,0.03451086953282356,0.19493718445301056,0.18886889517307281,-0.11005266010761261,0.09881652146577835,-0.010430826805531979,-0.1845315843820572,-0.20170211791992188,0.0006888882489874959]],"W_out":[[2.7528762817382812,-6.642448715865612e-5,-0.7470046281814575,-1.527979850769043],[3.386502430657856e-5,-3.3468689918518066,2.3292388916015625,-0.023618318140506744],[0.06754225492477417,-3.788942813873291,0.049080099910497665,0.0001918454800033942],[-1.1429617404937744,-0.43014684319496155,2.608630895614624,-1.7367351055145264],[-0.6455085277557373,1.8322656154632568,-1.6596442461013794,-0.7818968892097473],[0.0003288339648861438,-3.1857059001922607,1.8481900691986084,0.00023900001542642713],[-2.897522211074829,-0.0006396883400157094,-1.5782456398010254,0.7851398587226868],[-4.092443943023682,-0.007981357164680958,-5.641502857208252,1.1862949132919312],[-2.1287245750427246,2.9072837829589844,-2.337287187576294,-1.1984548568725586],[2.5398452281951904,-2.199446201324463,-1.8560141324996948,-0.0006678097415715456],[-0.6989313364028931,-2.5230047702789307,0.9149818420410156,-6.389863847289234e-5],[1.3937067985534668,-2.088365316390991,-0.09550617635250092,-0.00046612031292170286],[-0.9277321100234985,-1.3400804996490479,2.03074312210083,-0.28892889618873596],[1.6352367401123047,-1.7402030229568481,-0.0001945735129993409,-1.857673168182373],[-2.5772674083709717,-0.022159891203045845,-0.4505942463874817,1.117044448852539],[-1.775407075881958,-0.013366644270718098,-1.8693821430206299,0.12707965075969696],[0.0006238201749511063,-2.1191134452819824,-0.00036356993950903416,0.000314613978844136],[0.345036119222641,0.0004853899299632758,-2.2029285430908203,-0.0009628339321352541],[-1.4073858261108398,-3.3797783851623535,3.3864803314208984,-0.2293170690536499],[0.0002260225883219391,-4.28902530670166,0.19410759210586548,0.0007748500211164355],[1.2412742376327515,-1.9271498918533325,-0.004261495545506477,-0.0001950547011801973],[-2.8083341121673584,-0.00024064206809271127,-4.114387512207031,0.021358421072363853],[0.0007009499240666628,-2.7088799476623535,-0.00015786121366545558,0.7883204221725464],[-1.2808680534362793,-0.024277519434690475,0.0017588854534551501,0.36544859409332275],[-2.61972975730896,2.427474021911621,0.8329440951347351,-2.4850070476531982],[-2.8902461528778076,-0.002749823499470949,-0.5479164719581604,1.190534234046936],[-3.341421604156494,-3.56908276444301e-6,-3.819753408432007,3.936318898922764e-5],[1.6190824508666992,0.47934484481811523,-1.326429009437561,-1.8847692012786865],[-1.0601743459701538,0.0003571170091163367,0.7556108832359314,-0.001628729747608304],[-2.579357862472534,-0.00040204194374382496,-2.723764657974243,0.4118267297744751],[-1.805681824684143,-0.2426995187997818,-1.584568738937378,1.3812137842178345],[0.10654570907354355,-4.251327037811279,0.8474602103233337,-0.0001425406226189807],[0.053084734827280045,1.6993342638015747,-0.9505228400230408,-0.7542750835418701],[-1.5320260524749756,0.00010106230183737352,-2.738245725631714,-0.0003575657319743186],[-4.31129264831543,2.620607614517212,-1.782877802848816,-0.7656441330909729],[1.8899303674697876,-1.8772965669631958,-1.8352423906326294,-0.00013633885828312486],[2.2310843467712402,-2.042872667312622,-0.8510835766792297,-8.773370791459456e-5],[-5.123374938964844,3.0742456912994385,-2.3089632987976074,-1.328549861907959],[-1.945231556892395,-0.0006139643955975771,0.9164661169052124,2.5354442186653614e-5],[1.6935316324234009,-1.8102675676345825,-1.2003278732299805,0.0005155990365892649],[-2.5628082752227783,-0.0014720115577802062,-3.7193427085876465,1.75330650806427],[-2.4965310096740723,-0.35258394479751587,-1.0148558616638184,1.6137244701385498],[-1.1151423454284668,-0.7755744457244873,0.48789075016975403,0.11829601228237152],[1.3838956356048584,-1.2615089416503906,-0.05926968529820442,-0.08004941791296005],[-1.857548475265503,1.1011030673980713,1.5651438236236572,-2.2441701889038086],[1.524308204650879,-0.26958972215652466,-0.129629984498024,-0.0003573686699382961],[-1.6812784671783447,-0.0002504595322534442,-3.6249687671661377,0.392744243144989],[-1.8956862688064575,-0.15549057722091675,3.073514699935913,-0.6885995864868164],[-0.7060768604278564,0.0005036381189711392,2.445549964904785,-0.2243507355451584],[1.276408076286316,-7.95838568592444e-5,-0.013677052222192287,-1.1650784015655518],[1.6198009252548218,-2.946359157562256,-0.000425891688792035,0.00018117310537490994],[-0.41306719183921814,0.7433327436447144,0.8051227331161499,-1.3424415588378906],[-3.361743688583374,-1.217707633972168,1.5853785276412964,-0.0003341575211379677],[-3.761112689971924,-2.8359947204589844,0.0021276199258863926,2.357858419418335],[0.00045010173926129937,-2.0378952026367188,-0.0002741532807704061,0.00023779764887876809],[1.6066347360610962,-1.6084966659545898,-0.00042743186349980533,-1.4946730136871338],[-2.665788412094116,3.512588591547683e-5,-2.0283641815185547,-4.6012155507924035e-7],[1.4180799722671509,-2.0046896934509277,-0.289040207862854,1.2292933206481393e-5],[-1.010534644126892,-1.2723379135131836,2.325902223587036,-1.1120187044143677],[-3.9572696685791016,2.628883123397827,-1.432826280593872,-0.808749794960022],[0.12815940380096436,0.9084118604660034,0.0018425403395667672,-1.2836304903030396],[-0.667805552482605,-0.18874771893024445,-2.478057861328125,1.9627604484558105],[-2.5756402015686035,-0.005329521372914314,-2.369616746902466,0.8389303684234619],[-3.405996561050415,0.0007000860059633851,-2.5898382663726807,-0.0004428328829817474],[-1.2783037424087524,-1.2371633052825928,2.604745388031006,-0.8554441332817078],[-2.2524261474609375,-0.005023703910410404,-0.00026388713740743697,0.6715070009231567],[0.6145375967025757,-2.940357208251953,-0.0006804129225201905,0.000546547002159059],[-1.484906792640686,-0.028527982532978058,-0.000437477690866217,0.48346826434135437],[-0.08668207377195358,2.1199607849121094,-1.034796118736267,-0.9237109422683716],[0.013625111430883408,-0.39233076572418213,0.0009834112133830786,-0.1672559529542923],[-1.2470176219940186,-0.000108243380964268,-1.7410850524902344,1.1290335655212402],[-2.619218111038208,0.0002070619520964101,-0.9702471494674683,0.7414955496788025],[-1.161482572555542,-0.6429818272590637,1.99973726272583,0.0001468072150601074],[0.8144122958183289,1.069775104522705,0.010948063805699348,-1.9159189462661743],[2.259108304977417,-0.527092695236206,-0.592941403388977,-0.6374505162239075],[0.00011057125811930746,-1.7701138257980347,0.47729960083961487,-8.734106813790277e-6],[-3.8011996746063232,-0.00045175067498348653,-1.268728256225586,0.0032686693593859673],[-0.00027086137561127543,7.250769704114646e-5,-2.812088966369629,1.0372313261032104],[2.0446789264678955,-2.3304619789123535,-0.009895497001707554,-0.00011849206930492073],[-0.20556145906448364,-1.5887155532836914,2.767822504043579,-0.8666411638259888],[-0.6142302751541138,-0.8539921641349792,2.136824607849121,-1.307008147239685],[1.7037242650985718,-0.524382472038269,-0.061249103397130966,-0.04080204293131828],[0.0003582271747291088,-2.6215310096740723,3.852214285871014e-5,1.2662892913795076e-5],[1.6027185916900635,-0.9674155116081238,-0.26859384775161743,-0.000381505029508844],[-1.182098150253296,-3.4695425033569336,0.7404865622520447,0.70015949010849],[0.6337243318557739,1.992436170578003,-2.42916202545166,-2.186471462249756],[-2.904233694076538,-0.33065545558929443,-3.096421003341675,0.7756406664848328],[-3.153944730758667,-0.009213557466864586,-0.0002970784844364971,0.8008126020431519],[2.919644594192505,-0.7782870531082153,-0.000293404096737504,-2.1580400466918945],[-0.23237772285938263,-0.3365892171859741,-0.007661390583962202,1.0141552686691284],[-2.0942797660827637,-0.0005673925043083727,0.1909818947315216,0.00028388871578499675],[1.0075114965438843,-2.6037509441375732,-0.00031873013358563185,0.000690740707796067],[-3.130596876144409,0.0002974205417558551,0.0002366926782997325,0.9891452193260193],[0.020715074613690376,-4.460769176483154,0.002732241293415427,0.00024361617397516966],[0.00017971801571547985,-0.003548020264133811,-1.4705262184143066,0.03059491328895092],[-1.0569710731506348,0.2811400890350342,-1.6075186729431152,0.0007279844721779227],[-2.4800751209259033,9.199294436257333e-5,-1.7420963048934937,1.265318512916565],[2.7533304691314697,-0.4648544490337372,-0.25889766216278076,-2.3584682941436768],[0.0002518489782232791,-4.59142541885376,1.5025718212127686,0.0001812999980757013],[0.00108707370236516,0.00011748194083338603,-2.7263271808624268,0.2566087245941162],[0.04534069076180458,0.47488296031951904,-0.14824523031711578,-0.5707719922065735],[2.3795809745788574,-1.0134012699127197,-1.5494199991226196,-0.20571838319301605],[-3.7049784660339355,-0.2524145841598511,0.5098373889923096,-1.4575861314369831e-5],[-0.9538737535476685,4.062102794647217,-2.0172715187072754,-3.1844642162323],[-2.860384941101074,-0.0005379439680837095,-1.7189884185791016,0.007728362921625376],[-3.914473295211792,2.474857807159424,-2.283994197845459,-0.49681591987609863],[-1.3923718929290771,-0.2725830078125,2.4048335552215576,-1.697183609008789],[1.0418192148208618,0.11747521162033081,-1.1905475854873657,-1.282679557800293],[0.12156111747026443,0.9778945446014404,-1.6110610961914062,-0.6473320722579956],[-2.6103880405426025,0.000803092960268259,0.6279252767562866,-0.15705309808254242],[-2.990957021713257,-0.0010152471950277686,-0.00021142838522791862,0.01575319841504097],[0.5057776570320129,-0.8117789626121521,0.7628085017204285,-1.8863319158554077],[0.19602829217910767,-4.071820259094238,-0.0002728834224399179,0.00027825363213196397],[0.0008343775407411158,-0.5301910042762756,0.21132071316242218,-0.0004338292055763304],[1.2684568166732788,1.8348194360733032,-1.9161336421966553,-2.759143829345703],[0.00014584105520043522,-1.6906726360321045,0.7514671683311462,-0.08545862138271332],[-0.9288455843925476,-2.197901487350464,2.530383348464966,-0.20431776344776154],[-0.3553251326084137,9.37136574066244e-5,0.003184810047969222,-0.000412749097449705],[-2.856858730316162,-9.85582810244523e-5,-4.816978454589844,0.12084539979696274],[-2.8603949546813965,0.00026510158204473555,-1.787842035293579,1.2990078926086426],[-0.0003674670879263431,-0.0044242264702916145,2.9508578777313232,-1.4266258478164673],[-1.243999719619751,-0.04626068100333214,-2.3729074001312256,1.3516688346862793],[0.44306492805480957,-6.450369983213022e-5,-0.4277952015399933,0.00039214506978169084],[-1.6237505674362183,0.00014452511095441878,-0.801636278629303,-0.00023381516803056002],[0.15229292213916779,0.990742564201355,-1.3028993606567383,-0.13457591831684113],[-1.7482153177261353,-0.0005816564080305398,-4.86211633682251,0.87030029296875],[-4.076392650604248,4.231462662573904e-5,-6.048798084259033,-7.71518170950003e-5],[-1.7129887342453003,1.5556882619857788,-3.0790207386016846,-0.0071937101893126965],[1.4764474630355835,-2.514307975769043,-0.00019475109002087265,-0.002213144674897194],[-2.8793840408325195,3.893876419169828e-5,-3.6081879138946533,3.1019484595162794e-5],[0.7248362898826599,1.2025136947631836,-1.9330036640167236,-1.7291769981384277],[-1.708945870399475,0.0005585951148532331,1.0436217784881592,-0.0005757536273449659],[-0.7735440135002136,-0.0009127547382377088,1.5878349542617798,-1.7263938188552856],[-2.1568124294281006,-1.5368410348892212,1.9451757669448853,-0.0029680104926228523],[-1.313010573387146,-2.835089683532715,1.7808208465576172,0.5584361553192139],[-2.2227470874786377,0.00016346022312063724,1.7244518995285034,-0.00048558280104771256],[2.008601188659668,-1.5601595640182495,-0.01404414139688015,-0.648241400718689],[-1.2157398462295532,1.6890647411346436,-0.14033061265945435,-0.6907352805137634],[-2.1904375553131104,-1.3538943529129028,3.583080291748047,-0.1546611189842224],[0.8612953424453735,0.79647296667099,-0.026533568277955055,-1.8915847539901733],[-1.2600775957107544,0.0005503705469891429,2.3117356300354004,-2.303476333618164],[3.5412492752075195,0.07482066750526428,-2.1685166358947754,-0.3621191680431366],[-1.3504947423934937,-0.29098939895629883,-2.2027575969696045,1.4185062646865845],[-3.3952484130859375,1.2210413217544556,-4.22200345993042,-0.1786116659641266],[-3.020728349685669,0.00015171588165685534,-0.1860429346561432,1.255695104598999],[-1.882578730583191,0.769956648349762,-1.9758235216140747,-0.00038969499291852117],[0.0009002931765280664,0.0001745701883919537,0.0007233089418150485,-0.0004550950543489307],[0.0008448567241430283,-0.4722687304019928,1.2093390226364136,-0.22926434874534607],[1.1814054250717163,-1.9884262084960938,-0.00010810900857904926,-0.0004667208413593471],[-0.001357939327135682,-0.07256358861923218,1.747026801109314,-0.001697863102890551],[1.2080377340316772,-2.106964111328125,-0.00013807363575324416,9.316758951172233e-5],[-1.1881377696990967,-2.554304361343384,-0.00013872960698790848,2.1815388202667236],[2.1289801597595215,-0.05166995897889137,-1.6171677112579346,-0.9113616943359375],[0.0006378209218382835,-0.3021669089794159,-1.0293577909469604,0.6938387751579285],[-1.822548270225525,0.27170121669769287,-2.6663832664489746,-4.8884674470173195e-5],[2.5399868488311768,-0.12367956340312958,-1.899611234664917,-0.5419140458106995],[1.96749746799469,9.134544234257191e-5,-0.015009170398116112,-0.0006676398916170001],[-0.6460415124893188,-0.0016698789549991488,-0.6616349816322327,0.6341156363487244],[-1.606857419013977,-0.08443044871091843,0.0020671049132943153,0.35141193866729736],[0.00012134460848756135,0.00010152894537895918,-0.057020653039216995,0.3091503083705902],[0.4697630703449249,-2.034393310546875,-7.847167580621317e-5,-0.1498977094888687],[-2.9237306118011475,-2.7299070358276367,0.00035240434226579964,0.6951284408569336],[-4.245666027069092,2.382587432861328,-1.712498426437378,-0.6124261617660522],[-1.2713401317596436,-0.0005683383205905557,-1.6190608739852905,1.1930080652236938],[0.5629000663757324,-1.8542248010635376,0.030103642493486404,-0.802391529083252],[2.6986310482025146,-2.070023775100708,-0.0002968115149997175,-2.0180375576019287],[-1.8512903451919556,9.103008051170036e-5,-2.6887311935424805,1.4819294214248657],[0.019727615639567375,0.0003053561085835099,-1.601759433746338,0.6103194952011108],[0.0002858513907995075,1.4823211431503296,-1.6102122068405151,-1.084670901298523],[0.001458739978261292,0.0002582354354672134,-2.7083518505096436,0.6135830283164978],[0.0005013747722841799,-3.3632912635803223,1.4184551239013672,-0.005307887680828571],[-0.9956659078598022,-0.7258898019790649,-2.3664772510528564,1.9216485023498535],[-0.023372754454612732,-1.522945761680603,3.3419601917266846,-1.568237543106079],[-2.522493839263916,-0.8873525261878967,0.1826050728559494,0.61446213722229],[0.7348687052726746,1.9994856119155884,-2.735030174255371,-2.261829376220703],[-0.12851093709468842,-1.3852001428604126,-0.0007063865778036416,1.3029266595840454],[-2.14762020111084,4.571782483253628e-5,-3.4228482246398926,0.6115574836730957],[0.0007013482390902936,7.292926602531224e-5,-2.2480599880218506,-2.4950320948846638e-5],[1.7053741216659546,1.3120347261428833,-2.2248592376708984,-2.1881608963012695],[-5.287130355834961,3.1529877185821533,-2.0914714336395264,-1.4915708303451538],[2.514207601547241,0.0004593642079271376,-0.09948547929525375,-1.3691909313201904],[-3.3037853240966797,-0.053374193608760834,-1.9744194746017456,1.4718751907348633],[-0.42852768301963806,-1.0105581168318167e-5,-1.471278429031372,-0.00013367838982958347],[0.0005214238190092146,0.00048665591748431325,1.4766162633895874,-0.36697518825531006],[-0.42026424407958984,-1.153681755065918,1.844978928565979,-0.24715173244476318],[-3.908167600631714,0.5975667238235474,-2.947396755218506,-0.00032959217787720263],[-4.224991798400879,-0.18922016024589539,-9.908564970828593e-5,1.0810917615890503],[-3.471752882003784,-2.2036759853363037,0.6091299653053284,0.3396272659301758],[-2.2272841930389404,-0.3609503209590912,2.4271695613861084,-0.4252432584762573],[1.6115635633468628,0.01806040294468403,-1.0373492240905762,-1.5655900239944458],[-2.7759385108947754,-8.95773628144525e-5,-3.479360342025757,6.174561713123694e-5],[0.013883037492632866,1.2101246118545532,-0.02108634263277054,-0.9217512607574463],[1.3265751600265503,-0.029804764315485954,-0.16129183769226074,-1.0524619817733765],[-0.5240906476974487,-0.0017422842793166637,-1.7727727890014648,0.3093228340148926],[-3.247659683227539,-1.7796919564716518e-6,-4.177304744720459,3.5031525840167888e-6],[0.0003652398881968111,-0.0042359717190265656,-0.17008058726787567,0.3702710270881653],[2.7413735389709473,-1.8853697776794434,-1.5827746391296387,-0.25920388102531433],[1.6624209880828857,-2.310201644897461,-0.00020033422333654016,-0.011545945890247822],[-0.9124399423599243,-0.06004737317562103,-0.5598080158233643,0.5158522725105286],[-0.9774020314216614,-0.0976678878068924,2.5649378299713135,-1.5172923803329468],[-2.8102052211761475,-0.012312144041061401,-2.459688425064087,0.19921371340751648],[1.867694616317749,-2.400691509246826,-1.4753443002700806,1.7799160559661686e-5],[0.0005052952328696847,-0.13132059574127197,1.1040630340576172,-0.9835517406463623],[7.041156641207635e-5,0.0002760098432190716,-3.483952045440674,0.533099353313446],[1.0151749849319458,-0.0843554362654686,0.00172641989775002,-0.11468632519245148],[-2.644613027572632,-0.06027328968048096,-0.15002146363258362,1.2201571464538574],[0.40626993775367737,-1.7845780849456787,-0.02460486814379692,0.060588136315345764],[-1.7349117994308472,-0.9337349534034729,2.4962246417999268,-1.0414433479309082],[-2.8575918674468994,-0.10097920149564743,0.5992310643196106,3.816264506895095e-5],[-0.7118862271308899,0.0002057593228528276,-2.5215964317321777,1.0027859210968018],[0.0011315429583191872,-1.9970402717590332,-0.0002811133163049817,0.00021998818556312472],[-0.6881372332572937,-1.192827820777893,-1.6204577684402466,1.720922827720642],[0.0013495864113792777,-3.9554731845855713,-0.0002707920502871275,0.00019147340208292007],[0.3644618093967438,-1.592844843864441,5.244585918262601e-5,-0.0007245743181556463],[0.5914456844329834,-1.6022789478302002,0.0009691836312413216,5.678170964529272e-6],[-1.4539225101470947,-1.6505810022354126,2.988103151321411,-0.28354352712631226],[-0.6996503472328186,2.231333017349243,-1.8186448812484741,-0.44707995653152466],[1.48641836643219,-1.46231210231781,-0.00027878969558514655,-0.38341206312179565],[1.8197581768035889,0.48434996604919434,-1.4006093740463257,-2.2802867889404297],[-0.7812513113021851,2.476433515548706,-2.2622337341308594,-2.012789249420166],[-2.848602294921875,0.40804702043533325,-2.9713528156280518,-7.242024003062397e-5],[-2.267582893371582,-4.049166454933584e-5,-4.981584072113037,0.43436989188194275],[-1.8426676988601685,6.966567161725834e-5,-2.1189959049224854,0.9705788493156433],[0.4103619158267975,-0.3096165060997009,0.3153623938560486,-0.45546117424964905],[-1.930449366569519,-1.05508291721344,2.3593392372131348,-0.7151681184768677],[-1.6824742555618286,-0.00045473952195607126,0.00445600738748908,0.04794285446405411],[1.569124460220337,-0.018066395074129105,-0.26062923669815063,-1.1853253841400146],[4.225549697875977,0.0005132951773703098,-1.5208934545516968,-2.818337917327881],[-1.2371602058410645,-0.12980279326438904,-1.6528964042663574,1.078516960144043],[-2.96486496925354,-0.008183373138308525,0.20339632034301758,0.00033738455385901034],[-0.20706304907798767,0.00019313218945171684,0.00028056284645572305,-0.000521317939274013],[-2.4743502140045166,-0.0003438647254370153,-1.473217487335205,0.5304786562919617],[-3.212653398513794,6.596886669285595e-5,0.09620141237974167,-0.00031376953120343387],[-0.25954657793045044,0.00037174957105889916,-1.6766746044158936,-9.913412213791162e-5],[0.09905562549829483,-1.1779621839523315,0.5650864839553833,-0.41079428791999817],[-1.6401238441467285,-0.01622258499264717,-0.6233215928077698,0.740805983543396],[1.0362052917480469,-0.5816777944564819,-0.08364487439393997,-0.40466490387916565],[1.836452841758728,1.1760376691818237,-1.9032810926437378,-2.519641399383545],[-3.491011619567871,-0.2844037413597107,-0.3657144010066986,1.377888560295105],[-2.172801971435547,-1.002318263053894,-0.00021450454369187355,1.8795559406280518],[0.8594567179679871,-3.649545431137085,0.46754705905914307,-1.0805773735046387],[0.7224161028862,0.00010957352060358971,-0.00019671721383929253,-0.0005362216616049409],[-2.9292538166046143,-1.5258196592330933,0.030954256653785706,0.18618468940258026],[1.1988136768341064,1.2505438327789307,-1.7073765993118286,-2.320178508758545],[0.8539303541183472,1.5713474750518799,-2.6830849647521973,-1.7083640098571777],[-2.2714219093322754,-0.0842495784163475,0.10979385673999786,0.00023235494154505432],[0.1010371744632721,-4.348445415496826,0.8816148042678833,-0.00018885581812355667],[0.34938839077949524,1.6810983419418335,0.0006877677515149117,-1.8130627870559692],[0.000605580979026854,-2.659637451171875,0.5249661803245544,0.0002402343088760972],[-0.7111511826515198,2.7626245355349965e-5,-1.879723072052002,0.9256957769393921],[1.7793827056884766,-1.5975202322006226,-0.6353238821029663,-0.003840596182271838],[-2.3120336532592773,3.824547820840962e-5,-2.465524435043335,-6.527929508592933e-5],[2.1169490814208984,-1.7735521793365479,-1.302312970161438,-5.324116500560194e-5],[-0.8444353938102722,-0.28017938137054443,-1.7968437671661377,1.5570380687713623],[-1.6719518899917603,-0.7734664082527161,1.2359392642974854,-0.001138800522312522],[1.9168262481689453,-1.163362741470337,-0.0006095838034525514,-0.00023403365048579872]],"W_rec":[[0.0,0.04923687130212784,-0.042481303215026855,-0.10369450598955154,-0.13560347259044647,0.006512205582112074,0.0007786835194565356,-0.07637497037649155,0.06729530543088913,-0.3852197527885437,0.050877317786216736,-0.33309221267700195,-0.17536325752735138,0.07507739961147308,0.09174060076475143,-0.27342256903648376,0.0001654853840591386,-0.017345936968922615,-0.02795443683862686,-0.10255569964647293,0.001329699531197548,-0.08575104176998138,-0.012603803537786007,-0.0029879380017518997,-0.3744138181209564,-0.06496115028858185,0.001343487179838121,-0.9403213858604431,-0.2820304036140442,3.1177209166344255e-5,0.015771446749567986,0.002667840803042054,-0.13434021174907684,-0.1606399118900299,0.048811957240104675,-0.9195224642753601,0.26138001680374146,-0.15112143754959106,-0.14159779250621796,-1.682746171951294,-0.000782086921390146,0.03297712653875351,-0.189068004488945,0.0014335557352751493,-0.2891797721385956,0.363637775182724,0.0002814396866597235,-0.5866653919219971,-0.02274620532989502,-0.0005342233926057816,0.15218470990657806,-0.07124928385019302,0.024071604013442993,-0.0035653896629810333,-0.16546475887298584,-0.11428730934858322,0.0003142286732327193,-0.7443245053291321,-0.2581915259361267,0.12009746581315994,0.043985456228256226,0.004214602056890726,0.004165641497820616,-0.038373030722141266,-0.10136070847511292,-0.285175621509552,0.061235956847667694,0.07951873540878296,0.09678729623556137,0.04841794818639755,0.022016925737261772,0.05366819351911545,-0.29015570878982544,0.024384286254644394,0.4800262749195099,-0.09783966839313507,0.008519744500517845,-0.0089104063808918,0.002204563468694687,-0.044566258788108826,-0.3007480502128601,0.2563192546367645,0.045868825167417526,0.3163004517555237,-0.09836194664239883,-0.7891360521316528,-0.13818009197711945,0.00795324333012104,-0.9228218793869019,-0.1529783308506012,-0.005802481900900602,-0.2041708379983902,-0.0033499347046017647,-0.00018116028513759375,-0.0030980168376117945,-0.04200730845332146,-0.24799534678459167,0.3935233950614929,-0.05325407162308693,0.1313559114933014,0.05502061918377876,-1.3434581756591797,-0.0014509103493764997,-0.6070929765701294,-0.33554527163505554,0.0024025796446949244,-0.15582159161567688,-0.6452134251594543,-1.0433251857757568,0.005297783296555281,0.007051635999232531,-0.6084818840026855,-0.11963261663913727,-0.1820046305656433,-1.0875004529953003,0.1857723444700241,-0.7247895002365112,-0.013574816286563873,0.0014780232449993491,-0.10566162317991257,-0.30643796920776367,0.04575388506054878,-0.15990516543388367,-8.457534568151459e-5,-0.32600489258766174,0.02373524010181427,-0.16150210797786713,0.01697719283401966,-0.46104443073272705,-0.004394720774143934,-0.023569567129015923,-0.12525510787963867,-0.18884684145450592,-0.2567082643508911,-0.1725970059633255,-0.179289311170578,0.0003030572843272239,0.014522857964038849,-0.16887150704860687,0.05396445840597153,-0.25789734721183777,-0.5369307994842529,-0.006105826236307621,0.001038885093294084,0.009264695458114147,-0.12763385474681854,-0.007711620070040226,-0.04178885370492935,-0.9075188636779785,-0.1526135951280594,-0.11707211285829544,-0.004930238239467144,-1.4024922847747803,-0.6867675185203552,-0.01396950613707304,-0.4916072487831116,0.272678017616272,-0.0387263298034668,-0.00832119956612587,0.03383350372314453,-0.13403654098510742,-0.05151653289794922,-0.00338366674259305,0.04216470569372177,0.02459001913666725,-0.3545781672000885,0.0010660587577149272,0.13025343418121338,-0.7822786569595337,0.07633738964796066,-0.02982940711081028,0.021272405982017517,-0.2758229970932007,-0.09538959711790085,-0.9284325242042542,-0.03205510228872299,-0.10090681910514832,-0.04255397245287895,-1.1330831050872803,-0.18457582592964172,-0.4802626073360443,0.2072291374206543,0.012112786993384361,-0.1510120928287506,-0.5728961229324341,-0.037098146975040436,0.0009013167582452297,-0.003809619229286909,-0.1098741888999939,-1.8347164392471313,-0.32062795758247375,-0.2567601501941681,-0.3476356565952301,-0.04709450155496597,-0.00027284480165690184,-0.3377925455570221,-1.7359789609909058,-0.29991140961647034,0.07598026841878891,-0.0006925035850144923,-0.2412114441394806,-0.7648958563804626,-0.05944972112774849,-0.0900128036737442,-0.091865673661232,0.00011361877841409296,-0.00047670913045294583,-0.06582947075366974,-0.08955561369657516,-0.0028845039196312428,0.04701332375407219,-0.0019224710995331407,-0.0004593473277054727,-0.42614054679870605,0.047215960919857025,-0.3574022352695465,-0.032168060541152954,-0.03154585883021355,-1.5489577054977417,-0.5503219366073608,-0.04160134121775627,0.1051979660987854,0.002807296346873045,-0.15133874118328094,-0.17951512336730957,0.05724909156560898,-0.6630376577377319,-0.2446672022342682,-0.05541388317942619,0.009177464991807938,-0.025703877210617065,0.0002007738803513348,0.012415499426424503,-0.051652245223522186,-0.0444110631942749,-0.09688933938741684,0.0008315345039591193,-0.28612813353538513,0.0016220101388171315,-0.0002591850352473557,0.04839616268873215,0.16163881123065948,-0.0005070239421911538,-0.7379271388053894,-0.7677642703056335,-0.18291950225830078,-0.04339522495865822,-0.18910251557826996,0.042195968329906464,-0.032158855348825455,-0.00013483765360433608,-0.00040815031388774514,-1.9288268089294434,0.002864553825929761,-0.20317740738391876,0.11719691753387451],[-0.20080657303333282,0.0,-0.20639832317829132,0.007228588219732046,-0.5563462972640991,2.0542422134894878e-5,0.02620081603527069,-0.5111724138259888,0.0018493598327040672,0.0008840856608003378,0.004121737089008093,0.009420085698366165,0.4856100380420685,0.05784349888563156,-0.4074230492115021,0.17860649526119232,-0.0011861692182719707,-0.11674532294273376,0.0006700115627609193,-0.004595628939568996,0.06212954595685005,-0.5174021124839783,-0.11914777010679245,0.015509123913943768,0.04047295078635216,-0.1661721020936966,-0.2803901135921478,-0.0010835188440978527,0.10931055247783661,-0.3481476604938507,-0.023708805441856384,0.024753352627158165,-0.8012605309486389,-0.6245653033256531,-0.37334421277046204,0.00321113015525043,-0.12782005965709686,-0.559377133846283,0.00014968516188673675,-0.1646544188261032,-0.07742280513048172,-0.05109597370028496,-0.04221328720450401,-0.3325777053833008,-0.11394444108009338,0.003343817312270403,-0.45857876539230347,-0.0002490985207259655,-0.16736800968647003,-0.6159392595291138,-0.1371077299118042,-0.021310454234480858,0.013331001624464989,-0.07423996180295944,-0.05635197088122368,0.07328668236732483,-0.35594642162323,0.007875947281718254,-0.0785694271326065,0.11241457611322403,-0.6046034097671509,-0.5579757690429688,-0.11070801317691803,-1.177783489227295,-0.026334648951888084,0.025121459737420082,-0.0041341762989759445,-0.47848859429359436,-0.5287683010101318,-0.021565962582826614,-0.15073664486408234,-0.7749050855636597,-0.0023246046621352434,-0.8928678035736084,-0.10216329991817474,0.581247091293335,-0.0346011146903038,-0.00033450708724558353,0.12298550456762314,-0.0013250447809696198,0.05874122306704521,-0.044483549892902374,-0.1526549905538559,-0.03265973925590515,0.028280068188905716,-0.8370803594589233,-0.39121925830841064,0.01229821890592575,-0.4985596537590027,-0.04247547686100006,0.008532833307981491,-0.14600494503974915,-0.002998409792780876,0.01315765455365181,-0.0007284678285941482,-0.5190229415893555,-0.052786603569984436,-0.14965204894542694,-0.000976240320596844,-0.3949470818042755,-0.986630380153656,-0.13427771627902985,0.0828414186835289,-0.0008151427027769387,0.04430106282234192,-0.0017438966315239668,-0.011289657093584538,-0.6440614461898804,-0.11547307670116425,0.14945365488529205,0.1671099066734314,-4.889878982794471e-5,0.395460307598114,0.2192472666501999,-0.9133678674697876,-0.01769300550222397,0.05221680924296379,0.006708075758069754,-0.252804160118103,-0.0701926052570343,0.017056232318282127,-0.6322107315063477,-0.4060753881931305,-0.7449089884757996,-0.9215592741966248,-0.3718039095401764,-0.7661861181259155,-0.6968762278556824,0.007762041874229908,-0.745549201965332,-0.6583446264266968,0.03901519626379013,0.006684828083962202,-0.00895522441715002,0.00033985727350227535,0.11307891458272934,0.05513845384120941,-0.4051417112350464,0.0005651635583490133,-0.9165453910827637,-0.01339892577379942,-0.0023637234698981047,-0.4755942225456238,-0.7790494561195374,-0.04173702746629715,-0.8975425958633423,-0.0007886833045631647,0.08245320618152618,0.000461222545709461,0.015153794549405575,-0.12680426239967346,-0.09331286698579788,-0.2614797055721283,0.007065522018820047,-0.8384150862693787,-0.5855386853218079,-0.14270201325416565,-0.5987566709518433,-0.02984093315899372,-0.0008668503141961992,0.00014075040235184133,0.000274299003649503,-0.5926337838172913,-0.3231135308742523,0.01757848635315895,-0.14586223661899567,-0.00015083800826687366,-0.839296817779541,-0.0016909235855564475,-0.31121817231178284,0.0005800643120892346,-0.33623334765434265,-0.02150868810713291,-0.012592703104019165,-1.0367305278778076,0.11903341114521027,0.03335191681981087,-0.026078522205352783,-0.23653867840766907,-0.8285571932792664,-0.25919994711875916,-0.1809205412864685,-0.18968258798122406,-0.025451939553022385,-0.00022677214292343706,-0.5990875363349915,0.09358233213424683,0.0005950132035650313,0.16999639570713043,-0.7748640179634094,-0.740395188331604,-0.9971999526023865,0.006014252547174692,-0.010497120209038258,-0.35778558254241943,-0.750817596912384,-0.017180055379867554,-0.017139704897999763,-0.00040709454333409667,0.14162565767765045,-0.01006876677274704,0.0014909249730408192,-0.04134620726108551,-0.13159672915935516,0.010159694589674473,0.002077186945825815,-0.025245817378163338,-0.0003737439983524382,-0.002292591379955411,-0.47802290320396423,-0.1022920161485672,-0.0008506910526193678,0.0009482588502578437,-0.23087696731090546,0.18769040703773499,0.007642165757715702,-0.6545559763908386,-0.0973091796040535,-0.62456876039505,-0.6392136216163635,-0.8786885142326355,-0.25537019968032837,-0.14203110337257385,0.00226851599290967,0.04446415975689888,-0.3142266869544983,-0.5728998780250549,-0.1027623862028122,-0.3488152027130127,0.1265365183353424,0.04806515946984291,-0.005921047180891037,0.08030638843774796,-0.4512409269809723,-0.0758931040763855,-0.3714633882045746,-0.005116645246744156,-1.005225658416748,-0.006843562703579664,-0.2710154354572296,-0.41544973850250244,-0.1075446829199791,-5.57485363970045e-5,-0.893620491027832,-0.4612624943256378,-0.003376604523509741,0.28344759345054626,-0.6517699360847473,0.06875080615282059,-0.00037317999522201717,0.0034918515011668205,-0.6115813851356506,-0.28529512882232666,0.004839665722101927,-0.04212965816259384,-0.004778505302965641],[0.012528727762401104,0.0009156434680335224,0.0,-0.024142784997820854,0.18764273822307587,0.0018362365663051605,0.00047091225860640407,-0.0027300333604216576,-0.6475563049316406,0.039600443094968796,0.15413245558738708,-0.017711807042360306,0.13744454085826874,-0.002626386471092701,4.91128048452083e-5,-0.4771360158920288,0.0006150503177195787,-0.05002753064036369,-0.0007345637422986329,0.32229575514793396,0.041925203055143356,0.07003707438707352,0.0004835724539589137,0.003229142166674137,-0.24214382469654083,-0.007820827886462212,-0.024763986468315125,0.0007822818588465452,0.004587158095091581,-0.001130584510974586,0.0015299838269129395,0.13624881207942963,0.191855788230896,0.08165378123521805,-0.20844079554080963,-0.2281535118818283,0.0016209231689572334,-0.36514824628829956,-0.21567533910274506,0.0001936048938659951,0.05327332392334938,8.252812403952703e-5,-0.0006337594240903854,0.056404706090688705,-0.0847216323018074,0.0015430096536874771,-0.000177340378286317,-0.24239690601825714,-0.2731883227825165,0.012296689674258232,0.061423420906066895,-0.09947856515645981,0.005172851029783487,0.0011098430259153247,-0.00015557202277705073,-0.0011975900270044804,-0.037396617233753204,0.002680226694792509,-0.03710853308439255,-0.2663944363594055,-0.14821206033229828,-8.318385516759008e-5,0.00199692789465189,-0.84613436460495,0.07305857539176941,-0.10200369358062744,0.0009148161043412983,-0.004831402096897364,-0.8204037547111511,0.015508610755205154,-0.20993314683437347,-0.10299979895353317,-0.00035534269409254193,-0.4651004374027252,0.045924581587314606,-7.553234172519296e-5,-0.045023106038570404,-0.3190287947654724,0.08736909180879593,-0.0034221098758280277,-0.14969035983085632,0.012741224840283394,0.010542341507971287,-0.00047564125270582736,0.24434202909469604,-0.006375613622367382,0.27996283769607544,-0.0005325666279532015,0.00028815996483899653,-0.08753084391355515,-0.18591690063476562,0.05652531608939171,-0.11970670521259308,0.13121604919433594,-0.08477725088596344,-0.0006065598572604358,-0.12439865618944168,0.029158402234315872,0.11214269697666168,0.010913138277828693,-0.32935550808906555,0.005981236230581999,-0.008866116404533386,-0.23706957697868347,-0.03499382734298706,-0.44355854392051697,0.035860586911439896,-0.017521454021334648,-0.025363681837916374,-0.0009421430295333266,-8.357825572602451e-5,-0.003223911626264453,0.000529855431523174,-0.009642789140343666,-0.025225576013326645,0.0004916267353110015,0.14832843840122223,-0.0013272017240524292,0.0027004575822502375,-0.03921098634600639,-0.18028585612773895,0.0011459197849035263,0.0019416868453845382,-0.04004647955298424,0.23405960202217102,0.02714555151760578,0.03373553603887558,0.20457695424556732,-0.09037648886442184,-0.056883927434682846,-0.2451496720314026,-0.001285752048715949,-0.028213759884238243,-0.0350954532623291,0.0009223108063451946,-0.13801513612270355,0.009664749726653099,-0.3224996030330658,-0.11607926338911057,-0.06605689972639084,0.00013992172898724675,-0.15844149887561798,0.0009567980887368321,0.16766151785850525,-0.028978418558835983,0.21435675024986267,-0.004380380269140005,-0.042690180242061615,0.0017191943479701877,-0.0024774326011538506,0.0020252687390893698,0.0009168402757495642,-0.0016043073264881968,-0.08676941692829132,0.14173419773578644,0.08798687905073166,0.00048353057354688644,0.00014616348198615015,-0.02820644900202751,0.002371549839153886,0.0008305241935886443,0.00018406576418783516,-0.2726910412311554,-0.18567682802677155,-0.0024483504239469767,-0.03336403891444206,-0.18162977695465088,0.001207171706482768,-0.020867610350251198,0.0023074240889400244,-0.00011459278903203085,0.0025828576181083918,-0.2913912832736969,-0.00012047649943269789,-0.14427877962589264,-0.0018394547514617443,-0.00797949731349945,-0.02605552040040493,0.0012744029518216848,-0.28479230403900146,-0.012985154055058956,-0.0003665128315333277,0.09293998777866364,-0.07545463740825653,-0.0064394911751151085,0.0783686488866806,-5.265933577902615e-5,-0.0001656037347856909,-3.5310509701957926e-5,-0.0053617749363183975,0.2565186023712158,0.006924263667315245,0.0231563001871109,-0.003029456129297614,-0.0003528972156345844,-0.22917477786540985,5.281959238345735e-5,-0.14833055436611176,0.12757551670074463,0.00035492892493493855,-0.0013177812797948718,-0.021207984536886215,-0.10389252752065659,-0.028730453923344612,-0.0008530075429007411,-3.80564306396991e-5,-0.002819794462993741,-0.00045653412234969437,-0.05706610903143883,0.0036033382639288902,0.00018046329205390066,0.02800920233130455,0.03510335832834244,-0.00010085730900755152,-0.00046394942910410464,-0.01879243366420269,0.00027844097348861396,0.002576741622760892,-0.01642516441643238,-0.6880050301551819,0.023100951686501503,0.042120590806007385,-0.028266148641705513,-0.016528015956282616,-0.0003418053383938968,0.005054687149822712,-0.0028407294303178787,-0.03873610123991966,0.002049175789579749,-0.015334401279687881,-0.07038874924182892,0.013250119052827358,-0.02411222644150257,0.014708960428833961,0.023681500926613808,0.018481982871890068,0.000583602231927216,0.0008692331030033529,0.09734531491994858,0.007476652506738901,0.19830738008022308,-0.13529638946056366,-0.0029821356292814016,-0.015178672969341278,0.0008079010876826942,-0.019372262060642242,0.4031120240688324,-0.002161183161661029,0.0027368871960788965,-0.27774664759635925,-0.002273234073072672,0.17174288630485535,0.0035127566661685705,0.0002076628152281046,-0.024771790951490402,-0.015238870866596699],[-0.3037432134151459,-0.1282738298177719,-0.3669547736644745,0.0,-0.39721858501434326,-0.5182550549507141,-0.0002816244086716324,-0.21918760240077972,-0.0005926320445723832,0.00016027128731366247,-1.0656802654266357,0.005161382723599672,0.0005082378047518432,-0.023184403777122498,-0.01949082314968109,-0.24221010506153107,-0.17988020181655884,0.011888202279806137,-0.5962122678756714,0.048194967210292816,0.001138794352300465,-0.052817340940237045,-0.18799126148223877,0.002790531376376748,0.06749629974365234,0.030811969190835953,-0.024277351796627045,0.04196475073695183,0.0019660023972392082,-0.0029941429384052753,-0.000208517158171162,-0.12337587028741837,-0.6109380722045898,-0.39560672640800476,-0.7444595694541931,0.1636960208415985,-0.30517661571502686,-1.0636811256408691,-0.10747204720973969,-0.0826834887266159,-0.0003962313348893076,-0.0037970610428601503,-0.4197922945022583,-0.2547084391117096,0.44626694917678833,-0.09155601263046265,-0.0035975275095552206,-0.5726487636566162,0.004793865606188774,0.007130809593945742,-0.07692840695381165,-0.040255121886730194,0.010820083320140839,-0.15937459468841553,-0.3319931626319885,-0.3556257486343384,0.0017244223272427917,0.004577580373734236,0.3096258044242859,-0.45511484146118164,0.06126335635781288,0.00024936534464359283,0.0010945716639980674,0.08169180154800415,0.0031891693361103535,-0.012209632433950901,0.07551845908164978,0.005849823355674744,-0.000834486389067024,-0.02001391164958477,-0.0006988493842072785,0.011486946605145931,-1.2117116451263428,-0.04970383644104004,-0.365849107503891,-0.00036820577224716544,-0.48156872391700745,-1.4965023183322046e-5,0.0005046830046921968,-0.6515907049179077,0.3718969523906708,-0.488918274641037,-0.12727218866348267,-0.062211692333221436,-0.15628698468208313,0.31946367025375366,-0.3387450873851776,-0.0032867323607206345,-0.0009410339407622814,0.029639050364494324,-0.3750762939453125,-1.3223340829426888e-5,0.20098254084587097,0.03189898282289505,0.01598205603659153,0.08777627348899841,0.0003605501551646739,-0.6079654693603516,-0.5502257943153381,-0.00037322347634471953,-0.14674246311187744,0.08876609802246094,0.03843354061245918,0.00666383933275938,-0.35089629888534546,-0.21901176869869232,0.5496471524238586,0.04089896008372307,0.009367057122290134,-0.1097823902964592,-0.20159368216991425,-0.09127748012542725,-0.007154984399676323,-0.20740735530853271,0.16685862839221954,0.05902989208698273,0.0013129686703905463,-0.03757333382964134,0.008241396397352219,0.0008614026010036469,-1.2929569482803345,0.02307269349694252,0.030759623274207115,0.003631338942795992,-0.39820989966392517,-0.0010225180303677917,-0.23881304264068604,0.006231081672012806,-0.00025287317112088203,-0.27012667059898376,0.3720735013484955,0.07934161275625229,0.07655026018619537,0.02469731867313385,-0.8093453049659729,-0.9813814163208008,0.001327327685430646,-0.03220614418387413,-1.2230632305145264,0.31136441230773926,0.2920916676521301,0.0003408357151784003,0.018770646303892136,-0.4155351221561432,0.011875534430146217,-0.0003171417338307947,0.0010750575456768274,0.17088623344898224,0.06877041608095169,0.026934180408716202,-0.36937811970710754,-0.000163032571435906,0.07902581989765167,0.004192715976387262,-0.2864556908607483,-0.21263021230697632,-0.019953826442360878,0.0942373052239418,0.07435167580842972,0.0008068003808148205,-0.03562990576028824,-0.000102153469924815,-0.459703266620636,0.0010044133523479104,-0.051471877843141556,-0.007596619892865419,0.0010688317706808448,-0.03349602222442627,0.18963831663131714,0.0011614980176091194,-0.20751641690731049,-0.0002934905351139605,-0.7889745235443115,-0.6087652444839478,0.2501249611377716,0.04487065598368645,-0.0026527184527367353,-9.364395373268053e-5,0.1371421366930008,-0.6437134742736816,0.0007862758939154446,-0.018615642562508583,-0.08077065646648407,0.002393708797171712,0.001618454116396606,0.07791944593191147,-0.44801703095436096,0.00409782724454999,0.0038254670798778534,0.0649113655090332,-0.18495528399944305,0.01170705258846283,0.0005890314932912588,-0.001199691672809422,0.011819147504866123,0.0725342333316803,0.08492597192525864,-0.1826585829257965,-0.15629363059997559,0.02026222087442875,0.02159770578145981,0.016951492056250572,0.007666489575058222,0.02478373423218727,-0.11353547871112823,0.09706239402294159,-0.02471788227558136,0.8645859360694885,0.021453985944390297,9.754159691510722e-5,-0.007524650543928146,-0.02733856625854969,-0.0004791232931893319,-0.18322305381298065,-0.017284253612160683,-0.11976106464862823,-0.19442354142665863,0.0076067158952355385,0.17659911513328552,-0.3072834610939026,-0.7607386708259583,0.00946221686899662,0.0009189549600705504,-0.1810699701309204,0.7131524085998535,3.6941346479579806e-5,0.013370798900723457,0.06212314963340759,0.00532247219234705,-0.05933600664138794,-0.15670250356197357,-0.0022753607481718063,-0.6162703037261963,0.06659803539514542,-0.04504575580358505,-0.0290537066757679,-0.45252496004104614,0.19790934026241302,-0.12268825620412827,-0.0010306680342182517,-0.005235170945525169,0.053514331579208374,0.04151776432991028,0.13478896021842957,0.385394811630249,0.055148255079984665,-0.02923882193863392,-0.2850877344608307,0.11013481765985489,9.027488704305142e-5,-0.008087750524282455,-0.36781543493270874,0.027979718521237373,-2.7224385121371597e-5,0.02967912331223488,0.026047706604003906],[0.0520755872130394,-0.701390266418457,0.023441383615136147,0.47142094373703003,0.0,0.04437018558382988,-0.12303470075130463,0.18956413865089417,0.09041581302881241,0.03228034824132919,-0.1284022331237793,0.3172706961631775,-0.16494081914424896,0.14314380288124084,0.015271366573870182,-0.3049517571926117,0.016810869798064232,-0.003045830177143216,-0.414804071187973,0.05845009908080101,0.057276006788015366,0.5435816645622253,-0.007603557780385017,0.004993144888430834,0.08449186384677887,-0.14745958149433136,-0.44162529706954956,0.043358612805604935,0.06458152830600739,-0.5336750149726868,-0.45363524556159973,-0.17457439005374908,0.018438702449202538,0.025088122114539146,-0.07511015981435776,0.1154017299413681,0.0031463326886296272,0.3222798705101013,-0.05073558911681175,0.11512059718370438,0.016649585217237473,-0.688788890838623,0.008394484408199787,-0.0171640757471323,-0.11425468325614929,-0.019604375585913658,-0.34066736698150635,-0.44062042236328125,-0.5133177042007446,-0.0008153382805176079,0.03877684473991394,0.04163999482989311,0.47033432126045227,-0.025389574468135834,0.12201409041881561,0.3949556350708008,-0.14332906901836395,0.24750076234340668,-0.09957081079483032,-0.2422882616519928,0.30878958106040955,-0.5003569722175598,-0.5820613503456116,-0.22839190065860748,0.006815731525421143,-0.07452557235956192,-0.4290081858634949,-0.10324973613023758,0.006649704650044441,-0.10862425714731216,-0.2051326483488083,-0.0030239340849220753,0.0807529017329216,0.27797576785087585,-0.0006777025409974158,-0.05317477509379387,0.001539683435112238,-0.1398800015449524,-0.15665479004383087,-0.07737792283296585,0.0191557165235281,-0.21104440093040466,-0.02121996507048607,0.14021188020706177,-0.006043670233339071,0.41036176681518555,0.25562751293182373,-0.18121084570884705,-0.14087465405464172,-0.09992881119251251,-0.016955137252807617,0.0006753517081961036,-0.14692774415016174,0.01038848515599966,-0.0904390960931778,0.10500665009021759,-0.010087749920785427,-0.17717520892620087,-0.08866339921951294,-0.016170507296919823,0.2395450919866562,0.0010207589948549867,0.05617072060704231,0.02613699808716774,0.6910264492034912,-0.2947341203689575,-0.19238565862178802,0.08822363615036011,-0.0012466803891584277,-0.053854819387197495,0.042847756296396255,-0.03066318854689598,0.15346260368824005,-0.7130381464958191,0.21760320663452148,-0.09579894691705704,-0.08912904560565948,0.005483045242726803,-0.32052886486053467,-0.07720808684825897,-0.48256468772888184,-0.3081859052181244,0.140473410487175,-0.08627112954854965,-0.27430006861686707,-0.3498889207839966,0.25563129782676697,-0.03882965072989464,0.4132230877876282,-0.008741828612983227,0.11965235322713852,-0.3504386246204376,0.14104314148426056,-0.3408651351928711,0.002812486607581377,-0.052183207124471664,-0.0004377802833914757,0.44259506464004517,-0.524682343006134,0.16437861323356628,0.2332560122013092,-0.03149735927581787,-0.28630325198173523,0.6399912238121033,-0.0016784612089395523,-0.016767840832471848,-0.04080069810152054,-0.9439642429351807,-0.5158042311668396,-0.1729346215724945,0.07830081880092621,-0.0012689816066995263,0.16157928109169006,-0.11112835258245468,0.5577436089515686,-0.21778716146945953,0.002918180311098695,-0.49779435992240906,-0.2142484039068222,0.07104803621768951,0.2035684436559677,0.00879070907831192,-0.2897348999977112,-0.19484475255012512,-0.0007609546883031726,-0.281161367893219,-0.17671331763267517,-0.1041235700249672,0.29925188422203064,-0.040615152567625046,-0.10983934253454208,-0.3137010931968689,0.06567836552858353,-0.002504766918718815,0.06179031357169151,-0.08568379282951355,0.1469826102256775,0.003701294306665659,0.4927458167076111,-0.16043245792388916,-0.34024128317832947,-0.06661507487297058,-0.12008487433195114,0.10431858152151108,0.27065086364746094,-0.034257497638463974,-0.5130208730697632,-0.6672520637512207,-0.19692692160606384,0.31823229789733887,0.018020810559391975,0.08651460707187653,0.0401836633682251,0.0022871065884828568,-0.2583223879337311,-0.05736885592341423,-0.04111644625663757,0.30034056305885315,-0.19045300781726837,0.14506590366363525,-0.2589421272277832,0.20609800517559052,-0.12112900614738464,-0.16977877914905548,0.35018476843833923,-0.11300273984670639,-0.20821347832679749,0.025620324537158012,0.0028690334875136614,-0.046530842781066895,-0.10354062169790268,-0.12548618018627167,0.034391846507787704,-0.23147928714752197,0.08623293787240982,-0.29578322172164917,0.39695632457733154,-0.2068454921245575,0.36818817257881165,0.04396812990307808,0.1597425490617752,-0.26123112440109253,-0.013551747426390648,0.11993187665939331,-0.3654711842536926,-0.020462293177843094,0.00423765741288662,0.1885930746793747,-0.04454922676086426,-0.13914944231510162,-0.14973823726177216,0.00026124122086912394,-0.09958388656377792,-0.37817880511283875,-0.0325489304959774,0.15990617871284485,-0.14354561269283295,0.3945712149143219,-0.11052688956260681,-0.3890538811683655,-0.1271217167377472,0.3062454164028168,-0.6521073579788208,0.10088663548231125,0.12754450738430023,-0.017029985785484314,-0.048982590436935425,-0.37664464116096497,-0.21209768950939178,-0.3144724369049072,-0.07124289870262146,-0.2790123224258423,-0.00918408390134573,-0.057890187948942184,-0.4689711630344391,-0.1388884335756302],[-0.08619547635316849,-9.862733713816851e-5,0.0019490449922159314,-0.061564162373542786,-0.8641557097434998,0.0,-0.20141559839248657,-0.0015190525446087122,-0.4538065493106842,0.000789785641245544,-0.003585059894248843,-0.14002057909965515,0.21831604838371277,0.009225022979080677,0.023021548986434937,0.024431239813566208,-0.0318787656724453,-0.1759646087884903,0.0008974996744655073,0.2111116498708725,0.06830166280269623,-0.6910393238067627,0.0005250906106084585,0.03828379884362221,-0.3288285434246063,0.01848357729613781,-0.7766615152359009,-0.010207333602011204,-0.07325737923383713,-0.5891181230545044,-0.4743950366973877,0.16252925992012024,0.004346912261098623,-0.9992308020591736,-0.6679637432098389,-0.4057745039463043,-0.3284003436565399,-0.902378499507904,-0.0019138905918225646,-0.8017465472221375,-0.061065323650836945,-0.3999958038330078,-0.008129027672111988,-0.10908451676368713,-0.1663547158241272,0.011300439946353436,-0.17024409770965576,-0.00033405135036446154,0.2752750515937805,-0.6665601134300232,0.000318417587550357,-0.015221751295030117,-0.0014733157586306334,-0.0001397446176270023,-0.00903687160462141,0.06712666898965836,-1.161227822303772,0.012665199115872383,-0.206674724817276,-0.5336906909942627,-0.450175017118454,-0.0019584018737077713,-0.5774738788604736,-1.192063331604004,0.1411060392856598,-0.027140872552990913,0.0562964603304863,0.28417423367500305,-1.1123113632202148,-0.006412788759917021,-0.04888574779033661,0.026724597439169884,-0.0020437089260667562,-0.28999239206314087,-0.1845550239086151,0.19336222112178802,-1.4264432191848755,-0.01498471014201641,0.10637307912111282,-0.002251715399324894,-0.0028283754363656044,0.022326381877064705,0.02577461674809456,0.0004617986851371825,0.00443374365568161,-0.3786533772945404,-0.018118612468242645,-0.17789967358112335,-0.08234543353319168,-0.012353931553661823,-0.027781255543231964,-0.0023474323097616434,-0.0443076491355896,0.25326234102249146,-0.0005540281417779624,-0.0033072931692004204,-0.0773172378540039,0.000270066928351298,0.0006261137896217406,0.0021571277175098658,-0.3927370607852936,-0.5830432176589966,-0.00037629128200933337,0.00040383997838944197,-0.08772315084934235,-1.0647764205932617,-0.11918213218450546,-0.3778533637523651,-0.07469651848077774,0.006999351549893618,0.023127518594264984,0.00011427721619838849,0.09557414799928665,0.007495248690247536,-0.3224806785583496,0.05143801122903824,0.03184933215379715,0.009345169179141521,-0.49534738063812256,-0.0341322161257267,0.00017569893680047244,-0.7388902306556702,-0.00034609591239131987,-0.7674319744110107,0.029950402677059174,-0.24200600385665894,-0.21206657588481903,-0.04222056269645691,0.0036495851818472147,-0.6212490200996399,-0.5872571468353271,-0.220822274684906,-0.1890171468257904,-0.13317330181598663,0.0007521107327193022,0.2423369139432907,0.005734053440392017,-0.8811888694763184,5.525572851183824e-5,-0.28908857703208923,-0.20102350413799286,-0.06069371849298477,-0.6533520817756653,-0.4607381224632263,-0.002359346253797412,-1.0887147188186646,-0.011506392620503902,0.10078378766775131,0.0010756319388747215,-0.04731569066643715,-0.0011660850141197443,-0.00042037724051624537,-0.394039511680603,-0.01976083405315876,-1.1799726486206055,-1.032373309135437,-0.04061775654554367,-0.00110912905074656,0.14575116336345673,0.000682125159073621,0.023771675303578377,-0.0026295592542737722,-0.8411679267883301,-0.14144542813301086,0.000685002189129591,-0.1365775167942047,-0.0009418872650712729,-0.4813125729560852,-0.08199391514062881,-0.4114757776260376,0.37332087755203247,-0.011767716147005558,-0.004914348479360342,-0.040870551019907,-0.5622347593307495,-0.0009370102779939771,0.0007683348376303911,0.0015507133211940527,-0.4779113233089447,-1.3375093936920166,-0.05564507097005844,-0.002273698104545474,-0.09605227410793304,0.1293925791978836,-0.0005049730534665287,0.15454253554344177,0.00022032522247172892,-0.011460832320153713,0.0017912570619955659,-0.4599326550960541,-0.5795458555221558,-1.126938819885254,0.023338833823800087,-0.20942845940589905,-0.9258793592453003,-0.07684266567230225,-0.6708138585090637,0.07050218433141708,0.0002207522193202749,0.006706479471176863,-0.006003169808536768,-0.5072335600852966,-0.11202482134103775,-0.10969146341085434,0.0031759170815348625,0.0117740323767066,0.10127449780702591,-0.008361398242413998,0.003984974231570959,-0.16012658178806305,0.16292688250541687,0.003473013173788786,0.002018911764025688,-0.0017359607154503465,0.09838074445724487,0.12519381940364838,-1.3511548042297363,-0.03858594596385956,-0.4263341426849365,-0.7134943008422852,-0.9359687566757202,-0.05955946817994118,-0.060426387935876846,0.01609122008085251,0.0045735943131148815,0.00029841464129276574,-0.7725478410720825,-0.007634851615875959,0.0010609637247398496,0.0031584040261805058,0.005554314237087965,-0.4319472312927246,-0.21378231048583984,-0.0007223436259664595,-0.03609804809093475,-0.061215173453092575,0.011222423985600471,-1.1704543828964233,-0.04049444571137428,0.00011456137872301042,-0.04602908343076706,0.0020609726198017597,-0.032122381031513214,-0.36119788885116577,-0.6415345072746277,0.0018203085055574775,0.23872153460979462,0.0297058317810297,0.0011249545495957136,-0.0002354171738261357,0.013248767703771591,-0.5424801707267761,-0.5199965834617615,-0.41822123527526855,-0.1205344945192337,-0.004419071599841118],[-1.0830756425857544,-0.3090938627719879,-0.0001462060899939388,0.004325919784605503,0.07433952391147614,0.0013211900368332863,0.0,-6.028818097547628e-5,-0.08391597121953964,-0.5343650579452515,-0.29813212156295776,0.012647162191569805,-0.2054167091846466,0.10947876423597336,-0.06614770740270615,0.0008778900373727083,-0.00030057362164370716,-0.06824199110269547,0.13117831945419312,0.0006208543782122433,-0.4478153586387634,-0.0003790809423662722,0.00026487710420042276,-0.18037961423397064,-4.2369894799776375e-5,-0.0006386617897078395,-0.00014493076014332473,0.0003392911166884005,-0.2638743221759796,0.07722985744476318,0.29215356707572937,0.02386321872472763,0.0010082070948556066,0.00021357761579565704,-0.011307096108794212,-0.2876940369606018,-0.3513926565647125,4.523173629422672e-5,0.26582908630371094,0.012657774612307549,0.015153307467699051,0.6420577764511108,-0.0009015169343911111,-0.010910251177847385,-0.29865384101867676,-0.19221821427345276,0.013207701034843922,0.1855001598596573,-0.09689556062221527,-0.04591242969036102,0.00011396441550459713,-0.0007546183187514544,-7.146369171096012e-6,0.0004680762067437172,-0.0008028044831007719,0.16669780015945435,0.000984059413895011,0.04950496181845665,-0.15379886329174042,-0.014478914439678192,-0.010297146625816822,0.0003077718138229102,0.624531090259552,0.00362804951146245,-0.34107014536857605,0.0026944258715957403,-0.003282740479335189,0.009740030393004417,0.007239349186420441,-0.3574151396751404,-0.012476319447159767,-0.0052623688243329525,0.0005864652921445668,-0.03897647187113762,-0.7905365228652954,-0.14077404141426086,0.06946928054094315,-6.859689892735332e-5,-1.4161696434020996,-0.0008462646510452032,-0.04559534415602684,-0.4043375551700592,0.0014764617662876844,-0.3222852647304535,0.0016990634612739086,-0.0003045302291866392,-0.007777916267514229,0.13449178636074066,0.0977974534034729,0.0024853458162397146,0.21414801478385925,0.0005752624711021781,-0.1019822433590889,0.00012945712660439312,-0.3977680802345276,-0.023890748620033264,0.006917536724358797,-0.3886670470237732,-0.12843529880046844,-0.0956675112247467,0.004165472462773323,-0.10217923671007156,0.0008444541599601507,-0.0004217599635012448,0.09359653294086456,-0.0003546089865267277,-0.1342279613018036,-0.02772226557135582,-0.19595256447792053,-0.006702193059027195,-0.0002795316686388105,0.0056817736476659775,-0.5106746554374695,0.014916851185262203,-0.01926039531826973,-0.008723581209778786,-0.5121023654937744,0.08927323669195175,9.890333603834733e-5,-0.001124227768741548,0.04298649728298187,0.012785494327545166,8.61339140101336e-5,0.020900635048747063,-0.050552599132061005,-0.0005755906458944082,-0.00014549383195117116,0.0012604543007910252,-1.174744963645935,-0.0031637141946703196,-0.0016067003598436713,-0.03496411442756653,-0.10729435831308365,-0.024615079164505005,0.00045974229578860104,-0.02467614784836769,-0.11794710159301758,0.16980285942554474,0.09820844978094101,-0.047397397458553314,-0.0004975743358954787,-0.13509061932563782,0.08737354725599289,0.019601307809352875,-0.0003541636106092483,0.0013162110699340701,0.06676991283893585,-0.08016026765108109,-0.2596135437488556,0.03227773681282997,7.684168667765334e-5,0.00025749424821697176,1.3497110558091663e-5,-0.07787129282951355,0.003258082550019026,0.02760804258286953,-0.8081161975860596,-0.015411149710416794,0.12470578402280807,-0.0012029495555907488,-0.27302315831184387,-0.00045347432023845613,-0.00012774688366334885,-0.008861239068210125,0.21200616657733917,0.0889192447066307,0.00010231140913674608,-0.1737549602985382,-0.00028996667242608964,-0.06023290753364563,-0.10076285898685455,0.02724677138030529,-0.18855434656143188,0.00016750831855461001,0.02152377739548683,0.09615956991910934,0.0002627722860779613,0.003530822228640318,0.0006484572077170014,5.191762284084689e-6,0.0016357054701074958,-0.0031967649701982737,-0.23502220213413239,-0.08124155551195145,0.00042782985838130116,-0.1518622487783432,0.09870374947786331,-0.05593644455075264,-0.0004889604751951993,-0.0005349894054234028,-0.0025169220753014088,0.06954310089349747,-0.10123424977064133,0.39689701795578003,0.003890193533152342,-0.02616240829229355,0.004982783459126949,-0.06215544790029526,-0.24717170000076294,-0.0029657166451215744,-0.00878053531050682,-0.18308977782726288,0.028966300189495087,-0.011404708959162235,-0.009998700581490993,0.052895691245794296,-0.009028950706124306,-0.013599020428955555,0.000547956267837435,0.000886299239937216,-0.361397922039032,0.0023586321622133255,-0.003794045653194189,-0.0030402352567762136,-0.016562333330512047,-0.28621694445610046,0.0015093060210347176,-0.9996243119239807,-0.01784711889922619,0.005558475852012634,0.06900615990161896,-7.790062227286398e-5,0.0005629035294987261,0.03484467789530754,-0.2318388670682907,-0.288638710975647,-0.025196800008416176,-0.1656530797481537,0.0003496237040963024,-0.00823681615293026,0.11570975184440613,0.4000075161457062,0.11335962265729904,-0.02035520412027836,-0.0556204691529274,0.01849353313446045,-0.2004236876964569,0.0003451327793300152,-0.0007675331435166299,0.00038892313023097813,-0.6831682920455933,-0.35845473408699036,-0.0791986733675003,-0.005278061144053936,0.00018997468578163534,0.0009169861441478133,-0.3871361315250397,-0.0017147493781521916,0.01582907699048519,-0.0005530330818146467,-0.32067054510116577,0.02719135209918022,0.00283995782956481,0.10924553126096725,-0.21462760865688324,-1.8221689462661743],[-0.5050128698348999,-0.05352654308080673,0.09015978872776031,-0.2515733540058136,-0.22377470135688782,-0.10306265205144882,0.17851728200912476,0.0,0.0005511159542948008,0.17136454582214355,-0.10147497057914734,0.17023639380931854,-0.12607306241989136,-0.0015209258999675512,0.3520818054676056,0.08798052370548248,-0.039002202451229095,0.08283434808254242,-0.6242318749427795,0.03826205059885979,0.10913564264774323,0.10860589146614075,0.034523602575063705,-0.03580857068300247,-0.009855677373707294,-0.0002354784228373319,0.23121927678585052,-0.13715876638889313,-0.06524874269962311,-0.018722983077168465,0.29274100065231323,-0.10259556770324707,-0.5273445248603821,-0.0973544791340828,-0.005503466352820396,0.24043813347816467,0.07707736641168594,0.3366357982158661,-0.1983298808336258,-0.07633351534605026,-0.761642336845398,0.3066509962081909,0.2510366439819336,-0.20578362047672272,-0.04259290546178818,0.2600362300872803,-0.6388174891471863,-0.3102041184902191,0.010720103979110718,0.10308154672384262,0.05263647064566612,-0.3789309561252594,0.07000317424535751,0.1691155731678009,0.05997832119464874,-0.0005312908324413002,-0.11419964581727982,0.22001005709171295,-0.2557414770126343,-0.08613517880439758,-0.7005103826522827,0.024283356964588165,0.13299426436424255,0.06150462105870247,-0.1772318035364151,0.3621304929256439,-0.14086970686912537,0.0037939392495900393,-0.015743792057037354,-0.11666742712259293,0.35787227749824524,-9.037172276293859e-6,-0.1632663756608963,-0.4774860739707947,0.003041966585442424,0.16343167424201965,-0.05114830285310745,0.2109096199274063,0.15925289690494537,-0.14359202980995178,-0.1364719420671463,0.003506784327328205,-0.16791710257530212,-0.07991921156644821,0.04547838494181633,-0.016218973323702812,-0.04066675901412964,0.3096606433391571,-0.12136787921190262,0.39751455187797546,-0.1618337482213974,-0.0017370495479553938,-0.07693282514810562,-0.0009190181735903025,0.06383829563856125,-0.23407292366027832,0.6411867141723633,-0.9536149501800537,-0.020485814660787582,-0.3345917761325836,-0.42068547010421753,-0.011152954772114754,0.19817613065242767,5.391056038206443e-5,-0.09135184437036514,-0.0016397007275372744,-0.27643021941185,-0.0009495980921201408,-0.2842836380004883,-0.4024239480495453,0.22696810960769653,0.002285313792526722,-0.00016011644038371742,-0.0642804279923439,0.2036726027727127,-0.301544189453125,0.006185805890709162,0.23539967834949493,-0.2637545168399811,0.26697027683258057,-1.1462162733078003,-0.264537513256073,0.13995838165283203,0.14365065097808838,-0.43990060687065125,0.02183232083916664,-0.14603681862354279,-0.4970654249191284,0.0775858536362648,-0.6301087141036987,0.020783813670277596,-0.12718819081783295,-0.4686635434627533,-0.0767698884010315,0.3504756987094879,-0.014427686110138893,0.14544746279716492,-0.3737783133983612,-0.8593612313270569,-0.5526790618896484,-0.09275100380182266,0.29946789145469666,-0.5128882527351379,-0.05587616190314293,0.12639451026916504,-0.0013422580668702722,-0.15462571382522583,-0.7640289068222046,0.1085905134677887,-0.22204285860061646,0.03301332890987396,0.0700111985206604,0.009426669217646122,-0.1948106735944748,-0.008003201335668564,-0.16793450713157654,0.015683315694332123,-0.2966257333755493,0.20633728802204132,0.34529298543930054,-0.002656069817021489,-0.20247404277324677,0.037735968828201294,0.3832385540008545,-0.026613187044858932,-0.033129263669252396,0.34421420097351074,-0.43105366826057434,0.23343220353126526,-0.11998680979013443,0.0347369909286499,-0.9283586144447327,-0.461330771446228,0.06245293840765953,0.2378169745206833,0.018903957679867744,0.10893891006708145,0.09773878753185272,-0.06319428235292435,0.006787316873669624,-0.11317252367734909,0.8348601460456848,-0.04524737596511841,-0.3197367787361145,-0.07159939408302307,0.0010820996249094605,0.2392115592956543,-0.9253053069114685,-0.13504686951637268,0.0830555334687233,-0.2805301249027252,0.021171849220991135,-0.07452182471752167,-0.5373173952102661,0.23086218535900116,-0.17423918843269348,0.10887021571397781,0.01661054417490959,0.029170997440814972,-0.4178435802459717,0.47349756956100464,0.3387092649936676,-0.6712716817855835,0.20988494157791138,0.1991536170244217,1.3267101049423218,0.08433940261602402,-0.4846937358379364,-0.08954966813325882,-0.5557470321655273,0.10058801621198654,0.31505128741264343,0.010155554860830307,-0.4954812228679657,-0.000825862109195441,-0.8673489689826965,-0.09385357797145844,0.10799796879291534,-0.0020525422878563404,0.10426173359155655,-0.26204901933670044,-0.2369835525751114,0.4207010567188263,0.046164002269506454,-0.6044094562530518,0.3391173779964447,0.19549722969532013,-0.5269489884376526,-0.0013387094950303435,0.0877581238746643,0.06416510790586472,-0.0597846657037735,-0.14289438724517822,-0.27920910716056824,-0.031494226306676865,0.2576148808002472,-0.01324950996786356,-0.0778970718383789,0.34093907475471497,0.04897581413388252,-0.45294633507728577,0.20507055521011353,-0.3655535876750946,0.14770856499671936,-0.03870425745844841,-0.0544634610414505,-0.17992159724235535,-0.6792884469032288,0.03650156036019325,0.22517792880535126,0.5193848013877869,-0.021776538342237473,-0.0034217711072415113,0.32979193329811096,-0.58199143409729,0.1500520259141922],[-0.30441465973854065,0.023072391748428345,0.12444689869880676,0.3806726932525635,-1.6063289642333984,0.04729001969099045,-0.14039012789726257,-0.8578274250030518,0.0,0.06632142513990402,-0.0361505001783371,-0.02815679833292961,-0.11194939911365509,-0.0013097459450364113,0.25439849495887756,-0.5515261888504028,0.007030706852674484,0.13114146888256073,-0.09153729677200317,0.007572068367153406,-0.0001988571893889457,-1.3701976537704468,0.08638151735067368,0.05751707777380943,0.0001166743750218302,-0.13934122025966644,-0.5817300081253052,-0.0007838195888325572,-0.2808459997177124,-0.21058617532253265,0.2396208643913269,-0.03578844666481018,-0.8540677428245544,-0.39586904644966125,0.5700335502624512,0.004391615744680166,0.0045879557728767395,0.41756507754325867,-0.15811875462532043,-0.003563486272469163,-0.3295505940914154,0.2262618988752365,0.08100557327270508,-0.10752157866954803,0.044106390327215195,-0.0007237226818688214,-1.2909237146377563,-0.5847140550613403,-0.0023236048873513937,-0.34413963556289673,0.07566588371992111,0.005485386587679386,-2.027005672454834,0.03206310793757439,0.20540408790111542,0.0848626047372818,-0.5124161839485168,0.07725213468074799,-0.24189864099025726,0.6027915477752686,-0.3407568633556366,0.1672070175409317,-0.024495042860507965,0.36391982436180115,-0.7168029546737671,-0.3328179121017456,0.0002578723942860961,-0.3883543312549591,0.0006566544761881232,-0.12170036882162094,-0.18841898441314697,0.24592451751232147,0.13038812577724457,-0.2715848982334137,-0.00023941333347465843,-0.0009371682535856962,-0.9985721707344055,-0.3553527891635895,2.137270348612219e-5,-0.13829821348190308,-0.036464184522628784,0.0007540385122410953,0.006577441934496164,-0.0011265442008152604,0.09721264243125916,0.00043301202822476625,-1.6053788661956787,0.08886285871267319,-0.125814288854599,0.02020132914185524,-0.004272853955626488,0.147979736328125,0.3186037540435791,-0.002752463798969984,0.05896550789475441,-1.1188275814056396,0.06888634711503983,0.00038796215085312724,-0.048595402389764786,0.5396685600280762,-0.3161033093929291,0.09044043719768524,-0.6359022259712219,0.0008559744455851614,-0.32028985023498535,8.731542038731277e-5,0.07619330286979675,0.00020306494843680412,0.0011247432557865977,-0.7454169392585754,-0.17753425240516663,-0.28808629512786865,-0.10721135884523392,0.042364198714494705,0.0074797021225094795,0.0069517712108790874,-0.033289097249507904,0.05450044572353363,-0.01527601107954979,-0.12684699892997742,-0.3270092308521271,0.08394002914428711,0.15076494216918945,-0.5729372501373291,-0.9263670444488525,-0.07108426839113235,-1.8429028987884521,-1.008894443511963,0.020014313980937004,-1.5250794887542725,0.0018236500909551978,-0.7857624888420105,-0.09036479890346527,-0.3587263226509094,0.2370513528585434,-0.037055179476737976,-0.07631631195545197,-0.5629745125770569,-0.11148421466350555,-0.1958654671907425,-0.48938992619514465,0.04798213765025139,-0.33488795161247253,-2.0152525901794434,0.06334561109542847,-1.8335877656936646,-0.09219365566968918,0.010909772478044033,-0.2537265717983246,-0.11230077594518661,0.05288197472691536,0.0030037392862141132,0.05945977568626404,0.28259173035621643,-1.485369324684143,-0.1714506894350052,-0.018452612683176994,0.01015093456953764,-0.47859644889831543,-0.22852134704589844,0.08536329120397568,-0.07920992374420166,0.4117960035800934,-0.2646949291229248,-0.26274803280830383,-0.35880419611930847,-0.17517127096652985,0.14435975253582,0.00031367322662845254,0.6997758746147156,-0.005954437423497438,-0.20561964809894562,-0.13211750984191895,0.16924729943275452,0.004087510984390974,0.2340022772550583,-0.4410380423069,-0.028556715697050095,-4.1833896830212325e-5,0.6809156537055969,0.023993363603949547,-1.273314118385315,-0.5921275615692139,0.15577775239944458,-0.7202279567718506,0.5401480793952942,-0.16820098459720612,-0.6737819910049438,-0.7292490005493164,0.0014855519402772188,-0.7625623345375061,-0.17282283306121826,0.005087664816528559,-1.412304162979126,-0.4364614486694336,-0.3447009325027466,-0.0009101551258936524,0.0014684308553114533,-0.07533769309520721,-0.394939661026001,-0.6316094398498535,2.654209492902737e-5,-0.3315753638744354,0.0008517411188222468,-0.1117681935429573,-0.5027596950531006,-0.000908318383153528,0.22458317875862122,0.14716169238090515,-0.5930007100105286,-0.05015774816274643,-0.7229946255683899,-0.0062303063459694386,-0.08904911577701569,-0.011329720728099346,-0.13787764310836792,-0.07731118053197861,-0.2668837010860443,0.017411500215530396,0.015989193692803383,-1.3262486457824707,-0.42504143714904785,-0.07396860420703888,0.006235129199922085,-0.31024670600891113,0.057682979851961136,-0.3756659924983978,-0.1504589021205902,0.06742466241121292,-0.2898820638656616,-0.17620863020420074,-0.3145981729030609,-0.3210720717906952,-0.22768041491508484,-0.14947164058685303,-0.08367621153593063,-0.0770115777850151,-0.34610190987586975,-0.8507542014122009,0.002040149411186576,-0.2511257827281952,-0.03459630161523819,-0.09074456989765167,0.0024872298818081617,-0.0013434771681204438,-0.208217054605484,0.013026408851146698,-0.5077176094055176,-0.18647590279579163,-0.3628837466239929,0.01038927398622036,-1.0301387310028076,-0.029459843412041664,0.24310435354709625,-0.1710975617170334,-8.528537000529468e-5],[-0.15493576228618622,-0.0021608832757920027,-0.0011624133912846446,0.22107620537281036,0.058363188058137894,0.15361608564853668,-0.12403347343206406,-0.5753985047340393,-0.005751036573201418,0.0,-0.09212696552276611,-0.005984138231724501,-0.12484680861234665,-0.01260615698993206,0.016489069908857346,-0.001308407518081367,0.004493047948926687,0.03743964806199074,0.01332288607954979,-0.1240803599357605,-0.00018798556993715465,-0.09585770219564438,0.024346401914954185,-0.11265179514884949,0.0012144349748268723,-0.0001479803613619879,-0.22933481633663177,0.6274670362472534,-0.23870880901813507,-0.2396920770406723,-0.07191557437181473,-0.4354310929775238,-0.743366003036499,0.00028003554325550795,-0.3728175759315491,0.9080780148506165,0.06184356287121773,-0.36551257967948914,0.013688155449926853,-0.02027153968811035,-0.650783121585846,-0.000791841943282634,0.0736253634095192,-0.002633399097248912,-0.40103939175605774,-0.3153906762599945,-0.5380871295928955,0.0022342714946717024,-0.06868799030780792,-0.0001353233674308285,-0.0013708461774513125,-0.6791330575942993,0.00726165808737278,-0.023157943040132523,0.06994743645191193,0.0018083432223647833,-0.24066847562789917,-0.0003141937486361712,0.14649508893489838,-0.23311609029769897,0.04121379554271698,-0.007400162518024445,-0.11537177860736847,0.04750766232609749,-0.18676558136940002,-0.08291725069284439,-0.018007047474384308,-0.24921676516532898,-0.005147972144186497,-0.0017644366016611457,-0.000762501556891948,0.05102275684475899,0.02703959494829178,0.4999403953552246,-0.0010796288261190057,-0.40245670080184937,0.030649157240986824,0.003283351194113493,-0.03110443986952305,6.965758075239137e-5,-0.04624848812818527,-0.0008895554929040372,-0.05545222386717796,0.008935154415667057,-0.1878165900707245,0.40856412053108215,-0.4217209219932556,-0.08711574226617813,0.11939429491758347,-0.03833929821848869,0.003464997746050358,0.061435069888830185,0.07540924102067947,0.0003482861793600023,0.13297180831432343,-0.09424685686826706,0.007438061758875847,-0.018257584422826767,-0.07491341978311539,0.011701170355081558,-0.15624260902404785,0.3714299201965332,0.10335494577884674,-0.10914535820484161,-0.2566697597503662,-0.9729799628257751,-0.16406212747097015,0.18626712262630463,0.316637247800827,-0.18312743306159973,-0.20738305151462555,-2.5645524146966636e-5,-0.5777950286865234,-0.029720915481448174,0.0030159398447722197,-0.014875241555273533,-0.22979825735092163,0.003221218241378665,-0.2466907501220703,0.012136856094002724,0.06779685616493225,-0.0838422104716301,0.06776655465364456,8.899183012545109e-5,-0.3269208073616028,-0.36704421043395996,-0.5237995386123657,-0.18341383337974548,-0.4748953878879547,-0.6531771421432495,0.34382364153862,-0.048669733107089996,-0.04870056360960007,0.0566006563603878,0.002594108460471034,0.00015505531337112188,0.12068470567464828,0.03039606474339962,0.007236333563923836,0.00031186253181658685,-0.7711483836174011,0.06519004702568054,-0.07177118957042694,-0.5570019483566284,-0.000777773151639849,-0.425486296415329,-0.05267655849456787,-0.06326475739479065,0.402482271194458,-0.05172425135970116,0.029591523110866547,-0.14922897517681122,0.3109726905822754,-0.026044070720672607,-0.11066967993974686,0.028010249137878418,-0.5243188142776489,-0.002746648620814085,-0.06019094958901405,-0.02219025231897831,-0.001441832515411079,-0.0041179535910487175,-0.21258176863193512,0.012344324961304665,0.0019098159391433,0.0024534522090107203,-0.0013372008688747883,-0.2846181094646454,0.6486596465110779,-0.1905032992362976,-0.061070263385772705,-0.05568945035338402,0.1273224651813507,-0.0015877917176112533,0.2624821960926056,-0.22171638906002045,0.09769252687692642,0.09830058366060257,0.4839528501033783,-0.5611831545829773,0.04999741166830063,-0.16006945073604584,-0.10683398693799973,0.09990207105875015,-0.1403793841600418,0.0025288450997322798,-0.05812418833374977,-0.0005266952211968601,-0.029892973601818085,0.09175329655408859,-0.40196871757507324,0.11721233278512955,0.026122113689780235,0.24736309051513672,-0.027206221595406532,0.0730699971318245,0.35219669342041016,-0.44605666399002075,-0.5464147329330444,-0.08219197392463684,0.020249348133802414,0.4362960755825043,0.005639920011162758,0.002921764040365815,0.012833042070269585,-0.022082483395934105,-0.029635578393936157,0.00042399828089401126,-0.0023710273671895266,-0.649871826171875,-0.14847318828105927,-0.10967796295881271,-0.03069797344505787,-0.047399021685123444,0.02842540852725506,-0.0016465614316985011,-0.08197944611310959,0.1968352347612381,0.2070802003145218,-0.02676728554069996,-0.41165733337402344,-0.2323257029056549,-0.008898375555872917,-0.004396852105855942,-0.3827161490917206,-0.23946356773376465,0.17801982164382935,0.004274135921150446,-0.11571318656206131,-0.17458388209342957,-0.0005908894818276167,-0.182353675365448,-0.0049020592123270035,0.013732029125094414,-0.0014951920602470636,-0.3075135350227356,-0.40219026803970337,0.13395823538303375,-0.27821239829063416,-0.4325350522994995,-0.010554976761341095,-0.16807544231414795,-0.0037865182384848595,0.0673481896519661,0.21959944069385529,-0.007824732922017574,-0.24199162423610687,0.9336097836494446,-0.02621084824204445,-0.0001145975838880986,0.38285908102989197,-0.12363157421350479,0.06551642715930939,0.17069046199321747,-0.4126538336277008,-0.27771222591400146],[-0.0901167169213295,0.0003036517882719636,-0.004486166872084141,-0.004055914469063282,-0.7460753917694092,-0.00010860837937798351,0.052931301295757294,-1.2830294370651245,-0.13032768666744232,0.0019339855061843991,0.0,0.00434818584471941,0.16762450337409973,-0.0022198548540472984,0.021565023809671402,-0.23173974454402924,-0.4030488431453705,-0.10622341930866241,-0.00015571365656796843,0.0014097687089815736,0.09607312083244324,-0.8614829182624817,-0.7283077836036682,0.009895198047161102,0.000584747176617384,-0.23673631250858307,-0.2541710138320923,-0.006171414628624916,0.11599218100309372,-0.0005094600492157042,0.2592010498046875,-0.03793017566204071,-0.5855761766433716,-0.39701035618782043,-0.11390135437250137,0.0002570670912973583,3.171691423631273e-5,-0.4192797839641571,-0.07587206363677979,-0.17115271091461182,0.0015103333862498403,0.050813425332307816,-0.0758870393037796,-0.4088311791419983,-0.22564277052879333,0.057873401790857315,-0.000979962875135243,-0.1053345650434494,-0.11094488948583603,-0.12933826446533203,-0.2770462930202484,-0.08724261075258255,0.00021382956765592098,-0.0006584291695617139,-0.4613187611103058,0.000744744495023042,-0.5601666569709778,0.0021156230941414833,-0.01200864464044571,0.26645106077194214,-1.270822286605835,0.004024122375994921,0.0020897602662444115,-0.00020515942014753819,0.14376358687877655,-0.0001708604977466166,0.0005335366586223245,-0.21225935220718384,-0.03068414516746998,-0.0040477849543094635,-0.2792591154575348,8.409630390815437e-5,-0.08595768362283707,-1.2691307067871094,-0.05062941089272499,0.07268363982439041,-0.4009818136692047,-0.13850639760494232,0.11345972865819931,-0.0009873469825834036,-0.005469979252666235,0.1577513962984085,-0.025853855535387993,0.038768406957387924,-0.036999452859163284,-0.4092981517314911,-0.47683390974998474,0.005307020619511604,0.001503129955381155,-0.0013632177142426372,-0.010843398049473763,-0.13763701915740967,0.003300192765891552,-0.015426911413669586,-0.020710641518235207,-0.17408542335033417,-0.25893309712409973,-0.06375747919082642,0.0003319382667541504,0.001822915393859148,-0.7958759069442749,0.0007673190557397902,5.671590406564064e-5,-0.03940120339393616,0.012526405975222588,-0.6859524250030518,-0.001386668300256133,-0.37654128670692444,-0.18052861094474792,0.04669151082634926,0.04784234240651131,-0.24890176951885223,0.011885318905115128,0.12072863429784775,-0.4932374656200409,-0.00041653713560663164,0.03494420275092125,-0.00040492182597517967,-0.0003737416409421712,-0.3397030830383301,0.00023603539739269763,0.08721158653497696,-0.46277758479118347,-0.4303201735019684,-1.0125254392623901,0.02009429782629013,-0.42988237738609314,-0.46467483043670654,0.005695411469787359,-0.4881736934185028,-0.27018260955810547,-0.00122867024037987,-0.2050139605998993,0.0004658932448364794,-0.26226475834846497,0.03297649696469307,0.28627997636795044,-1.2161834239959717,-0.12178448587656021,-1.4748553037643433,-2.5847344659268856e-5,0.000683888210915029,0.3029836416244507,-0.7857165336608887,0.004151079338043928,-1.0277824401855469,-0.04970449581742287,-0.008891659788787365,0.10474204272031784,-0.12400950491428375,-0.13370013236999512,-0.0005136551917530596,-0.013283307664096355,0.00029797753086313605,-1.0217998027801514,-0.06791311502456665,-0.17784902453422546,0.02339601330459118,-0.14374619722366333,0.00039073266088962555,-0.07268547266721725,0.0005442724213935435,-0.4897404611110687,-0.20951120555400848,-0.00013482153008226305,0.00023301306646317244,-0.296208918094635,0.001869422965683043,-0.01052357628941536,0.0004271755460649729,-0.045071087777614594,0.21759337186813354,-0.10970313847064972,-0.0019501886563375592,-0.534580647945404,0.12875916063785553,-0.0009943932527676225,-0.09506751596927643,-0.06312719732522964,-0.17289310693740845,-0.0008518403046764433,0.025054365396499634,-0.9128215909004211,0.23216067254543304,-0.17793264985084534,-0.5374755859375,0.07400868833065033,9.929061343427747e-5,0.0013433097628876567,-0.24016374349594116,-0.6295871138572693,-0.9105079770088196,-0.0006018119165673852,0.0012118411250412464,-0.5096107721328735,-0.13411231338977814,-0.005312095861881971,-0.10854630172252655,0.03716060891747475,0.0013808798976242542,-0.10034152120351791,-9.008687629830092e-5,-0.2557525336742401,-0.1693493127822876,-0.0014528364408761263,0.004074252210557461,-0.16194653511047363,-0.01694505847990513,0.25171390175819397,0.00011506798909977078,0.00019576614431571215,0.03791292384266853,-0.13928964734077454,-0.12108009308576584,0.04184631258249283,0.0009668221464380622,-0.6899362802505493,-0.005176141392439604,-0.20035825669765472,-0.5749216675758362,-0.7274413108825684,-0.0005614903056994081,-0.1994592398405075,-0.0320221409201622,0.017477145418524742,-0.0756816640496254,-0.1031956672668457,-0.0001952102466020733,0.02618999406695366,0.003201233921572566,-0.06427004188299179,0.01565331406891346,0.005453532095998526,-0.7234054803848267,-0.06218753382563591,-0.015445709228515625,0.1509065479040146,-0.09158158302307129,0.2224343866109848,-0.00013614361523650587,-0.14458246529102325,-0.17395764589309692,0.0007157478830777109,-0.37531930208206177,-0.5087301135063171,0.0026756736915558577,-0.00532581377774477,-1.1962811946868896,0.0007973123574629426,-0.05973568931221962,0.0009162130299955606,-0.627992570400238,0.008719203993678093,0.14559507369995117,-0.0031647279392927885,-0.05420529469847679],[0.01203731819987297,0.001523151178844273,0.027838265523314476,-0.0020658771973103285,-0.0022028449457138777,0.0026790497358888388,0.0005585358012467623,-0.5699713826179504,0.12463954836130142,0.0003562997735571116,-0.00789782963693142,0.0,-0.0121771777048707,-0.00013452446728479117,-0.001913790823891759,-0.01425989344716072,-0.003900761716067791,-0.05935113504528999,0.002718341303989291,7.972722960403189e-5,-0.09555989503860474,-0.020990893244743347,-0.12613584101200104,-0.021105168387293816,0.0006113419076427817,-0.004498722031712532,-0.0347425639629364,-0.0004224213189445436,-0.10790856927633286,-0.0005376097396947443,-0.004821935668587685,-0.0016138696810230613,0.0014663931215181947,-0.012334898114204407,-0.1789521723985672,-0.0015294901095330715,-0.26892560720443726,0.060533955693244934,0.06817200779914856,0.14416736364364624,0.01315104216337204,-0.0027742937672883272,-0.00020384188974276185,-0.03109247051179409,-0.25901922583580017,-0.49118757247924805,-0.0005781808868050575,0.2075725644826889,-0.07089538127183914,-0.00025464920327067375,-0.32220393419265747,-0.0007460472988896072,-0.0007667985046282411,0.001649753306992352,-0.0255927462130785,0.00013861469051335007,-0.02557220868766308,0.3755619525909424,-0.22389261424541473,-0.0772404819726944,-0.31488534808158875,-0.0006035106489434838,0.0029080305248498917,-0.0020406246185302734,-0.1500350385904312,-0.11680212616920471,-0.028756100684404373,0.02275252528488636,0.062217190861701965,0.003583593061193824,-0.005142495036125183,-0.003155434736981988,0.017274413257837296,-0.5534836053848267,-0.2428109049797058,-0.0711367279291153,0.0032749890815466642,-0.01453467458486557,-0.16531649231910706,-0.00033161262399517,-0.12077827751636505,-0.46137791872024536,-0.02389204129576683,-0.053221289068460464,-0.001992293866351247,-0.0040107714012265205,-0.1029895693063736,-0.0010850942926481366,-0.020866520702838898,0.0062274024821817875,0.028876464813947678,-0.01868436299264431,0.023258278146386147,0.00029332845588214695,-0.7754608988761902,-0.41957375407218933,-0.010990333743393421,-0.3601174056529999,-0.00845205970108509,-0.17073315382003784,0.12668509781360626,0.012551095336675644,-0.0004221620911266655,-0.0019973404705524445,0.0575341135263443,0.013661269098520279,-0.20657159388065338,0.03722108528017998,-0.0024201234336942434,-0.07141897827386856,-0.0005060700350441039,-0.00076180265750736,0.006805337034165859,0.013796256855130196,0.000367311091395095,-0.002027244074270129,-0.015492989681661129,0.003329349448904395,0.00020726147340610623,-0.0054669189266860485,0.03223145008087158,0.02014230750501156,-0.07745177298784256,0.0024411268532276154,0.0047661252319812775,-7.367209036601707e-5,-0.0014864923432469368,-0.002084314590319991,2.56192925007781e-5,-0.20643873512744904,0.0002461917756590992,-0.0006400165730156004,-0.2004847228527069,-0.008840618655085564,0.0007805551285855472,0.006541956216096878,-0.00023312465054914355,0.024865463376045227,0.0012229059357196093,-0.030503885820508003,-0.2452095001935959,-0.0007041766657494009,-0.0005604518810287118,0.02909092605113983,-0.0672278106212616,0.0013905511004850268,0.011901916936039925,0.0011334351729601622,-0.00011517030361574143,0.037193842232227325,-0.001875774934887886,0.0006709478911943734,2.011809374380391e-5,-0.002475202549248934,-0.006737470626831055,-0.0034850870724767447,-0.0021560245659202337,-0.02014811336994171,0.03867435082793236,-0.3531806766986847,0.03026522696018219,0.0020565292797982693,0.044943638145923615,-0.014668118208646774,0.040281884372234344,-0.05171438679099083,-0.0021676260512322187,-0.5991811156272888,-0.004543424118310213,-0.1029198095202446,0.00590722169727087,0.1001778244972229,-0.00024329057487193495,0.0005272806156426668,0.01050929632037878,-0.024532385170459747,-0.11003967374563217,-0.0051713078282773495,-0.0015870810020714998,0.0048438506200909615,-0.05807534605264664,-0.03201610594987869,-0.3707785904407501,-0.022058773785829544,-0.0069036707282066345,-0.16013526916503906,9.224540008290205e-6,0.007723002694547176,0.0012873891973868012,0.002268135314807296,-0.21897649765014648,0.0505465492606163,0.0007711939979344606,-0.03805900737643242,-0.020195627585053444,-0.1237129345536232,5.003509431844577e-5,-0.0019344628090038896,-0.011317887343466282,-0.0035546813160181046,0.009032310917973518,0.3470654785633087,0.0024987857323139906,-0.17586244642734528,-0.0011240129824727774,0.0062012868002057076,-0.02760414592921734,-0.05349035561084747,-0.016400611028075218,-0.08415979892015457,-0.005890671629458666,0.0002744451048783958,0.00014057804946787655,-0.049229707568883896,0.0012373937061056495,-0.00254960753954947,0.019340060651302338,7.9869487308315e-6,6.715735798934475e-5,0.006814089138060808,0.05403447896242142,-0.11116969585418701,-0.019008005037903786,-0.0015486828051507473,-0.019863460212945938,-0.11664346605539322,0.010865315794944763,-0.1931312382221222,-0.1223108097910881,-0.011010829359292984,0.002650209702551365,0.009417946450412273,0.0035177709069103003,-0.06443654000759125,0.009212182834744453,-0.046196360141038895,-0.0552443228662014,0.0001967248972505331,-0.0004906420945189893,-0.000646652071736753,-0.28162622451782227,-0.02924156002700329,0.0005111944628879428,0.026165414601564407,0.0015789067838340998,-0.019391953945159912,-0.21459197998046875,-0.4006085693836212,0.014064768329262733,-0.017677444964647293,-0.08140335977077484,-0.22644607722759247,2.0377590656280518,-0.0006436713156290352,-0.09587421268224716,0.003468618495389819],[0.10224571824073792,-0.017419278621673584,-0.677490770816803,0.10318846255540848,-1.1673636436462402,-0.03106461651623249,-0.0031760339625179768,-0.1277424395084381,-0.029095029458403587,-0.014373204670846462,-0.004081586375832558,0.012031914666295052,0.0,-0.560850203037262,-0.05262136831879616,0.07456953823566437,-0.006666349247097969,0.010415122844278812,-0.11306305974721909,-0.02908514253795147,0.0401335246860981,-0.4436308741569519,-0.19802124798297882,0.06156928092241287,-0.017163489013910294,-0.3089164197444916,-0.18087512254714966,-0.2537807524204254,-0.05229564011096954,-0.0073046134784817696,-0.001641012029722333,-0.2958780527114868,-0.4191034436225891,-0.028798364102840424,-0.7662498950958252,0.08750742673873901,-0.06052001565694809,-1.0528508424758911,-0.25630342960357666,0.012900236994028091,-0.0002702973724808544,-0.14236928522586823,-0.38939350843429565,-0.350147545337677,0.012522573582828045,-0.05232134833931923,-0.011990130878984928,-0.4699176251888275,0.0027088697534054518,-0.11319876462221146,-0.1912417709827423,0.06990363448858261,-0.0006310532917268574,0.011299931444227695,-0.2568586468696594,-0.1929958462715149,-0.0636218786239624,-0.0001791970425983891,0.08184118568897247,-0.7220070362091064,-0.3462107479572296,-0.0010371069656684995,-0.011392454616725445,-0.07794874161481857,0.0022085276432335377,0.04514868184924126,-0.014736169017851353,-0.11708520352840424,0.04833238571882248,0.002946144435554743,0.04183993861079216,-0.014143703505396843,-0.13474543392658234,0.09782528877258301,-0.22419363260269165,0.028732910752296448,-0.4767460823059082,-0.00037814394454471767,0.06492166966199875,-0.10927814245223999,0.04650423303246498,6.82313329889439e-5,-0.0034356797114014626,-0.031986843794584274,-0.3675982356071472,-0.6732237339019775,-0.38635969161987305,-0.0028170947916805744,0.816673994064331,-0.007309082429856062,-0.5692282915115356,-0.13246141374111176,-0.17623326182365417,0.04991920664906502,-0.018810400739312172,0.001394265447743237,-0.017939293757081032,-1.4222639799118042,-0.12895376980304718,0.015193345956504345,-1.1624411344528198,0.09551266580820084,-0.11208967864513397,-0.6663743257522583,-0.022632546722888947,-0.9401296973228455,0.10139459371566772,-0.06610296666622162,-0.006592960562556982,-0.008048562332987785,-0.25121304392814636,-0.12342830747365952,-0.04556582123041153,0.04790143296122551,-0.8549306392669678,-0.4953283965587616,-0.051825810223817825,-0.1637774258852005,-0.0007690945640206337,-0.020178677514195442,0.0931098535656929,0.002107234438881278,0.0675828829407692,0.006903014145791531,-0.5295966267585754,-0.00030280943610705435,-0.7399656176567078,-0.013624359853565693,0.23915210366249084,-0.4301202893257141,-0.23189041018486023,0.09954924136400223,-0.002636172343045473,0.0001397137821186334,-0.19820068776607513,-0.15676580369472504,-0.18694746494293213,-0.16631346940994263,-0.342499315738678,-0.9697248935699463,0.09890422224998474,0.13613466918468475,-0.0015174500877037644,