{"params":{"dropout_prob":0.0,"l2_weight_decay":0.0,"l2_weight_decay_params":[],"l1_weight_decay":0.0,"l1_weight_decay_params":[],"contractive":0.0,"contractive_params":[],"reg":0.001,"learning_rate":"0.001,0.0001","n_attack_steps":10,"beta_robustness":0.125,"seed":1,"n_hidden":256,"n_layer":1,"batch_size":100,"boundary_loss":"kl","treat_as_constant":false,"abcd_etaA":0.001,"abcd_L":2,"p_norm":"inf","hessian_robustness":false,"dt":1.0,"tau":20.0,"beta":2.0,"tau_adaptation":98.0,"thr":0.01,"thr_min":0.005,"refr":2,"dampening_factor":0.3,"sample_rate":16000,"eval_step_interval":400,"attack_size_constant":0.0,"initial_std_constant":0.0,"attack_size_mismatch":0.1,"initial_std_mismatch":0.001,"clip_duration_ms":1000,"window_size_ms":30.0,"window_stride_ms":10.0,"preprocess":"mfcc","feature_bin_count":40,"in_repeat":1,"n_thr_spikes":-1,"n_epochs":"150,50","optimizer":"adam","data_dir":"\/cluster\/scratch\/jubueche\/ecg_recordings\/","session_id":5137893623,"desired_samples":16000,"window_size_samples":480,"window_stride_samples":160,"length_minus_window":15520,"spectrogram_length":100,"average_window_width":-1,"fingerprint_width":2,"fingerprint_size":3920},"rng_key":[1381439919,676017915],"theta":{"W_in":[[0.05518622323870659,-0.28703683614730835,0.08233080804347992,-0.34292298555374146,-0.007179122883826494,0.010794420726597309,-0.12923550605773926,0.1922501176595688,0.04544840008020401,-0.09939369559288025,-0.3220078647136688,0.07757735252380371,-0.15577086806297302,0.04989335685968399,0.17486447095870972,0.03989444300532341,0.0577051118016243,-0.03794040158390999,0.027005670592188835,-0.22628244757652283,-0.09915564954280853,-0.1312018185853958,0.11996349692344666,0.108063243329525,0.13406254351139069,0.10314209759235382,-0.25254711508750916,-0.23908375203609467,0.278798371553421,0.0086068669334054,-0.2298082560300827,0.26592710614204407,0.06557638943195343,0.16394752264022827,-0.004258404951542616,-0.06330891698598862,0.2555047273635864,0.2858602702617645,0.13445442914962769,-0.0025634996127337217,-0.28485357761383057,0.06325051933526993,-0.06804072111845016,-0.10632247477769852,-0.00790551770478487,0.16262196004390717,-0.10400804132223129,0.07503119856119156,0.08107737451791763,-0.33597877621650696,0.032268885523080826,-0.12396117299795151,-0.16592362523078918,0.10084392130374908,-0.040964532643556595,-0.055139631032943726,-0.05371866002678871,0.14828304946422577,-0.011225692927837372,-0.09020299464464188,-0.0178665928542614,0.001419450854882598,0.13708581030368805,0.11036526411771774,-0.08243679255247116,0.1831585317850113,-0.10151975601911545,-0.07413103431463242,-0.09038328379392624,0.10299225896596909,-0.15187498927116394,0.016799667850136757,0.05925989896059036,-0.015331960283219814,-0.020652692764997482,-0.03695201873779297,0.09681037813425064,-0.10990656167268753,-0.02494462952017784,0.12999139726161957,0.3116743564605713,-0.052926089614629745,-0.13982850313186646,-0.48732247948646545,0.11370008438825607,-0.28860706090927124,0.11935431510210037,0.10293082892894745,-0.018367454409599304,-0.15303738415241241,0.12383132427930832,0.3298410177230835,-0.04849621281027794,0.14624008536338806,0.14444810152053833,0.06688385456800461,-0.05547535419464111,0.09091208875179291,-0.20533691346645355,0.0993032455444336,0.06972870975732803,-0.31877246499061584,-0.10719295591115952,0.03040686622262001,-0.12026695162057877,0.2083631157875061,0.0025454778224229813,-0.15177209675312042,-0.12195753306150436,-0.06500346958637238,0.08827053010463715,-0.048166610300540924,0.24710577726364136,0.09976810961961746,-0.007968268357217312,-0.2899479568004608,-0.2476741373538971,-0.008147178217768669,-0.16102001070976257,-0.24795112013816833,0.040445927530527115,0.10907170921564102,0.17115235328674316,-0.19871215522289276,0.07850031554698944,-0.2737714648246765,0.12619726359844208,-0.06947371363639832,0.32980191707611084,0.13734160363674164,-0.1769009232521057,-0.04701848700642586,0.07132081687450409,-0.19120217859745026,-0.4222392141819,0.1896713823080063,-0.23198901116847992,0.31707409024238586,-0.12767381966114044,0.24908855557441711,-0.00918437261134386,0.21067406237125397,0.17626096308231354,-0.22208163142204285,0.06814845651388168,-0.04145713523030281,-0.10692475736141205,-0.09176234900951385,0.025265371426939964,0.16816872358322144,-0.10818961262702942,-0.1862989366054535,-0.02235756255686283,-0.11724170297384262,0.0713045671582222,-0.12949040532112122,-0.28629106283187866,-0.137290820479393,0.16241340339183807,0.1504456102848053,-0.22265149652957916,0.04653498902916908,-0.0970662459731102,0.17769992351531982,-0.15172624588012695,-0.035001154989004135,0.17487236857414246,-0.13184091448783875,-0.20273277163505554,0.17296865582466125,-0.17110072076320648,0.3141981363296509,-0.034944936633110046,0.26530027389526367,-0.14931435883045197,-0.028287777677178383,0.05000495910644531,0.13277558982372284,-0.07667913287878036,-0.24285028874874115,0.161777064204216,-0.2753196060657501,0.0013894711155444384,-0.03300229832530022,0.21985073387622833,0.0359063446521759,0.08828723430633545,-0.03841116279363632,0.1891312301158905,-0.1204952597618103,-0.39335599541664124,0.10642275214195251,-0.19143807888031006,-0.05677434056997299,0.21907994151115417,0.036581140011548996,-0.09542158246040344,0.05510071665048599,0.049717482179403305,-0.0045999279245734215,0.03551657497882843,-0.04107015207409859,-0.0836528092622757,0.10377570241689682,-0.19272617995738983,-0.02064463496208191,-0.09524361789226532,-0.1401643007993698,-0.16271625459194183,-0.2922315001487732,-0.30702921748161316,-0.17594243586063385,0.27136486768722534,0.02074250765144825,-0.31698569655418396,0.10572215914726257,-0.14316701889038086,-0.06510061025619507,-0.0033497055992484093,0.18050751090049744,-0.07441388070583344,-0.0028654260095208883,-0.05722292512655258,-0.03828147426247597,0.06914815306663513,-0.07060716301202774,0.01696181297302246,0.07216718792915344,0.05468660965561867,-0.08832146227359772,-0.3532584607601166,0.000896459212526679,-0.005536419805139303,-0.20349588990211487,0.20602931082248688,0.10614482313394547,0.0927448719739914,0.023031197488307953,-0.04370522499084473,0.2498890459537506,-0.19166940450668335,0.20388133823871613,0.08684708178043365,-0.3017740249633789,-0.015570522285997868,0.01762465573847294,0.23884281516075134,0.15040522813796997,0.03231647610664368,-0.10649566352367401,0.018478810787200928,-0.11636573821306229,0.06869898736476898,-0.033471252769231796,-0.0828990712761879,-0.009760633111000061],[-0.030205411836504936,0.01667729578912258,0.06266652792692184,0.10435894876718521,-0.28023895621299744,-0.09746409952640533,-0.16107575595378876,0.10235008597373962,-0.2897414267063141,-0.052868425846099854,0.09856196492910385,0.005207480862736702,-0.01012874860316515,0.17533235251903534,0.011770926415920258,0.13696517050266266,0.01675952412188053,-0.11679363995790482,-0.10999349504709244,0.11841220408678055,-0.2712385952472687,-0.06108560040593147,-0.04370782896876335,-0.06964757293462753,0.01867423765361309,0.07758638262748718,0.1089320108294487,0.07099337875843048,0.07530074566602707,-0.1021023765206337,0.14252543449401855,0.06520292907953262,-0.09869744628667831,0.0778685063123703,-0.04627927020192146,-0.10536472499370575,0.10866896063089371,0.06523987650871277,0.21641132235527039,-0.013582680374383926,-0.25230756402015686,-0.05731780454516411,-0.07616586983203888,-0.0691213309764862,0.038889627903699875,0.04492105543613434,-0.22379116714000702,-0.05233685299754143,-0.10504455119371414,-0.3826683759689331,-0.12729443609714508,0.1515919715166092,-0.19794315099716187,0.1085459291934967,-0.1963963657617569,-0.07887472212314606,-0.0654887780547142,-0.19484901428222656,-0.06727931648492813,0.002655178541317582,-0.06049008667469025,-0.006063301581889391,-0.05734237655997276,0.07423733919858932,-0.13256092369556427,0.08742357790470123,-0.046866051852703094,-0.22540421783924103,0.02393832430243492,-0.0463346391916275,-0.10394575446844101,-0.2185114473104477,-0.08056890964508057,-0.053832706063985825,0.06703420728445053,-0.017289191484451294,-0.058661457151174545,0.006851608399301767,-0.07664472609758377,0.021225949749350548,0.07794791460037231,-0.10529499500989914,-0.1182125061750412,-0.34862735867500305,0.01914997026324272,0.11433378607034683,0.0485466904938221,0.13809460401535034,-0.022084206342697144,-0.20760291814804077,-0.00685746967792511,-0.0014719974715262651,-0.14698493480682373,-0.1911497414112091,-0.1128794476389885,0.07254501432180405,-0.04008077457547188,-0.15130753815174103,0.08259613811969757,-0.040942564606666565,-0.15379004180431366,0.15912452340126038,0.0326438844203949,-0.14793910086154938,-0.07592663168907166,0.003340217750519514,0.14846694469451904,-0.1594812124967575,-0.22741979360580444,-0.03561362996697426,0.03439677506685257,-0.16805948317050934,0.06396761536598206,-0.11376588046550751,-0.010619432665407658,0.09236181527376175,0.14189046621322632,-0.11775915324687958,0.15472106635570526,-0.19418196380138397,-0.05490436032414436,0.020791977643966675,0.14378534257411957,0.10893763601779938,-0.0384056493639946,0.08265800774097443,0.07750111818313599,-0.0798463225364685,0.04014115780591965,-0.0020286475773900747,0.08621405810117722,-0.09154931455850601,-0.1492861658334732,0.12559296190738678,0.17908494174480438,0.1394609957933426,0.06982897967100143,-0.07977787405252457,0.07222896069288254,0.0354783795773983,-0.1439700871706009,0.08413732051849365,0.00820466224104166,0.1313980668783188,-0.07396276295185089,-0.04815281927585602,0.21550169587135315,-0.06010862812399864,-0.00695871002972126,0.11561359465122223,-0.11027589440345764,0.11663433164358139,-0.17171955108642578,-0.028464477509260178,0.05751815438270569,-0.09980333596467972,0.10256519168615341,-0.20958279073238373,-0.19149427115917206,0.0858566090464592,0.1225414052605629,-0.12956638634204865,0.02831294573843479,0.050059955567121506,0.16163718700408936,-0.1155053973197937,0.151023730635643,-0.18102604150772095,-0.21029937267303467,-0.05466381832957268,-0.10892342776060104,0.01905571110546589,0.11384382843971252,-0.3099357783794403,-0.24527816474437714,-0.03189903125166893,-0.029456237331032753,0.08461620658636093,-0.16827523708343506,0.0858524739742279,0.07397609204053879,-0.28307995200157166,0.15790677070617676,-0.08564291149377823,-0.2891105115413666,-0.12809862196445465,-0.16080504655838013,0.27473756670951843,0.07772111892700195,-0.010835159569978714,0.1947326511144638,-0.033967360854148865,-0.2051880806684494,-0.038996338844299316,0.08438758552074432,0.16744258999824524,-0.06559184193611145,-0.037124618887901306,-0.02505279704928398,-0.0030816751532256603,-0.03582938387989998,-0.11269775032997131,-0.17402766644954681,0.1488141119480133,0.07999835163354874,-0.1177283301949501,-0.07842284440994263,0.13474804162979126,-0.04969334229826927,0.1293470859527588,0.1092841625213623,-0.06447723507881165,0.15342740714550018,-0.021876776590943336,-0.27204883098602295,-0.16869446635246277,0.045899856835603714,-0.1475837677717209,-0.16562283039093018,-0.0035820268094539642,0.11505334824323654,0.1554916501045227,-0.16633351147174835,-0.11706200242042542,-0.14190056920051575,-0.046593595296144485,0.1109439879655838,-0.008591330610215664,-0.04507765918970108,-0.05392717197537422,0.1269388198852539,-0.07187426090240479,-0.2056780457496643,0.11894764751195908,0.0329265370965004,-0.1733584702014923,-0.10238297283649445,-0.1616784632205963,0.00017015972116496414,-0.03173692896962166,0.02888835221529007,-0.005389383062720299,0.16533079743385315,-0.3363540470600128,-0.16998066008090973,-0.03400599956512451,0.11998110264539719,-0.02606811374425888,-0.01709742657840252,0.08320643752813339,-0.1255626380443573,0.08466630429029465,-0.0227329283952713,-0.06444453448057175,0.19995148479938507,-0.04214473068714142]],"W_out":[[-1.884154200553894,-2.7061121463775635,3.677600145339966,-2.1586008071899414],[1.0959326028823853,-0.9873085021972656,0.9811913967132568,-0.9740968346595764],[1.4448639154434204,-1.7325770854949951,-0.14160968363285065,-0.0004366904031485319],[-2.0262484550476074,-0.0002130979992216453,-1.0640188455581665,1.1881945133209229],[-0.9303938746452332,0.05809590965509415,-1.6636182069778442,0.00018668363918550313],[2.622420072555542,-2.2371551990509033,-0.6943063735961914,-0.1265246421098709],[1.5823134183883667,-2.0006039142608643,-0.9383116364479065,0.02209707722067833],[0.9319497346878052,-1.8023074865341187,0.9391029477119446,-0.6577624678611755],[-2.155355453491211,0.18151794373989105,-2.397071599960327,0.8121200799942017],[-1.6119641065597534,-0.12033920735120773,-0.7015731334686279,1.1356539726257324],[-2.5950615406036377,0.00013905968808103353,-1.9166406393051147,0.9892598390579224],[3.428921699523926,-2.5542688369750977,-1.4316554069519043,-1.1154388189315796],[-0.035112012177705765,-0.22170162200927734,-1.430594801902771,1.3340026140213013],[1.206099033355713,-1.8129050731658936,0.3291851878166199,-0.8126752376556396],[-1.7384567260742188,-1.9874719381332397,3.65023136138916,-2.3384838104248047],[-2.739863157272339,-1.8680548667907715,2.715181589126587,-0.0007917697075754404],[0.8344231843948364,-1.839956283569336,-0.20792639255523682,0.1479843407869339],[-3.6612367630004883,1.7368268966674805,-2.948941707611084,-0.00009286176646128297],[-3.08561635017395,1.3153330087661743,-3.9271130561828613,-0.00019090822024736553],[-3.6744139194488525,2.8631019592285156,-2.843997001647949,-1.3630141019821167],[2.8500657081604004,-1.742551326751709,-1.3061481714248657,-0.6170409917831421],[-0.9340509176254272,-1.2679638862609863,-1.2380081415176392,2.283637762069702],[-1.98615300655365,-1.9129092693328857,3.328063488006592,-1.5464086532592773],[0.025982601568102837,-0.01647271029651165,-3.760831117630005,0.8916200995445251],[0.5866481065750122,-0.00011076404189225286,0.9462794065475464,-0.9412031769752502],[1.6247068643569946,-1.390501618385315,-0.06008700653910637,-0.19112341105937958],[-3.029282808303833,-0.026673026382923126,-1.5267133712768555,0.8872352838516235],[-2.169365644454956,-0.00016762083396315575,-1.210090160369873,1.2907840013504028],[-0.6857321262359619,-0.0006710971356369555,0.12434476613998413,0.0003831273061223328],[2.3894927501678467,-1.720268964767456,-0.9647150039672852,0.0005946264718659222],[-2.844313144683838,2.6374378204345703,-2.8288023471832275,-1.2524951696395874],[-0.8857623934745789,0.9672540426254272,-1.2020496129989624,-0.0003597314062062651],[-0.7221912741661072,-2.5617847442626953,2.2024598121643066,0.03807062283158302],[-0.9734107851982117,-1.103725790977478,2.589951515197754,-1.0175211429595947],[-0.9914307594299316,-3.020383834838867,1.060235619544983,1.0168336629867554],[-2.939613103866577,2.964411735534668,-1.4773772954940796,-1.7006524801254272],[0.7693336606025696,-2.2931790351867676,0.6857339143753052,-0.0009663375094532967],[-1.9095771312713623,0.02130625955760479,2.739243984222412,-0.9284172058105469],[-0.023129576817154884,3.4163315296173096,0.07645004242658615,-3.5666990280151367],[3.239924192428589,-0.7409717440605164,-1.576050877571106,-1.1828539371490479],[3.1389269828796387,-2.0992257595062256,-2.4925410747528076,-0.0018280624644830823],[-3.229555606842041,-0.14579197764396667,-3.2545266151428223,2.237710475921631],[-2.2041497230529785,0.6971744894981384,2.8375678062438965,-2.214228630065918],[-1.7873895168304443,-0.2970849871635437,-0.8469375371932983,1.4458118677139282],[-0.07917916774749756,-2.160231351852417,1.6862645149230957,-0.34593120217323303],[-3.584489345550537,-0.7573533058166504,1.7805519104003906,0.6880621910095215],[2.2730724811553955,-2.0207526683807373,-0.426326721906662,-0.00010309080971637741],[-4.277992248535156,0.42822158336639404,-2.781954050064087,0.673728883266449],[-1.2754733562469482,0.00020839192438870668,-2.8872904777526855,0.7879513502120972],[2.4734296798706055,-0.1114635318517685,-2.5227580070495605,-0.000038749363739043474],[-0.10344766080379486,1.5684608221054077,-0.8216077089309692,-1.050183653831482],[0.6550005078315735,-1.518558382987976,0.4327308237552643,-0.37554657459259033],[-0.08616949617862701,-1.442168951034546,0.658357560634613,-0.0006414635572582483],[-0.1172064021229744,-1.0939277410507202,1.6045290231704712,-0.7318506240844727],[-2.4231789112091064,2.171781301498413,-2.0306460857391357,-0.3274879455566406],[1.8781687021255493,2.3842384815216064,-1.2544306516647339,-3.1491329669952393],[0.38805559277534485,-1.1825480461120605,0.839867889881134,-0.05663347244262695],[-0.9468365907669067,-0.0013372122775763273,0.42271921038627625,0.0009497898863628507],[-3.5492818355560303,0.756216824054718,-3.2762176990509033,0.2023400515317917],[-2.5708701610565186,-2.239208459854126,3.002319097518921,-0.06322573870420456],[0.0015275931218639016,-2.366030693054199,0.43509387969970703,0.8685693144798279],[1.6587560176849365,-1.1875079870224,-0.3457659184932709,0.000020666066120611504],[-1.521378517150879,-3.074484348297119,0.8017225861549377,1.3275063037872314],[-1.824622392654419,-1.2755188941955566,1.338273525238037,0.33532434701919556],[-1.2511221170425415,-1.3590840101242065,-1.5893151760101318,2.4311113357543945],[-1.2371288537979126,-2.2474660873413086,2.5754611492156982,-0.18911802768707275],[-0.7465215921401978,-1.1168488264083862,-1.423952579498291,2.162686586380005],[3.004976749420166,-1.6502866744995117,-0.720245361328125,-1.0213518142700195],[-0.9955409169197083,-0.5279311537742615,-1.235055685043335,1.6508535146713257],[-2.1576104164123535,0.09192314743995667,-3.3351168632507324,1.0156686305999756],[3.067441701889038,-2.121090888977051,-0.7539036273956299,-2.0495755672454834],[2.13651180267334,3.4789602756500244,-3.375251531600952,-3.626513719558716],[-0.7345528602600098,0.41010090708732605,-2.590210437774658,0.00014826253755018115],[-0.32672321796417236,-0.06461808830499649,0.16390036046504974,0.0095020467415452],[2.4423229694366455,0.9115867018699646,-1.3259005546569824,-2.3239033222198486],[1.1506319046020508,-2.0493741035461426,0.0006249304278753698,-0.00046738405944779515],[-0.8776766061782837,-1.2625027894973755,-1.928721308708191,2.4775936603546143],[-1.8898142576217651,-0.00024512255913577974,-1.202581524848938,0.9346165060997009],[2.7815728187561035,-0.4584585726261139,-1.2415794134140015,-0.7983380556106567],[-0.7828803658485413,-1.8955758810043335,0.532513439655304,0.5736449360847473],[-1.1989033222198486,0.0013010662514716387,1.2769087553024292,-0.2263510823249817],[-2.3448948860168457,1.1869475841522217,2.680591106414795,-2.2364909648895264],[-1.47311270236969,-0.3028174936771393,-1.5459390878677368,2.017918348312378],[1.4519435167312622,-0.00006195608875714242,-1.239642858505249,-0.00019704260921571404],[-1.3194780349731445,-2.5238447189331055,0.45192697644233704,1.309705138206482],[-4.041791915893555,2.5830507278442383,-2.3093602657318115,-1.012218713760376],[-0.926733672618866,-1.5308234691619873,2.3407270908355713,-0.7017266750335693],[-2.327822685241699,-1.5327152013778687,3.7133731842041016,-1.9175304174423218],[-1.5481280088424683,1.6467522382736206,-1.6223610639572144,-0.21546725928783417],[3.9318490028381348,-2.904165744781494,-1.143606185913086,-1.6658939123153687],[1.5698797702789307,-1.897998332977295,0.004201446659862995,-0.0007679507252760231],[1.5951833724975586,-0.03635093942284584,-0.39192602038383484,-0.7407684922218323],[-0.6413424611091614,-1.3942558765411377,-1.5789870023727417,2.40694522857666],[-1.3551735877990723,1.4306745529174805,0.03576293960213661,-0.6092450618743896],[-2.9138240814208984,-0.000004077246558154002,-1.3264994621276855,1.51016104221344],[-0.42460760474205017,-1.7227386236190796,0.6697494387626648,0.13549934327602386],[-1.1583240032196045,-0.3567391335964203,-1.6472909450531006,1.9608889818191528],[-3.218812942504883,0.13065014779567719,-1.1466330289840698,0.6293903589248657],[-3.5892844200134277,3.288174867630005,-2.7791895866394043,-1.9763604402542114],[0.04828324913978577,0.3102615773677826,1.3930668830871582,-1.5723536014556885],[-1.4296449422836304,2.0505528450012207,0.383684903383255,-1.5168585777282715],[-2.5613338947296143,-0.14694401621818542,3.5625150203704834,-2.342036485671997],[-2.996447801589966,1.3757635354995728,2.3468682765960693,-1.7990365028381348],[-1.4414247274398804,1.6041158437728882,-2.0434229373931885,-0.09575838595628738],[-2.2648611068725586,1.262816071510315,-2.0168797969818115,0.028333857655525208],[0.1267658919095993,-1.2187167406082153,-0.00550076412037015,0.32636502385139465],[1.3574448823928833,-3.100813627243042,0.008061815053224564,0.0002496258239261806],[2.5693724155426025,-0.1909450739622116,-0.47330087423324585,-1.920735239982605],[0.002078161109238863,-1.5538222789764404,0.1695706993341446,0.28783172369003296],[1.5454611778259277,2.4725341796875,-3.3221535682678223,-2.328479766845703],[-1.1902002096176147,-2.892909526824951,0.8590062260627747,0.9593364596366882],[2.7874321937561035,-0.9031537771224976,-1.3445377349853516,-0.5487855076789856],[0.24606497585773468,-0.6370131969451904,-0.11635459214448929,0.15593993663787842],[-3.6498138904571533,1.2500720024108887,-2.8010809421539307,-0.0000598779515712522],[-2.9385976791381836,1.572989583015442,-2.295781135559082,-0.0008445445564575493],[-0.880528450012207,0.00007565972191514447,-1.66677987575531,0.9716833233833313],[-3.2970316410064697,0.409000962972641,-1.3271667957305908,0.03537502884864807],[-0.8808010816574097,1.3273690938949585,-1.8874850273132324,-0.34416577219963074],[0.9737728238105774,0.6279540061950684,0.9380204677581787,-3.020915985107422],[3.851287841796875,-2.0763301849365234,-1.4773484468460083,-2.1967320442199707],[2.306899070739746,0.3442525267601013,-2.4312267303466797,-0.6953344345092773],[0.6883487701416016,-1.7761818170547485,0.0006389882182702422,0.12450989335775375],[-1.98236083984375,-1.757794737815857,3.6106863021850586,-2.085575819015503],[-3.5012593269348145,2.661515951156616,-2.614670991897583,-1.1099644899368286],[-1.5023399591445923,0.1126522570848465,-2.799691915512085,1.1019043922424316],[-0.36124223470687866,-0.7191863656044006,0.10207110643386841,0.8620262742042542],[2.973541021347046,-1.8493722677230835,-0.6956735253334045,-1.6335963010787964],[-1.054373860359192,-0.9668843150138855,-1.479647159576416,2.1711180210113525],[-0.659831166267395,0.03003346174955368,0.8413851857185364,-0.1792975515127182],[0.938065767288208,-1.6047024726867676,-0.04887823387980461,0.07982809841632843],[-3.174240827560425,2.9099857807159424,-1.9067623615264893,-1.6922298669815063],[-1.408773422241211,0.13607852160930634,2.76766037940979,-2.1929101943969727],[-3.6934924125671387,-0.011721022427082062,-3.125418186187744,1.472331166267395],[2.637596607208252,2.1472742557525635,-3.168471574783325,-2.8711273670196533],[0.5152941942214966,-0.1416952759027481,-2.810093402862549,0.7723389863967896],[1.2164568901062012,-0.5700586438179016,-0.012422940693795681,-0.0001809158711694181],[-0.9094117879867554,-1.5751091241836548,-1.9518013000488281,2.7486565113067627],[1.2110960483551025,-0.05812611058354378,-0.40313616394996643,-0.045234955847263336],[-1.0422204732894897,-1.5075305700302124,-1.1712634563446045,2.3898277282714844],[-2.0670485496520996,-0.0003777233650907874,0.6888340711593628,0.19666966795921326],[-1.0950912237167358,-0.0002590444637462497,-1.5621496438980103,1.3844573497772217],[-2.948464870452881,0.001743044937029481,2.1926722526550293,-0.002039194107055664],[-0.20798258483409882,-0.013264194130897522,-0.8610317707061768,0.5964840650558472],[-3.7539944648742676,2.3014659881591797,-2.1169142723083496,-0.6378253102302551],[-4.3476128578186035,0.8380640745162964,-1.2838654518127441,0.0026755279395729303],[-0.827985942363739,0.6265676617622375,2.1893467903137207,-2.065382957458496],[-0.7055506110191345,1.2073850631713867,0.00020165371824987233,-0.6506734490394592],[-1.8875046968460083,-0.001044785138219595,-1.109466552734375,0.004706862382590771],[-2.860750913619995,2.791900873184204,-2.515303373336792,-1.5107649564743042],[1.482081651687622,-1.560591697692871,0.5284093618392944,-0.4516092538833618],[-1.611301064491272,-0.0028134873136878014,-0.8880283236503601,1.219705581665039],[1.7711312770843506,1.6825217008590698,-1.6508840322494507,-2.1712098121643066],[1.9654524326324463,-2.20874285697937,-0.2550922930240631,0.008401511237025261],[-1.2230721712112427,-1.4292418956756592,-1.6183421611785889,2.693887948989868],[-1.5013751983642578,-1.6074228286743164,1.6523654460906982,0.15004992485046387],[-0.8885295987129211,-1.907570481300354,-1.4567493200302124,2.809572219848633],[0.001219774829223752,-1.0144513845443726,-1.382229208946228,1.3476362228393555],[2.4304232597351074,-2.346149206161499,0.019239364191889763,-1.019802451133728],[-1.8187824487686157,1.13675856590271,1.0333905220031738,-0.7974181175231934],[1.1929162740707397,-2.805213689804077,0.12304356694221497,0.00009805768058868125],[2.2455546855926514,1.9536992311477661,-2.2896976470947266,-2.6615755558013916],[-2.414742946624756,-0.0009273661416955292,-1.37045156955719,1.3293265104293823],[2.8323421478271484,-0.6431795358657837,-1.6171663999557495,-0.874391496181488],[-3.134690284729004,-1.5971152782440186,0.8591740131378174,1.5442075729370117],[-2.749143600463867,-1.543273687362671,2.2196645736694336,0.00001383520066156052],[-1.1747474670410156,-1.3536787033081055,3.0122032165527344,-0.8841745257377625],[0.00056617142399773,-0.9073638319969177,1.324224829673767,-0.16737189888954163],[0.1944303959608078,-2.32116961479187,0.3118281662464142,0.0028235800564289093],[2.126868724822998,-0.9806967377662659,-0.05063735321164131,-0.9198893904685974],[-2.3508903980255127,-0.8678014278411865,-0.8628217577934265,2.3140931129455566],[3.01155948638916,-0.014785025268793106,-2.078486204147339,-1.552334189414978],[0.24324186146259308,-0.15643353760242462,0.02124936319887638,-0.00359702343121171],[0.0000395883216697257,-2.350893259048462,0.28974539041519165,0.42445316910743713],[-2.831838846206665,-0.0010996474884450436,1.0038683414459229,0.2996392846107483],[1.1312109231948853,-0.00037111315759830177,-0.3471434712409973,-0.7876092195510864],[-1.0098860263824463,-0.7677024602890015,-1.380046010017395,2.09488844871521],[-3.178011894226074,1.2318850755691528,0.04487983509898186,0.00005475822035805322],[2.8427746295928955,-1.1508443355560303,-0.7014329433441162,-0.49633657932281494],[2.2754082679748535,-1.98103928565979,-0.6340292096138,-0.001050606369972229],[-2.2215847969055176,-0.00042845821008086205,-1.2072293758392334,1.4945025444030762],[-2.5044217109680176,-1.127979040145874,1.7777396440505981,0.4900524914264679],[1.2585731744766235,-1.3317677974700928,0.000014388842828338966,-0.0002848515869118273],[2.5863685607910156,-2.7125372886657715,0.00020945281721651554,-2.1859772205352783],[-0.006638911087065935,-0.44761568307876587,0.3610922396183014,-0.00003458638093434274],[-0.7902624011039734,-1.593955159187317,2.2468912601470947,-0.6825204491615295],[-3.3003323078155518,0.5910730361938477,-1.2258424758911133,0.2825722098350525],[-3.845179557800293,0.03622813895344734,-2.97831392288208,1.0435024499893188],[-1.189711093902588,-0.5333812832832336,1.8605809211730957,-0.329842209815979],[1.88448965549469,-0.3433905243873596,-0.32807114720344543,-0.20511998236179352],[-1.4664212465286255,-1.3823796510696411,-0.5631187558174133,2.326738119125366],[-3.6023077964782715,0.5250574350357056,-2.3116259574890137,0.6996490955352783],[-1.7860174179077148,-0.028301069512963295,-3.528316020965576,1.8117930889129639],[3.0494139194488525,-1.8465031385421753,-2.005904197692871,-0.3631346523761749],[-1.4816726446151733,-0.13447654247283936,-1.4186186790466309,1.6762263774871826],[-0.40705111622810364,-2.0257468223571777,0.34971103072166443,0.43559736013412476],[0.000995179871097207,-1.3500179052352905,0.49487927556037903,0.03048945963382721],[-2.012434959411621,1.5495240688323975,-1.4309080839157104,-0.00009942555334419012],[-2.922822952270508,0.04766026511788368,-3.7497317790985107,1.1059269905090332],[0.0014580042334273458,0.9706256985664368,-3.514695644378662,-0.000360462989192456],[-0.42754819989204407,-0.0010373493423685431,-1.0689839124679565,0.9901720285415649],[1.9594107866287231,1.706624150276184,-1.9276864528656006,-2.34000563621521],[-2.1358067989349365,3.2081432342529297,-0.959662139415741,-2.0773870944976807],[-0.057838451117277145,-0.9402575492858887,2.692918300628662,-1.6497446298599243],[-0.3379092216491699,-0.6600618362426758,1.4374643564224243,-0.4708945155143738],[-3.765450954437256,1.4433213472366333,-1.8288509845733643,0.00009310343011748046],[-0.8866926431655884,1.2524956464767456,-1.4000625610351562,-0.44430306553840637],[-2.5828311443328857,1.8710839748382568,-2.044741630554199,0.00021584441128652543],[-0.0006088574300520122,2.0308051109313965,-1.754485845565796,-1.5153762102127075],[-2.4348642826080322,-0.3337145447731018,-0.4060201644897461,1.5276716947555542],[-1.9943228960037231,-0.000010267156540066935,-1.2853238582611084,1.1189674139022827],[-4.337516784667969,3.0219855308532715,-2.365842580795288,-1.6112067699432373],[-3.1231484413146973,-0.00032306436332874,-1.2947293519973755,1.2860934734344482],[-3.0740602016448975,0.14356261491775513,0.9943617582321167,0.20226430892944336],[-3.6199023723602295,3.930921792984009,-2.766650676727295,-2.568676233291626],[-0.6831703186035156,-2.0400900840759277,2.745252847671509,-0.47949740290641785],[-3.5110950469970703,-0.012906888499855995,-0.6396006345748901,1.1824196577072144],[-3.416104793548584,-0.0007020794437266886,-1.7836337089538574,0.34637895226478577],[-0.8728134632110596,-1.2143185138702393,-1.3105846643447876,2.105973958969116],[-1.3732608556747437,-1.6594685316085815,2.4346604347229004,-0.3539380133152008],[-2.3603010177612305,-1.0797873735427856,1.1482274532318115,1.0082253217697144],[0.5913658738136292,1.5570447444915771,-1.6937744617462158,-1.3244245052337646],[2.2056972980499268,-2.6235573291778564,-0.9756660461425781,0.027101075276732445],[2.8221304416656494,-0.9094386696815491,-1.1403253078460693,-0.7774415612220764],[-3.082719326019287,3.00571346282959,-2.204566717147827,-1.6616230010986328],[-0.3984500765800476,1.159022331237793,-2.966542959213257,0.00007021584315225482],[-1.868216872215271,-1.281105637550354,2.4872233867645264,-0.003521350212395191],[-2.627544641494751,-2.0768251419067383,0.8602628707885742,1.2506836652755737],[3.125448226928711,-1.215912103652954,-1.6966973543167114,-1.2188183069229126],[-2.8443100452423096,0.8016275763511658,-4.572042942047119,0.00292514287866652],[0.2994374930858612,-0.8348967432975769,0.000589594361372292,0.00010548916907282546],[-3.403221607208252,0.2570171356201172,-1.8807443380355835,0.8389520645141602],[2.7763359546661377,1.0424487590789795,-1.7279034852981567,-2.377187728881836],[-0.9240039587020874,-1.3511003255844116,1.1738669872283936,0.02343399077653885],[1.4539622068405151,-0.09629286080598831,-1.3861545324325562,-0.33526092767715454],[-1.8933802843093872,-0.02687053568661213,2.2110073566436768,-0.13388614356517792],[-1.401655673980713,1.2836170196533203,1.0964176654815674,-1.0604653358459473],[-2.2346858978271484,-1.757434606552124,3.2822301387786865,-0.6249412894248962],[-2.146153450012207,-0.00021575890423264354,-1.078359603881836,0.922475278377533],[2.310086488723755,-1.7337753772735596,-0.1561139076948166,-0.2313879430294037],[-1.2639143466949463,-0.31047919392585754,0.8762359023094177,-0.0009147623204626143],[-2.1682562828063965,-1.5805879831314087,3.030348539352417,-0.2781582772731781],[-2.5363385677337646,-0.39772409200668335,2.046085834503174,0.0362289659678936],[0.0015220328932628036,-1.4947677850723267,1.6326779127120972,-1.1171406507492065],[3.6154353618621826,-1.8198680877685547,-1.920936942100525,-1.5206177234649658],[-2.7208783626556396,1.2397648096084595,-2.0405211448669434,0.0009623821824789047],[-1.2549749612808228,2.102445602416992,-1.8242599964141846,-0.8031497001647949],[-2.4055607318878174,-1.4190800189971924,3.5808613300323486,-1.7754929065704346],[-3.16848087310791,-0.0003544784849509597,-2.0594961643218994,1.6642860174179077],[0.42209139466285706,0.8181367516517639,-0.256683886051178,-0.8039242029190063],[-1.9334701299667358,-2.015352487564087,0.00393796619027853,1.6221486330032349],[-0.5695520639419556,2.3551011085510254,-0.8685417175292969,-0.4923962354660034],[-2.6164662837982178,-1.619683861732483,2.656599521636963,-0.07889469712972641],[-1.107629656791687,-3.5683627128601074,1.773712396621704,0.01129288412630558],[1.0288907289505005,1.1167709827423096,-1.1170068979263306,-1.2063215970993042],[-1.685975193977356,-1.4111486673355103,0.36251354217529297,0.9192180037498474],[0.829875111579895,-1.195048451423645,0.30467233061790466,-0.0648249164223671]],"W_rec":[[0.0,-0.4178237020969391,-0.12293007224798203,-0.10040611028671265,0.02024223655462265,0.09948044270277023,-0.012514393776655197,0.23205944895744324,0.00028572240262292325,-0.011671774089336395,-0.1296396553516388,0.14289315044879913,-0.01663123071193695,-0.22713972628116608,0.5625999569892883,0.415584921836853,-0.2720639705657959,0.03160174936056137,0.1098008006811142,-0.2749474346637726,0.1122179701924324,0.006221767049282789,0.42917680740356445,0.04926604777574539,-0.35837677121162415,-0.28471454977989197,0.05376015603542328,-0.02749844640493393,0.16859720647335052,0.15665936470031738,-0.2419607937335968,0.03888808935880661,-0.015236617997288704,-0.8361648917198181,-0.26825428009033203,-0.388544499874115,-0.408905029296875,-0.7064580321311951,0.5274453163146973,-0.16679437458515167,0.059523507952690125,-0.21615107357501984,0.30832162499427795,-0.020333049818873405,-0.5519276857376099,-0.6284921765327454,0.06308968365192413,0.05404994264245033,0.11335353553295135,0.06796815246343613,-0.07020837068557739,-0.29864808917045593,-0.008262048475444317,-0.36971673369407654,0.11481151729822159,0.2094636708498001,0.34417441487312317,-0.3862447738647461,-0.044688377529382706,0.006862019654363394,-0.7840483784675598,0.10960641503334045,-0.28648874163627625,-0.0035534019116312265,-0.03586873412132263,0.6103009581565857,0.007013652939349413,0.19052362442016602,-0.040380313992500305,0.010022832080721855,-0.3200873136520386,-0.5100716948509216,0.10410638898611069,-0.3092655837535858,0.0030680436175316572,-0.44029107689857483,-0.023084299638867378,-0.013866955414414406,0.07322914898395538,-0.34787872433662415,-0.23949281871318817,0.10695303231477737,-0.0005435204948298633,-0.9240784049034119,-0.12101762741804123,-0.4624459743499756,-0.6152875423431396,0.3305787444114685,-0.24573662877082825,-0.055560771375894547,0.22425700724124908,-0.14889319241046906,-0.01964852772653103,0.08525479584932327,0.16864769160747528,-0.4248591363430023,-0.005278222728520632,0.02176634408533573,-0.09940845519304276,-0.08180496096611023,-0.16679424047470093,0.9820261001586914,0.14104995131492615,0.21543926000595093,-0.09172481298446655,-0.015322004444897175,-0.06360180675983429,-0.0354292206466198,-0.03527699410915375,-0.23211398720741272,-0.32706397771835327,0.36301854252815247,0.05085855722427368,0.007451018318533897,-0.3860511779785156,-0.11902937293052673,-0.04031553119421005,0.2680491805076599,0.38852980732917786,-0.4741191267967224,0.07825665175914764,-0.032176949083805084,0.46268320083618164,-0.3774285912513733,0.01980457454919815,-0.023274768143892288,-0.13242721557617188,0.017069999128580093,-0.07556638866662979,-0.26198580861091614,0.1267314851284027,0.5045714974403381,0.06335417926311493,-0.06782183796167374,-0.21335060894489288,-0.003174376441165805,-0.07572231441736221,-0.23596762120723724,-0.03558092191815376,-0.045808251947164536,-0.03568507358431816,-0.5321255326271057,0.09904927760362625,-0.12810514867305756,0.14628450572490692,0.005272642243653536,-0.0595843680202961,0.10989713668823242,-0.1725711077451706,-0.6340063810348511,-0.07156505435705185,-0.10252825170755386,0.10176648944616318,0.010897640138864517,-0.46239662170410156,0.0017369833076372743,-0.04270108789205551,-0.09146441519260406,-0.3546254336833954,-0.2356998771429062,-0.019568100571632385,-0.004512862768024206,-0.012101564556360245,-0.22599102556705475,0.11432814598083496,0.2471812218427658,-0.561332106590271,-0.02016160637140274,-0.23175440728664398,0.06704466789960861,0.11164837330579758,-0.02020997181534767,0.05201343446969986,-0.027996299788355827,-0.029860153794288635,0.05679702386260033,0.20779190957546234,0.02655082382261753,0.007954254746437073,-0.007581014651805162,-0.5723727941513062,-0.11862432956695557,-0.895527720451355,-0.03476841375231743,-0.7586426734924316,-0.022475948557257652,0.06771419197320938,0.0371265672147274,-0.001609625993296504,0.051299914717674255,-0.04989888146519661,0.0005615173140540719,0.014509972184896469,0.0019368351204320788,-0.20147082209587097,-0.04460310935974121,0.08813295513391495,-0.019787775352597237,0.09312451630830765,-0.025464700534939766,0.02606995590031147,-0.3300269842147827,-0.045458272099494934,-0.01627872698009014,0.06957336515188217,0.11639071255922318,0.007805000524967909,0.01913045346736908,-0.12263112515211105,-0.022716647014021873,-0.3307756781578064,-0.04185948520898819,-0.42507204413414,-0.37146565318107605,-0.19284063577651978,-0.00217944267205894,0.015391520224511623,-0.013394065201282501,-0.03991562873125076,-0.8419184684753418,0.028531473129987717,-0.15277045965194702,-0.020454784855246544,-0.312687486410141,0.10613793134689331,0.14032584428787231,-0.7584686279296875,0.13424044847488403,-0.05442030355334282,-0.4278482496738434,-0.048851460218429565,0.08250423520803452,-0.05830511823296547,-0.03402845188975334,-0.10908886790275574,-0.3201427161693573,0.36324483156204224,-0.0060920724645257,0.010151363909244537,-0.03513678163290024,0.3192816376686096,-0.572854220867157,-0.621328592300415,-0.3310432732105255,0.0014881221577525139,-0.31288373470306396,0.6094569563865662,0.04581192508339882,0.11902301758527756,-0.2735489010810852,0.12738396227359772,0.019157296046614647,-0.4414409101009369,0.26231110095977783,-0.07840880006551743,0.01117648184299469],[0.47709932923316956,0.0,0.04693155735731125,0.04232824221253395,-0.07219882309436798,-0.12510406970977783,-0.17937271296977997,0.1703193187713623,-0.7770156264305115,-0.021644990891218185,-0.017379114404320717,-0.013884625397622585,0.061165519058704376,-0.24858395755290985,0.14065028727054596,0.2775043249130249,-0.13671809434890747,-0.004029260482639074,-0.22830404341220856,-0.47470805048942566,0.05909455940127373,-0.00920184701681137,0.05093831568956375,0.24608144164085388,0.22274982929229736,0.14157812297344208,-0.01563439890742302,0.08148470520973206,0.0349089652299881,-0.06037910282611847,-0.3563854694366455,-0.42763981223106384,0.12727993726730347,-0.6091101765632629,0.19390079379081726,-0.08499038219451904,0.003230266971513629,-0.35912179946899414,0.04111542925238609,0.21092748641967773,-0.01549688819795847,-0.10225129872560501,0.18579527735710144,0.27934226393699646,-0.026906611397862434,-0.44129833579063416,-0.2925850749015808,-0.04122849926352501,-0.017506003379821777,-0.31810903549194336,0.0032024059910327196,-0.05368046462535858,-0.7702297568321228,-0.5951443314552307,-0.5007086992263794,0.1297597736120224,0.1432739645242691,-0.04610196128487587,-0.008260189555585384,0.2222273051738739,0.04517712444067001,-0.011720886453986168,-0.18165892362594604,-0.09573118388652802,-0.3542393445968628,0.372877836227417,-0.007018626667559147,0.0031499192118644714,-0.1578422486782074,0.013671297580003738,-0.010543245822191238,0.04824679344892502,0.0020842752419412136,-0.08341999351978302,0.015444498509168625,-0.26256588101387024,-0.34584882855415344,0.1377677470445633,0.04855528101325035,-0.0019610621966421604,0.05180398002266884,0.1236034706234932,-0.12169987708330154,-0.14051270484924316,-0.17603474855422974,-0.7598445415496826,-0.5867977738380432,0.3308183550834656,0.07400450855493546,-0.0004496443725656718,-0.2774887979030609,0.048677630722522736,-0.05367715284228325,-0.004018732812255621,-0.06342067569494247,-0.3432808220386505,-0.06216321513056755,-0.07462932914495468,-0.4881811738014221,-0.061777230352163315,-0.17001786828041077,0.2548917829990387,0.040438733994960785,0.02399270050227642,-0.0486978255212307,0.212507426738739,0.03871414065361023,-0.24092167615890503,-0.43935897946357727,-0.003603370161727071,-0.05403868481516838,-0.25374600291252136,0.15692971646785736,-0.40747585892677307,0.008384175598621368,0.1854933649301529,-0.051622819155454636,0.002950439928099513,0.10823782533407211,0.01053526345640421,0.033567849546670914,0.16528265178203583,0.20289412140846252,-0.30116474628448486,-0.10066775977611542,0.5496503114700317,-0.023168111220002174,-0.4564926028251648,-0.0019581648521125317,0.14440041780471802,-0.12649402022361755,0.23427021503448486,-0.17613571882247925,0.010844344273209572,0.1734759658575058,0.027362527325749397,-0.2876000702381134,0.0602426640689373,-0.09516124427318573,-0.018994882702827454,-0.04944667965173721,-0.26414284110069275,0.037944816052913666,-0.5306224226951599,-0.04912084713578224,0.33821964263916016,0.08629667013883591,-0.5620395541191101,-0.16275760531425476,-0.007860148325562477,-0.02117045782506466,-0.11188547313213348,-0.39309167861938477,-0.013708400540053844,-0.01969694159924984,-0.48561549186706543,0.07710384577512741,-0.1985033005475998,-0.22089740633964539,0.000876551610417664,-0.22425468266010284,-0.03820253163576126,0.048023566603660583,-0.3228621780872345,0.22548595070838928,0.44570204615592957,-0.3568703830242157,-0.08773531019687653,-0.28711986541748047,-0.019596312195062637,-0.0816553458571434,0.09437142312526703,-0.0813615694642067,0.005307232029736042,-0.3188491761684418,-0.06678833812475204,-0.26073843240737915,0.010963649488985538,-0.3556215167045593,0.1370786428451538,-0.24581389129161835,-0.592915952205658,-0.16904953122138977,-0.07580475509166718,-0.6107127070426941,-0.0687367171049118,-0.28939691185951233,-0.7697941660881042,0.011907989159226418,0.3082644045352936,-0.011594323441386223,0.15157780051231384,-0.29413455724716187,0.05172490328550339,-0.06588241457939148,0.052352044731378555,0.01833317056298256,-0.08772257715463638,0.042081911116838455,0.30257073044776917,-0.21261809766292572,-0.11264330893754959,0.002638536971062422,-0.5666335225105286,-0.5026167631149292,-0.03803356736898422,0.04801495000720024,-0.21177299320697784,0.13211467862129211,-0.008280502632260323,-0.5915306210517883,-0.04021667316555977,-0.2843865156173706,-0.44472306966781616,0.011669369414448738,-0.36952921748161316,-0.6192290782928467,-0.5030512809753418,-0.024705160409212112,-0.3456243574619293,-0.06218254938721657,0.20178662240505219,0.012740757316350937,-0.08873019367456436,-0.04780937358736992,0.24298353493213654,-0.61847984790802,-0.02901429869234562,-0.4094613790512085,-0.06332656741142273,-0.005686732940375805,-0.0359557680785656,-0.21818704903125763,-0.16791343688964844,-0.25836601853370667,-0.2452806532382965,-0.1734367161989212,-0.12205218523740768,0.010139449499547482,0.03782444819808006,0.2155250608921051,-0.020207606256008148,-0.47774288058280945,-0.0015494311228394508,0.06081351265311241,0.02122538350522518,0.2542111873626709,-0.0316898450255394,0.07957924157381058,-0.7261003851890564,-0.23028041422367096,0.3255363702774048,0.21766746044158936,-0.01605111174285412,-0.20932209491729736,-0.20377174019813538],[-0.17543114721775055,-0.0123441182076931,0.0,0.11068370193243027,-0.04996949061751366,-0.5060945749282837,-0.07097931206226349,-0.1156269758939743,-0.02699405327439308,-0.07879132032394409,-0.007909027859568596,-0.4256747364997864,-0.0005307715618982911,0.057553380727767944,-0.0360320582985878,-0.22291108965873718,0.27431824803352356,0.004867300391197205,-0.012905758805572987,-0.3581717610359192,-0.5593417882919312,-0.23960769176483154,-0.11028265208005905,0.023637542501091957,-0.13043127954006195,0.1384258270263672,-0.015656352043151855,-0.07265350967645645,-0.018273036926984787,-0.20103879272937775,-0.25268086791038513,0.010858439840376377,-0.127726212143898,0.00713522220030427,-0.03260643407702446,0.04662126675248146,-0.001576129230670631,0.07095638662576675,-0.23118767142295837,-0.5207450985908508,0.005416599102318287,-0.0045357211492955685,-0.01538718119263649,0.022813739255070686,-0.1322086751461029,0.004938419908285141,-0.14182645082473755,-0.05655690282583237,-0.003129862481728196,-0.04426433891057968,0.05039624497294426,0.053630031645298004,0.0641893818974495,-0.07562471181154251,-0.17529615759849548,-0.0741872638463974,0.17410701513290405,-0.06937934458255768,-0.2368413656949997,0.006811052560806274,0.11287693679332733,0.1114979088306427,0.03718750923871994,-0.2600383162498474,-0.31454357504844666,-0.5192641615867615,-0.29373854398727417,0.015430504456162453,-0.14645153284072876,-0.004910508636385202,-0.000113443355076015,0.019108429551124573,0.07858313620090485,-0.051234226673841476,-0.008243659511208534,-0.028184395283460617,-0.23496504127979279,-0.09037136286497116,-0.03306431323289871,0.0779532939195633,-0.009520212188363075,-0.0476132407784462,-0.32802361249923706,-0.025615014135837555,0.02135325036942959,0.003912872169166803,-0.2597925662994385,-0.07985622435808182,0.09151796996593475,0.048381756991147995,-0.10983521491289139,-0.11577454954385757,-0.18751570582389832,-0.07651197165250778,0.007726265117526054,0.047316018491983414,-0.1856287568807602,-0.01976410485804081,-0.18734294176101685,0.06412059813737869,0.01763300783932209,-0.022283701226115227,-0.05887917801737785,-0.0024552452377974987,0.04468701779842377,0.031006475910544395,0.03468170762062073,0.007223458029329777,-0.0834687128663063,-0.13109633326530457,0.023994145914912224,-0.01295332983136177,-0.10580779612064362,0.0005773043958470225,0.009716445580124855,-0.013061976991593838,-0.054477255791425705,-0.003988774958997965,0.020979098975658417,0.2676417827606201,0.0333438403904438,0.09024874120950699,-0.10512849688529968,-0.12986686825752258,-0.011973352171480656,-0.007043545134365559,0.18376851081848145,-0.2924205958843231,-0.044762808829545975,0.2122602015733719,-0.5747514963150024,-0.28793638944625854,-0.124968022108078,-0.218035489320755,-0.024023164063692093,0.5751802921295166,-0.1531137079000473,-0.065606489777565,-0.02607770636677742,0.001729402574710548,-0.2536417543888092,0.036900393664836884,0.008907658979296684,-0.16923798620700836,0.0024911463260650635,-0.23035340011119843,-0.013304860331118107,-0.07047700881958008,-0.014637480489909649,0.0033906532917171717,-0.022609708830714226,-0.2146640568971634,-0.2493663877248764,-0.17804910242557526,-0.21438130736351013,-0.2840203046798706,-0.02536415308713913,0.06604403257369995,-0.030227184295654297,0.04276769980788231,0.008866600692272186,-0.1889486312866211,-0.0637451559305191,0.040184468030929565,-0.18061040341854095,-0.07269305735826492,0.07251103967428207,-0.014438392594456673,0.1061214804649353,0.0036235726438462734,0.05022495612502098,-0.02019985020160675,0.020355423912405968,-0.032554320991039276,-0.07775847613811493,-0.2455681562423706,-0.07692266255617142,-0.030388036742806435,-0.5216071009635925,-0.08375716954469681,0.030142785981297493,0.06548764556646347,0.0062769739888608456,-0.015292616561055183,-0.12630102038383484,0.05050114169716835,-0.024154098704457283,-0.033741842955350876,-0.013522516936063766,-0.00006902437598910183,0.0008056138176470995,-0.10195289552211761,0.012748649343848228,-0.08339978754520416,-0.05864683538675308,-0.1332082748413086,0.004409462213516235,-0.0895230621099472,-0.057334888726472855,-0.051883287727832794,-0.014939512126147747,-0.07884366065263748,0.15355852246284485,-0.06360700726509094,-0.09478463977575302,-0.012887130491435528,0.03704775124788284,-0.2853851020336151,-0.011300121434032917,-0.010034901089966297,-0.24027621746063232,-0.006360742729157209,-0.015854639932513237,0.0011480143293738365,-0.025354888290166855,-0.05720555782318115,-0.16323083639144897,0.06941773742437363,0.047540903091430664,0.10154989361763,-0.07220742851495743,-0.27156415581703186,-0.6077496409416199,-0.02782139927148819,-0.024254178628325462,0.004132825881242752,0.07037615031003952,-0.5815517902374268,0.05595635250210762,0.18280847370624542,-0.1504330188035965,-0.4503159821033478,-0.006484541576355696,-0.07349445670843124,-0.02988944761455059,-0.013943030498921871,-0.027115128934383392,-0.15277966856956482,0.012737997807562351,0.011202891357243061,-0.22776949405670166,0.007210892159491777,-0.001789044588804245,-0.0026030486915260553,0.0003982440975960344,0.08807840943336487,-0.19686295092105865,-0.1503431797027588,-0.32623621821403503,0.030034951865673065,-0.20594169199466705,-0.02237352915108204,0.004471182357519865,-0.6603639721870422,0.0016449103131890297,-0.10071487724781036],[-0.2932725250720978,-0.09037098288536072,-0.06455793976783752,0.0,-0.01173873245716095,-0.3306995630264282,-0.008686620742082596,0.04226524010300636,0.09762128442525864,0.021423932164907455,-0.010545248165726662,-0.15143033862113953,0.3769621253013611,-0.13299083709716797,-0.4647240936756134,-0.1951325386762619,0.23388075828552246,-0.1609615832567215,-0.03441668301820755,-0.4132983982563019,-0.274079829454422,0.03609739616513252,-0.5442758202552795,-0.014791207388043404,0.24095994234085083,-0.10700090229511261,-0.03807637840509415,0.0005029263556934893,0.05367427319288254,-0.004400068894028664,-0.20192132890224457,-0.11790889501571655,0.1673099249601364,-0.32664644718170166,0.021889332681894302,0.08504458516836166,0.005532830487936735,-0.6721175909042358,-0.019906604662537575,0.03737734630703926,0.05286484211683273,-0.032361894845962524,-0.24976716935634613,0.06310760229825974,-0.1311713457107544,-0.258428692817688,-0.0743088498711586,0.025544878095388412,-0.03486171364784241,-0.19762443006038666,-0.33226776123046875,-0.02730189450085163,0.12711040675640106,-0.3609207272529602,0.13757562637329102,-0.8736544251441956,-0.09953499585390091,0.05672786012291908,0.0005099672125652432,0.02674352005124092,-0.05164489522576332,0.0020038755610585213,-0.10903012007474899,-0.27854451537132263,-0.0015168426325544715,-0.08363986015319824,0.004402057733386755,-0.08572076261043549,0.0014052168698981404,-0.26442456245422363,-0.0025731916539371014,-0.896414577960968,0.0844179168343544,-0.4608166515827179,-0.3279348909854889,0.018785057589411736,-0.06671672314405441,-0.0007154670893214643,-0.2110566347837448,-0.341461181640625,-0.04580297693610191,-0.5126572251319885,0.337118536233902,0.05489127337932587,-0.1528538465499878,-0.050619639456272125,-0.5262806415557861,-0.61041659116745,-0.3646852374076843,-0.29296743869781494,0.2322532832622528,-0.0075215850956737995,0.031625837087631226,0.1549360752105713,-0.03203815594315529,-0.3976454436779022,0.36105239391326904,-0.029938597232103348,-0.014935649931430817,-0.05568781867623329,-0.14368513226509094,-0.2590675354003906,-0.5405402779579163,0.0771947130560875,-0.019501565024256706,-0.039123594760894775,0.013068338856101036,-0.05359973758459091,-0.25001785159111023,-0.7504377961158752,-0.0010276950197294354,-0.002710803644731641,0.032131243497133255,0.000726386031601578,-0.22327400743961334,0.0008639761945232749,-0.04112760350108147,-0.11778610944747925,-0.39659416675567627,0.005422619637101889,0.026863960549235344,-0.23347976803779602,-0.7451433539390564,-0.07991185039281845,-0.01144722942262888,0.05033743381500244,0.017886433750391006,0.012214934453368187,-0.00027528885402716696,0.17488092184066772,-0.0015484951436519623,-0.6818752288818359,0.013499054126441479,-0.46543169021606445,-0.3780794143676758,-0.24135787785053253,0.0008458054508082569,0.03310352936387062,0.5042945146560669,-0.01080310344696045,-0.08900019526481628,-0.2044825702905655,0.06389125436544418,-0.1406305730342865,0.00998706929385662,-0.49238425493240356,-0.33519628643989563,0.03652489557862282,-0.04167035594582558,0.006841799709945917,0.021198498085141182,-0.026063110679388046,0.08869504928588867,0.0034823748283088207,-0.007150702178478241,-0.011961412616074085,-0.0009183617075905204,-0.04241173341870308,0.16808103024959564,0.04183365777134895,-0.452862024307251,0.0724220797419548,-0.21820704638957977,-0.30544716119766235,-0.2513332962989807,-0.21011649072170258,-0.48496243357658386,0.050483375787734985,0.2500033676624298,-0.20466026663780212,-0.004271892365068197,-0.042076174169778824,0.04194134101271629,0.14155466854572296,0.020127665251493454,0.02238508127629757,0.05835070088505745,0.010522781871259212,-0.3294476866722107,0.021835308521986008,-0.09278243035078049,0.21407818794250488,-0.11920643597841263,-0.3535338044166565,-0.6007212996482849,-0.001014057663269341,-0.01674756407737732,-0.557354748249054,-0.08919716626405716,0.01393460389226675,-0.004850465804338455,-0.005566681735217571,-0.08636318892240524,0.18822212517261505,0.007627117447555065,-0.09948701411485672,0.010882549919188023,-0.04196272790431976,0.10388973355293274,0.0010644419817253947,-0.26883426308631897,-0.0018132086843252182,-0.813835859298706,-0.25686922669410706,0.00987332034856081,-0.056990887969732285,-0.348246306180954,0.007578880526125431,0.019368652254343033,-0.1008015051484108,0.0010366867063567042,0.05035761371254921,-0.20712241530418396,-0.15771432220935822,-0.3864609897136688,0.000635074800811708,-0.052530594170093536,-0.027701320126652718,-0.2920182943344116,-0.2884148359298706,-0.04077852517366409,-0.013390246778726578,-0.42668914794921875,-0.01955684833228588,-0.006209147162735462,-0.678338348865509,0.007008915301412344,-0.339250773191452,-0.035747554153203964,-0.24624459445476532,-0.01091602724045515,-0.33496060967445374,0.12018395215272903,-0.03677396476268768,-0.06905724108219147,0.11835254728794098,0.162387415766716,0.1331983059644699,-0.03833303600549698,-0.003445128910243511,-0.015109590254724026,-0.007838163524866104,-0.2769656479358673,-0.07810746133327484,-0.0008310066186822951,-0.34038957953453064,-0.7947605848312378,0.02975262515246868,-0.21642029285430908,-0.35684555768966675,-0.025997290387749672,-0.12056279927492142,-0.008752870373427868,-0.2547748386859894,-0.21519595384597778,-0.03995657339692116],[-0.5354982614517212,-0.3219151198863983,0.034543056041002274,-0.04807956889271736,0.0,-0.8736002445220947,0.010252579115331173,-0.12830820679664612,-0.020252881571650505,0.02031128667294979,-0.018271688371896744,-0.7346127033233643,-0.03936000540852547,0.0896749272942543,-0.47653698921203613,-0.5248593091964722,-0.03578730672597885,0.011893656104803085,0.05562543496489525,0.0013732400257140398,-0.941356360912323,0.013789631426334381,-0.4036775529384613,-0.029257435351610184,0.012291894294321537,0.04967856779694557,0.01103844866156578,-0.022749900817871094,-0.10300572216510773,-0.5064471364021301,-0.001341432798653841,-0.09117519855499268,0.22067378461360931,0.15600945055484772,-0.001396775827743113,0.00585362920537591,-0.06914380937814713,-0.1331547349691391,0.0022203975822776556,-0.11250023543834686,0.09990537166595459,-0.004464324563741684,-0.1405671238899231,0.0011697608279064298,-0.08604240417480469,-0.12683942914009094,-1.1985869407653809,-0.1663498878479004,0.3292910158634186,0.0688411071896553,-0.06509220600128174,0.2227250337600708,0.05016239359974861,0.4560707211494446,0.003252373542636633,-0.12536275386810303,-0.0015762456459924579,-0.30460500717163086,-0.049501191824674606,-0.6464998126029968,-0.02987748384475708,0.10930553078651428,-0.03860647976398468,-0.11739883571863174,0.03645714372396469,-0.201325461268425,0.015857692807912827,-0.7606279253959656,-0.0018393602222204208,-0.004790437873452902,0.014468452893197536,-0.24534577131271362,0.3984372913837433,-0.21834687888622284,-0.010212445631623268,0.08374053984880447,0.01857427880167961,-0.0559999980032444,-0.45408710837364197,-0.00026897471980191767,-0.2049766182899475,0.023045601323246956,0.00661638705059886,0.13276971876621246,-0.003321259981021285,-0.007508535869419575,0.4016008675098419,-0.06880026310682297,0.02188597060739994,-0.605137050151825,-0.4787585437297821,-0.498818039894104,0.009681183844804764,-0.304211288690567,-0.01708086207509041,-0.04799233004450798,0.0005472166812978685,-0.05120987445116043,-0.012282869778573513,-0.07377023994922638,-0.24013373255729675,-0.0645693987607956,-0.0021071687806397676,-0.00007408262172248214,0.12193790823221207,-0.18395967781543732,-0.5985972881317139,0.26532623171806335,0.06185055896639824,0.0021618197206407785,-0.07173825800418854,-0.9903714060783386,-0.3314424157142639,0.012120984494686127,-0.004438324831426144,0.0008860074449330568,0.17688284814357758,0.003684551455080509,-0.0012148647801950574,0.3005463182926178,-0.18417799472808838,-0.04900739714503288,-0.31785067915916443,-0.0014153635129332542,-0.0016798822907730937,-0.34112349152565,0.09843520820140839,-0.023260846734046936,-0.09835297614336014,0.0010265151504427195,-0.00547316949814558,-0.4825369417667389,-0.02217043749988079,0.007397212088108063,0.011411505751311779,0.03729219362139702,0.0001640709233470261,-0.25026750564575195,-0.06791753321886063,-0.18648087978363037,-0.16135862469673157,-0.47347491979599,0.0004754492547363043,-0.001880160765722394,-0.04289599135518074,-0.1891396939754486,-0.001459171762689948,0.054984964430332184,-0.030003247782588005,0.005785944405943155,0.003452611155807972,0.01779681257903576,-0.48112303018569946,0.0222036000341177,-0.05338910222053528,0.04299066215753555,-0.018079284578561783,-0.6361264586448669,-0.22419597208499908,-0.06607543677091599,0.046256400644779205,-0.021871857345104218,-0.06588458269834518,-0.008016356267035007,-0.3319111466407776,-0.42230451107025146,-0.02739224024116993,0.0015015467070043087,0.008631947450339794,-0.12342622131109238,0.03605380654335022,-0.3942239284515381,-0.09854373335838318,-0.9938948154449463,-0.13880331814289093,0.0040383106097579,0.0023874796461313963,-1.3280839920043945,-0.8754522204399109,-0.012488148175179958,-0.3746710419654846,0.34691402316093445,0.586612343788147,-0.17175792157649994,0.0320640467107296,-0.09966485947370529,-0.05414155498147011,0.10959134250879288,-0.20904208719730377,-0.3863939642906189,-0.012047194875776768,-0.07921046018600464,0.16215629875659943,-0.00917380303144455,-0.0060996487736701965,-0.3140608072280884,0.08991599082946777,-0.017983369529247284,0.03460739552974701,-0.10531707853078842,-0.007528390269726515,-0.19971486926078796,-0.018194710835814476,0.1103045865893364,0.03961578384041786,-0.001152040553279221,0.08401340991258621,0.04161382094025612,-0.007944158278405666,0.14278088510036469,-0.022133268415927887,0.004644571337848902,-0.28200405836105347,-0.008369224146008492,-0.022385982796549797,-0.014020104892551899,0.0599847212433815,0.06343042105436325,0.1698359102010727,-0.09009497612714767,0.0014651822857558727,-0.17870791256427765,-0.6699281334877014,-0.0022497307509183884,-0.01416118536144495,-0.05178811028599739,-0.012077159248292446,-0.08180274069309235,0.032123759388923645,-0.029270024970173836,-0.0005380463553592563,-0.08229238539934158,0.17198039591312408,-0.1315075159072876,-0.2342211753129959,-0.3542548418045044,-0.6118134260177612,-0.20931801199913025,0.23209518194198608,-0.5867562890052795,-0.23549889028072357,-1.1043888330459595,0.301778107881546,0.2569994330406189,-0.0004204625147394836,-0.10798758268356323,-0.3968085050582886,-0.15083430707454681,-0.23308120667934418,0.05688756704330444,-0.08604158461093903,-0.21837501227855682,-0.09141412377357483,-0.8297531008720398,-0.06864802539348602,-0.20178286731243134],[-0.01294341217726469,-0.11093731224536896,0.16221444308757782,0.02693283185362816,0.00680135702714324,0.0,0.06936756521463394,-0.011701732873916626,0.04859699681401253,-0.02216396853327751,0.025059178471565247,0.35800617933273315,0.019838694483041763,0.007933327928185463,0.045434024184942245,-0.0027548763900995255,0.07706335932016373,0.0035018844064325094,-0.12175009399652481,-0.2126307636499405,0.30229753255844116,0.0040258681401610374,-0.0011373093584552407,-0.030157405883073807,-0.09072834998369217,-0.018019016832113266,-0.17704716324806213,-0.06700337678194046,-0.0014268879313021898,-0.11560250073671341,-0.2561527490615845,-0.40947315096855164,-0.02438880316913128,-0.03149789944291115,0.0026238388381898403,0.015022634528577328,0.03554195910692215,0.03145422786474228,-0.10989078134298325,-0.011839659884572029,-0.02376515232026577,0.0022071690764278173,0.014327351935207844,0.013494465500116348,-0.005850667133927345,0.07483815401792526,0.016518091782927513,0.0006290771416388452,0.03401699662208557,-0.08601511269807816,0.022676710039377213,0.08056008815765381,-0.11177761107683182,-0.007927731610834599,-0.09654734283685684,-0.1187238097190857,0.015193154104053974,-0.08425986021757126,-0.020765969529747963,-0.0000887664791662246,-0.017024414613842964,0.03544113039970398,0.008288086391985416,0.00021435263624880463,-0.1658714860677719,-0.030865637585520744,-0.006734908092767,0.05204969644546509,0.15311989188194275,0.02587784454226494,-0.2617044150829315,-0.0015404976438730955,0.03664390742778778,-0.4123481512069702,-0.006111497059464455,-0.00396076962351799,-0.40032321214675903,-0.2831824719905853,0.020298870280385017,0.21704880893230438,-0.014045038260519505,-0.09936422854661942,0.022017018869519234,0.014409225434064865,0.045799802988767624,-0.4688383936882019,0.026459945365786552,0.048138827085494995,-0.25003039836883545,0.0036523339804261923,0.164333313703537,-0.02504895068705082,0.0013038909528404474,-0.13701732456684113,0.05005531385540962,0.037649959325790405,-0.03145403042435646,0.010737638920545578,-0.41003385186195374,-0.07247805595397949,-0.07003641873598099,-0.017412196844816208,-0.039719127118587494,0.041133586317300797,0.17991138994693756,0.0406302846968174,-0.0931914895772934,-0.031190795823931694,0.04225853085517883,-0.007681828457862139,0.022810915485024452,0.040320590138435364,-0.11046769469976425,0.007243169005960226,-0.2560800611972809,0.043860625475645065,-0.04364915192127228,-0.06726986169815063,-0.16407285630702972,-0.0005253579583950341,-0.004235222004354,0.12935198843479156,-0.007944921962916851,-0.15497668087482452,-0.23082031309604645,0.03447001427412033,0.00526500353589654,0.00033832775079645216,-0.08104687184095383,0.06813362240791321,-0.3715321719646454,-0.09770449250936508,0.03369725123047829,0.05350567772984505,0.08680610358715057,0.030861927196383476,-0.10350244492292404,-0.007127298973500729,0.02486192062497139,0.049595508724451065,-0.35042181611061096,0.030851123854517937,-0.022952362895011902,-0.39169594645500183,0.015878133475780487,-0.04166904464364052,-0.07242640852928162,-0.1782611757516861,-0.27261844277381897,0.012409266084432602,-0.026854943484067917,-0.05148327723145485,-0.06286557763814926,-0.06737209856510162,0.0039944336749613285,0.02985551208257675,0.03512611612677574,-0.001611847197636962,-0.11663046479225159,0.007075552828609943,-0.0431143119931221,0.03222840279340744,-0.03621961548924446,0.02942506968975067,0.0026066696736961603,0.011560510843992233,0.007994874380528927,0.06587175279855728,0.03733772039413452,-0.16489391028881073,-0.28156450390815735,-0.09864195436239243,-0.13787595927715302,-0.006336462218314409,-0.03568590432405472,-0.02388123609125614,-0.023066341876983643,0.08657973259687424,0.15563556551933289,-0.13966865837574005,0.014947843737900257,-0.028027351945638657,0.000443474855273962,-0.029511455446481705,-0.09425205737352371,-0.005004066973924637,0.07611867785453796,-0.006389144342392683,-0.056703731417655945,-0.05255308002233505,-0.015681123360991478,0.03238068148493767,-0.1290140002965927,-0.08669634908437729,-0.0251681637018919,-0.022236179560422897,-0.19958241283893585,-0.011548483744263649,-0.03781222924590111,-0.08871594071388245,-0.011997219175100327,-0.14881573617458344,-0.04741474613547325,0.015055393800139427,-0.08026540279388428,0.00020965401199646294,-0.05686340853571892,-0.025458676740527153,0.021983545273542404,0.06710057705640793,-0.5936118960380554,-0.00038883238448761404,-0.009930470958352089,-0.10798066109418869,-0.09552914649248123,0.009227432310581207,-0.3102635145187378,-0.10158853232860565,0.03335144370794296,-0.01746981404721737,-0.012885813601315022,-0.11493033170700073,1.0565717220306396,-0.21068303287029266,-0.017739729955792427,-0.021062830463051796,0.014118985272943974,0.27784109115600586,-0.18186967074871063,0.005536122713238001,-0.0028763480950146914,0.06274836510419846,0.10740698873996735,-0.1785762757062912,-0.007364365737885237,-0.08444011956453323,-0.006937974598258734,0.022941604256629944,0.02197038009762764,-0.0020523746497929096,0.0006331869517453015,-0.0006342747947201133,-0.002948976820334792,-0.11426390707492828,-0.008405238389968872,-0.25485458970069885,0.004050785209983587,0.01669919677078724,-0.04303283989429474,-0.12666454911231995,-0.10292672365903854,0.01426619291305542,0.040567994117736816,0.013735698536038399,0.0707794576883316,-0.005118811037391424],[0.034209996461868286,-0.13651113212108612,-0.00881753396242857,0.002127339132130146,-0.19732874631881714,0.45166102051734924,0.0,0.008747141808271408,0.4518808126449585,0.00027280458016321063,0.002512212609872222,0.010660011321306229,-0.06654458492994308,-0.018258463591337204,0.06709431111812592,0.007504638750106096,0.03802065923810005,-0.035207293927669525,-0.46837106347084045,-0.5391168594360352,0.5173097252845764,0.9975432753562927,-0.06447140872478485,-0.8099545240402222,0.061676621437072754,0.04883287847042084,-0.5440304279327393,0.22952096164226532,0.1501564383506775,-0.22913087904453278,-0.1902504861354828,-0.6509813666343689,0.47744250297546387,0.4191538691520691,0.19804887473583221,-0.23828475177288055,0.0283643938601017,0.005488193593919277,0.025506846606731415,0.04426802322268486,-0.13092035055160522,-0.4145517647266388,0.11204236000776291,-0.00005963563671684824,-0.16125492751598358,0.03246292099356651,-0.07799578458070755,-0.012504495680332184,-0.22517672181129456,-0.40732333064079285,-0.06829898804426193,-0.07412798702716827,-0.08634143322706223,0.0072417655028402805,-0.036898281425237656,-0.004346659407019615,0.02385089360177517,-0.12696218490600586,-0.3975571095943451,0.13939140737056732,-0.16250817477703094,-0.01825087144970894,-0.2007082998752594,-0.029008856043219566,0.3683265745639801,0.07726535946130753,0.8745665550231934,0.07931949943304062,0.2109861671924591,0.01272323913872242,-0.789395809173584,-0.07473590970039368,-0.11626143753528595,-0.09070132672786713,0.15745939314365387,0.26318231225013733,-0.28530409932136536,0.03316861018538475,0.02488594874739647,-0.12358766049146652,0.0679263174533844,0.008960788138210773,0.05317511782050133,-0.07795442640781403,-0.20707476139068604,-0.7796261310577393,0.038148876279592514,0.27921947836875916,-0.5009482502937317,0.33411628007888794,0.24966014921665192,0.09442833811044693,0.5202329754829407,0.05336206406354904,-0.18536826968193054,-0.013592541217803955,0.12740716338157654,-0.01298459805548191,-0.899255633354187,0.06456280499696732,0.010172797366976738,-0.046894293278455734,-0.31849634647369385,-0.07707565277814865,-0.000002109176875819685,-0.009339057840406895,-0.00446303142234683,-0.7287947535514832,0.5111605525016785,-0.2801866829395294,-0.13989447057247162,0.05517074093222618,-0.14474110305309296,-0.13258026540279388,-0.2093297392129898,-0.002336830599233508,-0.46965861320495605,0.011524512432515621,0.011004706844687462,-0.6265817284584045,-0.0019941856153309345,-0.11083916574716568,0.06440573185682297,-0.8501463532447815,-0.34815868735313416,-0.16473239660263062,-0.3622187376022339,0.6611356735229492,0.30454105138778687,-0.11750141531229019,-0.42894384264945984,-0.07806230336427689,0.031042154878377914,-0.01159088034182787,0.24805884063243866,-0.23200106620788574,0.5219258666038513,0.04318842664361,-0.207045316696167,0.0009804426226764917,-0.06655210256576538,0.09136170148849487,-0.04623710736632347,-0.1657276451587677,-0.0004279345739632845,0.09020868688821793,-0.24857068061828613,0.18494245409965515,-0.5947182774543762,-0.06709770858287811,-0.06632091850042343,0.004018495790660381,-0.005165818613022566,0.19604900479316711,-0.04447973519563675,0.7780070304870605,-0.018680425360798836,0.04201075807213783,-0.029734479263424873,-0.027739951387047768,0.008670559152960777,-0.062124285846948624,-0.08753353357315063,-0.12930627167224884,0.0032747441437095404,0.0003962523478548974,0.10792993009090424,0.10440003126859665,-0.4556202292442322,-0.6413456797599792,-0.5885411500930786,0.08065500855445862,-0.21986661851406097,-0.015503687784075737,-0.19974640011787415,0.44803857803344727,-0.0031785154715180397,-0.014841114170849323,0.13467718660831451,0.37122437357902527,0.014752216637134552,0.0020141503773629665,-0.21335609257221222,-0.4171305000782013,0.0030741405207663774,-0.07924364507198334,0.013998475857079029,-0.0732361301779747,0.03984056040644646,0.12981002032756805,0.06013231351971626,-0.8516656160354614,0.36223840713500977,0.24922825396060944,-0.28845134377479553,-0.011136919260025024,-0.26166313886642456,-0.10348060727119446,-0.10472888499498367,0.017109589651226997,-0.08639124035835266,-0.2861233651638031,-0.016269750893115997,0.053753867745399475,-0.5420582294464111,0.1314569115638733,-0.06754588335752487,-0.0005778502090834081,-0.07204249501228333,0.05812392383813858,-0.7664570808410645,-0.03908199444413185,-0.16113145649433136,-0.2982390522956848,-0.04232325777411461,0.053942035883665085,-0.4774690270423889,0.8191725015640259,0.01616440713405609,-0.1655224859714508,-0.023247752338647842,-0.0015622273785993457,0.26527461409568787,-0.37290218472480774,-0.017051341012120247,0.013370406813919544,-0.025202475488185883,0.018839260563254356,-0.19763688743114471,-0.04235048592090607,0.0024269879795610905,-0.015506218187510967,0.00441313860937953,-0.07500229775905609,0.26984313130378723,-0.013389785774052143,0.10598457604646683,-0.0838375836610794,-0.010000880807638168,0.019319061189889908,0.074266716837883,-0.00044937836355529726,0.05000825598835945,-0.38990047574043274,0.01853635162115097,-0.15871506929397583,-0.03871632739901543,-0.008811875246465206,0.05506302788853645,0.577116072177887,0.13193878531455994,-0.013455181382596493,-0.01591598056256771,0.12774692475795746,-0.0005936124944128096,-0.33434271812438965],[-0.03842521831393242,-0.07328016310930252,-0.1323210597038269,0.0157025046646595,0.15278814733028412,-0.024416280910372734,-0.2993023991584778,0.0,-0.4156275987625122,-0.6680747866630554,-0.00009973314445232973,0.040938012301921844,0.03503381088376045,-0.0955103412270546,-0.01380262989550829,-0.10191522538661957,-0.2158384472131729,-0.5660213232040405,-0.39296120405197144,-1.2350645065307617,0.020104752853512764,-0.10290838778018951,-0.09658610075712204,-0.005763973109424114,0.12051593512296677,-0.02163739874958992,0.001468238653615117,-0.24466893076896667,-0.30645495653152466,0.22149692475795746,-1.277996301651001,-0.5061395764350891,-0.009455239400267601,-0.00028215430211275816,-0.00435537938028574,-0.4096852242946625,-0.08679257333278656,-0.009369571693241596,0.10913941264152527,-0.009543201886117458,-0.01658450998365879,-0.18397672474384308,0.003356789005920291,-0.3030936121940613,-0.2313431352376938,-0.026929961517453194,0.1964106559753418,-0.5280373692512512,-0.0043715666979551315,0.19069094955921173,-0.32034537196159363,-0.0020719205494970083,0.057741641998291016,0.04417979344725609,-0.48996633291244507,0.05039398744702339,-0.12447912991046906,0.027097539976239204,-0.5666088461875916,-0.12554630637168884,0.08357735723257065,0.014707503840327263,0.2435169368982315,-0.24311338365077972,-0.84104323387146,0.009339713491499424,-0.3310171663761139,0.45390212535858154,-0.05739029869437218,0.18442082405090332,-0.05308464914560318,-0.07752571254968643,0.06174151971936226,0.2561870217323303,0.011439207941293716,0.14173604547977448,0.050450317561626434,-0.018221953883767128,0.3662693202495575,-0.03749043866991997,-0.2986379563808441,-0.07696864753961563,0.03324148431420326,0.020100023597478867,0.0002930598857346922,-0.9330228567123413,0.13997530937194824,-0.02271307073533535,-0.6505394577980042,0.3366539180278778,-0.06641730666160583,-0.02610630728304386,-0.38455885648727417,-0.0005649595404975116,0.08719847351312637,-0.17857325077056885,0.08782829344272614,-0.2204640507698059,-1.2238669395446777,-0.13741880655288696,-0.161986842751503,0.03900785371661186,0.059854596853256226,-0.2027604877948761,-0.7216209173202515,0.21872970461845398,-0.019782086834311485,-0.09960664808750153,0.10326746851205826,-0.007716450374573469,0.3241078555583954,0.2515043616294861,-0.042206525802612305,-0.4215155243873596,-0.6361874938011169,0.09089426696300507,0.056762296706438065,-0.09855248034000397,0.015767427161335945,0.017770150676369667,0.06832333654165268,-0.016609227284789085,-0.046664975583553314,-0.8861929178237915,0.08725900948047638,-0.007833419367671013,0.00040294407517649233,-0.34307628870010376,-0.25196266174316406,0.14185431599617004,-0.8388714790344238,-0.19021214544773102,-0.1705753654241562,-0.02970964089035988,0.00976705551147461,-0.0038456274196505547,-0.4510805010795593,-0.05272604152560234,-0.24569839239120483,-0.24231714010238647,0.09215200692415237,-0.21029098331928253,0.013717430643737316,-0.5943635702133179,-0.07869479060173035,-0.18155458569526672,-0.043624915182590485,-0.3554638624191284,-0.5063229203224182,-0.03466891869902611,-0.0380801185965538,0.12187520414590836,0.26374804973602295,0.02566417306661606,-0.016478855162858963,0.15239229798316956,0.018666036427021027,0.37652793526649475,0.05482114478945732,0.48907041549682617,-0.0006597093888558447,0.029461879283189774,0.029546085745096207,-0.06220760941505432,0.022542767226696014,-0.14392726123332977,-0.0034593231976032257,-0.039156585931777954,0.20360969007015228,-0.20226535201072693,-0.17388540506362915,-0.152947336435318,0.3393135070800781,-0.0014616813277825713,0.5222059488296509,0.13505594432353973,-0.18000178039073944,-0.010995356366038322,0.37214651703834534,-0.14016622304916382,-0.035328034311532974,0.20559491217136383,0.011740324087440968,0.035614605993032455,0.03925243020057678,-0.3298291862010956,-0.5433317422866821,0.021179087460041046,-0.07056025415658951,-0.20577894151210785,-0.24832937121391296,-0.0529409721493721,-0.15885783731937408,-0.0030403814744204283,0.08970943838357925,0.1732666790485382,-1.2608774900436401,0.10207091271877289,0.09211298078298569,-0.17587250471115112,0.12270816415548325,-0.16373516619205475,0.027269059792160988,0.016489068046212196,-0.49637389183044434,-0.1455031782388687,-0.5886062979698181,0.20099890232086182,0.03313097730278969,0.2074788361787796,-0.8399065732955933,-0.17452530562877655,-0.2815593481063843,-1.1433908939361572,0.14344990253448486,0.16465973854064941,0.015044046565890312,-0.13641662895679474,0.03506931662559509,0.01981503702700138,0.44174250960350037,-0.00215148669667542,-0.0010436244774609804,-0.3644462525844574,-0.3410528898239136,0.05707559734582901,0.017967458814382553,0.011387958191335201,-0.36054545640945435,0.19174447655677795,-0.11855528503656387,0.204995796084404,0.3270808756351471,0.3641502261161804,-0.006493588909506798,-0.12767677009105682,-0.11680451780557632,-0.4639180302619934,0.004070588853210211,0.016884207725524902,-0.04728412255644798,0.013424346223473549,0.0035923642572015524,-0.0037315122317522764,-0.061065059155225754,-0.2571711242198944,0.02354932762682438,-0.14636878669261932,-0.15710993111133575,0.07809005677700043,-0.4719974398612976,0.03485032916069031,0.24221573770046234,0.02892662025988102,-0.12551183998584747,0.32071390748023987],[-0.3636736571788788,0.031827546656131744,-0.07020869106054306,-0.15773147344589233,-0.2558158040046692,-0.22062522172927856,0.7537811994552612,-0.08477266877889633,0.0,0.00163706811144948,-0.006211181171238422,-0.06418801844120026,-0.11238806694746017,-0.3706846535205841,-0.1423909217119217,-0.29198160767555237,-0.032596468925476074,0.22488754987716675,0.007181085180491209,0.26430752873420715,-0.031337399035692215,0.04247765243053436,-0.1474246233701706,-0.13893596827983856,-0.057437967509031296,-0.05702226608991623,-0.011554179713129997,0.1517009139060974,0.05297063663601875,-0.5662780404090881,-0.0015871217474341393,0.04465324059128761,-0.34495556354522705,-0.028471173718571663,-0.059878356754779816,-0.00004699719647760503,-0.006680181249976158,-0.28719690442085266,-0.11461354047060013,-0.07080595195293427,-0.28143104910850525,-0.0008780109928920865,-0.0009693729807622731,-0.004510082770138979,-0.36415132880210876,0.02593185007572174,-0.710967481136322,0.044677734375,-0.31881558895111084,-0.20578843355178833,0.03514164686203003,-0.2771773934364319,-0.08877437561750412,-0.43361690640449524,0.03509367257356644,0.18324196338653564,-0.40216630697250366,-0.32186731696128845,-0.041486937552690506,0.017917679622769356,-0.14846383035182953,-0.03719514235854149,-0.03849197179079056,-0.02182678133249283,-0.03321467339992523,-0.05428258702158928,0.5396295189857483,-0.37784892320632935,0.003180336207151413,-0.014507276937365532,-0.4960388243198395,0.3301868140697479,-0.24582025408744812,0.031322646886110306,0.0003254242765251547,-0.3987434506416321,-0.15473920106887817,0.045837514102458954,-0.0298833679407835,-0.000497226370498538,0.06900493800640106,-0.0021523036994040012,-0.0027886726893484592,-0.0009606679668650031,0.011280982755124569,-0.0015113957924768329,-0.4087631404399872,-0.006300670560449362,0.003431457094848156,-0.010179168544709682,-0.6907447576522827,-0.2658841609954834,0.13893873989582062,-0.17489804327487946,-0.008481341414153576,-0.0002686292864382267,0.006015847437083721,-0.13072852790355682,-0.024527616798877716,0.014515379443764687,-0.006645622663199902,-0.000311943149426952,-0.021320857107639313,0.009431046433746815,-0.007014949806034565,-0.5520190000534058,0.1120360791683197,-0.03772546350955963,-0.014395909383893013,0.011012330651283264,-0.10001851618289948,-0.4448370039463043,-0.6280571222305298,0.02684526890516281,0.24877844750881195,-0.11580319702625275,0.10813234746456146,0.005136279389262199,0.1373002976179123,-0.7917171716690063,-0.10452277213335037,-0.08093294501304626,-0.0614263117313385,0.06886979192495346,-0.2288450449705124,-0.012727814726531506,0.16903670132160187,0.48386362195014954,0.17279811203479767,-0.09293117374181747,-0.17182031273841858,-0.020172476768493652,0.06014501303434372,0.021446308121085167,-0.0001613307831576094,-0.2384883165359497,0.0031244687270373106,-0.5260654091835022,-0.7012460827827454,-0.05602404847741127,-0.03752469643950462,-0.10100900381803513,-0.06669606268405914,-0.008708598092198372,0.26150235533714294,-0.056016165763139725,-0.00311958696693182,0.003786907298490405,-0.052809230983257294,-0.255341500043869,0.007156146690249443,0.17379817366600037,-0.41966715455055237,-0.008235089480876923,-0.16936396062374115,-0.0005650402163155377,0.04988236725330353,-0.06887909024953842,0.0808834359049797,-0.2628519833087921,0.21150732040405273,-0.15266895294189453,-0.031366121023893356,-0.006779398303478956,0.06199156865477562,-0.011751916259527206,-0.008322937414050102,-0.2836017310619354,-0.0034084150101989508,-0.027625396847724915,-0.17360910773277283,-0.36326679587364197,-0.035765234380960464,-0.4685589671134949,-0.006289697717875242,-0.005945548880845308,0.07995875924825668,0.03702327609062195,-0.27055832743644714,-0.0023561441339552402,-0.1118796169757843,-0.6685431003570557,-0.802744448184967,-0.18646009266376495,-0.19259534776210785,0.032155707478523254,0.08752951771020889,-0.45634323358535767,-0.10268993675708771,0.049892209470272064,-0.12218617647886276,-0.25837430357933044,0.5603909492492676,0.006991781760007143,0.00009824972948990762,-0.010099605657160282,0.10700588673353195,-0.11557556688785553,-0.2409975677728653,0.0013219057582318783,-0.00416724756360054,0.09099136292934418,-0.03318255394697189,-0.4097583293914795,-0.18113982677459717,0.0010101390071213245,0.15505273640155792,0.13017792999744415,0.11156224459409714,0.04694810509681702,-0.12770895659923553,0.02307916060090065,-0.061815857887268066,0.0694630816578865,0.019562244415283203,-0.009308929555118084,-0.003379787551239133,0.7961416244506836,-0.13019992411136627,0.00010656157974153757,0.05005359649658203,0.050430480390787125,-0.020227057859301567,-0.0725674256682396,0.0036046262830495834,-0.0225342009216547,-0.014514144510030746,-0.03202029690146446,0.027418864890933037,-0.2472907304763794,-0.26340892910957336,-0.1671839952468872,-0.5006690621376038,-0.12430951744318008,0.0031574133317917585,-0.07688353210687637,-0.35862553119659424,-0.35459306836128235,-0.2893950939178467,-0.3560449182987213,-0.0011387044796720147,-0.1602669507265091,-0.33637353777885437,-1.368666648864746,0.020501740276813507,-0.004403709899634123,-0.1168198511004448,0.00674755685031414,0.11733251065015793,0.31707996129989624,0.052815280854701996,-0.16103647649288177,-0.31939610838890076,0.016385270282626152,0.0012874644016847014,-0.18498021364212036],[-0.037627387791872025,-0.040640123188495636,-0.6474940180778503,0.0010356629500165582,-0.2679674029350281,-0.40087011456489563,-0.4259192943572998,-0.06032126769423485,-0.5522693395614624,0.0,-0.0006701411912217736,-0.09779595583677292,0.05511387810111046,-0.5580408573150635,0.04353778064250946,0.10590872913599014,-0.21980775892734528,0.21690233051776886,0.04989773407578468,-0.42433157563209534,-0.6280416250228882,0.08124765008687973,-0.0010597441578283906,-0.17919515073299408,-0.13826440274715424,0.016707496717572212,0.015043376013636589,-0.0016795240808278322,-0.3310562074184418,-0.08806685358285904,-0.5580738186836243,-0.17868579924106598,-0.4848906993865967,-0.00783917959779501,0.14740794897079468,-0.005065762437880039,-0.25370627641677856,0.17507898807525635,-0.00047370794345624745,-0.2783432602882385,-0.27656498551368713,-0.6171713471412659,-0.3104119896888733,0.19339030981063843,0.08677911013364792,0.021919135004281998,0.21433843672275543,-0.17536461353302002,-0.4480021595954895,0.18838000297546387,0.10405462235212326,0.004509752616286278,0.033975888043642044,-0.047236181795597076,0.041506264358758926,-0.07728982716798782,-0.07174660265445709,-0.41708123683929443,-0.00929164793342352,0.024856820702552795,0.011824792250990868,-0.24127838015556335,-0.2615062892436981,-0.0015770065365359187,0.20066797733306885,-0.03182092308998108,0.06974197924137115,0.039693016558885574,0.21141444146633148,0.016020342707633972,-0.6097431182861328,-0.1210678294301033,-0.19698159396648407,-0.24816741049289703,0.002484054071828723,-0.14540298283100128,0.24287571012973785,0.01761709526181221,-0.12158946692943573,-0.5352140665054321,-0.4105744957923889,0.18454129993915558,0.007121349219232798,0.2231629639863968,-0.8074418306350708,-0.2510320842266083,0.13296400010585785,-0.2011636197566986,-0.16587702929973602,0.04399353265762329,0.006609379779547453,-0.38514047861099243,0.043635111302137375,-0.328225314617157,-0.9964432716369629,-0.21022780239582062,0.04669409990310669,-0.018664458766579628,-0.5448805093765259,0.0014455440687015653,-0.33205509185791016,-0.23764841258525848,-0.03450856730341911,-0.010528920218348503,-0.04763241484761238,-0.08842723071575165,-0.004401706159114838,0.1576448678970337,-0.0012150212423875928,-0.007345716003328562,-0.007051809225231409,0.11014809459447861,-0.18555064499378204,0.05361902341246605,-0.07479048520326614,-0.002815420739352703,0.007407537195831537,-0.10274305939674377,-0.07895053923130035,-0.1701684594154358,-0.1629876345396042,-0.5241175889968872,-0.01413448341190815,-0.787664532661438,-0.1976872682571411,0.12247009575366974,-0.5326616168022156,0.14083924889564514,-0.3845341205596924,-0.6489292979240417,-0.38502222299575806,0.03578735888004303,-0.3962552547454834,-0.2144571989774704,0.11295711249113083,-0.2842009961605072,0.1150352731347084,-0.14415577054023743,0.06402811408042908,-0.30647608637809753,-0.13255418837070465,-0.06406213343143463,-0.3890506327152252,-0.13410961627960205,-0.21708892285823822,0.013566003181040287,-0.04612606763839722,0.2935696244239807,0.03549063950777054,0.04423249885439873,0.06373375654220581,-0.2252187728881836,0.023776348680257797,0.0016506478423252702,-0.02310805581510067,0.0022133290767669678,0.03168654441833496,0.22242790460586548,-0.09815972298383713,-0.025736035779118538,-0.4030350148677826,-0.18990905582904816,-0.30446913838386536,-0.11465589702129364,0.07066824287176132,-0.03471435233950615,0.0012535660061985254,-0.06065221130847931,-0.04142550379037857,-0.6065361499786377,0.1589861810207367,-0.34649282693862915,-0.0022451516706496477,-0.013529867865145206,-0.09244083613157272,0.0018814188661053777,0.20665021240711212,0.3252561390399933,-0.32251617312431335,0.008082042448222637,0.02080857940018177,0.23053644597530365,-0.16048331558704376,-0.20613615214824677,-0.20028288662433624,-0.01526460237801075,-0.5453093647956848,0.20168209075927734,0.10529113560914993,0.12975166738033295,-0.010689129121601582,-0.22128890454769135,-0.3949640691280365,0.05504724010825157,-0.4433153569698334,-0.0864095389842987,0.38789647817611694,-0.05522267892956734,-0.06823598593473434,0.3151833713054657,-0.2795211970806122,-0.3334314823150635,0.13041581213474274,-0.0041070738807320595,-0.3467608094215393,0.02035387046635151,0.0016987805720418692,-0.12203459441661835,0.03211894631385803,0.0022222299594432116,-0.7532480955123901,0.004854792263358831,-0.35110193490982056,-0.08846817910671234,0.0759538933634758,-0.48645925521850586,-0.04684514179825783,0.00014503981219604611,-0.375672310590744,-0.20160581171512604,-0.0904974639415741,-0.01694777049124241,-0.12833787500858307,0.3881295323371887,-0.08852795511484146,-0.02238011173903942,0.09573043137788773,-0.25924038887023926,-0.21999074518680573,-0.29592305421829224,0.002602475229650736,-0.02697722055017948,-0.13845296204090118,-0.11271154880523682,-0.250829815864563,-0.08887434005737305,-0.40860816836357117,-0.22875772416591644,-0.3253231346607208,-0.24857468903064728,-0.08621099591255188,0.057641468942165375,0.08068961650133133,-0.5663338303565979,0.1512092798948288,-0.1958862692117691,0.0707276239991188,-0.4880029559135437,0.0031654834747314453,-0.02492423914372921,-0.44809436798095703,0.3059912323951721,-0.479532927274704,0.019181331619620323,0.03144743666052818,0.038046944886446],[-0.6149038076400757,-0.6199402809143066,-0.2077838033437729,0.00034565074020065367,-0.02503877319395542,-0.3879280388355255,-0.010101561434566975,-0.12284422665834427,0.015356537885963917,0.21582777798175812,0.0,-0.11459015309810638,0.17990326881408691,0.03406256064772606,-0.45265138149261475,-0.18596887588500977,0.19915105402469635,0.11254800111055374,0.021782850846648216,-0.43393802642822266,-0.4297574758529663,0.0007903717341832817,-0.6914095878601074,-0.013619860634207726,-0.3052295446395874,-0.3088191747665405,-0.07117574661970139,0.0006036170525476336,-0.042892470955848694,0.09413397312164307,-0.21439914405345917,0.02625500038266182,-0.09650463610887527,-0.4179273843765259,0.0456235446035862,-0.14637891948223114,0.014706325717270374,-0.6380388140678406,-0.03406897187232971,-0.1875162273645401,-0.06672872602939606,-0.0010381077881902456,-0.3176397681236267,0.1227855309844017,-0.545159101486206,-0.45654723048210144,-0.09819724410772324,0.02873627468943596,0.005938377697020769,-0.5412806868553162,-0.010320447385311127,-0.08064840734004974,-0.9587640166282654,-0.24132223427295685,0.0000897151548997499,-0.7832306027412415,-0.20933735370635986,0.10987146943807602,0.04351170361042023,-0.32776814699172974,-0.04782041534781456,0.18583562970161438,-0.6370888948440552,-0.17961837351322174,0.0001772005925886333,-0.3904930353164673,0.0029145674780011177,-0.05520648509263992,-0.0021372551564127207,-0.40921398997306824,-0.07839557528495789,-0.6599193811416626,0.0006302339606918395,-1.006996512413025,-0.5922567844390869,0.195514976978302,-0.0810389295220375,0.011826914735138416,-0.18743783235549927,-0.9206302165985107,-0.4900152385234833,-0.14964886009693146,0.07321617752313614,-0.44590938091278076,-0.7088963985443115,0.03762516379356384,-0.683320939540863,-0.4566067159175873,0.02733815461397171,-0.5328711867332458,0.26316407322883606,0.007023171056061983,-0.001844860496930778,0.07201454788446426,0.009631126187741756,-0.5202011466026306,0.06361924856901169,0.1495915800333023,0.012282454408705235,-0.053578734397888184,-0.006021667271852493,-0.43476277589797974,-0.5210262537002563,-0.007004359737038612,0.16324585676193237,0.046405941247940063,0.07208089530467987,0.012425250373780727,-0.9030658006668091,-0.549032986164093,-0.3918289840221405,0.011554485186934471,0.0964304655790329,0.028942406177520752,0.1746525913476944,0.037879448384046555,0.029300719499588013,-0.24584437906742096,-0.8265158534049988,-0.02578175626695156,-0.003266551997512579,-0.3602367639541626,-0.8220219612121582,-0.003989373799413443,0.16166914999485016,0.007714950013905764,-0.0701674371957779,0.0024229453410953283,0.00538143515586853,-0.07190478593111038,-0.0007209451287053525,-0.2513768672943115,0.00435969652608037,-0.5958421230316162,-0.21258953213691711,-0.17431016266345978,0.00015625964442733675,0.15383638441562653,0.07881027460098267,-0.3023258447647095,-0.04264158383011818,-0.4659907817840576,-0.038560207933187485,0.05377953127026558,0.06090563163161278,-0.19697651267051697,-0.15159428119659424,0.0669589638710022,0.0028278082609176636,0.032270658761262894,0.08673866093158722,-0.4593077600002289,0.08215314894914627,-0.0004224848235026002,-0.5433780550956726,-0.008998789824545383,-0.002340524923056364,-0.16770505905151367,0.004034596029669046,0.0034055139403790236,-0.7797545194625854,0.003955121152102947,-0.0012100681196898222,-0.6274499297142029,-0.10354986041784286,-0.5350129008293152,-0.14771708846092224,-0.41023823618888855,-0.7801937460899353,-0.027705423533916473,-0.4401080906391144,-0.10145334154367447,0.003190338844433427,0.05814148113131523,-0.03259933739900589,0.0004656772071029991,-0.006533379200845957,0.05598447471857071,-0.38608723878860474,0.000031137082260102034,-0.17252761125564575,-0.16207709908485413,-0.4371587336063385,-1.026595115661621,-1.075430989265442,0.20266729593276978,0.0053426423110067844,-0.4092950224876404,0.03205301612615585,-0.0004821390612050891,-0.0009451787336729467,0.0067856707610189915,-0.2990136444568634,0.1193239763379097,-0.6373392343521118,-0.00047867713146843016,0.001770114991813898,0.03448665514588356,0.07823684811592102,0.010543843731284142,-0.7796170711517334,0.004960212856531143,-0.9025987982749939,-0.15834857523441315,0.1574932485818863,-0.2574925720691681,0.14790748059749603,-0.008682425133883953,-0.003199727740138769,-0.15568146109580994,0.06644955277442932,0.04756293445825577,-0.21069861948490143,-0.3635541796684265,-1.3979681730270386,0.004516819957643747,-0.1756274253129959,-0.001325050601735711,-0.6384621262550354,-0.27097195386886597,-0.1278078854084015,0.03792192041873932,-0.38584598898887634,-0.10924247652292252,-0.1589847207069397,-0.979099690914154,-0.30155035853385925,-0.24243667721748352,0.008044784888625145,-0.42004749178886414,-0.004693672992289066,-0.352500855922699,-0.1306566447019577,-0.08238761126995087,-0.1049763634800911,0.009989363141357899,-0.09708920866250992,0.08497054874897003,-0.001510093454271555,-0.16240839660167694,-0.027318403124809265,-0.5788238644599915,-0.1895734965801239,-0.3067215383052826,-0.031190553680062294,0.06419779360294342,-0.6066679358482361,0.01814105361700058,-0.04807087406516075,-0.25923869013786316,-0.021307213231921196,-0.06907010823488235,-0.3836041986942291,-0.011847192421555519,-0.15637880563735962,-0.02666976861655712],[0.005847155582159758,-0.15840564668178558,0.19992274045944214,-0.045965224504470825,0.039192043244838715,0.27917221188545227,0.16172125935554504,-0.009372290223836899,-0.10830213129520416,-0.22588799893856049,-0.015817755833268166,0.0,0.0013508463744074106,0.020653007552027702,0.07409597188234329,0.06285849213600159,0.03593362867832184,0.060227107256650925,-0.018861262127757072,-0.16954636573791504,0.2527112364768982,-0.015968507155776024,0.02940622717142105,-0.033385809510946274,-0.02695353515446186,0.02766098454594612,-0.0502873919904232,-0.040435440838336945,0.0014539164258167148,-0.12476003915071487,-0.33057457208633423,-0.12492736428976059,0.04690861329436302,-0.11541648954153061,-0.03974946215748787,-0.17334631085395813,-0.09252983331680298,0.007820213213562965,-0.06008611246943474,-0.002927359426394105,-0.16664114594459534,0.06639609485864639,0.007269495632499456,-0.047391582280397415,-0.09947623312473297,0.08029994368553162,-0.14962130784988403,0.05943627655506134,-0.009211690165102482,-0.1467261165380478,-0.04240461066365242,-0.02792847529053688,0.007590063847601414,0.020891066640615463,-0.18007797002792358,-0.11532056331634521,0.013674445450305939,0.0031530375126749277,0.15506644546985626,0.02862359583377838,0.08389948308467865,-0.008366310968995094,0.04884563758969307,0.1237219050526619,-0.18413357436656952,-0.09120805561542511,0.006232263054698706,0.014596397988498211,0.12752410769462585,0.19222545623779297,-0.3099519908428192,0.11161773651838303,0.0577692873775959,-0.1582718789577484,0.02896942012012005,-0.0435747429728508,0.07913296669721603,-0.5130629539489746,0.017263103276491165,0.20308418571949005,-0.09470812976360321,-0.12579704821109772,0.030737098306417465,-0.10543015599250793,0.06013232097029686,-0.3950943946838379,0.05131837725639343,0.07513059675693512,-0.5348877310752869,0.10304411500692368,-0.028378302231431007,-0.0035353233106434345,0.00727649824693799,-0.014134238474071026,0.049808114767074585,0.14164401590824127,0.007394981570541859,0.01450939942151308,-0.5982789993286133,-0.09109821915626526,-0.02460741065442562,0.009559649974107742,0.04810672625899315,0.10526133328676224,-0.04817521199584007,-0.1320352852344513,-0.016827041283249855,0.0072525618597865105,0.10113157331943512,0.010454468429088593,0.04489322751760483,-0.05901818722486496,-0.2338857352733612,0.06737922877073288,-0.1917767971754074,-0.0021725401747971773,0.030096326023340225,-0.004267930053174496,-0.12406114488840103,-0.0016499899793416262,-0.015260152518749237,0.18383397161960602,-0.010516916401684284,-0.26222148537635803,0.2164844125509262,0.06994020938873291,-0.0033166229259222746,-0.025761237367987633,-0.08476392179727554,-0.09415837377309799,-0.4212196171283722,-0.0641007348895073,0.062095772475004196,0.016477346420288086,-0.006398908328264952,0.014521753415465355,-0.12227539718151093,-0.004507145844399929,0.16637319326400757,0.09094710648059845,0.03539852425456047,0.08897051960229874,0.010714905336499214,-0.47396740317344666,0.0493684858083725,-0.008596263825893402,0.10269675403833389,-0.10427671670913696,-0.1651618778705597,-0.051885541528463364,0.05794649198651314,-0.015681568533182144,-0.14269250631332397,0.0443778820335865,-0.004211834166198969,0.03415273502469063,0.00033417530357837677,0.010307068936526775,0.006206071469932795,0.006209069862961769,0.03712429106235504,0.1562957614660263,0.03798053413629532,0.10793588310480118,0.042505893856287,-0.12747971713542938,-0.013864877633750439,0.20982392132282257,0.09349435567855835,0.0888117328286171,-0.2325659990310669,0.014580879360437393,-0.08897433429956436,0.024231502786278725,-0.10406048595905304,0.023479478433728218,-0.04566870257258415,0.030323468148708344,-0.19586080312728882,0.04327433183789253,0.053499698638916016,0.02747422829270363,0.0024482947774231434,0.01847943663597107,0.06001323461532593,-0.01812039315700531,0.19193221628665924,0.056276433169841766,-0.09413611143827438,-0.05236596241593361,-0.12534046173095703,0.176301971077919,-0.1521560102701187,0.040445759892463684,-0.03623777627944946,0.03505120053887367,-0.3497354984283447,0.1314784288406372,-0.03184984251856804,-0.1114361584186554,0.00011631887900875881,-0.04339241236448288,0.04927410930395126,0.08190920948982239,-0.15758836269378662,0.03913803771138191,-0.09418653696775436,0.06930600851774216,-0.03329811990261078,0.029074611142277718,-0.396686851978302,0.0026285862550139427,0.10164301842451096,-0.38734015822410583,0.06193570792675018,-0.012703700922429562,-0.24223549664020538,-0.05535232648253441,0.10242351144552231,0.05315970256924629,0.001183917629532516,0.12166640162467957,1.1699343919754028,-0.1158032938838005,0.04167472571134567,0.06970041990280151,-0.058083198964595795,0.3812371790409088,0.0592154935002327,-0.03162402659654617,-0.020365219563245773,0.0741267278790474,-0.02940681204199791,-0.03118065744638443,-0.017855733633041382,-0.06061006337404251,-0.017949046567082405,0.09946569800376892,0.11014164239168167,0.06638102233409882,0.006336098071187735,0.05506184697151184,-0.011990172788500786,-0.10376746952533722,0.017999397590756416,-0.6652308702468872,0.03393668308854103,0.02785833179950714,-0.3321264088153839,-0.13525280356407166,-0.16245311498641968,-0.008913462981581688,0.04346107691526413,-0.03735039755702019,-0.026425737887620926,0.03223928436636925],[-0.963165283203125,-0.3286854922771454,-0.08186021447181702,0.003114312421530485,-0.1124751940369606,-0.09827303886413574,-0.1038249060511589,-0.06571349501609802,-0.07074929773807526,0.009691814891994,-0.00779376458376646,-0.1303459256887436,0.0,-0.1283206343650818,-0.873119592666626,-0.24404092133045197,0.1477889120578766,0.029850874096155167,-0.05022916570305824,-0.31055891513824463,-0.07720044255256653,0.04249494522809982,-0.963988721370697,-0.05981043726205826,-0.08368680626153946,-0.12612846493721008,-0.03218553215265274,0.0006270240992307663,-0.08026188611984253,0.0303054042160511,-0.4166603982448578,-0.13654343783855438,0.05103053152561188,-0.4651115834712982,0.007832732982933521,0.008866213262081146,0.012885923497378826,-0.5897754430770874,-0.06046362221240997,-0.04780761897563934,-0.3018897771835327,-0.026226351037621498,-0.17313140630722046,0.0008709382964298129,-0.13799282908439636,-0.3230287432670593,-0.01904655247926712,0.008473733440041542,-0.0952707827091217,-0.7611293792724609,0.016209550201892853,-0.3960578143596649,-0.32541874051094055,-0.5015273690223694,-0.0249550249427557,-0.5047909021377563,-0.3350129723548889,0.0322992242872715,-0.0039812480099499226,-0.16437171399593353,0.22752463817596436,0.002093445509672165,-0.22948330640792847,-0.01946580596268177,-0.0001944244431797415,-0.10262473672628403,0.03684166073799133,-0.11709665507078171,-0.07265039533376694,-0.3004550337791443,-0.6612222194671631,-0.5039267539978027,-0.09399881958961487,-0.5677316784858704,-0.02527792751789093,-0.1245185062289238,-0.08431215584278107,-0.0049782805144786835,-0.04173285886645317,-0.7849589586257935,-0.2509664297103882,-0.2941141128540039,0.060894135385751724,-0.03658085688948631,-0.3787377178668976,-0.14319691061973572,-0.709656834602356,-0.8540309071540833,-0.02837630733847618,-0.22258929908275604,0.1199081689119339,-0.011169545352458954,0.04382157325744629,0.000797869055531919,-0.11553756147623062,-0.21100495755672455,0.029556073248386383,0.10446491837501526,-0.48130396008491516,-0.1702347993850708,-0.02590787038207054,-0.4769125282764435,-0.8941892385482788,-0.001566518098115921,0.0011161009315401316,0.08937015384435654,0.0442182719707489,-0.9492828249931335,-0.0742553249001503,-0.388396292924881,-0.09353984147310257,0.06584571301937103,0.046725913882255554,-0.03892882913351059,0.14929918944835663,0.011293230578303337,-0.15341967344284058,-0.11061877757310867,-0.20507551729679108,-0.7128085494041443,0.03050207905471325,-0.12973900139331818,-0.9609419107437134,-0.10642751306295395,0.016650257632136345,0.035226043313741684,-0.4328327775001526,0.004943054635077715,-0.02941995859146118,0.11175860464572906,-0.3972252607345581,-0.3052888810634613,0.0016696754610165954,-0.49841150641441345,-0.4297160804271698,-0.12299586087465286,-0.04892253503203392,0.01065350417047739,0.36495861411094666,-0.17907166481018066,-0.0887477695941925,-0.35454052686691284,-0.02089037001132965,-0.3746122419834137,-0.0021209807600826025,-0.11225052177906036,-0.17990875244140625,0.00446602888405323,-0.002407224616035819,0.004173634108155966,-0.03941705450415611,-0.18661731481552124,0.0007996403728611767,0.024976486340165138,-0.08897868543863297,-0.01371043175458908,0.04701006039977074,-0.021917086094617844,-0.0013668277533724904,0.04242860898375511,-0.5893822312355042,0.11085676401853561,-0.05844251438975334,-0.19682328402996063,-0.16915878653526306,-0.6277086734771729,-0.14032447338104248,-0.06558356434106827,-0.8747751712799072,-0.23433013260364532,-0.6105926632881165,-0.09203091263771057,0.01796131022274494,0.07896672934293747,0.0029807451646775007,0.022734766826033592,-0.04044207185506821,0.11981982737779617,-0.10720318555831909,0.024400994181632996,-0.13069191575050354,-0.1519429087638855,-0.7346273064613342,-0.1353817582130432,-0.9582738876342773,0.06846649199724197,-0.01856834441423416,-0.4969634413719177,0.19153015315532684,-0.00009599864279152825,-0.049137383699417114,-0.007603472098708153,-0.5097522735595703,