{"params":{"desired_samples":16000,"window_size_samples":480,"window_stride_samples":160,"spectrogram_length":100,"fingerprint_width":2,"fingerprint_size":3920,"label_count":12,"sample_rate":16000,"preprocess":"mfcc","average_window_width":-1,"in_repeat":1,"data_url":"https:\/\/storage.googleapis.com\/download.tensorflow.org\/data\/speech_commands_v0.02.tar.gz","data_dir":"\/cluster\/scratch\/jubueche\/ecg_recordings","background_volume":0.1,"background_frequency":0.8,"silence_percentage":10.0,"unknown_percentage":10.0,"time_shift_ms":100.0,"seed":0,"testing_percentage":10,"validation_percentage":10,"clip_duration_ms":1000,"window_size_ms":30.0,"window_stride_ms":10.0,"feature_bin_count":40,"n_epochs":"32,8","eval_step_interval":400,"learning_rate":"0.001,0.0001","batch_size":100,"summaries_dir":"results\/retrain_logs","wanted_words":"yes,no,up,down,left,right,on,off,stop,go","train_dir":"results\/speech_commands_train","save_step_interval":1000,"start_checkpoint":"","model_architecture":"lsnn_ecg","check_nans":false,"quantize":false,"n_hidden":256,"n_layer":1,"dropout_prob":0.0,"print_every":10,"reg":0.001,"n_lif_frac":0.0,"beta":2.0,"tau_adaptation":98.0,"comment":"","n_thr_spikes":-1,"dampening_factor":0.3,"dt":1.0,"Kernels":[[64,1,4,4],[64,64,4,4]],"Dense":[[1600,256],[256,64],[64,10]],"thr":0.01,"thr_min":0.005,"tau":20.0,"refr":2,"n_delay":0,"random_eprop":false,"eprop":false,"avg_spikes":true,"beta_lipschitzness":0.0,"num_attack_steps":10,"attack_epsilon":2.0,"relative_epsilon":true,"initial_std":0.001,"relative_initial_std":true,"session_id":5326688483,"db":"final","verbosity":20,"optimizer":"adam","start_time":1606224517105},"rng_key":[2841552765,1534808230],"theta":{"W_in":[[0.025260213762521744,-0.007234124466776848,0.12617963552474976,-0.23907677829265594,0.09695077687501907,0.19176527857780457,-0.18214546144008636,0.056758180260658264,0.0339709036052227,0.07798204571008682,0.04137462005019188,-0.20060379803180695,-0.029328908771276474,-0.2993522882461548,-0.1804635226726532,-0.1599113643169403,0.09603456407785416,-0.22075752913951874,0.16554704308509827,0.08636553585529327,0.0009197266772389412,0.0383610725402832,0.17344483733177185,-0.06909328699111938,0.0555875338613987,0.11656034737825394,-0.14360463619232178,-0.14358480274677277,-0.0005580916767939925,-0.11575016379356384,-0.16369079053401947,0.0672956332564354,-0.11355270445346832,0.04729730635881424,0.05898642539978027,-0.3335716724395752,0.05547144263982773,0.13826073706150055,0.10399235039949417,-0.2326013296842575,-0.20609202980995178,-0.0968533605337143,0.08142635971307755,-0.041572581976652145,-0.030332058668136597,-0.074104443192482,0.09355148673057556,0.06695937365293503,-0.021152617409825325,-0.029396023601293564,-0.07933435589075089,0.04355951026082039,0.025838380679488182,0.14272214472293854,0.18907150626182556,-0.034394703805446625,-0.1632634550333023,-0.2129652202129364,-0.033380817621946335,0.0851682722568512,-0.18746709823608398,0.14376898109912872,0.11556842178106308,0.12121906876564026,-0.0343753919005394,-0.2633501887321472,0.06887341290712357,0.09080195426940918,0.1283009797334671,0.04814354330301285,-0.00025694648502394557,0.0476795993745327,0.1224447637796402,-0.1524592787027359,-0.03683852031826973,0.05983129143714905,-0.00476656062528491,-0.0011987305479124188,-0.14490503072738647,0.06246763840317726,-0.08976949751377106,-0.012743410654366016,0.14275215566158295,-0.18277738988399506,0.04715026170015335,0.04825081676244736,0.015047537162899971,-0.0004809182428289205,-0.05060024932026863,0.003633559914305806,0.09156731516122818,0.19038118422031403,-0.021318040788173676,0.12795911729335785,-0.11892954260110855,0.12223987281322479,-0.14109134674072266,-0.1253061145544052,0.002400130731984973,0.14137035608291626,-0.07224880903959274,-0.10515788197517395,0.06063861772418022,0.025255916640162468,-0.17680013179779053,0.0030633886344730854,-0.024229487404227257,-0.1667887419462204,0.1095682829618454,-0.0003191003925167024,-0.16127336025238037,-0.0026330449618399143,-0.006379540078341961,0.03751532733440399,0.10359019041061401,0.02023739367723465,0.044712260365486145,0.2172720581293106,-0.13934530317783356,-0.008689643815159798,0.2026490867137909,-0.15646499395370483,0.007543537300080061,-0.13669517636299133,-0.17697490751743317,0.10566331446170807,0.20750166475772858,-0.14254334568977356,0.03378084674477577,0.09786763042211533,0.04511895403265953,-0.11867429316043854,-0.2502906322479248,0.16887181997299194,0.23778820037841797,-0.08589928597211838,-0.11526203155517578,-0.02323905937373638,0.11613072454929352,-0.07015546411275864,-0.18718618154525757,-0.053073324263095856,-0.20248055458068848,-0.08610736578702927,-0.10613816976547241,-0.1684136986732483,0.3361634612083435,0.007372731808573008,0.06811626255512238,-0.019480077549815178,0.042085569351911545,0.16280533373355865,-0.03678659349679947,0.07021120190620422,0.07211850583553314,-0.23748286068439484,0.09379294514656067,0.040013961493968964,-0.1015750840306282,0.017527250573039055,-0.006632381584495306,0.020693454891443253,-0.06861960887908936,-0.030889494344592094,-0.007402106653898954,0.04465227201581001,0.028645934537053108,0.10072777420282364,0.05401471629738808,0.10040204972028732,0.13342317938804626,-0.18835367262363434,0.03596481680870056,0.14031510055065155,0.0956110805273056,-0.017411621287465096,0.02231934666633606,0.05498161166906357,0.0010309988865628839,0.12669730186462402,0.16227036714553833,-0.010810751467943192,0.05475008487701416,0.013060190714895725,0.14329063892364502,-0.01041779201477766,-0.001593681750819087,0.12272601574659348,0.07294843345880508,0.0096958689391613,0.09025874733924866,-0.09215424209833145,-0.2338244915008545,0.045835573226213455,-0.15309898555278778,0.11100819706916809,-0.023161187767982483,-0.068965382874012,-0.02350264973938465,0.11514370143413544,0.05438800901174545,0.04802347347140312,0.05623767524957657,-0.266742467880249,-0.15901631116867065,0.09423474222421646,-0.0007285011233761907,-0.19989487528800964,-0.01910853199660778,0.14625096321105957,0.0315948948264122,0.08447884768247604,0.11858521401882172,0.0006370219052769244,-0.06358711421489716,-0.0392480194568634,-0.1418514996767044,0.14547404646873474,0.12182784080505371,0.034420356154441833,-0.053306128829717636,-0.026356806978583336,-0.01126939244568348,0.14357326924800873,-0.0686764195561409,-0.07474732398986816,-0.10867015272378922,0.10378365218639374,-0.01594829186797142,-0.12001708149909973,0.12626667320728302,-0.17272448539733887,0.059762418270111084,0.11274643242359161,0.10461699962615967,0.12726083397865295,-0.0014245514757931232,0.03813624382019043,-0.05868938937783241,0.10339385271072388,-0.01879122480750084,0.1560659259557724,0.03385345637798309,-0.007421963848173618,0.08134639263153076,-0.008706092834472656,0.11188213527202606,0.1297580748796463,0.08829372376203537,-0.0038243054877966642,-0.049499936401844025,0.03579150512814522,0.046632152050733566,0.05834213271737099,-0.05545550212264061,-0.1295781135559082],[0.09641509503126144,0.23607240617275238,0.11880605667829514,0.03689723461866379,0.2046397626399994,0.14715898036956787,-0.25541362166404724,0.2848755419254303,0.01685844361782074,-0.1461535394191742,0.07050216943025589,-0.27085715532302856,-0.03949940577149391,0.05495794862508774,0.03126238286495209,-0.14868706464767456,0.09955749660730362,0.09768519550561905,0.1717064529657364,0.03497932106256485,-0.053809672594070435,0.0631054937839508,0.2020827680826187,0.10122250020503998,0.18158206343650818,0.13288718461990356,-0.09943104535341263,-0.18175888061523438,0.09210647642612457,-0.33376455307006836,0.03051210194826126,-0.11646236479282379,-0.26720935106277466,0.1937236189842224,0.07592783123254776,0.13778848946094513,0.05443406105041504,0.1745631843805313,0.07719042897224426,-0.008780104108154774,-0.03959350287914276,-0.17950907349586487,0.052100978791713715,0.15204595029354095,-0.036717738956213,-0.07160379737615585,-0.4314831793308258,0.0939817875623703,-0.025974566116929054,-0.05909936502575874,-0.12550848722457886,0.0017929131863638759,0.16828398406505585,0.1543055772781372,-0.022955922409892082,-0.06264132261276245,-0.20830821990966797,-0.2711578905582428,-0.06237627938389778,0.16961437463760376,-0.23324939608573914,-0.29110127687454224,-0.2304660826921463,0.2121986299753189,-0.21460027992725372,-0.07753706723451614,0.057825081050395966,-0.06296874582767487,0.2233293056488037,0.08186203986406326,0.01835661754012108,0.04164476320147514,0.1398973912000656,-0.23464837670326233,-0.09395531564950943,-0.142159104347229,-0.021430710330605507,0.061448000371456146,-0.020048921927809715,-0.08498745411634445,-0.12171436101198196,-0.04594222083687782,0.16639947891235352,0.09172938764095306,0.008042699657380581,-0.0816698744893074,0.20114798843860626,-0.05546331778168678,0.07678123563528061,-0.03235265985131264,0.08680320531129837,0.23136772215366364,0.016027994453907013,0.2880058288574219,0.09219593554735184,0.016041556373238564,-0.02152375318109989,-0.1805184930562973,0.01765402778983116,0.05379834771156311,0.15040716528892517,-0.22439728677272797,0.022206993773579597,0.0059096598997712135,-0.13774661719799042,0.040830377489328384,-0.04691607132554054,0.16570830345153809,0.07745935022830963,-0.0009091931860893965,-0.16121666133403778,-0.009553993120789528,-0.013762745074927807,-0.13301970064640045,0.13350337743759155,0.23696887493133545,-0.09435166418552399,0.05291428044438362,-0.10749903321266174,0.0003891431260854006,0.015845412388443947,-0.19569867849349976,0.23708416521549225,-0.2763025164604187,-0.3061702251434326,0.1341274380683899,0.1734265834093094,-0.20574788749217987,0.043626535683870316,0.24347738921642303,0.22340384125709534,-0.16519808769226074,0.07298661023378372,0.05619850382208824,0.21604236960411072,-0.03404231742024422,-0.15806962549686432,-0.01156383752822876,0.14468702673912048,-0.28536713123321533,-0.024680744856595993,0.13508711755275726,0.03134949132800102,0.09446992725133896,0.05827409774065018,-0.01489285472780466,0.0895075872540474,-0.026261091232299805,0.05993756651878357,-0.024753520265221596,0.10991824418306351,0.11657141894102097,-0.046791765838861465,0.044868241995573044,0.1474420726299286,-0.004397346172481775,-0.11928115040063858,0.23623135685920715,0.14166034758090973,-0.012668444775044918,-0.0626915842294693,0.01405302807688713,0.2404203861951828,-0.005477899219840765,-0.05444832891225815,0.18118013441562653,0.07821957021951675,0.03330426663160324,0.20576977729797363,0.03135773912072182,0.1278289258480072,-0.2255464792251587,-0.01736106537282467,0.09303266555070877,0.0718054473400116,-0.02880026586353779,0.12143482267856598,0.1202332004904747,-0.00209012720733881,0.26528048515319824,0.1168506070971489,0.017627667635679245,0.2230520099401474,-0.03904673084616661,0.23457297682762146,0.27423834800720215,-0.02383587509393692,0.08724411576986313,0.25143304467201233,-0.04273465648293495,0.3236784338951111,-0.006934239994734526,-0.10230070352554321,0.09541241824626923,-0.2715337574481964,0.11858325451612473,0.03369823098182678,-0.08869602531194687,0.090805783867836,0.13438810408115387,0.050864964723587036,-0.0898178368806839,0.08474454283714294,0.15676870942115784,0.10651340335607529,0.09334218502044678,-0.008326883427798748,0.019190821796655655,0.15942174196243286,-0.29172366857528687,-0.06202342361211777,0.04044003039598465,0.302645742893219,-0.010130022652447224,-0.1381349116563797,-0.02731470763683319,0.03464961424469948,0.13082905113697052,0.07234009355306625,0.030552327632904053,-0.07317612320184708,-0.007403302472084761,-0.02079232595860958,0.02548539824783802,-0.07430478930473328,0.040312740951776505,-0.15039052069187164,-0.2246299833059311,-0.02833804115653038,-0.05187847465276718,0.08709274977445602,-0.25860723853111267,0.13690641522407532,-0.18882745504379272,0.03342033922672272,0.19016292691230774,-0.007181632798165083,-0.0830024927854538,0.201257586479187,0.14264822006225586,0.19607442617416382,0.12064003944396973,0.024183236062526703,-0.015422147698700428,0.3013995885848999,-0.0030880956910550594,0.22527165710926056,0.145050510764122,0.3255506753921509,-0.020354224368929863,-0.0248951967805624,0.17187845706939697,-0.09484677761793137,0.06618039309978485,-0.007512660231441259,0.06619063764810562]],"W_out":[[-0.8094003796577454,0.15750625729560852,-0.5843281745910645,0.7102416753768921],[-0.46610793471336365,-0.5240498781204224,-0.22790968418121338,0.7814292907714844],[-0.5856689214706421,0.2236306071281433,-0.6583569049835205,0.6597050428390503],[-0.29563629627227783,0.9500922560691833,-0.8894556760787964,-0.5200443267822266],[-1.1267775297164917,-0.5763985514640808,0.807374119758606,0.5570412874221802],[-0.6658881306648254,-0.5737495422363281,-0.12154283374547958,0.7611817121505737],[-0.6415736079216003,0.16605384647846222,-0.7666507363319397,0.8200492262840271],[-0.9934889674186707,-0.5059409141540527,0.7619339227676392,0.4455946981906891],[-0.3542753756046295,-0.4931001663208008,0.6804111003875732,-0.12200237065553665],[1.0199562311172485,-0.641456663608551,-0.2519451379776001,-0.3966519236564636],[0.6504203081130981,-0.6232472062110901,0.04600173979997635,-0.26737353205680847],[-0.514525294303894,-0.024327876046299934,-0.7209487557411194,0.909360408782959],[0.1773577630519867,-0.563856840133667,0.5513512492179871,-0.444980263710022],[-0.1684490144252777,1.0699310302734375,-0.6704886555671692,-0.8747479319572449],[-0.314070463180542,1.0351084470748901,-0.9251596331596375,-0.5466406345367432],[-0.43456482887268066,-0.03224631026387215,-0.6374533176422119,0.8568856120109558],[-0.6849101185798645,-0.5743350386619568,-0.12643834948539734,0.8002024292945862],[0.7405118942260742,-0.7004225850105286,0.2009410262107849,-0.5553609132766724],[-0.7755153775215149,-0.2787513732910156,-0.18665717542171478,0.7006363272666931],[0.7451834082603455,-0.7500815987586975,-0.10155464708805084,0.1883738785982132],[0.7638731002807617,-0.5648509860038757,-0.06625952571630478,-0.18137438595294952],[-0.4952015280723572,-0.39760178327560425,0.9361160397529602,-0.5723000764846802],[-0.8604616522789001,0.21867601573467255,-0.37582501769065857,0.5815245509147644],[-0.4911963939666748,-0.48386064171791077,0.6326748132705688,-0.09328944236040115],[-0.9885492920875549,-0.5637031197547913,0.8083153367042542,0.41042232513427734],[-0.8647639155387878,-0.3418801426887512,0.9898108243942261,-0.3235671818256378],[-0.4095906615257263,0.022134585306048393,-0.8041035532951355,0.812990665435791],[-0.44348642230033875,0.17971597611904144,-0.7389212250709534,0.7149963974952698],[-0.13649128377437592,-0.45630815625190735,0.525574803352356,-0.29991188645362854],[-0.5969412326812744,-0.08957808464765549,-0.7181090712547302,0.9991602301597595],[-0.6864885091781616,0.15328577160835266,-0.5162363648414612,0.7306462526321411],[0.7279677391052246,-0.7764183282852173,-0.29106858372688293,0.27763715386390686],[-0.574614942073822,0.00868212804198265,-0.7406986355781555,0.940755307674408],[-0.7968235015869141,-0.22083240747451782,0.8855476975440979,-0.30776599049568176],[0.5816097259521484,-0.5661576390266418,0.2138063609600067,-0.4324624538421631],[-0.09832535684108734,1.0142210721969604,-0.6703506708145142,-0.8180474638938904],[-0.4621221125125885,-0.3612864017486572,0.8582437634468079,-0.5021916031837463],[-0.7298383116722107,0.6980167031288147,-0.5357110500335693,0.0850025862455368],[-0.8014526963233948,0.6041405200958252,-0.6327674388885498,0.2782127857208252],[-0.5559338927268982,-0.2556614577770233,-0.5454690456390381,0.967269778251648],[-0.5444460511207581,0.8614649176597595,-0.5384539365768433,-0.2730863094329834],[-0.5049349069595337,1.033418893814087,-0.6267003417015076,-0.5693270564079285],[-0.8002211451530457,0.5962516069412231,-0.6488050818443298,0.25203731656074524],[-0.6803771257400513,-0.34681084752082825,-0.19483061134815216,0.7285752892494202],[-0.7959666848182678,-0.3174630403518677,0.9982547760009766,-0.34624433517456055],[1.2503013610839844,-0.759709894657135,-0.6966076493263245,-0.14707621932029724],[-0.2041434943675995,-0.011520138010382652,-0.8717752695083618,0.8534388542175293],[-0.7981686592102051,0.5351263880729675,-0.6048210859298706,0.3566940426826477],[0.4517545998096466,-0.5485406517982483,0.2507934868335724,-0.24542827904224396],[0.07634337246417999,0.9441632628440857,-0.2962082624435425,-0.9673490524291992],[0.6339136362075806,-0.5642175078392029,0.11490916460752487,-0.3788508474826813],[-0.9225902557373047,0.33914753794670105,-0.6714961528778076,0.6122862100601196],[-0.9411903619766235,-0.505818247795105,0.9573513865470886,-0.06738722324371338],[-0.8498899340629578,0.5170290470123291,-0.5783487558364868,0.375704824924469],[0.22568251192569733,-0.6854494214057922,-0.3065831959247589,0.563442587852478],[0.504723846912384,0.47414085268974304,-0.4219677150249481,-0.6778706908226013],[-0.27324533462524414,0.2312011420726776,-0.7919825315475464,0.5719670653343201],[-0.42455023527145386,-0.06830332428216934,-0.718669593334198,0.8276273608207703],[-0.7457931041717529,-0.7235846519470215,0.9855219125747681,-0.12034057825803757],[-0.8671393394470215,-0.26324814558029175,1.1152064800262451,-0.4790702760219574],[-0.5367212295532227,0.28972670435905457,-0.7122365236282349,0.5794187784194946],[-0.009950554929673672,-0.23268510401248932,-0.7949915528297424,0.7923120260238647],[-0.07853547483682632,0.014778101816773415,-0.93105548620224,0.7418234944343567],[-0.853473424911499,-0.07962609827518463,0.9564274549484253,-0.3849366009235382],[-0.42276039719581604,-0.2494337409734726,-0.6883642077445984,1.0041601657867432],[0.29847538471221924,0.8236165046691895,-0.49773165583610535,-0.8937702775001526],[-0.12162125110626221,-0.6870222687721252,0.4853745996952057,0.23451732099056244],[-0.1864088773727417,-0.29846933484077454,0.7409855127334595,-0.6098212599754333],[-0.8171928524971008,0.5355597138404846,-0.673616349697113,0.35601887106895447],[-0.5887197852134705,0.9211752414703369,-0.5869921445846558,-0.31168344616889954],[-0.7110620141029358,-0.23520757257938385,0.9542653560638428,-0.48514753580093384],[1.052966833114624,0.13905148208141327,-0.5165402293205261,-0.8156765103340149],[-0.588235080242157,0.8938066959381104,-0.6014569401741028,-0.2780340909957886],[-0.44566962122917175,1.1052594184875488,-0.7192546725273132,-0.769439160823822],[0.7144457697868347,-0.6335614919662476,0.09364166855812073,-0.33658841252326965],[-0.5587496757507324,-0.7964239120483398,0.8569664359092712,-0.06218472123146057],[0.904535710811615,-0.3549908697605133,0.09559483826160431,-0.914675772190094],[0.6584736704826355,-0.6452721953392029,0.22700655460357666,-0.4302752912044525],[-0.27375170588493347,1.0278332233428955,-0.867802619934082,-0.6245487928390503],[1.0948619842529297,-0.6448559761047363,-0.6928233504295349,-0.12972521781921387],[-0.11408241838216782,-0.8656696081161499,0.42673173546791077,0.33831164240837097],[0.7491307258605957,-0.6259287595748901,0.049814749509096146,-0.2998242676258087],[-0.6287307739257812,-0.5950905680656433,0.7033267617225647,0.32864677906036377],[-1.1424118280410767,-0.46077877283096313,0.1594705730676651,0.8665131330490112],[0.813500702381134,-0.6343051791191101,-0.08121323585510254,-0.3032863140106201],[1.0367791652679443,-0.5670242309570312,-0.49982181191444397,-0.4441373944282532],[-1.1170767545700073,0.08629321306943893,0.9263611435890198,-0.10745440423488617],[-0.49047553539276123,0.11534292250871658,-0.7318763732910156,0.7560687065124512],[-0.129815012216568,-0.5355662703514099,0.3449907600879669,0.2954782545566559],[0.7583149671554565,-0.5353217124938965,0.17037580907344818,-0.687201976776123],[-0.8543688058853149,0.43048983812332153,-0.6646783947944641,0.46626967191696167],[-0.6517046093940735,-0.4421367049217224,-0.09477991610765457,0.729804515838623],[0.5170478820800781,-0.6441739201545715,0.38092100620269775,-0.528022289276123],[-0.8598060607910156,-0.09615712612867355,-0.16315992176532745,0.6456420421600342],[0.22940343618392944,0.9194071292877197,-0.35595861077308655,-1.0489044189453125],[-0.49108248949050903,1.1273294687271118,-0.5848565101623535,-0.8723527193069458],[0.32952794432640076,0.6693328619003296,-0.9053671360015869,-0.45216113328933716],[0.6399886012077332,-0.835388720035553,0.0378974974155426,0.028140438720583916],[0.5330995321273804,-0.5696419477462769,0.11838370561599731,-0.27334630489349365],[-0.6735430359840393,0.6166196465492249,-0.6100718975067139,0.25879421830177307],[-0.6372424364089966,0.7962360382080078,-0.5859482884407043,-0.10881557315587997],[-0.55380779504776,0.3333593010902405,-0.7463759183883667,0.5572981834411621],[0.6466054320335388,-0.5903132557868958,0.1311332732439041,-0.3114433288574219],[-0.24818630516529083,-0.42559686303138733,0.8180555701255798,-0.5492690205574036],[-0.6925827860832214,-0.09806852787733078,-0.6197677850723267,0.9616037011146545],[-0.7604697346687317,-0.2112276703119278,0.9527074694633484,-0.3885270953178406],[0.8512974381446838,-0.5171934366226196,0.16268417239189148,-0.7220678329467773],[0.20093198120594025,0.9194540977478027,-0.3282598853111267,-0.9930881261825562],[-0.5140722393989563,0.8611069917678833,-0.7863227128982544,-0.16415800154209137],[-0.6843468546867371,0.7222373485565186,-0.6315183043479919,0.05653288960456848],[-0.45069122314453125,0.28511905670166016,-0.8411946296691895,0.6383357644081116],[0.790830671787262,-0.09699298441410065,-0.07229913771152496,-0.8377577066421509],[0.794095516204834,-0.7320483326911926,-0.14465543627738953,-0.0907113328576088],[0.4756585955619812,-0.4788283109664917,0.25028693675994873,-0.3825749158859253],[-0.584072470664978,0.8618646860122681,-0.681187093257904,-0.16487464308738708],[-0.826713502407074,0.5393543243408203,-0.6307023167610168,0.37926816940307617],[0.4662288427352905,0.6117296814918518,-0.21059495210647583,-1.0305373668670654],[-0.7988483309745789,0.2522379159927368,-0.39980727434158325,0.5376905202865601],[-0.7841668128967285,0.25424614548683167,-0.5973584651947021,0.6792526841163635],[-0.2349427491426468,-0.1341773271560669,0.7147853374481201,-0.6124067306518555],[-0.36696290969848633,-0.25668996572494507,-0.5452010631561279,0.8067190647125244],[-0.426798552274704,0.12933285534381866,-0.7318147420883179,0.726511538028717],[-0.8927108645439148,-0.00639691948890686,-0.26851674914360046,0.6660645008087158],[-0.5926368236541748,0.09693242609500885,-0.7620771527290344,0.8528096675872803],[-0.4311222434043884,0.06619428098201752,-0.7893950939178467,0.8622435927391052],[-0.8104172945022583,0.4760797619819641,-0.5465150475502014,0.4500238299369812],[-0.623711109161377,-0.6526439189910889,0.0676998645067215,0.7649218440055847],[-0.6040059924125671,0.21127447485923767,-0.832565188407898,0.7756713628768921],[-0.171587273478508,-0.4703819453716278,0.7659201622009277,-0.5813120603561401],[-0.8720968961715698,-0.44922909140586853,0.8405372500419617,-0.0620003305375576],[-0.7139108777046204,0.7983083724975586,-0.5708882212638855,-0.03170602023601532],[0.3498499095439911,-0.554416835308075,0.4929684102535248,-0.5480155348777771],[0.18534086644649506,0.9023200273513794,-0.46047165989875793,-0.9493793845176697],[1.1430408954620361,-0.5484727621078491,-0.5678291916847229,-0.36220279335975647],[-1.001294732093811,-0.3833695650100708,-0.0847925990819931,0.7979946136474609],[-0.8094926476478577,-0.09500129520893097,-0.24926897883415222,0.6930299997329712],[0.3371948003768921,-0.9178733825683594,0.2996951639652252,0.04183242470026016],[-0.551512598991394,1.0125852823257446,-0.623710572719574,-0.4348005950450897],[-0.5945466160774231,0.690133273601532,-0.4533382058143616,-0.03161812573671341],[-0.5453858971595764,0.04863473400473595,-0.8610403537750244,0.9256835579872131],[-0.14006413519382477,1.0484626293182373,-0.6437095403671265,-0.8443639278411865],[-0.6791515946388245,-0.46152544021606445,-0.2067098319530487,0.8206771016120911],[-0.7455489039421082,0.33597829937934875,-0.510630190372467,0.5936135649681091],[-0.8515675067901611,-0.710812509059906,0.7684613466262817,0.459383487701416],[-0.7516248226165771,0.5552851557731628,-0.5503835082054138,0.3728705048561096],[-0.4190581142902374,0.9817782044410706,-0.6703606247901917,-0.5211642980575562],[-1.0072318315505981,-0.27999401092529297,-0.1955183446407318,0.7865612506866455],[0.4561268091201782,-0.561460554599762,0.22126565873622894,-0.2148188352584839],[0.6632407903671265,-0.7142952084541321,0.10220504552125931,-0.0006080204620957375],[0.21732331812381744,-0.40321797132492065,0.3279532492160797,-0.2011461853981018],[-0.3215218484401703,-0.6567965149879456,0.5504413843154907,0.2687140107154846],[-0.6964208483695984,-0.4419998824596405,-0.14791908860206604,0.7149360179901123],[0.5790969729423523,-0.34332430362701416,0.36154547333717346,-0.8557837009429932],[-0.8083696961402893,0.18172615766525269,-0.36549127101898193,0.553797721862793],[-0.9295084476470947,-0.36858901381492615,0.8673393130302429,0.07668879628181458],[-0.5412704944610596,0.9227222800254822,-0.4800284802913666,-0.41948190331459045],[0.9059531688690186,-0.7318766713142395,-0.006057628430426121,-0.3321123719215393],[-0.7254675030708313,-0.6731065511703491,0.6899911165237427,0.41639772057533264],[-0.6398099064826965,0.8394524455070496,-0.614859402179718,-0.12791413068771362],[0.5892419815063477,-0.7718616724014282,-0.18781344592571259,0.48784950375556946],[0.5358946323394775,0.6034525632858276,-0.2917133569717407,-0.9529558420181274],[0.8846055865287781,-0.6652275919914246,-0.20959827303886414,-0.036132700741291046],[-0.6055690050125122,0.8536777496337891,-0.6424180269241333,-0.1235530897974968],[-0.6683789491653442,-0.4076094329357147,1.0269522666931152,-0.5519920587539673],[1.156529188156128,-0.17843225598335266,-0.48368310928344727,-0.6789097785949707],[-0.14079977571964264,-0.7722170948982239,-0.03253384679555893,0.5984595417976379],[-0.8692795634269714,-0.5701009631156921,0.8666317462921143,0.04430968686938286],[-0.6596725583076477,0.1485462188720703,-0.6981894969940186,0.7539416551589966],[-0.9661474227905273,-0.09548334032297134,1.056387186050415,-0.44201359152793884],[-0.41803067922592163,0.35858267545700073,-0.7787150144577026,0.5048941969871521],[-0.49990391731262207,-0.6094443202018738,-0.01490113791078329,0.6817617416381836],[-0.6287668943405151,0.12852632999420166,-0.7206484079360962,0.8398424983024597],[-0.6394808292388916,0.27402231097221375,-0.5980682373046875,0.5479505062103271],[-0.7854153513908386,0.39240267872810364,-0.626453161239624,0.4819074273109436],[0.22855015099048615,0.9155489802360535,-0.7136058211326599,-0.8134045004844666],[0.7131349444389343,-0.6400785446166992,0.015006032772362232,-0.1373021900653839],[-0.9392796754837036,-0.18822522461414337,0.9443812370300293,-0.24763280153274536],[-1.0315057039260864,-0.6616652011871338,0.8001036643981934,0.5216934680938721],[0.31538110971450806,-0.5790077447891235,0.5491475462913513,-0.6714435815811157],[-1.0533716678619385,0.2871950566768646,0.9693193435668945,-0.42338764667510986],[-0.21761858463287354,-0.8965409398078918,0.05230752006173134,0.6788447499275208],[0.15204375982284546,-0.47672590613365173,0.44657763838768005,-0.43072837591171265],[-0.9607496857643127,-0.39703676104545593,0.9356930255889893,-0.11227626353502274],[0.8219747543334961,-0.6332330107688904,0.05541243404150009,-0.354893296957016],[-1.0343656539916992,-0.24286366999149323,0.25224778056144714,0.5750306844711304],[-1.1141663789749146,0.11428885906934738,0.8029524683952332,-0.06106055527925491],[-0.8500195145606995,0.30585116147994995,-0.6243628263473511,0.6150838136672974],[-0.46035969257354736,-0.602825403213501,0.5549400448799133,0.3189307451248169],[-0.8601199388504028,-0.187143012881279,-0.19082383811473846,0.6875876784324646],[1.112220048904419,-0.46643954515457153,-0.3524510860443115,-0.6308738589286804],[-1.1055978536605835,-0.4237232208251953,0.7934801578521729,0.49406957626342773],[0.4980858266353607,0.47309449315071106,-0.8823455572128296,-0.34729740023612976],[-0.36118194460868835,0.9099009037017822,-0.6830965280532837,-0.5403282046318054],[-0.8600978255271912,1.0944747924804688,0.5940796732902527,-0.9651269316673279],[-0.232035830616951,0.012301416136324406,-0.8374197483062744,0.8022614121437073],[-0.49139878153800964,1.1345462799072266,-0.8398004174232483,-0.6647679805755615],[-0.31340479850769043,-0.7025876641273499,-0.0627083033323288,0.7190424799919128],[0.9877848625183105,-0.7565653324127197,-0.8645416498184204,0.3802965581417084],[0.6084920763969421,0.6284196376800537,-0.3611372709274292,-0.9924286603927612],[0.6778044104576111,-0.6564237475395203,-0.058298368006944656,-0.14407959580421448],[0.11663231998682022,-0.48908349871635437,0.47025611996650696,-0.4270988702774048],[0.6800583600997925,-0.6070003509521484,0.22718696296215057,-0.4637549817562103],[-0.6346367001533508,-0.6671001315116882,0.699536919593811,0.4055096209049225],[-0.598925769329071,0.815680742263794,-0.8734816312789917,0.027081750333309174],[0.7966132164001465,0.3505117893218994,-0.39103829860687256,-0.9498820900917053],[0.3514285385608673,-0.5641999840736389,0.34103789925575256,-0.3875975012779236],[0.8235979676246643,-0.759811520576477,-0.015072968788444996,0.03852628171443939],[0.6356996893882751,-0.5963436365127563,0.2603054344654083,-0.5698456764221191],[-0.8909744620323181,-0.5319910645484924,0.9557276964187622,-0.06151166558265686],[-0.011821743100881577,0.0708560198545456,-1.035919427871704,0.7549934387207031],[1.0610345602035522,-0.3434523046016693,-0.49509841203689575,-0.4707753360271454],[-0.5929153561592102,0.283555805683136,-0.7541895508766174,0.6615391373634338],[-0.9831225872039795,0.19513659179210663,-0.3362591862678528,0.5918178558349609],[0.874850869178772,-0.6662546396255493,-0.1248714029788971,-0.20560327172279358],[0.6927726864814758,-0.6124680638313293,0.07133263349533081,-0.32304516434669495],[-0.6506757736206055,-0.23349745571613312,-0.17195850610733032,0.6543328166007996],[0.5002265572547913,0.7329544425010681,-0.4394572079181671,-0.9650983810424805],[-0.489870548248291,-0.7800390124320984,-0.010880800895392895,0.7580034136772156],[1.0226104259490967,0.16465206444263458,-0.6307110786437988,-0.7129570245742798],[0.0881342738866806,-0.7530440092086792,0.36510834097862244,0.25303152203559875],[-0.5375136137008667,-0.740825891494751,0.7679049372673035,0.042499929666519165],[-0.6620398759841919,0.18903614580631256,-0.6790977120399475,0.7368009686470032],[0.933831512928009,-0.6817436218261719,-0.14044399559497833,-0.2976395785808563],[-0.78433758020401,-0.46794015169143677,-0.2028844952583313,0.7898057103157043],[0.8113411068916321,-0.7195572853088379,0.11233227699995041,-0.42216482758522034],[0.45979100465774536,0.2664930820465088,0.09741777181625366,-0.8582433462142944],[-0.2918700575828552,-0.2227744311094284,-0.7793387770652771,0.9862655401229858],[-0.18523655831813812,-0.07566789537668228,-0.8501361608505249,0.8340243101119995],[1.0548797845840454,-0.5807948112487793,-0.24041976034641266,-0.4891611933708191],[-0.8753928542137146,0.4078929126262665,-0.5804998278617859,0.564717173576355],[-0.7464845776557922,0.5213220119476318,-0.5489084124565125,0.31231099367141724],[-0.6313030123710632,0.14639097452163696,-0.7463762760162354,0.82061368227005],[-0.6655296087265015,0.8405832648277283,-0.6601664423942566,-0.05054182559251785],[0.72194504737854,-0.20772342383861542,-0.9150421619415283,0.4387485980987549],[-0.4523444175720215,0.17597909271717072,-0.7067248821258545,0.6567241549491882],[-0.9034734964370728,-0.27909544110298157,1.0505608320236206,-0.40396687388420105],[0.11604379117488861,-0.461762934923172,0.5644944310188293,-0.4784212112426758],[0.33102118968963623,0.711674153804779,-0.2060277760028839,-0.960556149482727],[-0.7862745523452759,-0.39853227138519287,0.9423455595970154,-0.25028955936431885],[0.27965235710144043,-0.4323578476905823,0.4784044623374939,-0.6530411839485168],[-0.7572526335716248,0.5122490525245667,-0.6671794652938843,0.42047327756881714],[1.0035170316696167,-0.7381558418273926,-0.02258720062673092,-0.5162230730056763],[-0.4587821662425995,-0.10928933322429657,0.7891101837158203,-0.4819446802139282],[-0.08392397314310074,1.0821717977523804,-0.6823889017105103,-0.8897087574005127],[-1.0300673246383667,-0.5455958843231201,0.716268002986908,0.5515192747116089],[-0.12020515650510788,-0.5764462351799011,0.5336265563964844,-0.10923992097377777],[0.8744443655014038,-0.7579622268676758,-0.16120685636997223,-0.184925839304924],[-0.5288990139961243,0.4364111125469208,-0.6040700674057007,0.3806939125061035],[-1.0544458627700806,-0.42196008563041687,0.28131812810897827,0.6582098603248596],[0.9981005191802979,-0.6421297192573547,-0.14419837296009064,-0.5426786541938782],[0.8647935390472412,-0.7737345695495605,0.04638885706663132,-0.35552743077278137],[-0.9784600138664246,-0.2691388726234436,0.8924270868301392,-0.09119110554456711],[1.1673822402954102,-0.43219923973083496,-0.4125370979309082,-0.6139569878578186],[-0.8822047114372253,0.3401545286178589,-0.6421445608139038,0.5615143179893494],[-0.8361280560493469,-0.48702508211135864,0.9203560948371887,-0.070381760597229],[-0.8306965231895447,0.11410581320524216,-0.5916942358016968,0.7804538011550903]],"W_rec":[[0.0,0.12194743007421494,-0.07769133895635605,0.11442890763282776,0.08926212787628174,0.12829580903053284,-0.11874893307685852,-0.10523874312639236,0.057137809693813324,0.06555278599262238,0.02574595995247364,0.10921330749988556,0.0034352638758718967,-0.10548879951238632,0.046761687844991684,-0.10059142112731934,0.002732896711677313,0.06115609407424927,0.012885288335382938,-0.02613803558051586,0.09624047577381134,-0.00026768172392621636,-0.02309586852788925,0.017320623621344566,-0.0992196798324585,0.05965786799788475,0.04593044891953468,0.10274125635623932,-0.15467779338359833,0.06075805425643921,0.029733676463365555,-0.053451649844646454,-0.048096913844347,-0.06523846834897995,-0.003476903075352311,0.0011662329779937863,0.02392568252980709,-0.04772406071424484,0.051954708993434906,-0.024458937346935272,0.14139533042907715,0.066330187022686,-0.03993573039770126,0.07926835119724274,-0.07019513845443726,0.0033316665794700384,0.013948146253824234,0.06706743687391281,0.0006178643670864403,-0.013798662461340427,0.05873379856348038,0.05689850449562073,-0.0010019686305895448,0.0002069284673780203,-0.049546003341674805,0.012962334789335728,-0.0412835031747818,-0.07516827434301376,-0.12183810025453568,0.030184641480445862,-0.03168656304478645,0.05361613258719444,-0.065381720662117,-0.23826195299625397,0.13845087587833405,0.11968504637479782,-0.023937975987792015,-0.21567416191101074,0.16748550534248352,-0.04289928078651428,-0.049771808087825775,0.07326307147741318,0.07718545943498611,0.08517445623874664,-0.008593691512942314,0.037792645394802094,-0.024736788123846054,0.037839990109205246,0.1328997015953064,-0.1297040730714798,-0.004538071807473898,0.04633434861898422,-0.1491747349500656,0.12950898706912994,-0.23347404599189758,-0.08295793831348419,-0.10124949365854263,0.025991572067141533,-0.10560000687837601,0.07764814049005508,0.14621737599372864,0.009470085613429546,-0.09971147030591965,0.0416313111782074,-0.08009926229715347,0.08906794339418411,0.06068580970168114,-0.07862633466720581,0.09627117216587067,-0.011417057365179062,0.06094273179769516,0.07430750876665115,-0.02812402881681919,-0.060075461864471436,-0.08894208818674088,-0.12762944400310516,0.0008054183563217521,-0.003929601516574621,-0.024927038699388504,0.10055974870920181,0.0031951928976923227,0.05087321251630783,0.08367439359426498,-0.11243248730897903,0.06505238264799118,0.05246088653802872,-0.015939844772219658,0.024010811001062393,0.11581979691982269,0.015558833256363869,-0.045228347182273865,0.10818600654602051,0.06916845589876175,0.05800209939479828,-0.09304698556661606,-0.030925966799259186,0.15166057646274567,-0.044800229370594025,-0.015354080125689507,-0.013620617799460888,-0.02904183231294155,-0.01844000816345215,0.09095415472984314,-0.05323653668165207,-0.014193588867783546,-0.026822270825505257,-0.07796254009008408,0.16974197328090668,-0.09880691766738892,0.08705917745828629,0.1081678494811058,0.05964576080441475,-0.06330312788486481,0.08034171909093857,-0.022784000262618065,-0.07580071687698364,-0.051158975809812546,0.05199137330055237,0.04302126541733742,-0.010814523324370384,0.022405648604035378,0.006340573076158762,0.11041703820228577,-0.021240219473838806,-0.0722886472940445,-0.09282870590686798,-0.0034451198298484087,0.09874133765697479,0.04058859497308731,0.04969393461942673,0.09531659632921219,0.02007163129746914,0.07740500569343567,0.058189474046230316,0.11327850818634033,0.04655791074037552,-0.04737674072384834,0.13312286138534546,-0.16835182905197144,-0.011553240939974785,0.0738341435790062,0.1341957300901413,-0.040716223418712616,-0.01238945871591568,0.017969844862818718,-0.034899573773145676,-0.08800474554300308,0.06268301606178284,-0.030536634847521782,-0.14530976116657257,-0.04666243866086006,0.12285451591014862,-0.03892209380865097,-0.014561804011464119,-0.09353389590978622,0.09842701256275177,0.03243818134069443,0.10436040908098221,-0.009769908152520657,0.015644919127225876,-0.020050790160894394,-0.054089173674583435,0.1498384326696396,0.09972408413887024,-0.06410994380712509,-0.015622313134372234,-0.06316851824522018,-0.16667796671390533,0.04416171833872795,-0.280487060546875,-0.05103667825460434,0.14028345048427582,-0.005921361967921257,0.16170771420001984,-0.05474323406815529,-0.17668180167675018,0.09640742838382721,-0.0070869168266654015,-0.06712958961725235,0.041870664805173874,0.05049864947795868,0.08002919703722,0.01904488354921341,-0.09785858541727066,0.034162964671850204,-0.1406380832195282,0.06897614896297455,0.06537619233131409,-0.03160395473241806,0.031913816928863525,-0.13724568486213684,0.058571234345436096,-0.014919641427695751,0.026048824191093445,0.02032378874719143,0.08932673931121826,0.03126028925180435,-0.00042944433516822755,0.0800674632191658,0.03176994249224663,0.03066248819231987,-0.10343024134635925,-0.010752336122095585,-0.11132989823818207,0.014960579574108124,-0.010162890888750553,0.07249454408884048,0.027456458657979965,-0.26648473739624023,0.003184828208759427,0.020991764962673187,0.1033949926495552,0.13979415595531464,0.01917279325425625,-0.059133946895599365,0.05705299228429794,-0.12901471555233002,-0.09367715567350388,0.004092448391020298,0.01785019040107727,0.08899729698896408,-0.006812320090830326,0.004700696095824242,0.2011992484331131,-0.022978877648711205,0.04803652688860893],[0.10408877581357956,0.0,0.08083774894475937,0.10189051926136017,-0.20586979389190674,-0.045756369829177856,0.06357137113809586,-0.12142853438854218,-0.20867455005645752,0.181925430893898,-0.2715812027454376,0.062204230576753616,0.03479800745844841,-0.02033679559826851,0.011538679711520672,0.004515437409281731,0.10397936403751373,-0.03558466583490372,0.014408658258616924,0.10094814747571945,0.04934109002351761,-0.17256666719913483,-0.11275248229503632,-0.07269778102636337,0.10232637077569962,-0.05608458071947098,0.07525404542684555,-0.03766646236181259,-0.01951962523162365,0.11638164520263672,0.0027625311631709337,-0.04886138066649437,0.05010385066270828,-0.14221368730068207,-0.21376322209835052,-0.02966754324734211,0.05340968444943428,-0.1559675633907318,-0.0651765689253807,0.009416169486939907,-0.0301037710160017,-0.09480497986078262,-0.10612030327320099,0.0821748822927475,-0.06365995109081268,0.21489545702934265,-0.05274862051010132,-0.13520322740077972,0.08143582195043564,-0.09844201058149338,0.18094222247600555,0.055419277399778366,-0.0736139789223671,-0.02368914522230625,0.08947008848190308,-0.18814429640769958,-0.06280917674303055,0.0693364366889,-0.2125633955001831,-0.33485671877861023,0.05802632495760918,0.16998013854026794,0.10335828363895416,-0.1641133725643158,-0.0061071389354765415,0.040159113705158234,-0.09630489349365234,0.11983191967010498,-0.0928502231836319,-0.0444667674601078,-0.14046485722064972,0.30425211787223816,-0.21315640211105347,-0.21455346047878265,0.06097817420959473,0.08589994162321091,0.04849977046251297,-0.08586610108613968,-0.061622701585292816,0.07306687533855438,0.013719551265239716,0.18797770142555237,-0.027015360072255135,0.011969800107181072,-0.12191038578748703,-0.14638283848762512,-0.05719410255551338,0.04040604457259178,0.20431755483150482,-0.02713208831846714,0.044970761984586716,0.08326077461242676,-0.09958107769489288,-0.019895611330866814,-0.03838949650526047,-0.22682926058769226,-0.005867623724043369,0.06351085007190704,-0.11056055128574371,-0.21388684213161469,-0.02780810371041298,0.0642278864979744,0.1371622085571289,-0.12184501439332962,0.16684941947460175,-0.021776646375656128,-0.10407248884439468,-0.2090841829776764,-0.08479900658130646,-0.13958774507045746,-0.014600057154893875,0.03346230462193489,-0.05951715633273125,0.05273958668112755,-0.10287970304489136,-0.06821642071008682,0.006071177311241627,-0.10346627980470657,0.04392165690660477,0.022878557443618774,0.07047029584646225,0.10189925879240036,-0.13255442678928375,-0.07330814749002457,0.03347015380859375,-0.21068894863128662,0.13591368496418,-0.01157037541270256,-0.08187007158994675,-0.23064647614955902,0.010566001757979393,0.005796227138489485,-0.14829720556735992,0.16915756464004517,-0.05095618963241577,0.11345567554235458,-0.06418526917695999,0.009816538542509079,0.03589838743209839,0.021084822714328766,-0.003866588231176138,0.10386015474796295,-0.05330996215343475,0.03770902380347252,-0.031235596165060997,0.06910908967256546,0.026532603427767754,-0.004787016659975052,-0.025733591988682747,-0.057520993053913116,-0.08154516667127609,0.10958489030599594,0.04684358835220337,0.02313142828643322,-0.04680536687374115,-0.18457315862178802,0.17488908767700195,0.019288336858153343,-0.17853698134422302,0.17910359799861908,0.04048232361674309,0.021227678284049034,-0.10826350748538971,-0.1290244311094284,0.17042851448059082,0.052685923874378204,-0.08989080041646957,-0.12700819969177246,-0.2980223000049591,-0.08510075509548187,0.08608255535364151,0.03317458927631378,-0.07778315991163254,0.11202822625637054,0.012857411988079548,0.18680602312088013,-0.32058072090148926,0.050781816244125366,-0.012025842443108559,-0.15149430930614471,0.001981205539777875,-0.05306965112686157,-0.16089925169944763,-0.040885042399168015,-0.02319721132516861,-0.1703031361103058,0.15407916903495789,0.10132688283920288,0.03496469184756279,0.0638386458158493,-0.05377093330025673,-0.0623849481344223,-0.18319211900234222,-0.12962891161441803,0.09807320684194565,-0.20383797585964203,0.0321882925927639,0.2729649245738983,-0.01419550646096468,-0.3805372714996338,-0.05190996453166008,-0.017503861337900162,-0.14650863409042358,0.11412075906991959,0.0731014758348465,-0.15467756986618042,-0.010150006040930748,-0.04181329905986786,-0.16244548559188843,0.08571227639913559,0.21655288338661194,0.040058527141809464,-0.03392937406897545,0.17184613645076752,-0.09893853217363358,-0.07173530757427216,0.11010318994522095,0.11689165979623795,0.12236161530017853,0.07245086878538132,-0.09279719740152359,0.1120196133852005,0.13858968019485474,0.09550177305936813,0.0274504367262125,0.040821611881256104,0.04622044041752815,0.02586902305483818,0.0769699215888977,-0.1331777721643448,0.015328735113143921,-0.014165781438350677,-0.13148076832294464,0.019648602232336998,-0.02674766071140766,-0.1674824208021164,-0.1281580924987793,-0.14389149844646454,-0.1699661761522293,-0.10211823135614395,-0.08045453578233719,-0.08434208482503891,-0.018866239115595818,0.019249500706791878,0.10979937016963959,0.07500621676445007,-0.3713577389717102,-0.11609828472137451,-0.05977996066212654,-0.03558890148997307,-0.10004350543022156,-0.1275789886713028,0.12423016875982285,0.04076748713850975,0.11327611654996872,0.04792672023177147],[0.17444725334644318,-0.000026686750061344355,0.0,-0.07509489357471466,0.023588526993989944,-0.037961993366479874,0.037379082292318344,-0.181416854262352,-0.0630471408367157,0.09916116297245026,-0.11574381589889526,-0.05947726219892502,0.22426985204219818,0.004247427452355623,-0.019127272069454193,-0.06070871278643608,-0.118039071559906,-0.09338178485631943,-0.0956420823931694,0.054275479167699814,0.1941252499818802,-0.014645078219473362,0.1156354546546936,-0.11555467545986176,0.0071932170540094376,-0.05882514640688896,0.0989912673830986,-0.01307532750070095,0.0014279120368883014,-0.005625350400805473,0.13816609978675842,-0.047481998801231384,-0.011491349898278713,0.044576238840818405,-0.06684016436338425,-0.059399377554655075,-0.025376055389642715,-0.09893783926963806,0.058159131556749344,0.05174541473388672,0.050771646201610565,-0.014903855510056019,0.051810234785079956,-0.027282964438199997,-0.1620006412267685,-0.04277423769235611,-0.03150980547070503,0.100939080119133,-0.02097170054912567,-0.012510831467807293,0.17016398906707764,0.03698413819074631,-0.10713814944028854,-0.07410113513469696,-0.08422627300024033,-0.08793621510267258,0.00012327480362728238,0.007433833554387093,0.013151378370821476,-0.30143484473228455,0.05445915833115578,-0.06475174427032471,0.05598868429660797,-0.05700168386101723,0.03424431383609772,-0.12620961666107178,0.047364525496959686,0.2243679016828537,-0.02191891334950924,0.034160368144512177,-0.0012028542114421725,0.16452233493328094,-0.14145760238170624,-0.0863838791847229,0.13655774295330048,-0.03753488510847092,-0.027575049549341202,0.061963558197021484,0.07276327162981033,-0.09093451499938965,0.06527857482433319,-0.10143714398145676,-0.15035079419612885,-0.005403864197432995,0.0013829987728968263,-0.23991283774375916,0.037031352519989014,0.013630116358399391,0.02811594493687153,0.022172799333930016,0.03901303932070732,-0.06622540950775146,0.06359799951314926,0.1644602119922638,-0.029202153906226158,-0.11108844727277756,-0.020355189219117165,0.13642075657844543,0.03993568569421768,-0.08832573145627975,0.022040709853172302,0.13725346326828003,0.06777338683605194,-0.06420012563467026,-0.03333081677556038,0.005103698465973139,-0.12599694728851318,-0.013643991202116013,-0.013607674278318882,0.0006025216425769031,0.10849162191152573,0.10456967353820801,0.03617361560463905,0.12288602441549301,-0.07726430892944336,-0.044266682118177414,-0.11795864999294281,-0.019961288198828697,-0.016820188611745834,0.12431830167770386,-0.04142637550830841,-0.03785860538482666,0.1854369044303894,0.0775614082813263,-0.05009083449840546,0.21146821975708008,-0.08071480691432953,0.032766133546829224,-0.12685854732990265,0.03728622943162918,0.014259018935263157,-0.060961220413446426,-0.12562701106071472,-0.08647073805332184,-0.010303844697773457,-0.04738440364599228,-0.01095674466341734,-0.08433119207620621,-0.007071758154779673,0.1420876383781433,-0.06862763315439224,-0.024909984320402145,-0.03341905027627945,-0.10459891706705093,0.13077832758426666,0.045893773436546326,-0.07162809371948242,-0.0901242047548294,0.07785763591527939,-0.07852891832590103,0.05795783922076225,-0.006081003695726395,-0.036830879747867584,-0.10778558999300003,0.02326790615916252,0.04074699059128761,-0.09719131141901016,-0.15349125862121582,-0.041108258068561554,-0.027685414999723434,0.03799226135015488,0.07118374854326248,-0.04754991456866264,-0.055172596126794815,-0.030514109879732132,-0.06256670504808426,0.03333036229014397,0.07640640437602997,0.03568500652909279,0.03981349617242813,-0.0398675799369812,0.09369239211082458,-0.032437995076179504,-0.055233851075172424,-0.061684899032115936,0.023575931787490845,-0.04780077934265137,-0.09992644190788269,-0.01701960898935795,-0.06561596691608429,-0.03224172815680504,-0.01841779798269272,-0.007745935581624508,0.11230691522359848,0.03804878517985344,0.10908321291208267,-0.018555881455540657,-0.024331316351890564,-0.06263455003499985,-0.05545545741915703,-0.16740639507770538,-0.030581708997488022,-0.06247875094413757,0.003325437428429723,0.010203084908425808,-0.01852022297680378,-0.06708996742963791,0.06535377353429794,0.021083084866404533,-0.07014131546020508,-0.08617257326841354,0.07339653372764587,-0.08379799127578735,-0.065148264169693,0.09056602418422699,-0.08111470192670822,0.006865717004984617,-0.019385717809200287,-0.24572284519672394,0.03637770935893059,-0.004873375408351421,0.20721787214279175,0.038705792278051376,0.08806145936250687,-0.1012573167681694,-0.09836558252573013,0.049257759004831314,-0.12276867032051086,-0.04834222048521042,-0.0023996273521333933,-0.04528256505727768,0.15457278490066528,0.017421310767531395,-0.09218914061784744,0.11938636749982834,0.08928926289081573,0.09880170971155167,-0.053047724068164825,0.09706304967403412,0.041795507073402405,-0.12985330820083618,-0.04021567106246948,-0.02269035391509533,-0.2469990998506546,0.17827452719211578,-0.1374722272157669,0.03929345682263374,-0.010224658064544201,-0.1634986400604248,-0.022784361615777016,0.09630756080150604,0.03390713408589363,0.11824487894773483,0.01293896697461605,0.03482908755540848,0.13916368782520294,-0.08512434363365173,0.04761938750743866,0.03037094511091709,0.0008537406683899462,0.05213999003171921,-0.14059460163116455,0.019533343613147736,-0.06005110591650009,-0.0036533549427986145,0.16970369219779968],[-0.3533321022987366,-0.13377416133880615,-0.15332342684268951,0.0,-0.32719627022743225,-0.30668964982032776,-0.021660588681697845,-0.2841606140136719,-0.21871750056743622,0.04907234013080597,-0.16538938879966736,0.15547338128089905,-0.016922226175665855,0.2143021821975708,0.21172906458377838,-0.04758266732096672,-0.2650197744369507,-0.29929882287979126,-0.25265565514564514,-0.1682547628879547,-0.1291688233613968,-0.37332862615585327,-0.2731975018978119,-0.03373897448182106,-0.09036467224359512,-0.15325957536697388,0.2042999416589737,-0.05314350873231888,-0.41372916102409363,-0.02084970287978649,0.10375568270683289,-0.08928753435611725,-0.027061229571700096,-0.36437076330184937,-0.15561451017856598,0.1547226905822754,-0.09786679595708847,-0.22154225409030914,-0.019856078550219536,0.10501477122306824,0.028990034013986588,0.1750829517841339,-0.0749136283993721,-0.3450033664703369,0.03280392289161682,0.3577331304550171,0.02795732021331787,-0.19656485319137573,-0.18818198144435883,0.10100628435611725,-0.12108628451824188,-0.1553640514612198,-0.15298576653003693,-0.26072368025779724,0.009676055051386356,0.17439788579940796,-0.23855319619178772,0.004427655134350061,-0.37864693999290466,-0.1393606811761856,-0.008341209962964058,-0.05190514773130417,0.1721435934305191,-0.016589336097240448,0.06864835321903229,0.041683342307806015,-0.25699949264526367,-0.18234440684318542,-0.2039218693971634,-0.12088732421398163,-0.21134071052074432,-0.10296450555324554,-0.19198353588581085,0.2995251715183258,-0.06701202690601349,-0.3626435399055481,-0.19248639047145844,-0.22948919236660004,0.23553557693958282,0.19595272839069366,0.16943472623825073,0.016648996621370316,-0.22092154622077942,-0.24702265858650208,-0.033167511224746704,0.3190913498401642,-0.04447481036186218,0.06427256762981415,-0.37355518341064453,-0.19695822894573212,-0.1513463854789734,-0.3397035300731659,-0.2077324539422989,-0.3982493281364441,-0.022521236911416054,0.21191075444221497,0.2383441925048828,-0.0475444421172142,-0.016345834359526634,-0.20090661942958832,-0.23317557573318481,0.09570886939764023,-0.05494392290711403,-0.16943882405757904,-0.10124776512384415,-0.0859166756272316,-0.3219619393348694,0.08847053349018097,0.05428498238325119,0.030763279646635056,-0.1711156666278839,0.030218852683901787,0.00845202337950468,-0.1048874780535698,-0.08306295424699783,-0.05674092844128609,-0.02227829396724701,-0.11002308130264282,0.018664207309484482,-0.2266349345445633,-0.309773325920105,-0.20758002996444702,-0.24189642071723938,-0.0766533687710762,-0.11036747694015503,-0.23465505242347717,-0.2057580053806305,-0.04038192331790924,-0.3108670115470886,-0.1457401067018509,0.0034251909237354994,-0.2964427173137665,0.1749315708875656,0.11422651261091232,-0.20739874243736267,-0.11348892748355865,0.05364210158586502,0.06099540367722511,-0.1509423553943634,0.27885374426841736,0.13631607592105865,-0.33168452978134155,-0.2207895964384079,-0.020614702254533768,0.05616971105337143,0.11991879343986511,-0.29072579741477966,-0.12312628328800201,-0.19009354710578918,-0.10447357594966888,-0.49577832221984863,-0.2785865366458893,-0.1843366026878357,0.03905383124947548,0.11756312847137451,-0.02024131454527378,0.1161222904920578,-0.0824945792555809,-0.04453559219837189,-0.19993458688259125,-0.07779096066951752,-0.029801245778799057,-0.06025253236293793,-0.2973339557647705,0.05759625881910324,-0.28654056787490845,-0.06342615187168121,0.029071440920233727,-0.3206070363521576,-0.265180379152298,-0.07602106779813766,0.02302676811814308,-0.41935744881629944,-0.05178094655275345,-0.03475698456168175,0.1081332117319107,-0.10431984812021255,-0.2948067784309387,-0.2854940891265869,-0.027269598096609116,-0.3986484706401825,-0.3148212134838104,-0.1695597916841507,-0.04470108821988106,-0.2310153990983963,-0.15026453137397766,-0.09391540288925171,-0.2553851902484894,-0.25778645277023315,0.012540838681161404,-0.37438666820526123,0.17582634091377258,0.11961306631565094,-0.023170866072177887,-0.10012059658765793,0.07098279148340225,-0.30640605092048645,0.0888681635260582,0.01288694143295288,0.13600395619869232,-0.39267468452453613,0.003882605116814375,-0.25821495056152344,0.0691782608628273,0.05498499050736427,-0.028198160231113434,-0.2544138431549072,-0.10068479925394058,0.0863986536860466,0.22749850153923035,0.15170183777809143,0.08850576728582382,-0.23851311206817627,0.05244411155581474,-0.0725170150399208,-0.27290961146354675,0.07867280393838882,-0.3388747274875641,0.0349368080496788,-0.27185359597206116,-0.16456714272499084,0.1319255530834198,-0.0057824039831757545,-0.31954655051231384,0.005327689461410046,-0.1562214195728302,0.11864417791366577,-0.098240427672863,-0.13169264793395996,-0.11636322736740112,-0.04017560929059982,-0.14334328472614288,0.003944191616028547,0.3319028615951538,0.09827079623937607,-0.23198765516281128,-0.07862142473459244,0.1260378211736679,-0.04809809848666191,-0.40455469489097595,-0.27412134408950806,-0.19129697978496552,-0.22041217982769012,0.19171971082687378,-0.2692391872406006,-0.06549430638551712,-0.08564678579568863,-0.19349639117717743,-0.20921166241168976,-0.0646018385887146,-0.17132824659347534,-0.09978028386831284,-0.10623788088560104,-0.18113556504249573,-0.10313346982002258,0.0567692369222641],[0.09343992173671722,-0.026178719475865364,-0.12433180958032608,-0.015033116564154625,0.0,-0.003348104888573289,-0.03194285184144974,0.20833934843540192,-0.04932430386543274,-0.02639886923134327,-0.16705167293548584,0.06003664433956146,0.15044067800045013,-0.1717751920223236,0.15938609838485718,-0.013152959756553173,-0.11484884470701218,0.0002573401143308729,0.003028383944183588,-0.047678396105766296,0.02638101764023304,0.12176166474819183,0.051469918340444565,0.10521652549505234,0.10567577928304672,0.009573127143085003,0.004068370908498764,0.008149164728820324,-0.06575912982225418,0.039852797985076904,0.016244443133473396,0.008117820136249065,-0.16213594377040863,0.04186311736702919,-0.08417417854070663,-0.01860574074089527,0.00802760198712349,-0.027235426008701324,-0.024898773059248924,-0.005945797543972731,-0.004990601912140846,-0.1314748227596283,-0.13666924834251404,-0.01754908636212349,-0.05950627848505974,0.007954882457852364,0.003998155239969492,-0.14379602670669556,-0.10621384531259537,-0.16232678294181824,0.03212638571858406,-0.06908995658159256,0.15041808784008026,-0.08562139421701431,-0.054874010384082794,-0.04177325591444969,-0.051470689475536346,0.07974740117788315,-0.10865627229213715,0.019103674218058586,0.05323939025402069,0.004842767491936684,-0.04710455983877182,0.1710057556629181,-0.05349823087453842,0.0293535515666008,0.009031676687300205,0.13909068703651428,-0.023069556802511215,-0.05613911524415016,0.014112451113760471,0.050201136618852615,-0.13110829889774323,-0.09645488113164902,0.027268152683973312,0.11157841980457306,0.02657455764710903,0.05844962224364281,0.032138023525476456,-0.030849358066916466,0.1117531955242157,-0.00222613918595016,0.12554730474948883,0.13612453639507294,-0.03397921472787857,0.027121437713503838,0.2380436658859253,0.0714050903916359,-0.014894015155732632,-0.04002547636628151,-0.1288369745016098,0.02803579531610012,0.07550201565027237,0.11951552331447601,-0.14308516681194305,-0.13590562343597412,0.06904946267604828,0.0022583326790481806,-0.02972620725631714,-0.03012334555387497,-0.017686976119875908,0.02423837035894394,-0.1087469682097435,-0.06525332480669022,0.11717082560062408,0.057830434292554855,-0.16147015988826752,0.03338339552283287,0.02946569211781025,-0.05117993429303169,-0.03986736014485359,-0.1321905553340912,0.09158932417631149,-0.04057733342051506,0.01736338622868061,-0.045648686587810516,-0.022191599011421204,0.033000633120536804,-0.06142336130142212,-0.0087176114320755,0.07634927332401276,0.020423080772161484,0.15519146621227264,0.01199356559664011,0.026156695559620857,-0.13550224900245667,0.13504697382450104,-0.01058830413967371,0.08149915188550949,0.07302065938711166,0.06392873823642731,0.12891191244125366,0.044272441416978836,0.06914609670639038,-0.0540592335164547,-0.037621237337589264,0.09628337621688843,-0.08368522673845291,-0.11779410392045975,0.09027321636676788,0.024465303868055344,0.08093313872814178,-0.10138969868421555,0.1995207518339157,0.10405194759368896,-0.195594921708107,0.01294497586786747,0.023992132395505905,-0.06361208111047745,-0.0012054112739861012,0.025747526437044144,0.050788018852472305,-0.0978417843580246,0.13685429096221924,0.19363988935947418,-0.24606232345104218,0.020298505201935768,0.03963658586144447,-0.1288132518529892,-0.12242093682289124,0.04710043594241142,0.03243015334010124,-0.12150692194700241,-0.049096543341875076,-0.029982915148139,-0.13404983282089233,0.042098719626665115,0.07610036432743073,0.2773474454879761,0.0598815381526947,0.1262933760881424,-0.14794963598251343,0.010572761297225952,-0.08958227932453156,0.22728100419044495,-0.12584036588668823,-0.12874835729599,0.21771690249443054,0.1216195672750473,0.06856609880924225,-0.13512489199638367,-0.13332496583461761,0.1461770385503769,0.06375793367624283,0.12024140357971191,0.1879836618900299,-0.014425935223698616,-0.019713101908564568,0.07654684782028198,0.0022340002469718456,0.3157176375389099,0.13523870706558228,0.03271207585930824,-0.02137044630944729,-0.06818147748708725,0.1382215917110443,-0.04906238988041878,0.020331935957074165,0.07644283026456833,-0.18490491807460785,-0.09882351011037827,-0.06737980991601944,0.11743583530187607,0.10456959158182144,0.1372719705104828,-0.1402309536933899,0.0021184037905186415,0.03580237179994583,0.03740440309047699,0.1199900433421135,0.12996922433376312,0.08989816904067993,-0.02533712610602379,-0.016083398833870888,-0.012011965736746788,0.10331451147794724,-0.007810360286384821,0.030141936615109444,0.07294430583715439,-0.11599959433078766,0.04210643842816353,-0.041457753628492355,-0.1084682047367096,-0.06384515017271042,0.13315436244010925,-0.0377640426158905,-0.0665639191865921,0.04754097759723663,-0.009528448805212975,-0.05140738934278488,-0.06956562399864197,0.00508372625336051,0.027730830013751984,0.05603272467851639,0.0017863963730633259,-0.05058084428310394,0.09731118381023407,-0.13023005425930023,0.03905229642987251,-0.014427805319428444,-0.11895384639501572,0.1371893435716629,-0.011330722831189632,0.060817472636699677,0.29285502433776855,-0.015471674501895905,-0.11892163753509521,-0.06416262686252594,0.22435785830020905,-0.008802033960819244,0.025660626590251923,-0.04905160143971443,0.01797262765467167,0.04958591237664223,0.03641572967171669,0.10800250619649887],[0.05188773199915886,0.1535671502351761,-0.07620697468519211,0.06968500465154648,0.2665507197380066,0.0,-0.005007490981370211,0.20617465674877167,-0.11353711038827896,-0.09630757570266724,-0.20554068684577942,0.09352148324251175,-0.009961490519344807,-0.05021281912922859,-0.0008782336954027414,0.10722687095403671,0.1956508308649063,-0.03743227571249008,0.1962060183286667,0.116348996758461,0.026394614949822426,-0.05787518620491028,0.10400106012821198,0.04400245100259781,-0.05968524515628815,-0.13636769354343414,-0.026749957352876663,0.0090797059237957,-0.04365051910281181,0.12047027796506882,-0.05758879333734512,-0.09914884716272354,0.1426907479763031,-0.4367522895336151,0.012099046260118484,-0.023010753095149994,-0.00767796766012907,-0.0519338995218277,-0.04033682122826576,0.07726879417896271,-0.012168057262897491,-0.12961198389530182,-0.016211802139878273,0.32248175144195557,-0.0502789281308651,0.10082520544528961,-0.17470896244049072,-0.12176234275102615,0.008351714350283146,-0.1992928683757782,-0.02300306037068367,0.12302301824092865,-0.1294846385717392,0.018474090844392776,-0.08459997922182083,-0.26870042085647583,0.017751075327396393,0.030622554942965508,0.024505848065018654,-0.2318081259727478,0.0809243768453598,0.07284954935312271,-0.0032464482355862856,-0.11011945456266403,-0.02386697754263878,0.14146673679351807,-0.07703530788421631,0.008450992405414581,0.005553277209401131,-0.007767735049128532,-0.017181415110826492,-0.010550936684012413,0.09858191013336182,-0.08975835889577866,-0.06910008937120438,0.066059909760952,-0.1716460883617401,-0.10982118546962738,0.025452520698308945,-0.2686868906021118,-0.005488221533596516,0.0007260564598254859,0.112310029566288,0.20666106045246124,0.016923127695918083,0.07038040459156036,0.08367816358804703,-0.0720457211136818,0.06225132942199707,-0.05460171774029732,0.06955771148204803,0.08884037286043167,-0.1301509290933609,0.2256108671426773,-0.18950074911117554,-0.1811300367116928,-0.019201651215553284,-0.036934711039066315,-0.08670984953641891,-0.2766258418560028,0.14365924894809723,0.012935174629092216,-0.042703814804553986,-0.16844643652439117,0.2042113095521927,-0.024770371615886688,-0.1440185010433197,-0.07783585041761398,-0.14015237987041473,0.03840768709778786,0.051242854446172714,-0.03136005252599716,-0.008210398256778717,0.06791442632675171,0.03534204512834549,-0.053130391985177994,-0.2933756411075592,0.0697607770562172,0.024736303836107254,-0.05115474388003349,0.004349285736680031,-0.05511249601840973,0.12140268087387085,0.07952842116355896,-0.004119613207876682,-0.193049818277359,0.27309900522232056,0.08006171137094498,-0.061171405017375946,-0.07479150593280792,-0.010866226628422737,-0.033107444643974304,-0.13697734475135803,0.009343743324279785,0.14589354395866394,0.040669508278369904,-0.05384553223848343,0.09732318669557571,0.04774864390492439,0.017301315441727638,-0.024845151230692863,0.11628260463476181,0.008041875436902046,0.08855751901865005,0.00018840543634723872,-0.089542455971241,0.12418895214796066,0.12256468087434769,-0.018047165125608444,0.14424967765808105,0.027377286925911903,0.17362163960933685,-0.13061721622943878,-0.05349104106426239,0.07188839465379715,-0.08093520253896713,-0.054159216582775116,0.14270374178886414,0.044197697192430496,-0.11341970413923264,-0.15162630379199982,0.08508184552192688,0.005197213962674141,0.041386671364307404,-0.10853246599435806,0.1486397087574005,0.12724949419498444,0.036006126552820206,-0.008655039593577385,0.02227770909667015,0.15746425092220306,-0.002529384335502982,-0.04136958345770836,0.1317426711320877,-0.20414218306541443,0.00330328568816185,-0.36476126313209534,0.1366662085056305,-0.15277570486068726,-0.07876453548669815,0.14031082391738892,-0.0026985115837305784,0.020342182368040085,-0.057911403477191925,0.26935580372810364,0.1562054604291916,0.15383028984069824,-0.029435478150844574,0.27096477150917053,-0.2290826439857483,0.32617688179016113,-0.13804130256175995,-0.09785183519124985,-0.2179030328989029,0.01084752008318901,-0.000683541176840663,0.04365362226963043,0.0364670529961586,0.033524349331855774,-0.34984254837036133,-0.06501521170139313,-0.08795814216136932,0.16100534796714783,0.132222518324852,-0.018611250445246696,-0.10505452752113342,0.1179901659488678,-0.13770470023155212,0.03132731467485428,-0.130051851272583,-0.13043677806854248,0.03524625301361084,0.12513233721256256,0.04928586632013321,-0.16130119562149048,0.20699027180671692,-0.04649318754673004,0.1604793220758438,-0.07401389628648758,0.035877689719200134,-0.0002723900252021849,0.1845344603061676,0.054858699440956116,0.2441948503255844,-0.10895422101020813,-0.14848662912845612,-0.12635676562786102,0.03162328898906708,-0.0447225458920002,-0.11769796907901764,0.052803512662649155,0.12143947929143906,0.03012935258448124,-0.10366202890872955,-0.04524560645222664,-0.09419508278369904,-0.009598806500434875,-0.0797824114561081,0.017227021977305412,0.08211617171764374,0.10032542794942856,-0.2810497283935547,-0.008445236831903458,-0.11909161508083344,0.1648712009191513,-0.11660382896661758,-0.2512510418891907,0.008923117071390152,0.1840658187866211,-0.0814906507730484,-0.19088490307331085,-0.1398366242647171,-0.15876859426498413,0.020375465974211693,-0.04088816046714783,0.1586797833442688],[0.08962588757276535,0.04077640548348427,0.1639908254146576,0.04444942995905876,-0.06483311206102371,0.005428813397884369,0.0,-0.14791008830070496,-0.04485035687685013,-0.04665110632777214,-0.0663207620382309,0.15641669929027557,0.131517693400383,-0.04854724183678627,-0.11497979611158371,0.06644735485315323,-0.01911778189241886,-0.1701391041278839,0.09893418103456497,-0.1252143383026123,-0.04711795970797539,-0.09509001672267914,-0.0029542292468249798,0.0044944086112082005,-0.03127432242035866,-0.029180021956562996,0.0500016026198864,0.15560591220855713,0.13640211522579193,-0.06703230738639832,0.13339544832706451,-0.014383751899003983,0.020843233913183212,-0.05518941208720207,-0.11877000331878662,0.05224749073386192,-0.17487148940563202,-0.04779733344912529,0.039586495608091354,-0.04350673034787178,-0.09803937375545502,0.06792815774679184,0.06964375823736191,-0.12917254865169525,0.010444825515151024,-0.24450954794883728,0.040261149406433105,0.08090878278017044,0.10268968343734741,0.08115845173597336,-0.09675422310829163,-0.024626391008496284,-0.14543910324573517,-0.0030378408264368773,-0.026852060109376907,0.1824919432401657,0.0923306941986084,0.11292906105518341,0.05402278155088425,-0.3146468997001648,0.20183847844600677,0.15969014167785645,0.012209911830723286,-0.4905669093132019,0.04988940432667732,0.13581742346286774,0.03196287527680397,-0.0367455892264843,-0.010689347051084042,-0.11751125007867813,-0.10053437203168869,-0.07193811237812042,-0.14623112976551056,-0.11119891703128815,0.00113999645691365,-0.02663647010922432,-0.038622863590717316,0.026144785806536674,0.0203082412481308,-0.03066086955368519,0.020513273775577545,0.02544328011572361,-0.05221930518746376,0.021304665133357048,-0.17928817868232727,-0.16705144941806793,0.09597863256931305,-0.062495846301317215,-0.009294851683080196,-0.025399625301361084,0.06159213185310364,-0.047754205763339996,0.048367951065301895,0.07302588224411011,0.07554364204406738,0.009972838684916496,0.06204728037118912,0.04765329509973526,-0.034909579902887344,0.0002934474323410541,0.11525025963783264,0.05813372880220413,-0.051714032888412476,-0.1711595058441162,-0.03283901512622833,-0.04120786860585213,0.10982365906238556,0.1029329001903534,-0.04938086122274399,-0.01675538159906864,0.09790413081645966,-0.032099202275276184,-0.012019884772598743,-0.19305790960788727,-0.07097992300987244,-0.06548348069190979,-0.1498105525970459,0.04668300971388817,0.1261117309331894,-0.07494232058525085,0.0662158951163292,0.058633510023355484,0.023894593119621277,0.12107031047344208,0.12426471710205078,0.18409989774227142,-0.06302157044410706,0.02824418433010578,0.003662374336272478,-0.1268930584192276,0.0979497954249382,0.04708231985569,-0.04089134931564331,0.15044060349464417,0.07635322213172913,-0.009529986418783665,0.09369242936372757,0.02747933566570282,-0.13222914934158325,-0.03899495303630829,0.014892383478581905,0.0468604750931263,0.12693369388580322,-0.12957970798015594,-0.004996797535568476,0.0743587464094162,0.03502940759062767,-0.019319960847496986,0.09321961551904678,0.0679469034075737,-0.12428873777389526,0.010960663668811321,0.07974887639284134,0.08975062519311905,-0.08379926532506943,-0.08704380691051483,-0.15084530413150787,0.05309082567691803,-0.08365259319543839,-0.0918831005692482,-0.049341075122356415,0.01153633650392294,-0.06236911937594414,-0.07492482662200928,-0.08302165567874908,-0.045568305999040604,-0.07748579233884811,0.08923003077507019,-0.22369801998138428,0.03776299208402634,-0.07023970782756805,-0.03958892822265625,0.052994538098573685,0.06308901309967041,0.02659633941948414,-0.11346204578876495,0.05670733004808426,-0.07535217702388763,-0.0007457914762198925,-0.032388485968112946,-0.08617612719535828,0.20545588433742523,-0.24439629912376404,-0.0837281122803688,-0.10416045039892197,-0.015780268236994743,0.04823032021522522,0.05146981403231621,-0.031135739758610725,0.10480671375989914,-0.1348324418067932,0.10497847199440002,0.04154491052031517,0.11860556155443192,0.06310591101646423,0.007522182073444128,-0.030772704631090164,0.07649435102939606,-0.10099075734615326,-0.14620386064052582,0.08693902939558029,-0.03364212438464165,-0.05106506124138832,-0.006756543647497892,-0.04822130501270294,-0.10096381604671478,-0.0395754799246788,0.09676370769739151,-0.018633108586072922,0.024425286799669266,-0.1217285692691803,0.22258628904819489,0.005344665143638849,0.0019839720334857702,-0.037228260189294815,0.00906631164252758,-0.10416723042726517,-0.03109690546989441,-0.13536855578422546,-0.004387010354548693,0.0636187419295311,0.13125818967819214,-0.14533968269824982,-0.07658301293849945,0.00695074861869216,0.06948219984769821,0.05713722109794617,0.04514509066939354,-0.0848260372877121,0.16460102796554565,-0.02270357310771942,0.16933253407478333,-0.0660908967256546,-0.0316309817135334,0.0013305972097441554,-0.015754615887999535,0.04527556523680687,0.06455200165510178,-0.26527321338653564,0.005128296557813883,0.017152680084109306,0.05844283103942871,-0.0351615846157074,-0.05836470052599907,-0.10003972798585892,0.04550441354513168,0.010756180621683598,0.19488483667373657,-0.03253338113427162,0.006545545533299446,-0.02021247334778309,-0.11591342091560364,0.03198773413896561,0.0493917241692543,-0.029036009684205055,-0.08626993745565414],[-0.07316339761018753,-0.053836602717638016,-0.018495524302124977,0.03450457379221916,0.32556402683258057,0.11263886094093323,-0.03417498990893364,0.0,-0.09933565557003021,0.02250596508383751,-0.1357036530971527,-0.0406687892973423,0.10219798982143402,0.017462747171521187,0.045364540070295334,0.03647901117801666,-0.027462391182780266,0.02279774844646454,-0.10082738846540451,-0.08259247988462448,-0.1575232446193695,-0.06880432367324829,-0.015960177406668663,0.003205943154171109,0.1647670716047287,-0.0021115567069500685,0.12796656787395477,-0.0694463923573494,0.010074280202388763,0.038956865668296814,0.058323703706264496,-0.2589430510997772,0.04310893639922142,-0.0012289402075111866,0.10182996839284897,0.009053250774741173,0.0035859071649610996,-0.018343480303883553,-0.04234739765524864,0.0353948250412941,-0.022464390844106674,-0.00031193208997137845,-0.009350934997200966,0.09812981635332108,0.09711276739835739,-0.03462184593081474,-0.08770249783992767,-0.02152358926832676,-0.0072888582944869995,-0.1619318723678589,0.05264796316623688,-0.051167942583560944,-0.011007788591086864,-0.04432046785950661,-0.13082103431224823,-0.10313095152378082,0.02200452983379364,0.08520963042974472,-0.07501386851072311,0.2883715033531189,-0.08075258135795593,-0.0827653557062149,-0.10252783447504044,0.22214962542057037,-0.046812549233436584,0.08269360661506653,-0.0671975240111351,-0.08901321142911911,-0.009422948583960533,0.03725337237119675,-0.08541518449783325,0.009847844019532204,-0.06735184043645859,-0.1278277188539505,-0.025055378675460815,0.12535184621810913,0.035253554582595825,0.038766875863075256,0.05822848528623581,-0.3050096333026886,0.2250746339559555,0.08335017412900925,0.05158820003271103,-0.07098041474819183,-0.05494403839111328,-0.3959023952484131,0.2530865967273712,0.12175212055444717,0.125137597322464,0.0901218056678772,-0.09721118211746216,-0.032454028725624084,-0.011738467961549759,0.04996345937252045,0.012819163501262665,-0.20604191720485687,0.0014265403151512146,0.16240288317203522,-0.1922689825296402,-0.22163592278957367,0.0063112592324614525,-0.05905501917004585,-0.08979517966508865,-0.08758072555065155,0.044770099222660065,-0.004487754311412573,0.01207516435533762,0.15219050645828247,0.03852801397442818,-0.08198033273220062,-0.002982530277222395,-0.26426923274993896,-0.3365459740161896,-0.07832755893468857,-0.047214705497026443,-0.022125886753201485,0.17051519453525543,-0.10885284841060638,0.12209957093000412,-0.07607926428318024,-0.1561921387910843,-0.06774753332138062,0.015878945589065552,-0.1218314990401268,0.061560969799757004,-0.11254668235778809,-0.02285088039934635,-0.021564073860645294,0.12822549045085907,-0.08838346600532532,0.04165485128760338,0.02587857097387314,-0.23327501118183136,-0.11146301031112671,-0.17235705256462097,0.06164207309484482,0.01148590724915266,0.08820733428001404,0.038282714784145355,0.012974388897418976,0.01953831873834133,0.10327216237783432,-0.07916345447301865,0.07716939598321915,0.05108266696333885,-0.11581292003393173,-0.029607612639665604,-0.087166927754879,-0.1429714858531952,-0.04776817932724953,0.15413403511047363,0.06039136275649071,0.018031107261776924,-0.08749719709157944,0.02731962688267231,-0.0897100642323494,-0.09673403203487396,0.056721847504377365,-0.047105953097343445,-0.06455091387033463,-0.024101749062538147,-0.023429786786437035,-0.12228450924158096,0.02350260503590107,-0.00035207674955017865,-0.043096594512462616,-0.020505405962467194,0.0520700067281723,0.22950011491775513,-0.022941313683986664,-0.0006401013233698905,-0.15782330930233002,0.0047571673057973385,-0.04929232969880104,0.08024270087480545,-0.045260265469551086,0.012448698282241821,0.08778797090053558,0.17187191545963287,0.1759292334318161,-0.08713952451944351,-0.07221116870641708,0.05545001104474068,-0.06682988256216049,0.09099993109703064,0.1600380539894104,-0.044518157839775085,-0.03477118909358978,-0.0008856860804371536,0.045507799834012985,0.3443766236305237,-0.08837831020355225,-0.006167445331811905,0.020963013172149658,0.012613855302333832,0.05690610408782959,-0.04096405580639839,0.03643781691789627,-0.015026453882455826,-0.3306921422481537,-0.14778931438922882,-0.04353950917720795,0.06832641363143921,0.01414695754647255,-0.029284195974469185,-0.07379120588302612,-0.1372831165790558,0.06005905196070671,0.014792772009968758,-0.009271873161196709,0.048352621495723724,0.026203278452157974,-0.07128600776195526,-0.24364514648914337,0.04002290964126587,-0.042433962225914,-0.010435224510729313,0.08215877413749695,0.020383603870868683,0.08695311099290848,0.1501007229089737,-0.02612597495317459,-0.08494078367948532,0.029271822422742844,0.0342729389667511,0.13338717818260193,-0.0016084675444290042,-0.0639181137084961,-0.0282656941562891,-0.14961661398410797,0.0258211400359869,0.0745113417506218,0.0037687502335757017,-0.08836448192596436,0.015810901299118996,0.022284114733338356,-0.07523109018802643,0.0626281276345253,-0.04098200052976608,0.02742299810051918,0.009401146322488785,-0.01636669971048832,-0.14869219064712524,-0.05169856548309326,0.3060338497161865,-0.09099502861499786,-0.38223710656166077,-0.1406651884317398,0.082847960293293,-0.13236889243125916,-0.0839909017086029,0.014044014737010002,0.02457808516919613,0.00860391091555357,0.09114845842123032,-0.04666348546743393],[-0.04401080310344696,0.045831307768821716,-0.24046699702739716,-0.04495581239461899,-0.202267587184906,0.10687766224145889,-0.1241687685251236,-0.2874346971511841,0.0,0.09355678409337997,0.1069205179810524,-0.07759962230920792,-0.21946744620800018,-0.10232582688331604,-0.2145482748746872,-0.40050962567329407,-0.014148864895105362,-0.07995983958244324,0.05471261218190193,0.06825409084558487,0.10214931517839432,-0.03119613043963909,-0.191860631108284,-0.07143903523683548,0.22645394504070282,0.2158416509628296,-0.20163963735103607,-0.2674965262413025,-0.018478918820619583,-0.05969926714897156,-0.2373727560043335,0.17754331231117249,-0.07962673157453537,-0.11361901462078094,-0.17275865375995636,-0.21998362243175507,0.10210047662258148,-0.1681569516658783,0.005489664152264595,-0.04911499097943306,-0.2484927624464035,-0.2444763034582138,-0.10887166112661362,0.1697237640619278,0.07400641590356827,-0.024516921490430832,-0.0751674473285675,-0.06528563797473907,0.07091483473777771,0.09624112397432327,0.003199199680238962,0.08770722895860672,-0.05427561327815056,0.03932960331439972,0.08279214799404144,0.07927895337343216,-0.10718604922294617,-0.10262230038642883,0.29514646530151367,0.14522261917591095,-0.17379313707351685,0.019975369796156883,-0.15833322703838348,-0.0696677565574646,-0.22656917572021484,-0.1171618103981018,0.07183646410703659,0.12605531513690948,-0.010966426692903042,-0.08083387464284897,0.1987917721271515,0.0581442192196846,-0.19741763174533844,-0.35701218247413635,-0.08972640335559845,0.057929616421461105,-0.03085581213235855,-0.3843095600605011,-0.127433180809021,0.037459082901477814,0.101923868060112,0.10065627098083496,-0.21894550323486328,-0.021456489339470863,0.02770121954381466,0.2553340196609497,-0.11719955503940582,-0.14434917271137238,0.10715020447969437,-0.09681977331638336,-0.09121567755937576,-0.008884865790605545,-0.2262784242630005,-0.08703360706567764,0.07126689702272415,-0.12360023707151413,-0.09056590497493744,-0.06047724932432175,0.06811130046844482,-0.12013854831457138,-0.44018638134002686,-0.21929627656936646,0.016246749088168144,0.12660521268844604,-0.030284306034445763,0.16934162378311157,-0.2135324478149414,-0.1027090921998024,-0.44978436827659607,-0.31574544310569763,-0.08453527837991714,0.04160634055733681,0.16307726502418518,-0.14024873077869415,-0.1715460866689682,-0.023718606680631638,0.04907679930329323,0.10823599249124527,-0.1100325882434845,0.14279253780841827,0.22845885157585144,-0.22849179804325104,-0.09616261720657349,-0.014623056165874004,0.005196827929466963,-0.0455731563270092,0.04691346362233162,-0.14624780416488647,-0.1902947723865509,-0.14024576544761658,-0.12069731950759888,-0.3361800014972687,-0.046302780508995056,0.16950751841068268,0.2817153334617615,-0.0233074352145195,0.00637061195448041,-0.10148738324642181,-0.04392154514789581,-0.015727560967206955,-0.20189876854419708,0.3644583523273468,-0.06699872016906738,0.11209586262702942,-0.02480861358344555,-0.36833176016807556,0.13183218240737915,-0.1192767396569252,-0.0413835346698761,0.20886042714118958,-0.1954634189605713,0.1043904572725296,0.06046946346759796,-0.32690542936325073,-0.09505052864551544,-0.16992700099945068,-0.10690677911043167,-0.048428285866975784,-0.3243643343448639,0.09041333943605423,0.07861839979887009,0.16498017311096191,-0.14656494557857513,-0.010908165015280247,0.16485610604286194,-0.10168801248073578,-0.12149088829755783,-0.24298939108848572,-0.037974920123815536,-0.11654829233884811,-0.10197272896766663,-0.033089619129896164,-0.0087478281930089,-0.04772395268082619,0.05730883777141571,0.04729660227894783,0.08993833512067795,-0.05114886537194252,-0.3148364722728729,-0.1359206587076187,0.05359039455652237,-0.1817268282175064,-0.03803325816988945,0.0726916491985321,-0.1399165540933609,-0.095795176923275,-0.18461227416992188,-0.1004413515329361,0.06024222820997238,0.1513308435678482,-0.05883315950632095,-0.18101593852043152,-0.09191568195819855,-0.019040090963244438,-0.13392522931098938,-0.2822391390800476,-0.030817868188023567,0.1733558475971222,0.06320993602275848,-0.01899992674589157,-0.0341917909681797,-0.10014040023088455,-0.10951558500528336,-0.1577087789773941,0.1481260359287262,0.061758507043123245,-0.09959616512060165,-0.048772841691970825,-0.02117905579507351,-0.16013798117637634,0.07611802965402603,-0.27885958552360535,-0.09858245402574539,0.048312924802303314,0.115643210709095,0.1887216717004776,0.02827378362417221,0.08961368352174759,0.20359426736831665,0.2255142480134964,0.06538930535316467,-0.2602837383747101,0.09956394881010056,0.1695519983768463,-0.1930835098028183,0.07113630324602127,-0.19296744465827942,0.027493072673678398,0.15401513874530792,-0.11385760456323624,-0.08235448598861694,-0.10275741666555405,-0.1871076077222824,0.060097504407167435,-0.2628810405731201,0.16541939973831177,-0.17407548427581787,0.029156506061553955,-0.22516053915023804,-0.13000355660915375,-0.303644061088562,-0.4502183794975281,0.2364077866077423,-0.2844657599925995,-0.15330471098423004,-0.14331890642642975,-0.010133990086615086,-0.05987429618835449,-0.27797991037368774,-0.15776365995407104,-0.03549500182271004,-0.019341474398970604,0.07127860933542252,-0.00741934310644865,-0.014136417768895626,-0.12306033819913864],[-0.11295101046562195,-0.060310229659080505,0.0798431858420372,-0.19098487496376038,-0.1080860048532486,-0.04737239331007004,-0.05651313439011574,-0.20606666803359985,-0.050611160695552826,0.0,-0.11022403836250305,-0.1270468533039093,0.11035271733999252,-0.17987850308418274,-0.21546494960784912,-0.05875154212117195,-0.11983619630336761,-0.033008139580488205,-0.08623740822076797,-0.04498780518770218,-0.04114716872572899,0.12935510277748108,0.08172234892845154,0.0191072728484869,-0.1431681364774704,-0.10110603272914886,-0.1689467877149582,-0.0009079670417122543,0.013627612963318825,-0.04936201125383377,-0.06482578814029694,-0.0867139920592308,0.04011925682425499,-0.07135112583637238,0.08098170161247253,0.016406940296292305,-0.030690258368849754,-0.06601502001285553,-0.04750905558466911,-0.07953742146492004,-0.19990600645542145,-0.14381130039691925,-0.2732183337211609,-0.06110932305455208,-0.15058250725269318,0.1989385187625885,0.03778582438826561,-0.023363877087831497,-0.021186072379350662,-0.17350001633167267,-0.06777750700712204,0.08764239400625229,-0.07180247455835342,-0.08302153646945953,-0.05569709464907646,-0.19395695626735687,0.1495693325996399,-0.1177087053656578,-0.11851704865694046,-0.034827299416065216,-0.007651792839169502,-0.06461697071790695,-0.006901106797158718,-0.1681966483592987,-0.05241766571998596,0.0003494220145512372,-0.05657150596380234,0.014073752798140049,-0.15269120037555695,-0.13506010174751282,0.016084540635347366,0.19409172236919403,-0.07805953919887543,-0.10839515924453735,-0.09501510858535767,-0.0676841288805008,0.11518725752830505,-0.041194260120391846,-0.3389250338077545,0.04632442817091942,-0.10473808646202087,-0.040862418711185455,-0.06496076285839081,-0.1261216104030609,-0.01685941219329834,0.018752872943878174,0.002702853176742792,-0.0141414450481534,-0.10429036617279053,0.03790832310914993,-0.07539338618516922,-0.10170584172010422,0.02074395678937435,-0.008907589130103588,-0.13115635514259338,-0.22022846341133118,0.01512423437088728,-0.0022718554828315973,-0.11369700729846954,0.028562122955918312,-0.3227209746837616,-0.06194408982992172,0.022851040586829185,-0.112253338098526,-0.03355369716882706,-0.1171378642320633,0.023944610729813576,-0.0012005544267594814,-0.11010336875915527,-0.3150908648967743,-0.029426302760839462,0.07566872239112854,-0.08944830298423767,0.035405971109867096,-0.25100353360176086,-0.17105107009410858,0.048801030963659286,0.0072458842769265175,-0.022778600454330444,0.011288334615528584,-0.07264655828475952,-0.07020885497331619,-0.1500178873538971,-0.0044478666968643665,0.09146925061941147,0.04649893939495087,0.04112992808222771,-0.07807382941246033,-0.14890149235725403,-0.1422584503889084,-0.05626435950398445,0.0681132897734642,-0.13800956308841705,0.1194303035736084,-0.23966605961322784,-0.09500302374362946,-0.014641715213656425,-0.12003368139266968,-0.08659670501947403,-0.0956665575504303,-0.19665482640266418,-0.17437317967414856,-0.07711701840162277,-0.14479446411132812,-0.1281958520412445,-0.36181920766830444,-0.1365347057580948,-0.033715154975652695,0.0460045263171196,-0.01121615245938301,-0.08041837811470032,-0.00798176322132349,-0.13928554952144623,-0.04299647733569145,-0.08972950279712677,-0.2696091830730438,-0.004152231849730015,-0.16537527740001678,-0.13436205685138702,-0.00412687798961997,-0.013022422790527344,-0.15684539079666138,-0.2584717273712158,-0.04082106798887253,0.19125042855739594,-0.10440929234027863,-0.04193217679858208,0.09619080275297165,-0.11164074391126633,0.002950672060251236,-0.01123866718262434,0.07040811330080032,0.12789267301559448,-0.022256571799516678,0.03621063753962517,-0.0974687784910202,-0.17151831090450287,-0.27769607305526733,-0.1417674422264099,-0.2898869812488556,0.03070865385234356,-0.015575126744806767,-0.04405498877167702,-0.04952984303236008,-0.12360765784978867,-0.12060245126485825,-0.02136143483221531,-0.0471833162009716,-0.15322592854499817,0.1392294466495514,-0.18218418955802917,-0.035954225808382034,-0.28735217452049255,-0.17140206694602966,0.018743829801678658,-0.13857193291187286,-0.024921027943491936,0.03214825317263603,0.09931017458438873,0.0879657194018364,-0.020590275526046753,-0.08139202743768692,-0.1486702561378479,-0.32488593459129333,-0.13875441253185272,-0.07337358593940735,-0.04830633103847504,0.0035462251398712397,-0.07405658811330795,-0.06664589047431946,0.10002539306879044,-0.09207380563020706,-0.009421526454389095,-0.02085534669458866,-0.16997727751731873,0.0007813210249878466,-0.0713912844657898,-0.06679666042327881,0.060979101806879044,-0.12335730344057083,-0.11188908666372299,-0.05116168037056923,0.0906744971871376,-0.10848358273506165,0.06916214525699615,0.08437817543745041,-0.08857261389493942,-0.0774320587515831,0.1332675963640213,-0.08287005126476288,-0.09719766676425934,0.00926242209970951,-0.23944424092769623,-0.09153866022825241,-0.06519992649555206,-0.11855411529541016,-0.04725503548979759,0.04058047756552696,-0.09318520128726959,-0.1537688970565796,-0.09869261831045151,0.2049054056406021,-0.019965438172221184,-0.04128757491707802,-0.18188323080539703,0.042890410870313644,0.0343342199921608,-0.05948978289961815,-0.10741317272186279,-0.09878015518188477,0.12246118485927582,-0.1849246472120285,0.19642603397369385,-0.06540695577859879,-0.09144030511379242,-0.0328991524875164],[-0.04456951096653938,0.05147911235690117,0.042076293379068375,-0.32213321328163147,0.02052609995007515,0.057620733976364136,-0.017589770257472992,0.028436901047825813,0.13735748827457428,-0.031647976487874985,0.0,0.05830487981438637,-0.12056825309991837,-0.21779747307300568,-0.12771187722682953,-0.15184715390205383,-0.0014726542867720127,-0.010063746012747288,-0.03428845480084419,0.02215973287820816,-0.023891661316156387,-0.016963567584753036,-0.0456913597881794,-0.002716710325330496,-0.03864816203713417,0.021178537979722023,-0.026699639856815338,-0.16998760402202606,-0.005683616269379854,0.18060185015201569,-0.053727757185697556,0.10447986423969269,0.19604554772377014,0.03973378241062164,0.021947797387838364,-0.24482281506061554,-0.024655070155858994,-0.19436588883399963,0.07091870158910751,0.026947123929858208,0.05479186028242111,-0.02653615176677704,0.055348172783851624,-0.100600965321064,0.11815883964300156,0.05669190734624863,-0.01164030097424984,0.005001083016395569,0.0635848343372345,-0.03817720711231232,0.21913038194179535,0.08238627016544342,0.030993575230240822,-0.027950534597039223,0.02145599015057087,0.04640568792819977,0.0010504989186301827,-0.13273996114730835,0.13527363538742065,0.11402356624603271,-0.009033101610839367,0.07700182497501373,0.03442957624793053,0.03183388337492943,0.0398651659488678,-0.07708606123924255,0.11085585504770279,-0.0588672012090683,0.024379944428801537,-0.2060854285955429,-0.03211740031838417,-0.026704642921686172,-0.27576789259910583,-0.061940427869558334,0.021090533584356308,-0.005525948945432901,-0.017918797209858894,0.07409562915563583,0.013372891582548618,0.08931034803390503,-0.026604512706398964,0.14542460441589355,0.05453214421868324,0.057503603398799896,0.031387876719236374,0.008836071938276291,0.05649300664663315,0.07845957577228546,0.11701923608779907,0.14429110288619995,-0.07384989410638809,-0.02097262069582939,-0.021255576983094215,0.014526920393109322,-0.12294217199087143,-0.24343131482601166,0.037697263062000275,0.18873174488544464,-0.0378698892891407,0.018210463225841522,-0.01903146505355835,0.005038221832364798,0.10233775526285172,-0.06161540001630783,-0.02025190182030201,-0.03373998776078224,0.09199762344360352,-0.04677089303731918,-0.13178947567939758,0.15372277796268463,0.09425146132707596,-0.1377636045217514,-0.016712503507733345,0.14035461843013763,-0.23447638750076294,-0.0887937843799591,-0.14475569128990173,0.03162519261240959,-0.010985792614519596,-0.01104999240487814,-0.02570599876344204,-0.045433953404426575,-0.019103432074189186,0.05210770666599274,-0.11136280745267868,0.016363773494958878,-0.08988787233829498,0.05032949522137642,0.027543026953935623,-0.16184529662132263,0.02856910601258278,0.2302650660276413,-0.03637837618589401,-0.09032892435789108,0.060335539281368256,0.036318063735961914,-0.023775998502969742,-0.18285149335861206,-0.07606767863035202,0.05245966836810112,-0.1663467288017273,0.09371925890445709,0.035071223974227905,-0.006742462981492281,-0.16340778768062592,-0.1043400764465332,0.04107680544257164,0.2500564754009247,0.06997846066951752,0.12848983705043793,0.10463221371173859,0.0819222554564476,0.05101555585861206,-0.0862562507390976,-0.039244264364242554,-0.07607768476009369,0.03411732241511345,0.05884788930416107,-0.045567337423563004,0.08540350943803787,0.011387129314243793,0.0968475416302681,-0.1633370965719223,0.05047956854104996,-0.005170605611056089,0.11436482518911362,0.03965744748711586,0.025656109675765038,0.15047825872898102,-0.006943924818187952,0.02426236681640148,0.04278688132762909,-0.052435461431741714,-0.06904187798500061,-0.13476012647151947,0.17979353666305542,-0.004097374621778727,0.0658465325832367,-0.05465712770819664,0.12773922085762024,-0.10993993282318115,0.016558893024921417,0.0021074258256703615,0.0692211166024208,0.01754024811089039,0.056981880217790604,-0.024772487580776215,0.049036309123039246,-0.09625999629497528,0.009375779889523983,0.06083109229803085,-0.0578446239233017,-0.207034170627594,0.10218238830566406,0.08491569757461548,-0.2088920921087265,-0.03705940768122673,0.11576439440250397,-0.0864577442407608,0.22238951921463013,0.08162396401166916,-0.07383041083812714,0.12168781459331512,-0.20445241034030914,-0.048613354563713074,0.05180799216032028,0.08082247525453568,0.0641796812415123,0.08107946813106537,0.06957057118415833,0.09161641448736191,-0.08191867172718048,-0.016157986596226692,-0.01800125278532505,0.07109163701534271,0.028597213327884674,0.05936949700117111,0.1027068942785263,-0.1019236147403717,0.07484392076730728,0.031845513731241226,0.06935787200927734,0.08149503916501999,-0.00779918534681201,0.07291202247142792,-0.06329221278429031,0.20503994822502136,0.011144195683300495,-0.10646416246891022,-0.10139825940132141,-0.0016293370863422751,0.061339616775512695,-0.14470680058002472,0.04216080158948898,0.06187106668949127,0.025872914120554924,0.025318879634141922,-0.11337510496377945,-0.012966645881533623,-0.005462038796395063,-0.2472812384366989,0.3149462342262268,-0.10412352532148361,-0.09792644530534744,0.12450701743364334,-0.06236005201935768,0.17981350421905518,-0.1081661805510521,0.0532059371471405,0.04235318675637245,-0.03652603551745415,-0.07482721656560898,-0.10310233384370804,-0.12003358453512192,-0.10815147310495377,0.11005665361881256],[0.10622752457857132,-0.16760116815567017,0.08500787615776062,0.07940452545881271,-0.07392869889736176,0.10814804583787918,0.08118714392185211,-0.18873430788516998,0.13911502063274384,-0.0761403739452362,0.15002669394016266,0.0,-0.023793546482920647,-0.014723207801580429,0.05245635658502579,0.03076694905757904,-0.08226803690195084,0.01782193034887314,-0.0022896588779985905,-0.05648938566446304,-0.10554280132055283,0.01257550809532404,0.031225064769387245,0.017376085743308067,-0.06159002706408501,0.021033046767115593,-0.08859176188707352,0.09636225551366806,-0.05796002596616745,0.20278215408325195,-0.023763582110404968,0.17191848158836365,0.2621656656265259,0.01639346219599247,-0.10843083262443542,0.07114625722169876,0.07663209736347198,-0.04054004326462746,-0.07150183618068695,0.039355114102363586,-0.010179059579968452,0.019706981256604195,-0.09800130873918533,-0.13552133738994598,0.0950423926115036,-0.26380813121795654,0.028061429038643837,0.0060952636413276196,-0.013969354331493378,0.15154483914375305,-0.026788834482431412,-0.07449758797883987,-0.011280253529548645,-0.08723175525665283,-0.10971275717020035,0.15901511907577515,-0.13647277653217316,0.20021934807300568,0.09577899426221848,0.13312344253063202,0.21169979870319366,0.13715358078479767,0.15903154015541077,-0.09338563680648804,0.13093312084674835,-0.014085670933127403,0.004110401030629873,-0.12644165754318237,0.016131209209561348,-0.027531705796718597,0.09966782480478287,-0.06760796159505844,0.12752892076969147,0.01137053593993187,-0.042282041162252426,0.1320790797472,0.04174420237541199,0.16484153270721436,0.042643528431653976,0.16179433465003967,0.0114718833938241,-0.1003328189253807,-0.17503102123737335,0.20928221940994263,-0.21341443061828613,-0.05518148094415665,0.08298217505216599,-0.07482419908046722,-0.009584044106304646,0.22154316306114197,0.03597632050514221,-0.05581346154212952,0.13773711025714874,0.023959165439009666,-0.08520618826150894,0.010883904062211514,-0.07427173852920532,0.014939198270440102,0.029838722199201584,0.017794910818338394,-0.06872927397489548,-0.04184926673769951,0.07315164804458618,-0.14346307516098022,0.2664599120616913,0.02357710897922516,-0.011059724725782871,-0.11286631971597672,-0.07249898463487625,-0.0005431671161204576,-0.04159712418913841,0.13649755716323853,0.1343182623386383,0.07868911325931549,0.06247493997216225,-0.003395739709958434,0.048246972262859344,0.09637727588415146,0.07359455525875092,0.15571877360343933,-0.061033837497234344,-0.05937756970524788,-0.0009403367293998599,0.09502795338630676,0.11095085740089417,-0.0011842610547319055,-0.07813454419374466,0.2327871173620224,0.046493157744407654,-0.04589705541729927,0.007926220074295998,-0.08714258670806885,-0.09937285631895065,0.03411559388041496,-0.04599979147315025,-0.00398365268483758,0.1407029777765274,-0.03874989598989487,-0.1257309764623642,0.14322780072689056,-0.06795063614845276,-0.06071492284536362,-0.08782260864973068,-0.018114406615495682,-0.15674713253974915,-0.04519689455628395,0.032324835658073425,0.05876583606004715,-0.013212354853749275,-0.08533088117837906,-0.035439200699329376,0.023433081805706024,0.15975676476955414,-0.03092809021472931,-0.02374734729528427,-0.14127233624458313,-0.04483439400792122,0.02772076614201069,-0.1304813027381897,-0.14810678362846375,-0.0695236474275589,-0.0581512413918972,-0.030916469171643257,0.15623193979263306,-0.11200401186943054,-0.013270067051053047,0.27291205525398254,0.08061879873275757,-0.18219123780727386,-0.02501019649207592,-0.052817605435848236,0.006188652478158474,0.08760103583335876,0.03348176181316376,0.03166552633047104,-0.0030882898718118668,0.01121243555098772,-0.05730719864368439,0.09396611899137497,0.0085597587749362,0.1670607179403305,0.08225598931312561,-0.05412645265460014,-0.08360261470079422,-0.04252041131258011,0.052195485681295395,0.10765272378921509,0.09131542593240738,-0.1673326939344406,-0.03804554417729378,-0.12545795738697052,0.09954716265201569,0.041102729737758636,0.055488552898168564,0.05498942732810974,-0.1264045387506485,-0.11148559302091599,-0.04124809801578522,0.0689006894826889,-0.17212238907814026,0.045560263097286224,0.0676688402891159,-0.08665577322244644,0.011424494907259941,0.08002156764268875,-0.08331577479839325,-0.20764437317848206,0.26704490184783936,0.03573710843920708,0.07612203806638718,0.04480774328112602,0.13345803320407867,0.05697799474000931,0.057172853499650955,-0.05025124549865723,-0.1191827729344368,-0.08391294628381729,0.05537548288702965,0.04603642225265503,0.03386194631457329,0.08114136755466461,0.037358593195676804,-0.025794172659516335,0.0021254473831504583,-0.07254516333341599,-0.008200977928936481,0.07170706242322922,0.0982942059636116,-0.15032105147838593,-0.07323343306779861,-0.022900758311152458,0.013205824419856071,-0.09320434927940369,0.09552960097789764,0.05217950418591499,-0.05484987050294876,0.0935693085193634,-0.0745537132024765,0.0005251032998785377,-0.022872354835271835,-0.013444886542856693,0.03207811340689659,0.05349447950720787,0.0313483290374279,-0.07579232007265091,-0.0891522690653801,-0.020617904141545296,-0.07812967896461487,-0.08571688085794449,0.0437094122171402,-0.16767515242099762,0.08646032214164734,0.01919374242424965,-0.024975119158625603,-0.010653628967702389,0.03773948550224304],[0.06190589815378189,-0.04115507751703262,0.06811978667974472,-0.14116045832633972,-0.004757336340844631,-0.07373713701963425,0.16704581677913666,-0.12416832149028778,-0.0008664866327308118,0.08702404052019119,0.033720992505550385,-0.03473493084311485,0.0,-0.4024728238582611,-0.18576262891292572,0.15678216516971588,0.009997180663049221,0.15797187387943268,-0.05449515953660011,-0.05284392088651657,0.16412192583084106,0.004981597885489464,0.013720058836042881,-0.10540898889303207,-0.1701117753982544,-0.021411703899502754,0.1218864843249321,-0.04266409948468208,-0.03254374861717224,0.16267013549804688,-0.04494983330368996,-0.13519619405269623,0.12445619702339172,0.04629950970411301,0.004035302437841892,-0.10595840215682983,-0.005224095191806555,-0.04466647654771805,-0.06407830864191055,0.030206499621272087,-0.08323881775140762,-0.11810310184955597,-0.519871711730957,-0.0706833004951477,-0.08303229510784149,-0.09520299732685089,-0.1410955786705017,0.11881046742200851,-0.015267064794898033,-0.15084928274154663,0.20272371172904968,-0.07990521937608719,0.08030164241790771,-0.13170503079891205,-0.01107230968773365,-0.21730872988700867,0.13808313012123108,0.10181093961000443,-0.04529708996415138,0.03963007032871246,0.043122872710227966,0.024945469573140144,-0.2453060746192932,-0.12442455440759659,-0.021651212126016617,-0.09243425726890564,0.10007259994745255,0.09317101538181305,-0.16495725512504578,-0.3387952148914337,0.005162918474525213,0.01679198071360588,-0.2656664550304413,-0.10956233739852905,0.07028645277023315,-0.048830658197402954,0.104172483086586,0.10190428793430328,-0.2817078232765198,-0.030000515282154083,0.06906156241893768,0.14230026304721832,-0.20070664584636688,-0.17797090113162994,-0.03520430997014046,0.0501524992287159,-0.07329550385475159,-0.07956721633672714,-0.062394969165325165,-0.018965713679790497,-0.27891281247138977,-0.13492441177368164,0.18984222412109375,-0.054906126111745834,0.004698033444583416,-0.22521592676639557,-0.2141403704881668,0.002513694344088435,-0.15601110458374023,0.018629971891641617,-0.5408580303192139,-0.028532523661851883,-0.09137924015522003,0.07552234828472137,0.1537839025259018,-0.060548704117536545,0.0998709574341774,-0.03401569277048111,0.07573150843381882,-0.40621286630630493,-0.0870577022433281,-0.10988151282072067,-0.21010783314704895,0.13412804901599884,-0.14758256077766418,-0.21605271100997925,0.06446373462677002,0.032784461975097656,0.10132846236228943,0.008681408129632473,-0.05000683292746544,0.006765495054423809,-0.1172691360116005,0.09045977890491486,0.024168720468878746,0.10615473240613937,-0.020666761323809624,0.15737618505954742,0.08290743827819824,-0.07085856795310974,-0.09331756830215454,0.20903387665748596,-0.0637512281537056,-0.005931911524385214,-0.10571039468050003,-0.02379080094397068,-0.013500847853720188,-0.045326512306928635,0.012149771675467491,-0.10026245564222336,-0.12143530696630478,-0.02022179402410984,0.155298113822937,-0.10829088091850281,-0.020153077319264412,-0.3524964451789856,-0.10990607738494873,0.19346773624420166,0.14096663892269135,0.0985335111618042,0.003631353611126542,0.02298818901181221,0.07224694639444351,-0.19327281415462494,-0.01717904396355152,-0.34794068336486816,0.16380034387111664,-0.1396084576845169,-0.11057699471712112,-0.13193446397781372,0.06036921963095665,-0.005145688075572252,-0.18073244392871857,0.04462995380163193,0.14386890828609467,-0.005890440195798874,-0.07939248532056808,-0.09424767643213272,-0.10067418217658997,0.10664009302854538,0.04260582476854324,0.12450861185789108,0.08657827228307724,-0.29676637053489685,0.050742436200380325,0.03617599606513977,-0.026893896982073784,-0.0026940463576465845,0.14471390843391418,-0.09085185080766678,