{"params":{"dropout_prob":0.0,"l2_weight_decay":0.0,"l2_weight_decay_params":[],"l1_weight_decay":0.0,"l1_weight_decay_params":[],"reg":0.001,"learning_rate":"0.001,0.0001","n_epochs":"80,20","n_attack_steps":10,"beta_robustness":0.125,"seed":0,"n_hidden":256,"n_layer":1,"batch_size":100,"boundary_loss":"kl","treat_as_constant":false,"dt":1.0,"tau":20.0,"beta":2.0,"tau_adaptation":98.0,"thr":0.01,"thr_min":0.005,"refr":2,"dampening_factor":0.3,"sample_rate":16000,"eval_step_interval":400,"attack_size_constant":0.0,"initial_std_constant":0.0,"attack_size_mismatch":0.2,"initial_std_mismatch":0.001,"clip_duration_ms":1000,"window_size_ms":30.0,"window_stride_ms":10.0,"preprocess":"mfcc","feature_bin_count":40,"in_repeat":1,"n_thr_spikes":-1,"optimizer":"adam","data_dir":"ECG\/ecg_recordings\/","session_id":6382531524,"desired_samples":16000,"window_size_samples":480,"window_stride_samples":160,"length_minus_window":15520,"spectrogram_length":100,"average_window_width":-1,"fingerprint_width":2,"fingerprint_size":3920},"rng_key":[2946623204,1430609534],"theta":{"W_in":[[-0.004605899564921856,0.03730932995676994,0.0779481753706932,-0.05576648190617561,-0.0119279520586133,0.14405740797519684,0.07622501999139786,0.06094854697585106,0.091330885887146,-0.16602098941802979,-0.004215020686388016,-0.08637507259845734,0.009560073725879192,-0.021171513944864273,-0.11006137728691101,0.01069620531052351,0.07039950788021088,-0.17857851088047028,0.12534068524837494,0.002401061588898301,-0.08181267231702805,-0.05046037212014198,0.07225829362869263,-0.17970417439937592,0.109151691198349,-0.011009733192622662,0.12419476360082626,0.041460759937763214,-0.08775734156370163,0.18506182730197906,0.03284357115626335,0.07498780637979507,0.048505689948797226,0.16087977588176727,-0.010624666698276997,-0.09383238852024078,-0.016065308824181557,-0.0012085961643606424,0.11147241294384003,-0.12153089046478271,0.012611941434442997,0.07834958285093307,0.13805855810642242,0.011602023616433144,-0.12181644886732101,-0.09989974647760391,0.13325946033000946,0.1318172812461853,-0.12701821327209473,-0.05648128315806389,0.09031202644109726,0.1707475334405899,-0.13707184791564941,0.07170412689447403,0.10871651768684387,-0.06280648708343506,0.09016411006450653,-0.11940806359052658,-0.16251833736896515,0.005478356499224901,-0.024988994002342224,0.1772301346063614,0.18545788526535034,0.11228415369987488,-0.01165448036044836,-0.25000324845314026,-0.10597880184650421,-0.045409638434648514,0.06877451390028,-0.0012263829121366143,-0.09576117247343063,-0.01436944305896759,0.06810048967599869,-0.0003847524931188673,-0.02437882125377655,-0.04570487514138222,0.06841715425252914,-0.061369627714157104,-0.1056680828332901,0.10735266655683517,-0.04689043015241623,-0.17743125557899475,0.09751872718334198,-0.07774969190359116,0.10914871096611023,0.07280553877353668,-0.08431822806596756,0.03475389629602432,0.08831610530614853,-0.09777501970529556,0.1404857337474823,0.05832810699939728,-0.15247291326522827,0.08267783373594284,-0.06943291425704956,-0.028367500752210617,-0.13094380497932434,-0.050869327038526535,0.029131099581718445,0.2526734471321106,0.06104196608066559,-0.16365869343280792,-0.024013331159949303,0.09714317321777344,0.07169520109891891,0.04813959449529648,-0.00597549881786108,0.029106223955750465,0.10499519854784012,0.06721754372119904,0.09668269008398056,0.045038118958473206,-0.006248475983738899,-0.08501753956079483,0.08220444619655609,-0.022744040936231613,-0.012156536802649498,0.27681341767311096,0.20433516800403595,0.04122238606214523,0.060317691415548325,0.11814500391483307,0.013130753301084042,0.14081235229969025,0.15067684650421143,0.19501565396785736,-0.023253245279192924,0.14858558773994446,-0.09372352063655853,0.034759681671857834,0.10364977270364761,-0.020264308899641037,-0.03506365418434143,-0.03939453139901161,0.1979723572731018,0.09910260140895844,-0.1483086496591568,0.08356305211782455,0.007531100418418646,0.16697627305984497,-0.08227277547121048,0.03367934376001358,0.040978919714689255,-0.000575768353883177,-0.03677044063806534,-0.030269687995314598,0.18252184987068176,-0.13901151716709137,-0.10940727591514587,0.08312707394361496,0.08399156481027603,0.21460862457752228,-0.006952132098376751,0.007626377511769533,0.10523270815610886,-0.05098435655236244,-0.13624581694602966,0.05825080722570419,-0.015048344619572163,-0.0237321425229311,-0.11353882402181625,-0.002086381195113063,-0.005936855915933847,-0.05830785259604454,-0.011840546503663063,0.15262240171432495,-0.12138478457927704,0.05632063373923302,0.0040138657204806805,0.1965097039937973,0.11165984719991684,0.048956528306007385,0.0947733223438263,0.09241251647472382,0.03326749801635742,-0.23152890801429749,-0.07208414375782013,0.06292156875133514,0.025406446307897568,-0.032805752009153366,0.16638503968715668,-0.1256396323442459,0.04167385771870613,0.03376733139157295,0.10155531764030457,-0.1011769250035286,0.03878650441765785,0.02701161988079548,0.019671844318509102,0.07520339637994766,0.12776252627372742,-0.045584358274936676,-0.09239496290683746,-0.017277797684073448,0.08438795059919357,0.1837136149406433,0.057821132242679596,-0.06071018427610397,-0.07059697061777115,0.11466755717992783,0.16212141513824463,-0.11075017601251602,0.00040847330819815397,-0.18783564865589142,-0.11078066378831863,0.18668676912784576,-0.042617157101631165,-0.12291395664215088,-0.10700676590204239,0.05557193607091904,-0.012181537225842476,0.14588287472724915,0.0771075189113617,0.00086935143917799,-0.13211970031261444,0.023461179807782173,0.10556301474571228,0.11436352878808975,0.07761234790086746,0.10432453453540802,-0.12467188388109207,0.15209463238716125,-0.049174558371305466,0.1075269803404808,-0.17296843230724335,-0.16010652482509613,-0.06318925321102142,0.18275311589241028,-0.11612612754106522,0.06195423752069473,0.13052290678024292,0.058292970061302185,0.07676666229963303,0.16740329563617706,0.0601377971470356,-0.004417076241225004,-0.07980886846780777,0.03479953855276108,-0.0490533784031868,-0.10333311557769775,0.06846942752599716,-0.018796410411596298,0.01740170456469059,0.07126902788877487,0.06165575981140137,-0.08904271572828293,0.011727986857295036,0.12336552888154984,0.15168938040733337,-0.08561345934867859,-0.16593188047409058,-0.06916799396276474,-0.07935759425163269,0.09533588588237762,-0.046594858169555664,0.023315411061048508],[-0.2033131867647171,0.18620547652244568,-0.012571304105222225,0.015184049494564533,0.1369663029909134,0.12193082273006439,-0.1876281350851059,0.19866378605365753,0.19612818956375122,-0.041684024035930634,0.11292394995689392,-0.05573289096355438,-0.0058534168638288975,-0.0008863559924066067,0.044176071882247925,-0.07964819669723511,0.028594614937901497,0.29354557394981384,0.2465076893568039,0.07861394435167313,0.003204604145139456,0.04925626888871193,0.18661727011203766,0.03654724359512329,0.1965608298778534,0.011127598583698273,0.060395773500204086,0.04744018614292145,0.009965927340090275,-0.02182314172387123,-0.07409980148077011,0.12307237833738327,-0.10579857975244522,0.2597365081310272,0.11755319684743881,-0.05688902735710144,-0.08995435386896133,-0.020684098824858665,-0.13535349071025848,-0.06907963752746582,-0.11114032566547394,-0.09768486768007278,-0.1522047370672226,0.020988764241337776,-0.05152227729558945,-0.17197030782699585,-0.09545808285474777,-0.09357208758592606,-0.14040106534957886,-0.06271041929721832,0.11327093094587326,-0.11682780832052231,0.03709022328257561,-0.02787972427904606,0.12493371963500977,-0.11318682879209518,0.03968663513660431,-0.08492033928632736,-0.2003995031118393,0.06522472947835922,0.0349978543817997,0.009667162783443928,-0.0035815751180052757,0.20389367640018463,-0.018045365810394287,-0.07949095964431763,-0.17268742620944977,0.021574590355157852,0.09307890385389328,-0.11820495873689651,0.03331974148750305,0.027275776490569115,-0.03447294980287552,-0.00033299639471806586,-0.007019946817308664,-0.05690460279583931,0.12376376241445541,0.20564574003219604,-0.042056795209646225,0.17812825739383698,-0.07613922655582428,-0.23787005245685577,0.25988033413887024,-0.16831941902637482,0.1773500144481659,0.13679252564907074,0.009773273952305317,-0.21108044683933258,0.21267375349998474,-0.08532148599624634,-0.13465647399425507,0.16992942988872528,0.01858685165643692,0.14804917573928833,0.0693926140666008,-0.010080133564770222,-0.028968367725610733,-0.06580600887537003,0.12034003436565399,-0.028832880780100822,-0.030745739117264748,-0.03684919700026512,0.008283997885882854,0.1525813639163971,-0.18520639836788177,0.14083725214004517,0.005558028817176819,0.14033377170562744,0.1427452564239502,-0.14996790885925293,-0.1935073435306549,0.17611724138259888,0.012070930562913418,-0.18289484083652496,0.08418216556310654,-0.1645772010087967,-0.027125919237732887,-0.11282079666852951,-0.04613489657640457,0.13781975209712982,-0.045988067984580994,-0.07548683881759644,-0.017129411920905113,-0.06666665524244308,-0.035633452236652374,-0.054697103798389435,0.0483081117272377,-0.03806696832180023,-0.07379614561796188,0.2399178147315979,0.11718132346868515,0.15931622684001923,0.02651119977235794,-0.010173588991165161,0.0010544771794229746,-0.1269928365945816,-0.1174435093998909,-0.05466284230351448,-0.08590415865182877,0.04598444327712059,-0.027964068576693535,0.016669807955622673,-0.03289254009723663,0.10888928174972534,0.03176264092326164,0.03907757252454758,-0.1451447457075119,-0.1974344700574875,-0.021955447271466255,0.1727312058210373,0.1825033724308014,0.03423377498984337,-0.03835082799196243,-0.004772489424794912,0.2139188051223755,0.001166151138022542,0.024388745427131653,0.04087124764919281,0.1451561450958252,0.1631753295660019,-0.13774371147155762,0.09110821038484573,0.013989093713462353,0.027172043919563293,-0.0005723045906051993,0.22931337356567383,0.041752442717552185,0.0707041472196579,0.14995375275611877,0.021918417885899544,0.20727744698524475,-0.08352555334568024,-0.01359266135841608,-0.10143258422613144,0.0551176443696022,0.04060673713684082,-0.058103617280721664,0.1372421830892563,0.1270633339881897,-0.011075952090322971,0.17925074696540833,0.02062772586941719,0.2247464507818222,0.038055144250392914,0.2717556655406952,-0.007732147816568613,-0.17892049252986908,0.11925718188285828,0.03237078711390495,0.08919072151184082,0.24143987894058228,-0.07826725393533707,-0.0037958782631903887,0.017279354855418205,-0.07438171654939651,0.1030070036649704,0.13311892747879028,-0.17249800264835358,0.01619129441678524,0.21913577616214752,0.28724732995033264,-0.033029425889253616,0.07967830449342728,0.048718683421611786,-0.07252798229455948,0.06022447720170021,-0.0934581458568573,-0.008650519885122776,0.016427412629127502,-0.06651749461889267,-0.08573508262634277,0.04522912576794624,0.18025115132331848,-0.0009305530693382025,-0.08214626461267471,-0.21199959516525269,0.21573956310749054,0.03243768587708473,0.104700967669487,0.18062299489974976,-0.010744736529886723,-0.05983664095401764,0.02905314601957798,-0.16270166635513306,-0.015112582594156265,0.028800437226891518,-0.058359742164611816,-0.19665829837322235,0.034106891602277756,-0.12640836834907532,-0.11829343438148499,-0.04883585497736931,-0.10987415164709091,0.05476167052984238,-0.07047716528177261,0.02971811592578888,-0.1939513385295868,0.0643063336610794,-0.022979406639933586,-0.028315626084804535,0.06698087602853775,0.0007947787526063621,0.13427068293094635,0.17561446130275726,0.09275413304567337,0.013471507467329502,0.14651630818843842,0.06737222522497177,0.20803111791610718,0.0356447771191597,-0.02048039622604847,0.17190638184547424,-0.03254688158631325,-0.1698656678199768,0.007839960046112537,0.0029145979788154364]],"W_out":[[-1.0163594484329224,-1.0779411792755127,0.2311250865459442,0.30815133452415466],[-0.2659342885017395,-1.9735562801361084,1.5842517614364624,-0.032937075942754745],[1.8430355787277222,-0.9603406190872192,-0.36796969175338745,-1.2500433921813965],[-0.6992311477661133,-1.0854960680007935,1.793747901916504,-0.80698561668396],[-0.9191866517066956,0.4641340672969818,-1.4331800937652588,0.0005647703073918819],[1.0051921606063843,-1.1549630165100098,0.3329629600048065,-1.4695146083831787],[-1.183135986328125,0.4435460865497589,0.0006080874009057879,-0.0001647483732085675],[-0.3482538163661957,-0.007653246633708477,-1.58734130859375,0.37388455867767334],[-0.03850411996245384,2.577195644378662,-1.4750925302505493,-1.5954090356826782],[1.8033915758132935,-1.7217196226119995,-0.840591549873352,-0.37954214215278625],[4.154684575041756e-5,-2.848874568939209,0.056080177426338196,4.5053253415971994e-5],[1.496610164642334,-1.7407174110412598,-0.5461753010749817,-0.1017458513379097],[-1.0656096935272217,-1.0974913835525513,1.6588536500930786,-0.4067367911338806],[1.212989091873169,-1.4476412534713745,0.00018675222236197442,-1.5126806497573853],[-1.030129313468933,-0.22064004838466644,-0.8442692160606384,1.3551133871078491],[-1.4841105937957764,1.0941698551177979,-1.3696345090866089,-1.60446379595669e-5],[0.5984891057014465,-0.0006838749977760017,0.00017473539628554136,-0.00023471255553886294],[-0.8160829544067383,2.946644599433057e-6,-2.49009108543396,0.9404656291007996],[-0.0002739958290476352,-2.168781042098999,0.9065118432044983,0.00025191696477122605],[-0.001529335742816329,-2.0179858207702637,0.09022766351699829,0.001378705957904458],[1.0758415460586548,-0.16804775595664978,-0.3303062915802002,-0.7868545055389404],[-1.5790493488311768,1.4007971286773682,-1.4677752256393433,-0.3053421676158905],[0.00011166144395247102,-1.7930811643600464,0.26273074746131897,-1.9671369955176488e-6],[-1.559253215789795,-0.0010963502572849393,-1.5713013410568237,1.7193385362625122],[-0.036283496767282486,2.1751744747161865,0.022490115836262703,-1.7502262592315674],[-1.5396181344985962,-0.00032675714464858174,-0.7308060526847839,0.729207456111908],[-1.4554558992385864,-0.0005968075711280107,-1.0658875703811646,0.25268062949180603],[1.0128878355026245,0.45188555121421814,-1.0640220642089844,-1.2617515325546265],[-1.6751456260681152,-0.07256598770618439,1.2245423793792725,-0.0006443478632718325],[0.31747177243232727,-0.00017193028179463,-2.530876636505127,0.0005115637904964387],[-2.0115673542022705,5.148069976712577e-5,-1.6371641159057617,0.1930767297744751],[0.5192332863807678,-2.2066562175750732,0.000266487302724272,-0.00013800627493765205],[-0.5080309510231018,1.4987298250198364,-1.3902548551559448,-0.7847891449928284],[-1.535786747932434,-0.17145022749900818,-0.3195175528526306,0.5309607982635498],[-1.2152026891708374,1.3470114469528198,-1.3472384214401245,-0.4075407087802887],[1.3885893821716309,-0.008042948320508003,-0.7338162660598755,-1.2660425901412964],[0.6669008731842041,-2.3352713584899902,3.653945532278158e-5,-0.00014137011021375656],[-1.2058266401290894,-0.8527284860610962,1.9922209978103638,-1.1922613382339478],[-1.5905643701553345,-0.0009305548737756908,0.00043807851034216583,0.36237040162086487],[1.8079198598861694,-1.6502649784088135,-0.8366425633430481,-0.6471130847930908],[-1.345816969871521,0.8936214447021484,-2.8284590244293213,6.127137112343917e-6],[-1.9047635793685913,1.7465248674852774e-5,-1.4548944234848022,0.3447105586528778],[-0.8345896601676941,-0.02335328236222267,0.00022186666319612414,0.16265644133090973],[0.02571653574705124,-0.5539388656616211,0.14284440875053406,-0.1361279934644699],[-1.0499402284622192,-0.11071044951677322,1.6956911087036133,-1.1450986862182617],[0.654899537563324,-0.3449275493621826,0.00017693669360596687,-0.0007511631119996309],[-1.268242359161377,0.8737931251525879,-1.8831815719604492,-0.00010633812053129077],[-2.6306841373443604,-0.0001829049870138988,0.04778524115681648,0.03379109501838684],[8.029567106859758e-5,-0.9349357485771179,1.0366599559783936,-0.00019165035337209702],[1.0907866954803467,-0.0005254909046925604,-0.1554071456193924,-1.302628517150879],[0.4636843204498291,-1.4176568984985352,0.0006960381870158017,-0.0006639260100200772],[0.1461629718542099,0.06547360122203827,-0.1718197613954544,-0.12909603118896484],[-2.297322988510132,-0.00030333170434460044,-0.8083654642105103,0.8800626397132874],[-2.4647791385650635,-1.6782370805740356,1.262777328491211,0.06324153393507004],[0.0004800618044100702,-1.8745509386062622,0.5272012948989868,-0.0002023017150349915],[1.7273051738739014,-1.2666099071502686,-0.6256720423698425,-1.005710482597351],[-1.0138049125671387,0.877545177936554,-0.8731421232223511,-0.06605342775583267],[1.5012694597244263,-1.7482153177261353,-0.36671820282936096,-0.4013049602508545],[-0.09301301091909409,-1.2522448301315308,1.2401326894760132,3.90224413422402e-5],[-3.592219114303589,2.822920083999634,-1.9347424507141113,-1.1593061685562134],[-1.0550988912582397,1.2643550634384155,-0.6851725578308105,-0.28353583812713623],[0.27531805634498596,0.9375188946723938,-1.8938872814178467,-0.3715207278728485],[-0.9778004288673401,0.08275579661130905,-1.244638442993164,0.00033376802457496524],[-2.150162935256958,0.7042828798294067,-2.0629940032958984,8.87269270606339e-5],[-1.6259735822677612,-0.9145824313163757,1.5955747365951538,-0.0010830623796209693],[-0.3778335750102997,-0.9214369058609009,-1.017878532409668,1.6019041538238525],[0.00019942421931773424,-1.1704530715942383,0.04793382063508034,0.010595651343464851],[-1.0848342180252075,-0.2226584553718567,-0.7635856866836548,1.2777434587478638],[-0.0001290856016566977,2.2734780311584473,-1.5783607959747314,-0.8732142448425293],[-1.645290493965149,-1.3687243461608887,-0.21356236934661865,1.808648943901062],[-1.4735543727874756,-0.00037639591027982533,-0.8837208151817322,1.191117763519287],[-1.4623841047286987,-0.0011878119548782706,-0.6133028268814087,1.0308111906051636],[-2.7304763793945312,-0.8413278460502625,1.111206293106079,0.07733878493309021],[-0.9418484568595886,1.1769177913665771,-0.3719574213027954,-0.2371968924999237],[0.45435836911201477,-0.7594131231307983,-0.0001429540861863643,-0.07514523714780807],[-0.6867601871490479,-0.6344372630119324,1.2650244235992432,-0.004001314286142588],[-1.6627823114395142,1.0631344318389893,-1.77818763256073,0.00016142857202794403],[-0.00012184707156848162,-0.00017183278396259993,-1.048523187637329,1.002411961555481],[1.2867145538330078,-2.1612162590026855,-1.2106629610061646,0.00029639634885825217],[-1.6177148818969727,-1.543073058128357,0.8285857439041138,0.09164507687091827],[-0.8854362368583679,-1.3225336074829102,1.9287501573562622,-0.9363193511962891],[0.2836652398109436,-0.7819594144821167,0.00040079886093735695,0.0001038954796968028],[0.29015281796455383,-1.272235631942749,0.6709468960762024,-0.519532322883606],[0.26050180196762085,-0.6057999134063721,0.00044862102367915213,-4.289429489290342e-5],[-0.634808361530304,-0.9726608991622925,1.4332244396209717,-0.23505663871765137],[0.27271875739097595,1.5364714860916138,-1.1776005029678345,-1.5145319700241089],[-1.2268954515457153,-0.47192642092704773,-1.7135164737701416,1.3365037441253662],[-1.0709525346755981,0.5635648369789124,0.541961133480072,-0.45578733086586],[0.2953474521636963,-2.1820485591888428,0.7055745124816895,-0.43064647912979126],[-0.0004155163187533617,-0.43496400117874146,-0.797015368938446,1.1307429075241089],[-2.3106672763824463,-0.00036893493961542845,0.0021125702187418938,0.15822966396808624],[0.2525879144668579,-1.9865353107452393,0.07383785396814346,5.260155376163311e-6],[-1.2433758974075317,-0.24225717782974243,0.00017824808310251683,0.8939804434776306],[0.00029883242677897215,-2.378873586654663,0.29060518741607666,-3.226419721613638e-5],[-1.5293279886245728,-0.0002811212034430355,-0.8356057405471802,1.215428113937378],[-0.9000200629234314,-0.07514095306396484,-0.5823991298675537,0.8437051177024841],[-1.215272307395935,-0.20187720656394958,-0.7902169227600098,1.3495296239852905],[0.6087852120399475,-2.170318603515625,0.00011111331696156412,-0.0011758741457015276],[-0.00021096784621477127,-2.995933771133423,0.5298517346382141,8.574085768486839e-6],[-1.3264741897583008,3.3839853131212294e-5,-2.097710371017456,0.07196490466594696],[-0.9312326908111572,1.0961116552352905,-0.33348703384399414,-0.1458662897348404],[1.4848895072937012,-0.0001837230520322919,-0.7965240478515625,-1.4556478261947632],[-0.40203800797462463,-0.9699369072914124,1.0245249271392822,-0.0004159881209488958],[-0.000347195309586823,1.8458781242370605,0.00021135751740075648,-1.4642454385757446],[0.005234380252659321,-0.0016003522323444486,0.9440444111824036,-0.6791356205940247],[-2.378458261489868,2.048158645629883,-3.0899760723114014,0.00025403412291780114],[-1.0059435367584229,-0.33589795231819153,1.8923795223236084,-1.3433958292007446],[0.0226330254226923,0.5053420662879944,0.0008196716662496328,-1.779601812362671],[1.2224817276000977,-0.0007754496764391661,-1.4151718616485596,2.3305861759581603e-5],[-1.3062562942504883,0.1753525584936142,0.3737468719482422,-0.10091432183980942],[-1.3067915439605713,8.156248077284545e-5,0.0010633921483531594,-0.00019163530669175088],[2.9396498575806618e-5,-2.6539418697357178,0.000726755301002413,9.24271807889454e-5],[0.36418601870536804,-2.81320858001709,0.07527832686901093,-0.0005235432763583958],[-6.37028060737066e-5,-0.8997901678085327,0.0009375991648994386,5.980677087791264e-5],[0.6298829913139343,1.2471184730529785,-0.8753287196159363,-1.7076590061187744],[-1.529410719871521,-1.3269104957580566,0.5955186486244202,0.00014661464956589043],[-1.3734315633773804,-1.094283103942871,1.697666049003601,-0.16918613016605377],[-0.6794950366020203,-0.0006895762053318322,-4.07874358643312e-5,0.1089932769536972],[-1.5670350790023804,0.29576823115348816,-2.729114294052124,9.78787211352028e-5],[-0.09459218382835388,-0.09619434922933578,-1.1167265176773071,0.36221587657928467],[-0.5010635256767273,-0.0008255664724856615,1.9777551889419556,-1.217409610748291],[-0.5299128293991089,-0.00012578674068208784,-2.529383659362793,0.3289697468280792],[0.5448569059371948,-0.00042566529009491205,-0.053129490464925766,-0.0001856876042438671],[-1.4023221731185913,0.34046342968940735,-1.7550686597824097,-6.717879296047613e-5],[-0.5118457674980164,1.1632171869277954,-0.9223166108131409,-0.5078067779541016],[-1.529941201210022,9.695429980638437e-6,-3.0029165744781494,0.43506866693496704],[-1.2478466033935547,-0.015706833451986313,-1.2889955043792725,0.9300102591514587],[-0.6278309226036072,1.3443526029586792,-1.193534016609192,-0.4618556499481201],[1.4066416025161743,-2.239938497543335,0.0003153777797706425,-0.0009170279372483492],[-2.315843105316162,0.5945247411727905,-2.1907639503479004,0.00010875957377720624],[0.4662856459617615,1.3255829811096191,-0.9580956697463989,-1.623066782951355],[-0.833433210849762,-0.7472816705703735,0.5986302495002747,-0.0003152016142848879],[-1.1686601638793945,0.31724122166633606,0.9966181516647339,-0.990959882736206],[-2.2273097038269043,-0.9984363317489624,1.3306268453598022,9.361029515275732e-5],[-1.1433112621307373,-2.3803868293762207,2.173968553543091,-0.003809696063399315],[-1.0998280048370361,-0.0006647864356637001,0.6702794432640076,-0.0002982959267683327],[1.5947561264038086,-1.9830892086029053,-1.6146385669708252,0.0001317162241321057],[-1.6981418132781982,1.012741208076477,-1.356996774673462,-8.871252794051543e-5],[-0.9566479921340942,-0.02343013323843479,2.2606520652770996,-0.9024495482444763],[-0.62794029712677,1.3841153383255005,-0.3924168348312378,-0.5897966623306274],[-1.036090612411499,-0.0011754640145227313,1.5143084526062012,-1.3915462493896484],[5.941365088801831e-7,-0.6076302528381348,0.00013721288996748626,0.16986428201198578],[-1.5769891738891602,-0.0002506798773538321,-1.3905624151229858,0.5794342160224915],[-1.4379066228866577,1.2100316286087036,-1.465194821357727,-0.08521648496389389],[-1.058361530303955,-0.2658933699131012,-0.801866888999939,1.376923680305481],[0.20533756911754608,0.13165581226348877,-0.2521189749240875,-0.36261534690856934],[-0.7177913784980774,-0.00041484017856419086,0.00041821846389211714,0.02514566481113434],[0.43287235498428345,-1.65168297290802,0.0002598399296402931,-2.3145272280089557e-5],[1.5670064687728882,-1.829316258430481,-0.712900698184967,-0.19026441872119904],[-0.9843771457672119,-0.5760900974273682,1.9186419248580933,-1.286690354347229],[0.0002073375362670049,-1.73642098903656,0.4426698088645935,-0.00010602688416838646],[-0.8406772613525391,-1.209139347076416,0.07523415982723236,0.4919760525226593],[1.157273769378662,-0.00046496366849169135,-0.6843229532241821,-1.1600126028060913],[0.19636787474155426,-1.3749579191207886,0.00035952471080236137,7.38077869755216e-5],[-1.5682371854782104,0.00026488155708648264,-1.3820416927337646,0.1225791871547699],[1.2425422668457031,-0.0006125582149252295,-1.0396203994750977,-0.9697604179382324],[0.18010413646697998,-1.0041213035583496,-0.0006305236020125449,0.0001991055760299787],[-0.609467625617981,-0.35579484701156616,-0.7561098337173462,1.2556345462799072],[-0.9747918844223022,-0.3715789020061493,-0.8257254362106323,1.3636947870254517],[-0.08836155384778976,-0.2687973082065582,-0.00045015718205831945,0.8068514466285706],[1.3591526746749878,-0.7954598665237427,-0.07510171085596085,-0.7059405446052551],[-2.1626651287078857,-0.7817040085792542,0.20103353261947632,0.716965913772583],[-0.8197513222694397,-0.5744765400886536,-0.7690168023109436,1.3925293684005737],[-1.2986894845962524,-0.1077827513217926,-0.8046147227287292,1.3119428157806396],[1.5688434839248657,-1.0700734853744507,-0.43870922923088074,-1.2893915176391602],[8.807518315734342e-5,-1.1597676277160645,0.0930047482252121,-0.00022531145077664405],[-1.0277867317199707,-0.31551671028137207,-0.8933890461921692,1.4375030994415283],[1.3251820802688599,0.39005520939826965,-1.2345691919326782,-1.480476975440979],[0.2164905071258545,1.7282445430755615,-1.7751646041870117,-1.6026383638381958],[-0.13285191357135773,-0.00012133271957281977,-2.13920521736145,0.0003210818686056882],[-0.10623481869697571,-3.100919723510742,1.1754252910614014,3.504915002849884e-5],[-1.7515580654144287,0.29552510380744934,-2.4374735355377197,3.4157055779360235e-5],[-2.3927342891693115,-1.1115988492965698,1.2231441360199824e-5,1.3741469383239746],[-0.49742624163627625,-0.0011390607105568051,1.389059066772461,-0.5716351866722107],[0.0003943193005397916,1.7899703979492188,-1.5672991275787354,-1.177098035812378],[-1.2564690113067627,-1.146143913269043,0.0007938861381262541,1.2426403760910034],[-0.35933583974838257,-0.28607383370399475,-1.2290164232254028,0.6821324229240417],[0.4322836697101593,2.1117379665374756,-1.131356954574585,-2.3919453620910645],[-0.22101663053035736,1.6852282285690308,-1.5147067308425903,-1.042656421661377],[-3.4652559757232666,2.8787941932678223,-1.6470181941986084,-1.491335391998291],[0.1453705132007599,-1.581850290298462,0.193209707736969,-0.03620101511478424],[-0.5362951755523682,-0.12458296865224838,-1.0613669157028198,1.0991461277008057],[-2.1692757606506348,0.5661008358001709,-2.457183837890625,4.7918307245709e-5],[-1.177656650543213,-0.7696277499198914,1.883873462677002,-0.7069138884544373],[-0.00013306840264704078,-1.7146153450012207,0.9360262751579285,-0.14845715463161469],[-3.6859934329986572,2.040320873260498,-2.0319409370422363,-2.9162938517401926e-6],[-2.3338279724121094,0.043215375393629074,0.0005553464288823307,-0.00012163328210590407],[0.4427294433116913,-1.953208088874817,2.4284443497890607e-5,-0.00015919041470624506],[-1.8118746280670166,-0.7752507328987122,1.4812549352645874,-0.0003025135083589703],[0.9514766931533813,0.7236513495445251,-1.1786450147628784,-1.4113415479660034],[-1.963806390762329,0.14943136274814606,-1.5169533491134644,1.8941831513075158e-5],[-1.6784868240356445,2.0740926265716553,-1.1267863512039185,-0.9836375117301941],[1.1408441066741943,0.04130218178033829,-0.3770512044429779,-1.36240816116333],[-1.4360191822052002,-0.0016905089141801,-0.7953122854232788,1.00360107421875],[-1.5398693084716797,0.43197494745254517,-2.769432306289673,1.571982284076512e-5],[-0.7352720499038696,-0.00020724962814711034,-0.6416509747505188,0.7037137150764465],[0.7028655409812927,1.0424000024795532,-0.9253697991371155,-1.6861257553100586],[0.00024942532763816416,-2.4143991470336914,1.1720083951950073,-0.07843713462352753],[-1.5605010986328125,-0.0003354208020027727,-1.1851385831832886,0.826762318611145],[-0.4012967646121979,-0.6022701263427734,1.4556708335876465,-0.8869798183441162],[0.0001224903535330668,0.11310844123363495,-0.5264959335327148,-8.444745617453009e-5],[1.84675133228302,-1.692473292350769,-0.7946106195449829,-0.6027050614356995],[0.11150382459163666,-2.385103464126587,0.324794203042984,1.5154824723140337e-5],[-1.8054906129837036,-0.00034011242678388953,-1.4719197750091553,1.383122444152832],[1.160537838935852,-0.0006725918501615524,-0.2849295139312744,-0.6372457146644592],[-0.8113730549812317,-0.17539824545383453,-0.8068798184394836,1.1265734434127808],[0.4362107515335083,-1.432704210281372,-0.008098903112113476,0.0030843818094581366],[-1.1143285036087036,-1.2676507234573364,1.8598086833953857,-0.6101266741752625],[-2.1411333084106445,-2.777929330477491e-5,0.9963104724884033,-3.570988337742165e-5],[-1.843463659286499,0.06355097889900208,-2.360058546066284,0.009196298196911812],[-0.000879397732205689,-2.1400349140167236,1.059964656829834,-0.00039142000605352223],[-0.628843367099762,-0.14827966690063477,-0.626053512096405,1.0287086963653564],[0.00020359376503620297,-2.386791944503784,0.2042911797761917,-1.7350790585624054e-5],[0.5518864989280701,-1.4026612043380737,-0.013073005713522434,0.00029834258020855486],[1.6838234663009644,-1.5319846868515015,-0.834943950176239,-0.5010212659835815],[-1.2375242710113525,-1.6530224084854126,0.4200321435928345,0.41487371921539307],[0.4405886232852936,0.1512991338968277,0.0008907922310754657,-0.8542921543121338],[1.839241623878479,-1.0864955186843872,-0.12551815807819366,-1.0948327779769897],[0.7028380632400513,1.119093656539917,-1.468514084815979,-1.308925986289978],[-0.2719595432281494,2.2058451175689697,-0.9155837297439575,-1.9348706007003784],[-2.315572500228882,0.9656029343605042,-2.323462963104248,5.430233068182133e-5],[-1.874068260192871,-2.9630093195009977e-5,-2.7060160636901855,0.17613263428211212],[-0.9907771944999695,-0.441674143075943,-0.8601930737495422,1.4164577722549438],[-0.43746933341026306,-0.6927576065063477,0.4452570080757141,-0.00010563061368884519],[-1.0187549591064453,-0.001485177082940936,1.895530343055725,-1.6390782594680786],[-1.756898283958435,-0.001625922741368413,-1.4463475942611694,1.5250253677368164],[1.1798102855682373,-0.0006596015300601721,-1.0874722003936768,-1.0227575302124023],[0.810706615447998,0.001465114881284535,-0.18713945150375366,-0.655914843082428],[-2.28511381149292,-0.00022366819030139595,-1.3643180131912231,0.4526280462741852],[-1.0599288940429688,-0.0004831674159504473,1.0990004539489746,-0.03854658454656601],[-1.2956626415252686,-0.00061835628002882,0.00042409979505464435,0.3122377395629883],[-2.026261806488037,0.017292078584432602,-1.712228775024414,0.0003145839727949351],[-2.088198661804199,7.450990233337507e-5,0.002122576115652919,-0.0002573061501607299],[-1.4412769079208374,0.28214457631111145,-2.336164712905884,4.5598146243719384e-5],[-0.773846447467804,-0.80608731508255,0.341526061296463,2.3027661882224493e-5],[-0.5369205474853516,-0.15777809917926788,-1.1171116828918457,0.5740482211112976],[0.6492151618003845,-0.9206334352493286,-0.0006338322418741882,9.099717135541141e-5],[0.5702710747718811,1.187849998474121,-1.5246238708496094,-1.2756277322769165],[-0.4790496826171875,-0.07469239085912704,-1.242065668106079,1.0285784006118774],[-0.21818807721138,-0.2885994017124176,-0.09697136282920837,0.8772236704826355],[0.9858375787734985,-1.8329962491989136,-4.682847793446854e-5,-0.5046371221542358],[0.3186647593975067,-0.3310471475124359,6.960902101127431e-5,4.780657036462799e-5],[-2.5674493312835693,-0.3166303336620331,0.13310524821281433,0.7371376156806946],[0.6259058117866516,1.20260488986969,-1.1341819763183594,-1.6243689060211182],[-0.00020784567459486425,1.6556117534637451,-1.2191014289855957,-0.8866841793060303],[-2.580641746520996,-0.000624689448159188,0.0005685777869075537,0.31171536445617676],[-2.9709477530559525e-5,-3.0668232440948486,0.46021050214767456,-0.0006436278345063329],[-0.22060070931911469,1.1020989418029785,-1.5042563676834106,-0.2190432846546173],[0.9963883757591248,-0.3470693826675415,0.0003419836575631052,-0.5973543524742126],[-0.994472324848175,-0.333459734916687,-0.8781977295875549,1.474275827407837],[1.6301525831222534,-1.984065294265747,-1.556681752204895,0.00022214703494682908],[-0.7464589476585388,1.210586667060852,-1.2824387550354004,-0.36943984031677246],[1.7398978471755981,-1.0852552652359009,-0.8304933309555054,-0.8074093461036682],[-1.1453510522842407,3.379688132554293e-5,0.0011310772970318794,-0.0004620044201146811],[-1.2906098365783691,-1.2200915813446045,2.042804718017578,-1.100497841835022],[-1.2166370153427124,0.9693171977996826,-1.1860769987106323,0.00028166366973891854]],"W_rec":[[0.0,-0.0021992765832692385,-0.004201503936201334,-0.04284380003809929,-0.18773530423641205,0.010833146050572395,0.006098176818341017,0.09685374796390533,6.864441093057394e-5,-0.4275516867637634,-0.4208241105079651,-0.39995574951171875,-0.16403351724147797,-0.2049461007118225,0.24366366863250732,-0.01188525278121233,0.019049815833568573,0.016951050609350204,0.12543103098869324,-0.15303881466388702,-0.18777154386043549,-0.0839354395866394,0.02104753814637661,-0.14930316805839539,0.002274149563163519,0.21911072731018066,-0.02447008341550827,0.005194952245801687,-0.1060469001531601,-0.013686033897101879,-0.024845726788043976,-0.2903169095516205,-0.07019462436437607,-0.07720880955457687,-0.18714863061904907,-0.01854323036968708,-0.08515115827322006,-0.0030041905120015144,0.0018078516004607081,-0.6151273250579834,4.089659341843799e-5,-0.038237493485212326,-0.2898588180541992,0.0369923859834671,0.0012226734543219209,-0.1373891681432724,-0.028877941891551018,0.0016456544399261475,-0.005078350193798542,-0.11330272257328033,-0.0681530311703682,-0.1006094291806221,0.1730322241783142,-0.0010611435864120722,-0.07471925765275955,-0.37628331780433655,-0.07023768126964569,-0.34544143080711365,0.03932381048798561,-0.17881633341312408,-0.12015452980995178,0.002041736850515008,-0.018223347142338753,-0.01838807761669159,-0.09423350542783737,0.007100826594978571,-0.19647134840488434,0.05261737108230591,0.0034976862370967865,0.02270290069282055,0.08142907172441483,0.12893521785736084,0.002724957652390003,-0.012726307846605778,-0.0039191776886582375,-0.007337933871895075,-0.17666283249855042,0.043407607823610306,0.33466270565986633,-0.26416245102882385,-0.1478051245212555,0.06308700889348984,0.22210054099559784,0.027252236381173134,0.06740698218345642,0.0243026465177536,-0.14791660010814667,0.0003580506599973887,0.07869032025337219,0.016545629128813744,-0.03617923706769943,0.004428925458341837,-0.26895272731781006,-0.001813109964132309,0.3034098446369171,0.06356589496135712,0.4162268042564392,-0.05755120888352394,-0.14862936735153198,-0.11056739091873169,-0.1943911463022232,-0.010191834531724453,-0.034720830619335175,-0.04117558151483536,-0.0019713537767529488,-0.32889679074287415,-0.0013204453280195594,0.15804053843021393,-0.6550531387329102,0.005027471575886011,-0.026969658210873604,0.006676333025097847,-0.2154727727174759,-0.0003781679552048445,-0.26857462525367737,0.0227168221026659,-0.1148863434791565,-0.04263760522007942,-0.0009146839147433639,0.10751647502183914,0.001046279794536531,-0.002563645364716649,-0.1474926620721817,-0.03619357571005821,-0.04432475194334984,-0.008519759401679039,0.031106287613511086,-0.006604277994483709,-0.14528115093708038,0.008232160471379757,0.03511642664670944,0.22353021800518036,0.0011241007596254349,-9.926132406690158e-6,-0.00113223388325423,-0.02008938603103161,0.17857752740383148,-0.058949537575244904,-0.00250049214810133,0.029602307826280594,0.16876327991485596,-0.11403094232082367,-0.016769826412200928,-0.056122928857803345,0.014399825595319271,-0.31348717212677,-0.02161250449717045,0.04442685469985008,-0.2690376043319702,-0.0011514448560774326,0.16219154000282288,-0.09740070253610611,-0.25795185565948486,0.0018452152144163847,-0.045063748955726624,-0.7270892262458801,-0.05494419485330582,0.30742260813713074,0.021210813894867897,0.3081793785095215,-0.05338047444820404,0.02489662729203701,0.013854214921593666,0.15593038499355316,-0.4827587306499481,0.003158468985930085,0.42833763360977173,-0.19028939306735992,-0.1922750174999237,-0.06538886576890945,0.0007354321423918009,-0.00012855838576797396,-0.0002991216315422207,0.006233605090528727,-0.26806211471557617,-0.16139912605285645,0.057101115584373474,-0.00411854637786746,-0.0693097785115242,-0.3430710434913635,0.004886142909526825,0.0023377297911792994,0.029203224927186966,-0.10730896890163422,0.25437647104263306,-0.001003430224955082,0.032894354313611984,-0.16626036167144775,-0.0020966767333447933,-0.1689131110906601,-0.13242881000041962,-0.24352523684501648,-0.4722329080104828,0.29448938369750977,0.0015007953625172377,-0.03864769637584686,0.1267394721508026,-0.05344604328274727,0.0014954865910112858,0.006315282080322504,0.046422794461250305,-0.3099827468395233,-0.007619927637279034,0.0006733605987392366,-0.8983045220375061,0.034191276878118515,-0.12484710663557053,-0.17216725647449493,-0.11301598697900772,0.00047338937292806804,-0.0009608104592189193,-0.08376859873533249,0.0024756495840847492,-0.30172863602638245,-0.5550617575645447,0.1684405356645584,0.15383778512477875,0.0016814488917589188,-0.1420862078666687,-0.04481391981244087,-0.01101649273186922,-0.0018824530998244882,0.12537363171577454,-0.002170062391087413,0.06311199069023132,-0.0005377823254093528,0.0017497956287115812,-0.1340942680835724,0.11369526386260986,0.0013464606599882245,0.0009758890373632312,-0.004172527696937323,0.0007615457288920879,0.0026626670733094215,-0.07417242974042892,0.06456415355205536,0.1175893247127533,0.006909290794283152,0.019540900364518166,0.21256867051124573,-0.011986391618847847,-0.12845243513584137,-0.0008316090097650886,0.1846749484539032,0.08351753652095795,0.0931192934513092,-0.15472295880317688,0.022189056500792503,-0.10516621172428131,0.12794065475463867,0.08787297457456589,-0.02040240913629532,-0.2562169134616852,0.0013192760525271297,-0.0024455238599330187,-0.07365044951438904],[0.000778165936935693,0.0,-0.1684892624616623,0.07973244786262512,-0.30845555663108826,-0.01190102193504572,0.26828381419181824,-0.18668590486049652,-0.577994704246521,-0.09759460389614105,0.036573655903339386,-0.06458478420972824,0.338824987411499,-0.12576450407505035,-0.11356551200151443,-0.5088256597518921,-0.11527404934167862,-0.4236297905445099,-0.001731261145323515,-0.3509920835494995,-0.030974896624684334,-0.5178112983703613,-0.07887621968984604,-0.36863306164741516,-0.1416165828704834,-0.030658025294542313,-0.23121747374534607,-0.1425052285194397,0.29246222972869873,-0.42465320229530334,-0.20010165870189667,-0.16411644220352173,-0.1092296913266182,-0.16969934105873108,-0.4907141625881195,-0.33590707182884216,0.015190055593848228,0.0001434290170436725,-0.0020978525280952454,-0.12505631148815155,-0.42784860730171204,-0.15572594106197357,0.06439954042434692,-0.10107655823230743,0.0006434372626245022,-0.03129511699080467,-0.6832950115203857,0.06486911326646805,0.0362573005259037,-0.001569074927829206,-0.11362123489379883,-0.06548646092414856,-0.24315999448299408,0.022340329363942146,-0.2315875142812729,-0.03712619096040726,-0.3560023009777069,0.002549979370087385,0.11327848583459854,-0.9094317555427551,-0.052484285086393356,-0.5510045289993286,-0.7250413298606873,-0.6737065315246582,0.3647021949291229,0.0010190772591158748,-0.22852376103401184,-0.2908799648284912,-0.34388062357902527,0.16139502823352814,-0.21342399716377258,-0.20069639384746552,0.08657285571098328,-0.2837708592414856,-0.19463583827018738,0.12168511748313904,-0.5473677515983582,-0.11076680570840836,-0.369306355714798,0.0014468302251771092,0.20160768926143646,0.052463922649621964,-0.0003282972320448607,-0.1094607561826706,0.030588924884796143,-0.2443041056394577,-0.8172253370285034,0.27333009243011475,0.0022030218970030546,-0.19909453392028809,0.11676076054573059,-0.19811318814754486,-0.021750658750534058,-0.10957880318164825,-0.2372659593820572,-0.3256852626800537,-0.00028052786365151405,0.10166441649198532,-0.0019613662734627724,-0.777367889881134,-0.12078589200973511,-0.11576355248689651,0.09260758757591248,-0.06746479868888855,0.09288374334573746,-0.20186778903007507,0.06077865883708,-0.2882287800312042,-0.03490908816456795,0.17786650359630585,0.27096956968307495,0.012422089464962482,-0.0033031590282917023,0.021992363035678864,-0.14981453120708466,0.29620054364204407,0.44276702404022217,0.041988808661699295,-0.46807584166526794,-0.3811904191970825,-0.0018877583788707852,-0.31658610701560974,-0.4009738862514496,-0.7574443817138672,-0.7723487615585327,-0.47349119186401367,-0.3318670988082886,-0.6940354108810425,-0.005468938499689102,-0.7989017367362976,-0.20402251183986664,-0.055796246975660324,0.008502461947500706,0.3702528774738312,0.04065341874957085,0.008465810678899288,-0.08800601959228516,-0.6695699095726013,0.15566714107990265,-0.16977757215499878,-0.1089487373828888,-0.278186559677124,-0.22391657531261444,-0.377011239528656,-0.5156451463699341,-0.22086787223815918,0.09932301193475723,0.04320308938622475,0.0003640878130681813,0.002682092832401395,-0.0007209134637378156,-0.02749895676970482,-0.15434835851192474,0.04716036468744278,-0.27842646837234497,-0.10262393206357956,-0.12361378222703934,-0.3327748775482178,-0.45338088274002075,-0.25806713104248047,-0.004203093703836203,-0.0003458891005720943,-0.560126781463623,-0.27306875586509705,-0.3218250870704651,0.03706024959683418,-0.08950479328632355,-0.07118939608335495,-0.5913946032524109,-0.42448538541793823,-3.7393920138129033e-6,-0.4088880121707916,0.13384804129600525,0.03502338007092476,-0.17959143221378326,0.14452606439590454,-0.1835443675518036,-0.4146631062030792,-0.5811243057250977,-0.8551779389381409,0.003741006599739194,0.08239518105983734,-0.3240601420402527,0.23867331445217133,-0.0010722021106630564,-0.9253908395767212,0.23557676374912262,-0.22698241472244263,0.2307910919189453,-0.26579517126083374,-0.3642300069332123,-0.2085452675819397,-0.0004195992660243064,-0.09459057450294495,-0.4582073390483856,-0.6277899742126465,-0.2316311001777649,0.15817596018314362,-0.22928382456302643,0.0001626875309739262,-0.2915198504924774,-0.1261344999074936,-0.14780601859092712,-0.4468343257904053,-0.02016669511795044,-0.2994319200515747,-0.06696639209985733,0.23410262167453766,0.12408827245235443,-0.28283369541168213,-0.0010619590757414699,-0.7935106158256531,0.00010917636973317713,0.009291165508329868,-0.06028907001018524,0.12779776751995087,-0.47076624631881714,-0.07943053543567657,-0.30155983567237854,-0.3094710409641266,-0.7242507934570312,-0.5198122262954712,-0.2107045203447342,0.06612026691436768,-0.0008059098618105054,-0.23592700064182281,-0.00018410458869766444,0.003319069277495146,-0.26873379945755005,0.19653254747390747,0.053938496857881546,-0.24707046151161194,0.036266397684812546,-0.4411473870277405,0.009708847850561142,-0.39012083411216736,-0.10760831832885742,-0.6172139644622803,-0.10657117515802383,-0.021588820964097977,-0.15411892533302307,-0.07400503009557724,-0.0022589925210922956,-0.49940046668052673,-0.3671497404575348,0.0003323022392578423,0.22007623314857483,-0.677202045917511,0.01457933522760868,-0.22626572847366333,-0.3723430335521698,-0.5715924501419067,-0.2272779792547226,0.2826228737831116,0.032670024782419205,-0.051989734172821045],[-0.45583927631378174,0.023359153419733047,0.0,-0.11857813596725464,0.05140957981348038,-0.06786993891000748,-0.19562113285064697,0.20487280189990997,-0.48204466700553894,0.0011369078420102596,0.25204333662986755,0.10905702412128448,-0.0011509534670040011,0.3305214047431946,-0.12849536538124084,0.06610745191574097,0.046384118497371674,-0.6018495559692383,-0.05581248924136162,0.11877183616161346,0.27978798747062683,-0.1117967739701271,-0.08273977041244507,-0.3500618636608124,-0.27961769700050354,-0.24305714666843414,-0.12967808544635773,0.011714598163962364,-0.04632532596588135,0.3685964345932007,-0.18212267756462097,0.5519788265228271,-0.20431524515151978,0.16767674684524536,-0.03852745518088341,0.13380306959152222,0.9434224367141724,-0.13125336170196533,-0.2909524142742157,0.1273973286151886,-0.0711018443107605,-0.14713537693023682,0.05400872975587845,0.1407596617937088,-0.2790619134902954,0.2009262591600418,-0.1011306643486023,-0.19435808062553406,-0.08972559124231339,0.31170281767845154,0.31768447160720825,0.19018396735191345,-0.22845004498958588,-0.021115995943546295,0.14498190581798553,0.3609556257724762,-0.1685975044965744,0.14211957156658173,-0.00398397957906127,-0.531630277633667,-0.14182452857494354,0.11089745163917542,-0.017658213153481483,0.02116023190319538,-0.05350538715720177,-0.17155131697654724,0.00984161626547575,-0.132059246301651,-0.07478198409080505,-0.33130788803100586,-0.23296473920345306,-0.15429772436618805,-0.05764256417751312,-0.24287597835063934,0.3209565579891205,-0.4958876967430115,-0.06073367968201637,-0.26396679878234863,0.39771199226379395,-0.11675901710987091,0.00027785246493294835,-0.054333679378032684,-0.59349125623703,0.10066372901201248,-0.38403546810150146,-0.17538689076900482,0.002169277286157012,-0.2575598955154419,-0.13818572461605072,0.10848487168550491,-0.339939683675766,0.05685240402817726,-0.26431456208229065,0.1267668902873993,-0.22881661355495453,-0.024371972307562828,-0.055730924010276794,1.021067500114441,-0.013340692967176437,-0.14167086780071259,-0.1833626925945282,0.2445809692144394,-0.1613529473543167,-0.11646388471126556,-0.27706074714660645,-0.36759039759635925,-0.12546636164188385,-0.06163271144032478,-0.2834225296974182,-0.29853302240371704,-0.21617946028709412,0.2472010999917984,0.40857192873954773,-0.0474877692759037,-0.13904373347759247,-0.20501434803009033,-0.01861039735376835,-0.011041336692869663,-0.14099669456481934,-0.00481485715135932,-0.16714297235012054,0.5095115900039673,0.45821505784988403,-0.16286493837833405,0.027555210515856743,0.0035101338289678097,-0.05392397195100784,-0.005201675463467836,0.14606453478336334,0.12976562976837158,-0.27990683913230896,-0.17623651027679443,-0.060590844601392746,-0.056358590722084045,-0.10234232991933823,-0.3147745728492737,0.2624850273132324,0.002123086480423808,0.028213728219270706,0.10208599269390106,-0.10753421485424042,-0.15806572139263153,-0.20737744867801666,0.041726984083652496,-0.2072417438030243,-0.08866426348686218,0.2207762897014618,-0.010556122288107872,0.00018997857114300132,-0.11209460347890854,-0.03433593735098839,-0.08636920899152756,0.33189526200294495,-0.7131571173667908,-0.09804927557706833,0.12369101494550705,0.634255051612854,-0.13625188171863556,-0.26403218507766724,-0.3383558988571167,0.3318033516407013,-8.046926086535677e-5,-0.2850562036037445,-0.22334447503089905,0.40862441062927246,0.1793193519115448,-0.05248791724443436,-0.07023696601390839,-0.13488329946994781,0.3690178096294403,-0.2186821550130844,-0.014560714364051819,-0.050245486199855804,-0.2526147663593292,-0.08131644874811172,-0.2560921013355255,0.004461714997887611,-0.0003016323607880622,-0.0647379606962204,-0.46815285086631775,-0.2787574529647827,-0.16691076755523682,-0.02107987366616726,0.004395432770252228,-0.02360869199037552,-0.11303021013736725,-0.1789020448923111,0.5140486359596252,-0.11114166676998138,-0.12574835121631622,-0.19283446669578552,-0.1335247904062271,0.35643911361694336,-0.09484320878982544,-0.09754371643066406,-0.2164914906024933,-0.1537407636642456,-0.06328145414590836,-0.26755791902542114,-0.21896934509277344,0.03622736409306526,0.031276311725378036,-0.030545972287654877,-0.39573147892951965,0.20094335079193115,-0.13037581741809845,0.06541001051664352,-0.07496298849582672,-0.06631436944007874,-0.15586413443088531,0.346459299325943,-0.20720449090003967,0.008948350325226784,0.20182238519191742,0.42231273651123047,-0.45972275733947754,-0.031093338504433632,-0.024178816005587578,0.001643519033677876,-0.22853218019008636,0.061689261347055435,-0.033597905188798904,-0.0888758972287178,0.1198977530002594,-0.2630653381347656,-0.23848624527454376,0.019716395065188408,0.0310681089758873,-0.21371540427207947,-0.1275450587272644,-0.15030816197395325,-0.13956637680530548,-0.2435726374387741,-0.1354292929172516,0.06407131999731064,0.05489799752831459,0.013376925140619278,0.05025559663772583,-0.01372482255101204,-0.22177118062973022,0.5711255073547363,0.29890623688697815,-0.005496512167155743,0.03536541387438774,-0.3645225763320923,-0.2909838557243347,-0.12850864231586456,-0.14620058238506317,-0.01240120641887188,-0.19779932498931885,-0.0002543707378208637,0.09692812711000443,0.009540880098938942,-0.2970010042190552,-0.02989254519343376,0.17147135734558105],[-0.42017412185668945,-0.4806796610355377,-0.38536182045936584,0.0,0.056402720510959625,-0.3224463164806366,-0.3928110897541046,-0.00022356318368110806,-0.0004618914390448481,-0.00017806286632549018,-0.1313686966896057,0.0008339044870808721,0.10371667891740799,0.0603301115334034,0.0004522165982052684,0.0016187437577173114,0.00851153302937746,-0.01390443742275238,-0.2777213454246521,-0.0527472123503685,-0.8363457918167114,-0.38694730401039124,-0.045959439128637314,-0.0007484274683520198,0.21503542363643646,0.0028114148881286383,0.1108914464712143,0.021843116730451584,0.0003162810462526977,0.00055076798889786,-0.006313682068139315,-0.19492365419864655,-0.16244491934776306,-0.12365808337926865,-0.19956205785274506,-0.2077936977148056,0.01404876634478569,0.031879350543022156,-0.00027111064991913736,0.0009597720927558839,0.00016719380801077932,-0.003881119890138507,-0.2848343551158905,-0.020549731329083443,0.13051578402519226,-0.24472104012966156,-0.0035931929014623165,-0.1750364601612091,-0.009341329336166382,-0.5128880143165588,-0.0123742101714015,-0.2761864960193634,-0.0012233186280354857,-0.4780833423137665,-0.17609001696109772,-0.4909875988960266,0.0077780866995453835,-0.07693495601415634,-0.0003480956074781716,-0.1791267693042755,-0.3544563353061676,0.028128664940595627,0.037942368537187576,6.429040513467044e-5,0.00045631194370798767,-0.00036716379690915346,-0.009549936279654503,0.0018505537882447243,-0.012679369188845158,-0.5359859466552734,-0.006483827251940966,0.004203235264867544,-0.5475496649742126,-0.08543245494365692,0.002490102080628276,-0.030495837330818176,0.06416942924261093,-0.16745595633983612,0.0005738330655731261,-0.07194288074970245,0.797097384929657,-0.353556364774704,-0.1279233694076538,-4.128747241338715e-5,0.05965309962630272,-0.02329948917031288,-6.548967212438583e-5,-0.5068209767341614,0.018035143613815308,0.008336132392287254,0.002560088410973549,-0.0018760713282972574,-0.1302727311849594,-0.07868968695402145,0.0007299878634512424,0.0003512917901389301,8.048627933021635e-5,-0.15566721558570862,0.00895301066339016,0.004890263546258211,-0.33475786447525024,-0.04303057864308357,0.0005590280052274466,0.03166572377085686,-0.527891218662262,-0.01364065706729889,0.1652878075838089,0.020829470828175545,0.11169731616973877,0.006378448102623224,0.0007744059548713267,-0.13937707245349884,-0.1847650408744812,-0.3339499235153198,-0.0015104219783097506,-0.06999938189983368,0.010278013534843922,0.014802668243646622,0.044370491057634354,0.015452876687049866,-0.4429994225502014,0.05838409811258316,0.2073805034160614,-0.0009731075842864811,-0.07355400919914246,0.09397736191749573,-0.008087585680186749,0.0026270716916769743,0.0012708314461633563,-0.0656718760728836,-0.0033511710353195667,0.01125613134354353,0.0024121624883264303,0.006842092145234346,-0.16497255861759186,-0.10174652934074402,0.002382030012086034,-0.07451979070901871,-0.2290889322757721,0.06475898623466492,0.06786305457353592,-0.018544670194387436,-0.004943249747157097,-0.059272997081279755,-0.0018734063487499952,0.04035888984799385,0.02006104588508606,0.020656008273363113,-0.0020730183459818363,0.05497024580836296,-0.4924301207065582,-0.11775679141283035,-0.590144157409668,-0.07114586979150772,-0.015984173864126205,0.0012022360460832715,-0.25833845138549805,0.11488603055477142,-0.000336111756041646,-0.0666808933019638,-0.11771024763584137,-0.23914746940135956,-0.000294335070066154,0.0010657798266038299,-0.23202067613601685,-0.011816649697721004,0.00033541550510562956,0.07768753916025162,-0.22470103204250336,0.07515507191419601,-0.19353780150413513,0.010627641342580318,-0.7954885363578796,-0.0502450168132782,0.014459280297160149,7.716067921137437e-5,0.016721166670322418,-0.24033312499523163,0.0007040859200060368,-0.3190293312072754,-0.35141023993492126,-0.000760998809710145,-0.029006775468587875,0.017394978553056717,-0.304250031709671,-0.0012286489363759756,-0.014357374049723148,-0.2827683985233307,0.006260671652853489,0.08395442366600037,0.0002423812256893143,-0.18201690912246704,-0.1778070628643036,0.0007093180320225656,0.02996031381189823,0.0031480593606829643,0.00129396328702569,-0.5209946632385254,-0.0016420128522440791,0.11498768627643585,-0.08257592469453812,8.02580761956051e-5,-0.13611167669296265,0.00010293953528162092,0.0034839187283068895,0.0022906120866537094,0.007211124058812857,0.6360576152801514,0.0005727577954530716,0.002976965857669711,-0.5513818860054016,0.0006623888039030135,-0.046227890998125076,0.001261628931388259,-0.14010557532310486,-0.1995670348405838,0.12832458317279816,0.004087639041244984,0.09107597917318344,0.03391145169734955,0.03409581631422043,0.045596469193696976,0.005658792797476053,-0.26667216420173645,0.00054318574257195,-0.000630524824373424,0.015282167121767998,-0.12800946831703186,-0.0012292786268517375,-0.1728997379541397,-0.18715445697307587,-0.006643963977694511,-0.1618071049451828,0.048583511263132095,-0.28668373823165894,0.06397929787635803,0.05449339747428894,0.0017950736219063401,-6.222316005732864e-5,-7.645442383363843e-5,-0.26855334639549255,0.08699721843004227,-0.08060435950756073,-0.43943580985069275,-0.028584906831383705,0.00029669326613657176,-0.036462921649217606,0.02997385337948799,-0.02046601101756096,0.0009529332164674997,0.00256944727152586,-0.20473237335681915,0.0046365708112716675,-0.01862453669309616,0.042195793241262436,-0.2136853039264679],[-0.1332055926322937,0.05228641629219055,0.034531522542238235,-0.11225805431604385,0.0,0.20536382496356964,-0.3987772464752197,-0.014657882042229176,-0.0015529269585385919,-0.05356733128428459,-0.0005678494926542044,-0.1561821699142456,-0.11181126534938812,-0.21024420857429504,-0.06972552090883255,-0.010336092673242092,0.009775303304195404,0.01244719885289669,0.0020703801419585943,0.0004725678591057658,0.05408535897731781,0.000983811100013554,0.00038027699338272214,-0.01205891277641058,-0.01576826721429825,0.0014173875097185373,-0.04634618014097214,0.0009738730150274932,-0.10822689533233643,-0.19708853960037231,-0.16340917348861694,0.00044175132643431425,-0.19690829515457153,0.0011562103172764182,0.0070963227190077305,-0.00022973024169914424,0.0039748926647007465,-0.24510662257671356,-0.23259763419628143,-0.004034432582557201,-0.40566104650497437,-0.45497795939445496,-0.13579823076725006,0.0007619691314175725,0.060297220945358276,0.00677457032725215,-0.39839568734169006,-0.14588840305805206,-0.21501527726650238,0.002257399260997772,0.008392076939344406,-0.31329038739204407,0.14618462324142456,0.0005942597636021674,0.0007291013025678694,0.13329894840717316,0.1281861513853073,-0.14660649001598358,-0.09347766637802124,0.09038204699754715,0.20831298828125,-0.28647249937057495,-0.03455681726336479,0.23052024841308594,-0.11023012548685074,-0.033744752407073975,-0.032471660524606705,-0.03637591004371643,-0.00018879819253925234,0.013851276598870754,0.0013038453180342913,-0.038247864693403244,0.010247048921883106,0.09678885340690613,-0.0001229846675414592,-0.12615059316158295,0.18508198857307434,0.0297219417989254,-0.232134610414505,0.07882660627365112,-0.2251964956521988,-6.171668792376295e-5,0.010485569946467876,0.004941656719893217,0.01666756346821785,0.07682152092456818,-0.0001276216353289783,-0.2121463119983673,-0.15182378888130188,0.005799311678856611,-0.31557556986808777,0.0051964749582111835,-0.12745366990566254,0.013333765789866447,-0.00031780716381035745,0.13381437957286835,-0.08792570233345032,0.04370161518454552,-3.729440504685044e-5,-0.5568709373474121,0.05274229869246483,0.002720677061006427,0.017927955836057663,0.15943162143230438,-0.10562727600336075,0.38983047008514404,-0.22656773030757904,0.10599420964717865,0.020191552117466927,-0.1689758598804474,-0.23672759532928467,0.08525501191616058,-6.081306855776347e-5,-0.03704182058572769,0.12578676640987396,-0.10886304825544357,-0.23449213802814484,0.009210600517690182,-0.5676294565200806,0.002891611075028777,-0.15863217413425446,-0.013676298782229424,0.0008223280310630798,-0.3687560260295868,-0.1549573689699173,-0.33420413732528687,0.0362069346010685,-0.18633103370666504,-0.3111463487148285,0.25779685378074646,0.08210675418376923,-0.06785433739423752,0.11705565452575684,-0.14444641768932343,-0.5896981954574585,-0.34220242500305176,-0.48481738567352295,-0.005072446074336767,-0.01726636104285717,-0.059364497661590576,-0.001914955792017281,-0.04331224039196968,-0.13190096616744995,0.052009861916303635,-0.03123307228088379,0.08811535686254501,-0.03447500243782997,-0.0013066655956208706,-0.04742738977074623,-0.19850045442581177,0.008591843768954277,0.002685318235307932,-0.0017904180567711592,-0.24121452867984772,0.09398338943719864,-0.0006424518651328981,-0.08875780552625656,-0.034849077463150024,-0.0038564761634916067,-0.12435755133628845,0.0008328068652190268,0.04802922531962395,-0.043849434703588486,-0.009925911203026772,-0.17596155405044556,0.058408088982105255,-0.061714138835668564,-0.00046167406253516674,-0.00036504605668596923,0.0710335522890091,0.0279531329870224,-0.39802443981170654,0.002035146811977029,-0.2714308500289917,0.1558874100446701,-0.19416765868663788,0.00144439865835011,-0.00019203043484594673,-0.03613165393471718,-0.0014504794962704182,0.004013367462903261,-0.02662719041109085,0.16805635392665863,-0.054456956684589386,-0.053960420191287994,0.003130776807665825,-0.1317243129014969,-0.0001812973787309602,-0.13626503944396973,-0.00031389991636388004,0.272445946931839,-0.008539880625903606,0.049214474856853485,-0.005191706586629152,-0.45167750120162964,-0.054403580725193024,-0.00034641087404452264,0.04834958538413048,0.04452938586473465,-0.0032934406772255898,0.312273770570755,-0.033915139734745026,0.007396501023322344,-0.010943330824375153,-0.0010328784119337797,-0.022293446585536003,0.08050261437892914,-0.31316426396369934,0.0005131535581313074,-0.34549176692962646,-0.15112437307834625,0.0038481010124087334,0.01993040181696415,-0.02619333378970623,0.025866171345114708,-0.5251853466033936,0.14596877992153168,0.18267738819122314,-0.0008536798995919526,-0.0008331334684044123,0.13954249024391174,-0.44360366463661194,-0.03064529411494732,0.005794147029519081,0.006876029539853334,-0.01299941074103117,0.0001907334226416424,-0.03192108869552612,0.03902115300297737,-0.2381400465965271,-0.10717659443616867,-0.2691768705844879,-0.501284658908844,-0.5562624335289001,0.0021014371886849403,0.07437129318714142,-0.4245107173919678,-0.0010025717783719301,-0.06879477947950363,-0.043803706765174866,0.03833669424057007,-0.0634392723441124,0.015435725450515747,-0.01359611377120018,0.026834767311811447,0.002372682560235262,-0.48332276940345764,-0.3457861542701721,0.26466456055641174,-0.0012987111695110798,-0.6314254999160767,0.0311372522264719,0.12335778772830963,-0.10040201991796494,-0.31058159470558167,0.31766077876091003],[-0.04465809836983681,0.026095110923051834,0.3485284149646759,0.016428478062152863,-0.6931304335594177,0.0,-1.2965062856674194,0.0535355806350708,-0.4983651638031006,-9.626038081478328e-5,-0.18443745374679565,-0.00017929986643139273,0.185304194688797,0.3372823894023895,-0.6551830768585205,-0.49016526341438293,0.006774201523512602,-0.6290799379348755,0.05929427966475487,0.30625516176223755,-0.005214333534240723,-0.4455726146697998,0.00191461609210819,-0.33703482151031494,-0.02446732111275196,-0.5492278337478638,-0.7848764061927795,0.0013982984237372875,0.14342203736305237,0.3111914396286011,-0.8019554615020752,0.4000997543334961,-0.38618698716163635,-0.4023129343986511,-0.4437448978424072,-0.0001472621806897223,0.6972677111625671,-0.0021630721166729927,-0.3220396935939789,-0.0003955891588702798,-0.8205106854438782,-0.9123506546020508,0.009742963127791882,0.08610215783119202,0.005628590472042561,0.010107978247106075,-0.8722977042198181,-0.32191482186317444,-0.09566371142864227,0.6304925680160522,0.71514892578125,0.05993950366973877,-0.3269358277320862,0.04296065866947174,0.29488280415534973,0.22396862506866455,-0.8105540871620178,-7.148039003368467e-6,-0.007514345925301313,-1.0325907468795776,-0.39371898770332336,0.21846674382686615,-0.9602289199829102,-0.4825733006000519,0.0007497380138374865,-0.06132379174232483,-0.043749790638685226,-0.6272976398468018,-0.05613943561911583,-0.5679516792297363,-0.27551594376564026,-0.1695290505886078,-0.000192136038094759,-0.238027885556221,-0.0023356215097010136,-0.2198243886232376,-0.7118600606918335,-0.3144221603870392,4.641096529667266e-5,-0.21265731751918793,0.19844339787960052,-0.2241302877664566,-0.0017638889839872718,-0.04482628405094147,0.0008721390040591359,-0.0007611453183926642,-0.008996711112558842,-0.807886004447937,-0.004397150594741106,-0.05023268982768059,-0.5571745038032532,0.420805960893631,-0.2849215269088745,0.4161602556705475,-0.7742565870285034,-0.7494279742240906,-0.6996455192565918,0.7023752331733704,-0.05304007604718208,-0.8586753606796265,-0.46388623118400574,0.0016008689999580383,0.08412778377532959,-0.02212667278945446,-0.02276342175900936,-0.9496254324913025,0.10730225592851639,-0.03624673932790756,-0.038420695811510086,-0.6456224918365479,-1.2308799028396606,-0.09792105853557587,0.35592272877693176,-0.112687848508358,-0.0015469405334442854,-0.5321788191795349,0.14230309426784515,-0.004071165341883898,-0.6714438796043396,-0.2765445113182068,-0.2490101307630539,0.08531314134597778,0.2036394476890564,-0.7393696308135986,-0.6983510255813599,-1.0315210819244385,-0.5010058879852295,-0.41470015048980713,0.21480700373649597,-0.18344607949256897,0.011319046840071678,-0.17967195808887482,-0.2878623604774475,-0.00042177585419267416,0.009721499867737293,-0.34507104754447937,-4.838294262299314e-5,-0.7949870824813843,0.0013626025756821036,-0.32969221472740173,-0.19284844398498535,-0.13131195306777954,-0.6982890367507935,-0.33350005745887756,-0.6363366842269897,-0.15657545626163483,0.0012463544262573123,-0.3687383234500885,-0.055335626006126404,-0.0018195071024820209,0.0436096116900444,0.0012442470761016011,0.5322003364562988,-0.0731131061911583,-0.19672007858753204,0.07732117921113968,-0.003147692419588566,-0.3510652780532837,-0.77414870262146,-0.1934748888015747,0.2851208448410034,-0.07514572143554688,-0.9113017916679382,-0.7271355390548706,0.1577552855014801,-0.008714444935321808,-0.6061469912528992,0.0003380936977919191,-0.08128180354833603,0.1017441675066948,0.0010784647893160582,-0.604236900806427,-0.19859732687473297,-0.21424143016338348,0.00028240459505468607,0.06850891560316086,-0.3976050913333893,-0.02137812227010727,-0.44386520981788635,-1.1061979532241821,0.0396198108792305,0.04983637481927872,-0.33018025755882263,0.3147890567779541,0.10764282941818237,-0.6200783252716064,-1.029785394668579,0.6643564701080322,-0.00031624778057448566,0.0005120199639350176,-0.07049812376499176,-0.24406938254833221,0.5786961317062378,-0.6906710267066956,-0.9134042859077454,-0.5946121215820312,-0.14230027794837952,0.04314268007874489,-0.24623428285121918,0.03374769911170006,-0.4283639192581177,-2.661246071511414e-6,0.46336615085601807,-0.2589280903339386,0.5290302634239197,-0.6431701183319092,0.008020985871553421,0.05944934859871864,0.08699459582567215,-0.9243465662002563,0.3795638084411621,-0.3309318423271179,-0.007215398363769054,0.35251304507255554,0.10121779143810272,-0.4363197386264801,-0.5734058022499084,-0.0018351903418079019,-0.0008457612129859626,-0.0798252671957016,-0.45055949687957764,-0.9913521409034729,-0.5614137649536133,0.2770661413669586,-0.001928271958604455,-0.2763082981109619,0.0002727597893681377,0.3020579516887665,-0.14788818359375,-0.4527178704738617,-0.2962261140346527,-0.9238090515136719,-0.9527849555015564,-0.5820974111557007,0.08374367654323578,-0.4366578161716461,-0.08142568916082382,-0.00023451751621905714,-0.21182066202163696,-0.1502075046300888,0.7453261613845825,-0.04249262064695358,-0.018651621416211128,-0.0008328330586664379,-0.2850206196308136,-0.0004799702437594533,-0.20931951701641083,-0.27109673619270325,-0.03446190059185028,-0.7314895987510681,-0.00017364390078000724,-0.276304692029953,-0.00027666863752529025,-1.2015806436538696,0.13911579549312592,-0.3641609847545624],[-0.10445620864629745,-0.1819455623626709,-0.04653835669159889,0.00011543603613972664,-0.005318268667906523,-0.09373530000448227,0.0,0.004959531594067812,-0.000899540726095438,-0.3384583592414856,-0.005702459719032049,0.009107899852097034,-0.02047264389693737,-0.018586982041597366,-0.002495669526979327,-0.0009625213569961488,-0.16457447409629822,-0.06664766371250153,0.00020720978500321507,0.00026752945268526673,-0.2764502465724945,0.18273502588272095,-0.00017373988521285355,0.0002805138938128948,-0.000272189499810338,-0.10612712055444717,-0.060430049896240234,0.0017697003204375505,0.02913501113653183,-0.04086291790008545,-0.0018654695013538003,0.00018915334658231586,-0.0033495791722089052,-0.02058488316833973,0.16740484535694122,-0.042223457247018814,-0.43145111203193665,0.0029033950995653868,-0.05821080878376961,-0.22659537196159363,-0.002521551214158535,-0.0010793764377012849,-0.18220815062522888,0.0017907358705997467,-0.014305745251476765,-0.22231891751289368,-0.00016074439918156713,0.0005702440394088626,-0.007369488012045622,-0.0009335160139016807,0.012386376038193703,-0.06974314153194427,-0.0017593506490811706,-0.00769479013979435,8.562423317926005e-5,-0.19528891146183014,-0.002026280388236046,0.008388625457882881,-0.007043026853352785,-0.0052445936016738415,-0.014439716935157776,0.0016807472566142678,-0.09250017255544662,-0.0009004538296721876,-0.022556541487574577,0.00770603958517313,-0.03534073382616043,-0.002363093663007021,-0.002007279545068741,-0.1292581558227539,0.0004274154780432582,-0.11841510236263275,-7.417824235744774e-5,-0.09527910500764847,-0.27188196778297424,-0.020905649289488792,0.053411900997161865,-0.052069392055273056,-0.6719642877578735,-0.011932220309972763,0.00029215129325166345,-0.11116406321525574,0.11749108135700226,-0.30623000860214233,-0.0008000789675861597,0.004293456673622131,-0.00018312128668185323,0.14410632848739624,-0.5985971093177795,-0.3481845259666443,-0.0025168259162455797,0.00012077602877980098,0.0009361729025840759,0.002979892771691084,-0.00024025747552514076,-0.23999035358428955,-0.00029513263143599033,-0.2785116136074066,-0.0003043708566110581,-0.13968542218208313,0.03444807976484299,0.02140756882727146,-0.030041974037885666,-0.06378787010908127,-0.105278879404068,-0.02992873080074787,0.0568668507039547,0.2389381378889084,-0.40592435002326965,0.1661931276321411,0.22635819017887115,-0.4435323178768158,-0.0007662114803679287,-0.0036949985660612583,-0.1910879760980606,-5.3356245189206675e-5,-0.1343451887369156,-0.030026908963918686,-0.0009922104654833674,0.0017211511731147766,0.002163609256967902,-0.1473584920167923,-0.16914936900138855,-0.0011616279371082783,-0.04584623873233795,-0.05433894693851471,-0.3737567067146301,-0.09476722776889801,-0.21478064358234406,0.007298430893570185,0.0026522765401750803,0.03351116180419922,-0.0013949900167062879,0.16010795533657074,-0.0003809181216638535,-0.050781819969415665,-1.0279403924942017,0.20093242824077606,0.023037560284137726,-0.01241279300302267,0.0132951894775033,-0.04267003387212753,-0.002082973252981901,0.20510616898536682,0.008453348651528358,-0.13066336512565613,-0.09429647028446198,-0.06967990845441818,-0.3087049722671509,0.0013048640685155988,0.014515060000121593,-0.10608085244894028,-0.025921961292624474,-0.22296905517578125,-0.042795330286026,-0.0005085230804979801,-0.35729333758354187,-0.07810702174901962,-0.25126659870147705,0.013185540214180946,-0.10618860274553299,0.0003789443871937692,-0.1969812512397766,-0.010663536377251148,-0.27409812808036804,0.0020666150376200676,-0.004884748719632626,0.017870750278234482,-0.0004303380264900625,-0.16963307559490204,0.0004282442678231746,-0.00010616304643917829,-0.07377568632364273,0.003778601298108697,0.005368723534047604,0.0002844430855475366,-0.03389602527022362,-0.0005518944817595184,0.0535731315612793,-0.0012399731203913689,0.0001754420663928613,0.005036979913711548,0.01608789898455143,-0.00022773383534513414,0.00912343431264162,0.003462739521637559,0.18386952579021454,-0.0006023267051205039,-0.043268706649541855,0.00019679171964526176,0.005341092590242624,-0.00038083005347289145,0.0009524830966256559,-0.031800705939531326,-0.0021767031867057085,-0.042913567274808884,0.15897616744041443,0.04829484224319458,0.002708978485316038,0.0025880855973809958,-4.923171945847571e-5,-0.3173512816429138,-0.0003681672387756407,-0.00043895680573768914,-0.0012292441679164767,-0.25919511914253235,-0.1292886883020401,-0.008920525200664997,0.1149817481637001,-0.0010431830305606127,-0.1851859986782074,-0.013523087836802006,0.03870607912540436,-0.0522448755800724,-0.5824410915374756,0.07283441722393036,-0.04349575936794281,-0.021710218861699104,-0.001047144876793027,-0.0005189455114305019,0.14914970099925995,-0.0010561035014688969,-0.02839813567698002,-0.0504961758852005,0.13033272325992584,-0.00010359534644521773,-0.003209125716239214,-0.0012536309659481049,0.017285067588090897,0.27767065167427063,-0.138533815741539,0.056773148477077484,0.23117440938949585,-0.000801616464741528,-0.27007508277893066,-0.0076383925043046474,-0.6684324741363525,0.00044111977331340313,-0.00018788779561873525,-0.015505338087677956,0.0014514587819576263,-0.2224114090204239,0.0003849683271255344,0.2003188282251358,-0.0043136319145560265,0.0016659199027344584,-0.3405340909957886,-0.0027441224083304405,-0.17374740540981293,-0.002253879327327013,-0.46305403113365173,0.028353732079267502,-4.360519960755482e-5,0.19255833327770233,0.0024253451265394688,-0.07213839888572693],[-0.030277986079454422,-0.11902467906475067,-0.039389826357364655,-0.5449612140655518,0.015229698270559311,0.07898665219545364,-0.763325572013855,0.0,0.004218275658786297,0.46569785475730896,-0.42749905586242676,0.46066439151763916,-0.660554051399231,0.08732487261295319,-0.0014671762473881245,-0.4248599708080292,0.038222819566726685,0.0026920917443931103,-0.036998748779296875,-0.029642898589372635,0.010752695612609386,0.04357084259390831,0.00041048027924261987,0.003796263365074992,0.000628494715783745,0.0033269559498876333,0.11788336932659149,0.497528076171875,-0.37842753529548645,-0.25920653343200684,0.006411546375602484,-0.033497318625450134,-0.19886177778244019,0.1110214963555336,0.06627092510461807,0.41950008273124695,0.14708660542964935,-0.8456860780715942,0.04179047420620918,0.5376437306404114,-0.35635676980018616,-0.05622369796037674,0.053734105080366135,0.0019713223446160555,-0.4442865550518036,-0.09265615791082382,-0.41509583592414856,-0.1326787769794464,0.15676169097423553,0.08173542469739914,-0.006993602495640516,-0.0522947758436203,0.05004126951098442,0.003626651596277952,6.620523345191032e-5,-0.001329917460680008,-0.4011388421058655,0.2831842601299286,-0.3399420380592346,-0.003276693169027567,-0.4453856348991394,-0.4906904399394989,-0.4660203158855438,0.1076953336596489,-0.5220186710357666,0.01930149272084236,-0.22765493392944336,-0.00013471263810060918,0.004167077597230673,-0.242417573928833,5.132248770678416e-5,0.045619286596775055,-0.1832570880651474,-0.5839046239852905,-0.13821664452552795,-0.03990035131573677,0.06970944255590439,0.2663215398788452,-0.15522712469100952,-0.821527361869812,-0.4536038935184479,0.030676839873194695,0.0007493632729165256,-0.15174004435539246,-0.06514536589384079,0.07249277085065842,0.035042811185121536,-0.6239983439445496,-0.12128695100545883,0.08109534531831741,-0.021960383281111717,-0.0018758784281089902,0.013502075336873531,9.240961662726477e-5,-7.3047231126111e-6,-0.004636811558157206,0.0013153423788025975,0.07529463618993759,-0.02737744338810444,0.019792739301919937,-0.32988712191581726,0.4169797897338867,0.04667922854423523,0.0027519462164491415,-0.3923223316669464,-0.022596873342990875,-0.5344715118408203,0.3614763915538788,-0.13323427736759186,-0.8019424676895142,-0.5051069855690002,0.09269555658102036,-0.06551072001457214,0.11339475959539413,-0.027389664202928543,-0.2411206215620041,-0.5226741433143616,-0.0024972613900899887,0.0006977873272262514,0.0019261309644207358,-0.3382156491279602,-0.0012876103864982724,-0.03265324607491493,-0.5589274168014526,-0.17513315379619598,-0.017984328791499138,0.29571110010147095,-0.21719087660312653,0.00021737345377914608,-0.0035542375408113003,0.2621579170227051,0.01408410631120205,-0.07483013719320297,-0.6808918714523315,0.00039271055720746517,0.02582227624952793,-0.4572460353374481,-0.06390244513750076,-0.4121323525905609,-0.7290365099906921,-0.0007566004642285407,0.22163134813308716,0.06943273544311523,0.061910904943943024,0.07021955400705338,-0.3236832916736603,-0.0014677122235298157,-0.5238420963287354,0.17186422646045685,-0.5664170384407043,7.235082011902705e-5,-0.0002583851746749133,0.1358390599489212,0.006341932341456413,0.10103853046894073,0.18517807126045227,0.2054336816072464,-0.00012875307584181428,0.0007829247624613345,0.09114352613687515,0.07852254807949066,-0.08648029714822769,-0.006921554449945688,0.002444991609081626,0.09260601550340652,0.012715033255517483,-0.016718588769435883,0.4280685484409332,0.0527568943798542,-0.013254651799798012,0.0004970460431650281,-0.32854700088500977,0.00243182061240077,-0.2706433832645416,0.12005117535591125,9.28835361264646e-5,0.01461615227162838,0.045250702649354935,0.33373281359672546,0.002640624064952135,0.00933361891657114,-0.002049434231594205,0.01798887364566326,-0.6777189373970032,0.007922000251710415,0.06325793266296387,-0.11437521129846573,-0.0030407526064664125,-0.3376857340335846,0.28346654772758484,0.0693846344947815,-0.06573241949081421,0.20437051355838776,0.0025155306793749332,-0.3053509593009949,-0.10202771425247192,0.29645225405693054,-0.6247295141220093,-0.0001782780745998025,-0.1380041390657425,0.3672734498977661,0.4970174729824066,0.00090069230645895,4.900655767414719e-5,0.3834668695926666,0.0030796171631664038,-0.04815328121185303,-0.8037471175193787,-0.16226071119308472,-0.003402264788746834,0.02162032760679722,-0.12605121731758118,-0.004020152147859335,-0.037615496665239334,0.14821843802928925,-0.0013817166909575462,0.29679152369499207,0.0754089280962944,0.2498525232076645,0.00021023000590503216,-0.004464856814593077,-0.022321514785289764,-0.0009119975729845464,0.01615067571401596,-0.004125319421291351,0.02931288816034794,0.2466045469045639,-0.20360396802425385,-0.0036057177931070328,-0.3538858890533447,0.006620706524699926,-0.03523082658648491,-0.25472697615623474,-0.35244596004486084,-0.0017211477970704436,-0.002789729507640004,-0.07179798185825348,0.386669397354126,-0.0012750845635309815,0.1749349683523178,-0.09690463542938232,0.018125073984265327,-0.030921634286642075,0.29728496074676514,0.24411103129386902,-0.05096553638577461,-0.08577338606119156,-0.23299358785152435,0.07883351296186447,-0.004380146972835064,-0.044019900262355804,0.07655134797096252,0.514157235622406,-0.20914682745933533,-0.9638357162475586,0.009808775968849659],[0.13873569667339325,-0.0551610104739666,0.058692511171102524,-0.15759114921092987,-0.44169723987579346,-0.03408972918987274,-0.05101993307471275,-0.9667580127716064,0.0,0.04787619411945343,-0.11957094818353653,0.2943795323371887,-0.06675239652395248,-0.1624889373779297,-0.23428048193454742,-0.4478425979614258,-0.2608087658882141,-0.06545677781105042,-0.1042645126581192,0.009781187400221825,-0.03618161380290985,-0.994104266166687,-0.10597635805606842,-0.21216964721679688,-0.00011484644346637651,0.025957893580198288,-0.3006466031074524,0.2242923527956009,-0.08920830488204956,-0.13641443848609924,-0.6256935000419617,-0.040024884045124054,-0.19456535577774048,-0.9874665141105652,-0.8285526037216187,0.001925234799273312,0.20477017760276794,-0.4131581783294678,-0.029371922835707664,0.2480478286743164,-0.736406683921814,-0.29189831018447876,-0.052253417670726776,-0.21488822996616364,-0.5994018912315369,0.0009801477426663041,-0.7441088557243347,-0.31984373927116394,0.22692599892616272,-0.08311184495687485,-0.07396412640810013,-0.02597903273999691,-0.1071624681353569,0.011831218376755714,-0.07539212703704834,-0.027773337438702583,-0.09350930899381638,0.0613943412899971,0.07712078839540482,0.7616035342216492,-0.5325855612754822,-0.38120535016059875,-0.6238890290260315,-0.891642689704895,-0.15089985728263855,-0.6456494331359863,0.14000336825847626,-0.3796556890010834,0.6614395976066589,-0.03837734833359718,-0.35854479670524597,-0.11841841787099838,-0.03554334118962288,-0.47255268692970276,0.0014672643737867475,-0.21027064323425293,-1.2019171714782715,-0.00015315758355427533,0.00032554080826230347,-0.18635427951812744,-0.09758048504590988,0.0015520408051088452,0.30635562539100647,-0.036702267825603485,-0.37813088297843933,0.5023022890090942,-0.9707477688789368,0.025374760851264,0.21785014867782593,-0.10601931810379028,-0.2856263816356659,-0.13119104504585266,-0.08926386386156082,-0.16565947234630585,-0.31416192650794983,-0.017646361142396927,-0.10845859348773956,0.03824553266167641,-0.05832890421152115,-0.9529904723167419,-0.41903170943260193,0.0012046038173139095,-0.18361110985279083,0.32091769576072693,-0.03765690699219704,0.4186454713344574,-0.49657586216926575,-0.0004105371772311628,-0.09444870054721832,-0.31006765365600586,0.01688740774989128,-0.026133909821510315,-0.1039469763636589,0.10491723567247391,0.23699459433555603,-0.14698725938796997,-0.018189262598752975,-0.03068058006465435,-0.6329985857009888,-0.8665710687637329,0.00474140141159296,-0.44886985421180725,-0.6147015690803528,-0.5709837675094604,-0.5288074016571045,-0.6902867555618286,-0.045855168253183365,-0.6882285475730896,0.1977512389421463,-0.7911183834075928,0.2874023914337158,-0.25579530000686646,-1.0021476745605469,-0.12859417498111725,0.00013458772446028888,0.02611139602959156,0.00032377062598243356,-0.35728055238723755,0.06796827167272568,-0.4729779362678528,-0.8417904376983643,-0.09522797912359238,-0.41905972361564636,-0.9538378119468689,-0.33782729506492615,-0.6841388940811157,-0.02732481248676777,0.0013287944020703435,0.005329637788236141,-0.339974969625473,-0.14681772887706757,-0.0652344673871994,-0.1922592669725418,0.07732007652521133,-0.8149657249450684,-0.005221538711339235,0.03925083205103874,-0.41170743107795715,-0.4455983340740204,-0.6946315765380859,-0.008356180042028427,-0.1721377819776535,-0.2593452036380768,-0.18361219763755798,-0.05984067544341087,-0.32500794529914856,-0.3024573028087616,-0.0002513540966901928,0.49478498101234436,-0.3867097496986389,-0.2582099437713623,-0.2837977409362793,-0.10531732439994812,0.02936559170484543,0.5201318264007568,-0.05820891633629799,-1.0361684560775757,0.06704653054475784,0.8992661237716675,0.7239747643470764,0.00031317095272243023,-0.4839118719100952,-0.6721057295799255,-0.21194672584533691,-0.028650283813476562,0.7999666333198547,-0.08741394430398941,-0.12214609980583191,-0.43044134974479675,0.0639437660574913,-0.1920219212770462,0.4803202748298645,-0.01926756650209427,-0.23119530081748962,-0.6868302822113037,-0.3601798415184021,0.02696736343204975,0.055762335658073425,-0.026189381256699562,-0.3878849744796753,-0.3970560133457184,0.04142206162214279,-0.03636028245091438,-0.19379065930843353,0.0630679652094841,-0.17805226147174835,0.2962398827075958,-0.15664784610271454,0.01889098808169365,-0.44713133573532104,0.03576824814081192,-0.5860399007797241,-0.15831001102924347,0.13916093111038208,0.0007735678809694946,0.04685701057314873,-0.13215570151805878,0.00028450528043322265,0.18623459339141846,0.3289307951927185,-0.681054413318634,-0.636379599571228,-0.32261693477630615,0.057795118540525436,-0.5951880812644958,-0.033774785697460175,-0.00043464609188959,-0.00143225840292871,-0.041133347898721695,-0.0028141161892563105,-0.07290426641702652,-0.31819504499435425,-0.45001521706581116,-0.8002108931541443,-0.05325937271118164,-0.7171497941017151,0.04843934625387192,0.3378926217556,-0.6103889346122742,-0.39178240299224854,-0.019938526675105095,-0.1791004240512848,-0.1754235178232193,0.07221972942352295,0.7257956862449646,-0.3421812951564789,0.0018905448960140347,-0.684579610824585,0.01080865878611803,-0.37392568588256836,-0.0012560005998238921,-1.1479825973510742,0.18180720508098602,-0.23622536659240723,-0.5128538012504578,-0.4098677635192871],[-0.12606777250766754,0.002096718642860651,-0.0003189025155734271,0.0008982816361822188,0.05163479223847389,0.0005462620174512267,-0.0005056522786617279,-0.08717959374189377,-0.009779722429811954,0.0,0.0031449368689209223,0.0007379414164461195,-0.0026980810798704624,0.025535153225064278,-0.0007695097592659295,0.0027314352337270975,-0.1596401482820511,0.003074479289352894,-0.002715799491852522,-0.0003024548932444304,0.01075243391096592,-0.04749646037817001,-0.008940891362726688,-0.0010587263386696577,0.00017557099636178464,0.022212782874703407,0.018529633060097694,0.011643665842711926,-0.011779065243899822,-0.007001163903623819,6.349050090648234e-5,-0.001506786560639739,0.029287993907928467,-0.242934912443161,-0.2591980993747711,0.00309106451459229,-0.12625236809253693,-0.467591255903244,0.0007352472748607397,0.08731114119291306,-0.0035480742808431387,2.9147531677153893e-5,-0.00044115816126577556,0.07070639729499817,-0.1436169445514679,-0.004484253469854593,0.0015025906031951308,0.00025922953500412405,-0.20130737125873566,0.01677713729441166,-0.0020369349513202906,-0.02252388931810856,-0.0004647710593417287,0.00022428197553381324,0.000463545584352687,0.008769072592258453,0.1363522708415985,0.002049732254818082,-0.33892473578453064,-0.6892656087875366,-0.000542858790140599,0.060524605214595795,0.050124406814575195,0.0960967093706131,-0.00033042635186575353,0.006086275447160006,-0.033300962299108505,-0.0014457427896559238,-0.0017922628903761506,0.0019187091384083033,-0.006933202501386404,0.006125026382505894,-0.0003690505400300026,-0.03844498470425606,0.0056382291950285435,-0.09714466333389282,0.14393295347690582,-0.054955799132585526,0.006709896493703127,-0.000692973262630403,-0.019911427050828934,-0.0031667943112552166,-0.016125313937664032,-0.04145698621869087,0.0011927997693419456,-0.12526658177375793,-0.12163852155208588,5.764753223047592e-5,-0.2605960965156555,-0.14384783804416656,0.00131048948969692,-0.016884397715330124,-0.013875450007617474,-0.0065451571717858315,3.897635542671196e-5,-0.003500817110762,-0.002455129288136959,-0.1489456593990326,-0.0022100117057561874,-0.0838942751288414,0.010087795555591583,0.007819797843694687,-0.04420096054673195,0.0011575486278161407,-0.1834867149591446,-0.015008983202278614,-0.050312552601099014,0.0664285346865654,0.17437869310379028,-0.01178048551082611,-0.00023557613894809037,-0.023556021973490715,0.007800389546900988,-0.13334974646568298,0.00017168924387078732,-0.005598606541752815,-0.002125869505107403,0.0012106456561014056,-0.12796981632709503,-0.2717685401439667,-0.0022477786988019943,0.00017870716692414135,-0.001678488333709538,0.006929923314601183,-0.08267565816640854,-0.016333550214767456,-0.1824093610048294,-0.14050441980361938,0.044039636850357056,0.022737814113497734,-0.00020633974054362625,-0.0084410160779953,-0.00015123373304959387,-0.0012225928949192166,0.014921918511390686,0.008294157683849335,0.041794463992118835,0.004496264271438122,0.0020864466205239296,-0.13984857499599457,-0.5909498929977417,-0.32583433389663696,0.021524565294384956,-0.009552021510899067,2.819910878315568e-5,0.13146518170833588,0.00045852441689930856,-1.7327438399661332e-6,0.135430708527565,-0.0005506760207936168,-0.00019948784029111266,-0.000850113108754158,0.026801159605383873,0.03523147851228714,-0.3718301057815552,0.11150109767913818,-0.0012744920095428824,-0.04267379641532898,-0.0014077812666073442,-0.05272834002971649,0.013517641462385654,-0.0005605517653748393,0.00016074434097390622,0.00047449913108721375,0.0004078747006133199,-0.0014944345457479358,-0.0006113885901868343,0.3278479278087616,0.04654604196548462,0.005234424956142902,-0.0025873007252812386,0.0002604275359772146,-0.0008887249859981239,-0.26374855637550354,0.10480047762393951,0.004509155172854662,-0.05542605742812157,0.07800566405057907,-0.07035082578659058,-0.8132324814796448,0.021034996956586838,-0.1721530705690384,-0.03963976725935936,-0.00015260580403264612,0.0007619308307766914,-0.35888803005218506,-0.00010849251702893525,-0.0012484154431149364,-0.0022058847825974226,0.0007721792790107429,-0.00045406579738482833,-0.2567360997200012,0.016242993995547295,0.0002855564234778285,-0.0006709896260872483,-0.1736360341310501,0.010143715888261795,-0.018164340406656265,0.0006971389520913363,0.0121225044131279,0.0368548147380352,0.4262735843658447,-0.1980937123298645,0.0004460730997379869,0.0058623007498681545,0.0327351875603199,-0.0100939916446805,-0.001504580839537084,-0.08002401143312454,0.0006727394065819681,-0.0020520801190286875,0.02904079295694828,-0.0004888523835688829,0.020154278725385666,0.004577313549816608,8.369819261133671e-5,0.1425935924053192,-0.0004295691614970565,0.011516790837049484,-0.03383902460336685,0.06044525280594826,0.0008726902306079865,0.00038476873305626214,-0.10825907438993454,-0.30372506380081177,-0.004597370978444815,0.19742059707641602,-0.0003853242378681898,-7.050810381770134e-6,-0.0009198238258250058,0.0007434086874127388,0.0008697500452399254,0.0006909173680469394,-0.053851258009672165,-0.030657237395644188,-0.3705229163169861,-0.0007633529021404684,0.08591027557849884,-0.38940173387527466,0.005470860283821821,-0.0032611112110316753,-0.0007454811711795628,-0.0021070463117212057,0.052207596600055695,-0.20034843683242798,-0.001490275957621634,-0.0006821851129643619,0.10619404911994934,0.037579894065856934,-0.00012787555169779807,0.07426460087299347,-0.23610998690128326,0.25144657492637634,-0.0006113623385317624,-0.24546627700328827,0.021478766575455666],[0.0003389868652448058,2.165074874938e-5,-0.030706733465194702,-0.0004733406822197139,-0.17063356935977936,-0.2506665587425232,0.0013510020216926932,-0.43643757700920105,-0.02283206768333912,-0.00018433647346682847,0.0,-2.304003464814741e-5,0.03191172331571579,0.003575522219762206,-0.018681224435567856,-0.8267170786857605,-0.07746177911758423,-0.2517770826816559,-0.5682001709938049,0.0016557602211833,0.00307361944578588,-0.46265551447868347,-0.1959720253944397,-0.0015726170968264341,-0.02919011004269123,-0.02961544878780842,-0.11748862266540527,0.003353640204295516,0.004016460385173559,-0.001907204743474722,-0.08327791094779968,-0.0010050663258880377,-1.1010881662368774,3.3004289434757084e-5,-0.3017522394657135,-3.088767334702425e-5,0.0001400970359100029,-0.006685510277748108,0.020316338166594505,0.000744737044442445,-0.0012843095464631915,-0.005750729236751795,0.00426536425948143,-0.13813416659832,0.0001650771009735763,0.045218102633953094,-0.7202469706535339,-0.0013489306438714266,0.0008520518895238638,0.0018024651799350977,-0.3420909345149994,0.008308312855660915,-0.09124812483787537,-0.00023403170052915812,-0.41186007857322693,0.0007285194005817175,-0.33558014035224915,0.0030281972140073776,0.04948078840970993,0.1633245050907135,-0.567577600479126,-0.14306925237178802,-0.5267186164855957,-0.42343810200691223,-0.0004023650544695556,-0.00021038483828306198,0.0901356115937233,-0.00019198974769096822,0.0030784173868596554,0.03272334858775139,-0.0019524495583027601,-0.0005869715823791921,-0.0010386472567915916,-0.7182698249816895,0.004261973313987255,-0.2738596796989441,-0.6975328922271729,-0.060657478868961334,0.0009296935168094933,0.0008000275120139122,3.24663778883405e-5,0.028562700375914574,-0.23723696172237396,0.10952019691467285,-0.12845094501972198,0.001214293879456818,0.0013935501920059323,0.001957062864676118,0.0002209323865827173,0.024185342714190483,0.0008912352495826781,-0.2978830337524414,0.26539191603660583,0.0005650250823237002,-0.0010831044055521488,-0.00031243544071912766,-0.00028444750932976604,0.2104743868112564,0.07217424362897873,-0.44906556606292725,-0.7422828674316406,0.0015092594549059868,0.002763218479231,-0.20444153249263763,0.05297240987420082,0.08309032022953033,0.0005105723394080997,-0.2086658924818039,0.0009733672486618161,0.0002949686022475362,-0.0002712051500566304,0.0008171906811185181,0.009923686273396015,0.14880119264125824,-0.0477764718234539,0.10175793617963791,0.02954953908920288,-0.0015054596588015556,-0.25300663709640503,-0.002324505941942334,-0.005103857722133398,-0.0014286633813753724,0.0005120193236507475,-0.36250069737434387,-0.8509820103645325,-0.0027329439762979746,0.010197018273174763,-0.7754755616188049,0.07151895761489868,-0.6307642459869385,0.000648216693662107,-0.031026296317577362,-0.11300559341907501,0.004370838403701782,-0.0035708241630345583,-0.06442047655582428,-0.0006152528221718967,-0.8551563620567322,0.00017098862736020237,-0.737536609172821,-0.33452823758125305,-0.0010446985252201557,-0.08742295950651169,-0.569900631904602,-0.00179964245762676,-0.322979599237442,0.0006866864277981222,0.35667261481285095,0.0024902557488530874,0.0005321098724380136,-0.40502363443374634,-0.0004204228753224015,0.020444530993700027,0.07562210410833359,-0.11192046105861664,-0.00010172199836233631,0.013269146904349327,-0.037239186465740204,-0.04139484092593193,0.0009122263290919363,0.0020180605351924896,-0.0001564909762237221,-0.0002486114390194416,3.278875010437332e-5,5.351802974473685e-5,0.0010276667308062315,-0.0018978363368660212,0.0017289071111008525,0.0500481016933918,-0.2161571979522705,0.00010462786303833127,0.0008766889222897589,-0.0003173191798850894,-0.0010678982362151146,0.0008543020230717957,0.054967716336250305,0.0007588951848447323,0.014144690707325935,-0.0028975000604987144,0.03340786695480347,-0.46920153498649597,0.0010957180056720972,-0.30730363726615906,-0.02692922204732895,-0.4259035289287567,0.07005859911441803,0.0006442184676416218,-0.00034388876520097256,0.0024207336828112602,-0.00022691716731060296,-0.7883540987968445,-0.13652203977108002,0.001033950480632484,-0.0005422997055575252,-0.004070131573826075,-0.0012295299675315619,-0.14490379393100739,0.27996161580085754,-0.00011731492122635245,-0.12010381370782852,-0.32520073652267456,-0.0048955511301755905,0.003444896312430501,-0.012722949497401714,0.01568502187728882,-0.04073914885520935,0.18757465481758118,-0.0003151591226924211,0.09058444201946259,-0.0009131093393079937,-0.0035517707001417875,0.000287105911411345,0.007931731641292572,0.030192729085683823,0.0018608090467751026,0.0003370299527887255,-1.2699190378189087,-0.07480740547180176,0.0014050607569515705,0.004125984385609627,-0.5972943902015686,-0.0027404665015637875,6.699633377138525e-5,-0.0011800716165453196,-0.08793932944536209,-0.009145949967205524,0.0012745152926072478,-0.00040537945460528135,-0.00537728238850832,-0.0010823720367625356,0.016483867540955544,-0.0011427501449361444,-0.0024866145104169846,-0.0895061045885086,-0.0016390027012676,-0.00016613004845567048,0.048767365515232086,0.015357275493443012,0.002195279113948345,0.007814349606633186,-0.2021579146385193,0.03102737106382847,-0.0007601641118526459,-0.0010289947967976332,-0.16086357831954956,-0.00016493251314386725,0.04528755322098732,-0.490204781293869,-0.38307055830955505,0.0002190907980548218,-0.0016077703330665827,-0.5820425748825073,-0.00046402766020037234,-8.267303928732872e-5,-0.00036931762588210404,-0.2042812705039978],[3.0079250791459344e-5,0.019525641575455666,-0.0004246130120009184,0.008569318801164627,0.0005022325785830617,0.0024775611236691475,-0.0004462405340746045,-0.060391511768102646,-0.10462700575590134,0.7296100854873657,-0.0016746700275689363,0.0,6.912077878951095e-7,0.00032846652902662754,0.008717717602849007,0.019778138026595116,-0.18275785446166992,0.04453795403242111,0.00990088377147913,-0.002890957985073328,-0.13163010776042938,-0.07229095697402954,0.01066629122942686,-0.0006397219840437174,0.0035159895196557045,0.07157780975103378,0.026065561920404434,2.0569630578393117e-5,-0.000997592811472714,-0.02890402264893055,0.00021428668696898967,-0.0006959335296414793,0.0326097272336483,-0.3999139368534088,-0.34308770298957825,0.0005162542220205069,-0.001921862130984664,-0.10317054390907288,0.0016319964779540896,0.003565435763448477,-0.004305964335799217,1.160220563178882e-5,-0.0003569125256035477,0.007809332571923733,-0.10786683857440948,-0.025273246690630913,0.0032726330682635307,0.06399461627006531,-0.005225745961070061,0.00033171894028782845,-0.0013603158295154572,-0.1744098961353302,0.07503357529640198,0.006790591403841972,0.0020769499242305756,0.0007556594791822135,0.028607171028852463,0.002568039344623685,3.7186655390542e-6,-0.6496759057044983,-0.03574593737721443,0.011419786140322685,0.020397134125232697,0.1013767346739769,0.0006805885350331664,0.10816720128059387,-0.041160948574543,-0.0006128500681370497,-0.17970803380012512,0.0022992240265011787,-0.0012041907757520676,0.06716294586658478,0.0067047299817204475,-0.10508273541927338,-0.006818906404078007,-0.00596414553001523,0.09415639936923981,-0.030787164345383644,0.0014820266515016556,0.010230742394924164,3.7069075915496796e-5,-0.0059426105581223965,-0.0007468957337550819,-0.04989970847964287,0.004049667157232761,-0.2267497032880783,0.00011899484525201842,0.0013344039907678962,-0.19371896982192993,-0.25454798340797424,0.03674862161278725,-0.01898430474102497,0.003955505788326263,-0.0020973063074052334,0.0002469416067469865,0.039199426770210266,-0.0004062480293214321,-0.0009689817088656127,-0.0008620244334451854,-0.06821423768997192,0.0017801561625674367,0.0015954356640577316,-0.049919769167900085,-0.06789542734622955,-0.004897992126643658,0.0014244014164432883,-0.040563952177762985,0.0015091337263584137,0.002544059418141842,0.0008406355627812445,0.0001514218602096662,-0.03905297815799713,0.0017843014793470502,-0.09803970158100128,0.00023991515627130866,-0.00013725500321015716,-0.0011841841042041779,0.0011940316762775183,-0.05732688680291176,-0.13027667999267578,0.0025443711783736944,-0.002473542932420969,-0.004191478714346886,0.007410470861941576,-0.0801619291305542,-0.0806111991405487,-0.12554006278514862,-0.14856545627117157,0.05733082816004753,0.0369921512901783,-0.0010366329224780202,0.02032889798283577,-0.06173400580883026,-0.0005083624855615199,0.06221203878521919,0.08456293493509293,0.0024821581318974495,0.039900828152894974,0.002721957629546523,-0.30899012088775635,-0.47634777426719666,-0.1815153807401657,0.024136781692504883,0.04190322756767273,0.010968347080051899,-0.051717694848775864,0.0005735207232646644,0.0005151632358320057,0.0006492354441434145,0.00028560205828398466,0.0021619684994220734,-0.007135862950235605,0.0005199402803555131,0.0005739065236411989,-0.38341882824897766,0.26757627725601196,-0.07390523701906204,-0.0010547193232923746,0.009076603688299656,-0.028605680912733078,0.0021794450003653765,0.0004908755654469132,0.0002972705115098506,0.008079144172370434,4.4481828808784485e-5,-0.010701432824134827,-0.00037500879261642694,0.0014834781177341938,0.0010623002890497446,-0.011186263523995876,0.0010910637211054564,-0.00017609787755645812,-8.051615441218019e-5,0.00206545228138566,-1.8881906726164743e-5,0.035273075103759766,-0.04351067170500755,0.00012817927927244455,-0.0677434504032135,-0.7453667521476746,0.01985929161310196,-0.28555384278297424,-0.08638894557952881,0.00013874651631340384,0.000882455613464117,-0.3342401385307312,0.0009577908203937113,0.0003937656292691827,-0.0006845887401141226,-9.036621486302465e-5,-0.0047372872941195965,-0.25681737065315247,0.0001230374036822468,0.01389146875590086,-0.0020972532220184803,-0.23926660418510437,0.0003425119211897254,-0.028458941727876663,0.009471820667386055,0.03953348100185394,-0.05431176349520683,0.463227242231369,-0.20294000208377838,0.0006550156977027655,0.003097627777606249,0.042214587330818176,-0.10050632059574127,-0.000932821596506983,0.00015550732496194541,0.0007007273961789906,-0.00012899663124699146,0.02865557000041008,0.001639836234971881,0.035213399678468704,0.0027972154784947634,0.0013167384313419461,0.005094578955322504,-0.00018694292521104217,0.00047239361447282135,-0.03945775702595711,0.0668603852391243,0.0002269433462060988,0.000347477471223101,-0.006596239283680916,0.0005231964751146734,-7.63786374591291e-5,0.009096276946365833,-0.001044684206135571,-9.463641617912799e-5,0.0006218013586476445,0.0003705353010445833,0.0017567879986017942,0.0007157971267588437,-0.04331914335489273,-0.009996333159506321,-0.25374704599380493,-0.1073646992444992,0.004348460119217634,-0.07964115589857101,0.05873483046889305,-0.014522089622914791,6.936101999599487e-5,-0.0012182950740680099,-0.00047770218225196004,-0.23993831872940063,-1.9693401554832235e-5,-0.0003615056921262294,-0.07700270414352417,0.0024834247305989265,0.00430277269333601,-0.00022138035274110734,-0.10860510170459747,0.08782945573329926,-0.0002510087797418237,-0.00031448487425222993,0.0022318828850984573],[-0.130416601896286,-0.10111045837402344,-0.24877484142780304,0.3229198753833771,0.18141257762908936,-0.06198208034038544,0.029597420245409012,-0.14233660697937012,-0.01255709771066904,0.00052369519835338,-0.02842044271528721,0.0010165409184992313,0.0,7.525266119046137e-5,0.0003910177038051188,0.08406151086091995,0.016792763024568558,-0.00048771750880405307,-0.5635539293289185,-0.2643691301345825,-0.3204502761363983,-0.21397671103477478,-0.15251581370830536,0.043249767273664474,-0.009244086220860481,-0.00011692874250002205,-0.11391312628984451,0.0749751552939415,-0.0004328837094362825,0.11286161839962006,-0.05860636383295059,-0.15135705471038818,-0.15045394003391266,0.21514907479286194,-0.1884901523590088,-0.4921587407588959,0.017934588715434074,0.08619797229766846,0.015256064012646675,0.060504164546728134,0.05982512980699539,-0.04548133537173271,-0.005263376049697399,0.08099961280822754,0.032207462936639786,-0.08586295694112778,-0.005470716394484043,-0.005839542485773563,0.0144764119759202,-0.5618348717689514,0.014774045906960964,0.0007226970628835261,-0.0012774175265803933,-0.06513531506061554,-0.18042537569999695,-0.4503907263278961,-0.003584805177524686,0.06717091053724289,0.00045475547085516155,-0.032417867332696915,-0.23059430718421936,0.07777907699346542,-0.010541309602558613,-0.031645216047763824,0.00038644703454338014,-0.00010920716158580035,0.07307113707065582,0.0021435993257910013,-0.08902933448553085,0.16967110335826874,-0.0001990892633330077,0.007941944524645805,-0.05687887966632843,-0.07893085479736328,0.0963924378156662,-0.15917472541332245,0.05888156592845917,-0.10888910293579102,0.0004643807769753039,0.016064545139670372,0.6246851682662964,-0.07489915937185287,-0.4907613694667816,0.030504213646054268,-0.00013818273146171123,-0.010478276759386063,0.09639135748147964,-0.0181865356862545,-0.15446437895298004,0.07760930061340332,-0.001781820086762309,-0.026319798082113266,-0.027793215587735176,-0.008550708182156086,-0.0002158808638341725,0.023383324965834618,0.00030826087458990514,-0.15602606534957886,-0.056009791791439056,-0.0007098946953192353,-0.2960938513278961,-0.5915310382843018,0.00023537133529316634,-0.006488770246505737,-0.005069700535386801,-0.03675884008407593,0.06618403643369675,0.0014650634257122874,0.09310048818588257,-0.08207719773054123,-0.0416414737701416,0.0023274593986570835,-0.2868967652320862,-0.17730149626731873,0.032514527440071106,0.02904267981648445,0.04657793045043945,0.04569516330957413,-0.006698995362967253,-0.001839595614001155,-0.27521196007728577,0.12715758383274078,0.0183562058955431,-0.0009764618007466197,0.05190926045179367,0.09508750587701797,-0.011120890267193317,0.11016716808080673,0.014351245947182178,0.002333542564883828,0.009134535677731037,0.0007482748478651047,0.0005678066518157721,0.0009417467517778277,0.007379361428320408,-0.0342191606760025,