{"params":{"dropout_prob":0.0,"l2_weight_decay":0.0,"l2_weight_decay_params":[],"l1_weight_decay":0.0,"l1_weight_decay_params":[],"contractive":0.0,"contractive_params":[],"reg":0.001,"learning_rate":"0.001,0.0001","n_epochs":"80,20","n_attack_steps":10,"beta_robustness":0.125,"seed":4,"n_hidden":256,"n_layer":1,"batch_size":100,"boundary_loss":"kl","treat_as_constant":false,"p_norm":"inf","dt":1.0,"tau":20.0,"beta":2.0,"tau_adaptation":98.0,"thr":0.01,"thr_min":0.005,"refr":2,"dampening_factor":0.3,"sample_rate":16000,"eval_step_interval":400,"clip_duration_ms":1000,"window_size_ms":30.0,"window_stride_ms":10.0,"feature_bin_count":40,"in_repeat":1,"preprocess":"mfcc","data_url":"https:\/\/storage.googleapis.com\/download.tensorflow.org\/data\/speech_commands_v0.02.tar.gz","silence_percentage":10.0,"unknown_percentage":10.0,"validation_percentage":10.0,"testing_percentage":10.0,"n_thr_spikes":-1,"background_volume":0.1,"background_frequency":0.8,"time_shift_ms":100.0,"wanted_words":"yes,no,up,down,left,right","attack_size_constant":0.0,"initial_std_constant":0.0,"attack_size_mismatch":0.2,"initial_std_mismatch":0.001,"optimizer":"adam","data_dir":"TensorCommands\/speech_dataset\/","session_id":7762056803,"desired_samples":16000,"window_size_samples":480,"window_stride_samples":160,"length_minus_window":15520,"spectrogram_length":98,"average_window_width":-1,"fingerprint_width":40,"fingerprint_size":3920,"label_count":8,"time_shift_samples":1600},"rng_key":[2713847539,3195156003],"theta":{"W_in":[[0.0009707177523523569,-0.0006421859725378454,0.01844167523086071,0.015263034030795097,0.020654140040278435,0.018551580607891083,0.007361017167568207,0.00012242623779457062,0.05174233764410019,0.04610585421323776,0.024209963157773018,-0.00020874118490610272,0.005000426433980465,0.016092322766780853,0.00023597580729983747,0.0015836470993235707,0.009273294359445572,0.0041452012956142426,0.00512309605255723,0.02137291058897972,0.014156174845993519,-0.0029152659699320793,0.0321321077644825,0.020835986360907555,0.006380429025739431,0.02459789626300335,0.010071037337183952,-0.012101618573069572,0.01261401828378439,0.00019187969155609608,0.015168051235377789,0.0024982045870274305,0.022430866956710815,0.031223200261592865,0.007341169752180576,-0.0010278129484504461,0.016015522181987762,0.0008821473456919193,0.030756322667002678,0.035435985773801804,0.006653517484664917,-0.00920900423079729,0.0022525417152792215,0.017627162858843803,0.002885589376091957,0.00045843434054404497,0.028659040108323097,0.06006962060928345,-0.0015188363613560796,0.009807038120925426,0.026130186393857002,0.0003054798289667815,0.020815478637814522,0.01180985476821661,0.013888856396079063,0.014185760170221329,-0.00010456297604832798,0.01724541001021862,0.0054540690034627914,0.007771201431751251,-0.00029903746326453984,0.014217358082532883,-0.000911954790353775,0.00023774526198394597,0.07664620876312256,0.03554939106106758,0.019268402829766273,0.02653786540031433,0.008638774044811726,-0.0006298065418377519,0.01610667258501053,0.007849336601793766,0.015203827060759068,0.028643304482102394,0.0020440176595002413,0.009711784310638905,0.03429963067173958,0.0168522410094738,0.01019906997680664,0.0021767206490039825,0.003027274738997221,0.027165737003087997,0.0073821875266730785,0.025267815217375755,0.007251182571053505,0.01692003384232521,0.030012240633368492,0.016452932730317116,0.016175709664821625,0.009713585488498211,0.014287566766142845,0.0030852644704282284,0.011548825539648533,-0.0008420860394835472,0.024020222947001457,0.0009349592728540301,0.0022936163004487753,0.007952727377414703,0.00736829312518239,0.015881113708019257,0.0031277909874916077,0.019463948905467987,0.023155491799116135,0.0067191291600465775,0.005821610800921917,0.011263787746429443,0.011191088706254959,0.009242935106158257,0.01464890968054533,0.027622684836387634,0.016891082748770714,0.021520467475056648,0.017854301258921623,0.0079295439645648,0.10804544389247894,0.03535057604312897,0.02707039937376976,0.010036991909146309,0.0023802982177585363,0.03030579350888729,0.023718779906630516,0.0031145145185291767,0.027335084974765778,-0.0036523519083857536,0.02485823817551136,0.001717578386887908,0.00026343000354245305,0.0016673110658302903,0.006740668788552284,0.0019358383724465966,0.0070573994889855385,0.018600495532155037,0.0008244067430496216,-0.004539922811090946,0.0040056416764855385,0.010820901021361351,0.014757972210645676,0.01820940524339676,0.013618352822959423,0.028873633593320847,0.002151816850528121,0.015891408547759056,0.01806650124490261,-0.0011524760629981756,-6.671892333542928e-5,0.03132078796625137,0.03735395520925522,-0.003151140408590436,0.011925908736884594,0.00870057474821806,0.02252715267241001,0.002157805487513542,0.0033024167641997337,0.008571797050535679,0.018819009885191917,0.011861898005008698,0.01528653223067522,0.06996315717697144,0.029719773679971695,0.018604787066578865,0.007440795190632343,0.01969914883375168,0.05286582559347153,0.015326429158449173,0.01889864169061184,0.010090745985507965,-0.004298761487007141,0.0071564665995538235,0.007083124481141567,-0.002798208501189947,0.019375372678041458,0.005438122432678938,0.02910492569208145,0.00852228980511427,0.07953961938619614,0.009618973359465599,0.0018494846299290657,0.003254287876188755,0.022797873243689537,0.010602260939776897,0.01175608392804861,0.01130073331296444,0.0029270013328641653,-0.00021314040350262076,0.005779261700809002,0.004438287578523159,0.011648925952613354,0.004745470359921455,-0.0008317025494761765,0.004665226209908724,0.0028834815602749586,-5.890031025046483e-5,0.0007387482328340411,0.01605796627700329,0.006042052060365677,0.005360092502087355,-0.004341921769082546,0.006853034254163504,0.02123423106968403,0.009801344946026802,0.04192362725734711,0.0045992485247552395,0.0526978075504303,0.009309194050729275,0.002165531739592552,-0.000592474068980664,0.007936871610581875,0.0024731000885367393,-0.0014522770652547479,-0.0004635980003513396,-2.961081190733239e-5,0.009852235205471516,0.004864793736487627,0.004226588644087315,0.00114080507773906,0.0012597714085131884,0.000805843505077064,-0.020139046013355255,0.022105630487203598,0.026297109201550484,0.01502964273095131,0.016854269430041313,0.011187933385372162,0.005409997422248125,-0.00035213588853366673,0.014107183553278446,0.014668266288936138,0.0004172938934061676,0.02800976298749447,0.043404292315244675,0.018452173098921776,-0.0007068387349136174,0.0007604957791045308,0.014548791572451591,0.0016493387520313263,0.0329928956925869,0.015300009399652481,0.02056465856730938,-3.7867401260882616e-5,0.0179543849080801,0.0048051755875349045,0.0063897087238729,0.013900084421038628,0.008169272914528847,0.008107570931315422,0.020620940253138542,0.01027523260563612,0.0055898078717291355,0.0254101250320673,0.0006498911534436047,0.007305540144443512,0.013328531756997108,0.0005491763004101813,0.020526355132460594,-0.00020432486780919135,0.008274568244814873],[-0.04921526089310646,-0.09217587858438492,-0.02283991128206253,0.049402110278606415,0.01142349187284708,-0.0811445340514183,-0.09071031212806702,-0.030077163130044937,0.01230663526803255,0.0005856046918779612,-0.01721705123782158,-0.005941863637417555,-0.10250753909349442,0.023770824074745178,-0.05447083339095116,-0.0032149115577340126,0.0028881728649139404,0.002835878636687994,-0.09550106525421143,0.0027601313777267933,-0.004706818610429764,-0.009546579793095589,0.024474885314702988,0.00042513731750659645,0.0030391672626137733,-0.002115890383720398,-0.1629403531551361,0.009262393228709698,0.026851169764995575,-0.04919058084487915,0.004846843890845776,0.0770241767168045,0.009389325976371765,-0.011260299943387508,-0.05610014870762825,-0.014765514992177486,0.05837002396583557,-0.05184594541788101,-0.02343233861029148,0.010980639606714249,-0.029197601601481438,0.09754560887813568,0.012494581751525402,0.00103319704066962,0.0310211144387722,-0.0007333391113206744,0.002206348581239581,-0.04868841916322708,-0.13296769559383392,0.029314251616597176,0.11169108748435974,0.0344490148127079,0.06383334845304489,0.016189241781830788,0.03608007729053497,0.06382006406784058,0.012181375175714493,0.12954363226890564,0.06389456242322922,0.003556972835212946,0.020074939355254173,0.10694346576929092,-0.11853870004415512,-0.047494374215602875,-0.012917555868625641,0.07150539755821228,0.053829606622457504,0.017611993476748466,0.006819510832428932,-0.0790649875998497,-0.00047039432683959603,0.003174399258568883,0.03717918321490288,0.0306951105594635,-0.09409685432910919,0.01607053354382515,-0.0071285804733633995,0.012368150055408478,0.03332490101456642,0.10834474116563797,0.09235923737287521,0.06163836270570755,-0.09704805910587311,0.021362220868468285,0.01753183640539646,-0.04649204760789871,-0.03186945989727974,0.0022177575156092644,0.023067113012075424,0.057688672095537186,-0.00017623486928641796,-0.03110925480723381,-0.04810721054673195,0.0030046135652810335,0.06507077068090439,-0.09172455221414566,-0.06562182307243347,-0.005532783456146717,0.07387957721948624,0.09218046069145203,0.0038812647107988596,0.1111542209982872,0.021380361169576645,0.021150808781385422,-0.0004927819245494902,0.014167923480272293,0.0025905452203005552,0.04675957188010216,-0.025902649387717247,-0.0004555098421406001,-0.0036807574797421694,-0.001918644062243402,-0.025379139930009842,0.07155530154705048,-0.06612600386142731,0.06749314069747925,0.05305692180991173,-0.0007520679500885308,0.002679502358660102,-0.07020168751478195,0.06725063920021057,0.12463251501321793,0.07645884901285172,0.003176785772666335,-0.004997559357434511,0.045242879539728165,0.035629190504550934,-0.13482420146465302,0.04890723153948784,0.02278772182762623,0.07894057780504227,0.04927331581711769,-0.09465876966714859,-0.11767204850912094,-0.024311905726790428,0.044385187327861786,-0.0007953980821184814,0.0016404533525928855,0.02970454841852188,0.0031935523729771376,-0.09393467009067535,-0.03869253024458885,-0.01262563094496727,0.0035509085282683372,-0.09135497361421585,-0.10640593618154526,0.006997918710112572,-0.0635627880692482,-0.04372634366154671,-0.00014424703840631992,0.06713107228279114,0.00010206660226685926,-0.10490430146455765,-0.0017896897625178099,0.018567295745015144,0.02392435446381569,0.038570743054151535,-0.011739158071577549,-0.00038219138514250517,0.06458673626184464,-0.012869116850197315,0.002457158640027046,-0.002915859455242753,0.010464322753250599,0.11292127519845963,0.008511277846992016,0.05483565479516983,-1.1267688933003228e-5,0.08043747395277023,-0.01702232100069523,-0.008946288377046585,-0.01898224651813507,0.017278466373682022,0.08346297591924667,0.11275511234998703,-0.0481393039226532,0.08698302507400513,0.037556760013103485,0.007407366298139095,0.051672425121068954,0.0012260496150702238,0.05806601420044899,0.08466863632202148,-0.0881134569644928,0.04224240779876709,0.08119235932826996,0.08703064918518066,0.053671982139348984,0.08281122893095016,0.04344143345952034,-0.2250748723745346,0.05134405940771103,-0.0036147483624517918,0.05817903205752373,0.09849575161933899,0.019403507933020592,0.006485956721007824,-0.0007600132375955582,0.06939789652824402,0.004406865686178207,-0.053874772042036057,-0.016394127160310745,0.027057362720370293,-0.06819118559360504,-0.11384673416614532,-0.08697241544723511,0.02790483646094799,0.01707674376666546,-0.18615441024303436,-0.13764497637748718,-0.12416479736566544,0.0009628601255826652,0.049649372696876526,0.05617763474583626,-0.04148207977414131,0.09654710441827774,0.04850729554891586,-0.030571965500712395,0.13620512187480927,-0.06558611989021301,0.009356793947517872,0.025760939344763756,0.038622088730335236,0.09698936343193054,-0.022705547511577606,0.016892623156309128,-0.002749923849478364,-0.0018676976906135678,0.000963428698014468,-0.0023133850190788507,-0.024270080029964447,-0.13661447167396545,-0.1381530612707138,0.022106189280748367,-0.03918765112757683,0.055684056133031845,0.001344529795460403,0.03185432404279709,-0.04370728135108948,0.05354943871498108,-0.09688197076320648,0.10792457312345505,0.08278460800647736,-0.03083587810397148,0.01499096304178238,0.0016640638932585716,-0.029566079378128052,0.07290363311767578,-0.016782283782958984,-0.03465316444635391,0.09293661266565323,0.06815290451049805,-0.09574535489082336,0.05322566628456116,-0.02056189812719822,0.08851771056652069],[-0.0549459233880043,0.01501013245433569,-0.056941866874694824,-0.0031072483398020267,0.09009888023138046,0.020549960434436798,-0.04434201866388321,0.024903103709220886,-0.053084082901477814,-0.001190009992569685,-0.0015250862343236804,-0.14548064768314362,-0.07968708872795105,-0.005348122213035822,-0.1889021396636963,-0.011456764303147793,-0.16401974856853485,-0.19631220400333405,0.05910894647240639,0.19806164503097534,-0.08199573308229446,0.1234465166926384,0.004354567267000675,-0.00714343274012208,-0.05972937494516373,0.0947921946644783,-0.10738444328308105,-0.049899399280548096,-0.03457995504140854,-0.0017460199305787683,0.11686856299638748,0.03432643413543701,0.02421349659562111,0.12841267883777618,0.14398911595344543,0.07609739154577255,0.0035399829503148794,-0.04811059311032295,-0.05936817079782486,-0.03239728882908821,-0.024053791537880898,0.03574535250663757,-0.06984944641590118,-0.05876339226961136,-0.2202848196029663,0.06641385704278946,-0.09508419036865234,0.14021572470664978,0.02036784030497074,0.038939204066991806,0.186089426279068,0.007300627883523703,-0.05292430892586708,0.0032726507633924484,0.053888142108917236,0.022293251007795334,0.060654863715171814,0.005444660317152739,-0.018280314281582832,0.0031514863949269056,-0.11628381907939911,0.008860711008310318,0.14279967546463013,-0.02296447567641735,-0.15647488832473755,-0.01593795232474804,0.0033860921394079924,-0.21812547743320465,0.0006123005878180265,0.128183513879776,0.10165293514728546,-0.07460477948188782,0.07991580665111542,-0.22221499681472778,-0.0025466568768024445,-0.11530318856239319,-0.005146372597664595,0.12738774716854095,-0.053826954215765,0.11651110649108887,0.038693007081747055,0.24141503870487213,0.03684321790933609,0.02804657444357872,0.028578171506524086,-0.22494840621948242,-0.046489667147397995,0.003354682121425867,0.0011142533039674163,-0.009317358955740929,0.20038872957229614,0.0028217199724167585,0.26500481367111206,-0.021791167557239532,-0.048076145350933075,0.03578997403383255,-0.26359209418296814,0.13190121948719025,-0.02140299789607525,-0.0012631915742531419,0.006343451328575611,0.1309000551700592,-0.12421079725027084,-0.033273231238126755,0.011997804045677185,-0.1306350827217102,0.04020927846431732,-0.014534330926835537,-0.1607416421175003,-0.016070064157247543,0.009304804727435112,-0.11859605461359024,0.19506928324699402,-0.019986329600214958,0.011737357825040817,0.10846678912639618,-0.23379990458488464,0.004071220755577087,0.04668479785323143,0.11325760930776596,-0.003132155165076256,-0.08926383405923843,-0.0020435964688658714,0.1192370280623436,-0.15288634598255157,0.026497814804315567,-0.2337578684091568,-0.16744685173034668,0.0076926881447434425,0.0002623395121190697,-0.031207658350467682,0.07342583686113358,-0.01761867105960846,-0.07538054883480072,-0.2581081986427307,-0.009360059164464474,-0.13633649051189423,-0.00481123523786664,-0.07700902968645096,-0.027311844751238823,0.2554132640361786,-0.1230468824505806,0.0752626359462738,-0.6603490114212036,0.05103525146842003,0.21796196699142456,0.06218542158603668,-0.45244327187538147,0.15650689601898193,0.05058514326810837,0.02652728743851185,0.10060616582632065,-0.026553543284535408,-0.18842223286628723,0.11866457015275955,-0.15088482201099396,-0.0202668197453022,0.006391199771314859,-0.0007068131235428154,0.11695128679275513,0.030010178685188293,0.18731777369976044,0.06579572707414627,0.1876223236322403,0.16661973297595978,0.10383578389883041,-0.04666675254702568,0.01660272479057312,-0.010281631723046303,-0.11955966800451279,-0.15648408234119415,0.16042989492416382,-0.07382490485906601,-0.0032755485735833645,-0.2678484320640564,0.12338578701019287,0.007083779200911522,-0.061460498720407486,-0.15301430225372314,0.0007215701625682414,0.07917001098394394,-0.022765325382351875,-0.12743324041366577,-0.00020041082461830229,-0.18484152853488922,-0.02157113142311573,0.0015683250967413187,0.039341092109680176,0.04744839295744896,-0.20392613112926483,0.14171461760997772,-0.26244986057281494,-0.021252740174531937,0.004683915060013533,-0.0015577326994389296,-0.0035116213839501143,0.07688118517398834,-0.2054172158241272,-0.0032946451101452112,-0.2005164623260498,-0.012733572162687778,0.11120050400495529,-0.1749945431947708,-0.0003682362730614841,0.07789381593465805,0.0301600880920887,9.699039219412953e-5,-0.09126501530408859,0.05771784856915474,-0.17930279672145844,-5.072529529570602e-5,0.03423092141747475,-0.2998442053794861,0.15118220448493958,0.19470174610614777,-0.03167067468166351,0.11584566533565521,0.010894611477851868,0.16203568875789642,-0.062443263828754425,0.017909271642565727,0.10462342202663422,0.0009446212206967175,-0.016352571547031403,0.004941187798976898,0.07843656837940216,0.10557308048009872,-0.12693768739700317,0.08568782359361649,0.08414281159639359,0.03335925191640854,0.09375441074371338,0.024545930325984955,0.22840745747089386,0.0017939826939255,0.13753314316272736,-0.0599229633808136,-0.14485163986682892,-0.03988301753997803,0.007406898308545351,0.02793976664543152,0.001621866598725319,-0.009955717250704765,-0.025645865127444267,0.03794294595718384,0.12854085862636566,-0.0002684615319594741,0.13905638456344604,0.1826859414577484,0.04696100950241089,0.006061020772904158,-0.03996489942073822,-0.0059205214492976665,0.07422852516174316,-0.013924523256719112,-0.0003917586582247168],[-0.04151173308491707,0.1379653364419937,0.002708211774006486,-0.037480685859918594,0.2317413091659546,0.17018260061740875,-0.0023692920804023743,-0.043238505721092224,0.09425867348909378,0.059866763651371,0.09478719532489777,0.17669162154197693,0.01599060371518135,-0.1453639417886734,-0.15058092772960663,-0.008181847631931305,-0.06149841472506523,-0.004859128501266241,0.270607054233551,0.06947723776102066,0.05923570320010185,-0.17725776135921478,0.0464438796043396,0.08733635395765305,-0.016582950949668884,-0.0025774030946195126,-0.09497382491827011,0.02378908544778824,0.0009997730376198888,0.0048824939876794815,-0.18308117985725403,0.028713449835777283,0.03454473614692688,-0.10099299997091293,0.0010577747598290443,-0.10606388002634048,-0.1328459531068802,-0.05465763434767723,0.002011390868574381,-0.0003058321599382907,0.013129104860126972,0.02215307578444481,-0.09222857654094696,0.004932453390210867,0.10575880110263824,-0.0003247903659939766,0.07612241059541702,-0.04071959853172302,-0.11519858241081238,-0.05269923433661461,0.20721381902694702,-0.0012978947488591075,-0.07905381172895432,0.0022919955663383007,-0.023731516674160957,0.04471147432923317,0.021312659606337547,-0.18280938267707825,-0.03748597577214241,0.006802054587751627,-0.18695221841335297,-0.03136296942830086,0.07839901745319366,-0.10308679193258286,0.0047977459616959095,-0.08786561340093613,-0.1649879366159439,0.09533167630434036,-0.04243394732475281,0.08267641812562943,0.1490880399942398,-0.030893605202436447,0.27430403232574463,0.20305490493774414,-0.00704174442216754,0.05535488203167915,-0.008907316252589226,0.17927540838718414,-0.03190068528056145,0.08964447677135468,0.13174952566623688,0.02738119103014469,-0.03239370882511139,0.2406894564628601,-0.007633970584720373,0.1636023223400116,0.05846274644136429,-0.118676096200943,0.24359659850597382,0.055154312402009964,-0.06496450304985046,0.28813064098358154,-0.00028521911008283496,0.008009000681340694,-0.07367746531963348,0.19294704496860504,-0.05745445564389229,0.09833531826734543,-0.07849875092506409,0.04800491780042648,0.0012982346815988421,-0.0020829164423048496,-0.05531928315758705,-0.0863439291715622,-0.055431950837373734,-0.13933132588863373,-0.05788544565439224,-0.0520995631814003,0.02758135460317135,-0.13608679175376892,2.312235301360488e-5,0.0001265095779672265,-0.12191765010356903,-0.23432117700576782,0.0001685859460849315,0.0070241657085716724,0.017172865569591522,0.21294116973876953,0.0006718474323861301,-0.05722205340862274,-0.10040970146656036,-0.030971268191933632,-0.2606157660484314,-0.26491549611091614,0.016646817326545715,-0.001215724041685462,0.02158951386809349,0.06121603026986122,0.20041444897651672,-0.03012528084218502,0.050745945423841476,0.046694476157426834,-0.1143534705042839,-0.2143564224243164,0.0028820978477597237,-0.06889309734106064,-0.00016564139514230192,0.08901014924049377,0.008209028281271458,0.04666072875261307,0.016774682328104973,-0.0009302565013058484,0.007343617733567953,-0.01932322233915329,0.006421980448067188,-0.2398744523525238,0.03557243570685387,0.28758737444877625,-0.04486731067299843,-0.002349258866161108,-0.22883892059326172,-0.14664454758167267,-0.16271357238292694,-0.06924527138471603,0.003688641358166933,0.09682855755090714,-0.13850049674510956,-0.024714142084121704,0.11770612746477127,-0.21584349870681763,0.21967476606369019,-0.04196534305810928,-0.0861474871635437,0.21124280989170074,0.1754625290632248,0.2494940608739853,0.04423775523900986,-0.16597718000411987,-0.1688227504491806,-0.08966533094644547,-0.0768660455942154,-0.03286702185869217,0.15588781237602234,-0.14090561866760254,-0.15171724557876587,-0.1030471920967102,-0.196175679564476,-0.19222897291183472,0.10555398464202881,-0.09781928360462189,0.27361026406288147,-0.05796226114034653,0.07781193405389786,0.15541349351406097,0.08789241313934326,-0.2093542218208313,-0.19953826069831848,0.003479955717921257,-0.053599510341882706,-0.04742150753736496,0.1212824210524559,0.09644141048192978,0.15202347934246063,-0.07735569030046463,-0.1827678680419922,-0.005650656763464212,0.16692495346069336,0.011160718277096748,-0.005474351346492767,0.03767947107553482,-0.17772378027439117,-0.02993091754615307,0.04091382026672363,-0.1627141386270523,0.1837739795446396,0.15615032613277435,-0.0922960489988327,-0.164471834897995,0.0889957845211029,-0.10832154005765915,-0.042810603976249695,0.3197227418422699,0.1887621134519577,-0.025874294340610504,0.014686942100524902,-0.17484357953071594,0.13086996972560883,0.13665203750133514,0.18203075230121613,-0.041071873158216476,0.09448543190956116,-0.1203775480389595,0.04846373572945595,-0.20235992968082428,0.12140914797782898,0.17801453173160553,0.14313791692256927,-0.0718243196606636,0.19994983077049255,-0.30103275179862976,0.1821228265762329,-0.08943306654691696,-0.025269903242588043,0.10135883837938309,-0.00674784230068326,-0.3386087715625763,-0.05310477316379547,0.022442037239670753,0.011024375446140766,-0.16627635061740875,0.025485951453447342,0.02504810132086277,-0.12654989957809448,-0.1886974573135376,-0.09073775261640549,0.05998281016945839,0.27161139249801636,0.08510327339172363,0.07137390226125717,0.07470786571502686,-0.0831480324268341,-0.019578244537115097,-0.1281888633966446,-0.024352848529815674,-0.29506099224090576,-0.08404117077589035],[-0.009323036298155785,0.21012231707572937,0.21015892922878265,-0.03386782109737396,-0.2907516360282898,-0.5311890244483948,-0.18295946717262268,-0.41225630044937134,-0.19561374187469482,0.406720370054245,-0.10349091142416,0.01435044128447771,-0.2440776228904724,-0.14577719569206238,0.08857059478759766,0.09734486043453217,-0.2530871331691742,-0.020809566602110863,-0.10190346837043762,-0.13926489651203156,0.11127986013889313,-0.3327246606349945,-0.14407484233379364,-0.11790575832128525,0.0137912193313241,0.10350358486175537,-0.1293654441833496,0.06589528918266296,-0.022240525111556053,-0.14393922686576843,-0.14432033896446228,0.0032881353981792927,0.0755668580532074,-0.049753911793231964,-0.43259915709495544,-0.23756779730319977,0.005058871116489172,-0.004267324693500996,-0.008663928136229515,-0.022212238982319832,-0.14747494459152222,-0.05140417441725731,0.01591380126774311,-0.14329400658607483,-0.06186118349432945,-0.21214786171913147,-0.24807746708393097,0.06489202380180359,-0.21912166476249695,0.00032334704883396626,-0.018128398805856705,-0.17351733148097992,0.03196774423122406,0.02831335738301277,-0.10570214688777924,-0.01815994642674923,-0.2943241596221924,0.10360022634267807,0.0621085986495018,0.07437633723020554,-0.2704829275608063,0.11337225884199142,-0.02730298787355423,0.12083719670772552,-0.2582545578479767,-0.12981846928596497,0.13555869460105896,0.016101645305752754,-0.17500261962413788,-0.20200730860233307,-0.15329241752624512,0.13187573850154877,0.26098915934562683,0.007686917670071125,0.3554142415523529,0.001172456773929298,-0.006679159589111805,-0.11371562629938126,0.09430242329835892,0.0709291398525238,0.0012571782572194934,0.10672251880168915,-0.13033951818943024,-0.04307280480861664,0.01717536151409149,-0.11823509633541107,-0.00030261336360126734,0.03524323180317879,0.2938780188560486,0.06645962595939636,-0.005271608475595713,-0.23755820095539093,-0.18878529965877533,-0.0032819800544530153,-0.0029724061023443937,-0.30917051434516907,0.009678303264081478,-0.20362626016139984,0.08035625517368317,0.14022797346115112,0.11038346588611603,0.22593779861927032,0.1745305210351944,0.09611137956380844,-0.06882216036319733,0.11522301286458969,-0.09431127458810806,-0.004758563358336687,-0.27632132172584534,0.2035577893257141,-0.34936466813087463,-0.011137419380247593,0.013683803379535675,0.04760921373963356,-0.018959417939186096,-0.04359046742320061,0.10083576291799545,-0.18968023359775543,-0.17392602562904358,0.03826634958386421,0.22324372828006744,0.07464908063411713,0.14199723303318024,0.015936998650431633,0.10373940318822861,-0.00843307375907898,0.08115852624177933,0.09235840290784836,0.15690283477306366,0.14412997663021088,0.008251822553575039,0.030986521393060684,0.020272184163331985,0.28479379415512085,0.15986767411231995,0.05371867120265961,-0.04362088814377785,-0.028745532035827637,0.006098650861531496,0.1935596466064453,-0.22664253413677216,-0.09720852971076965,-0.3657689690589905,0.04905668646097183,-0.13268393278121948,-0.05700290575623512,0.07534927874803543,0.27253755927085876,-0.16171643137931824,-0.1358770877122879,-0.1378052830696106,-0.23267482221126556,0.03265523165464401,-0.06136579439043999,-0.19201716780662537,0.0896516889333725,0.23638513684272766,-0.029423357918858528,-0.11023279279470444,-0.0487927570939064,-0.21656468510627747,-0.17748376727104187,0.06216084584593773,-0.22232089936733246,0.16320012509822845,0.19190827012062073,-0.05115453526377678,0.06792347878217697,0.07877575606107712,0.018268775194883347,0.0033009375911206007,-0.19085407257080078,0.010673086158931255,-0.012631863355636597,-0.4309377670288086,0.3152937591075897,-0.037393853068351746,-0.1833367645740509,0.05425586551427841,0.008236908353865147,-0.045094359666109085,0.01474769227206707,0.15511839091777802,0.0906977578997612,0.09661270678043365,0.07768159359693527,-0.006393291987478733,-0.0408756323158741,0.06845774501562119,0.1885143220424652,0.009077342227101326,0.14623871445655823,-0.15663444995880127,0.1527058482170105,0.028457365930080414,-0.10185414552688599,0.2180989533662796,-0.06832580268383026,0.09791487455368042,0.06284947693347931,-0.14213724434375763,-0.10795988887548447,-0.17300814390182495,-0.16190223395824432,-0.2941294014453888,0.25174039602279663,0.0806867852807045,-0.009252931922674179,-0.040134262293577194,-0.2242964804172516,0.08226866275072098,0.010566234588623047,0.09176436066627502,0.05681370571255684,-0.19115234911441803,0.19053523242473602,0.03340991213917732,0.3041624128818512,0.21254979074001312,-0.023874105885624886,-0.1797584593296051,0.05055345594882965,0.12133165448904037,0.01803814433515072,0.02455637790262699,0.13053655624389648,-0.09981616586446762,0.15883396565914154,-0.18968307971954346,0.011664820834994316,0.31290969252586365,-0.12582744657993317,0.01189330779016018,0.008258117362856865,-0.3284614086151123,-0.18212375044822693,0.0005693247658200562,0.12473339587450027,0.07514689117670059,0.05134950950741768,-0.001662909984588623,0.19912154972553253,0.0033741379156708717,0.000154276451212354,0.0003472550888545811,-0.1870950162410736,0.0008508480386808515,0.11617694050073624,-0.2546764612197876,-0.14473408460617065,0.09593763202428818,0.15851284563541412,-0.00791172869503498,-0.021352369338274002,0.0224748644977808,0.15548035502433777],[-0.19428573548793793,0.13449183106422424,-0.05623292550444603,-0.007047821301966906,-0.07117000967264175,-0.12027226388454437,0.00036887743044644594,0.2024313062429428,0.0170125775039196,0.00015647514373995364,-0.001166932052001357,-0.03728016838431358,0.018365848809480667,0.1736339032649994,-0.035537756979465485,0.032174646854400635,0.02063691057264805,0.03719979152083397,0.13776160776615143,0.1955638974905014,-0.12361665815114975,-0.059655673801898956,-0.09966844320297241,0.0513138510286808,-0.027818771079182625,0.04922247305512428,0.010548921301960945,-0.00646477285772562,-0.14373737573623657,-0.01455595064908266,0.19250833988189697,0.0002830707817338407,-0.021572349593043327,-0.03874871879816055,-0.1319998800754547,0.029806150123476982,0.12446416169404984,-0.13258257508277893,-0.002406312385573983,-0.0023606789764016867,0.0030548672657459974,-0.21249738335609436,0.12971360981464386,0.00033280043862760067,-0.08820121735334396,-0.26160305738449097,-0.0011349993292242289,0.10214037448167801,-0.001154207857325673,-0.0068697878159582615,0.19435171782970428,-0.12047432363033295,-0.16624779999256134,-0.011597645469009876,-0.05976163595914841,-0.02393176779150963,-0.25951072573661804,0.05664285644888878,-0.010778865776956081,-0.1466609537601471,-0.004341632593423128,0.03877955302596092,-0.07066208124160767,-0.16115030646324158,-0.3440267741680145,0.08606946468353271,-0.021212436258792877,-0.041514862328767776,-0.18781700730323792,0.020899109542369843,0.1953536868095398,-0.086917944252491,0.0783558189868927,-0.027359960600733757,-0.001856429735198617,-0.16397055983543396,-0.006648917682468891,-0.18253061175346375,-0.033471181988716125,0.006913991644978523,0.09333696961402893,-0.18913814425468445,-0.06402038037776947,-0.35559698939323425,0.07114779204130173,0.04184696450829506,-0.002777501940727234,0.05648290738463402,0.16096030175685883,-0.005545794498175383,-0.17789794504642487,-0.0012228171108290553,-0.026666196063160896,-0.15313352644443512,0.02586967684328556,-0.26321038603782654,0.2189541608095169,0.15061847865581512,-0.07620910555124283,-0.045063357800245285,-0.11050473153591156,0.0198158398270607,0.29353249073028564,0.0960654467344284,-0.04830559715628624,0.20726023614406586,0.23031264543533325,-0.00029653444653376937,-0.0448550321161747,0.12983232736587524,0.03893372416496277,-0.002037940314039588,0.023308588191866875,-0.01072319783270359,0.1954948604106903,-0.11354870349168777,-0.12297643721103668,-0.011719797737896442,0.15310734510421753,-0.020519893616437912,-0.02567482553422451,0.0305684395134449,0.003108822740614414,0.1284569650888443,-0.029164602980017662,-0.196767196059227,-0.07888840138912201,0.0003772714117076248,0.12638741731643677,-0.23420050740242004,-0.13780471682548523,0.042472489178180695,-0.03447822108864784,-0.45504602789878845,0.07473767548799515,0.005351013969630003,-0.01595206931233406,-0.043767161667346954,0.12196436524391174,0.3116800785064697,-0.0004981153761036694,0.05626505985856056,0.18718530237674713,-0.23844963312149048,0.06946016848087311,0.2594451606273651,-0.11009175330400467,0.15599916875362396,0.06792842596769333,0.003913857974112034,0.09231238067150116,-0.3551163971424103,-0.04000500962138176,-0.031605277210474014,0.034859463572502136,-0.0010179118253290653,-0.02185901813209057,-0.04595424607396126,-0.008397023193538189,-0.09014566242694855,0.0939033180475235,0.09249072521924973,0.12738145887851715,-0.0789053812623024,0.07778090238571167,0.19375093281269073,-0.2669050693511963,0.0010279689449816942,0.0010581136448308825,-0.09270632266998291,0.16498807072639465,0.00768453162163496,0.31260424852371216,0.006740993820130825,-0.010940421372652054,-0.46516281366348267,-0.04801761358976364,-0.06805368512868881,0.047372668981552124,0.1637006551027298,0.1933172196149826,-0.06092529743909836,0.18157587945461273,0.14523229002952576,-0.06280021369457245,0.10944779962301254,0.011194108054041862,0.0002810055739246309,-0.1630391776561737,0.007025695405900478,0.41764217615127563,-0.060266703367233276,0.07885591685771942,-0.02802211232483387,0.1015392392873764,0.0529388003051281,0.1520882099866867,-0.10596293210983276,0.14907848834991455,0.2021259367465973,0.12850946187973022,0.17279697954654694,-0.3986978530883789,0.04369650036096573,-0.00192753947339952,0.0930626168847084,0.0622515045106411,-0.14187346398830414,0.2883082926273346,-0.008763117715716362,-0.21817824244499207,-0.011204637587070465,-0.019714074209332466,0.010176008567214012,-0.003022711956873536,-0.04875769466161728,0.04039199277758598,0.09670700132846832,0.2220970094203949,-0.0535426139831543,-0.12589888274669647,-0.03390338271856308,-0.1373480260372162,-0.02025456354022026,0.04731541872024536,0.12852655351161957,0.22729390859603882,-0.031154006719589233,-0.004664377775043249,0.03994470834732056,0.21472354233264923,0.009041898883879185,0.06192419305443764,-0.05297716334462166,-0.10523221641778946,0.06967584788799286,0.17997850477695465,0.09865789860486984,-0.1335911899805069,0.14986467361450195,0.0002838688960764557,-0.0718076080083847,-0.008975294418632984,-0.2823542654514313,0.13377566635608673,-0.00018555311544332653,-0.10412751138210297,0.11554542183876038,-0.024066772311925888,-0.00038991941255517304,0.06391055881977081,0.028845220804214478,-0.06126581132411957,-0.147788867354393,-0.09286738932132721,-0.009275509975850582],[-0.09985150396823883,-0.08568363636732101,-0.0018426828319206834,0.19546209275722504,-0.004908059258013964,0.4116821587085724,0.39585256576538086,0.061051759868860245,0.16241148114204407,-0.05456938594579697,0.1117863804101944,0.2115512192249298,0.1796930879354477,0.12666171789169312,0.11466092616319656,0.006286728661507368,0.17074111104011536,-0.046026505529880524,-0.4262276887893677,-0.05454762279987335,0.09741081297397614,0.024197764694690704,-0.1251789629459381,-0.0002498239919077605,0.03152894601225853,0.03700631484389305,-0.1656966209411621,0.10344957560300827,-0.07039772719144821,0.0016039301408454776,-0.00111904286313802,-0.19177217781543732,-0.11164158582687378,0.22422336041927338,0.057861462235450745,-0.06764338910579681,-0.23625940084457397,0.1575450301170349,0.04792247712612152,0.24295742809772491,0.11967630684375763,-0.05992736667394638,-0.13036370277404785,0.17723852396011353,0.007084093522280455,-0.023204276338219643,0.09786613285541534,0.19425448775291443,0.04121377319097519,0.10112576931715012,-0.0893012061715126,-0.045258697122335434,-0.30076438188552856,0.07722403854131699,-0.0007540371152572334,-0.26059257984161377,-0.18540959060192108,-0.022558335214853287,-0.19249142706394196,-0.0005043387645855546,0.17093099653720856,-0.03418637439608574,0.04322192817926407,0.1716022789478302,0.03156221657991409,-0.04565452039241791,-0.09589952975511551,0.024310652166604996,-0.0017350101843476295,0.037942901253700256,-0.0619073361158371,-0.08041490614414215,-0.10306796431541443,-0.12024407088756561,-0.09281771630048752,-0.03987737372517586,0.023775426670908928,-0.08453721553087234,-0.024699736386537552,-0.17326094210147858,-0.3236618936061859,-0.23485730588436127,0.3388741612434387,-0.22981524467468262,-0.18209333717823029,-0.3985521197319031,-0.08994551748037338,-0.14899353682994843,-0.022841721773147583,-0.1299653947353363,0.12164802849292755,0.20582623779773712,-0.14061304926872253,0.019459335133433342,-0.015797285363078117,0.2702654302120209,0.2639622986316681,-0.019849946722388268,-0.24997811019420624,-0.015125888399779797,-0.24073991179466248,-0.0035493390168994665,-0.05285575985908508,-0.1106918677687645,0.048563919961452484,-0.11093277484178543,-0.119420625269413,0.03413710743188858,0.34146544337272644,-0.06770592927932739,0.10992397367954254,-0.015096141025424004,-0.09959236532449722,-0.2770117521286011,-0.0659802109003067,-0.24635273218154907,0.25877559185028076,-0.09820310026407242,-0.11297772079706192,0.0761871412396431,-0.012509455904364586,-0.013334349729120731,0.033731307834386826,0.19948889315128326,0.2348947376012802,-0.006881802808493376,0.10736983269453049,0.09954406321048737,-0.10058118402957916,-0.11615196615457535,-0.03870251402258873,-0.04803347587585449,0.24429583549499512,-0.03543247655034065,-0.2726055979728699,-0.1626095473766327,0.08361759036779404,-0.09059438109397888,-0.0033011615741997957,0.05928017199039459,-0.09268630295991898,0.2871929109096527,-0.08535723388195038,0.45878955721855164,0.12766115367412567,-0.11339502036571503,-0.25159451365470886,0.021296007558703423,-0.08390474319458008,-0.11878766119480133,0.1805160790681839,0.05064377561211586,0.3004225492477417,0.004210267215967178,-0.08312580734491348,-0.16892939805984497,0.026636403053998947,-0.05006932094693184,0.04854421690106392,-0.027156615629792213,-0.16307061910629272,-0.08342338353395462,0.3626497983932495,-0.031525444239377975,0.07256706058979034,-0.11793874204158783,0.08544792234897614,-0.15941013395786285,-0.22786785662174225,-0.2994788587093353,-0.029911551624536514,-0.023052163422107697,0.17339210212230682,-0.31771036982536316,0.27120673656463623,0.15987923741340637,-0.2671043276786804,-0.0913931354880333,-0.0051228743977844715,-0.13463953137397766,-0.11495845019817352,0.13790163397789001,0.036616478115320206,-0.0005881969118490815,-0.06258842349052429,-0.10524234175682068,-0.15575574338436127,-0.31141364574432373,-0.2995424270629883,-0.016448674723505974,0.010038279928267002,-0.0053797331638634205,0.17666341364383698,-0.0263887457549572,-0.219550222158432,-0.23480412364006042,0.09155110269784927,-0.44337305426597595,-0.09131025522947311,0.036500439047813416,0.1823054403066635,-0.1883646547794342,-0.002804397838190198,0.03226504474878311,0.10190623253583908,-0.017425058409571648,0.010333318263292313,-0.06604284048080444,0.15320585668087006,0.5630888938903809,-0.0015039965510368347,-0.18657797574996948,0.026219578459858894,-0.18272995948791504,-0.04751242697238922,0.023452911525964737,-0.15333211421966553,-0.011031846515834332,-0.031575728207826614,-0.020619018003344536,-0.3915310502052307,-0.21825940907001495,-0.2739815413951874,-0.008686290122568607,0.012484882958233356,-0.11146283149719238,-0.07867471128702164,0.004378460347652435,-0.2420727163553238,0.15352404117584229,-0.01708395779132843,0.05663086473941803,0.07930977642536163,-0.02288641966879368,0.000473561609396711,-0.23277835547924042,-0.10595889389514923,0.16067509353160858,0.005068231374025345,-0.07332419604063034,0.07993853837251663,0.009822089225053787,-0.21177047491073608,0.3788539171218872,-0.18850620090961456,-0.10969309508800507,0.23710320889949799,-0.11641958355903625,-0.14560894668102264,0.057470038533210754,-0.05362016335129738,-0.045374948531389236,0.28325027227401733,-0.15036557614803314,0.058925461024045944,-0.1590190976858139],[-0.0011440524831414223,0.008986330591142178,0.0898553729057312,-0.0029777244199067354,0.012619203887879848,-0.1329909861087799,0.12324841320514679,-0.06309083104133606,0.004390943795442581,-0.46614885330200195,0.08484853804111481,-0.0005953049985691905,0.040407005697488785,0.016149237751960754,0.30452975630760193,0.026782410219311714,0.008131597191095352,0.018207620829343796,-0.027682924643158913,-0.060145098716020584,0.03919016569852829,-0.33223626017570496,0.28285500407218933,0.07135511934757233,0.03402966260910034,-0.45069435238838196,-0.026835650205612183,0.048551108688116074,0.2650695741176605,0.1462981253862381,-0.23210692405700684,-0.08919893205165863,0.10021704435348511,-0.25542014837265015,-0.02148830145597458,-0.4735200107097626,-5.562657679547556e-5,0.15201030671596527,-0.1320691704750061,0.12011726200580597,-0.043163374066352844,0.03658817335963249,-0.1139911636710167,0.044259872287511826,0.026027975603938103,0.016269655898213387,0.0137086296454072,-0.4186653196811676,-0.02679026871919632,-0.01899014040827751,-0.007935158908367157,0.004853258840739727,-0.2597256004810333,0.12193266302347183,0.19479085505008698,-0.39542344212532043,-0.4116798937320709,-0.2024928480386734,0.036556780338287354,0.16046524047851562,0.047520533204078674,-0.21697163581848145,0.0010978847276419401,0.0071803913451731205,0.0569012276828289,-0.32386624813079834,0.2065277397632599,-0.057574424892663956,0.1986681967973709,-0.01284435112029314,-0.07542529702186584,0.13729813694953918,0.0037087476812303066,-0.48368844389915466,-0.2856001555919647,0.0006797953974455595,0.10290131717920303,-0.004220419097691774,-0.24221086502075195,-0.13273951411247253,-0.12186765670776367,-0.020900040864944458,-0.12824629247188568,-0.22377197444438934,0.1096639409661293,-0.23241519927978516,0.02330952137708664,0.2672859728336334,-0.13608409464359283,0.06146436929702759,0.07847795635461807,0.1314292699098587,-0.25249215960502625,0.01594685949385166,0.015044990926980972,0.00372094614431262,0.5667858719825745,-0.04283417761325836,-0.39380064606666565,0.01895219087600708,-0.19071921706199646,-0.018634743988513947,0.06434144824743271,0.07321473211050034,0.19459758698940277,0.06882679462432861,0.06455005705356598,0.007773139514029026,0.3911111652851105,0.2267506867647171,-0.006875333841890097,0.22621507942676544,-0.10797213017940521,0.001240563695318997,-0.0958399549126625,-0.03386439383029938,-0.0032520939130336046,0.17064277827739716,-0.10746850073337555,-0.21966584026813507,-0.01974545232951641,-0.24355413019657135,-0.018549704924225807,0.01871887780725956,0.1897869110107422,0.039658594876527786,0.026509568095207214,0.28884440660476685,-0.047185055911540985,0.0962146520614624,0.14448706805706024,-0.15453661978244781,0.09863532334566116,0.0035731401294469833,0.024356601759791374,-0.0006878806161694229,0.1827211081981659,0.35261115431785583,0.016568809747695923,-0.42838507890701294,-0.1733420044183731,0.11896529793739319,-0.07432058453559875,0.17881524562835693,0.07577508687973022,-0.2208814173936844,-0.440155029296875,0.09698274731636047,-0.03419557958841324,0.01793421059846878,-0.15318317711353302,0.11141476780176163,0.04744482785463333,0.018866702914237976,-0.2908933162689209,0.008060549385845661,0.0906527042388916,0.11724646389484406,0.1702181100845337,-0.2648274600505829,0.05632442608475685,-0.26078808307647705,0.07332034409046173,-0.005596661474555731,-0.0903187170624733,-0.003262394806370139,0.08148704469203949,0.1667778491973877,-0.04648030176758766,-0.2440968155860901,0.037185002118349075,-0.02841828763484955,0.06018828600645065,-0.0792645588517189,-0.010741074569523335,-0.33691996335983276,-0.17715980112552643,0.036483850330114365,-0.01133708469569683,0.05108034983277321,0.03962084278464317,-0.04057621210813522,-0.05500151962041855,0.04151751101016998,-0.06741110980510712,-0.34429699182510376,-0.2735963761806488,-0.2621319591999054,-0.21768343448638916,0.10563401877880096,-0.22212699055671692,-0.014964898116886616,-0.12564171850681305,-0.00031009543454274535,-0.2741720974445343,0.016810985282063484,0.0024594294372946024,-0.1727467179298401,0.01062244363129139,-0.002650974551215768,-0.08222327381372452,-0.3377856910228729,0.03713102638721466,-0.06387133151292801,0.01141075138002634,0.014394274912774563,-0.06680407375097275,-0.029871758073568344,0.026906615123152733,0.11455872654914856,0.020060472190380096,-0.1215309426188469,0.06493829190731049,-0.1800389438867569,-0.11371290683746338,-0.05970349535346031,-0.0992836207151413,-0.07223338633775711,-0.007327541708946228,-0.39593228697776794,-0.38965970277786255,-0.12798035144805908,0.36270931363105774,-0.36857008934020996,0.017134904861450195,-0.0009401916759088635,-0.14551681280136108,0.00026865192921832204,-0.07711644470691681,-0.18192778527736664,-0.10320688039064407,-0.0044499412178993225,-0.01953567937016487,0.00576197961345315,0.08099985122680664,-0.38962405920028687,0.025778628885746002,-0.1474345326423645,0.11017438769340515,0.003217149991542101,-0.0007592430338263512,-0.09216197580099106,-0.05552975833415985,0.08820492029190063,-0.19186174869537354,7.160227687563747e-5,0.16864508390426636,-0.014529145322740078,-0.06110725179314613,-0.0004510764265432954,-0.24368245899677277,-0.0017072586342692375,-0.01743164099752903,-0.11909440904855728,-0.0031900464091449976,-0.00027794906054623425],[0.025019627064466476,-0.04054683819413185,0.0805034413933754,-0.09865035116672516,-0.060684386640787125,-0.3648253381252289,-0.5109797716140747,0.03630885109305382,-0.05945394188165665,0.04598470404744148,-0.0009289334993809462,0.06387552618980408,-0.0002117283729603514,-0.19573082029819489,0.13946034014225006,0.053992822766304016,-0.38470444083213806,0.062879778444767,-0.25673696398735046,0.10722776502370834,-0.5104799866676331,-0.0588943287730217,0.07442882657051086,0.22463032603263855,0.21011961996555328,-0.09297803789377213,0.18700334429740906,-0.005706740543246269,0.007007813546806574,-0.11108218133449554,-0.11923013627529144,0.021274399012327194,-0.030245421454310417,0.06798993051052094,-0.037299055606126785,-0.1784161925315857,0.10932327806949615,-0.013435564935207367,0.11588367819786072,-0.017891261726617813,0.057078227400779724,0.11105848103761673,0.2012268304824829,-0.013209430500864983,-0.03362848237156868,0.05997147783637047,0.12343389540910721,0.25109487771987915,-0.050591159611940384,-0.00722514046356082,-0.10630869120359421,0.09672272950410843,-0.1537690907716751,-0.20897749066352844,-0.0553320087492466,-0.0007605075952596962,-0.3042568862438202,-0.05241962522268295,0.0019870249088853598,-0.08280687034130096,0.039237502962350845,0.0003751076874323189,0.00204091495834291,0.12834517657756805,0.1788175404071808,-0.305322527885437,0.009175307117402554,0.07885149866342545,0.0013571681920439005,-0.10282319784164429,-0.07966072857379913,0.07683935016393661,0.023637745529413223,-0.39487189054489136,0.0475958026945591,0.12542399764060974,-0.44647112488746643,-0.03757347911596298,-0.27549365162849426,-0.001386754447594285,-0.10130785405635834,0.0051229847595095634,-0.221889466047287,-0.19290845096111298,0.5488768815994263,0.05517800897359848,-0.1383625566959381,-0.011286063119769096,-0.0015092832036316395,-0.14662106335163116,0.10532168298959732,-0.3186965882778168,0.04174496978521347,0.0961562767624855,0.045419540256261826,-0.10596467554569244,0.03210991993546486,0.06326121091842651,-0.1572403907775879,-0.030085161328315735,0.10525131970643997,-0.14677728712558746,0.07816478610038757,0.23877905309200287,-0.08081058412790298,0.06047682836651802,0.01792115531861782,0.010835770517587662,-0.22061777114868164,-0.1409638375043869,0.04301207885146141,0.025268131867051125,0.03132571280002594,0.1351626068353653,0.007792486809194088,-0.061910051852464676,0.06472374498844147,0.005532458424568176,0.4232020676136017,0.039472635835409164,-0.123411163687706,0.02538367547094822,-0.17451196908950806,0.0554257407784462,-0.2652947008609772,-0.3035246431827545,-0.055966250598430634,-0.5610045790672302,0.02532353065907955,0.10072770714759827,0.018724795430898666,-0.06898125261068344,-0.016265492886304855,-0.019736487418413162,-0.17673160135746002,0.019620278850197792,0.007294424343854189,0.13316234946250916,0.01362721249461174,-0.23586760461330414,0.13462167978286743,0.06387864053249359,0.09427299350500107,0.09914009273052216,-0.0664360448718071,0.11401110887527466,-0.00035738979931920767,0.1440938115119934,-0.005520355422049761,0.2877538800239563,0.022561967372894287,0.0027401878032833338,0.011050182394683361,0.028503932058811188,-0.2056649774312973,0.2913558781147003,0.009659364819526672,0.25208884477615356,0.05346038192510605,-0.21287904679775238,-0.05950596556067467,-0.003023930126801133,-0.11465192586183548,-0.030425474047660828,-0.05350417271256447,-0.03803164139389992,0.05067797750234604,0.16648903489112854,0.12596578896045685,-0.2464592009782791,-0.4117635488510132,0.08273521810770035,0.017194801941514015,0.15220209956169128,0.08127253502607346,0.09427528828382492,-0.29157376289367676,-0.038832999765872955,0.03649754077196121,0.04491196945309639,-0.158869668841362,-0.05240528658032417,-0.08835476636886597,0.02478673867881298,0.00547891715541482,0.09098540246486664,-0.05574260652065277,0.049653880298137665,-0.10878694802522659,0.11855050921440125,-0.005819577723741531,-0.12152961641550064,0.2314096838235855,0.11906231194734573,-0.011606245301663876,0.37385129928588867,-0.16960403323173523,-0.2785942852497101,0.1667134165763855,-0.0972154438495636,-0.017237987369298935,-0.22075755894184113,-0.06633462011814117,0.03223096951842308,-0.11314194649457932,0.18474557995796204,0.02173825353384018,0.044267188757658005,0.15730208158493042,0.1368568390607834,0.006441854871809483,-0.0018927748315036297,-0.09488154947757721,-0.04556022956967354,0.1542358249425888,-0.10867352038621902,-0.06146259233355522,0.046913012862205505,-0.0592513270676136,0.19787704944610596,0.16568557918071747,-0.021166477352380753,0.007667910773307085,0.01463737990707159,0.05604209750890732,0.0005839812220074236,0.044610343873500824,0.2313452959060669,0.011910583823919296,0.021410370245575905,0.02471950650215149,-0.00045575975673273206,-0.08441175520420074,-0.1331031173467636,0.0003934969427064061,-0.08771591633558273,0.14789573848247528,-0.17680001258850098,-6.595645390916616e-5,0.054466161876916885,-0.17812851071357727,-0.07846397906541824,0.1780695617198944,0.2221139520406723,0.320503830909729,0.026813164353370667,-0.09931538999080658,0.023184016346931458,-0.02409958653151989,-0.048791076987981796,0.09060712158679962,0.049481846392154694,0.0012928236974403262,-0.23977388441562653,-0.00873836874961853,0.06668467074632645],[0.018478507176041603,-0.013144531287252903,-0.16059917211532593,0.166428342461586,-0.05076633021235466,0.23068180680274963,0.47774460911750793,0.2420022040605545,-0.04785493016242981,0.396102637052536,0.0458628386259079,0.14559787511825562,-0.1317339539527893,0.10622106492519379,-0.034427180886268616,-0.01711220294237137,-0.03496992215514183,0.009370279498398304,-0.31670740246772766,-0.01210527028888464,-0.09505917876958847,0.05315740033984184,-0.12278249114751816,-0.0055349962785840034,-0.11226775497198105,-0.3241424858570099,0.08188945800065994,-0.014480740763247013,-0.21877513825893402,0.005811100360006094,0.15947438776493073,-0.0007500265492126346,0.1098739504814148,-0.4442896842956543,0.007845153100788593,-0.08099198341369629,0.03657064214348793,-0.013093579560518265,0.2041299045085907,0.17162339389324188,0.11681616306304932,-0.11837181448936462,-0.15969158709049225,0.18208444118499756,0.0724823847413063,-0.04143468663096428,0.019968949258327484,0.03284148499369621,0.002059339312836528,0.24296486377716064,0.1845969706773758,0.06295197457075119,-0.317256897687912,0.17461568117141724,0.1916053742170334,-0.15001870691776276,0.09318231046199799,-0.05145576596260071,-0.0030651921406388283,-0.1806774139404297,0.2722685635089874,-0.024033498018980026,0.07951261103153229,0.00710264453664422,0.08386664092540741,-0.08982401341199875,-0.1458246260881424,0.24829603731632233,0.07363366335630417,0.11810175329446793,-0.00669819163158536,-0.0841546356678009,-0.035052575170993805,-0.14560770988464355,0.026857569813728333,0.18552649021148682,0.15177059173583984,0.06370431929826736,-0.1874493956565857,-0.0056927138939499855,-0.025867704302072525,-0.09034689515829086,-0.06007823348045349,0.18369944393634796,-0.04950711876153946,0.16510345041751862,0.1095859631896019,-0.00836252886801958,0.02590954303741455,-0.08777683228254318,-0.007000777404755354,0.23693116009235382,0.023015981540083885,-0.12308260798454285,0.11346909403800964,0.1614380180835724,-0.012403472326695919,0.05868871137499809,0.1853063851594925,0.24640575051307678,0.001663092290982604,-0.21467912197113037,-0.16717705130577087,-0.33911776542663574,-0.0530545748770237,-0.08370551466941833,0.17907701432704926,-0.10248967260122299,0.04936596751213074,-0.045750271528959274,0.3726612329483032,-0.19643661379814148,0.0460679829120636,0.02213851362466812,0.03457528352737427,-0.10694834589958191,0.14682714641094208,-0.037265826016664505,0.3682592213153839,-0.26818156242370605,-0.10196086764335632,0.06239420175552368,0.012309257872402668,0.01179776806384325,-0.26925259828567505,0.0582825168967247,0.040551990270614624,-0.11158822476863861,4.3696862121578306e-5,-0.35229504108428955,0.1252981722354889,0.18154513835906982,0.012282190844416618,0.028767015784978867,-0.30993586778640747,-0.005958853289484978,-0.017613688483834267,-0.5202785134315491,-0.1340034157037735,0.24529707431793213,0.07159960269927979,0.02190154418349266,-0.003988098353147507,0.08017624914646149,0.008488913998007774,0.08664841949939728,0.14480678737163544,-0.453228235244751,0.012956700287759304,0.3375665843486786,0.1261521875858307,0.04236868396401405,0.2760046720504761,0.2025023102760315,0.031196635216474533,-0.022022156044840813,-0.05850162357091904,0.1333290934562683,-0.16953031718730927,-0.32487156987190247,-0.24339689314365387,-0.021312423050403595,-0.47180336713790894,0.011275048367679119,0.01022077165544033,-0.004507184959948063,0.15971694886684418,-0.10861361026763916,-0.0028231304604560137,-0.012870941311120987,-0.24199369549751282,0.12654004991054535,0.06613954901695251,-0.09864582121372223,0.013519316911697388,0.051463961601257324,-0.00226106820628047,0.16406777501106262,-0.0027844347059726715,-0.024729184806346893,-0.3101232051849365,0.056722015142440796,-0.055439092218875885,-0.19951927661895752,0.286129891872406,0.3560923635959625,0.058913394808769226,0.03505321219563484,0.005332243163138628,-0.010997931472957134,0.023472493514418602,0.1495439112186432,0.369903564453125,0.0015285959234461188,-0.07668537646532059,-0.06064547598361969,0.17446011304855347,-0.15553629398345947,0.2428392916917801,-0.0960572138428688,-0.22401657700538635,0.15842339396476746,0.2649090886116028,0.0002056160883512348,0.028828062117099762,-0.05476810783147812,0.14463205635547638,-0.07852086424827576,0.00149728381074965,0.23647651076316833,-0.0027221436612308025,0.05585095286369324,0.005943231284618378,-0.13801167905330658,-0.1401212364435196,0.09355942904949188,-0.06604611128568649,0.004045971669256687,0.009850375354290009,0.331645667552948,-0.1818160116672516,-0.11663728207349777,-0.12476673722267151,0.22055254876613617,0.08021335303783417,0.08002369105815887,-0.010322339832782745,-0.01964496821165085,-0.07405540347099304,-0.1484346240758896,-0.0004617130325641483,-0.00666311290115118,-0.04236682504415512,-0.0754554346203804,-0.02251790463924408,0.026118572801351547,-0.0631379783153534,-0.03272749111056328,-0.08570580929517746,0.053888753056526184,0.12026810646057129,0.17987453937530518,0.003980443347245455,0.014477293938398361,-0.010176955722272396,-0.015093830414116383,0.03007425181567669,-0.0028982488438487053,0.05520305037498474,0.09340938180685043,0.004038319922983646,-0.08372989296913147,-0.0002407324209343642,0.13622397184371948,0.12236212193965912,0.0001507729321019724],[-0.1144239753484726,-0.11880268156528473,-0.31830957531929016,-0.003473736112937331,-0.014542882330715656,-0.12730610370635986,0.17878900468349457,0.18586371839046478,0.06503165513277054,0.267568975687027,0.18714743852615356,-0.2620832324028015,0.14928823709487915,-0.016960766166448593,0.07320482283830643,-0.007036665920168161,0.24016502499580383,-0.14042828977108002,0.016383666545152664,0.014148823916912079,0.08690352737903595,0.10857339203357697,0.3744974732398987,0.0013109288411214948,-0.4780047535896301,0.03841952607035637,-0.009426677599549294,-0.15660825371742249,-0.021256795153021812,0.09388591349124908,0.02142377570271492,-0.09899140894412994,0.024158140644431114,0.3522060513496399,0.10104087740182877,0.0972483828663826,-0.0058492133393883705,-0.015305329114198685,0.2200322300195694,0.18011407554149628,0.11742609739303589,-0.28855210542678833,-0.31240174174308777,0.07186248898506165,-0.05329488217830658,-0.03956785798072815,-0.043586041778326035,-0.07059705257415771,0.13151979446411133,0.17905357480049133,-0.17041495442390442,-0.04003527760505676,0.020629340782761574,-0.09089421480894089,0.002050528535619378,-0.20170360803604126,0.11009292304515839,0.011255043558776379,-0.05295777693390846,-0.09211082756519318,0.28914350271224976,0.0005480293766595423,0.10659967362880707,0.2406506985425949,0.23460640013217926,0.1443771868944168,0.025950515642762184,-0.03924580663442612,0.20278161764144897,-0.009662668220698833,-0.054849132895469666,-0.07747804373502731,-0.03466406464576721,0.034173790365457535,0.01629718951880932,-0.11962993443012238,-0.114692822098732,-0.011816393584012985,0.17989744246006012,0.02469196356832981,0.0897187665104866,0.16387639939785004,0.13335640728473663,0.14896731078624725,-0.33418625593185425,-0.259747177362442,-0.02004239149391651,0.10098771750926971,-0.10881002992391586,0.02648339234292507,0.18442510068416595,0.027719585224986076,-0.06498920917510986,-0.091451495885849,0.010961148887872696,0.3074301481246948,-0.07491590082645416,-0.0873023048043251,0.1282966285943985,-0.09073850512504578,-0.008197508752346039,-0.08467227965593338,0.15634550154209137,-0.27989286184310913,0.16633833944797516,-0.014470690861344337,0.10136699676513672,-0.30801087617874146,0.08503183722496033,-0.0036189844831824303,-0.10646231472492218,0.020970482379198074,0.11084812134504318,-0.19215120375156403,-0.24530205130577087,0.064878448843956,-0.006551305763423443,0.22777685523033142,-0.32620975375175476,0.10034578293561935,-0.40778040885925293,0.06306914240121841,0.01573508232831955,0.0007975982152856886,0.09084739536046982,0.29897430539131165,-0.0008720983751118183,0.08434577286243439,-0.16684240102767944,0.01428547129034996,-0.09062492847442627,-0.001379112247377634,0.0996023640036583,0.27453720569610596,-0.3035460412502289,-0.09624834358692169,-0.10387926548719406,0.35172393918037415,0.026329845190048218,-0.24114763736724854,-0.04271838814020157,0.009727614931762218,-0.1324918121099472,-0.043898891657590866,0.1844244748353958,0.10191760957241058,-0.17211727797985077,0.016596853733062744,-0.08001798391342163,-0.17996704578399658,-0.015559906139969826,0.1660175621509552,0.0066910055465996265,0.1669626384973526,-0.03404344618320465,-0.11529138684272766,-0.28560271859169006,-0.1743374615907669,0.14544248580932617,0.20681020617485046,-0.35520994663238525,0.028411783277988434,0.25529617071151733,-0.09154605120420456,0.005124805495142937,-0.2094634473323822,0.019305042922496796,-0.039373528212308884,-0.012783590704202652,0.14431583881378174,0.006337994243949652,-0.13612262904644012,0.05013824626803398,-0.00495794927701354,0.05048584192991257,0.3425596356391907,0.04044800624251366,0.37929219007492065,0.027459703385829926,-0.004894626326858997,0.00868452899158001,-0.1225130632519722,0.07453154772520065,-0.038610074669122696,-0.18347936868667603,-0.12224292010068893,0.025729496031999588,-0.0058367205783724785,-0.017646566033363342,-0.1868472695350647,0.10413649678230286,-0.003594964509829879,-0.052271515130996704,-0.2617199718952179,0.08007407188415527,-0.6819313764572144,0.0991949513554573,0.04365358501672745,0.015858743339776993,-0.12737207114696503,0.28856542706489563,0.026991887018084526,0.03928782418370247,0.06795042008161545,-0.0003066224744543433,-0.09862366318702698,-0.0026502704713493586,0.14498890936374664,-0.0028330055065453053,-0.04553600400686264,0.20768855512142181,-0.18717393279075623,-0.17997927963733673,-0.14132806658744812,-0.015419023111462593,-0.035243064165115356,-0.059539634734392166,-0.25090518593788147,-0.057287514209747314,0.13394694030284882,0.0036198783200234175,0.10135693848133087,0.06299133598804474,0.05907527729868889,-0.08602438122034073,-0.08939225226640701,-0.0745193287730217,-0.0012141355546191335,-0.0809803381562233,0.052330613136291504,0.05081959813833237,0.01823832467198372,-0.02084336243569851,-0.03553511202335358,0.01460727397352457,0.31892889738082886,0.17275601625442505,0.013862148858606815,0.20816662907600403,-0.007959313690662384,0.10853414982557297,0.0026941359974443913,-0.09559943526983261,-0.0005180235602892935,0.005794331897050142,0.013490616343915462,0.17224401235580444,0.006698524113744497,0.035306353121995926,0.16909164190292358,-0.018135473132133484,-0.18044529855251312,0.2842799723148346,-0.13345205783843994,0.038253359496593475,-0.0289611853659153],[0.0314900241792202,-0.00581614812836051,-0.05519529804587364,-0.06279464066028595,0.08095289766788483,-0.03582616522908211,-0.34592777490615845,0.23224560916423798,0.0655297189950943,0.06291365623474121,0.0323350727558136,-0.29253271222114563,0.06043042242527008,-0.1367311030626297,-0.08441263437271118,-0.001989859389141202,-0.10450345277786255,-0.10176575928926468,0.0016510081477463245,-0.028045639395713806,0.5555247664451599,0.017709556967020035,-0.16115479171276093,0.2528599202632904,0.10277243703603745,-0.02464727871119976,-0.0910983458161354,-0.1503046452999115,-0.0966937243938446,-0.16659456491470337,0.16207937896251678,0.046035654842853546,-0.0586526021361351,0.355318546295166,-0.30253684520721436,0.30752548575401306,-0.15854300558567047,-0.033401962369680405,-0.01858355663716793,-0.09849698841571808,-0.028119703754782677,-0.3006531298160553,-0.12042242288589478,-0.09452715516090393,-0.04259525611996651,0.22433710098266602,0.016801867634058,0.07052705436944962,-0.11316128820180893,0.05662841722369194,-0.02717512659728527,0.18967346847057343,-0.25635385513305664,-0.1259637475013733,0.040971361100673676,0.19021165370941162,0.11353249847888947,0.07882211357355118,0.02927769348025322,0.053057096898555756,0.1767609864473343,0.1271415650844574,-0.20025141537189484,0.025902528315782547,0.14468230307102203,0.1921958327293396,-0.08594261854887009,-0.20474280416965485,-0.05502108111977577,-0.028527114540338516,-0.012097428552806377,0.09751609712839127,-0.07569174468517303,0.15667550265789032,0.013625229708850384,0.11281684041023254,0.0003938368463423103,0.06872732937335968,0.10017600655555725,-0.02186141349375248,0.06467375159263611,0.04333057999610901,-0.352990984916687,0.245666965842247,-0.12381806969642639,0.14593057334423065,-0.026777489110827446,-0.14927813410758972,0.008926763199269772,0.062050022184848785,-0.31211352348327637,-0.11131185293197632,0.02945879101753235,-0.07185572385787964,-0.20745335519313812,-0.20430414378643036,-0.11570628732442856,-0.03828715905547142,-0.09987715631723404,-0.06921538710594177,0.017933862283825874,0.08698044717311859,-0.15531377494335175,-0.0057895188219845295,-0.23401783406734467,0.003550312016159296,0.23479291796684265,-0.0013965145917609334,0.06849794089794159,0.0007527991547249258,0.09983512759208679,-0.016004133969545364,0.14295099675655365,0.046005211770534515,-0.1210070475935936,0.005180919077247381,0.07938015460968018,-0.2104543149471283,-0.347403347492218,0.21631290018558502,-0.06560353189706802,-0.030419785529375076,0.04428091272711754,0.18955333530902863,-0.01458660326898098,0.28158533573150635,-0.023665495216846466,-0.015726609155535698,-0.04596535488963127,-0.0011575812241062522,0.10238244384527206,0.0006490973755717278,-0.07521113753318787,0.09097108244895935,-0.23541460931301117,0.24424000084400177,0.18037189543247223,-0.22681084275245667,-0.1030469760298729,-0.2184523344039917,-0.10453730076551437,-0.017525160685181618,0.26057830452919006,-0.07403723895549774,0.36128684878349304,-0.03898225724697113,0.0731092318892479,0.1614483892917633,0.11606189608573914,-0.37118393182754517,0.01069031935185194,-0.11604981124401093,-0.025800837203860283,0.09001432359218597,0.31216102838516235,0.18993811309337616,0.03549113869667053,0.05612104386091232,-0.006878135725855827,0.14284536242485046,-0.26714208722114563,0.028604140505194664,0.32313764095306396,-0.003437075763940811,0.10779483616352081,0.006405144929885864,0.1026032492518425,-0.17611612379550934,0.09636951982975006,0.45017772912979126,0.17210665345191956,-0.0435093529522419,0.048935070633888245,0.2361428588628769,-0.34354496002197266,-0.283234179019928,-0.006904806941747665,0.10665999352931976,-0.037402309477329254,0.003411633428186178,0.0050332979299128056,0.17819565534591675,-0.05940376594662666,0.08358480036258698,0.04613243415951729,-0.13777391612529755,0.16065700352191925,0.1103239357471466,0.1199311837553978,0.002037524012848735,0.47992661595344543,-0.20286284387111664,0.03162742406129837,-0.005008803680539131,0.10871397703886032,-0.01026804931461811,0.21136370301246643,0.22544381022453308,-0.12563879787921906,0.021078506484627724,0.7948271632194519,-0.26624199748039246,0.30423563718795776,-0.115672267973423,-0.0448366180062294,-0.07010188698768616,-0.04830826818943024,-0.0062875645235180855,-0.09559749066829681,-0.01127677597105503,0.0869225487112999,-0.019516877830028534,0.15587671101093292,0.0016309682978317142,-0.23888199031352997,0.30026665329933167,-0.024850519374012947,-0.053002554923295975,0.060386549681425095,0.36808130145072937,0.6187754273414612,-0.014477988705039024,0.07094371318817139,-0.023470820859074593,0.0019290195778012276,-0.054075852036476135,-0.18122178316116333,-0.0686284601688385,-0.005338883027434349,0.02763412520289421,-0.11542608588933945,-0.014198173768818378,-0.04160231351852417,0.0045081861317157745,-0.09987184405326843,0.13215743005275726,-0.2025773972272873,0.06973208487033844,-0.007198845501989126,-0.028685523197054863,-0.11658503115177155,0.26406747102737427,-0.007242490071803331,-0.0942845493555069,-0.324558287858963,0.035372912883758545,-0.01988232508301735,-0.052774880081415176,0.09437552094459534,0.04649267718195915,0.016709331423044205,0.020289983600378036,-0.2985813319683075,0.22268103063106537,-0.01911783590912819,0.009659193456172943],[-0.05698109790682793,0.13620342314243317,-0.0187043659389019,0.0007027293904684484,-0.0010929768905043602,0.16532275080680847,0.20734691619873047,-0.09484381973743439,-0.012947949580848217,-0.11749894917011261,0.006540194619446993,-0.19216419756412506,-0.1546861231327057,-0.05179060250520706,-0.04426924139261246,-0.010916081257164478,0.0070057278499007225,-0.052635736763477325,0.14705203473567963,-0.03545524924993515,-0.40573957562446594,0.06606410443782806,-0.15427717566490173,0.05314145237207413,0.23171848058700562,-0.08255108445882797,-0.08009082078933716,0.015946028754115105,-0.12932749092578888,0.0005713222781196237,-0.21229732036590576,0.04006417840719223,-0.2790709435939789,-0.03900119289755821,-0.005407026037573814,0.1504601389169693,-0.08413884043693542,0.1523853987455368,-0.26321476697921753,0.013585960492491722,-0.3212321400642395,-0.014781908132135868,0.17710426449775696,-0.05187665671110153,-0.07942187041044235,-0.003668279619887471,-0.06425014138221741,-0.012227274477481842,0.011495647020637989,0.1640734225511551,-0.2767232656478882,0.03944030776619911,-0.25272756814956665,0.0007293115486390889,-0.11144991964101791,0.024360738694667816,0.10882829874753952,-0.050187550485134125,-0.289628267288208,0.20070521533489227,-0.011597792617976665,-0.016774633899331093,0.2724815011024475,-0.03606855869293213,-0.01507246308028698,-0.07152662426233292,-0.003399306209757924,-0.07972760498523712,0.13349607586860657,0.09158242493867874,0.2457510530948639,-0.22362957894802094,-0.030359208583831787,-0.41047316789627075,0.5408337712287903,0.0008863460971042514,0.28262045979499817,-0.03567194938659668,-0.049507781863212585,0.037154246121644974,0.045823439955711365,-0.008641272783279419,-0.0014258214505389333,0.1616886407136917,0.1847923845052719,0.2614476978778839,-0.0056914989836514,0.0897844210267067,-0.022398943081498146,0.024796878919005394,0.08599524199962616,0.09842082858085632,0.297701895236969,0.020800530910491943,-0.03318050131201744,0.009423390030860901,-0.1696794629096985,-0.011451675556600094,0.14941568672657013,-0.040595799684524536,-0.0524938590824604,-0.18495456874370575,0.08740731328725815,0.35632777214050293,0.1108524352312088,-0.03288322687149048,-0.19233104586601257,-0.060503821820020676,0.012744655832648277,0.23747693002223969,0.25700005888938904,-0.05904959887266159,0.029851382598280907,-0.0143440505489707,0.09938472509384155,0.09598042070865631,-0.07954943180084229,0.11413712054491043,0.13611865043640137,0.26840078830718994,0.0769205167889595,-0.060968779027462006,0.0196745153516531,0.07562603801488876,0.13357402384281158,-0.10098089277744293,-0.018302656710147858,0.011438438668847084,-0.011779301799833775,-0.01197663601487875,-0.11248265951871872,0.16294604539871216,-0.18665271997451782,0.09052968770265579,-0.31913504004478455,-0.2073184996843338,-0.1361430585384369,-0.17814083397388458,0.05415540561079979,-0.08673281967639923,0.06165040656924248,0.013389872387051582,-0.1114397794008255,0.12352347373962402,-0.1496158242225647,0.05196573585271835,0.27432140707969666,-0.0012152580311521888,0.03324400633573532,-0.11567692458629608,-0.18944893777370453,0.00869777612388134,-0.06553780287504196,-0.003223160281777382,0.046333156526088715,0.05854366719722748,-0.009531273506581783,0.10152675956487656,-0.010178379714488983,0.028240161016583443,0.28165891766548157,-0.03986330330371857,0.10555078089237213,0.1169322058558464,-0.0625980868935585,-0.08357836306095123,-0.03320450335741043,0.22656919062137604,-0.08981397747993469,0.1726464331150055,-0.09638463705778122,0.0443183109164238,-0.6633824706077576,0.03424645960330963,-0.2016267329454422,0.4323553740978241,0.026369543746113777,0.04198143631219864,-0.01987510733306408,0.002697749761864543,-0.06386073678731918,0.058900218456983566,0.005203431937843561,0.19261203706264496,-0.04256542772054672,0.026245759800076485,-0.12815333902835846,0.02523348294198513,0.1513800173997879,-0.09333068877458572,0.048664771020412445,0.054566364735364914,-0.0035887870471924543,0.017188088968396187,-0.08018403500318527,0.5933356285095215,-0.2860610783100128,0.34205859899520874,-0.08647096157073975,-0.03107406012713909,-0.028280528262257576,-0.04663284868001938,0.008753856644034386,0.0735330656170845,0.11670412123203278,0.14089079201221466,-0.07172153145074844,-0.004290326032787561,0.010334586724638939,-0.208217054605484,0.23873569071292877,-0.026739155873656273,0.02427017129957676,0.08321696519851685,0.17578938603401184,0.06500808894634247,0.013311699032783508,-0.27986669540405273,-0.12321799993515015,-0.159994974732399,-0.19343997538089752,0.1751096397638321,-0.08788888156414032,0.09880933910608292,0.007113255560398102,-0.1372951716184616,0.01760765351355076,-0.020639916881918907,-0.002319911727681756,0.2626015245914459,0.48696666955947876,0.012082857079803944,0.410836786031723,0.02563289739191532,-0.07372042536735535,0.19647298753261566,0.006871544290333986,0.06313521414995193,-0.03794282302260399,-0.1219724714756012,0.0031390408985316753,0.059898972511291504,0.001379984081722796,-0.05749278888106346,0.1876123994588852,0.1337556540966034,0.019533954560756683,-0.03098984621465206,0.21861369907855988,-0.010453236289322376,-0.013226854614913464,0.015075303614139557,0.05984214320778847,0.178355410695076,0.09838005900382996,0.0408121757209301],[-0.0029520676471292973,0.7670502066612244,0.1822737753391266,-0.01814098283648491,0.03482939675450325,-0.026235323399305344,0.0026230744551867247,0.012863327749073505,0.04669952020049095,-0.15140099823474884,0.1326536238193512,0.04387801140546799,0.02192775532603264,0.1076287105679512,-0.006569162476807833,-0.008564629592001438,0.32790517807006836,0.08154624700546265,0.08100804686546326,0.009716973640024662,-0.0640382468700409,0.018164964392781258,-0.12970571219921112,0.011433890089392662,0.08792228996753693,0.2358810007572174,0.06722405552864075,0.10233141481876373,-0.046980373561382294,-0.0024906136095523834,-0.07541872560977936,-0.010942978784441948,-0.12740838527679443,-0.16193963587284088,-0.004657507874071598,0.05051816254854202,-5.66526287002489e-5,-0.08415962755680084,-0.10892228037118912,0.07831971347332001,-0.14893534779548645,-0.2619614005088806,0.18297745287418365,0.031249625608325005,-0.05090636387467384,-0.23371024429798126,-0.10753534734249115,0.05134974792599678,0.0016361757880076766,0.08295122534036636,0.08188442140817642,-0.20706036686897278,-0.12571334838867188,-0.07163075357675552,0.030466353520751,0.12484639137983322,-0.18473465740680695,0.08482332527637482,-0.06255203485488892,-0.002042215084657073,-0.3321797847747803,0.03536234423518181,-0.14536336064338684,-0.2606455385684967,-0.3644057810306549,-0.17379042506217957,-0.05590110644698143,0.08392980694770813,-0.006773452274501324,-0.006937099155038595,-0.12830166518688202,-0.1564245969057083,-0.0781499519944191,-0.1800532042980194,0.48967859148979187,0.04453101009130478,0.43451592326164246,0.07162552326917648,-0.015131776221096516,0.0036613326519727707,-0.11740720272064209,-0.06752006709575653,-0.2624282240867615,-0.02941528707742691,0.08328676968812943,-0.4837006628513336,0.14120763540267944,0.000593898119404912,0.017325440421700478,0.07484276592731476,-0.007729293312877417,-0.02820221148431301,-0.05120532214641571,-0.003311529289931059,-0.1267510950565338,-0.12577344477176666,0.04758622869849205,-0.1378711313009262,0.003166486509144306,0.22070439159870148,-0.2535613179206848,0.24881722033023834,0.17962247133255005,-0.07404565811157227,-0.03058231621980667,-0.020724322646856308,0.014560689218342304,0.019567502662539482,0.18818046152591705,-0.017325272783637047,-0.04298071190714836,0.036487478762865067,0.22134920954704285,0.02213291823863983,-0.0764445960521698,-0.05239662528038025,0.10718396306037903,-0.05700034275650978,0.37982019782066345,-0.08493548631668091,-0.02785586006939411,0.008147040382027626,0.015176518820226192,-0.0068530491553246975,0.19706977903842926,0.030047370120882988,0.009420501999557018,-0.07174853980541229,-0.17295242846012115,-0.017317846417427063,0.10381712019443512,0.02052910067141056,0.004105334635823965,0.2075328677892685,-0.32137954235076904,-0.009908941574394703,0.04096594452857971,-0.021633686497807503,0.05305146425962448,-0.027635054662823677,0.00024929112987592816,-0.03271959349513054,0.03154120221734047,0.43704479932785034,-0.03274921327829361,0.00012159618199802935,-0.005890074651688337,-0.042932167649269104,0.16688235104084015,0.3393130600452423,-0.05933299660682678,-0.015871452167630196,0.025042984634637833,-0.22960925102233887,0.25916343927383423,0.1881643384695053,-0.07972997426986694,0.11467622965574265,0.0868421420454979,0.15816830098628998,0.2727804183959961,-0.003680019872263074,-0.08367325365543365,0.00496166804805398,0.023539278656244278,-0.011481164023280144,-0.029226286336779594,0.10321325063705444,0.047143906354904175,-0.15033668279647827,-0.03561164811253548,-0.018900670111179352,-0.5218877792358398,-0.03466225787997246,-0.4576365649700165,0.016290945932269096,0.1104675903916359,-0.07341790944337845,0.02109348215162754,0.02849525585770607,-0.0580621100962162,0.08965234458446503,-0.034787617623806,0.4532640278339386,-0.12802916765213013,0.05672040209174156,0.07204606384038925,0.044164903461933136,0.05838767811655998,0.03385148197412491,0.4225436747074127,0.09221011400222778,0.08666887879371643,0.005471085198223591,0.1512099802494049,-0.11062562465667725,0.02829575166106224,0.22946502268314362,-0.039929505437612534,0.26830118894577026,0.10528598725795746,0.23836106061935425,-0.22813798487186432,0.05760715901851654,-0.07321123778820038,0.81880122423172,-0.010896075516939163,-0.3817689120769501,-0.06050998345017433,0.2849291265010834,-0.46203815937042236,-0.039369989186525345,0.11479008942842484,-0.05925185978412628,-0.00020703239715658128,0.11962941288948059,-0.08910659700632095,0.03351263329386711,-0.003913531545549631,0.12910273671150208,-0.21982082724571228,-0.14811773598194122,0.0741611123085022,0.027230331674218178,0.020476585254073143,-0.009622110985219479,-0.08444958925247192,-0.10346662253141403,0.1520305871963501,-0.11632032692432404,0.20848968625068665,-0.16235210001468658,0.4524889588356018,-0.049443453550338745,-0.016201741993427277,0.14521877467632294,0.08792851865291595,0.17706839740276337,-0.09111353754997253,0.1353248953819275,-0.0004393993003759533,0.128363698720932,-0.014756868593394756,-0.09139588475227356,-0.015324301086366177,0.01873399317264557,0.15765692293643951,0.06352856755256653,-0.029906194657087326,0.04902084171772003,0.06786656379699707,0.0622137151658535,-0.10345783084630966,-0.09159132093191147,-0.2019689530134201,0.0937180146574974],[0.04208044707775116,-0.07453488558530807,-0.2913173735141754,0.0733482614159584,0.03811294212937355,-0.3384959399700165,0.08226855844259262,0.053263042122125626,-0.08972945809364319,-0.06011900678277016,0.016283970326185226,0.24771028757095337,-0.13742958009243011,-0.2735447287559509,-0.09429771453142166,-0.03416750580072403,-0.13688696920871735,0.004262708593159914,0.0790594294667244,-0.00042461766861379147,0.46380478143692017,-0.0037328836042433977,0.23310929536819458,0.004045020788908005,-0.16852131485939026,0.6021376252174377,-0.00297487317584455,0.12180177122354507,0.010517528280615807,0.16300249099731445,-0.034132301807403564,-0.016608906909823418,-0.30755895376205444,0.631533682346344,-0.20456281304359436,0.22148694097995758,0.002251188736408949,-0.0127699701115489,-0.05778035521507263,-0.02307204343378544,-0.0017798718763515353,0.24795997142791748,-0.022856533527374268,-0.026324264705181122,-0.06342537701129913,0.04373684898018837,-0.04849999397993088,0.3744078576564789,-0.09004195034503937,0.08748102933168411,0.054855864495038986,-0.15095309913158417,0.16412244737148285,0.17716212570667267,0.030008893460035324,0.17376115918159485,0.0971454530954361,0.02301107347011566,-0.0957152396440506,-0.12493602931499481,0.01440988015383482,0.11497580260038376,-0.042958661913871765,0.19772136211395264,-0.06345241516828537,-0.012924944050610065,-0.03373191878199577,0.05771385878324509,-0.24684816598892212,0.012459197081625462,0.05344069004058838,0.16795754432678223,0.15050943195819855,0.2341485321521759,0.0066336337476968765,-0.037217918783426285,-0.01966361701488495,0.049571823328733444,-0.005934067070484161,-0.08965456485748291,-0.04822118580341339,-0.20901328325271606,0.005628299433737993,-0.15523627400398254,-0.11817360669374466,-0.19610318541526794,-0.03348451480269432,0.21216551959514618,0.18898405134677887,0.04170975461602211,-0.10515434294939041,0.04442021623253822,-0.0031881502363830805,-0.026025885716080666,-0.17314563691616058,0.006065871100872755,0.1195838674902916,-0.05520230159163475,0.037196557968854904,-0.006219364237040281,-0.006121640093624592,-0.05359089747071266,0.004294632934033871,0.002227258402854204,0.06681308150291443,0.056615717709064484,-0.06750626116991043,-0.031161697581410408,0.4885324537754059,0.23995749652385712,0.14604464173316956,0.23981231451034546,0.10368662327528,-0.07948586344718933,0.18549883365631104,0.0008537362446077168,0.20922617614269257,-0.08270993083715439,0.06511897593736649,0.20387619733810425,-0.15534478425979614,0.09603384137153625,0.0453408919274807,0.04068934544920921,-0.13601191341876984,-0.00577697716653347,-0.018010789528489113,0.12044631689786911,0.052868399769067764,0.012597577646374702,0.0746588259935379,-0.06353607028722763,-0.02710510976612568,-0.01313611026853323,0.14454041421413422,0.20454880595207214,0.0035647302865982056,0.2835107147693634,0.021320560947060585,-0.04191341996192932,-0.0883261188864708,-0.04016425460577011,0.017274225130677223,0.10291580110788345,-0.05969453230500221,0.07596380263566971,0.18570011854171753,0.006577252876013517,0.30139774084091187,0.14830580353736877,-0.04067477956414223,-0.1556367576122284,-0.03677935525774956,0.0012493166141211987,-0.12727414071559906,0.38151121139526367,-0.14322225749492645,0.09363296627998352,-0.004814996384084225,-0.2276873141527176,0.20787064731121063,-0.0729064866900444,0.011660359799861908,-0.00471991254016757,-0.06412433832883835,0.1372959166765213,-0.29844582080841064,0.03711536526679993,-0.11016718298196793,0.2415912002325058,0.03620949760079384,-0.03483535349369049,-0.00944368727505207,-0.18690259754657745,0.028837641701102257,0.006415181793272495,-0.04964728280901909,-0.13514956831932068,0.08452337980270386,0.14555329084396362,0.054094843566417694,0.002962261438369751,-0.16254884004592896,-0.04363508149981499,0.051916688680648804,-0.026412811130285263,0.030159160494804382,-0.02426869049668312,-0.00847351923584938,-0.0029482198879122734,0.0020460307132452726,-0.15560731291770935,-0.07399849593639374,0.05300719290971756,-0.05815645679831505,-0.32229241728782654,0.07682380825281143,0.019691916182637215,-0.0036660064943134785,-0.08939250558614731,0.4932475984096527,0.08041926473379135,0.18122564256191254,-0.056801218539476395,0.04251094534993172,-0.012980036437511444,-0.10667074471712112,0.023727349936962128,0.06293673068284988,0.2658081352710724,0.01111829373985529,-0.008440130390226841,0.09865789115428925,-0.023654218763113022,-0.17235949635505676,-0.04488341882824898,0.027639970183372498,0.17132148146629333,0.2397720068693161,-0.23502114415168762,-0.2343454658985138,-0.24049800634384155,-0.046086471527814865,-0.10733045637607574,-0.09320317208766937,0.05889984965324402,-0.11331053823232651,0.08296935260295868,0.2918531000614166,0.2844686508178711,-0.306343674659729,-0.014894713647663593,0.18011459708213806,0.11240137368440628,-0.09743868559598923,-0.1952834129333496,-0.13753831386566162,-0.022730188444256783,-0.07115352153778076,-0.0487128421664238,0.20241224765777588,0.09390363097190857,-0.02334432303905487,0.07592460513114929,0.01606563851237297,-0.054646898061037064,0.008272796869277954,0.14564362168312073,0.05422049015760422,-0.08272098004817963,0.03444388508796692,-0.00308867241255939,0.11952734738588333,0.007282144855707884,0.030268089845776558,-0.06363555788993835],[-0.06551345437765121,-0.5354801416397095,-0.01567736454308033,-0.02893214114010334,0.03389893099665642,0.003831892041489482,0.07874894887208939,-0.12215636670589447,-0.047116417437791824,-0.22223496437072754,-0.12537597119808197,-0.043468624353408813,0.0014368371339514852,0.01836010441184044,0.06327497959136963,0.0564936026930809,-0.3581055700778961,0.024466020986437798,-0.10212294012308121,0.0009481110027991235,-0.4222315847873688,-0.0017163114389404655,-0.02777225524187088,0.33793023228645325,0.010962388478219509,-0.09915214031934738,0.17548450827598572,0.013934657908976078,-0.124481700360775,0.264055460691452,-0.06414077430963516,-0.03619348630309105,-0.024475373327732086,-0.027590623125433922,0.049547478556632996,-0.10546481609344482,0.030800433829426765,0.006549738813191652,-0.42774438858032227,0.06596218794584274,0.036025796085596085,-0.008769029751420021,-0.12870804965496063,-0.09334910660982132,-0.004196716472506523,-0.03518711030483246,-0.0666026845574379,0.21679335832595825,0.1327269822359085,-0.04317092522978783,-0.0020552859641611576,0.024606961756944656,-0.04671134427189827,0.3113318383693695,-0.0161144956946373,0.04328067600727081,-0.027728555724024773,-0.12152863293886185,-0.020478256046772003,-0.06617631018161774,0.22232286632061005,0.03133060410618782,0.015574234537780285,-0.0075093824416399,0.16394659876823425,0.10587875545024872,0.0751551017165184,0.022018566727638245,0.15436197817325592,0.1008848026394844,0.02967524342238903,0.01567433960735798,-0.11949415504932404,-0.01067530270665884,-0.0010773050598800182,-0.09592968970537186,0.1439702957868576,-0.0018247115658596158,-0.007942751049995422,-0.10334797203540802,-0.16658444702625275,0.07818599045276642,-0.19399617612361908,0.020690200850367546,0.3121899366378784,0.29609164595603943,0.010142258368432522,0.14711736142635345,-0.01228129118680954,0.06770076602697372,0.14196790754795074,0.047890838235616684,-0.019823146983981133,-0.033670708537101746,-0.13482987880706787,0.07522475719451904,0.3092751204967499,-0.14341408014297485,-0.02789491042494774,-0.11609797179698944,0.014063001610338688,0.057757824659347534,0.020404044538736343,0.008117731660604477,0.0654049962759018,-0.033076781779527664,-0.06765691936016083,-0.011581448838114738,-0.011133399792015553,-0.06867986917495728,0.08499971777200699,0.033600397408008575,0.023747749626636505,0.03670347481966019,-0.15603007376194,-0.17928007245063782,0.19954504072666168,-0.0814376100897789,-0.12520556151866913,0.008608562871813774,-0.003381458343937993,0.005443033296614885,-0.17135082185268402,-0.013535930775105953,0.088776133954525,-0.25431597232818604,-0.06489992141723633,0.11626565456390381,-0.09842421114444733,0.012097032740712166,-0.16941307485103607,-0.17843939363956451,0.02434210479259491,0.03708479553461075,-0.133675679564476,-0.032118555158376694,0.25901293754577637,-0.0028282965067774057,-0.1815318912267685,0.03719743341207504,0.047239724546670914,0.06881055235862732,-0.19859562814235687,0.05745246261358261,0.044123683124780655,-0.10694772005081177,0.03186175599694252,0.20323453843593597,0.030540719628334045,-0.20879197120666504,-0.02579195238649845,-0.015468139201402664,0.12258219718933105,0.003747332841157913,0.0006245442782528698,-0.049394987523555756,-0.10447966307401657,-0.1977376788854599,0.17642511427402496,-0.09558235108852386,0.39763811230659485,0.04171422868967056,-0.034211400896310806,0.06629987061023712,0.021347390487790108,-0.03681263327598572,0.10927525162696838,0.0004815493884962052,0.031502172350883484,0.03388184681534767,-0.167394757270813,0.015288102440536022,0.4668803811073303,0.1583583950996399,0.03309207782149315,-0.17441795766353607,-0.08804875612258911,-0.09644891321659088,0.017449211329221725,0.04823647812008858,-0.0013418447924777865,-0.18132954835891724,0.101028211414814,-0.03839560225605965,0.018618807196617126,-0.141975998878479,-0.0027559674344956875,-0.07304281741380692,-0.205476313829422,-0.10297596454620361,0.21386389434337616,-0.046273428946733475,-0.1693989485502243,0.004256767686456442,-0.006136414594948292,0.07744541764259338,-0.17823302745819092,0.305155485868454,-0.05417141318321228,0.1881631314754486,-0.07497350871562958,0.372270792722702,-0.22281821072101593,0.18076659739017487,0.09484971314668655,0.009417894296348095,-0.35218265652656555,-0.05847928300499916,-0.06682026386260986,0.20636527240276337,-0.1035241037607193,-0.0176702868193388,-0.03404815122485161,-0.012293077073991299,0.08583007007837296,0.029218435287475586,-0.04413990676403046,0.21437373757362366,0.021786868572235107,-0.35106736421585083,0.04398053511977196,-0.04741748422384262,0.1494438797235489,-0.2425503134727478,0.11262743175029755,-0.12380603700876236,-0.014881951734423637,0.009831270202994347,-0.02608412131667137,-0.0405675508081913,-0.6931211352348328,0.005061926320195198,-0.3424401879310608,-0.16314037144184113,-0.022557370364665985,0.016460798680782318,0.035711102187633514,-0.12107687443494797,-0.04349682107567787,-0.020293530076742172,0.02961363084614277,-0.002227703807875514,0.012726428918540478,-0.32761093974113464,-0.06308624148368835,0.02023499831557274,-0.07792875170707703,-0.2183791995048523,-0.020983241498470306,0.13896553218364716,0.01329830102622509,-0.25247281789779663,-0.05697055160999298,-0.1628415882587433,-0.1760524958372116,0.004418771248310804],[-0.007622126489877701,0.327271044254303,-0.17806890606880188,0.10772819817066193,-0.12430323660373688,0.014190690591931343,0.10208592563867569,0.05895720794796944,-0.010571162216365337,0.015063326805830002,0.04852491617202759,0.13542476296424866,-0.1206970065832138,-0.014095434918999672,0.17467613518238068,-0.07559798657894135,0.029985561966896057,0.0080789253115654,0.2307315617799759,0.01364409551024437,0.021020224317908287,0.006934112869203091,0.054155133664608,0.28703078627586365,0.020228255540132523,0.0037678112275898457,-0.08621715754270554,-0.07448892295360565,-0.005868060048669577,0.1047213077545166,0.04031379148364067,-0.032402168959379196,-0.2592938542366028,0.14917656779289246,0.08274191617965698,-0.10750868916511536,-0.09393331408500671,-0.0034890975803136826,-0.22833053767681122,0.21504004299640656,-0.00249761575832963,-0.21949319541454315,0.046735674142837524,0.032310836017131805,0.13271769881248474,0.04832833632826805,-0.020360376685857773,0.03333517909049988,-0.03094583936035633,0.2075773924589157,0.2138664275407791,0.021892867982387543,0.23451368510723114,0.03997694328427315,0.07060839980840683,0.06658073514699936,0.12575070559978485,0.01742173358798027,-0.012384988367557526,0.14077548682689667,0.00029506903956644237,0.014413910917937756,0.0018854030640795827,0.1413775533437729,-0.03003818169236183,-0.005716094747185707,-0.029642919078469276,0.14796829223632812,0.04951569437980652,-0.02072536014020443,0.10803955048322678,0.05027187615633011,0.002368921646848321,0.2105548232793808,0.31194618344306946,0.03323756903409958,0.020968372002243996,-0.0392519012093544,0.04464810714125633,0.035314008593559265,0.01217903383076191,-0.18616421520709991,-0.15813834965229034,-0.0316043458878994,0.08417373150587082,-0.005500000435858965,0.07305945456027985,0.030203809961676598,-0.0027758944779634476,0.004172204528003931,-0.09161924570798874,0.020444948226213455,-0.1595088392496109,0.21860870718955994,0.04709044471383095,-0.010725654661655426,0.08596814423799515,-0.11107386648654938,-0.018690651282668114,0.007235541474074125,0.2809613347053528,0.30408352613449097,-0.09744530916213989,0.27832460403442383,0.12575355172157288,-0.011497910134494305,-0.031693849712610245,0.18605245649814606,0.20637473464012146,-0.10216935724020004,-0.05561338737607002,-0.04054436832666397,0.007461278699338436,0.10184532403945923,0.13645347952842712,-0.10558249056339264,0.2579807937145233,-0.004977242089807987,-0.12911012768745422,0.20924240350723267,0.08230079710483551,0.07834804058074951,-0.18142755329608917,-0.029881853610277176,-0.05482800304889679,0.04239644110202789,-0.008037634193897247,-0.006018232554197311,-0.06935089081525803,-0.06692477315664291,0.08177773654460907,-0.0008250289247371256,-0.042925942689180374,-0.006624303758144379,0.09584002941846848,0.013762307353317738,-0.016473598778247833,-0.16422903537750244,-0.027694564312696457,-0.18496385216712952,-0.020332645624876022,-0.09760352224111557,0.019199619069695473,0.04106289520859718,-0.07898861169815063,0.06717057526111603,0.0008339507621712983,0.05252280831336975,0.10916686803102493,0.010125414468348026,0.14630918204784393,0.08241072297096252,0.00046015772386454046,-0.13632641732692719,0.008412820287048817,0.07874568551778793,-0.0007007013191469014,0.1078154593706131,-0.028876248747110367,-0.006722878199070692,-0.03175560012459755,-0.03540614992380142,0.13394023478031158,-0.19542519748210907,0.0037429118528962135,0.1165328249335289,-0.008649014867842197,0.15244950354099274,0.020282385870814323,0.5034635066986084,0.03695187345147133,0.004029431380331516,-0.0012895023683086038,0.22146505117416382,-0.000736152462195605,0.0202294010668993,-0.16710473597049713,0.000929221510887146,-0.3017701804637909,0.04683949798345566,0.007643334101885557,-0.05946043133735657,0.27384358644485474,0.518729031085968,0.03942234814167023,-0.028911257162690163,0.17686477303504944,-0.05751779302954674,0.006610072683542967,0.189858078956604,0.3748719096183777,0.13421185314655304,-0.1181781217455864,-0.011114013381302357,0.07659867405891418,0.3850506842136383,0.0564863346517086,-0.005019400734454393,0.06057252734899521,-0.23996306955814362,0.050186701118946075,0.1171921119093895,-0.04005701467394829,0.03392156958580017,-0.0689707025885582,0.32150745391845703,-0.13355454802513123,0.45076796412467957,-0.11242562532424927,0.11480388045310974,0.20181144773960114,-0.11759624630212784,0.005562315229326487,-0.019636601209640503,-0.016682345420122147,0.13001063466072083,-0.02097441628575325,0.10690293461084366,-0.0007002035272307694,-0.003288819221779704,-0.05137760937213898,-0.031816501170396805,-0.033998288214206696,0.16953077912330627,-0.003517915029078722,0.0637550801038742,-0.07555925101041794,0.028996657580137253,-0.1371443271636963,-0.0014394220197573304,0.3442746698856354,-0.052219290286302567,0.05656961351633072,-0.1466013342142105,0.08727993816137314,-0.07082822173833847,0.008970395661890507,-0.11567936092615128,0.04945232346653938,0.03705836087465286,-0.3675452470779419,-0.01707470417022705,0.07153135538101196,0.26175811886787415,-0.036618564277887344,-0.06422709673643112,-0.18193911015987396,-0.08420775085687637,-0.21506847441196442,-0.07998276501893997,0.056732166558504105,-0.001188633032143116,0.05637286230921745,-0.05326397344470024,0.1311454027891159,-0.05718887224793434],[0.0009578769095242023,0.01288208831101656,0.0022292891517281532,-0.006589760538190603,0.0153718376532197,-0.02328699827194214,-0.12688609957695007,0.06390082091093063,-0.026569390669465065,0.00016367901116609573,0.030008932575583458,-0.0466865673661232,0.0321844257414341,0.009552095085382462,0.21470212936401367,-0.055553633719682693,0.08336886763572693,-0.006419877987354994,-0.0518963560461998,0.0028328769840300083,-0.08268579840660095,-0.047427598387002945,-0.023952042683959007,0.18653808534145355,-0.04301433637738228,0.3488691747188568,0.022607918828725815,0.04923909530043602,0.021230338141322136,-0.09391535818576813,0.04425656422972679,0.09001076221466064,-0.018899237737059593,0.03187258541584015,0.03842730447649956,-0.04578719288110733,0.0076652211137115955,-0.04210417717695236,0.005017002113163471,-0.017932869493961334,-0.03966626152396202,-0.07400819659233093,0.03792495280504227,-0.0542244017124176,-0.023728588595986366,0.22870193421840668,-0.045445386320352554,0.25090348720550537,-0.07060348987579346,-0.08173082768917084,-0.14704987406730652,0.09523378312587738,0.05536128580570221,0.04644821956753731,0.1407405287027359,0.06490227580070496,-0.13713565468788147,-0.007142778020352125,0.09160732477903366,-0.053122468292713165,-0.07042889297008514,0.05649303272366524,0.0019047156674787402,0.08016009628772736,0.14278359711170197,0.2228575497865677,0.13710854947566986,0.006099957041442394,0.13650718331336975,-0.024849453940987587,-0.0233452171087265,0.12937220931053162,-0.059552501887083054,0.029305966570973396,-0.02263563871383667,-0.07586284726858139,-0.002111510606482625,-0.022596992552280426,-0.028171706944704056,-0.02899174951016903,0.030636504292488098,-0.0002780607610475272,-0.2014567106962204,-0.007501282729208469,-0.005711723584681749,-0.276667058467865,-0.12828578054904938,-0.006037825718522072,-0.10783584415912628,-0.014337603002786636,-0.0881795883178711,-0.05261201038956642,0.26680487394332886,-0.023384766653180122,-0.08606404811143875,0.14588706195354462,0.0005086697638034821,-0.1657206416130066,0.1950320601463318,0.0023334322031587362,0.013395543210208416,0.3410787284374237,-0.1521875113248825,-0.2595422863960266,0.023165272548794746,-0.04797210916876793,-0.04967207461595535,0.23696202039718628,0.10505487024784088,-0.020993253216147423,0.08670847862958908,-0.02527020126581192,-0.02265263721346855,0.007366581819951534,0.03757307305932045,-0.10936184972524643,0.2756888270378113,0.06403760612010956,0.3880710303783417,0.014419610612094402,0.012773985043168068,-0.0033516495022922754,0.037934161722660065,-0.07031501829624176,-0.2899208664894104,0.09934218972921371,-0.00040828323108144104,-0.20259343087673187,-0.09515038877725601,0.06376823037862778,0.08027151972055435,0.16563059389591217,-0.03927784413099289,0.06224755942821503,-0.44330522418022156,0.13497363030910492,-0.045974403619766235,0.41218698024749756,-0.004256556276232004,-0.07404956966638565,0.0775870755314827,-0.040148936212062836,0.02227502129971981,0.1370929330587387,-0.022042062133550644,0.0006220662035048008,-0.08663079887628555,0.036553457379341125,0.1137230321764946,0.43515416979789734,-0.05624708905816078,0.008820274844765663,-0.07182648777961731,-0.0012686348054558039,0.2467866837978363,-0.09217926114797592,-0.03936435282230377,0.08419423550367355,-0.020537784323096275,-0.033705729991197586,-0.16572247445583344,-0.006651164498180151,-0.02131820283830166,0.12301477044820786,0.1668214648962021,-0.05108167976140976,0.01891854964196682,-0.17037318646907806,-0.00584274111315608,0.49077653884887695,-0.05254823714494705,0.03409869596362114,-0.2620938718318939,0.029277903959155083,-0.13476882874965668,-0.06138366460800171,0.2909902334213257,0.06982549279928207,0.05016317218542099,0.0527934692800045,0.0029473144095391035,-0.1329392045736313,-0.05849683657288551,0.029315385967493057,0.04626036435365677,-0.0005297597381286323,-0.009242890402674675,-0.02688821591436863,0.036087241023778915,-0.042178329080343246,-0.2204989641904831,0.14718106389045715,0.31325751543045044,-0.06351277232170105,-0.0178298931568861,-0.012578829191625118,-0.14876282215118408,-0.14574481546878815,-0.045612744987010956,0.12012436985969543,-0.07972879707813263,0.5086029767990112,-0.22341910004615784,-0.17566987872123718,-0.07707767933607101,0.025174519047141075,-0.08465000241994858,0.1727149933576584,0.010113179683685303,0.010331542231142521,0.08216168731451035,0.019017914310097694,0.011595629155635834,-0.02857339009642601,0.11918116360902786,0.007712413091212511,0.050553590059280396,0.033150315284729004,0.0035070255398750305,0.032243695110082626,-0.15510985255241394,0.06401026993989944,0.3490397334098816,0.08137702941894531,-0.008623951114714146,-0.005457737948745489,-0.2063094824552536,0.0380215123295784,0.1821848452091217,0.10084810853004456,0.2165992558002472,-0.12503451108932495,0.11718212813138962,0.002575335092842579,-0.09550917893648148,-0.11578269302845001,0.11457806080579758,-0.002939715050160885,-0.01094858255237341,0.18071232736110687,0.01755160465836525,-0.10847526043653488,-0.06868255138397217,-0.1588752716779709,0.02588762156665325,0.013930669985711575,-0.3460274934768677,-0.009830907918512821,0.05090397223830223,0.0854310542345047,-0.03324079141020775,-0.009291493333876133,0.028324779123067856,-0.022672481834888458,0.10835310816764832,0.0008442642283625901],[-0.19778236746788025,0.11152467876672745,-0.12456858903169632,0.04666624963283539,0.07741479575634003,0.03928747400641441,0.21208126842975616,0.23208846151828766,-0.015873344615101814,0.1227530762553215,0.05230407789349556,-0.2639477849006653,-0.05095941945910454,0.010843968950212002,0.007423392962664366,-0.04841906204819679,-0.3052110970020294,0.04217531532049179,-0.09565436094999313,-0.17391672730445862,0.07014180719852448,-0.010527247563004494,0.12783168256282806,-0.12103764712810516,-0.08907713741064072,0.2835240066051483,0.19143293797969818,-0.021412327885627747,-0.20339763164520264,-0.13217920064926147,0.26467782258987427,0.0004611409385688603,-0.390213280916214,0.2847127914428711,-0.07602676749229431,-0.0013287070905789733,-0.03216719254851341,0.056272562593221664,0.396645188331604,0.1310882568359375,0.0456719845533371,-0.2047736495733261,-0.027571842074394226,0.06632213294506073,-0.08215076476335526,-0.016544854268431664,0.005537709686905146,-0.10625579208135605,-0.03084481693804264,0.12100866436958313,-0.06405103951692581,-0.11046645045280457,0.6290141940116882,-0.02955826185643673,0.087215855717659,0.05715331435203552,0.3063407838344574,0.03475049138069153,0.1485440582036972,-0.14131899178028107,0.012647472321987152,-0.030307145789265633,-6.584246875718236e-5,-0.10128306597471237,-0.0978480651974678,-0.14002349972724915,-0.16049307584762573,-0.008038804866373539,-0.09391853958368301,0.005665587726980448,-0.1546134203672409,-0.11804603040218353,-0.1465061902999878,-0.06859244406223297,-0.08977462351322174,-0.17047695815563202,-0.2749651372432709,0.0655447393655777,-0.07586465775966644,-0.09078893065452576,-0.04227125644683838,-0.0034554123412817717,0.2209579050540924,-0.011570400558412075,-0.09284637868404388,-0.035829901695251465,-0.10233838856220245,-0.08513874560594559,-0.07932798564434052,-0.10193641483783722,-0.08860275149345398,0.0812273770570755,-0.10151132196187973,-0.059100762009620667,-0.31586265563964844,-0.0063064186833798885,0.027378223836421967,-0.049947164952754974,0.048735361546278,-0.13892772793769836,0.11521627753973007,-0.07285677641630173,-0.1347004771232605,0.03971116244792938,-0.08635074645280838,0.05464771017432213,-0.06595825403928757,-0.14476867020130157,-0.04334026575088501,0.03354707360267639,-0.06977884471416473,0.004243173636496067,-0.19782710075378418,0.014239598996937275,-0.14097750186920166,-0.025794105604290962,0.027326427400112152,0.007950212806463242,-0.3406848907470703,0.022975312545895576,0.3434368371963501,0.12748539447784424,-0.00659172935411334,0.20129333436489105,-0.014950116164982319,0.10742032527923584,-0.031086478382349014,0.1563660204410553,-0.08778560906648636,8.631365926703438e-5,-0.003069056198000908,0.03981173783540726,-0.003754745237529278,0.009665332734584808,-0.45709019899368286,0.06426730006933212,-0.09154313802719116,-0.4061509668827057,-0.1803266555070877,-0.267793208360672,-0.06730092316865921,0.11260077357292175,0.03962168097496033,0.19547507166862488,