{"params":{"dropout_prob":0.0,"l2_weight_decay":0.0,"l2_weight_decay_params":[],"l1_weight_decay":0.0,"l1_weight_decay_params":[],"contractive":0.0,"contractive_params":[],"reg":0.001,"learning_rate":"0.001,0.0001","n_epochs":"80,20","n_attack_steps":10,"beta_robustness":0.0,"seed":1,"n_hidden":256,"n_layer":1,"batch_size":100,"boundary_loss":"kl","treat_as_constant":false,"p_norm":"inf","dt":1.0,"tau":20.0,"beta":2.0,"tau_adaptation":98.0,"thr":0.01,"thr_min":0.005,"refr":2,"dampening_factor":0.3,"sample_rate":16000,"eval_step_interval":400,"clip_duration_ms":1000,"window_size_ms":30.0,"window_stride_ms":10.0,"feature_bin_count":40,"in_repeat":1,"preprocess":"mfcc","data_url":"https:\/\/storage.googleapis.com\/download.tensorflow.org\/data\/speech_commands_v0.02.tar.gz","silence_percentage":10.0,"unknown_percentage":10.0,"validation_percentage":10.0,"testing_percentage":10.0,"n_thr_spikes":-1,"background_volume":0.1,"background_frequency":0.8,"time_shift_ms":100.0,"wanted_words":"yes,no,up,down,left,right","attack_size_constant":0.01,"initial_std_constant":0.001,"attack_size_mismatch":0.0,"initial_std_mismatch":0.0,"optimizer":"adam","data_dir":"TensorCommands\/speech_dataset\/","session_id":9470745539,"desired_samples":16000,"window_size_samples":480,"window_stride_samples":160,"length_minus_window":15520,"spectrogram_length":98,"average_window_width":-1,"fingerprint_width":40,"fingerprint_size":3920,"label_count":8,"time_shift_samples":1600},"rng_key":[2280264063,1486600307],"theta":{"W_in":[[0.0075528584420681,0.025663720443844795,0.07725615799427032,0.021110303699970245,-0.006093697156757116,0.006755223963409662,0.0059579466469585896,0.010743520222604275,0.00592070072889328,0.004283978138118982,0.008731933310627937,0.013262555934488773,0.010883506387472153,0.007378886919468641,0.008671551011502743,0.018794715404510498,0.006112333852797747,0.006700005382299423,0.004674878902733326,0.020811481401324272,-0.004298732616007328,0.021237147971987724,0.021436385810375214,0.019114146009087563,0.01506987027823925,0.03464686498045921,-0.013279947452247143,0.016154533252120018,0.030243655666708946,0.01658904179930687,-7.927179103717208e-5,0.02251022309064865,0.022018741816282272,0.033237628638744354,0.018192579969763756,0.037170521914958954,0.003672457067295909,0.011232011951506138,0.03467593342065811,0.00011003015970345587,0.00434606010094285,0.03320792317390442,0.01907474361360073,0.003602516371756792,-0.0018482577288523316,0.02638901397585869,-0.008400412276387215,0.02500864490866661,0.011448916979134083,0.00998151209205389,0.007574733346700668,0.01883404515683651,0.014360488392412663,0.014108531177043915,0.0059736669063568115,0.00615305220708251,0.01926102489233017,0.02326829917728901,-0.009929582476615906,0.013107432052493095,0.0035249858628958464,0.018708670511841774,0.026842767372727394,0.013993361964821815,0.0071222539991140366,0.006957924924790859,0.0035965610295534134,0.0330757237970829,0.0158536396920681,0.023042157292366028,0.018351644277572632,0.01578648015856743,0.012613070197403431,0.047677621245384216,0.0033162746112793684,0.030505385249853134,0.010232500731945038,0.006671642418950796,0.012568174861371517,0.011494600214064121,0.006723120342940092,0.015605920925736427,0.059778012335300446,0.03577808290719986,0.017290690913796425,0.02240656316280365,0.00816008634865284,0.006980864331126213,0.014049154706299305,-0.0012715195771306753,0.013899187557399273,0.0038644191808998585,0.03539220243692398,-0.005575677379965782,0.03157436102628708,0.016221558675169945,0.004884828347712755,0.001547337626107037,0.010360004380345345,0.023212257772684097,0.03884332999587059,0.008718637749552727,0.02046891301870346,0.001858316594734788,0.019035104662179947,-0.005801489111036062,0.001035671099089086,0.008975750766694546,0.010084223002195358,0.008511831983923912,0.008653342723846436,0.02696084789931774,0.00844414159655571,0.008021991699934006,0.026452654972672462,0.019750162959098816,0.013335967436432838,0.028727473691105843,0.032452985644340515,0.04143248498439789,0.028734173625707626,0.010941144078969955,-0.002023780718445778,0.01153495628386736,0.0018662255024537444,0.006739943753927946,0.022543344646692276,0.014111687429249287,0.0291118323802948,0.025820255279541016,-0.0016756567638367414,0.011818447150290012,0.025283154100179672,0.006162531208246946,0.061501286923885345,0.010897091589868069,0.009334493428468704,0.010550446808338165,0.003302226308733225,0.02158319391310215,0.020052598789334297,0.0026593897491693497,0.003942448645830154,-0.0038124218117445707,0.0023830740246921778,0.04387394338846207,0.014365864917635918,0.006944991182535887,0.009866475127637386,0.025974370539188385,0.0116604408249259,0.024106450378894806,0.011528720147907734,0.02073565684258938,0.01086435280740261,0.0157359279692173,0.005912221502512693,0.006545675918459892,0.020740164443850517,0.005744752008467913,0.00012267378042452037,0.022371044382452965,-0.005275914445519447,0.02056787721812725,0.036543067544698715,0.004920797888189554,0.0070913382805883884,0.008679545484483242,0.015779562294483185,0.007516434881836176,0.00042987745837308466,-0.00024377154477406293,0.010049503296613693,-0.005718232598155737,0.009231132455170155,0.02573271468281746,0.0012903868919238448,0.016629371792078018,0.02271585538983345,-0.004350000526756048,0.027561359107494354,-0.000778614601586014,0.019924256950616837,0.012294625863432884,0.035633962601423264,0.019566316157579422,0.03191142901778221,0.040970541536808014,0.021766653284430504,0.035061877220869064,0.0007447786047123373,-0.0011096829548478127,0.023823071271181107,0.0831959918141365,0.018564339727163315,0.009129074402153492,0.024946780875325203,0.01813608594238758,0.02878856658935547,0.013720830902457237,0.012892534956336021,0.051659177988767624,0.012732313945889473,0.05423003062605858,0.005733185447752476,0.018167737871408463,0.008154182694852352,0.015622301027178764,0.02088923007249832,0.03834720328450203,0.029003722593188286,-0.0016515350434929132,0.00719174649566412,0.00828224141150713,0.010127037763595581,0.022371556609869003,0.021756352856755257,0.052361682057380676,0.018092986196279526,0.028823846951127052,0.013813212513923645,0.006435982417315245,0.02147538959980011,0.015101077035069466,-0.001848607207648456,0.017380308359861374,0.04316498711705208,0.03358178958296776,0.011298869736492634,0.10762222856283188,0.019560856744647026,0.016778452321887016,0.010975574143230915,0.024828674271702766,0.007332764100283384,0.03415757417678833,0.017590604722499847,0.01266785990446806,0.0037951613776385784,0.013226158916950226,0.008987422101199627,0.03368331864476204,0.037100985646247864,0.015303066931664944,0.016089148819446564,0.04792332649230957,0.005662368610501289,0.03306812047958374,0.03088022954761982,0.0030459442641586065,0.01255345530807972,-0.014948619529604912,0.018410494551062584,0.03872046247124672,0.0110104875639081,0.012899800203740597],[0.025294383987784386,0.0597693957388401,0.12497350573539734,0.15079818665981293,0.1539134979248047,-0.06208507716655731,0.0008191351662389934,0.022701533511281013,-0.08925802260637283,-0.12429965287446976,-0.047759346663951874,-0.00553211010992527,-0.035501837730407715,-0.0324946828186512,-0.09342636913061142,-0.006975431460887194,0.019213585183024406,-0.016752174124121666,-0.14949634671211243,-0.013546985574066639,-0.013900690712034702,0.009179468266665936,0.023395955562591553,-0.08925171941518784,0.02223087102174759,0.025147996842861176,-0.011049626395106316,-0.05079850181937218,0.09950820356607437,0.15389342606067657,-0.015071248635649681,0.07838303595781326,-0.07330604642629623,-0.10759742558002472,0.07635453343391418,0.08177884668111801,0.08203757554292679,0.023121027275919914,0.06103888154029846,0.12281133234500885,-0.10271026939153671,0.03329828381538391,0.04680964723229408,0.010518771596252918,-0.13423073291778564,0.07415197044610977,-0.003399000270292163,0.08465393632650375,0.02317753992974758,0.02702220343053341,0.0646488144993782,0.11872249096632004,-0.1065027192234993,0.0649513527750969,-0.06978265941143036,0.052729152143001556,0.10255352407693863,-0.012968901544809341,0.03603711724281311,-0.0536859892308712,0.09501105546951294,0.10685396194458008,-0.04234302416443825,0.0613512322306633,0.07394757121801376,-0.006629858631640673,-0.04396356642246246,-0.04783741384744644,0.14507433772087097,-0.0424962192773819,-0.07040891796350479,0.07012928277254105,0.049599070101976395,0.18036027252674103,-0.18190161883831024,0.20370806753635406,-0.11768075078725815,0.12485688924789429,0.16058336198329926,0.04834781587123871,0.0821065753698349,0.17042070627212524,0.18832194805145264,0.093190036714077,0.07588047534227371,0.015208275988698006,0.13292334973812103,0.026615265756845474,-0.14054381847381592,-0.025672312825918198,-0.11134973913431168,0.18486909568309784,0.013772029429674149,-0.18042773008346558,0.09708879888057709,0.10100241005420685,-0.07801415771245956,0.013107981532812119,-0.09137013554573059,-0.19934412837028503,-0.033578116446733475,0.11999642848968506,0.05424230918288231,-0.05307672917842865,0.07638724148273468,-0.09030553698539734,-0.07107706367969513,0.007139110472053289,-0.0765005573630333,-0.11308785527944565,0.007459606509655714,0.029398713260889053,0.021799350157380104,0.09409025311470032,0.021354176104068756,0.09317931532859802,-0.018963295966386795,0.0772792398929596,0.10736332833766937,0.11777017265558243,-0.00751806003972888,0.004158686380833387,0.0282468032091856,-0.04101049154996872,0.0047723581083118916,-0.11454492062330246,0.026111120358109474,-0.08416740596294403,0.03687901049852371,-0.03872831538319588,-0.1018151268362999,0.06089919060468674,-0.15097545087337494,-0.09962712228298187,0.13228365778923035,0.014646301046013832,-0.026284631341695786,0.006076200865209103,-0.06620084494352341,0.0029574043583124876,0.1252911239862442,0.07680058479309082,0.1360141485929489,-0.17451974749565125,-0.09458161890506744,-0.10630708187818527,0.04408804699778557,0.013545194640755653,0.0651274248957634,0.11850759387016296,-0.08135038614273071,0.20612157881259918,-0.011057008989155293,-0.06754306703805923,0.02208494395017624,0.14056095480918884,-0.03623275086283684,-0.009320099838078022,-0.060932327061891556,-0.08950407058000565,-0.07296820729970932,0.02568024955689907,-0.19158349931240082,0.1047757938504219,-0.06692851334810257,-0.06608784198760986,-0.004573149606585503,0.07480383664369583,0.12212489545345306,-0.03070373274385929,0.10983271896839142,0.08517954498529434,-0.05541578680276871,0.09379886090755463,-0.0010249692713841796,0.04785729944705963,-0.02644849754869938,0.05489295348525047,-0.06959152966737747,0.030581219121813774,-0.08835989236831665,-0.08889821916818619,0.11682885140180588,0.05348127707839012,0.042265910655260086,0.04093075916171074,0.10636667162179947,0.0465724878013134,0.03961663320660591,-0.042204275727272034,-0.1136910542845726,-0.08694957941770554,-0.054547373205423355,-0.018196767196059227,0.06672631204128265,0.03997629135847092,-0.030750231817364693,0.02129712514579296,-0.12015654146671295,0.05389760434627533,0.047890082001686096,-0.032801833003759384,0.019277021288871765,-0.1901165395975113,-0.0626453161239624,0.005544222891330719,-0.027636723592877388,0.07498053461313248,0.02068539522588253,0.04615481197834015,0.10597185045480728,0.017842678353190422,-0.09986519068479538,0.11488073319196701,-0.19766801595687866,0.0015331365866586566,-0.1704857498407364,0.04333990067243576,-0.013952181674540043,-0.04475391283631325,-0.08297494053840637,-0.062122199684381485,0.06682413071393967,0.039724331349134445,-0.03116915188729763,0.10793998837471008,0.10374124348163605,0.01008608378469944,0.02372915670275688,0.15297162532806396,-0.020594878122210503,0.05870766565203667,-0.09264033287763596,0.007126363925635815,0.019814910367131233,0.054806869477033615,0.019037215039134026,-0.10961370915174484,0.010260723531246185,0.06722132861614227,0.08788228034973145,-0.024160733446478844,0.07253487408161163,0.0015647138934582472,0.05610233545303345,-0.15463706851005554,-0.04030589759349823,0.03797381371259689,0.10332418233156204,-0.058014340698719025,0.09894759953022003,-0.02270997315645218,0.04267424717545509,0.03897852078080177,-0.08140786737203598,0.04976198077201843],[-0.09434610605239868,-0.01206166297197342,-0.24283280968666077,0.042840905487537384,0.07557539641857147,-0.2498999834060669,0.10015925019979477,0.1002640649676323,0.16448114812374115,0.11174698919057846,0.03897827863693237,-0.3103157877922058,0.010629240423440933,0.04954420030117035,-0.04311256483197212,0.22817084193229675,0.011420081369578838,0.027969978749752045,0.04358367621898651,0.22969549894332886,0.06885244697332382,0.048621002584695816,-0.025762764737010002,0.036982085555791855,0.039905838668346405,0.0017916508950293064,-0.3657127618789673,0.12166064232587814,-0.2586482763290405,-0.249982088804245,0.006438132841140032,-0.04813447222113609,-0.09360764175653458,0.04980622977018356,0.11074060946702957,0.16915196180343628,0.16867248713970184,0.06861677020788193,0.07109072059392929,0.05144813656806946,0.015020613558590412,0.12486913055181503,0.1744440346956253,0.029851442202925682,0.0017475419444963336,-0.11806312203407288,-0.3808465600013733,0.11513613909482956,-0.060644276440143585,-0.03687690570950508,0.002164045348763466,0.05214393138885498,0.006059548351913691,0.06746862083673477,0.24226664006710052,-0.036172669380903244,0.1967659443616867,0.1316794753074646,-0.19362729787826538,-0.011651920154690742,0.16770677268505096,-0.0033082193695008755,0.19746336340904236,-0.06158866360783577,-0.04100121557712555,-0.12813736498355865,-0.02312132716178894,-0.16479365527629852,0.04601066932082176,0.14421050250530243,-0.09158698469400406,0.045463766902685165,0.3086688220500946,0.036592692136764526,0.020395535975694656,0.12720762193202972,0.12699458003044128,0.051027026027441025,-0.08524282276630402,0.06493989378213882,-0.08620557934045792,0.07045534253120422,0.06914728134870529,0.04751589149236679,0.22338728606700897,0.0013731556246057153,0.03483237698674202,-0.06469027698040009,0.08675728738307953,-0.06067151576280594,-0.06178348511457443,-0.19240334630012512,-0.05897997319698334,0.11031287908554077,-0.2101200371980667,0.1989162564277649,0.06549365818500519,-0.08490472286939621,-0.021419450640678406,0.15146709978580475,-0.013021748512983322,-0.23156936466693878,-0.01238503772765398,0.06329464167356491,0.028735263273119926,0.08178591728210449,-0.07078223675489426,-0.2685735523700714,0.14124168455600739,-0.013614817522466183,-0.10601495206356049,-0.05357109010219574,-0.17154249548912048,0.010601993650197983,0.18342386186122894,0.019284268841147423,-0.06089957430958748,0.126177579164505,-0.03921736404299736,0.05165134742856026,0.1734403520822525,0.08345141261816025,0.08133337646722794,0.05257069692015648,0.08401963114738464,-0.09084034711122513,-0.11072808504104614,0.04163019359111786,0.26020002365112305,0.19180139899253845,0.16042882204055786,0.012394784018397331,-0.23659925162792206,0.07280398905277252,0.007646913640201092,0.028118476271629333,0.19792871177196503,-0.179091215133667,-0.046157024800777435,0.2259344458580017,0.23433761298656464,-0.04310925677418709,0.03690343722701073,-0.09419306367635727,-0.024739274755120277,0.2537823021411896,0.010689828544855118,0.14251641929149628,0.07361676543951035,0.15556584298610687,-0.018451862037181854,-0.046951115131378174,-0.11083908379077911,0.08060931414365768,0.04130616411566734,-0.021488362923264503,0.03303322196006775,0.17509113252162933,-0.011402817443013191,-0.029126495122909546,0.10098084062337875,-0.05423300713300705,0.09961635619401932,0.041556671261787415,0.20506691932678223,-0.025796711444854736,-0.22069846093654633,-0.04922536388039589,0.09186147153377533,-0.03231079503893852,0.12810339033603668,-0.10208889096975327,0.23929734528064728,-0.4167676866054535,0.1587270051240921,-0.13569223880767822,0.14912258088588715,0.15679872035980225,0.012771513313055038,-0.05807368457317352,-0.010834303684532642,-0.08363702148199081,-0.053192708641290665,-0.06255269050598145,-0.1032472476363182,-0.17567363381385803,0.021569177508354187,-0.2713356018066406,-0.08137030899524689,0.0012829798506572843,-0.023433342576026917,0.17573696374893188,-0.180134579539299,-0.02315094880759716,-0.12490115314722061,-0.10144401341676712,0.14688558876514435,0.11669348925352097,0.14993228018283844,0.2289508432149887,-0.12414678931236267,-0.26745888590812683,-0.2150396853685379,-0.0034419994335621595,0.03472587838768959,0.1214749738574028,0.1759805679321289,-0.005151133053004742,-0.011471305973827839,0.16696712374687195,-0.014873605221509933,0.21549996733665466,-0.019873011857271194,0.026084929704666138,-0.1642533391714096,-0.025014586746692657,-0.19465483725070953,0.2602153420448303,-0.04917153716087341,0.25286343693733215,-0.14438769221305847,-0.0651126503944397,-0.08801919966936111,0.09444250911474228,-0.15094250440597534,-0.06763230264186859,-0.08999934047460556,-0.14805647730827332,0.19145062565803528,-0.031884025782346725,-0.247312992811203,-0.0006810628692619503,0.28119388222694397,-0.16988971829414368,0.05767374485731125,0.23012186586856842,0.0814906507730484,0.10543368011713028,-0.03545881062746048,0.01836031675338745,0.0684952512383461,0.006734100170433521,0.12689869105815887,-0.11767047643661499,-0.13640692830085754,0.17218247056007385,-0.10711904615163803,0.09053696691989899,0.08873254805803299,0.11282803863286972,-0.04451412335038185,0.05207499861717224,-0.01723436638712883,0.15403209626674652,-0.0428110808134079,0.07099757343530655],[-0.15512098371982574,0.20282933115959167,-0.04040971398353577,-0.17214827239513397,-0.1427004337310791,-0.22610905766487122,-0.0725788101553917,0.09774647653102875,0.050082746893167496,-0.20572307705879211,0.08886226266622543,-0.06787674874067307,-0.1488901525735855,-0.11498118191957474,-0.008431065827608109,-0.04987772926688194,-0.03380873426795006,0.17073312401771545,0.06855558604001999,0.11573804914951324,0.13581937551498413,0.11167095601558685,0.028827665373682976,-0.1470283567905426,-0.13754765689373016,0.08221779763698578,-0.0116999801248312,0.24013732373714447,0.006300875451415777,0.12739987671375275,0.24124161899089813,-0.2062968611717224,-0.15147924423217773,0.12410265952348709,-0.1627797931432724,0.010367398150265217,0.2043134719133377,-0.11419138312339783,-0.005431452300399542,-0.05835921689867973,0.09225811064243317,0.09146890044212341,-0.2736499607563019,0.10254021733999252,-0.10944882780313492,0.09309054166078568,-0.1062532439827919,-0.019814718514680862,0.07401321828365326,0.080393485724926,0.05947389453649521,0.02256910130381584,0.3372698724269867,0.23559848964214325,-0.17266744375228882,-0.03801790997385979,-0.262973815202713,0.23454588651657104,0.03288289159536362,-0.024428464472293854,0.2008882611989975,-0.21984542906284332,-0.025461729615926743,-0.10135916620492935,0.031867895275354385,0.056066326797008514,-0.062238387763500214,0.05387342721223831,-0.029294859617948532,0.07898343354463577,-0.12784282863140106,0.054339420050382614,0.15888191759586334,0.03550339862704277,0.2594170570373535,-0.03299936279654503,-0.2365858554840088,-0.17655929923057556,0.11123835295438766,0.16346482932567596,0.06747888028621674,-0.3606491684913635,0.18314947187900543,0.3305944800376892,0.1378294676542282,-0.20837892591953278,0.03459594398736954,-0.15760600566864014,0.14150302112102509,0.03301890939474106,0.36362364888191223,0.1388210952281952,-0.08317399770021439,0.02049698866903782,-0.018186600878834724,-0.05262613296508789,-0.08418247848749161,-0.05379490181803703,-0.09097043424844742,-0.0016342877643182874,0.16697870194911957,-0.14200057089328766,0.0032336264848709106,-0.1345052868127823,0.24563449621200562,-0.273676335811615,-0.110846146941185,-0.21076929569244385,0.32774510979652405,0.05855335295200348,-0.21422651410102844,-0.1553175300359726,-0.014960061758756638,0.04648876562714577,0.12916268408298492,0.04778796806931496,0.05851060152053833,-0.17710638046264648,0.14684118330478668,-0.24938541650772095,0.004861627239733934,0.011625503189861774,-0.07089409232139587,-0.003306417725980282,0.12711922824382782,0.14036691188812256,0.0012829629704356194,-0.023130010813474655,0.1486731618642807,-0.17177051305770874,0.014910819008946419,-0.20205198228359222,0.03856294974684715,0.09860587120056152,0.04914780333638191,-0.07853564620018005,0.032766517251729965,0.013540607877075672,-0.11906133592128754,0.12186124175786972,-0.10369329899549484,0.04960823431611061,0.05456358566880226,0.3219545781612396,-0.21177566051483154,-0.2635546624660492,-0.12984727323055267,-0.15031707286834717,-0.008055644109845161,-0.08902636915445328,-0.039519842714071274,-0.17748387157917023,0.019978350028395653,0.03909464552998543,-0.08523693680763245,-0.11274977773427963,-0.23728951811790466,-0.10806052386760712,-0.11268620193004608,-0.0017499414971098304,-0.18178804218769073,-0.027992302551865578,0.28917279839515686,0.05850460007786751,-0.16839972138404846,0.010532867163419724,-0.16908827424049377,0.009644665755331516,-0.10934268683195114,-0.07465723156929016,-0.0009560490725561976,-0.021685712039470673,0.07420777529478073,0.09884727001190186,0.26839005947113037,-0.15288247168064117,0.028164030984044075,0.16851195693016052,0.12405586987733841,0.009285464882850647,-0.1616498827934265,-0.06449422240257263,0.05220634862780571,0.11078265309333801,0.06582348793745041,0.14429840445518494,-0.22590382397174835,-0.02208971604704857,-0.17818693816661835,0.03161100670695305,0.04613736271858215,-0.0997467190027237,0.03378788009285927,-0.008701955899596214,-0.19510780274868011,-0.16013748943805695,0.24378079175949097,0.3069666028022766,-0.0641760528087616,0.17001403868198395,0.008815157227218151,0.016911519691348076,-0.12507382035255432,-0.22330103814601898,-0.1421842724084854,0.10379360616207123,0.15933389961719513,-0.11145715415477753,-0.037999387830495834,0.3425211012363434,0.03327932953834534,0.19087627530097961,-0.13584589958190918,0.08326949924230576,-0.04477056860923767,-0.037622082978487015,0.051691509783267975,0.18153385818004608,0.19313259422779083,0.03479934111237526,0.12594088912010193,0.09162469953298569,0.00909588485956192,0.14447234570980072,0.0826096162199974,-0.16212669014930725,-0.13160008192062378,-0.03613661602139473,-0.13664397597312927,-0.0011984395096078515,-0.020963212475180626,-0.20256145298480988,-0.07475969195365906,-0.014282651245594025,-0.02805977314710617,0.034241221845149994,-0.17196108400821686,0.14416515827178955,0.050815097987651825,-0.06713477522134781,-0.28513211011886597,0.233550027012825,-0.0955481082201004,0.09987151622772217,0.22032156586647034,-0.378726601600647,-0.027950381860136986,0.23951473832130432,-0.0637640729546547,-0.18036454916000366,-0.18410417437553406,0.07989300042390823,0.14217910170555115,0.2712307572364807,0.010249115526676178,-0.08608362823724747],[0.0018656429601833224,0.24274952709674835,-0.2514636218547821,0.1319471001625061,0.29268893599510193,0.0900425985455513,0.09324628859758377,-0.15159839391708374,-0.20088443160057068,0.3276910185813904,0.04738103598356247,-0.006566130090504885,-0.003043105825781822,-0.3777923882007599,-0.08196497708559036,-0.4433341324329376,0.19574083387851715,-0.0037803389132022858,0.2618615925312042,-0.24406926333904266,-0.16645725071430206,-0.2019343227148056,0.04110986739397049,-0.05295742675662041,-0.0679340735077858,-0.18079687654972076,0.16750915348529816,-0.1810157299041748,0.24930404126644135,0.21607635915279388,0.14369291067123413,0.23345187306404114,0.0563809908926487,-0.26466527581214905,0.11670348048210144,0.008025506511330605,-0.1962093710899353,-0.1031167209148407,-0.024640129879117012,0.09124230593442917,0.13383810222148895,0.025248365476727486,0.060838885605335236,-0.14435145258903503,-0.1882181316614151,0.05960213392972946,-0.08480101823806763,-0.038168009370565414,0.06677483767271042,-0.18255679309368134,0.05109842121601105,0.0959785133600235,-0.23224672675132751,0.15924547612667084,-0.15065452456474304,-0.10865692049264908,-0.12606248259544373,-0.07348060607910156,0.12279577553272247,-0.31041795015335083,-0.0038598349783569574,-0.06370213627815247,0.030969005078077316,-0.009373210370540619,-0.007953399792313576,0.08116919547319412,-0.16100409626960754,0.2635292112827301,0.10644342005252838,-0.4286710321903229,0.059070050716400146,0.06815102696418762,0.14746615290641785,-0.3527224361896515,-0.01519054640084505,0.18816159665584564,0.10893996804952621,0.1207389384508133,0.14289265871047974,-0.03846914321184158,0.22055432200431824,-0.07803087681531906,-0.14526061713695526,0.17587910592556,0.03862645849585533,0.13337133824825287,0.11055602133274078,-0.1709994375705719,0.23672112822532654,0.0071551501750946045,-0.1282503753900528,0.16025030612945557,-0.056400932371616364,-0.1955774873495102,0.12239518761634827,0.20128071308135986,-0.00482184486463666,0.11297150701284409,0.14241620898246765,-0.2837338149547577,-0.2739219665527344,0.2228383719921112,0.04666074737906456,-0.039282042533159256,0.011118998751044273,-0.18167026340961456,-0.018514448776841164,-0.2712646424770355,-0.41448116302490234,0.08053494989871979,-0.2163839191198349,-0.23598119616508484,0.20517458021640778,0.09765160828828812,0.136581689119339,0.09199917316436768,0.12735334038734436,-0.043634265661239624,0.013388113118708134,0.1490485668182373,-0.44451895356178284,0.10657071322202682,-0.09075083583593369,-0.30173903703689575,-0.031676411628723145,-0.13227251172065735,0.011917304247617722,-0.05073842033743858,-0.2022436112165451,-0.16858701407909393,-0.05386442691087723,0.21293334662914276,-0.009282928891479969,-0.2219824492931366,-0.12305476516485214,-0.24560073018074036,-0.08876985311508179,-0.0619669109582901,-0.15251858532428741,-0.021073296666145325,0.16988541185855865,0.07891345769166946,-0.26235368847846985,-0.3963015377521515,-0.12677058577537537,0.2152552455663681,0.16128693521022797,-0.08589605987071991,0.06022832915186882,0.17710080742835999,0.2256792187690735,0.04238400608301163,-0.13632670044898987,-0.2460721731185913,0.049685999751091,-0.09836380928754807,0.0024177664890885353,-0.13303765654563904,-0.12591704726219177,0.25739923119544983,-0.1888863742351532,0.05305350944399834,0.13893967866897583,-0.02798507921397686,-0.010530750267207623,-0.07065624743700027,-0.17634107172489166,0.07547131180763245,-0.05070810765028,-0.2649148106575012,0.19600845873355865,0.24424460530281067,-0.22347493469715118,0.24906577169895172,0.07661721855401993,0.0233951136469841,-0.22335544228553772,-0.08690298348665237,-0.2543414831161499,0.10360580682754517,-0.3354853689670563,0.054652515798807144,0.02036595717072487,0.16231845319271088,-0.1827259659767151,0.10067608952522278,0.04085875302553177,-0.22074852883815765,0.14157752692699432,0.09564746171236038,0.165215402841568,0.031445905566215515,-0.16153888404369354,-0.029409777373075485,0.013423134572803974,-0.055766619741916656,0.05171879008412361,-0.12989521026611328,0.25452274084091187,0.0021521758753806353,0.1685699075460434,-0.04445161670446396,0.08250880241394043,-0.21759778261184692,-0.24366287887096405,-0.26364222168922424,-0.17304866015911102,0.10644634813070297,0.03503279387950897,0.5241120457649231,0.30497288703918457,-0.0019718026742339134,0.12363067269325256,0.0027278687339276075,0.1848776489496231,0.11769664287567139,0.11560112982988358,0.22254200279712677,-0.10840621590614319,-0.18641291558742523,0.05039503797888756,-0.012845639139413834,0.02649315446615219,-0.02957342006266117,0.08028300851583481,0.10557790845632553,0.2492855191230774,-0.0783916637301445,-0.10662012547254562,0.0756065621972084,0.009922332130372524,0.1565416306257248,-0.020696816965937614,-0.10113635659217834,-0.15457671880722046,-0.1783580183982849,0.005353457760065794,0.11018505692481995,-0.048732057213783264,0.1632205992937088,0.19105035066604614,-0.08102881908416748,-0.19937042891979218,-0.022960098460316658,0.09886275976896286,-0.13534514605998993,-0.18431662023067474,0.1229948028922081,-0.09278122335672379,-0.25175291299819946,0.09407255798578262,0.31714144349098206,0.036791544407606125,-0.18123091757297516,-0.12841013073921204,0.1566881239414215],[-0.1398841291666031,0.023668061941862106,0.07211662828922272,-0.07215875387191772,0.11142468452453613,0.013314047828316689,-0.12289763242006302,-0.25286799669265747,0.0831819698214531,-0.3723914325237274,0.1003275066614151,-0.03511369228363037,-0.10604092478752136,-0.05321984365582466,-0.006830097641795874,-0.15695106983184814,-0.19363266229629517,-0.01489253994077444,0.01847134903073311,0.1295086145401001,-0.07823201268911362,-0.32022416591644287,0.08176549524068832,-0.07685868442058563,-0.0754965990781784,-0.09852654486894608,-0.04801982268691063,-0.18122966587543488,-0.09192035347223282,0.009227451868355274,-0.5091262459754944,0.04975173994898796,0.1373555213212967,-0.03919164091348648,0.0921022817492485,-0.031891871243715286,-0.14358147978782654,-0.19087237119674683,0.05250921845436096,0.03014771267771721,0.31348931789398193,-0.06562352180480957,-0.2781066596508026,-0.008187199011445045,0.15690405666828156,0.31691795587539673,-0.23328571021556854,-0.011447821743786335,0.10278596729040146,-0.007895114831626415,0.08007152378559113,-0.213982954621315,-0.05645192414522171,0.026915233582258224,-0.10798671096563339,0.1202964037656784,-0.2578605115413666,0.17629912495613098,0.03868676722049713,-0.1260346621274948,-0.01771734096109867,0.21865323185920715,-0.023301780223846436,-0.005425342358648777,0.002034813864156604,0.05118568241596222,-0.205607607960701,-0.16597260534763336,-0.03759508579969406,0.024380983784794807,-0.13128486275672913,0.19546061754226685,0.06461168080568314,0.16665463149547577,-0.17308691143989563,0.19949699938297272,-0.13146564364433289,-0.16735470294952393,0.1149422824382782,0.048957861959934235,-0.060890644788742065,0.13545316457748413,0.021562784910202026,0.18575914204120636,0.03791901096701622,-0.17559361457824707,-0.014637368731200695,-0.09690215438604355,0.3909134566783905,-0.10254362225532532,-0.2935711741447449,-0.09438571333885193,-0.13483361899852753,0.13286921381950378,-0.09973285347223282,0.0062566096894443035,0.021933862939476967,0.010700938291847706,-0.15169116854667664,0.2006671279668808,-0.09584483504295349,-0.06254014372825623,-0.006091481074690819,-0.1728685051202774,-0.3468182682991028,-0.015956159681081772,-0.1798197627067566,-0.03376684710383415,-0.29527685046195984,-0.10339813679456711,-0.014379994943737984,0.08296717703342438,0.1642000526189804,0.11299877613782883,0.08270080387592316,0.05653109401464462,0.026873178780078888,0.024224627763032913,-0.13284893333911896,0.015789056196808815,0.2962772250175476,0.1979215294122696,-0.009854272939264774,-0.07480363547801971,-0.10246782749891281,0.1825437843799591,-0.05829945579171181,0.08057001978158951,-0.21037784218788147,0.2853824198246002,0.1366700381040573,0.04740266129374504,0.034369103610515594,0.2647564113140106,0.24658465385437012,-0.10676979273557663,-0.015965286642313004,-0.00547777907922864,0.09461610019207001,0.03840496763586998,0.03213813155889511,0.04004165530204773,-0.16430135071277618,0.28036051988601685,-0.09348037838935852,-0.054769255220890045,0.08341490477323532,0.12919197976589203,0.050129108130931854,0.16961990296840668,0.12953516840934753,0.19118572771549225,-0.07613617926836014,0.024006247520446777,-0.18144777417182922,-0.3673066198825836,-0.11581813544034958,0.16947385668754578,-0.1982734501361847,0.15386360883712769,-0.13718673586845398,0.1410146802663803,0.3441229462623596,0.09103452414274216,0.2927415370941162,0.028625937178730965,0.3153424859046936,-0.1739470362663269,0.12251409888267517,-0.12046608328819275,-0.016265226528048515,-0.12103018909692764,-0.03320080414414406,-0.09677284210920334,0.041594553738832474,-0.29700767993927,-0.1387406438589096,-0.208511620759964,0.07911614328622818,0.11825128644704819,-0.18533597886562347,0.11400021612644196,-0.08806992322206497,-0.050692714750766754,-0.20813822746276855,-0.0967859998345375,0.169622004032135,0.15554985404014587,0.09583962708711624,-0.29436933994293213,0.03751928731799126,-0.057120416313409805,0.02766190841794014,-0.05734865739941597,-0.06394679099321365,0.1318533569574356,0.1777016520500183,0.26644012331962585,0.13979047536849976,0.045166317373514175,-0.06849446147680283,0.03589339926838875,0.1624838411808014,0.0998329147696495,-0.2518257796764374,0.09289208799600601,-0.37697187066078186,-0.05195850506424904,-0.28892844915390015,0.2654934525489807,-0.1392906755208969,0.1954694390296936,-0.01320832408964634,-0.06930337846279144,-0.07056455314159393,-0.009040756151080132,-0.028333669528365135,0.2535061836242676,-0.15724094212055206,0.14981529116630554,-0.21547770500183105,0.006822541356086731,-0.026528196409344673,-0.13827916979789734,-0.08444370329380035,0.05686543136835098,0.007555815391242504,-0.36688387393951416,0.2362097203731537,0.01309024915099144,0.09975375980138779,0.13264352083206177,-0.17041635513305664,0.25346243381500244,-0.11183806508779526,-0.02137657441198826,-0.015670593827962875,0.4382433295249939,-0.13786178827285767,-0.10134340822696686,0.24631813168525696,-0.02731998637318611,0.13020089268684387,-0.08267953991889954,0.23001442849636078,-0.07264967262744904,-0.1889020800590515,0.11752097308635712,0.1473546028137207,-0.08456388860940933,0.023765038698911667,0.12403561919927597,-0.14755499362945557,0.2639457881450653,-0.0037933383136987686,-0.08740964531898499],[-0.32359033823013306,-0.10538803040981293,0.33411115407943726,-0.10126123577356339,0.08920495957136154,0.17042630910873413,0.18854671716690063,-0.33918213844299316,0.08125969022512436,0.09680402278900146,0.11094484478235245,0.41385000944137573,0.2826732099056244,0.015008275397121906,0.2707437574863434,0.10773027688264847,0.028351878747344017,0.059340350329875946,-0.1271960437297821,-0.13485084474086761,0.14625109732151031,0.18700267374515533,0.16501854360103607,-0.07354570180177689,0.17418667674064636,0.28568631410598755,0.2776564955711365,-0.04514681175351143,-0.18362216651439667,0.08673799782991409,-0.2654765248298645,0.05732516944408417,-0.012150220572948456,0.4487130343914032,-0.227791890501976,0.003220736514776945,-0.04102044552564621,0.2756797969341278,-0.1539277285337448,-0.15296411514282227,0.1136518120765686,-0.23230066895484924,-0.08851355314254761,-0.0729416236281395,0.19391989707946777,0.08731503784656525,0.20982006192207336,-0.22613494098186493,-0.0653245747089386,0.07721413671970367,-0.20514219999313354,-0.18311403691768646,0.34113794565200806,-0.0764964148402214,0.15865452587604523,-0.12100261449813843,-0.2313205897808075,0.13851772248744965,0.03806297853589058,0.13560734689235687,-0.22400283813476562,-0.05067938566207886,-0.1330278515815735,-0.08490778505802155,-0.11384966969490051,-0.04505607485771179,0.16355407238006592,0.000498907407745719,-0.40433183312416077,0.3400276303291321,0.23574909567832947,-0.15414080023765564,-0.23560725152492523,0.015071669593453407,0.011724768206477165,-0.03016526624560356,0.1413503885269165,-0.10234524309635162,0.0820285752415657,-0.06838538497686386,0.02136141061782837,-0.03623355180025101,-0.09757057577371597,-0.02008643187582493,-0.14823687076568604,0.21077820658683777,-0.07710079848766327,0.22286193072795868,-0.010304832831025124,0.1191435381770134,0.11398916691541672,-0.06892353296279907,-0.31379660964012146,0.09603261202573776,0.09328781068325043,-0.36902862787246704,0.12705066800117493,-0.0728086307644844,-0.08956294506788254,0.0781388133764267,-0.13015110790729523,-0.24101535975933075,0.1996186524629593,0.2144494354724884,-0.09376396238803864,0.17925627529621124,0.19228211045265198,0.22092825174331665,0.25099849700927734,-0.044576678425073624,0.25670522451400757,0.007373720873147249,0.07531223446130753,-0.05103091895580292,-0.07795596122741699,0.12902607023715973,-0.12574341893196106,-0.33590203523635864,-0.16353288292884827,-0.17724831402301788,0.057316720485687256,0.0973857119679451,-0.397872656583786,-0.005517368670552969,-0.026760196313261986,0.35509639978408813,0.09381090849637985,0.22193032503128052,-0.38609302043914795,-0.1510154753923416,0.07142733782529831,0.07845236361026764,-0.3711034953594208,0.23269087076187134,0.17862607538700104,0.03234000876545906,-0.0746975839138031,0.1521548479795456,0.2117445468902588,-0.13870349526405334,-0.3019034266471863,-0.004272946622222662,0.002125596161931753,0.16956312954425812,0.13398678600788116,0.07532093673944473,-0.15943869948387146,-0.05192162096500397,0.03969983384013176,0.027730312198400497,-0.13221906125545502,-0.0009127670200541615,0.11789719015359879,0.16722959280014038,-0.12078499794006348,-0.14205193519592285,-0.17541083693504333,0.07181695103645325,-0.09146305173635483,0.21793019771575928,0.05476442724466324,0.038369320333004,-0.019387034699320793,-0.1326175481081009,0.24917595088481903,0.028999578207731247,-0.11518518626689911,0.04578464850783348,-0.22604471445083618,0.14851100742816925,-0.1474384218454361,-0.10748589783906937,-0.0669638141989708,-0.07011967897415161,-0.16343490779399872,0.11963965743780136,0.12123876065015793,-0.30836719274520874,0.2996860146522522,0.11840201169252396,0.32932302355766296,0.04707532748579979,0.08392014354467392,-0.08270413428544998,0.25247928500175476,-0.08519389480352402,-0.12930019199848175,0.20150244235992432,-0.1687375158071518,0.4009312093257904,0.048786066472530365,-0.05384066700935364,0.25599709153175354,-0.029404466971755028,0.1133107990026474,-0.05271788313984871,0.009988011792302132,-0.2138771414756775,0.08843764662742615,-0.1291714608669281,-0.13741376996040344,0.1102001741528511,-0.12327782809734344,0.35106751322746277,0.09895005077123642,-0.011093060486018658,0.11384952068328857,-0.12213676422834396,0.031667258590459824,-0.07703327387571335,-0.14328818023204803,0.22648915648460388,0.39279282093048096,-0.20887435972690582,-0.005878161173313856,0.15670768916606903,-0.1635303497314453,-0.0070220697671175,0.04130148887634277,-0.12676168978214264,-0.23694859445095062,0.2621571123600006,0.09595508128404617,-0.06301365792751312,0.06409168988466263,0.05060228332877159,-0.04587209224700928,-0.07048234343528748,0.021466439589858055,-0.03431110084056854,0.19179747998714447,-0.2527562379837036,-0.061159588396549225,0.15506307780742645,0.18581603467464447,-0.36162877082824707,-0.12176360189914703,0.03589370474219322,-0.06962499022483826,0.058866001665592194,-0.1897953450679779,0.09645475447177887,-0.2135697305202484,-0.2285461276769638,0.07307326793670654,0.40828627347946167,0.05887128785252571,0.15456847846508026,0.08501502871513367,0.09704534709453583,-0.3035682439804077,-0.33029696345329285,-0.3153364360332489,0.10228518396615982,0.005996839143335819,-0.01540442556142807],[-0.28130415081977844,0.009096410125494003,0.16899152100086212,-0.25919821858406067,-0.0011156648397445679,0.5525925755500793,-0.1772119700908661,-0.4380296766757965,-0.014834953472018242,-0.018336273729801178,-0.09962588548660278,0.11040467768907547,0.022065870463848114,-0.024707302451133728,0.21159283816814423,0.046676672995090485,0.02430036850273609,0.17921505868434906,-0.16511762142181396,0.025705596432089806,0.10282356292009354,0.43484383821487427,-0.08948702365159988,-0.3042919635772705,0.0713869258761406,0.15928812325000763,0.12272046506404877,-0.1248735710978508,-0.03998883441090584,0.20041750371456146,-0.2251950353384018,-0.011993295513093472,0.13893821835517883,-0.2177589237689972,0.01678610034286976,-0.1258482187986374,-0.1028178408741951,0.0797271803021431,-0.2670336961746216,-0.22336184978485107,-0.2605821490287781,0.2283632606267929,0.0500723160803318,0.19639253616333008,0.0037197412457317114,-0.366557776927948,-0.01119706779718399,-0.21869677305221558,0.15552164614200592,-0.06184212490916252,-0.14901840686798096,-0.19851957261562347,0.19694219529628754,0.048804521560668945,-0.30069780349731445,0.005655481480062008,0.06521748006343842,-0.18127354979515076,-0.11380056291818619,0.3310309052467346,-0.18541739881038666,-0.07019930332899094,-0.3901169002056122,0.0651356503367424,-0.08285826444625854,0.18945874273777008,0.09234946966171265,-0.19035200774669647,-0.20208841562271118,0.012455230578780174,0.24792598187923431,0.03935326635837555,-0.3212796747684479,0.20563173294067383,0.18864868581295013,-0.19368617236614227,0.09283462166786194,-0.47055506706237793,0.0513235405087471,-0.05630432814359665,-0.061217669397592545,-0.42114442586898804,-0.08158426731824875,-0.026239758357405663,-0.05885378643870354,-0.14103209972381592,-0.15487685799598694,0.36760076880455017,0.06940805166959763,0.10733239352703094,0.4590592384338379,-0.16199424862861633,0.1239418238401413,-0.02326257899403572,0.46136727929115295,-0.2221647948026657,0.18501487374305725,0.08667702972888947,0.029656263068318367,-0.2384403645992279,-0.11888474225997925,-0.038808636367321014,0.009145306423306465,0.17855897545814514,0.01922188512980938,-0.31012752652168274,0.11570145934820175,0.1054328978061676,0.020721441134810448,-0.15014782547950745,0.212474063038826,0.14163853228092194,0.2424502819776535,-0.12222501635551453,0.13839776813983917,-0.0009774190839380026,0.13270477950572968,-0.04155256226658821,0.06587064266204834,-0.12039939314126968,-0.11712724715471268,-0.09775590151548386,-0.17267313599586487,-0.2812849283218384,-0.10696537047624588,0.3476036787033081,0.28401756286621094,0.34210535883903503,-0.3512999415397644,-0.04521491751074791,-0.050484538078308105,-0.22041593492031097,-0.21610067784786224,0.08654598891735077,0.2585155665874481,-0.1477353274822235,-0.08780825883150101,-0.04860340431332588,0.32091623544692993,0.03493265435099602,-0.22813041508197784,-0.08876179158687592,0.06265027821063995,-0.0010598718654364347,-0.1552465409040451,-0.25247591733932495,0.14870207011699677,-0.21939843893051147,0.2101605087518692,-0.3643858730792999,-0.04496994614601135,0.05798697844147682,0.19767794013023376,-0.15762494504451752,0.0929538756608963,-0.11911240965127945,0.12796959280967712,-0.22585581243038177,-0.37799400091171265,0.0438382662832737,-0.06442904472351074,0.04883792996406555,0.19934135675430298,-0.00743073970079422,0.004804602358490229,0.012620900757610798,-0.03323594480752945,0.09665682166814804,-0.40330907702445984,0.18082468211650848,-0.21369755268096924,-0.051525477319955826,-0.07080036401748657,-0.07189317792654037,0.014483682811260223,0.12040437757968903,0.07021249830722809,0.003294021124020219,-0.061501629650592804,0.1557060331106186,0.1987854391336441,-0.10325752943754196,-0.15619705617427826,0.026797974482178688,-0.4098246395587921,-0.04672776535153389,-0.07116762548685074,-0.003206132212653756,0.1847318708896637,0.05724650248885155,-0.19847747683525085,-0.0961293876171112,0.07027463614940643,0.2267693132162094,-0.11730586737394333,0.2310132533311844,-0.051498569548130035,-0.03893931582570076,-0.22747336328029633,-0.09702522307634354,-0.09747372567653656,0.07237831503152847,0.1590539515018463,0.044688887894153595,-0.0011650032829493284,0.06835470348596573,-0.12103118002414703,-0.34881672263145447,0.05852264165878296,-0.020335329696536064,-0.1302308440208435,-0.00523811811581254,-0.12454813718795776,0.12614335119724274,-0.014190777204930782,0.35902079939842224,-0.045229069888591766,0.035080742090940475,0.32361429929733276,-0.3388175070285797,-0.42570939660072327,0.04118932783603668,-0.1025296077132225,0.017626188695430756,0.02397971786558628,-0.06323190778493881,0.30470940470695496,-0.18901579082012177,-0.2120731770992279,0.09117411077022552,-0.1327875852584839,0.034628670662641525,0.11221523582935333,0.2402704358100891,0.042611636221408844,-0.3134036958217621,0.2301551252603531,-0.16396364569664001,-0.05357735976576805,0.15342353284358978,-0.028368376195430756,0.008424079976975918,-0.06609976291656494,-0.29710066318511963,0.05419142171740532,-0.16734834015369415,-0.07096275687217712,0.004391053691506386,-0.1406036764383316,-0.09824340790510178,-0.12810921669006348,-0.4404219388961792,0.2707764506340027,-0.18785780668258667,0.2007095217704773,0.2484564632177353],[-0.40536537766456604,-0.1492350697517395,0.21534937620162964,0.09033948928117752,-0.2539294958114624,0.15089724957942963,0.17870396375656128,-0.37742164731025696,0.14347967505455017,0.07757130265235901,-0.037496332079172134,-0.010488014668226242,-0.014333143830299377,0.05861271545290947,0.17773769795894623,-0.11958993226289749,0.05389575660228729,-0.15894761681556702,-0.11249341815710068,-0.058475472033023834,-0.12505421042442322,0.10664524883031845,-0.005750563461333513,0.10289108008146286,-0.07249054312705994,0.01571248099207878,0.0741163045167923,-0.052567191421985626,0.12447520345449448,-0.4086202085018158,0.0708293691277504,-0.19910623133182526,-0.06082422286272049,-0.2570214569568634,0.3914436101913452,-0.11928821355104446,-0.09527544677257538,-0.05575205385684967,0.06903782486915588,0.04900041222572327,-0.21437318623065948,0.054670706391334534,0.18422619998455048,-0.29242563247680664,-0.07662319391965866,-0.20366691052913666,0.06975451856851578,0.14413100481033325,-0.028285885229706764,-0.0814899131655693,0.09746246784925461,-0.29464519023895264,-0.24341610074043274,0.011790920048952103,0.29095059633255005,0.09367337822914124,0.09809597581624985,-0.05493386834859848,0.01155032403767109,0.07607776671648026,-0.06873714923858643,-0.1842842400074005,-0.1348891705274582,-0.0571783147752285,0.06578072905540466,0.09105975180864334,-0.0036325552500784397,0.03359905257821083,-0.13570564985275269,-0.17683999240398407,-0.06643858551979065,-0.16654206812381744,0.12686090171337128,-0.1817888617515564,0.011580296792089939,-0.20287872850894928,-0.13568538427352905,0.1471911519765854,0.064498670399189,0.003532477654516697,-0.032375678420066833,0.09787629544734955,0.18648961186408997,-0.2504251301288605,0.053738947957754135,0.017328722402453423,-0.021191516891121864,0.29894453287124634,0.1317729502916336,-0.0742291510105133,-0.14176614582538605,-0.08329620957374573,0.23159442842006683,-0.08862150460481644,0.16296547651290894,-0.1438068002462387,-0.05755066126585007,0.31785574555397034,-0.031171370297670364,0.13377772271633148,-0.11991645395755768,0.08249939978122711,0.015139838680624962,-0.013783302158117294,-0.23161756992340088,0.026172110810875893,-0.027859674766659737,0.19951492547988892,-0.39315712451934814,0.011799464002251625,-0.15574178099632263,0.17779478430747986,0.17770512402057648,-0.0065433369018137455,-0.05078330263495445,-0.07829643785953522,0.24115723371505737,0.21764494478702545,0.14900101721286774,-0.11649393290281296,0.10767760872840881,0.07319094985723495,0.3767300844192505,0.07029329985380173,0.09590578079223633,0.44021689891815186,0.04428846761584282,-0.511905312538147,-0.34647414088249207,-0.10943645238876343,-0.09331858158111572,-0.2583363652229309,-0.18282140791416168,0.17498306930065155,-0.00952260009944439,0.22534936666488647,-0.0608624704182148,0.11582622677087784,0.004638305865228176,-0.08705493062734604,-0.1405879259109497,-0.023507965728640556,0.0955706313252449,-0.24006801843643188,-0.2571432888507843,0.1172037199139595,0.1547623723745346,0.12671294808387756,-0.26429322361946106,-0.08327341079711914,-0.006072578486055136,0.11166030913591385,-0.32913824915885925,0.1593082696199417,-0.3121476471424103,-0.08641336113214493,0.1122175082564354,0.06413837522268295,-0.15575850009918213,0.0676543191075325,-0.1293526142835617,0.06385090947151184,-0.1440093070268631,0.08079428225755692,0.0014848002465441823,-0.03600554168224335,-0.2144348919391632,-0.031350277364254,-0.1116550862789154,-0.015000917948782444,-0.006412283983081579,-0.09926600009202957,-0.08545691519975662,-0.06719201803207397,-0.1582617312669754,-0.03635307028889656,-0.16785918176174164,-0.13814836740493774,-0.3016130030155182,0.10515192151069641,-0.07318130135536194,0.05302686244249344,-0.06831255555152893,0.029748832806944847,-0.49279606342315674,-0.009645489044487476,0.014990353025496006,0.013015649281442165,0.3684389293193817,-0.20948661863803864,0.076710045337677,0.02103063277900219,-0.04526297375559807,0.05173886567354202,0.07372438907623291,0.05755636468529701,-0.047314584255218506,-0.005625271238386631,0.060292694717645645,-0.14129339158535004,0.22284410893917084,-0.03839308023452759,0.05685759335756302,-0.23958662152290344,-0.056236524134874344,0.18156497180461884,-0.03707354888319969,0.10127489268779755,-0.58407062292099,0.15358605980873108,0.0040831188671290874,-0.02199944108724594,-0.057987675070762634,-0.029951713979244232,0.023258546367287636,0.07464352995157242,-0.05941382423043251,0.028308045119047165,-0.16740407049655914,0.01517574768513441,0.5513033270835876,-0.22274929285049438,0.03208472579717636,0.020122572779655457,0.07194920629262924,0.060692332684993744,0.07765208929777145,0.0019290846539661288,0.045704957097768784,-0.199855774641037,-0.04350205138325691,0.2634366452693939,0.09153394401073456,-0.19491271674633026,0.030671492218971252,-0.2966545820236206,0.13415013253688812,0.20104727149009705,0.12021715193986893,0.20511101186275482,-0.17034286260604858,0.0826820582151413,0.36795759201049805,0.097329281270504,0.05870918184518814,0.20692460238933563,-0.029199786484241486,-0.0378108024597168,-0.06422585248947144,-0.3549605906009674,0.33749473094940186,0.09605441987514496,0.17902807891368866,0.11549331247806549,-0.0014897085493430495,-0.0751868411898613],[-0.059847623109817505,-0.15173816680908203,0.10476254671812057,0.2435266226530075,-0.3192063570022583,-0.0553189218044281,-0.0003116547013632953,-0.388025164604187,0.10989931970834732,0.004848163109272718,0.05645313113927841,-0.046441175043582916,0.08233211934566498,-0.005615313071757555,0.028258495032787323,0.08788832277059555,0.02308466285467148,0.03778877854347229,0.06099217012524605,0.059706397354602814,0.2378908395767212,-0.18853799998760223,0.29401376843452454,0.31318166851997375,-0.09505324810743332,0.12550956010818481,-0.22780172526836395,0.17420394718647003,0.42778903245925903,-0.1777840107679367,0.10408609360456467,0.03293418139219284,0.26454606652259827,0.35252463817596436,-0.04281124472618103,-0.019995655864477158,0.4134502112865448,0.1994684785604477,-0.11669580638408661,-0.07236991077661514,0.13291975855827332,-0.5799352526664734,-0.05110405385494232,-0.0554366335272789,0.05344690382480621,0.1502925455570221,0.12996803224086761,0.06295951455831528,0.04721376672387123,-0.0387120321393013,-0.02577262371778488,-0.022620979696512222,0.10384050756692886,0.07959150522947311,-0.08134426176548004,0.15083658695220947,0.06744632124900818,0.07819636166095734,-0.09691272675991058,-0.11471109092235565,-0.14367642998695374,0.29508495330810547,-0.31352904438972473,0.006643797270953655,-0.06951934844255447,-0.09745098650455475,-0.06920827925205231,0.3352954387664795,0.040094733238220215,0.587592363357544,-0.2626156210899353,0.05299754440784454,-0.015622172504663467,0.2828764319419861,0.10324769467115402,-0.1469242423772812,0.039055123925209045,0.10184784978628159,-0.17279775440692902,-0.02556198462843895,-0.021830514073371887,0.19661399722099304,0.057657640427351,-0.08994121104478836,0.0028628690633922815,0.19707025587558746,0.04016068950295448,0.18565592169761658,-0.31379106640815735,-0.024510832503437996,-0.19796212017536163,0.033545881509780884,-0.3823043406009674,-0.06579259783029556,-0.27554166316986084,-0.07375504076480865,-0.11640989780426025,-0.05497302860021591,-0.18998728692531586,-0.11799278110265732,-0.011246238835155964,0.16954472661018372,0.14500926434993744,0.1546180248260498,0.26930001378059387,0.06445158272981644,-0.07653059810400009,0.3602043092250824,0.1845352202653885,-0.22714322805404663,-0.23399099707603455,-0.022256430238485336,-0.03538160398602486,-0.008042281493544579,-0.05889066681265831,0.1799307018518448,-0.1685824692249298,-0.15777628123760223,0.031817831099033356,0.1637195199728012,0.044011544436216354,0.09164164960384369,0.32375258207321167,0.08817032724618912,0.065404511988163,0.00108318158891052,-0.18920323252677917,0.1260543316602707,-0.1543402522802353,-0.02296552248299122,-0.0007175696082413197,0.025150107219815254,-0.5722916722297668,-0.1338106393814087,0.0733608528971672,0.40198588371276855,-0.16331008076667786,-0.0872696191072464,-0.2779003083705902,-0.08220359683036804,0.057492803782224655,-0.015805214643478394,0.08351264894008636,0.07313024997711182,0.0409439355134964,-0.0246365237981081,0.1744168996810913,0.15126080811023712,0.10000276565551758,-0.04260572791099548,-0.22345437109470367,0.08848968148231506,-0.16543367505073547,0.044779740273952484,-0.4507272243499756,0.19031186401844025,-0.18479320406913757,-0.0024611675180494785,0.3491103947162628,0.057263195514678955,0.03436804190278053,0.07921195030212402,0.14975211024284363,-0.0710214152932167,-0.19289369881153107,-0.28615602850914,-0.6028370261192322,0.12008023262023926,-0.03894242271780968,0.1477500945329666,-0.09380155056715012,0.06617537885904312,-0.04550188407301903,0.1589440554380417,-0.04544990882277489,-0.006855092942714691,0.10491082817316055,-0.02690192312002182,0.030488785356283188,0.04491706192493439,-0.05936608090996742,-0.08871389925479889,-0.23677901923656464,0.05256377160549164,0.07962968945503235,0.04535128176212311,0.11794430762529373,0.22076989710330963,-0.41280144453048706,-0.025648484006524086,0.21422553062438965,0.007218510843813419,-0.13390128314495087,-0.13464096188545227,-0.2687072157859802,0.11724268645048141,0.0782969743013382,-0.2869615852832794,-0.4482124149799347,-0.09537050873041153,-0.24668624997138977,-0.0540090948343277,0.10463286191225052,0.043698571622371674,0.06596392393112183,0.1146041601896286,0.09791482985019684,0.16981153190135956,-0.22310301661491394,-0.056591179221868515,0.021218199282884598,0.3018670380115509,-0.09242173284292221,0.12681938707828522,0.03547035530209541,-0.15938563644886017,-0.13865208625793457,-0.2980513572692871,0.021970553323626518,0.03774802386760712,0.1317996382713318,0.2413756400346756,0.4440772831439972,0.09879733622074127,-0.010950041934847832,-0.11110128462314606,-0.17065228521823883,0.2696460485458374,-0.10614747554063797,0.18453820049762726,-0.3864433467388153,-0.1127690002322197,0.11602950841188431,0.05631845444440842,-0.20985640585422516,-0.18552041053771973,-0.21166843175888062,0.15612822771072388,-0.01880147121846676,-0.09312841296195984,-0.10231335461139679,-0.07094868272542953,-0.0628141462802887,-0.025241980329155922,0.08790821582078934,-0.23474472761154175,-0.09581992030143738,-0.009109926410019398,0.2805105149745941,-0.13822893798351288,-0.052275173366069794,0.08762034773826599,0.13896878063678741,-0.0002399889926891774,-0.06296936422586441,-0.35586631298065186],[0.1560429185628891,0.04570358246564865,0.01942441426217556,-0.1384524255990982,-0.2555444836616516,-0.31173190474510193,0.19705791771411896,-0.13973429799079895,0.12843678891658783,0.15195143222808838,-0.0380498431622982,0.041704218834638596,0.01396895106881857,0.07025505602359772,0.06820335984230042,-0.14985056221485138,0.03968758508563042,0.10547875612974167,-0.1813754141330719,0.13924278318881989,0.16591279208660126,0.2643708288669586,-0.11955361068248749,-0.0934000015258789,0.19664910435676575,0.1020645871758461,-0.16910283267498016,0.27341657876968384,0.005015072412788868,-0.068434938788414,-0.19181154668331146,-0.20749014616012573,0.08548887073993683,0.12421093136072159,-0.34849119186401367,0.1310582309961319,0.18921031057834625,-0.21052390336990356,0.019713105633854866,-0.12886187434196472,0.23725098371505737,0.27451202273368835,0.0007539279758930206,0.23601756989955902,0.1578492969274521,-0.16839531064033508,0.11842096596956253,0.09112999588251114,-0.09115418046712875,-0.13770873844623566,0.024481313303112984,0.11912445724010468,0.20951832830905914,-0.07948268949985504,0.26638373732566833,-0.08668114244937897,0.08700129389762878,-0.033437736332416534,-0.14772194623947144,0.14865870773792267,0.02236098051071167,-0.06664717942476273,0.4297883212566376,0.371857225894928,-0.01681990921497345,-0.13673710823059082,-0.1696208268404007,0.3664136528968811,0.03411523252725601,-0.23157280683517456,0.030254250392317772,-0.22580090165138245,-0.21151936054229736,-0.2937223017215729,-0.32798877358436584,-0.14470581710338593,0.23533499240875244,0.07852140069007874,-0.2966223955154419,0.010977833531796932,0.09138403832912445,-0.20419815182685852,0.07493769377470016,-0.19851242005825043,0.05509597435593605,0.030688250437378883,-0.0699867382645607,-0.037558212876319885,-0.03684935346245766,-0.1332973837852478,-0.13245515525341034,0.018759628757834435,-0.09242246299982071,0.007821734994649887,-0.0183720663189888,-0.1048949584364891,-0.09583353251218796,-0.029283706098794937,0.2079150229692459,0.07801593840122223,0.23590239882469177,-0.16478097438812256,0.21996258199214935,-0.08539848029613495,-0.015821246430277824,-0.1706874519586563,0.15576958656311035,0.4717988967895508,0.30837512016296387,0.035003453493118286,-0.12711408734321594,0.12453034520149231,-0.2224491834640503,-0.08630014955997467,0.10506299883127213,-0.22008514404296875,0.1305672526359558,-0.14987686276435852,-0.1322784721851349,0.17787407338619232,-0.16748617589473724,0.10009247064590454,0.1260448694229126,-0.0355154424905777,-0.07605218142271042,0.2675706744194031,0.13868746161460876,0.42116641998291016,0.023133534938097,0.24397975206375122,0.19785472750663757,0.26073211431503296,-0.5350274443626404,0.19784767925739288,-0.10140115767717361,-0.1926650106906891,-0.024855714291334152,0.00024040312564466149,-0.044826336205005646,0.01114964671432972,-0.18622317910194397,-0.16516093909740448,-0.06085037812590599,0.21713265776634216,0.14802789688110352,0.30406132340431213,0.20885755121707916,0.08197174221277237,0.046304717659950256,-0.026342231780290604,-0.07438486069440842,0.06323376297950745,0.3876470625400543,-0.004457501228898764,-0.044067297130823135,0.2632503807544708,0.3235512971878052,-0.0576627179980278,0.22212032973766327,0.028634337708353996,0.03959682211279869,-0.03527819737792015,0.029274068772792816,0.0573369599878788,0.09854944050312042,-0.07261115312576294,0.006421371828764677,0.013468246906995773,0.01991170458495617,-0.4164420962333679,-0.14810609817504883,-0.18933403491973877,-0.06600245088338852,-0.08528561145067215,-0.03194637596607208,0.09161541610956192,0.027535254135727882,-0.022656889632344246,0.5787518620491028,0.01636611856520176,-0.051945436745882034,-0.0527278333902359,-0.5572967529296875,-0.1175440326333046,-0.04122638702392578,-0.1208110898733139,-0.18130901455879211,-0.020607376471161842,0.15921835601329803,-0.25297269225120544,0.1313484162092209,0.11591240763664246,0.12764829397201538,-0.2593208849430084,-0.15377187728881836,-0.12084478884935379,-0.07355484366416931,0.24496512115001678,-0.1859419345855713,-0.15764056146144867,-0.07665135711431503,-0.09023467451334,-0.14595776796340942,-0.013685652054846287,0.15166814625263214,0.05701974034309387,-0.10990874469280243,-0.08670921623706818,0.3003545105457306,-0.17754241824150085,-0.22128544747829437,-0.024707548320293427,-0.17558708786964417,-0.020851437002420425,-0.017142537981271744,-0.1656193733215332,-0.2667240798473358,0.01847393810749054,-0.09278754889965057,-0.2609873116016388,-0.16312190890312195,-0.03982624039053917,-0.09633337706327438,-0.01130454707890749,0.2843109369277954,-0.05160537362098694,0.054059650748968124,0.20147891342639923,-0.3134707808494568,0.07185246795415878,-0.028647353872656822,-0.014509591273963451,0.07226286083459854,-0.10948903858661652,0.21831582486629486,-0.3032579720020294,0.10157518088817596,-0.08097285032272339,0.2226700484752655,0.05890543758869171,-0.04159991815686226,0.04584455490112305,-0.1836533546447754,-0.18933120369911194,-0.04445204511284828,0.23713111877441406,0.14521370828151703,-0.19080714881420135,0.14063242077827454,0.2923087179660797,-0.12418735027313232,-0.020647721365094185,-0.06545225530862808,0.050490472465753555,0.012147333472967148,-0.05176825448870659],[0.28422895073890686,-0.03025919757783413,0.03717738389968872,-0.019386034458875656,0.058147042989730835,-0.11651720106601715,0.06965439766645432,-0.11655441671609879,0.10378927737474442,0.028792547062039375,0.25858074426651,0.1710357666015625,-0.12297208607196808,-0.04573271423578262,0.05020882561802864,-0.12441109865903854,0.024249661713838577,0.0328606516122818,-0.022447649389505386,-0.040139198303222656,-0.19917772710323334,-0.24177095293998718,-0.1617213636636734,0.1555730402469635,-0.0411292165517807,0.06741081923246384,-0.013049711473286152,0.011898637749254704,-0.05427155643701553,-0.016158629208803177,0.07990032434463501,-0.06566260755062103,-0.26846903562545776,-0.2295672446489334,-0.24597281217575073,0.14962156116962433,-0.1423557847738266,0.11488986015319824,0.1706845462322235,0.19775250554084778,0.059316787868738174,-0.29425737261772156,-0.11070791631937027,-0.1204754188656807,0.22996680438518524,0.1998315006494522,0.006991407368332148,0.19109949469566345,0.17066727578639984,-0.022602321580052376,-0.047830529510974884,0.1737651228904724,-0.03497740998864174,0.019323157146573067,0.04417521506547928,-0.15838022530078888,0.06560114771127701,-0.10192506015300751,-0.10037366300821304,-0.16875872015953064,-0.004680844489485025,0.02486485242843628,0.3616776168346405,0.11812340468168259,-0.03420872613787651,-0.18954221904277802,0.2084696739912033,0.19468742609024048,0.027849264442920685,-0.06984014064073563,-0.08768320083618164,-0.06076818332076073,-0.05555529519915581,0.022711027413606644,-0.2184523344039917,-0.10468859225511551,-0.26871660351753235,-0.045806627720594406,-0.12345443665981293,0.36760810017585754,0.040348123759031296,-0.055328119546175,-0.1274062991142273,0.017256492748856544,-0.0626886710524559,-0.10530798137187958,-0.003341534174978733,-0.0038374518044292927,0.04138847440481186,0.25699475407600403,0.027373354882001877,0.024157963693141937,0.13192568719387054,0.03785872831940651,-0.32703012228012085,-0.01069744024425745,-0.08799684047698975,0.10796099901199341,-0.3593195676803589,0.24345827102661133,0.045349907130002975,-0.009748593904078007,-0.0747319832444191,0.1352412849664688,0.20383703708648682,0.07165412604808807,-0.011507764458656311,0.15991945564746857,-0.14457480609416962,0.133982852101326,-0.27856406569480896,-0.11997603625059128,0.0028158372733742,0.041806258261203766,-0.04954967275261879,-0.14893561601638794,-0.1007906049489975,-0.010190552100539207,0.08646021783351898,0.16461578011512756,0.4232623279094696,0.022802360355854034,-0.19341406226158142,-0.0788685753941536,-0.126446932554245,-0.220220685005188,0.0583299845457077,-0.10044234246015549,0.2856408655643463,-0.0429278165102005,-0.11931014060974121,0.1671479344367981,0.3761654198169708,0.11550874263048172,-0.05762174353003502,-0.07311196625232697,-0.1990240216255188,0.01519449707120657,-0.03854653239250183,-0.08871026337146759,0.07138670980930328,0.0973135232925415,0.2512661814689636,0.11813218891620636,-0.282626211643219,-0.06250427663326263,0.03278794139623642,0.045535679906606674,0.061679910868406296,0.0012713505420833826,-0.12046342343091965,0.14014436304569244,-0.19765734672546387,-0.04778601601719856,0.49459391832351685,0.32679831981658936,0.05436718836426735,-0.16256794333457947,0.33922451734542847,0.011367692612111568,-0.25887414813041687,0.10652768611907959,-0.08196425437927246,-0.0017741955816745758,0.24568220973014832,-0.10624487698078156,0.06616903841495514,0.09902506321668625,-0.055961646139621735,0.2241348773241043,0.031851015985012054,-0.22742044925689697,0.35434749722480774,-0.11147382855415344,-0.04291446879506111,-0.346512109041214,-0.08345729857683182,0.014220047742128372,-0.16785573959350586,-0.028653506189584732,-0.15996204316616058,0.026742789894342422,-0.25844672322273254,0.1759408414363861,-0.2239452451467514,0.019682196900248528,-0.01975261978805065,-0.17242491245269775,-0.19106057286262512,-0.27517884969711304,0.09632380306720734,-0.09903106093406677,-0.12013167887926102,-0.1485467404127121,0.09809289872646332,-0.03233169764280319,-0.1698104590177536,-0.16181495785713196,-0.08284399658441544,-0.0543937124311924,0.0990489050745964,-0.03024190105497837,0.10176962614059448,-0.11514264345169067,-0.16115623712539673,0.3111340403556824,0.1736033409833908,0.05970742553472519,0.2906179428100586,0.19334299862384796,0.2068396657705307,-0.012205771170556545,0.11691697686910629,-0.08824445307254791,-0.0718323215842247,-0.09248822182416916,0.07410725206136703,0.014203074388206005,-0.28099074959754944,0.20712435245513916,-0.04570124298334122,-0.02000429667532444,0.1834409534931183,-0.02726905792951584,0.2074251025915146,0.01279666367918253,-0.26976537704467773,0.10065817087888718,0.04565483704209328,-0.11152148246765137,-0.004032621160149574,0.07167581468820572,-0.164291650056839,-0.24074703454971313,-0.11342381685972214,0.17088831961154938,0.24910016357898712,-0.04041051119565964,-0.05277600139379501,-0.18597881495952606,-0.0701383724808693,0.19472937285900116,-0.26733916997909546,0.1445736438035965,-0.00924395676702261,0.09779666364192963,-0.32494795322418213,-0.16967839002609253,0.30592966079711914,0.18511654436588287,0.3183765113353729,0.06507673114538193,0.024569012224674225,-0.028428521007299423,0.06887232512235641,-0.19145524501800537],[0.5310231447219849,-0.06718185544013977,-0.4297774136066437,-0.0733407735824585,-0.2621232867240906,0.1383449286222458,0.3304842710494995,0.08094558864831924,0.13882187008857727,0.3821280598640442,-0.04158671945333481,-0.10207945108413696,-0.04884036257863045,0.04370597377419472,-0.1397767961025238,-0.07713005691766739,-0.14178068935871124,0.10873419791460037,0.2526903748512268,0.03807840496301651,-0.12706945836544037,-0.09501506388187408,0.17629118263721466,0.42260149121284485,0.0946461483836174,-0.06078443303704262,0.12658503651618958,-0.2754790484905243,-0.13082903623580933,-0.2621605098247528,-0.2247868925333023,0.24222028255462646,-0.06002397835254669,-0.025093968957662582,0.2991221845149994,0.051564041525125504,-0.07328065484762192,-0.12204966694116592,-0.00998658686876297,0.017337527126073837,0.0025066721718758345,-0.2054056078195572,-0.13747519254684448,0.05018378049135208,0.043288927525281906,-0.06876546144485474,0.18795673549175262,0.11728052794933319,-0.14937300980091095,0.19199322164058685,0.01313033327460289,0.07549333572387695,0.06891888380050659,-0.05678848177194595,0.11705413460731506,0.06319411844015121,0.15651194751262665,0.2601523995399475,-0.21762162446975708,0.09208134561777115,0.06695003807544708,-0.10362980514764786,0.023380352184176445,-0.13614508509635925,-0.007886748760938644,0.08957846462726593,0.1983823925256729,-0.5232381820678711,0.06948694586753845,0.30609816312789917,-0.24450542032718658,-0.19666586816310883,-0.21304672956466675,0.22177928686141968,-0.19458134472370148,-0.09790678322315216,0.2283872812986374,0.1323397159576416,-0.058800939470529556,-0.12576180696487427,-0.0878491923213005,0.10470669716596603,-0.37853580713272095,0.15237103402614594,-0.1298041194677353,-0.1426207423210144,0.0022378438152372837,-0.06277602165937424,0.4372883141040802,-0.0035365482326596975,-0.17717449367046356,0.11099757999181747,-0.030958142131567,-0.1742532104253769,0.07385443150997162,0.12477750331163406,0.16499297320842743,0.15819324553012848,0.1441243290901184,-0.11370428651571274,0.31037449836730957,-0.0011818073689937592,-0.023962432518601418,-0.16223062574863434,0.1355895847082138,-0.1223352923989296,-0.15477021038532257,-0.1604650765657425,0.00016048592806328088,-0.06482694298028946,-0.2180970460176468,-0.12041802704334259,0.049382224678993225,-0.09893101453781128,-0.14334002137184143,0.10142078995704651,0.1394520401954651,0.0712379664182663,-0.15424744784832,0.06733126938343048,-0.15450306236743927,-0.09800994396209717,-0.011402585543692112,0.3479774594306946,-0.08410350233316422,-0.5265735387802124,-0.15974223613739014,-0.14063020050525665,0.4079464375972748,0.0047262259759008884,-0.10217225551605225,-0.15941177308559418,0.47623082995414734,-0.06026657670736313,0.03075624443590641,0.27930280566215515,0.1743757575750351,-0.06846217066049576,-0.2907356917858124,0.33408114314079285,0.1634318232536316,0.02863229438662529,0.051653459668159485,-0.12022797763347626,0.04696039482951164,0.15832433104515076,0.08119325339794159,-0.002565347356721759,-0.07957064360380173,-0.04677020385861397,0.23906375467777252,-0.1856202930212021,0.13644731044769287,0.18151916563510895,-0.04866957291960716,0.1822999268770218,0.03093135356903076,-0.1766979992389679,0.046556685119867325,0.10574743151664734,0.014191839843988419,0.05050697550177574,-0.18592146039009094,-0.1557498276233673,0.31774744391441345,-0.0865749940276146,0.21928153932094574,0.11659564077854156,-0.054345887154340744,-0.012223507277667522,0.038721777498722076,0.034655917435884476,-0.13043753802776337,-0.009012606926262379,-0.05601416155695915,-0.05094986781477928,-0.04319992661476135,-0.05468634143471718,0.13957206904888153,0.0044919694773852825,0.16444173455238342,-0.07952627539634705,-0.004478652961552143,0.11021748930215836,0.46779686212539673,-0.007138283923268318,-0.06550901383161545,-0.03706610947847366,0.21849337220191956,0.0751010924577713,0.00018739576626103371,0.2063654661178589,0.1984594762325287,0.04225795716047287,0.158048614859581,-0.15075995028018951,0.032846610993146896,0.004722838755697012,-0.11485559493303299,-0.026404477655887604,-0.1449301540851593,0.011045173741877079,-0.08707813173532486,0.28856807947158813,0.1516067236661911,0.018234113231301308,0.04143786430358887,-0.10603208094835281,-0.12626919150352478,0.05013938248157501,0.035890571773052216,-0.3517315685749054,-0.08277053385972977,-0.14055310189723969,0.30040284991264343,0.07829328626394272,0.06475047022104263,-0.2711062729358673,0.06321839243173599,0.10717160999774933,0.5426186919212341,0.03521307185292244,0.08441580832004547,-0.05222495645284653,0.363521009683609,0.18739572167396545,-0.1964203268289566,-0.13304997980594635,-0.04464500769972801,0.3756280541419983,-0.09210225939750671,0.041972193866968155,0.22608761489391327,0.015380095690488815,0.08511612564325333,0.10342725366353989,0.08954020589590073,0.2239627242088318,0.10497014224529266,0.05795642361044884,-0.2117965966463089,-0.07713181525468826,0.2641313374042511,-0.3295459449291229,-0.01069544441998005,0.214507594704628,-0.14636394381523132,0.20215263962745667,0.2229539453983307,-0.19238519668579102,-0.012170099653303623,0.1514587551355362,-0.08646682649850845,-0.1473459154367447,-0.1468813419342041,0.07694924622774124],[0.6777558326721191,-0.011163395829498768,-0.31302598118782043,-0.12440472096204758,-0.12768101692199707,0.11350733041763306,0.029180610552430153,-0.45977112650871277,-0.1810513585805893,0.530380368232727,0.13240665197372437,-0.03226611390709877,-0.015124725177884102,0.04192819446325302,0.10104228556156158,0.019421860575675964,-0.1606760174036026,0.09162817895412445,0.4626220762729645,0.007507394067943096,0.010067268274724483,-0.15567101538181305,0.16757239401340485,-0.03579629957675934,0.014070211909711361,-0.29945284128189087,-0.06561031192541122,0.06547503173351288,0.07871416211128235,-0.037378180772066116,0.1913522332906723,-0.08144345879554749,0.056566257029771805,0.02806960605084896,0.08197356015443802,0.022593099623918533,-0.09411216527223587,0.14776475727558136,0.0305991992354393,0.16896481812000275,0.13110028207302094,-0.2736389935016632,-0.03692474588751793,-0.10100234299898148,-0.15176330506801605,-0.19711607694625854,0.11253415793180466,0.06529471278190613,0.07670325040817261,-0.1306392252445221,-0.2373226284980774,0.15009371936321259,0.2611730396747589,-0.050906334072351456,-0.3095555305480957,0.03700479120016098,0.14311836659908295,0.04097440466284752,-0.15587519109249115,-0.10185384005308151,-0.14693482220172882,-0.024323850870132446,-0.612149715423584,-0.040065910667181015,0.30726858973503113,0.2252676635980606,-0.14832784235477448,0.16630467772483826,0.10786862671375275,0.04432638734579086,-0.29283633828163147,0.13416610658168793,0.25425633788108826,-0.15218055248260498,0.02231695130467415,0.02007681503891945,0.13637179136276245,-0.05494238808751106,0.09005289524793625,-0.1492440402507782,-0.037814054638147354,0.09368778020143509,0.1097855344414711,-0.1198805570602417,0.011885478161275387,-0.22869890928268433,0.23127435147762299,0.12706273794174194,0.4596973657608032,-0.06027603894472122,-0.21447287499904633,-0.039700210094451904,0.015878207981586456,0.34417837858200073,0.020142238587141037,0.09389017522335052,0.05645017325878143,-0.477433443069458,0.07814064621925354,0.06237495690584183,-0.36803194880485535,-0.08119397610425949,-0.13699840009212494,0.08826649188995361,0.00024938202113844454,-0.1424947828054428,-0.23358219861984253,-0.522011935710907,-0.0893007218837738,-0.15617789328098297,-0.16088131070137024,0.280667245388031,0.2951107919216156,-0.11475066095590591,0.01953018642961979,-0.08788993954658508,0.12976357340812683,0.023973913863301277,0.26583415269851685,0.14171931147575378,-0.06603586673736572,-0.11347700655460358,-0.12036123126745224,0.23169167339801788,-0.2212129384279251,0.08892258256673813,0.0919918641448021,0.27158424258232117,-0.11950257420539856,-0.12379095703363419,0.7280066609382629,-0.12767575681209564,0.15007708966732025,-0.28872278332710266,0.06614287197589874,-0.31945163011550903,-0.13306072354316711,0.16095556318759918,-0.1778496652841568,0.09062295407056808,0.17758166790008545,0.15949678421020508,-0.106751449406147,0.26013320684432983,-0.11656893044710159,0.02784155122935772,-0.16695763170719147,-0.22049473226070404,0.1617918461561203,0.2177949845790863,0.14153887331485748,-0.16929051280021667,0.17986175417900085,0.213253453373909,0.013146807439625263,0.016366302967071533,-0.07231086492538452,-0.16332268714904785,-0.12765394151210785,0.1636507660150528,-0.04610771685838699,-0.1503898948431015,-0.10711991786956787,-0.04965193569660187,-0.1682252287864685,0.04166167974472046,0.06925789266824722,0.0034809003118425608,0.29912036657333374,0.09446610510349274,0.004169594496488571,-0.07821652293205261,-0.25692662596702576,-0.08128239959478378,-0.13750016689300537,0.0781220942735672,-0.06589873880147934,0.08323164284229279,0.12044999748468399,0.12543845176696777,0.1674652099609375,-0.029056455940008163,0.04001610726118088,0.22596870362758636,0.1108086034655571,-0.007907075807452202,0.280318021774292,0.06654943525791168,-0.0008874843479134142,-0.01573510654270649,0.2021065056324005,0.03704473003745079,0.09673558920621872,0.1380695104598999,0.06375395506620407,0.0009505972266197205,-0.05310598388314247,-0.08466057479381561,0.22623461484909058,-0.04989570006728172,0.21652090549468994,-0.0741465762257576,-0.04112676903605461,0.013163113966584206,-0.08789438754320145,-0.01268603466451168,-0.05414636805653572,0.09794627130031586,-0.2709382176399231,-0.12608161568641663,0.07864207029342651,-0.28140124678611755,0.2294827103614807,-0.0665040835738182,0.3379252851009369,0.09398728609085083,-0.04641842842102051,0.18460632860660553,-0.21733732521533966,0.04753332957625389,-0.03424220532178879,0.0333845280110836,0.16249875724315643,0.10847681760787964,-0.13130740821361542,-0.024982474744319916,-0.1465453952550888,-0.46980953216552734,0.34755370020866394,0.09526512026786804,-0.04494796320796013,-0.015954069793224335,-0.26365533471107483,-0.3553396463394165,-0.10066630691289902,0.21146047115325928,0.018588857725262642,0.5395922660827637,0.14703123271465302,-0.002266629133373499,-0.017638737335801125,-0.09288889914751053,0.2873683273792267,0.05582447350025177,0.3317036032676697,-0.13889683783054352,-0.2072276473045349,-0.07493263483047485,0.09840133041143417,-0.01495725940912962,-0.15324239432811737,-0.1334274858236313,-0.002284931717440486,0.14475634694099426,0.15933550894260406,0.14823076128959656],[-0.12437932193279266,-0.10817350447177887,-0.025207825005054474,-0.0037470650859177113,0.1627884805202484,0.32601630687713623,-0.22128847241401672,0.10486219823360443,-0.09459230303764343,0.24575293064117432,-0.11557722091674805,0.06361266225576401,0.14179833233356476,-0.12029680609703064,-0.08499137312173843,-0.24105612933635712,-0.17511364817619324,-0.09020821750164032,0.12588262557983398,-0.11126558482646942,-0.09069373458623886,0.05900265648961067,0.1221369057893753,0.058530330657958984,0.21931247413158417,-0.03573154658079147,0.11850141733884811,0.09057934582233429,-0.017028657719492912,0.23354394733905792,-0.20460282266139984,0.05184714496135712,0.0658254623413086,0.2433462142944336,-0.19305585324764252,-0.16587434709072113,0.20698903501033783,-0.33381566405296326,0.10429319739341736,-0.16304007172584534,0.35771170258522034,0.40302136540412903,-0.2877647578716278,-0.15639416873455048,-0.0025270478799939156,-0.17447546124458313,0.0660836324095726,-0.046082690358161926,0.1317044347524643,-0.12429723143577576,0.16240252554416656,-0.055196795612573624,0.079014852643013,0.0006409176858142018,-0.07587873190641403,-0.3096939027309418,-0.1737179458141327,-0.12336844950914383,-0.06012873724102974,0.06711691617965698,0.07399013638496399,0.014854513108730316,0.32407477498054504,0.166934996843338,0.03653580695390701,-0.31587108969688416,-0.06503783911466599,-0.032890092581510544,-0.0017920932732522488,-0.09605766832828522,-0.10710479319095612,0.18059422075748444,0.04728306084871292,-0.03782257065176964,0.3205513656139374,0.2285955548286438,0.004228685516864061,-0.049157630652189255,0.11236388236284256,0.07937585562467575,0.14730802178382874,0.20014193654060364,-0.3040855824947357,-0.18230627477169037,0.14364489912986755,0.009523767046630383,0.1660623848438263,-0.018041130155324936,0.20137529075145721,-0.14970113337039948,-0.16095976531505585,0.07688901573419571,0.0957920029759407,-0.12599092721939087,0.20498701930046082,0.08845988661050797,-0.10963204503059387,0.08728154748678207,-0.09703128784894943,0.10181356966495514,0.037216559052467346,0.12092164158821106,-0.030856790021061897,-0.10853327065706253,0.06475381553173065,0.14261141419410706,0.03779838979244232,0.0034339334815740585,0.13899564743041992,-0.30378401279449463,0.11273659765720367,-0.14233411848545074,0.17768679559230804,0.15354707837104797,-0.043387558311223984,0.1788923144340515,0.10632426291704178,-0.042240168899297714,0.17401963472366333,-0.01411138754338026,0.16245748102664948,0.09432188421487808,-0.01756419986486435,-0.15515972673892975,0.0675838366150856,0.2954676151275635,-0.11270584911108017,0.18193185329437256,-0.19258259236812592,-0.06332018226385117,0.3725099563598633,0.22129712998867035,0.08407160639762878,-0.1913781613111496,-0.030676139518618584,-0.04434044286608696,0.007222484797239304,-0.09977473318576813,-0.1362866461277008,0.045283954590559006,-0.09604644775390625,0.12530875205993652,-0.1553976982831955,0.2874828577041626,-0.05238308757543564,0.21915662288665771,0.36471500992774963,0.040211524814367294,0.2563297152519226,0.3040560781955719,0.18431858718395233,-0.20955651998519897,-0.11916261911392212,0.23870985209941864,0.14934182167053223,-0.19462953507900238,-0.09300538152456284,0.01013672724366188,-0.2292061597108841,-0.25826895236968994,-0.032259028404951096,0.17923931777477264,0.11768362671136856,-0.068930983543396,0.2720089256763458,0.04504825547337532,-0.20986278355121613,-0.11239144951105118,0.0011579124256968498,0.4373331367969513,-0.012975191697478294,0.05164691433310509,0.07819008082151413,0.06754210591316223,0.07394132763147354,0.15460719168186188,-0.009932554326951504,-0.11058352887630463,-0.17623230814933777,0.020632240921258926,-0.16157062351703644,-0.018452391028404236,-0.10644138604402542,-0.012662607245147228,-0.1550651639699936,-0.09644483774900436,0.009976272471249104,0.019452186301350594,0.22780273854732513,-0.25911134481430054,0.11550328135490417,-0.1731201857328415,-0.025660401210188866,-0.22049970924854279,-0.07475828379392624,-0.09368088096380234,0.02352454699575901,0.04673602432012558,0.3062245845794678,0.10311426967382431,0.07927431166172028,0.016454152762889862,0.13811597228050232,-0.23667269945144653,-0.056877002120018005,-0.10019511729478836,-0.10288310796022415,-0.18022404611110687,0.12496510148048401,-0.3203451931476593,0.2709301710128784,0.28633368015289307,-0.2484278827905655,-0.07876467704772949,-0.06322867423295975,0.01750905252993107,-0.18492485582828522,0.45640650391578674,0.10394597798585892,0.09458403289318085,-0.30711305141448975,0.013595622032880783,0.2134869396686554,0.056647323071956635,0.10084573179483414,-0.1344626545906067,-0.22109830379486084,0.037054575979709625,0.22365227341651917,0.19323401153087616,-0.08769257366657257,-0.13605119287967682,-0.1158061996102333,-0.058346446603536606,0.124938003718853,-0.08924349397420883,0.21518610417842865,0.08801205456256866,-0.05773938074707985,-0.09857245534658432,-0.13906621932983398,-0.00746631994843483,-0.16106079518795013,0.8109539151191711,-0.05038851127028465,0.36482495069503784,0.1794583797454834,-0.1300683468580246,0.23151837289333344,0.152502179145813,-0.17548422515392303,0.04588416591286659,-0.17765334248542786,0.018108118325471878,-0.10163486748933792,0.11262080073356628],[-0.11973096430301666,-0.13258206844329834,0.282021701335907,0.10914283245801926,0.22618168592453003,-0.027302458882331848,-0.2455081343650818,0.14403791725635529,0.2045840620994568,-0.43482938408851624,0.12711107730865479,0.024648889899253845,0.00862976722419262,0.024633308872580528,0.09257029742002487,0.2929397523403168,0.09563277661800385,0.21564628183841705,0.30234384536743164,-0.1449984759092331,-0.09873905032873154,0.08567501604557037,0.19443458318710327,-0.006343014072626829,-0.010162190534174442,0.20681335031986237,0.022806253284215927,0.034501027315855026,-0.3080143630504608,-0.19534708559513092,-0.08216111361980438,-0.20571568608283997,0.02769167348742485,-0.26207029819488525,0.09937240183353424,0.03188328072428703,0.20480692386627197,-0.062374651432037354,0.22572632133960724,0.014968207105994225,-0.017955653369426727,0.22773276269435883,-0.07051132619380951,0.16169171035289764,0.0604415237903595,0.03034239634871483,-0.017867447808384895,-0.01872648112475872,-0.1538098156452179,-0.0887732058763504,-0.30508914589881897,-0.22421203553676605,-0.01660093478858471,-0.05685026943683624,0.13255278766155243,-0.17743681371212006,0.002672327682375908,-0.02985559031367302,0.005485010799020529,0.17047812044620514,0.011511101387441158,0.1549791395664215,-0.04077334702014923,-0.10310512781143188,-0.16772496700286865,-0.2611596882343292,-0.14450916647911072,-0.2635624408721924,-0.13072283565998077,0.13133181631565094,0.031112032011151314,0.06201279163360596,-0.2312166690826416,0.283220112323761,0.4974610507488251,-0.18466074764728546,0.15437595546245575,-0.27850815653800964,-0.27283379435539246,-0.12216563522815704,-0.17691059410572052,0.11558035761117935,0.14574286341667175,0.18095830082893372,0.07931675016880035,-0.37178075313568115,-0.014296558685600758,-0.10927198827266693,-0.28701668977737427,-0.12857729196548462,0.20640848577022552,-0.16503697633743286,0.22286874055862427,0.19071339070796967,0.1590076982975006,-0.1297226995229721,-0.0919584184885025,-0.12081708014011383,0.04481979459524155,-0.3284222483634949,-0.14586423337459564,-0.015497362241148949,-0.0831359401345253,0.05865645036101341,-0.06834188848733902,0.04843665659427643,0.04601135849952698,0.08008859306573868,0.0870942547917366,0.0330476313829422,0.2573125660419464,-0.0211169570684433,-0.007680465001612902,-0.0810573399066925,0.0950259417295456,0.066147081553936,0.17437416315078735,0.14873069524765015,-0.061196405440568924,-0.21048037707805634,-0.08931385725736618,-0.024553604423999786,0.010155832394957542,-0.12431740760803223,0.11632364988327026,0.3155699670314789,-0.07666882872581482,0.07417164742946625,-0.21621310710906982,0.0745450034737587,0.5509669184684753,0.16524264216423035,-0.15454572439193726,-0.017109256237745285,-0.22617481648921967,-0.16691283881664276,-0.20482444763183594,0.0953519269824028,0.25348150730133057,0.12168142199516296,0.08249998837709427,-0.17967206239700317,0.06587830930948257,-0.2510126531124115,-0.14256228506565094,0.0209156796336174,-0.03930597007274628,-0.1389729082584381,-0.16738131642341614,0.03470422700047493,-0.22895114123821259,-0.24234721064567566,-0.08341863751411438,0.24824410676956177,-0.1604275107383728,-0.14239656925201416,-0.2118169367313385,0.29774436354637146,-0.30805158615112305,0.1880139410495758,0.2133604735136032,-0.08430483192205429,0.0526670403778553,-0.13556769490242004,0.372212290763855,0.1223166361451149,0.017230406403541565,-0.014261394739151001,0.0943538174033165,0.15607893466949463,-0.12289642542600632,-0.013912396505475044,0.013244125992059708,0.0009585377410985529,-0.09822288155555725,-0.02251080609858036,-0.017562085762619972,-0.27251002192497253,-0.11740957200527191,0.09762126952409744,0.11960739642381668,0.05755031853914261,-0.11877709627151489,-0.09244605898857117,0.2749194800853729,-0.12844039499759674,-0.14056286215782166,-0.2156783789396286,0.09202785044908524,-0.21236379444599152,0.132566437125206,0.016326237469911575,0.03707702085375786,0.2576017379760742,-0.16936421394348145,-0.2839632034301758,-0.041120655834674835,0.06713753938674927,0.06959991157054901,-0.13479962944984436,0.0023546074517071247,0.2654966711997986,0.008928438648581505,-0.1503223478794098,-0.0026443463284522295,-0.291019469499588,0.09090764075517654,0.02108672447502613,-0.3095017075538635,-0.475671648979187,-0.003308722982183099,0.05232634395360947,0.043610889464616776,-0.07543891668319702,-0.1316913664340973,-0.020059095695614815,0.020589390769600868,-0.2267950028181076,-0.06027839705348015,0.01352319959551096,-0.23031099140644073,-0.29419130086898804,-0.16826096177101135,-0.08341889828443527,0.1236734390258789,-0.15712256729602814,-0.05939162150025368,0.08295819163322449,-0.0568712092936039,-0.25002092123031616,-0.3060781955718994,0.3641454577445984,0.15055836737155914,-0.02056482806801796,0.008729497902095318,-0.1809195876121521,-0.22111308574676514,-0.27727821469306946,0.13390633463859558,-0.0895996242761612,-0.14104293286800385,0.11179929971694946,-0.1535545438528061,0.4689429998397827,0.025271253660321236,-0.07711692899465561,-0.32349783182144165,-0.05681212991476059,0.017924711108207703,-0.23718160390853882,0.09731153398752213,0.15528666973114014,0.11810709536075592,0.13984033465385437,-0.05579940974712372,-0.07253618538379669],[0.13516156375408173,-0.029852140694856644,-0.02637387253344059,0.028065621852874756,0.5165801048278809,0.2914588451385498,0.3049095869064331,0.07461369037628174,-0.05645739287137985,0.36714327335357666,-0.14390382170677185,-0.04661639407277107,-0.0959906354546547,-0.009332642890512943,0.2576737105846405,0.054346226155757904,-0.13830970227718353,-0.11883989721536636,0.40757209062576294,-0.017611945047974586,-0.026732994243502617,0.22836066782474518,0.03684114292263985,0.031256306916475296,0.16645032167434692,-0.02469475008547306,-0.21797330677509308,-0.03978434205055237,0.03376396372914314,0.00528066698461771,0.11532241106033325,-0.09443791955709457,-0.3395758867263794,-0.045196693390607834,0.26245030760765076,-0.15937086939811707,-0.28863614797592163,0.02214895188808441,0.5295241475105286,-0.10759935528039932,0.06312762945890427,0.022101188078522682,0.1055964007973671,-0.1097090020775795,0.08970002084970474,-0.11668556928634644,0.10626805573701859,-0.05872150883078575,0.3198755085468292,0.08365907520055771,0.2523508071899414,0.010833896696567535,0.04888926446437836,-0.13987469673156738,-0.10909849405288696,-0.020553838461637497,0.02255253866314888,-0.1208047941327095,-0.01568937487900257,0.07350167632102966,-0.08125622570514679,0.3267746567726135,0.25568029284477234,0.06832259893417358,0.02674076333642006,-0.2914508283138275,0.07367683947086334,0.295965313911438,-0.14828236401081085,-0.21565911173820496,0.09177014976739883,0.03267498314380646,-0.040698036551475525,-0.18895183503627777,-0.0015591352712363005,-0.031441569328308105,0.07302993535995483,0.1048508957028389,0.13623596727848053,-0.007461439352482557,0.033014971762895584,0.16998158395290375,0.007370097562670708,0.10354610532522202,0.08547115325927734,0.09681694209575653,-0.030473336577415466,-0.008401844650506973,0.17535358667373657,0.13738182187080383,-0.06740832328796387,-0.035853419452905655,-0.3414756953716278,0.36962032318115234,0.08592537045478821,-0.05798357352614403,-0.16060706973075867,0.24460141360759735,0.10911611467599869,0.022991104051470757,-0.01966060698032379,0.19826194643974304,0.013979003764688969,-0.13255365192890167,-0.16739517450332642,-0.07503002882003784,0.056498512625694275,0.21043053269386292,-0.025956422090530396,0.15336669981479645,-0.028880003839731216,-0.017514823004603386,-0.1355563849210739,-0.1347474753856659,-0.1529407650232315,0.10474000126123428,0.2496238350868225,-0.24049875140190125,0.0003418740234337747,0.27804017066955566,-0.21852482855319977,0.12044861167669296,0.20622365176677704,-0.03482447937130928,-0.014123816043138504,0.1808410882949829,0.06987515836954117,0.12112817168235779,-0.04342569038271904,-0.05285092815756798,0.2872214615345001,-0.20942820608615875,0.1582311987876892,-0.022689159959554672,-0.11423022300004959,-0.04437291622161865,-0.14525577425956726,0.047572698444128036,-0.000642729748506099,-0.18605686724185944,-0.04619982838630676,-0.13515910506248474,-0.07729961723089218,-0.15712761878967285,-0.08100290596485138,0.021159648895263672,0.011511297896504402,0.10004305094480515,0.02537759207189083,0.04818636178970337,-0.0460280142724514,-0.11896739900112152,0.029322054237127304,-0.0652887150645256,-0.18073177337646484,-0.017383117228746414,-0.05890444666147232,0.16694790124893188,-0.16409079730510712,0.015390746295452118,0.09870465844869614,-0.01645071618258953,0.12778805196285248,-0.11898968368768692,-0.04116795212030411,-0.13996870815753937,0.15786929428577423,-0.020153874531388283,-0.12822555005550385,0.01449491549283266,0.0037281555123627186,-0.1633867472410202,0.1202392727136612,0.25823622941970825,-0.11158927530050278,-0.033794984221458435,-0.3054580092430115,-0.0601763054728508,-0.22701489925384521,-0.059175435453653336,0.1991218626499176,0.09079554677009583,0.003458356251940131,0.16159942746162415,0.000799036817625165,0.03673717752099037,-0.06820745766162872,-0.12453826516866684,0.16450349986553192,-0.32634812593460083,0.3660137951374054,-0.07097838073968887,-0.04628629982471466,-0.20970183610916138,0.21800914406776428,0.0014271070249378681,-0.2379048615694046,-0.011681511998176575,-0.22173742949962616,-0.12602539360523224,-0.13997595012187958,0.10958033055067062,0.0033652682323008776,-0.0907134935259819,0.07086613029241562,-0.12887854874134064,-0.07439568638801575,-0.05156595632433891,0.07661038637161255,0.3517620265483856,0.2646077573299408,-0.2444189488887787,-0.27514323592185974,-0.010746018961071968,-0.2372538149356842,-0.029095053672790527,0.12316586822271347,-0.013083127327263355,0.07522336393594742,0.14411614835262299,-0.09738437831401825,-0.011972138658165932,0.08386668562889099,-0.019919903948903084,0.21885371208190918,0.030476469546556473,-0.11751001328229904,0.08172419667243958,-0.02546052262187004,0.14083300530910492,0.1917480081319809,0.02217756025493145,-0.04856112599372864,-0.35042446851730347,-0.2019750028848648,-0.11539579927921295,-0.1517230123281479,0.09964799135923386,0.0239777322858572,-0.21846966445446014,-0.02840612083673477,-0.14595042169094086,-0.08300463855266571,0.10755567252635956,-0.23615600168704987,0.0880863219499588,0.2835787832736969,0.21460987627506256,0.10674311220645905,-0.2889658212661743,0.14141963422298431,0.0032311410177499056,0.12080554664134979,0.05602424964308739,-0.24842041730880737,0.051587045192718506],[0.11021826416254044,-0.1433725357055664,-0.29045671224594116,-0.08064942806959152,0.035584643483161926,0.016808608546853065,-0.08404187113046646,-0.32182833552360535,-0.09239526838064194,-0.061945658177137375,-0.04719386622309685,-0.07275020331144333,0.13187630474567413,-0.003065898548811674,-0.12128205597400665,0.04283221438527107,0.08045188337564468,-0.1118728443980217,-0.23319607973098755,0.07246918976306915,-0.1348210573196411,0.17703649401664734,-0.05257664993405342,0.33750930428504944,-0.06099022179841995,0.23178453743457794,-0.08522675186395645,0.009791772812604904,0.22865037620067596,-0.1723257303237915,-0.2135765701532364,-0.01834147796034813,-0.006890304386615753,-0.16253063082695007,-0.2727123498916626,0.07970622181892395,-0.16965557634830475,0.23753656446933746,0.23799364268779755,0.02685297280550003,-0.07836119830608368,0.14433610439300537,-0.03767498955130577,-0.08259624987840652,-0.042112790048122406,0.04393478110432625,0.32022109627723694,0.007854736410081387,0.18298909068107605,0.1715308278799057,-0.08975603431463242,0.07741032540798187,-0.12483877688646317,0.13824382424354553,-0.15454234182834625,0.14780037105083466,-0.06885272264480591,0.09246646612882614,0.4157775640487671,0.054524991661310196,0.08409635722637177,-0.13884693384170532,-0.023939011618494987,0.25235214829444885,0.05365461856126785,-0.08940728008747101,-0.15446597337722778,0.0029748252127319574,-0.017892759293317795,-0.06276494264602661,0.1362714022397995,0.21244031190872192,-0.13240815699100494,-0.042361918836832047,-0.10660763829946518,-0.059567905962467194,-0.40733328461647034,-0.03168618679046631,0.08473868668079376,0.05928562954068184,0.1624835729598999,-0.03858472779393196,0.20309048891067505,0.011352978646755219,-0.09844810515642166,0.24350962042808533,-0.018628381192684174,0.1463494598865509,0.07596710324287415,-0.1835455298423767,0.03466619551181793,0.0010301708243787289,-0.0022674945648759604,-0.0675625205039978,0.07354357093572617,0.06318743526935577,-0.11539127677679062,0.24281950294971466,-0.31530633568763733,-0.10517702251672745,0.045613739639520645,-0.10004713386297226,0.18194755911827087,-0.12177605926990509,0.11559056490659714,-0.30144941806793213,0.06184792518615723,0.28006455302238464,0.044085543602705,-0.3391377031803131,-0.2277514785528183,0.09308456629514694,-0.0721447691321373,-0.008008948527276516,0.11381056904792786,0.03811253234744072,0.0506066232919693,0.11493171751499176,0.10186315327882767,-0.05300066992640495,0.16898992657661438,0.05886898934841156,0.15442363917827606,0.12993590533733368,0.07245516031980515,-0.05314286798238754,0.15187382698059082,0.27567771077156067,0.1734314113855362,-0.016546985134482384,-0.04818763583898544,0.052349213510751724,-0.03909992054104805,-0.09396891295909882,0.2506139576435089,0.3635786175727844,0.16473709046840668,0.024325460195541382,0.009522547945380211,-0.17578838765621185,0.1329306662082672,0.09936554729938507,0.2112075239419937,0.08613837510347366,-0.04116864502429962,-0.2774420380592346,0.0027982364408671856,-0.051719170063734055,0.09630413353443146,0.2860593795776367,-0.2543410360813141,0.030107878148555756,0.14047501981258392,0.1336144059896469,0.11239895969629288,0.06634615361690521,-0.1577376425266266,0.3002890646457672,0.21065571904182434,-0.3401142954826355,0.01014640647917986,0.015324433334171772,-0.0031049679964780807,-0.16022250056266785,-0.35370948910713196,0.18112872540950775,-0.21873463690280914,0.14022020995616913,-0.04406391456723213,0.4481537640094757,0.008459176868200302,0.18933990597724915,-0.1759701818227768,0.0681096613407135,0.09052679687738419,0.07514847069978714,0.33545416593551636,0.01708325743675232,0.09648443758487701,-0.1738666594028473,-0.002586688846349716,-0.04469140246510506,-0.019085979089140892,-0.14364157617092133,0.5661818385124207,0.09180714190006256,0.14832496643066406,-0.11083439737558365,0.031574249267578125,-0.27785420417785645,-0.28447216749191284,0.17884792387485504,0.02609407715499401,0.16854806244373322,0.19403675198554993,0.009482147172093391,0.058135516941547394,-0.07268844544887543,-0.29416146874427795,-0.13640601933002472,0.03970035910606384,-0.22023406624794006,-0.051890160888433456,-0.13016065955162048,0.09780284017324448,-0.12777401506900787,0.18372905254364014,-0.3711913526058197,-0.13372987508773804,-0.011816524900496006,0.08598659932613373,0.2067149430513382,0.026761168614029884,0.09628854691982269,0.23895084857940674,-0.03336857259273529,0.47719982266426086,-0.10258805751800537,0.05463450402021408,0.45266878604888916,-0.03605212643742561,-0.07263889908790588,-0.18404951691627502,-0.15100477635860443,-0.09706437587738037,-0.14497491717338562,0.012320439331233501,0.07445360720157623,0.057749051600694656,0.3398512899875641,-0.21456634998321533,0.28288424015045166,-0.17708414793014526,-0.2311411201953888,0.011245238594710827,0.16178032755851746,-0.15293440222740173,0.024762220680713654,0.12997882068157196,-0.054091863334178925,0.04626042768359184,0.08023035526275635,0.24249283969402313,-0.1679285615682602,0.03898802027106285,0.2826780676841736,0.1740424484014511,0.10100870579481125,-0.09470244497060776,0.09764770418405533,-0.1217806488275528,-0.013000323437154293,0.16438710689544678,0.2948818802833557,-0.10926800221204758,0.3825300335884094],[-0.33789026737213135,-0.1444104015827179,0.24616466462612152,-0.036808207631111145,-0.28707143664360046,0.3295000195503235,0.24317944049835205,0.1777719408273697,-0.007772928103804588,-0.10483399778604507,0.20603543519973755,-0.08594391494989395,0.12345229089260101,0.20122525095939636,0.2013685256242752,-0.018651757389307022,-0.06294981390237808,-0.034129347652196884,0.05823177471756935,-0.0798783078789711,0.39455917477607727,-0.14614106714725494,0.07123617827892303,-0.15835413336753845,0.19114619493484497,-0.09270793944597244,0.45959970355033875,0.19457747042179108,-0.07144731283187866,0.16834117472171783,-0.06975244730710983,-0.15354502201080322,0.3085002303123474,0.26757141947746277,-0.20559877157211304,-0.07159972935914993,0.41661250591278076,-0.08147024363279343,-0.28955650329589844,-0.008558105677366257,0.41679084300994873,-0.15198661386966705,0.22503942251205444,-0.07553485035896301,0.17235736548900604,-0.057329121977090836,-0.25682535767555237,-0.13021725416183472,-0.1031685620546341,0.1720866858959198,0.09113921225070953,-0.006923684850335121,-0.002790505066514015,0.28407397866249084,0.03881657123565674,0.0591193288564682,-0.10279423743486404,-0.11984299123287201,0.03440103679895401,-0.06123484671115875,0.022576801478862762,-0.16587184369564056,0.22912153601646423,0.07078007608652115,0.01569262333214283,-0.18683390319347382,0.27824074029922485,0.13270922005176544,-0.11887625604867935,0.06176690384745598,-0.07683750241994858,-0.2713311016559601,0.1276032030582428,-0.26597830653190613,-0.07298192381858826,-0.06444571912288666,0.06257165223360062,0.08008162677288055,-0.22786679863929749,-0.08249961584806442,-0.24374711513519287,-0.09721565991640091,-0.19310186803340912,-0.20340462028980255,-0.019241228699684143,0.1858171671628952,0.0969986766576767,0.3072910010814667,0.16715878248214722,0.17807510495185852,-0.11484483629465103,0.04662058502435684,-0.07879588007926941,0.12939131259918213,0.041562825441360474,-0.009457951411604881,-0.05866585671901703,0.057463958859443665,0.024555057287216187,0.011546630412340164,-0.25820645689964294,-0.05535746365785599,0.012815035879611969,-0.11377274245023727,0.12688249349594116,-0.02654925361275673,0.20957916975021362,-0.0005058470414951444,0.04636712372303009,-0.4041725695133209,-0.09463184326887131,-0.22138668596744537,-0.034143514931201935,0.002764990786090493,-0.07958617061376572,0.030973734334111214,0.036589473485946655,0.08766064047813416,-0.22756411135196686,-0.07232765853404999,0.08467422425746918,0.10203404724597931,-0.3889267146587372,-0.20268689095973969,0.03512456640601158,-0.005467599257826805,-0.09586352109909058,0.13830026984214783,-0.04165070131421089,0.09266426414251328,-0.32494932413101196,-0.058770887553691864,-0.07930909842252731,0.20051103830337524,-0.3110070526599884,-0.3438672423362732,-0.05320873111486435,-0.024825794622302055,-0.005861823912709951,-0.11780234426259995,0.028369896113872528,-0.0704425573348999,-0.16314610838890076,-0.15542280673980713,0.1734267771244049,-0.24429473280906677,0.024225769564509392,-0.05565691366791725,-0.1422424465417862,-0.20741117000579834,0.05178153142333031,0.14559847116470337,-0.10703908652067184,0.09822816401720047,-0.39475756883621216,0.2016260027885437,0.22845980525016785,-0.010315059684216976,-0.08515497297048569,-0.004946399480104446,0.19752974808216095,0.023959768936038017,-0.04528644680976868,0.09806633740663528,0.41871941089630127,0.13408082723617554,-0.31032323837280273,-0.03721163794398308,0.012843849137425423,-0.2615223824977875,0.04660406336188316,0.03529186174273491,-0.15205933153629303,-0.09777311980724335,-0.0924035906791687,-0.3234449028968811,-0.05338011682033539,-0.013669786043465137,-0.03147429600358009,0.12145941704511642,-0.3955657184123993,0.08730697631835938,0.06298820674419403,-0.05478201061487198,0.08984716981649399,-0.0038803459610790014,0.11443957686424255,-0.11515114456415176,0.0395587682723999,-0.29335305094718933,-0.15419799089431763,-0.14987589418888092,0.17749661207199097,